SVM-light Version V6.02
0 # kernel type
3 # kernel parameter -d 
1 # kernel parameter -g 
1 # kernel parameter -s 
1 # kernel parameter -r 
empty# kernel parameter -u 
6000 # highest feature index 
300 # number of training documents 
249 # number of support vectors plus 1 
-0.22928396 # threshold b, each following line is a SV (starting with alpha*y)
-0.37174010422495340488779902443639 1:0.024462091 8:0.040362451 15:0.031800717 46:0.32901514 65:0.11864115 71:0.084394217 88:0.11007941 106:0.13087219 129:0.067270748 153:0.12842599 193:0.059932124 220:0.05626281 298:0.15533428 320:0.1590036 323:0.1590036 364:0.077055588 397:0.10274079 432:0.17245774 433:0.12475666 543:0.068493858 580:0.13209529 636:0.54550463 699:0.20792778 711:0.097848363 726:0.089286633 932:0.22138193 1339:0.073386274 1472:0.14065702 1478:0.1076332 1497:0.15166497 1529:0.14310323 1608:0.18101947 1642:0.12231046 1771:0.020792777 1826:0.042808659 1835:0.066047646 3590:0.13943392 3783:0.090509735 3822:0.039139345 3845:0.0097848363 3928:0.1076332 3963:0.14188012 4031:0.017123464 4285:0.11864115 4738:0.099071473 4819:0.14799565 5027:0.051370393 #
-0.12213475807794292593566609639311 1:0.083167978 2:0.24250031 3:0.40620989 4:0.15407962 5:0.12081242 6:0.066534378 11:0.071787097 14:0.09629976 19:0.067409828 20:0.056028951 24:0.2057313 37:0.080541618 43:0.08929614 58:0.08666978 63:0.04114626 85:0.10155247 93:0.084918879 168:0.2074822 243:0.10505428 252:0.37644452 285:0.10330338 290:0.13481966 341:0.10855609 360:0.10242793 452:0.091047049 453:0.04814988 487:0.09980157 613:0.046398975 694:0.1120579 712:0.067409828 781:0.16283414 849:0.15758142 850:0.20660676 1014:0.066534378 1150:0.025388118 1306:0.12431423 1422:0.073537998 1657:0.067409828 1729:0.038519904 1792:0.010505429 1801:0.036768999 1827:0.08579433 1856:0.08229252 1877:0.066534378 1994:0.058655307 2108:0.13832147 2112:0.27664295 2207:0.14532509 2453:0.056904405 2683:0.042021714 2692:0.010505429 3041:0.098050661 3287:0.14970236 5077:0.09279795 5974:0.1488269 #
0.2650448808325231997429227703833 1:0.006288189 7:0.18026142 9:0.17502126 10:0.08593858 14:0.048209447 15:0.047161419 44:0.14253229 53:0.15510866 169:0.062881887 193:0.090130709 297:0.11423543 324:0.13519606 335:0.27458426 432:0.23161496 498:0.11109134 543:0.11842756 769:0.066025987 923:0.08593858 1007:0.057641733 1144:0.078602359 1306:0.12471575 1313:0.014672441 1331:0.10689921 1403:0.093274802 1456:0.076506302 1478:0.051353544 1520:0.1467244 1526:0.045065355 1597:0.074410237 1686:0.098514959 1764:0.18026142 1799:0.45903781 1807:0.11213937 1894:0.073362201 1929:0.054497637 1958:0.06917008 2018:0.14462835 2237:0.082794487 2252:0.082794487 2850:0.050305512 2863:0.12785985 3001:0.11423543 3873:0.45484567 5343:0.14777245 5518:0.075458266 5866:0.08593858 #
-1 1:0.015795546 8:0.017111842 14:0.013162955 15:0.019744432 21:0.061865889 29:0.0881918 44:0.039488863 71:0.035539977 79:0.063182183 86:0.13821103 87:0.055284411 136:0.10135476 137:0.068447366 167:0.053968117 197:0.14215991 226:0.057917003 227:0.052651819 261:0.038172569 282:0.06976366 304:0.068447366 359:0.059233297 372:0.096089572 376:0.044754047 418:0.23824948 424:0.078977726 452:0.0881918 471:0.14215991 473:0.11188512 487:0.15795545 491:0.059233297 543:0.51993674 615:0.077661432 634:0.071079955 661:0.20139322 674:0.040805161 679:0.068447366 711:0.081610322 730:0.047386639 874:0.11978289 1008:0.11846659 1252:0.046070341 1305:0.13294585 1320:0.13557844 1381:0.22771911 1382:0.081610322 1444:0.052651819 1480:0.07371255 1497:0.14610881 1525:0.06976366 1648:0.11188512 1675:0.10267105 1687:0.053968117 1715:0.094773278 1716:0.042121455 1773:0.20797469 1803:0.18823026 1821:0.068447366 1827:0.1171503 1838:0.090824388 1841:0.060549591 1845:0.086875506 1857:0.040805161 1863:0.092140682 1876:0.034223683 1878:0.13689473 1897:0.086875506 2031:0.11320141 2271:0.048702933 2742:0.063182183 5689:0.14874139 5744:0.081610322 5982:0.12899695 5985:0.064498477 #
-0.3509826433378043786248667856853 1:0.0072912378 15:0.029164951 21:0.092051879 30:0.033721976 32:0.038279001 36:0.060152713 49:0.21509153 50:0.10025452 65:0.037367593 71:0.052861474 75:0.092963286 87:0.082026429 88:0.034633379 90:0.14764757 91:0.153116 99:0.044658832 106:0.041013215 128:0.22329417 142:0.060152713 162:0.091140471 166:0.041924618 169:0.027342143 170:0.030076357 220:0.10936857 242:0.041013215 256:0.064709738 279:0.039190404 330:0.093874685 357:0.029164951 388:0.084760644 390:0.041013215 432:0.054684285 543:0.23331961 564:0.053772882 567:0.089317665 589:0.063798331 593:0.50491822 598:0.13853352 636:0.21418011 694:0.12577386 705:0.051038668 828:0.10207734 930:0.071089573 990:0.084760644 1043:0.051950071 1051:0.071089573 1084:0.17590111 1199:0.23423102 1306:0.025519334 1445:0.1731669 1509:0.05924131 1726:0.039190404 1752:0.065621145 1783:0.15767302 1826:0.10754576 1840:0.054684285 2760:0.092963286 3335:0.041924618 3598:0.11848262 3719:0.040101808 3851:0.10207734 4083:0.088406257 4106:0.088406257 4646:0.061975524 4811:0.042836022 5221:0.27524424 5330:0.037367593 5346:0.037367593 5507:0.11210278 #
0.89802594492517606727943757505273 1:0.028887887 4:0.040841494 8:0.024903351 10:0.068733245 15:0.037853092 31:0.056779642 51:0.068733245 79:0.044826031 81:0.070725515 106:0.078694589 149:0.053791236 168:0.081682988 204:0.14145103 226:0.081682988 261:0.054787371 285:0.06176031 312:0.13148969 314:0.092640467 320:0.05179897 322:0.081682988 360:0.040841494 371:0.048810568 372:0.068733245 479:0.055783506 481:0.071721651 543:0.11555155 607:0.12152835 613:0.21616109 661:0.02191495 876:0.11754382 1306:0.14842397 1430:0.11057088 1478:0.03486469 1480:0.10857861 1593:0.089652061 1597:0.090648197 1641:0.075706184 1656:0.071721651 1968:0.13049355 2017:0.042833764 2132:0.10459407 2198:0.80487633 2356:0.14543557 2460:0.064748712 2698:0.023907216 5969:0.084671393 #
0.83557460315184850507819191989256 1:0.0040040961 10:0.014014337 15:0.020020481 17:0.060061444 23:0.028028674 24:0.051052228 27:0.057058372 38:0.02202253 54:0.031031746 63:0.02702765 77:0.021021506 86:0.14614952 168:0.034034818 196:0.020020481 224:0.03703789 248:0.10911162 261:0.023023553 266:0.03903994 318:0.029029697 488:0.11912186 1068:0.1081106 1305:0.074075781 1476:0.11311572 1478:0.046047106 1623:0.09910138 1626:0.085087046 1656:0.030030722 1690:0.040040962 1696:0.063064516 1725:0.09109319 1796:0.031031746 1856:0.1081106 1998:0.067068614 2041:0.88790834 2176:0.092094213 2268:0.11111367 2855:0.10911162 3075:0.089091145 5478:0.094096266 5638:0.063064516 5742:0.062063493 5952:0.080081925 #
0.54111508478920133935474723330117 1:0.021592751 8:0.0084493374 9:0.047879577 10:0.012204599 14:0.065717071 15:0.022531567 16:0.020653935 17:0.049757209 19:0.018776305 21:0.091065079 22:0.039430242 23:0.046940763 24:0.056328915 27:0.023470381 36:0.059145361 43:0.024409197 44:0.019715121 55:0.027225643 63:0.022531567 69:0.020653935 73:0.027225643 74:0.028164458 76:0.038491424 81:0.024409197 88:0.022531567 123:0.020653935 126:0.026286827 127:0.051634841 136:0.074166402 140:0.03755261 149:0.055390101 154:0.028164458 191:0.030042088 196:0.050696023 224:0.061961807 225:0.029103274 235:0.027225643 258:0.015021044 283:0.048818395 298:0.096697971 330:0.061961807 360:0.049757209 372:0.023470381 407:0.061961807 543:0.12204599 554:0.045063134 559:0.07510522 580:0.03379735 603:0.016898675 652:0.16804793 661:0.061961807 673:0.096697971 674:0.019715121 694:0.095759153 697:0.030042088 700:0.060084175 701:0.10045324 827:0.046940763 1020:0.14457755 1120:0.026286827 1134:0.13894466 1176:0.030042088 1194:0.089187451 1195:0.072288774 1290:0.67970222 1296:0.16992556 1305:0.034736164 1306:0.051634841 1322:0.10608613 1377:0.044124316 1403:0.042246688 1421:0.068533517 1589:0.040369056 1642:0.070411146 1652:0.038491424 1656:0.048818395 1675:0.050696023 1702:0.0093881525 1704:0.030980904 1712:0.061961807 1721:0.03755261 1733:0.10890257 1752:0.14927162 1764:0.049757209 1771:0.047879577 1809:0.14363873 1811:0.061022993 1823:0.061961807 1847:0.095759153 1849:0.093881525 1857:0.040369056 1860:0.17368083 1874:0.047879577 1884:0.035674982 1888:0.12392361 1934:0.064778253 2159:0.098575599 2182:0.043185502 2230:0.094820343 2533:0.12674005 2751:0.13988347 3466:0.056328915 5654:0.023470381 5729:0.1905795 #
0.36696592513785608602461252303328 1:0.026297171 10:0.022790881 12:0.16216588 15:0.012272012 22:0.14989386 23:0.08941038 24:0.10781839 57:0.054347485 63:0.021037735 64:0.038569182 73:0.052594341 110:0.052594341 112:0.10080582 126:0.050841194 145:0.048211478 149:0.035062894 196:0.032433175 204:0.046458334 245:0.059606917 258:0.028926887 347:0.063113205 360:0.013148585 409:0.091163523 428:0.034186322 543:0.16567217 598:0.063113205 694:0.026297171 1099:0.032433175 1104:0.03769261 1266:0.071878932 1287:0.065742925 1349:0.17093161 1421:0.13762185 1570:0.058730345 1660:0.23141509 1729:0.1551533 1771:0.14025158 1814:0.08678066 2444:0.1139544 2801:0.077138364 2825:0.15427673 3094:0.78540879 5025:0.029803459 5279:0.11307783 5751:0.054347485 5960:0.074508645 #
0.5279687332722048376254520007933 1:0.019492928 12:0.053837609 14:0.012067051 15:0.012067051 18:0.035272919 24:0.10674699 27:0.090967 38:0.034344681 41:0.11138816 51:0.0454835 107:0.050124671 161:0.076115243 194:0.23113044 205:0.2515516 249:0.096536405 258:0.028775275 359:0.054765847 372:0.0454835 529:0.085397586 543:0.23391514 609:0.096536405 994:0.0454835 1099:0.064048193 1114:0.07889995 1382:0.12902462 1421:0.058478784 1441:0.041770559 1473:0.061263487 1522:0.068689361 1542:0.13366579 1626:0.10210581 1775:0.040842324 1776:0.13552226 1879:0.048268203 1885:0.070545837 1891:0.099321112 2186:0.64048189 2202:0.085397586 2228:0.37500679 2298:0.059407018 2473:0.1206705 2520:0.12531167 3080:0.02599057 3086:0.05198114 3440:0.055694081 3453:0.11138816 5442:0.043627027 5575:0.033416446 5591:0.11695757 5915:0.11231639 #
-0.9718938279706826888215687176853 1:0.017936824 15:0.011658935 38:0.066366248 60:0.090580955 89:0.15066931 129:0.12286723 258:0.10851778 294:0.089684114 360:0.051119946 371:0.045738898 432:0.091477796 627:0.27174288 648:0.073540971 957:0.11300199 1006:0.038564168 1103:0.059191518 1204:0.10044621 1623:0.08699359 1660:0.19461453 1662:0.076231495 1685:0.11031146 1723:0.15246299 1725:0.070850454 1776:0.0026905234 1814:0.093271479 2234:0.3596333 2272:0.11748619 2319:0.060088359 2377:0.077128336 2412:0.052913629 3255:0.097755685 3311:0.24483763 3325:0.48877841 5328:0.11300199 5468:0.10134305 5713:0.10851778 5882:0.45828584 #
-0.81121421895194034679121841691085 1:0.0060139624 15:0.0060139624 46:0.040093083 47:0.12328623 81:0.04209774 122:0.0481117 126:0.046107046 164:0.054125663 352:0.067155913 431:0.044102393 492:0.081188492 580:0.069160573 582:0.12128158 677:0.060139626 694:0.077179186 706:0.03407912 767:0.075174533 891:0.089207113 940:0.07316988 993:0.08419548 1095:0.0701629 1150:0.046107046 1176:0.05212101 1204:0.14834441 1305:0.030069813 1382:0.051118683 1591:0.097225726 1607:0.14834441 1687:0.046107046 1695:0.44102392 1697:0.48412398 1775:0.1403258 2887:0.057132646 3238:0.05512799 4118:0.097225726 4222:0.075174533 4678:0.13631648 4933:0.11526762 4965:0.11526762 5493:0.098228052 5521:0.5512799 5527:0.08419548 #
-1 1:0.014530191 10:0.05230869 13:0.10946077 15:0.028091703 23:0.10268002 24:0.18501776 35:0.10171134 63:0.04940265 86:0.13561513 117:0.12689701 126:0.11527285 196:0.14820795 281:0.16273814 304:0.14917663 321:0.072650954 406:0.12302229 432:0.13464645 543:0.10074266 560:0.079431713 580:0.028091703 640:0.035841137 652:0.10461738 667:0.10752342 673:0.28188571 823:0.077494353 994:0.10461738 1039:0.084275112 1099:0.074588314 1404:0.088149831 1488:0.035841137 1606:0.021310948 1775:0.12302229 1807:0.11430417 2246:0.13561513 2581:0.064901523 2684:0.11430417 2949:0.080400392 3095:0.00096867944 3190:0.13077173 3754:0.14045851 4204:0.66451406 4596:0.084275112 5022:0.12108493 5088:0.11139813 5754:0.037778497 5817:0.13270909 5921:0.090087183 #
-1 1:0.024669494 8:0.02114528 9:0.059911627 10:0.058736891 14:0.097503237 15:0.024669494 22:0.048164248 25:0.076357961 31:0.14566749 32:0.062261105 41:0.072833747 53:0.052863203 56:0.049338989 61:0.12804642 62:0.056387413 63:0.028193707 69:0.051688462 93:0.057562154 106:0.066960052 141:0.078707434 142:0.098677978 149:0.045814775 150:0.057562154 184:0.10337692 263:0.059911627 284:0.093979023 359:0.21615176 373:0.090454809 385:0.070484266 491:0.071659006 543:0.05403794 601:0.10925061 619:0.11629904 631:0.18795805 652:0.058736891 669:0.31835395 691:0.11394957 767:0.090454809 876:0.052863203 1138:0.088105336 1239:0.099852711 1252:0.056387413 1305:0.17386119 1306:0.12687169 1380:0.16328855 1434:0.17856015 1480:0.21027806 1488:0.030543184 1523:0.21732649 1579:0.21732649 1614:0.095153764 1642:0.099852711 1650:0.18560858 1660:0.14801696 1755:0.097503237 1773:0.036416873 1799:0.077532694 1811:0.07518322 1839:0.057562154 1868:0.082231648 2243:0.33480027 2280:0.1397938 5171:0.12452221 5453:0.11042535 5510:0.084581122 5578:0.063435845 5603:0.14801696 5630:0.13509485 5652:0.14566749 #
-0.61609843089583071762405097615556 1:0.067257822 8:0.053611305 15:0.020469772 30:0.071156822 38:0.058485061 46:0.21834423 71:0.11112162 83:0.23394024 94:0.15596016 108:0.093576096 115:0.054586057 294:0.0497123 298:0.10332361 323:0.10527311 400:0.11112162 406:0.093576096 543:0.031192033 576:0.28755155 588:0.11989437 627:0.11989437 683:0.092601344 948:0.081879087 969:0.11014687 1099:0.16180867 1206:0.090651847 1305:0.12964189 1352:0.11599537 1382:0.061409313 1409:0.073106326 1419:0.46300673 1567:0.036065787 1660:0.10527311 1696:0.16668242 1800:0.076030582 1856:0.11502062 1896:0.050687052 1902:0.074081078 2014:0.13061664 2059:0.083828583 2060:0.16765717 2255:0.053611305 2334:0.43083996 2423:0.072131574 5950:0.12379338 5970:0.17642993 #
0.87111694945069362283618374931393 1:0.023038529 10:0.045155518 14:0.024881613 15:0.037783187 18:0.070037127 36:0.15113275 40:0.18430823 53:0.081095621 55:0.20734677 63:0.042390894 67:0.089389496 74:0.10782032 78:0.10782032 81:0.093075663 86:0.074644834 123:0.077409461 179:0.16956358 360:0.026724694 418:0.074644834 432:0.059900176 453:0.11058494 475:0.068194047 487:0.080174081 543:0.41008583 550:0.090311036 645:0.12901576 701:0.12809423 715:0.14007425 716:0.092154115 1027:0.056214012 1080:0.020273905 1089:0.13638809 1170:0.094918743 1176:0.11519264 1178:0.15758353 1347:0.16956358 1401:0.059900176 1442:0.03041086 1520:0.065429427 1660:0.023038529 1726:0.09860491 1773:0.55937552 1855:0.12717268 1992:0.095840283 2193:0.039626271 2547:0.1096634 2677:0.12440806 3134:0.17509283 4827:0.080174081 5430:0.09952645 #
0.73943540397783991124924796167761 1:0.015189613 13:0.17959483 15:0.023231173 18:0.066119492 28:0.22337666 40:0.26001042 45:0.10185976 86:0.057184424 92:0.086670145 117:0.10364677 142:0.2153351 193:0.089350663 207:0.16708574 218:0.12241041 263:0.087563649 269:0.066119492 365:0.0080415597 369:0.11972989 376:0.078628585 432:0.11079482 445:0.0402078 487:0.14028054 543:0.29038966 598:0.083096117 649:0.044675332 706:0.071480528 794:0.44228578 975:0.070587024 1006:0.04824936 1263:0.13402599 1480:0.21801563 1498:0.044675332 1597:0.087563649 1607:0.30647278 1715:0.084883131 1733:0.13045196 1804:0.1626182 1821:0.12241041 1856:0.054503907 1866:0.062545463 1909:0.058971439 1912:0.11794288 1987:0.11704937 2200:0.090244174 2327:0.098285727 2879:0.085776635 3037:0.084883131 3731:0.086670145 4230:0.067012995 5334:0.11168833 5342:0.12598443 5741:0.05539741 #
0.59324111651666122657644564242219 40:0.18832241 61:0.20150499 193:0.09698604 312:0.061204784 375:0.390769 418:0.15348276 432:0.3267394 543:0.18643919 577:0.075328968 661:0.060263172 889:0.074387357 984:0.071562521 1105:0.11958473 1263:0.077212192 1305:0.089453146 1387:0.15913244 1499:0.063088007 1520:0.10546055 1622:0.48775506 1807:0.10828539 1855:0.077212192 1856:0.12994246 2187:0.063088007 2368:0.074387357 2393:0.11016861 2506:0.051788665 2728:0.068737678 2797:0.12240957 3160:0.041430932 3327:0.083803475 3624:0.028248362 4001:0.09133637 4927:0.3992435 5379:0.067796066 5773:0.077212192 #
0.71848178273574736518725103451288 1:0.0016421844 10:0.021348398 13:0.13630131 15:0.012316383 22:0.036128059 25:0.056655362 28:0.22744255 39:0.05501318 40:0.044338979 57:0.051728811 63:0.04105461 68:0.054192089 151:0.072256118 222:0.059939735 346:0.099352159 349:0.086214684 432:0.093604513 540:0.037770241 543:0.45899054 568:0.055834271 694:0.070613936 696:0.14040677 832:0.067329563 1005:0.070613936 1099:0.031201504 1478:0.096067794 1496:0.072256118 1702:0.08210922 1715:0.12891148 1717:0.10345762 1738:0.22497927 3916:0.11331072 4119:0.072256118 4311:0.032022595 4367:0.13219585 4463:0.5098983 4474:0.097709976 4494:0.10427871 4503:0.080467038 4543:0.41629377 4625:0.10099434 4643:0.10345762 4644:0.10099434 #
0.49605155696996638958751191239571 1:0.033051424 14:0.041314282 15:0.04682285 18:0.19004568 24:0.20381711 39:0.061971422 40:0.049577136 59:0.050954279 62:0.095022842 86:0.068857133 95:0.072988562 123:0.041314282 193:0.050954279 230:0.064725704 252:0.071611419 261:0.038559996 360:0.044068567 425:0.10190856 489:0.071611419 543:0.38697711 598:0.097777128 624:0.45445707 655:0.10603999 679:0.070234276 694:0.068857133 722:0.1129257 730:0.048199993 839:0.08125142 960:0.097777128 994:0.099154271 1104:0.026165711 1120:0.055085707 1121:0.10741713 1137:0.18040569 1140:0.057839993 1162:0.061971422 1177:0.15286283 1370:0.18453711 1382:0.15423998 1513:0.079874277 1523:0.090891413 1534:0.19830854 1558:0.14459999 1565:0.050954279 1606:0.026165711 1660:0.11430284 1705:0.071611419 1726:0.16250284 1740:0.086759992 1761:0.15974855 1807:0.099154271 1830:0.14735426 1834:0.068857133 2078:0.090891413 2270:0.097777128 2724:0.17627427 2732:0.0013771427 3000:0.0082628559 5190:0.064725704 5706:0.1129257 5708:0.05646285 5911:0.16938855 5935:0.053708564 #
-1 1:0.012615941 14:0.017121634 15:0.0081102476 32:0.12706055 53:0.054068319 77:0.090113863 86:0.068486534 117:0.072992228 158:0.099125251 228:0.091916144 269:0.045958072 360:0.018022772 543:0.59475148 637:0.1027298 716:0.08650931 718:0.095520698 825:0.081102476 1109:0.091015004 1366:0.045958072 1382:0.077497922 1626:0.14237991 1642:0.082003616 1729:0.06488198 1801:0.060376287 2652:0.038748961 2857:0.14237991 3374:0.08650931 3753:0.13066511 4251:0.13517079 5634:0.17662317 5783:0.12345599 5893:0.33432242 5913:0.16761179 5975:0.50193423 #
-1 1:0.0083049797 15:0.0055366531 29:0.035065468 33:0.035065468 47:0.02860604 50:0.07197649 54:0.041524898 70:0.084895343 75:0.10058253 81:0.079358689 120:0.044293225 133:0.053520977 157:0.049829874 170:0.032297142 216:0.071053714 225:0.047984324 227:0.041524898 231:0.15041241 284:0.061825957 320:0.059057631 432:0.063671507 501:0.17163624 511:0.06920816 530:0.052598201 543:0.47615215 583:0.043370448 598:0.11257861 692:0.27221876 707:0.053520977 709:0.059057631 711:0.033219919 720:0.055366527 788:0.096891426 790:0.094123103 793:0.091354772 840:0.16056293 888:0.07289926 890:0.08212702 952:0.068285383 971:0.095045872 975:0.031374365 1094:0.064594284 1129:0.083049797 1237:0.068285383 1250:0.057212081 1267:0.063671507 1306:0.11073305 1333:0.11165583 1456:0.13103412 1480:0.10427363 1493:0.071053714 1575:0.06274873 1579:0.10704195 1593:0.050752651 1660:0.066439837 1719:0.013841632 1856:0.084895343 2157:0.098736979 2169:0.12272914 2170:0.12272914 2183:0.091354772 2277:0.063671507 2381:0.1051964 2389:0.1051964 2397:0.13103412 2428:0.079358689 2583:0.07289926 2600:0.07289926 2605:0.096891426 2779:0.1015053 2787:0.10981029 2799:0.27314153 2810:0.10242808 2893:0.067362607 3184:0.08858645 3220:0.011073306 3493:0.08212702 3694:0.15779461 4638:0.080281466 5038:0.086740896 5260:0.099659748 5306:0.099659748 5391:0.092277549 5423:0.14856686 5677:0.11719248 5726:0.078435913 5749:0.090431996 #
-1 1:0.016688859 8:0.03245056 10:0.046357941 15:0.025033288 35:0.090861566 38:0.071391232 63:0.043576464 86:0.095497362 88:0.089007244 96:0.19006756 142:0.077881344 196:0.13165656 222:0.12794791 269:0.1418553 312:0.029669082 337:0.094570197 418:0.076027021 432:0.091788724 445:0.049139418 475:0.10291463 543:0.33285001 598:0.07231839 809:0.045430783 917:0.33006853 919:0.10940474 943:0.099205993 1061:0.089007244 1076:0.11774917 1421:0.11960348 1489:0.042649306 1529:0.23178971 1642:0.11682201 1643:0.43020168 1660:0.063973956 1729:0.083444297 3652:0.11867633 3773:0.10755042 3794:0.0055629527 3870:0.10106031 3930:0.088080086 3950:0.088080086 4093:0.055629529 4532:0.11960348 4937:0.45987079 #
-1 85:0.23689051 97:0.23689051 99:0.25104731 108:0.10004141 130:0.098153837 178:0.21046448 406:0.10004141 432:0.12269229 543:0.33221298 1104:0.055683427 1191:0.047189344 1214:0.077390522 1382:0.13496153 1421:0.23405915 1497:0.12646744 1533:0.172713 1642:0.048133131 1646:0.29729286 1794:0.14251181 1807:0.13496153 1816:0.040582836 1818:0.077390522 1855:0.085884608 2822:0.0934349 2823:0.0934349 3322:0.10381656 3359:0.5379585 3365:0.06040236 3386:0.12080472 5016:0.11702958 5313:0.037751477 #
-1 1:0.0019296157 15:0.0086832708 91:0.05595886 230:0.17173581 350:0.095515981 391:0.098410405 432:0.2190114 543:0.30294967 558:0.12928426 580:0.1582285 598:0.11095291 694:0.17559505 712:0.11770657 717:0.045345969 801:0.11674175 841:0.25181487 944:0.090691939 1049:0.14086196 1209:0.037627507 1305:0.07236059 1309:0.035697892 1405:0.033768278 1417:0.048240393 1478:0.056923665 1642:0.0038592315 1684:0.12349541 1685:0.084903099 1743:0.070430979 2046:0.13314348 2452:0.10709368 2648:0.062712513 2903:0.16305253 2937:0.11770657 4054:0.17270061 4056:0.17270061 4928:0.10226963 5539:0.42355067 5644:0.15726368 5851:0.079114251 5860:0.15436926 5886:0.082008675 5930:0.41969144 #
0.65741437206691288874793599461555 1:0.0082431855 8:0.021065919 9:0.06136594 10:0.030225014 14:0.033888653 15:0.0082431855 22:0.049459115 36:0.10075005 41:0.22348192 51:0.060450029 72:0.079684131 77:0.044879567 94:0.062281847 249:0.12914324 264:0.08243186 359:0.14837734 369:0.084263675 432:0.17951827 610:0.013738643 652:0.06136594 826:0.12822734 916:0.081515945 1071:0.46161839 1305:0.049459115 1382:0.075104579 1504:0.027477287 1513:0.076936401 1642:0.192341 1752:0.10990915 1771:0.033888653 1856:0.054954574 3384:0.06136594 3550:0.192341 3566:0.033888653 3645:0.1337228 3669:0.14196599 3961:0.081515945 4239:0.068693213 4509:0.097086415 4624:0.62556624 4791:0.091590956 4813:0.065945484 4828:0.13189097 #
0.17100864264271881109991113589786 1:0.012422117 9:0.36310807 14:0.099376939 67:0.35259703 86:0.029621974 192:0.15002096 360:0.10606577 432:0.18824287 543:0.028666425 729:0.10702132 986:0.098421395 1047:0.70710516 1083:0.10319913 1089:0.095554754 1179:0.098421395 1305:0.090777017 1660:0.12231008 1781:0.053510662 3072:0.094599202 3280:0.056377303 3298:0.067843877 3613:0.12899892 4234:0.092688113 4249:0.057332851 4272:0.028666425 4566:0.083132632 4805:0.08599928 4921:0.15384315 5281:0.046821829 #
0.54751762032740491914495351011283 1:0.0034190158 9:0.05043048 14:0.013676063 15:0.0068380316 17:0.052994743 21:0.12821309 25:0.065816052 27:0.05043048 68:0.062397037 79:0.03248065 123:0.042737696 143:0.19744816 169:0.049575727 193:0.026497371 276:0.09487769 360:0.014530817 396:0.068380311 432:0.12137506 543:0.014530817 605:0.16496751 678:0.064106546 719:0.29916388 820:0.054704253 866:0.047866222 970:0.28634256 974:0.10257047 987:0.070089824 1240:0.17351505 1305:0.21796225 1322:0.076927856 1421:0.052994743 1544:0.076927856 1549:0.13505112 1625:0.098296702 1626:0.048720974 1660:0.054704253 1757:0.086330146 1816:0.092313424 1822:0.065816052 1846:0.018804586 2813:0.51969039 3070:0.11197276 3096:0.058978021 3111:0.036754418 3115:0.097441949 3377:0.086330146 3545:0.027352126 3912:0.047866222 4657:0.41797468 4762:0.069235072 4942:0.026497371 4955:0.10598949 5244:0.13676062 5676:0.077782609 #
0.94837533381952754396593263663817 1:0.0028129027 15:0.012189245 35:0.087199986 86:0.01781505 130:0.055320419 142:0.074073106 193:0.046881713 196:0.062821493 220:0.082511812 222:0.12283009 321:0.061883859 432:0.040318273 668:0.12001719 673:0.24003437 694:0.17158706 876:0.10876557 974:0.088137619 1061:0.014064514 1099:0.062821493 1480:0.086262353 1597:0.070322566 1726:0.12751825 3309:0.083449446 3867:0.85043424 5132:0.12095482 5161:0.11720428 5715:0.16221072 5804:0.076886006 5808:0.0046881712 5904:0.07219784 #
0.33965280083661408827566674517584 1:0.016578389 7:0.081049897 9:0.079207852 14:0.022104518 15:0.011052259 51:0.078286834 63:0.073681727 67:0.077365816 117:0.094865225 140:0.12341689 193:0.040524948 263:0.080128878 333:0.13262711 336:0.13723221 360:0.046051078 371:0.12157485 381:0.14183733 398:0.10775953 432:0.066313557 544:0.41445971 633:0.090260118 676:0.18973045 713:0.051577207 902:0.170389 1100:0.18236227 1198:0.16946797 1418:0.037761886 1478:0.11328565 1497:0.071839683 1660:0.081049897 1671:0.12249587 1818:0.067234576 1834:0.10868055 1842:0.089339092 3172:0.091181137 3640:0.11789076 3667:0.43380117 3714:0.059866402 3890:0.081049897 4536:0.080128878 4824:0.049735166 4867:0.11604872 4979:0.11420668 5055:0.44485343 5224:0.070918664 5233:0.019341454 5286:0.11328565 #
-0.87633259737433899516645396943204 1:0.022054236 32:0.32451233 53:0.27410266 90:0.31611073 162:0.38857466 248:0.11447199 432:0.36021921 516:0.39277545 694:0.14177723 1305:0.13442582 1340:0.14702825 1488:0.13442582 1597:0.19848813 1615:0.10502017 1672:0.1228736 1773:0.18903631 1807:0.072463922 1856:0.11027119 2141:0.073514126 2890:0.0042008068 2951:0.15332946 3456:0.099769168 4218:0.078765132 5322:0.10502017 5716:0.10291977 5747:0.088216946 #
-1 1:0.035712123 8:0.079145789 14:0.03088616 15:0.01544308 22:0.09169329 31:0.09169329 63:0.052120395 108:0.072389439 130:0.055981167 149:0.086867325 154:0.26735833 213:0.11389272 237:0.092658482 244:0.16601311 317:0.11485791 360:0.099414825 371:0.045364048 385:0.11003195 432:0.09169329 487:0.10810156 543:0.00096519251 573:0.059841935 580:0.050190009 643:0.12064906 674:0.094588868 694:0.046329241 775:0.087832518 870:0.060807128 1305:0.089762904 1456:0.06949386 1457:0.046329241 1619:0.13030098 1656:0.1158231 1674:0.024129814 1682:0.022199428 1726:0.012547502 1789:0.14284849 1855:0.11775348 1856:0.10617118 2038:0.036677316 2044:0.71134686 2512:0.10134521 3700:0.13995291 3920:0.30982679 4662:0.032816544 5207:0.090728097 #
-0.71579568088558731542292434824049 1:0.0038053875 8:0.021880979 14:0.0057080812 15:0.011416162 23:0.03995657 29:0.056129467 33:0.019026939 49:0.13794529 54:0.021880979 60:0.021880979 67:0.019978285 70:0.044713303 102:0.059934855 105:0.031394448 107:0.022832325 118:0.037102528 123:0.017124245 134:0.019978285 145:0.021880979 148:0.025686366 152:0.065642938 164:0.026637712 170:0.017124245 187:0.077059098 189:0.028540406 213:0.020929631 221:0.047567345 223:0.029491754 225:0.025686366 241:0.052324079 258:0.025686366 261:0.032345794 266:0.056129467 286:0.0304431 287:0.039005224 292:0.03995657 295:0.041859262 310:0.025686366 322:0.023783673 344:0.052324079 356:0.038053878 360:0.0057080812 363:0.03329714 380:0.041859262 399:0.087523915 412:0.088475265 417:0.037102528 432:0.059934855 442:0.071351014 480:0.024735019 487:0.062788896 517:0.038053878 535:0.040907916 582:0.059934855 600:0.040907916 608:0.039005224 623:0.032345794 636:0.024735019 651:0.032345794 674:0.017124245 694:0.10274547 711:0.069448322 727:0.032345794 745:0.11225893 822:0.047567345 885:0.085621223 896:0.073253714 975:0.017124245 976:0.18551265 989:0.06849698 991:0.048518691 1003:0.0304431 1078:0.039005224 1081:0.041859262 1104:0.11035624 1117:0.043761957 1162:0.025686366 1206:0.084669873 1237:0.036151182 1257:0.084669873 1280:0.055178121 1456:0.092280649 1478:0.12272375 1587:0.029491754 1604:0.042810611 1631:0.03424849 1658:0.026637712 1660:0.048518691 1680:0.13509126 1687:0.022832325 1710:0.098940074 1786:0.024735019 1833:0.032345794 1855:0.014270203 3204:0.036151182 3242:0.048518691 3243:0.097037382 3254:0.048518691 3366:0.12748048 3438:0.054226775 3475:0.054226775 3525:0.040907916 3535:0.11130758 3556:0.11130758 3575:0.087523915 3587:0.043761957 3711:0.052324079 3721:0.052324079 3723:0.11321028 3781:0.21215037 3876:0.058032162 3905:0.11606432 3908:0.058032162 3922:0.041859262 3924:0.058032162 3955:0.053275425 3977:0.053275425 4318:0.63549972 4506:0.082767181 4659:0.044713303 4746:0.10274547 4756:0.047567345 4785:0.042810611 4841:0.15316685 4880:0.1075022 5310:0.26066905 #
-0.98872836893883497833002138577285 1:0.0086904047 8:0.032830417 15:0.019312011 38:0.071454443 47:0.034761619 79:0.029933617 85:0.055039231 127:0.051176827 164:0.061798435 189:0.064695239 193:0.024140013 202:0.063729636 210:0.073385641 269:0.035727222 308:0.073385641 312:0.10042246 334:0.066626437 347:0.064695239 358:0.056970432 432:0.23367533 445:0.041520823 543:0.07048884 580:0.086904049 598:0.11876887 637:0.15932409 659:0.025105614 975:0.11490647 994:0.047314428 1417:0.020277612 1478:0.12166567 1489:0.059867233 1703:0.074351244 1726:0.065660834 1911:0.53494269 1972:0.30416417 2013:0.064695239 2023:0.083041646 2025:0.27423057 2091:0.11394086 2307:0.28388655 2590:0.43065783 2690:0.011587206 2763:0.058901634 5288:0.12456247 5574:0.026071215 5973:0.14870249 #
-1 1:0.0098694377 8:0.016778043 10:0.073033832 15:0.033556085 19:0.075007722 51:0.049347185 55:0.05526885 58:0.048360243 63:0.022699706 64:0.041451637 67:0.047373299 80:0.047373299 123:0.041451637 127:0.05329496 147:0.077968553 148:0.061190512 149:0.037503861 190:0.07105995 193:0.025660537 230:0.12731574 236:0.073033832 254:0.091785766 269:0.037503861 355:0.074020781 360:0.028621368 372:0.048360243 392:0.091785766 543:0.10658992 577:0.13422434 650:0.084877163 674:0.041451637 694:0.064151339 814:0.079942442 885:0.1016552 1049:0.10362909 1120:0.054281905 1162:0.061190512 1260:0.087837994 1305:0.088824935 1339:0.12534185 1369:0.051321074 1478:0.079942442 1488:0.10264215 1500:0.024673592 1502:0.28325284 1565:0.099681318 1690:0.068099119 1693:0.30299172 1729:0.087837994 1742:0.2033104 1773:0.029608311 1786:0.058229681 1845:0.044412468 3394:0.10264215 3510:0.11251158 3622:0.073033832 3637:0.036516916 3646:0.036516916 3738:0.081916332 3775:0.063164398 3787:0.094746597 3943:0.12040713 3959:0.14409378 4029:0.087837994 4310:0.61980069 4544:0.12731574 4843:0.11942019 5153:0.15692405 #
1 9:0.032658588 10:0.01542211 15:0.02177239 17:0.067131542 81:0.032658588 86:0.09434703 205:0.11884097 269:0.02449394 270:0.086182378 348:0.055338159 351:0.064409994 366:0.038101684 367:0.09434703 418:0.026308306 419:0.075296186 543:0.39643896 570:0.076203369 598:0.098882943 645:0.096161395 694:0.072574638 937:0.14514928 1101:0.04354478 1200:0.085275196 1306:0.04535915 1319:0.04535915 1359:0.15603547 1456:0.11430505 1478:0.063502803 1532:0.11611942 1562:0.077110551 1593:0.041730415 1597:0.022679575 1642:0.11249068 1660:0.11339787 1773:0.078924917 1847:0.00090718298 2384:0.659522 2472:0.046266332 2481:0.097068578 2502:0.059874076 3404:0.17327194 3436:0.055338159 3441:0.13517027 3495:0.079832099 3695:0.050802246 4287:0.2721549 5034:0.090718299 5565:0.088903926 5669:0.070760272 5879:0.093439847 5892:0.082553647 #
0.93079001038378750276791606665938 95:0.23697418 191:0.11064942 289:0.13923386 302:0.2913768 405:0.29783136 543:0.31442878 675:0.11802605 694:0.0064545497 865:0.55232501 897:0.06638965 1305:0.14845464 1382:0.10603903 1456:0.053480554 1478:0.028584434 1569:0.20470144 1644:0.11433773 1691:0.35592231 1753:0.0064545497 1820:0.019363649 3265:0.032272749 3289:0.047026005 3332:0.14015594 3759:0.059935104 3936:0.020285727 4009:0.16412997 4459:0.015675334 4496:0.11525981 4563:0.12816891 4796:0.099584483 4869:0.046103925 5138:0.037805218 #
0.68425807711256814158673478232231 7:0.072621197 9:0.14178424 15:0.0095099183 44:0.057924051 52:0.10201549 61:0.076079346 63:0.032852445 77:0.051872283 150:0.069163047 163:0.2066246 183:0.12881617 205:0.13054524 445:0.077808425 462:0.073485732 475:0.029394293 543:0.45215341 661:0.0060517662 694:0.19452107 712:0.051007744 876:0.042362366 1196:0.10633818 1458:0.11152541 1478:0.1158481 1497:0.068298504 1573:0.35618967 1598:0.2498515 1606:0.10201549 1642:0.030258832 1664:0.066569433 1737:0.12017079 2593:0.044091441 2900:0.049278669 2946:0.074350275 3148:0.52131647 4181:0.064840354 4907:0.20489553 5410:0.034581523 5504:0.042362366 5694:0.13746156 #
0.8925193010000933568903747072909 27:0.17290907 55:0.19571027 130:0.14155743 232:0.066503488 354:0.17385912 432:0.015200797 486:0.11780618 520:0.35341853 543:0.3638691 635:0.10070528 796:0.11875623 1185:0.077904083 1322:0.097855136 1377:0.061753239 1382:0.018050946 1496:0.28311485 1527:0.32871723 1617:0.0057002991 1646:0.2536633 1713:0.037051942 1933:0.049402591 1944:0.018050946 1965:0.13110688 2181:0.075053938 2854:0.083604388 4326:0.082654335 4481:0.12920678 5524:0.45032361 5964:0.15960838 5977:0.037051942 5979:0.14820777 #
0.53966708627779036433480541745666 1:0.0030008869 7:0.051015079 10:0.049014486 12:0.058017146 15:0.020005913 41:0.12103577 44:0.04101212 54:0.053015668 61:0.053015668 63:0.023006799 67:0.04801419 72:0.065019213 73:0.11303341 150:0.04801419 197:0.072021283 219:0.076022469 239:0.08902631 335:0.078023061 432:0.055016261 445:0.031009164 459:0.115034 543:0.35310435 580:0.09002661 598:0.11603429 679:0.070020691 1382:0.10002957 1497:0.076022469 1531:0.14204198 1597:0.077022761 1604:0.051015079 1623:0.034010053 1628:0.10303045 1675:0.052015372 1684:0.058017146 1701:0.67519957 1703:0.078023061 1737:0.084024832 1752:0.087025717 1811:0.063018627 2291:0.066019513 2559:0.13103873 2858:0.023006799 2878:0.083024539 3424:0.088026017 3473:0.088026017 3780:0.12003548 4036:0.31409281 4723:0.13604021 5197:0.036010642 5205:0.14404257 5272:0.11303341 #
-1 1:0.0062637269 8:0.015211908 9:0.042951271 15:0.0053689089 23:0.041161634 24:0.025054907 27:0.042056452 41:0.051899452 44:0.069795817 52:0.060847633 54:0.09037663 59:0.043846089 63:0.039371997 133:0.23444235 220:0.058163177 327:0.11722118 354:0.016106727 366:0.051004633 543:0.21386154 598:0.11543154 624:0.055478726 630:0.31766045 637:0.071585454 666:0.11185227 667:0.056373544 1275:0.063532084 1305:0.070690632 1382:0.066216543 1421:0.064426906 1430:0.11811599 1447:0.042951271 1587:0.059952814 1626:0.050109815 1661:0.066216543 1677:0.071585454 1779:0.076059543 1844:0.085902542 1845:0.038477179 1857:0.035792727 3446:0.091271453 3484:0.11901081 3725:0.10558854 3743:0.11990563 3938:0.20759781 3978:0.43577644 3983:0.15748799 4168:0.38835108 4233:0.067111358 4476:0.094850719 4661:0.084112905 4891:0.35076872 4995:0.07516472 5150:0.127959 5156:0.127959 5235:0.092166267 #
-0.37506948914897192404183101643866 1:0.019536648 14:0.06216206 15:0.015096501 30:0.10478748 80:0.11011565 88:0.32413074 89:0.13142836 113:0.12610018 127:0.12254806 130:0.060386002 156:0.12610018 166:0.25930458 175:0.25308838 181:0.079922646 260:0.13764456 296:0.4377985 403:0.071930386 432:0.040849354 435:0.1420847 470:0.097683236 543:0.25841656 598:0.038185265 694:0.15185302 702:0.21934327 706:0.18648618 1014:0.050617676 1377:0.11810791 1421:0.084362797 1443:0.11100368 1507:0.043513443 1642:0.093243092 1666:0.010656353 1668:0.21312706 1752:0.061274029 1773:0.13853259 1778:0.071930386 1820:0.10833959 1856:0.053281765 1981:0.046177529 2034:0.087914914 2218:0.07637053 2408:0.093243092 2585:0.064826146 3055:0.009768324 4592:0.077258557 4829:0.060386002 5549:0.12787624 5639:0.055057824 5818:0.21934327 #
-0.81510209651038889600016545955441 30:0.068364978 47:0.054507215 70:0.081298895 71:0.054507215 75:0.096080512 118:0.13303456 121:0.1718363 185:0.20879035 216:0.13672996 220:0.082222745 261:0.05912647 306:0.10254747 362:0.037877895 367:0.10993828 420:0.097004361 472:0.13118686 475:0.041573301 543:0.33258641 598:0.014781618 711:0.062821873 867:0.1321107 876:0.048964109 880:0.047116406 1050:0.072984233 1059:0.1321107 1382:0.17460786 1533:0.063745722 1540:0.31503323 1616:0.17460786 1774:0.56447303 1845:0.13395841 1855:0.1210245 1856:0.18199867 2619:0.035106342 2626:0.060974173 2636:0.047116406 2642:0.094232813 2785:0.12749144 3625:0.081298895 3746:0.025867831 3791:0.082222745 4886:0.16906475 4941:0.10624287 4996:0.083146602 #
-0.48535478464580944502060333434201 1:0.078347616 8:0.087052912 30:0.11403931 46:0.059195977 88:0.23678391 103:0.1375436 106:0.070512854 127:0.20109221 131:0.080959208 153:0.1375436 156:0.1375436 166:0.21327963 200:0.065289684 327:0.15234259 445:0.13057937 508:0.031339046 543:0.34734112 560:0.11752143 565:0.040914867 580:0.094017141 585:0.053972803 626:0.19238693 1128:0.072253913 1382:0.098369785 1456:0.1915164 1488:0.070512854 1642:0.083570793 1752:0.088793971 1767:0.070512854 1773:0.037432753 1801:0.049620159 1814:0.030468518 4071:0.074865505 4244:0.12187407 4303:0.096628733 4313:0.043526456 4316:0.043526456 4329:0.070512854 4393:0.042655926 4417:0.16365947 4421:0.04700857 4440:0.22198492 4489:0.054843333 4499:0.050490689 4508:0.54582173 4530:0.13144989 4550:0.092276081 #
-1 1:0.019032141 3:0.079753734 4:0.039876867 8:0.024469897 13:0.071597107 15:0.0090629244 20:0.044408333 24:0.08066003 31:0.11238027 38:0.052564964 61:0.073409691 77:0.050752379 81:0.069784522 96:0.069784522 149:0.052564964 150:0.067065641 167:0.075222276 237:0.098785877 263:0.069784522 317:0.046220917 324:0.086097784 329:0.10241105 372:0.067971937 399:0.11328655 432:0.11056768 543:0.3135772 568:0.087004073 578:0.040783159 816:0.12688094 1006:0.061627887 1045:0.079753734 1664:0.091535538 1752:0.12778723 1836:0.16041377 2480:0.096973293 2769:0.064346768 2866:0.053471256 2961:0.14319421 2976:0.071597107 3161:0.00090629247 3508:0.16041377 3615:0.55465096 3665:0.08066003 4709:0.12325577 4849:0.12597466 4887:0.085191488 5068:0.040783159 5074:0.065253057 5100:0.057096425 5502:0.03715799 5531:0.11509914 5557:0.077034861 5625:0.44498959 5647:0.11147397 5727:0.14953826 #
1 1:0.017423814 7:0.02738028 10:0.053516004 12:0.031113954 14:0.014934698 15:0.022402048 24:0.031113954 40:0.10827656 41:0.032358512 54:0.17174903 107:0.029869396 117:0.032358512 120:0.031113954 131:0.034847628 202:0.036092188 252:0.038581304 261:0.12694494 288:0.17548271 295:0.02738028 314:0.072184376 360:0.016179256 373:0.04107042 427:0.14561331 432:0.090852752 521:0.13316773 543:0.160548 580:0.16552624 583:0.098320097 590:0.097075537 592:0.049782328 627:0.04231498 634:0.039825864 667:0.14685787 694:0.097075537 730:0.077162609 889:0.032358512 895:0.052271444 908:0.062227909 975:0.043559536 1094:0.13441229 1186:0.10329833 1204:0.092097305 1382:0.15308066 1432:0.016179256 1483:0.160548 1520:0.099564657 1536:0.10827656 1548:0.22899871 1558:0.038581304 1564:0.037336744 1579:0.24517797 1588:0.30367219 1660:0.0087119071 1729:0.13192317 1737:0.046048652 1814:0.072184376 1824:0.18295005 1838:0.049782328 1839:0.078407168 1855:0.11574391 1856:0.20410755 1905:0.063472472 1918:0.12943405 1921:0.12943405 1977:0.32234058 2076:0.14187963 2148:0.073428936 2150:0.073428936 2151:0.073428936 2258:0.057249676 2290:0.13067861 2532:0.080896281 2752:0.072184376 3085:0.11823303 3439:0.018668372 3973:0.20784122 5509:0.078407168 5513:0.078407168 #
0.47097938486200341401399782625958 1:0.0029254402 10:0.071185708 15:0.029254401 21:0.090688646 22:0.058508802 36:0.059483949 37:0.066309974 44:0.058508802 52:0.10336556 56:0.060459096 63:0.10044011 77:0.15992406 110:0.082887471 232:0.02632896 432:0.14724715 463:0.080937177 694:0.049732484 710:0.077036589 975:0.1170176 1040:0.069235414 1306:0.050707631 1322:0.089713499 1421:0.06240939 1478:0.10531584 1678:0.041931309 1754:0.1628495 1787:0.042906456 1799:0.094589233 1812:0.1316448 1855:0.056558508 1856:0.15504833 2450:0.068260267 2588:0.12969451 2601:0.20868139 2621:0.096539527 2867:0.44466689 2871:0.13066965 3168:0.64749742 3588:0.085812911 3594:0.021453228 5814:0.18137729 #
-0.13595567221975737859374078198016 1:0.012363357 15:0.04945343 38:0.018545037 47:0.017514756 50:0.045332313 65:0.024726715 71:0.30084169 79:0.093755461 87:0.027817555 93:0.023696436 103:0.10817938 113:0.026787275 124:0.081392102 135:0.11127022 148:0.029878113 154:0.11539134 168:0.0865435 174:0.048423152 178:0.075210422 203:0.11642162 204:0.12363358 227:0.3667796 231:0.030908395 235:0.027817555 258:0.015454197 261:0.057695668 262:0.11023994 277:0.065937907 279:0.026787275 294:0.04945343 329:0.036059793 344:0.030908395 351:0.05254427 359:0.058725949 374:0.031938672 386:0.04327175 418:0.019575316 421:0.040180914 432:0.16175392 455:0.033999234 480:0.028847834 496:0.042241473 497:0.27302414 535:0.095816024 543:0.064907625 584:0.04327175 598:0.1174519 617:0.040180914 633:0.027817555 639:0.074180149 656:0.035029512 674:0.020605596 687:0.045332313 697:0.029878113 698:0.035029512 704:0.15866309 711:0.041211192 730:0.2349038 784:0.04945343 786:0.045332313 795:0.056665391 822:0.05563511 825:0.032968953 883:0.10817938 991:0.085513227 1004:0.044302031 1235:0.067998469 1237:0.042241473 1303:0.042241473 1316:0.082422383 1382:0.14320889 1398:0.04945343 1434:0.037090074 1453:0.19575316 1559:0.10508854 1608:0.038120352 1693:0.050483711 1709:0.063877344 1721:0.038120352 1742:0.066968188 1771:0.096846305 1773:0.089634344 1801:0.11436106 2142:0.053574551 2149:0.053574551 2154:0.053574551 2175:0.13599694 2259:0.071089305 2265:0.071089305 2380:0.06902875 2398:0.073149867 2431:0.044302031 2484:0.060786508 2563:0.12054273 2595:0.081392102 2687:0.047392871 2707:0.047392871 2756:0.056665391 2836:0.016484477 3211:0.15351169 3444:0.057695668 3460:0.23078267 3469:0.057695668 3572:0.14939058 3687:0.061816789 3692:0.061816789 5267:0.04636259 5290:0.05563511 5301:0.05563511 5307:0.04636259 5404:0.10302798 5755:0.050483711 5863:0.12672442 #
0.60507471710293558864179885858903 1:0.014904846 14:0.047695506 15:0.0059619383 21:0.055644758 24:0.07651154 51:0.043720882 53:0.077505201 63:0.019873127 76:0.069555946 78:0.05167013 81:0.044714537 107:0.096384667 115:0.012917533 123:0.07353057 182:0.056638412 196:0.030803347 243:0.052663788 269:0.032790661 280:0.083467133 304:0.061606694 314:0.058625728 360:0.063594006 432:0.14904846 554:0.082473479 624:0.056638412 694:0.13811824 889:0.098371983 1160:0.052663788 1510:0.12122608 1547:0.064587668 1857:0.036765285 2109:0.037758943 2133:0.13116264 2318:0.056638412 3149:0.028816035 3376:0.088435419 3383:0.11128952 3595:0.86050642 5274:0.10731489 5375:0.1252007 5467:0.15997867 5799:0.097378328 #
0.58996779888974104633092565563857 15:0.017369706 20:0.041687295 23:0.062530942 27:0.064267911 51:0.064267911 53:0.057320029 61:0.20843647 63:0.059925485 77:0.095533378 135:0.14069462 183:0.049503662 193:0.066873364 196:0.045161236 224:0.08337459 264:0.11116612 335:0.10161278 365:0.089453988 432:0.20583102 434:0.11724552 598:0.067741856 610:0.028660014 616:0.041687295 648:0.091190957 652:0.12940431 661:0.063399427 671:0.069478825 712:0.11116612 774:0.053846087 789:0.084243074 1002:0.10508672 1204:0.052977603 1218:0.11637703 1421:0.039081838 1446:0.15806432 1480:0.057320029 1492:0.12419339 1623:0.063399427 1642:0.10942914 1660:0.06861034 1770:0.011290309 1782:0.11029764 2524:0.10161278 2693:0.12853582 2705:0.29962742 2865:0.063399427 3135:0.12940431 3156:0.16588069 3429:0.19454071 3462:0.38908142 4825:0.029528501 4877:0.04602972 4989:0.48287782 5057:0.20409404 5243:0.031265471 5403:0.043424264 #
-1 87:0.22120032 542:0.059672646 543:0.12037413 563:0.1008262 640:0.16770071 967:0.097739674 972:0.057614967 1305:0.014403742 1686:0.11831645 1763:0.27058458 1795:0.34054562 1814:0.11522993 2036:0.07098987 2102:0.1460951 2140:0.56483245 2374:0.04732658 2426:0.076134063 3181:0.11522993 5345:0.12860484 5477:0.12963368 5540:0.11111458 5767:0.4598909 5853:0.084364772 5875:0.13066252 5883:0.13066252 #
-1 63:0.095186107 137:0.10768529 150:0.19902548 220:0.095186107 257:0.10191643 432:0.084609866 445:0.064418875 493:0.084609866 543:0.14229842 694:0.094224624 699:0.092301674 831:0.16152793 876:0.13749103 971:0.077879541 999:0.13076071 1421:0.037497558 1533:0.17306565 1678:0.119223 1729:0.088455774 1736:0.39805096 3666:0.067303307 3944:0.071149208 4040:0.084609866 4125:0.0057688546 4602:0.45189363 4668:0.11633857 4774:0.59130764 #
-0.60545352847902500492693889100337 1:0.006229952 15:0.0083066029 35:0.061261192 69:0.05503124 86:0.071644448 131:0.083066024 133:0.087219328 149:0.048801288 158:0.31045926 170:0.051916264 271:0.12252238 309:0.12044574 322:0.074759424 363:0.20247343 365:0.18170694 464:0.073721096 538:0.31565091 543:0.12563737 547:0.11629243 589:0.11213914 679:0.090334304 927:0.15471047 994:0.1266757 1000:0.14951885 1041:0.090334304 1099:0.044647988 1191:0.089295976 1328:0.0695678 1340:0.068529472 1353:0.079951048 1382:0.068529472 1428:0.086181 1480:0.092410952 1530:0.041533012 1558:0.092410952 1577:0.30942094 1596:0.01557488 1685:0.080989376 1726:0.019728182 1740:0.33434075 1775:0.1266757 1779:0.072682776 1948:0.072682776 1989:0.052954592 2002:0.053992916 2160:0.13602062 2188:0.1391356 2333:0.12148406 2345:0.082027704 2441:0.023881482 3025:0.15471047 3565:0.06229952 3904:0.10071755 4966:0.14121224 4974:0.07060612 5061:0.14432722 5406:0.11940741 5443:0.056069568 5492:0.10383253 5838:0.1765153 5903:0.17443866 #
-0.76523016430776236163069370377343 1:0.0085194577 15:0.019878736 42:0.050170142 86:0.033131227 88:0.047330324 91:0.041650683 121:0.056796387 235:0.055849779 284:0.078568332 287:0.092767432 288:0.084247977 309:0.093714036 376:0.045437109 401:0.087087795 432:0.20541359 464:0.084247977 476:0.087087795 538:0.24611768 543:0.15145703 558:0.049223535 577:0.05111675 694:0.035024438 706:0.040704079 928:0.10128689 952:0.087087795 1099:0.035024438 1184:0.064369239 1318:0.12873848 1322:0.078568332 1353:0.18742807 1379:0.14577739 1445:0.1173792 1521:0.035971045 1525:0.070048876 1546:0.20730682 1575:0.078568332 1577:0.080461547 1641:0.053956568 1675:0.052063353 1710:0.078568332 1805:0.069102272 1820:0.019878736 2514:0.053956568 2553:0.067209058 2649:0.055849779 2876:0.13915114 2894:0.052063353 2918:0.087087795 3286:0.14104436 3302:0.57269692 3352:0.089927614 4870:0.01609231 5054:0.017038915 5103:0.059636205 5131:0.04259729 5147:0.076675124 5165:0.05111675 5304:0.10696653 5344:0.1173792 5568:0.14293757 5573:0.14293757 5867:0.31238014 5870:0.13536473 5983:0.097500466 #
-0.98003649462954933735403528771712 1:0.030412605 15:0.0038015756 18:0.18532681 26:0.03421418 38:0.019958271 49:0.059874814 71:0.019958271 102:0.038966149 124:0.067477964 127:0.029462211 131:0.14065829 146:0.028511817 152:0.042767726 166:0.030412605 167:0.11784884 184:0.050370876 204:0.055122845 227:0.14445987 258:0.01710709 269:0.040866937 279:0.088386633 300:0.04181733 321:0.037065361 331:0.044668514 346:0.008553545 350:0.038966149 366:0.063676387 445:0.04181733 516:0.03421418 543:0.16631892 590:0.32313392 643:0.12830317 670:0.11024569 694:0.03421418 905:0.057023633 1006:0.11784884 1128:0.12165042 1205:0.084585056 1217:0.36305046 1274:0.066527575 1321:0.047519695 1323:0.059874814 1325:0.054172453 1382:0.066527575 1415:0.12640239 1456:0.1549142 1552:0.057023633 1651:0.057974026 1705:0.038966149 1707:0.16061656 1727:0.063676387 1813:0.092188209 1953:0.062725998 1959:0.072229937 2040:0.065577179 2126:0.067477964 2144:0.040866937 2155:0.040866937 2156:0.3269355 2465:0.11309687 2513:0.06082521 2906:0.057974026 2992:0.08363466 3033:0.10359293 3256:0.084585056 3260:0.16917011 3330:0.27561423 4196:0.071279541 4983:0.064626783 5143:0.24520162 5520:0.03421418 5536:0.025660634 5586:0.09503939 5646:0.058924422 5852:0.076031514 5878:0.080783479 5993:0.23379689 #
0.49392007347482524970416761789238 1:0.0041308817 7:0.033047054 15:0.021480585 21:0.080139101 24:0.037177935 38:0.023959113 50:0.028916171 59:0.033047054 63:0.029742347 111:0.051222932 115:0.11070763 120:0.036351759 147:0.050396755 150:0.031394701 229:0.10327204 240:0.43539491 261:0.050396755 291:0.080139101 310:0.039656464 322:0.037177935 333:0.028916171 360:0.019002056 369:0.087574691 418:0.025611466 430:0.11814322 443:0.54775488 487:0.051222932 543:0.3246873 590:0.15366879 638:0.075182043 661:0.080139101 674:0.026437642 694:0.10327204 701:0.044613522 720:0.045439698 785:0.076834396 858:0.063615575 1016:0.080965281 1018:0.080139101 1021:0.082617633 1022:0.079312928 1087:0.076834396 1099:0.044613522 1162:0.039656464 1263:0.061137047 1305:0.25115761 1420:0.06692028 1421:0.091705568 1543:0.043787345 1551:0.071051165 1556:0.051222932 1587:0.045439698 1641:0.034699406 1660:0.082617633 1664:0.028916171 1735:0.065267928 1755:0.052049108 1763:0.043787345 1856:0.16110438 2087:0.057832342 2147:0.084269986 2281:0.057006165 2616:0.065267928 2660:0.086748511 2706:0.068572633 2930:0.12805733 2964:0.05370146 3200:0.095836453 3205:0.039656464 4290:0.12392645 5040:0.038830288 5245:0.06692028 5295:0.037177935 5785:0.017349703 5793:0.069398813 5798:0.063615575 #
1 1:0.010591106 8:0.015405246 12:0.1001341 15:0.0057769674 59:0.044290081 60:0.13190742 61:0.045252912 66:0.046215739 84:0.056806844 139:0.057769671 232:0.067397952 377:0.05969533 418:0.034661803 425:0.043327253 432:0.051992707 490:0.073174916 533:0.14634983 543:0.17427185 688:0.060658157 694:0.18197447 700:0.42845839 714:0.14249852 963:0.060658157 1003:0.062583812 1195:0.12805611 1438:0.079914711 1442:0.079914711 1444:0.045252912 1456:0.011553935 1688:0.19063991 1697:0.16368073 1703:0.066435121 1734:0.13190742 1790:0.080877542 1794:0.079914711 1807:0.083766028 1820:0.076063402 3577:0.088580161 3778:0.58058518 3857:0.11168803 3931:0.021182213 3934:0.046215739 3991:0.092431478 4020:0.053918362 4146:0.091468647 4436:0.13094459 4460:0.1761975 4512:0.12420479 5011:0.075100571 5063:0.20700799 5092:0.078951888 #
1 1:0.014289963 5:0.14392035 18:0.15923102 135:0.010207117 312:0.1224854 321:0.14392035 360:0.0612427 450:0.13983749 543:0.23986724 598:0.09900903 605:0.10002974 674:0.1745417 749:0.091864049 1058:0.066346258 1317:0.052056294 1360:0.028579926 1382:0.12758896 1513:0.087781198 1597:0.11534041 1752:0.10002974 1856:0.087781198 2447:0.14289963 2564:0.067366965 2834:0.11636113 3518:0.097988315 3520:0.47361019 3686:0.057159852 3696:0.057159852 4623:0.054097716 4656:0.49912798 5007:0.41951248 5012:0.091864049 #
0.86983877563024381007750207572826 1:0.0064881435 10:0.014830042 13:0.060247045 14:0.01575692 15:0.012049409 24:0.034294471 59:0.030586962 64:0.049124513 86:0.053758901 115:0.1075178 117:0.035221349 149:0.022245063 196:0.020391308 261:0.023171941 357:0.023171941 360:0.025952574 419:0.071369573 435:0.037075106 459:0.067662068 491:0.035221349 543:0.24376881 688:0.041709494 705:0.041709494 711:0.074150212 824:0.049124513 994:0.028733205 1120:0.032440715 1225:0.10473717 1263:0.081565231 1341:0.052832022 1444:0.093614638 1566:0.034294471 1642:0.16405733 1660:0.046343882 1687:0.064881429 1695:0.043563247 1702:0.12976286 1706:0.05746641 1733:0.088053375 1764:0.029660083 1771:0.043563247 1773:0.08898025 1807:0.035221349 1834:0.039855737 1895:0.035221349 1899:0.070442699 2028:0.065808311 2095:0.054685779 2253:0.068588942 2256:0.068588942 2721:0.27620953 2730:0.27620953 2741:0.27620953 3045:0.088053375 3108:0.082492106 5412:0.69701195 5610:0.10010278 5721:0.11493282 5931:0.074150212 #
0.36720529231898318966997862844437 1:0.00785268 12:0.26993588 57:0.27091745 92:0.13742189 119:0.29545707 221:0.26502794 232:0.14625616 327:0.051042419 389:0.45545542 432:0.15214567 449:0.060858268 543:0.26012 661:0.067729361 876:0.018650115 1153:0.068710946 1305:0.10502959 1597:0.075582042 1642:0.10110325 1729:0.16883262 1775:0.048097663 1794:0.098158494 3183:0.010797434 3343:0.10993751 5102:0.12662446 5317:0.035337057 5471:0.49471882 #
-1 1:0.0026894463 15:0.0053788926 24:0.024205018 44:0.034066319 45:0.098613031 47:0.030480392 53:0.036755767 66:0.1801929 70:0.044824105 116:0.17212456 117:0.050202999 122:0.047513552 132:0.059167821 136:0.043031141 145:0.08785525 279:0.045720588 313:0.093234144 339:0.055581894 349:0.03316984 384:0.09413062 425:0.086062282 426:0.086958766 432:0.041238178 506:0.073511533 507:0.062753752 543:0.19274366 545:0.069029123 560:0.11206026 584:0.074408017 633:0.047513552 642:0.15419492 688:0.060064305 696:0.19991551 840:0.17212456 1183:0.074408017 1192:0.083372839 1330:0.057374857 1382:0.10130248 1423:0.18915772 1444:0.08964821 1446:0.051099483 1456:0.043927625 1480:0.12371454 1489:0.063650228 1505:0.036755767 1529:0.10309544 1533:0.034962803 1537:0.065443195 1594:0.19901903 1642:0.16853864 1686:0.10937082 1764:0.086062282 1776:0.068132639 1800:0.079786912 1809:0.14971252 2666:0.1255075 3059:0.060064305 3288:0.041238178 3316:0.13178287 3355:0.00089648215 3599:0.48410034 3641:0.10399193 3708:0.0098613035 3838:0.085165806 3859:0.085165806 4557:0.095027104 4565:0.047513552 4590:0.12192157 4747:0.11206026 4923:0.064546712 4947:0.32004413 5026:0.055581894 5222:0.10847434 5433:0.069029123 #
-0.72825095933292416372495381438057 1:0.014470627 8:0.043411877 10:0.020672323 15:0.022739556 29:0.14987434 32:0.043411877 42:0.083722912 47:0.029974869 49:0.031008486 74:0.048579961 77:0.060983352 79:0.053748041 99:0.050647192 101:0.057882506 102:0.059949737 123:0.035142951 132:0.35349673 152:0.13126925 170:0.034109332 193:0.042378262 242:0.046512727 281:0.034109332 286:0.059949737 305:0.075453982 321:0.028941253 356:0.15194158 367:0.1219667 397:0.078554831 426:0.14884073 445:0.085790142 500:0.070285901 543:0.28321081 553:0.081655674 579:0.074420363 583:0.096126303 639:0.31318569 694:0.16847943 705:0.058916122 946:0.065117821 1023:0.12610117 1163:0.073386751 1252:0.039277416 1342:0.083722912 1361:0.074420363 1406:0.26357213 1421:0.011369778 1446:0.050647192 1456:0.031008486 1597:0.050647192 1720:0.13230287 1729:0.086823754 1807:0.027907636 1809:0.14884073 2852:0.13540372 3153:0.11369777 3634:0.090958223 3657:0.090958223 4641:0.089924604 4889:0.097159922 4900:0.097159922 5020:0.44652218 5461:0.13126925 5788:0.096126303 5840:0.10646246 #
-0.42947408751170762508664324741403 1:0.03909947 14:0.10147243 15:0.0083784573 27:0.061442021 79:0.079129875 80:0.060511082 94:0.06237296 103:0.13684814 113:0.068889536 141:0.080991752 142:0.051201686 197:0.090301156 224:0.079129875 235:0.13964096 331:0.10147243 352:0.09867961 359:0.59859425 385:0.092163034 432:0.10612713 494:0.10147243 541:0.15081224 543:0.082853638 674:0.052132625 685:0.47477925 686:0.056787323 710:0.049339805 876:0.037237588 921:0.12660781 1019:0.058649201 1180:0.036306649 1227:0.10240337 1305:0.10333431 1382:0.11171277 1584:0.094024912 1626:0.031651951 1771:0.18432607 1773:0.15081224 1852:0.14801942 1856:0.093093969 2113:0.1219531 2476:0.10333431 2733:0.060511082 2781:0.185257 2958:0.10798901 3237:0.026066313 3576:0.027928192 4985:0.031651951 5941:0.03909947 #
-0.72613497465028831179267854167847 1:0.0039293054 14:0.011787916 15:0.011787916 29:0.11296753 33:0.0186642 44:0.034381423 49:0.031434443 53:0.0186642 65:0.021611178 66:0.090374023 69:0.036346074 77:0.015717221 79:0.04027538 86:0.1345787 91:0.017681874 105:0.031434443 125:0.025540484 128:0.096267983 156:0.023575831 166:0.023575831 170:0.034381423 221:0.024558159 223:0.02946979 242:0.047151662 259:0.033399094 279:0.022593506 303:0.063851215 310:0.025540484 315:0.024558159 317:0.11493218 358:0.025540484 360:0.011787916 363:0.033399094 372:0.020628853 373:0.031434443 380:0.042240031 386:0.036346074 432:0.15913686 543:0.27308673 575:0.04027538 577:0.1345787 636:0.073674478 663:0.04027538 671:0.022593506 694:0.13556103 710:0.16110152 747:0.10510892 825:0.027505137 876:0.091356352 922:0.056974929 928:0.12770243 968:0.08349774 994:0.020628853 1046:0.078586109 1118:0.045187011 1139:0.065815866 1252:0.039293054 1266:0.032416768 1282:0.17485408 1285:0.11394986 1305:0.067780517 1307:0.059921905 1328:0.098232634 1382:0.039293054 1416:0.049116317 1444:0.089391693 1474:0.043222357 1479:0.035363749 1489:0.038310725 1549:0.0068762843 1591:0.025540484 1597:0.1119852 1636:0.56876695 1642:0.088409372 1658:0.026522812 1660:0.087427042 1731:0.038310725 1834:0.028487464 1881:0.26424578 1954:0.050098643 1960:0.10216194 2065:0.067780517 2069:0.25442252 2134:0.13163173 2138:0.0559926 2212:0.057957254 2227:0.057957254 2561:0.062868886 2950:0.047151662 2974:0.16601315 3131:0.093321003 3253:0.055010274 5528:0.049116317 5595:0.060904231 5816:0.04027538 5894:0.096267983 5940:0.041257706 #
-0.5511371343393549615541360253701 1:0.013367222 8:0.020050833 15:0.022915237 47:0.041056465 49:0.16613548 50:0.10311857 66:0.1823671 74:0.065881304 77:0.083067738 79:0.036282457 81:0.057288092 85:0.19573432 91:0.094525352 104:0.058242895 142:0.046785276 160:0.084022537 170:0.045830473 242:0.063016899 360:0.016231626 391:0.083067738 418:0.045830473 435:0.070655316 456:0.58147413 524:0.0047740079 543:0.1823671 561:0.082112931 588:0.087841742 598:0.028644046 674:0.046785276 694:0.19859873 708:0.074474521 711:0.047740079 775:0.084022537 975:0.045830473 1012:0.1260338 1060:0.090706147 1077:0.096434958 1513:0.013367222 1514:0.30362689 1574:0.014322023 1634:0.39719746 1684:0.099299364 1694:0.088796541 1820:0.0611073 1837:0.089751348 2920:0.094525352 3050:0.12507901 3269:0.079248525 3476:0.10502817 5001:0.10789257 5679:0.088796541 5714:0.098344557 #
0.90376498328903431822567426934256 22:0.15573303 62:0.18321534 432:0.24367641 475:0.061377138 505:0.040307377 529:0.035726991 543:0.21436195 632:0.075118288 694:0.075118288 709:0.29222846 959:0.49742964 1034:0.076950446 1038:0.067789674 1169:0.33436799 1262:0.065957524 1391:0.31513038 1674:0.064125367 1728:0.40673804 1807:0.035726991 1825:0.0036643068 1826:0.02198584 1846:0.12916681 3303:0.063209295 3530:0.10718098 3600:0.042139526 3610:0.067789674 4247:0.16397773 4674:0.08611121 4713:0.057712831 5091:0.075118288 5485:0.083362982 #
0.47455676584641220960847363130597 1:0.0027808251 7:0.078790046 15:0.010196359 24:0.045420144 35:0.074155338 86:0.078790046 183:0.094548054 193:0.079716988 349:0.053762618 360:0.022246601 408:0.079716988 445:0.091767229 491:0.092694171 543:0.1844614 667:0.111233 973:0.59787738 1162:0.096401937 1287:0.13718738 1393:0.091767229 1413:0.042639319 1592:0.22246601 1655:0.017611893 1715:0.15016456 1784:0.1065983 1949:0.096401937 1961:0.061178152 1963:0.099182762 2110:0.062105093 2124:0.052835677 2192:0.10937912 2355:0.13626043 2881:0.053762618 2948:0.011123301 3002:0.081570871 3400:0.30125606 4454:0.34760314 4959:0.098255821 5529:0.33369902 5855:0.037077669 5910:0.090840288 #
1 10:0.070079856 15:0.025764653 22:0.039162274 47:0.035039928 59:0.049468134 70:0.051529307 74:0.27928886 81:0.048437551 104:0.049468134 121:0.054621067 124:0.039162274 130:0.065957516 145:0.05049872 150:0.046376377 170:0.039162274 178:0.049468134 185:0.065957516 229:0.099966854 230:0.06183517 269:0.036070514 358:0.057712823 376:0.043284617 377:0.13397621 432:0.11954799 467:0.071110442 543:0.24321833 598:0.1040892 636:0.055651654 644:0.097905688 667:0.10718096 730:0.045345791 825:0.062865756 985:0.1638632 1308:0.06801869 1372:0.22775954 1444:0.10202803 1445:0.05668224 1446:0.11542565 1505:0.021642309 1509:0.077293962 1552:0.05049872 1585:0.085538648 1635:0.085538648 1658:0.060804583 1679:0.036070514 1701:0.10718096 1722:0.13397621 1751:0.06801869 1766:0.054621067 1771:0.094813928 1779:0.078324549 1795:0.083477475 1809:0.11336448 1831:0.079355136 1856:0.086569235 2236:0.11027272 2535:0.088630408 2770:0.1040892 3276:0.098936267 3485:0.11542565 4033:0.099966854 5067:0.048437551 5196:0.11851741 5335:0.11645623 5363:0.11645623 5365:0.25558537 5424:0.26073828 5640:0.13088444 5704:0.10099744 5758:0.086569235 5780:0.47303903 #
0.1128813034956383520857059465925 1:0.0052182516 7:0.046964265 10:0.011306211 14:0.0060879602 15:0.015654754 22:0.01826388 23:0.021742715 24:0.013045629 36:0.019133588 38:0.017394172 39:0.028700383 52:0.033048928 55:0.026091257 57:0.026960967 61:0.048703682 62:0.086970858 63:0.010436503 81:0.023482133 86:0.067837268 92:0.12262891 111:0.03652776 117:0.026960967 126:0.025221549 150:0.022612423 191:0.026960967 193:0.023482133 196:0.032179218 258:0.013915338 269:0.017394172 319:0.038267177 360:0.013045629 396:0.059140183 432:0.23047277 480:0.026960967 543:0.16350521 553:0.066967562 590:0.027830675 652:0.022612423 701:0.032179218 709:0.10436503 710:0.046964265 876:0.075664647 959:0.59140182 1102:0.031309508 1169:0.51747662 1369:0.047833972 1391:0.14958988 1421:0.14350192 1456:0.008697086 1488:0.067837268 1503:0.10436503 1570:0.028700383 1595:0.033918634 1641:0.073925227 1690:0.031309508 1726:0.09827707 1728:0.048703682 1765:0.040006597 1806:0.03739747 1807:0.12088949 1856:0.2035118 4084:0.068706982 4097:0.056531057 4159:0.059140183 4190:0.075664647 4191:0.064358436 4211:0.060879603 4223:0.061749309 4265:0.064358436 4271:0.064358436 4328:0.051312808 4352:0.067837268 4363:0.099146776 4365:0.14958988 4411:0.047833972 4418:0.042615719 4446:0.073055521 #
0.49140215643521634181212220937596 7:0.06981945 9:0.067957595 15:0.01861852 22:0.054924633 53:0.059579264 63:0.063302971 84:0.10519464 134:0.066095747 163:0.098678157 248:0.038167965 263:0.068888523 295:0.068888523 324:0.03258241 383:0.073543154 432:0.031651486 437:0.082852416 483:0.034444261 523:0.060510188 607:0.1182276 652:0.13498427 717:0.055855561 773:0.11636575 1382:0.1647739 1428:0.027927781 1526:0.12381316 1529:0.083783343 1560:0.027927781 1729:0.10612556 1794:0.042822596 1855:0.045615375 2269:0.064233892 2696:0.034444261 2947:0.12102038 3145:0.10798742 3233:0.10147093 3551:0.15918835 4671:0.60975653 4949:0.063302971 4969:0.031651486 4992:0.50921655 5199:0.033513337 5309:0.093092598 5329:0.093092598 5361:0.046546299 5425:0.028858706 5873:0.2904489 #
-1 1:0.01796885 2:0.065255292 10:0.15509954 13:0.040666342 14:0.021751765 15:0.042557802 23:0.22981213 24:0.11537893 38:0.089844249 71:0.1144332 81:0.039720614 96:0.12010757 109:0.06052665 126:0.04350353 127:0.085115604 164:0.10213872 167:0.04350353 193:0.020806037 196:0.1664483 206:0.052015092 229:0.061472379 255:0.05296082 269:0.030263325 278:0.058635194 281:0.12956487 366:0.047286447 399:0.12010757 432:0.072821125 543:0.37072572 568:0.050123632 673:0.31681919 706:0.032154784 720:0.055798005 874:0.097410075 1003:0.057689466 1108:0.095518619 1130:0.050123632 1204:0.101193 1297:0.12199903 1305:0.083224148 1382:0.080386959 1391:0.065255292 1443:0.038774885 1445:0.047286447 1478:0.090789974 1496:0.064309567 1589:0.066201024 1662:0.015131663 1685:0.050123632 1715:0.11537893 1737:0.20144026 1764:0.040666342 2079:0.031209053 2369:0.081332684 2727:0.069038212 4392:0.40382624 4404:0.40382624 5149:0.11821611 5198:0.044449259 5925:0.11632466 #
-0.89870088672666337270555914074066 1:0.007140208 8:0.023205675 14:0.01785052 15:0.00892526 34:0.064261869 75:0.083897442 86:0.13834153 115:0.12227606 121:0.1508369 185:0.18296783 369:0.090145126 392:0.09639281 418:0.053551558 432:0.085682496 543:0.23205675 568:0.083004914 598:0.14548174 900:0.1097807 978:0.063369349 1043:0.070509553 1231:0.07586471 1338:0.063369349 1366:0.099962912 1367:0.12941627 1430:0.09639281 1446:0.15976216 1479:0.085682496 1518:0.12316859 1625:0.053551558 1626:0.07140208 1683:0.084789969 1692:0.33469725 1745:0.47750139 1746:0.42930502 1809:0.078542285 1837:0.091930181 1845:0.058906715 2101:0.16511731 2211:0.067831978 2224:0.033915989 2538:0.038378619 2596:0.10531807 2768:0.082112394 2795:0.020528099 2796:0.082112394 2943:0.19010803 3277:0.025883254 3284:0.051766507 5053:0.041948721 5182:0.064261869 5318:0.10085544 5347:0.02231315 #
-1 1:0.014628087 15:0.019129038 17:0.1474061 43:0.28581032 58:0.13952945 62:0.1350285 124:0.1170247 137:0.11027327 312:0.023629988 350:0.20254274 360:0.041633785 412:0.1474061 432:0.19129036 445:0.14290516 495:0.099020898 543:0.28355983 694:0.09789566 712:0.04050855 1065:0.14628087 1209:0.077641383 1274:0.15190706 1306:0.20029227 1457:0.08326757 1588:0.17666228 1642:0.070889957 1702:0.073140435 1787:0.028130937 1814:0.033757124 1820:0.16315943 2720:0.093394712 3230:0.065263771 3236:0.099020898 4022:0.10914803 4878:0.11927518 5042:0.4230893 5056:0.10577232 5071:0.4230893 5215:0.14177991 5718:0.055136636 #
-0.90717516793589247914297857278143 1:0.011645519 2:0.12033703 10:0.053375296 15:0.0145569 135:0.10578013 159:0.064050354 204:0.11063243 208:0.19409199 252:0.31248811 258:0.13586439 536:0.051434379 543:0.062109437 744:0.026202418 817:0.088311858 873:0.18244646 1098:0.079577714 1373:0.044641159 1518:0.41050455 1642:0.11063243 1685:0.13877577 1729:0.13392347 1850:0.098986916 2818:0.27172878 2907:0.10092784 3489:0.070843577 3506:0.053375296 3563:0.015527359 3659:0.55025077 4372:0.084430017 4442:0.032995638 5002:0.31636995 5273:0.082489096 5324:0.081518635 #
-0.87605283433917635615983954266994 15:0.006584886 33:0.04139071 86:0.088425606 133:0.063026763 170:0.037627921 220:0.067730255 324:0.16650355 358:0.055501182 363:0.073374443 367:0.067730255 432:0.12511283 543:0.013169772 672:0.055501182 694:0.048916295 705:0.064908162 779:0.12887563 888:0.085603513 948:0.09783259 1059:0.095010497 1216:0.18061401 1228:0.02351745 1305:0.11758725 1332:0.11758725 1382:0.084662817 1397:0.21824193 1455:0.062086068 1456:0.006584886 1478:0.090307005 1579:0.083722122 1635:0.24740356 1642:0.066789553 1698:0.077137232 1807:0.037627921 2919:0.1862582 3038:0.12323143 3120:0.10723957 3138:0.31325242 3158:0.080900028 3334:0.021636054 3412:0.10441747 3481:0.015051167 3760:0.10253608 3803:0.052679088 3815:0.10535818 3834:0.089366309 3856:0.10535818 4309:0.19472449 4526:0.3273629 4743:0.13263841 4831:0.11852794 4851:0.17685121 4930:0.084662817 5213:0.11946864 5419:0.46188271 #
0.9439329037367799601909723605786 1:0.018893734 4:0.009896717 7:0.017994031 8:0.036887765 10:0.017094331 12:0.062079411 14:0.0044985078 15:0.021592839 17:0.017994031 18:0.080973141 19:0.026991047 20:0.044985078 22:0.028790452 24:0.062079411 31:0.028790452 39:0.022492539 41:0.021592839 45:0.082772546 47:0.012595822 51:0.053082395 53:0.015294927 55:0.059380304 56:0.029690152 62:0.050383288 63:0.0080973143 69:0.015294927 73:0.019793434 74:0.020693136 77:0.012595822 79:0.034188662 85:0.020693136 93:0.017094331 103:0.03868717 107:0.019793434 111:0.056681201 130:0.058480602 146:0.018893734 149:0.013495523 150:0.051282991 154:0.020693136 157:0.022492539 175:0.019793434 177:0.03508836 194:0.059380304 201:0.032389257 204:0.035988063 224:0.022492539 226:0.020693136 236:0.026091347 255:0.023392241 258:0.054881796 261:0.013495523 295:0.017994031 310:0.065678217 314:0.046784483 321:0.012595822 330:0.045884781 339:0.023392241 357:0.014395226 360:0.056681201 381:0.13225614 425:0.035988063 432:0.029690152 435:0.022492539 446:0.024291944 448:0.12685792 480:0.042285975 489:0.025191644 543:0.32839108 591:0.027890749 607:0.030589854 614:0.03868717 615:0.027890749 619:0.034188662 623:0.027890749 665:0.033288959 669:0.023392241 694:0.026091347 706:0.014395226 707:0.024291944 708:0.023392241 710:0.035988063 711:0.029690152 722:0.10436539 725:0.031489555 730:0.017094331 733:0.050383288 765:0.07377553 804:0.090869859 864:0.036887765 873:0.029690152 876:0.097167775 886:0.0035988064 975:0.014395226 994:0.03508836 1003:0.026091347 1063:0.64688545 1090:0.071976125 1120:0.019793434 1162:0.022492539 1252:0.016194629 1305:0.13585494 1306:0.025191644 1327:0.04048657 1421:0.085471652 1456:0.10076658 1472:0.043185677 1478:0.086371355 1488:0.069277026 1499:0.020693136 1556:0.028790452 1558:0.025191644 1566:0.020693136 1570:0.022492539 1579:0.12865733 1593:0.022492539 1614:0.027890749 1625:0.060280006 1629:0.06297911 1658:0.022492539 1660:0.048583888 1675:0.036887765 1677:0.029690152 1704:0.022492539 1705:0.025191644 1762:0.029690152 1766:0.04048657 1773:0.010796419 1786:0.020693136 1796:0.018893734 1828:0.29870093 1839:0.070176721 1841:0.021592839 2048:0.046784483 2051:0.046784483 2052:0.093568966 2055:0.023392241 2066:0.034188662 2068:0.068377323 2275:0.051282991 2294:0.03868717 2572:0.098967172 2607:0.041386273 2680:0.033288959 2735:0.057580903 3003:0.043185677 3195:0.039586868 3202:0.019793434 3203:0.039586868 3207:0.039586868 3209:0.039586868 5082:0.030589854 5191:0.042285975 5200:0.042285975 5201:0.042285975 5293:0.080973141 5294:0.04048657 5352:0.16464539 5401:0.089970157 5475:0.027890749 5700:0.036887765 5810:0.069277026 5868:0.037787467 5872:0.037787467 #
0.85923627185311846066184671144583 1:0.0059061274 10:0.02598696 15:0.022443285 27:0.053155147 53:0.047249019 59:0.055517599 63:0.024805736 79:0.034255538 86:0.25278226 117:0.064967401 179:0.099222943 193:0.055517599 224:0.068511076 335:0.083867013 353:0.1299348 463:0.075598434 525:0.14647196 537:0.086229458 543:0.14410952 557:0.083867013 633:0.12284745 656:0.077960886 683:0.064967401 694:0.083867013 960:0.10512907 1075:0.10040417 1247:0.11221642 1283:0.1110352 1305:0.15710299 1382:0.033074316 1395:0.4216975 1421:0.055517599 1429:0.28940025 1560:0.11694133 1597:0.083867013 1606:0.22561407 1703:0.25160104 1943:0.061423726 2067:0.081504561 2093:0.15474054 2508:0.15119687 2510:0.15119687 2629:0.17245892 2842:0.11339765 2864:0.11339765 3042:0.12875357 4032:0.21143937 4252:0.088591911 5275:0.055517599 5285:0.1110352 5431:0.095679268 5472:0.085048236 5607:0.13347848 5615:0.13347848 5831:0.14292829 5833:0.14292829 #
0.57621451172590143485763292119373 73:0.17576088 209:0.068205714 219:0.23609671 432:0.059461396 453:0.020111943 475:0.034977291 480:0.18450521 543:0.15477452 586:0.029730698 590:0.18537964 668:0.069080152 694:0.054214802 712:0.058586963 835:0.078698903 894:0.085694365 1013:0.09094096 1322:0.11979722 1369:0.1626444 1456:0.042847183 1480:0.048093773 1597:0.066456854 1625:0.064707987 1629:0.074326746 1660:0.13378814 1798:0.069954582 1823:0.089192092 1858:0.055963665 2006:0.35676837 2007:0.089192092 2008:0.35676837 2011:0.089192092 2325:0.10318301 2776:0.056838099 3899:0.084819928 4023:0.13728587 4409:0.39349452 5175:0.12329495 5185:0.082196631 5337:0.41448089 5455:0.031479564 5464:0.062959127 5582:0.1084296 5829:0.085694365 5901:0.036726154 #
0.62306025208802218173786968691275 1:0.01420826 7:0.05304417 9:0.052096952 10:0.025574869 15:0.01420826 49:0.037888695 115:0.053991389 196:0.035994258 261:0.081460692 263:0.1041939 272:0.077671818 371:0.018944347 543:0.14871313 587:0.074830167 674:0.043571997 681:0.36846754 760:0.1363993 762:0.12408547 995:0.090932861 1069:0.032205388 1252:0.048308086 1305:0.075777389 1382:0.029363737 1388:0.067252427 1421:0.11745495 1456:0.16102694 1472:0.063463561 1501:0.36467868 1533:0.043571997 1597:0.084302343 1660:0.18091851 1676:0.4205645 1754:0.11650773 1780:0.071988516 3591:0.14966033 3602:0.13924095 3679:0.13829373 3690:0.1041939 3691:0.052096952 3761:0.061569128 3929:0.089985646 3989:0.10608834 3992:0.026522085 4408:0.082407907 4567:0.12882155 4647:0.064410776 4750:0.051149737 4987:0.39498964 4993:0.046413649 5052:0.15534364 5217:0.12976877 #
0.70993490775436651762930750919622 1:0.0045945384 9:0.017459245 10:0.050539922 12:0.059728999 15:0.025729416 36:0.013783615 47:0.012864708 57:0.040431939 64:0.014702523 83:0.017459245 111:0.05513446 112:0.037675217 130:0.10383657 142:0.028486138 145:0.017459245 151:0.081782788 167:0.018378153 171:0.071674801 193:0.0091890767 196:0.0477832 226:0.02021597 230:0.044107568 269:0.025729416 273:0.022972692 321:0.0119458 326:0.14794414 327:0.038594123 346:0.076269336 382:0.05605337 432:0.16999792 455:0.046864294 458:0.0836206 491:0.02021597 543:0.25637525 559:0.050539922 661:0.056972276 674:0.043188661 690:0.033080678 694:0.13783616 696:0.054215554 706:0.028486138 769:0.059728999 886:0.058810093 904:0.031242862 970:0.064323537 975:0.11026892 1025:0.058810093 1354:0.049621016 1362:0.18653826 1418:0.090052955 1429:0.091890767 1480:0.066161357 1569:0.021134878 1586:0.048702106 1607:0.02021597 1650:0.048702106 1673:0.019297061 1676:0.069836982 1702:0.081782788 1738:0.029405046 3997:0.098323122 4035:0.098323122 4039:0.08453951 4050:0.042269755 4069:0.10843111 4094:0.10475548 4100:0.080863878 4124:0.092809677 4179:0.0477832 4182:0.0477832 4216:0.050539922 4232:0.0477832 4236:0.067999169 4253:0.076269336 4254:0.0477832 4267:0.10199875 4292:0.039513029 4294:0.051458832 4341:0.28026685 4366:0.11210674 4374:0.043188661 4391:0.031242862 4395:0.043188661 4405:0.031242862 4414:0.11853909 4420:0.08270169 4452:0.23248364 4478:0.045026477 4480:0.17183574 4495:0.045945384 4534:0.071674801 4541:0.035837401 4549:0.091890767 4614:0.59085763 4616:0.078107156 4727:0.070755892 #
-0.95649155081627668106847295348416 1:0.010490488 15:0.026226221 49:0.072384372 64:0.082874857 79:0.06294293 115:0.10805203 123:0.16365162 175:0.10910108 181:0.10385583 200:0.30842036 220:0.068188176 247:0.14267065 262:0.14686684 324:0.010490488 432:0.10280678 516:0.12273871 543:0.082874857 711:0.081825808 1044:0.04615815 1093:0.1804364 1239:0.16365162 1252:0.09126725 1272:0.18777974 1305:0.14686684 1480:0.052452441 1544:0.14686684 1565:0.098610595 1646:0.42696288 1660:0.07867866 1677:0.16365162 1780:0.13637635 1856:0.071335323 1925:0.19407403 2194:0.059795786 2612:0.12483681 2638:0.076580569 2639:0.076580569 2780:0.068188176 5170:0.14791588 5422:0.056648638 5427:0.094414398 5592:0.13008206 5789:0.083923906 5908:0.45109099 5923:0.081825808 #
-0.44954371847643220805323949207377 1:0.049794227 14:0.01907013 15:0.018010678 20:0.043437518 38:0.051913131 40:0.067804903 46:0.064626552 47:0.049794227 50:0.12501529 65:0.069923811 79:0.043437518 83:0.13878816 87:0.07733997 103:0.075221069 106:0.15362048 113:0.075221069 200:0.072042711 254:0.14302596 330:0.087934487 365:0.12183694 432:0.1557394 493:0.19176075 543:0.1557394 551:0.11230187 580:0.072042711 598:0.17163116 618:0.19282019 666:0.034961905 688:0.097469553 711:0.05721039 712:0.070983261 1006:0.051913131 1099:0.047675323 1305:0.18328513 1372:0.40576997 1447:0.13031255 1451:0.086875036 1489:0.085815579 1552:0.072042711 1565:0.068864353 1566:0.07945887 1660:0.060388744 1773:0.33160836 1807:0.030724097 2111:0.060388744 2336:0.10700461 2375:0.087934487 2409:0.11653968 2505:0.13560981 2873:0.030724097 2929:0.31571659 2933:0.1292531 3118:0.1006479 3341:0.15362048 3541:0.12713419 3872:0.1027668 4682:0.092172295 5283:0.14938268 5593:0.11971804 5844:0.042378064 5881:0.090053387 5957:0.088993937 #
-0.75385508941249557146591087075649 1:0.025201278 8:0.012600639 14:0.029078396 15:0.024231996 47:0.052341115 60:0.25685918 94:0.035863355 104:0.036832634 105:0.054279674 127:0.037801914 154:0.084327348 261:0.028109116 284:0.056218233 295:0.035863355 300:0.055248953 360:0.010662079 361:0.045556154 365:0.075603828 432:0.06300319 475:0.10565151 487:0.054279674 543:0.10177439 554:0.066880316 621:0.054279674 624:0.046525434 627:0.055248953 648:0.15120766 694:0.081419513 709:0.10759006 873:0.059126072 890:0.074634552 1135:0.081419513 1252:0.032955516 1336:0.24328925 1352:0.053310394 1457:0.098866545 1515:0.12891422 1523:0.1298835 1533:0.030047676 1558:0.051371835 1597:0.15605406 1627:0.052341115 1647:0.10274367 1656:0.035863355 1700:0.10952862 1783:0.076573111 2071:0.050402556 2104:0.073665269 2116:0.063972473 2122:0.09595871 2306:0.1298835 2589:0.1783475 2622:0.080450229 2644:0.07172671 2669:0.10662079 2786:0.031016957 3112:0.0029078396 3270:0.14829983 3295:0.092081591 3364:0.086265907 3380:0.086265907 3407:0.086265907 3534:0.16962399 5030:0.1250371 5452:0.096927986 5456:0.10952862 5719:0.15896191 5845:0.59707642 5848:0.1492691 5947:0.13279134 #
-0.78562029823823698038154361711349 1:0.012351289 2:0.096163608 279:0.18968052 350:0.24879026 360:0.051169626 432:0.069696561 475:0.161449 543:0.21614757 563:0.031760458 707:0.23643897 955:0.064403154 1173:0.065285385 1261:0.050287392 1305:0.16674241 1410:0.074989974 1470:0.072343268 1491:0.10322149 1579:0.15880229 1779:0.067932092 1803:0.0061756447 1830:0.058227509 1842:0.084694557 1856:0.029995989 3813:0.059109744 3907:0.50199169 4019:0.12792407 4021:0.048522923 4148:0.13498195 4175:0.078518912 4359:0.038818337 4364:0.077636674 4397:0.093516909 4477:0.063520916 4587:0.082930088 4658:0.35906962 4712:0.42170832 4757:0.074107736 4764:0.12615959 #
-1 1:0.0032312374 14:0.023695741 22:0.13786614 27:0.084012173 29:0.15294524 122:0.096937127 212:0.13140365 220:0.12817243 235:0.095860049 291:0.21326168 322:0.19818257 344:0.10663084 347:0.11524747 360:0.024772821 431:0.059239354 432:0.064624749 442:0.43837121 467:0.2531136 543:0.12278703 581:0.11524747 608:0.15940772 648:0.10663084 694:0.15833063 710:0.042006087 754:0.064624749 1091:0.26496148 1120:0.093705885 1183:0.15079108 1248:0.16694728 1353:0.21326168 1488:0.095860049 1807:0.12063286 2310:0.15079108 2712:0.072164305 2944:0.099091284 3018:0.108785 3119:0.07970386 3367:0.031235296 3607:0.16479312 3630:0.030158216 5044:0.067855984 5212:0.26711562 5538:0.088320494 5584:0.091551729 5769:0.2272637 #
0.62086491835717327880672655737726 1:0.016603801 10:0.030094389 14:0.016603801 15:0.016603801 21:0.075754844 36:0.099622801 44:0.048773665 47:0.044622716 49:0.044622716 52:0.086132213 67:0.058113303 134:0.23556642 193:0.031132126 213:0.060188778 233:0.1131134 360:0.017641539 432:0.28122687 439:0.066415206 453:0.12141529 513:0.088207692 543:0.17537765 570:0.14113231 609:0.38084969 610:0.01245285 632:0.036320813 634:0.17641538 694:0.011415113 782:0.10896244 862:0.13386814 937:0.13490587 1015:0.10688697 1279:0.15566063 1306:0.042547241 1357:0.14217004 1369:0.063301988 1407:0.051886879 1440:0.035283078 1505:0.042547241 1603:0.075754844 1623:0.13698135 1642:0.12764172 1727:0.14320779 1756:0.018679276 1810:0.10792471 1855:0.14735873 2777:0.14735873 2845:0.48981214 3052:0.086132213 3103:0.15358515 3432:0.1546229 5049:0.11933982 5193:0.12867945 #
0.84742357018509073540712961403187 1:0.014286912 7:0.045922216 14:0.012245924 15:0.012245924 17:0.092864931 51:0.04388123 53:0.03877876 63:0.020409875 64:0.037758268 77:0.065311596 86:0.12143875 146:0.046942711 193:0.022450861 230:0.1142953 249:0.093885422 333:0.088782951 350:0.063270606 360:0.013266418 376:0.040819749 387:0.089803442 432:0.10715184 439:0.10409036 543:0.23675454 598:0.076537028 613:0.073475547 858:0.08776246 1006:0.061229624 1120:0.097967394 1222:0.08572147 1311:0.079598509 1603:0.056127153 1700:0.12654121 1706:0.43370983 1742:0.12245925 1764:0.045922216 1776:0.15817653 1870:0.071434557 1903:0.10919283 2056:0.068373077 2358:0.12143875 2475:0.13266419 2488:0.13266419 3107:0.090823941 5505:0.064291105 5672:0.10204937 5933:0.66944385 5937:0.04184024 #
0.6699064010461068807700257821125 15:0.023300365 432:0.078289226 451:0.042872671 459:0.3942422 543:0.17242271 573:0.061512966 635:0.095997505 1008:0.20783927 1034:0.10718168 1306:0.1211619 1311:0.087609373 1597:0.12861802 1605:0.051260803 1606:0.071765125 1642:0.021436336 1660:0.0037280584 1995:0.047532745 2026:0.061512966 2045:0.09226945 2339:0.073629156 2463:0.021436336 2562:0.10345362 2647:0.06803707 3214:0.088541389 3454:0.13514212 5177:0.043804687 5262:0.47812349 5269:0.47812349 5380:0.38492203 5432:0.050328791 5770:0.14073421 #
0.6313045350486694573532986396458 1:0.022590363 12:0.044277109 14:0.052409641 15:0.015361447 23:0.073192775 24:0.066867471 56:0.031626508 57:0.044277109 63:0.035240967 64:0.064156629 110:0.13012049 115:0.093975909 123:0.031626508 130:0.10753012 145:0.039759036 193:0.038855422 196:0.053313255 281:0.050602414 360:0.033433735 366:0.045180727 432:0.024397591 466:0.1057229 543:0.15632531 598:0.12560241 804:0.085843377 863:0.083132535 876:0.048795182 1211:0.064156629 1305:0.046084341 1460:0.081325307 1487:0.089457832 1761:0.011746989 1770:0.13825302 1807:0.065060243 1812:0.015361447 1816:0.11024097 2928:0.089457832 3078:0.10301206 3155:0.064156629 3319:0.099397592 3526:0.12198795 3689:0.085843377 3917:0.16084339 4792:0.061445788 4916:0.29457831 4954:0.77439761 4978:0.056024101 5021:0.10210844 5369:0.088554218 5722:0.093072295 #
0.7368104886447389700876442475419 1:0.007432932 9:0.041810241 10:0.020440562 12:0.049243174 15:0.016724097 20:0.026944378 24:0.025086146 38:0.095698997 40:0.084549598 42:0.084549598 67:0.040881123 79:0.026944378 86:0.068754621 115:0.08733695 121:0.048314057 171:0.048314057 196:0.029731728 213:0.042739358 312:0.078974903 324:0.073400199 328:0.050172292 343:0.10963575 402:0.18953976 445:0.12078514 543:0.065038152 562:0.054817874 694:0.14587128 706:0.03437731 729:0.005574699 740:0.091982529 1252:0.03995201 1305:0.046455823 1505:0.050172292 1510:0.052030522 1606:0.10499016 1716:0.090124302 1722:0.059463456 1750:0.063179918 1794:0.042739358 1820:0.071541972 1837:0.037164658 2350:0.12171426 2399:0.062250804 2800:0.10220281 2830:0.051101405 2869:0.71913618 2889:0.11892691 5470:0.028802611 5797:0.47477853 #
-1 1:0.054488454 3:0.22222742 5:0.26603186 6:0.29274189 26:0.48612249 130:0.092950895 193:0.1987226 248:0.14316574 324:0.1036349 341:0.17308097 360:0.22543262 543:0.42842883 694:0.22863783 712:0.080130078 957:0.10790851 1172:0.1014981 1180:0.16880737 1435:0.014957615 1456:0.10790851 1724:0.15919176 1856:0.18483338 1922:0.055556856 2080:0.075856477 2623:0.069446072 2851:0.13034493 #
-0.93913446825380941795913258829387 1:0.0090359831 15:0.0072287861 86:0.087649032 121:0.057830289 133:0.068673469 185:0.069577068 190:0.072287865 271:0.096685015 275:0.077709451 288:0.039758325 432:0.17078008 475:0.14999731 502:0.065059073 535:0.098492213 543:0.19156283 574:0.04608351 578:0.074095055 583:0.11746778 630:0.18704484 688:0.071384266 716:0.12017857 720:0.071384266 887:0.1066246 1017:0.06776987 1217:0.19337003 1219:0.055119496 1322:0.054215897 1382:0.11204618 1513:0.12469656 1515:0.36505371 1597:0.019879162 1660:0.16626208 1729:0.1039138 1838:0.093974218 1839:0.094877817 2344:0.096685015 2451:0.12469656 2624:0.4734855 2934:0.041565519 2954:0.14999731 2966:0.14999731 3273:0.12198576 3385:0.11023899 3685:0.23222475 4945:0.12740736 5142:0.05692669 5210:0.26023629 5319:0.11204618 5732:0.14096133 #
-0.72958571513757253246268419388798 1:0.0029194304 15:0.021409158 70:0.26080245 93:0.30945963 115:0.093421772 118:0.14305209 122:0.091475487 132:0.11385779 170:0.066173755 258:0.10023378 278:0.066173755 374:0.10607264 390:0.042818315 392:0.1050995 414:0.16640754 478:0.17030011 543:0.060334895 620:0.14597152 636:0.094394922 694:0.059361752 711:0.068120047 726:0.12261608 1109:0.065200612 1257:0.1634881 1295:0.1566761 1382:0.085636631 1411:0.082717195 1438:0.15181038 1446:0.09731435 1530:0.12066979 1552:0.085636631 1579:0.14694467 1597:0.054496035 1652:0.12845494 1679:0.11093836 1715:0.23550072 1720:0.088556059 1794:0.089529201 1809:0.095368065 1829:0.18295097 1851:0.057415467 1856:0.14207895 2391:0.036979452 2672:0.041845169 2972:0.08077091 3089:0.071039476 3337:0.11288465 4109:0.18878984 4255:0.072985761 4260:0.39898884 4710:0.066173755 5559:0.24036644 5819:0.15472981 #
-0.58483156138089464892715341193252 1:0.018503461 2:0.19477327 3:0.10225597 6:0.13341969 96:0.17821755 142:0.14607996 172:0.19185168 173:0.20938127 193:0.090569571 318:0.17821755 321:0.12173329 422:0.077909306 432:0.019477326 543:0.024346659 547:0.040902387 686:0.1246549 809:0.044797853 956:0.098360501 1002:0.064275183 1084:0.12757649 1099:0.12368102 1116:0.071092241 1214:0.044797853 1298:0.0087647969 1305:0.064275183 1313:0.13244583 1421:0.13926288 1456:0.11102077 1620:0.38662493 1713:0.1246549 1771:0.18016528 1848:0.045771718 1850:0.079857044 2558:0.032137591 2927:0.083752505 3098:0.098360501 3163:0.10809916 3206:0.071092241 3324:0.06330131 3498:0.023372792 3507:0.056484248 4742:0.26489165 5014:0.14023675 5140:0.12075943 5429:0.0097386632 5439:0.038954653 5473:0.49472409 5601:0.07498771 5850:0.090569571 #
-0.62633179894706070278687093377812 1:0.027898276 8:0.0086580859 14:0.0067340666 15:0.032708324 17:0.025012247 24:0.014430143 40:0.024050238 47:0.052910525 49:0.017316172 51:0.024050238 60:0.12409923 69:0.021164211 74:0.027898276 94:0.024050238 97:0.083694831 124:0.020202201 127:0.051948514 134:0.047138467 135:0.10293502 142:0.03944239 154:0.056758564 193:0.025012247 202:0.032708324 212:0.11255512 223:0.034632344 258:0.029822296 269:0.036556363 295:0.024050238 304:0.033670332 320:0.088504873 339:0.031746313 344:0.030784305 355:0.036556363 358:0.057720572 360:0.035594352 366:0.11447913 376:0.022126218 407:0.030784305 411:0.072150715 432:0.24146439 435:0.060606599 447:0.048100475 453:0.075036742 469:0.24723645 480:0.028860286 509:0.10774507 536:0.085618846 543:0.20683205 549:0.047138467 555:0.089466885 561:0.034632344 569:0.024050238 619:0.047138467 671:0.025974257 680:0.30976707 694:0.202022 705:0.033670332 718:0.075036742 753:0.063492626 795:0.055796552 844:0.040404402 852:0.037518371 924:0.050986506 975:0.019240191 1008:0.028860286 1162:0.029822296 1190:0.10582105 1241:0.11544114 1268:0.45310649 1305:0.13275732 1334:0.082732819 1335:0.080808803 1353:0.029822296 1443:0.2116421 1444:0.025974257 1449:0.094276935 1451:0.06156861 1550:0.029822296 1552:0.025974257 1578:0.036556363 1607:0.056758564 1648:0.081770808 1707:0.031746313 1733:0.036556363 1734:0.29822296 1748:0.032708324 1773:0.028860286 1840:0.073112726 2315:0.12698525 2615:0.082732819 2625:0.16546564 2697:0.11351713 2985:0.06156861 2999:0.06156861 3382:0.05868258 5031:0.12025119 5620:0.07888478 #
0.92970050865163633702081824594643 1:0.013785437 8:0.020218641 14:0.015623496 15:0.015623496 17:0.11947379 22:0.046870485 63:0.026651844 64:0.096498057 76:0.090983883 112:0.062493984 123:0.047789514 126:0.062493984 205:0.10568835 293:0.074441358 321:0.039518252 360:0.016542524 372:0.056979805 402:0.038599223 407:0.073522329 432:0.054222718 543:0.18564388 634:0.08363165 694:0.1167167 724:0.13509728 746:0.10660738 994:0.056979805 1003:0.16818233 1085:0.10293126 1305:0.23159534 1306:0.080874562 1382:0.15347786 1421:0.10568835 1456:0.05238466 1463:0.11487864 1464:0.11763573 1642:0.18196777 1660:0.043194368 1771:0.037680194 1772:0.091902912 1773:0.034923106 1826:0.11947379 1856:0.062493984 1857:0.048708543 3868:0.042275339 4016:0.12866408 4030:0.076279417 4187:0.12774505 4241:0.32166019 4278:0.11028349 4322:0.58542156 4343:0.1010932 4415:0.086388737 4471:0.16542524 4473:0.087307766 4501:0.18012971 4523:0.045032427 4539:0.077198446 4593:0.11120252 #
0.38211893251793027648233191939653 1:0.0073122722 10:0.026506986 13:0.056670111 15:0.014624544 17:0.056670111 21:0.068552554 23:0.053013973 24:0.063982382 28:0.14076124 63:0.050271872 68:0.066724487 76:0.17366646 78:0.12796476 81:0.05484204 86:0.035647325 123:0.13710511 126:0.059412211 360:0.015538578 418:0.044787668 468:0.062154312 543:0.19194715 657:0.02742102 975:0.088661298 1099:0.038389429 1292:0.085005164 1305:0.012796476 1377:0.08226306 1382:0.13893317 1480:0.18737698 1489:0.10968408 1535:0.12613669 1729:0.064896412 1782:0.0082263062 2003:0.031991191 2367:0.053928006 3049:0.021936817 3247:0.086833231 4055:0.16361208 5076:0.062154312 5086:0.062154312 5362:0.024678918 5400:0.10511391 5643:0.81714642 5686:0.037475396 #
0.76264603731905622474585015879711 1:0.0026897576 12:0.050208811 15:0.0053795152 22:0.034966849 35:0.04124295 74:0.050208811 122:0.048415639 124:0.034966849 143:0.082485899 177:0.084279075 211:0.071726874 220:0.13179813 347:0.058278084 377:0.060071256 381:0.13628106 543:0.096831277 590:0.10221079 598:0.070830286 633:0.048415639 636:0.050208811 644:0.17483425 694:0.10400397 711:0.035863437 719:0.083382487 737:0.078899562 799:0.088762008 853:0.094141521 914:0.022414647 992:0.054691739 1031:0.10759031 1445:0.051105395 1461:0.16676497 1541:0.092348345 1597:0.12283227 1600:0.026897578 1642:0.21607721 1686:0.03048392 1702:0.11207324 1752:0.13897081 1755:0.069933698 1773:0.052001983 1781:0.0035863435 3450:0.23400892 3582:0.095934689 3832:0.04124295 3847:0.038553193 3855:0.082485899 3869:0.11655617 3956:0.028690748 4113:0.10041762 4192:0.26897576 4202:0.086968832 4217:0.097727865 4356:0.53705496 4375:0.095038109 4520:0.35056508 4553:0.10310738 4635:0.084279075 4788:0.035863437 4795:0.076209798 5060:0.18469669 #
0.46987970953801699858232154838333 1:0.0030347947 7:0.079916261 14:0.021243563 15:0.010115982 56:0.064742282 63:0.036417536 84:0.10722941 91:0.065753885 117:0.093067035 169:0.026301553 261:0.061707489 322:0.091043837 360:0.023266759 411:0.11633379 448:0.098125026 543:0.13757735 577:0.091043837 590:0.093067035 606:0.38440731 633:0.088009045 694:0.040463928 717:0.065753885 730:0.074858271 1007:0.073846668 1038:0.10318302 1258:0.17399488 1456:0.15983252 1556:0.12543818 1642:0.12543818 1664:0.093067035 1682:0.091043837 1715:0.075869866 1737:0.65956205 1764:0.079916261 1861:0.18714567 1862:0.18714567 1930:0.13960055 1993:0.13251936 2485:0.065753885 2653:0.11734539 3379:0.030347945 4939:0.10722941 5611:0.10925261 5938:0.080927856 #
0.37513822087398474014463545245235 1:0.015039454 24:0.12219556 130:0.045118362 222:0.28574961 360:0.061097782 445:0.061097782 504:0.076137237 543:0.16167413 606:0.688995 693:0.31864843 847:0.086476862 936:0.040418532 1140:0.24157123 1264:0.093996584 1382:0.095876522 1513:0.10433621 1520:0.043238431 1585:0.17765355 1653:0.14005491 1660:0.10151631 1807:0.099636383 1814:0.071437404 1839:0.054518022 2573:0.10057635 3028:0.086476862 3264:0.13911495 3351:0.12219556 3649:0.045118362 3749:0.14381477 3923:0.056397952 4361:0.081777029 4531:0.049818192 4902:0.044178396 5169:0.046998292 5204:0.10621614 5552:0.073317342 #
-0.80989308856105701739380720027839 1:0.02067725 8:0.037758458 10:0.026071316 14:0.044051532 15:0.014384174 19:0.12226548 31:0.087204054 54:0.056637686 63:0.025172304 80:0.052142631 86:0.17800416 125:0.064728782 149:0.08180999 154:0.062930763 175:0.059334718 180:0.087204054 226:0.062930763 257:0.10518427 303:0.08180999 314:0.14294273 318:0.053940654 357:0.042253513 360:0.062930763 362:0.1069823 365:0.10068922 432:0.083608009 470:0.10878032 577:0.14204372 640:0.08990109 855:0.043152522 873:0.08900208 983:0.10878032 1006:0.047647577 1382:0.15103383 1454:0.047647577 1495:0.0413545 1572:0.029667359 1579:0.048546586 1583:0.060233731 1588:0.067425817 1642:0.10338625 1665:0.024273293 1675:0.055738676 1683:0.069223836 1711:0.19958042 1757:0.026071316 1794:0.053041641 1850:0.08180999 1856:0.073718891 1950:0.11866944 2094:0.10248724 2247:0.10518427 2261:0.071021862 2461:0.099790208 2468:0.0071920869 2550:0.13125558 2568:0.26251116 2908:0.054839663 3225:0.050344609 3348:0.2813904 4000:0.14114471 5986:0.64099479 #
-0.77855845979651094879159245465416 1:0.024742793 2:0.049485587 4:0.052578438 10:0.087630726 14:0.024742793 15:0.023711843 24:0.052578438 47:0.064949833 58:0.26392314 63:0.041237991 80:0.086599782 83:0.090723582 109:0.13608536 115:0.054640338 149:0.068042681 178:0.091754526 237:0.10309497 243:0.10618783 244:0.13093062 250:0.12371397 254:0.12886871 269:0.067011736 358:0.10721877 360:0.052578438 414:0.18454 543:0.14639486 580:0.12783776 641:0.16701385 697:0.10928068 825:0.35464671 1281:0.078352183 1306:0.062887937 1316:0.16804481 1369:0.093816429 1581:0.027835643 1593:0.11546637 1629:0.048454639 1766:0.10206403 1767:0.10103308 1779:0.052578438 1786:0.10618783 1802:0.042268939 1804:0.16701385 1855:0.011340448 3147:0.10206403 3512:0.10824972 3675:0.13402347 3740:0.029897543 4605:0.56083667 4821:0.037114192 4876:0.092785478 4903:0.16598292 5126:0.082475983 5266:0.04020704 #
-0.87845878807732358239945824607275 1:0.015790394 149:0.048300028 156:0.069663502 196:0.088240437 321:0.043655794 487:0.097528905 543:0.096600056 583:0.12353661 694:0.15511739 734:0.051086567 876:0.093813516 1076:0.08080966 1228:0.0417981 1260:0.043655794 1318:0.081738509 1383:0.048300028 1478:0.11889238 1596:0.052944262 1642:0.028794248 1679:0.12818085 1695:0.18948473 1697:0.48485798 1729:0.0083596203 1744:0.26379246 1775:0.018576935 1814:0.051086567 2400:0.097528905 2959:0.053873111 3011:0.16347702 4231:0.069663502 4263:0.069663502 4839:0.031580787 4883:0.098457754 5366:0.66319656 5389:0.10681737 5805:0.07430774 #
-0.40741885019870166528832555741246 1:0.032769199 8:0.082578383 14:0.086510688 15:0.020972287 42:0.078646079 43:0.079956844 46:0.14942755 83:0.15991369 86:0.28312588 102:0.56494099 142:0.065538399 149:0.060295328 226:0.093064524 248:0.1428737 324:0.085199915 487:0.010486144 675:0.015729215 694:0.035390735 806:0.163846 1230:0.11141527 1324:0.1271445 1421:0.034079969 1539:0.049809184 1593:0.10092913 1607:0.093064524 1642:0.14156294 1725:0.18875059 1792:0.020972287 1829:0.11141527 1871:0.045876879 1915:0.17302138 2195:0.20710135 2199:0.20710135 2494:0.17695367 2521:0.085199915 2709:0.0078646075 2762:0.15204908 2853:0.19530442 4008:0.20579058 5209:0.13894141 5508:0.023593824 5602:0.082578383 5667:0.040633809 5670:0.16253524 5958:0.12845527 5995:0.027526127 #
-0.72554798770113226868971878502634 1:0.044414293 8:0.010767101 14:0.024225978 18:0.02288009 78:0.034993079 81:0.029609529 122:0.033647195 134:0.029609529 149:0.02288009 160:0.13324289 166:0.068640269 200:0.094212137 212:0.045760181 223:0.043068405 295:0.029609529 315:0.068640269 320:0.12920523 360:0.043068405 361:0.039030742 445:0.090174474 528:0.092866249 543:0.24764334 580:0.094212137 590:0.10767101 598:0.119784 620:0.053835507 659:0.20188315 671:0.032301307 677:0.12920523 693:0.045760181 694:0.012112989 730:0.08613681 734:0.07402382 879:0.12382167 1030:0.10094158 1037:0.060564946 1132:0.12247578 1203:0.13997231 1237:0.31090006 1291:0.063256726 1305:0.32435894 1336:0.051143732 1382:0.056527283 1443:0.087482698 1478:0.1090169 1543:0.041722517 1544:0.044414293 1558:0.043068405 1570:0.075369708 1607:0.034993079 1639:0.060564946 1643:0.13593465 1663:0.064602613 1687:0.032301307 1695:0.044414293 1764:0.030955417 1775:0.095558025 1799:0.039030742 1807:0.1090169 1810:0.053835507 4186:0.068640269 4214:0.12785934 4220:0.076715596 4248:0.099595688 4250:0.21937969 4282:0.099595688 4283:0.057873171 4293:0.1090169 4298:0.15746886 4324:0.067294389 4325:0.055181395 4334:0.10228746 4335:0.083445035 4336:0.075369708 4345:0.055181395 4354:0.088828586 4360:0.083445035 4362:0.1413182 4371:0.1090169 4383:0.072677933 4396:0.072677933 4400:0.072677933 4406:0.072677933 4410:0.063256726 4429:0.16285241 4472:0.17361951 4475:0.20861259 4485:0.12382167 4500:0.05248962 4517:0.11709223 4540:0.078061484 #
0.59660790780061434546155396674294 1:0.0098540299 8:0.02364967 9:0.067992806 13:0.070949011 14:0.056167968 15:0.027591283 23:0.198066 24:0.12021916 54:0.072919816 63:0.031532895 79:0.04335773 92:0.1014965 107:0.074890621 123:0.11430674 126:0.074890621 192:0.010839432 193:0.035474505 258:0.042372327 318:0.068978205 340:0.025620477 372:0.0670074 432:0.16357689 492:0.066021994 543:0.16456228 580:0.067992806 624:0.17835793 656:0.19708058 661:0.077846833 694:0.079817638 706:0.056167968 1168:0.10740892 1266:0.10543811 1305:0.1005111 1421:0.069963612 1446:0.082773849 1456:0.23748212 1505:0.055182565 1536:0.062080387 1544:0.10248191 1557:0.11233594 1699:0.15175205 1794:0.050255552 2973:0.051240955 3310:0.084744655 3442:0.15569367 3477:0.11529215 3528:0.06306579 3895:0.0068978206 4077:0.029562088 4079:0.059124175 4510:0.69569451 4779:0.092627876 4863:0.14189802 4885:0.02660588 5184:0.039416119 #
0.61414292898945610499339409216191 10:0.016888207 12:0.079749867 15:0.018764675 39:0.042220518 61:0.036591113 62:0.031899944 68:0.041282281 115:0.076935165 132:0.04784992 149:0.026270544 150:0.032838181 169:0.11258804 219:0.15480857 242:0.037529349 261:0.026270544 322:0.039405815 342:0.13604389 377:0.04784992 432:0.082564563 445:0.10508218 480:0.080688097 510:0.095699839 533:0.05817049 543:0.060046956 554:0.063799888 579:0.12009391 674:0.02814701 679:0.095699839 694:0.13510565 706:0.02814701 712:0.14448799 740:0.092885137 802:0.064738125 1008:0.041282281 1024:0.079749867 1094:0.05629402 1142:0.11352628 1143:0.083502799 1265:0.048788153 1305:0.027208777 1372:0.040344048 1421:0.065676361 1493:0.061923426 1533:0.029085245 1536:0.11634098 1543:0.046911683 1614:0.054417554 1659:0.059108723 1708:0.10977335 1715:0.032838181 1729:0.091008671 1750:0.050664619 1790:0.12853801 1844:0.085379265 1846:0.051602852 2458:0.04784992 2566:0.030961713 2970:0.074120462 2971:0.074120462 3137:0.069429293 3480:0.31806123 3626:0.083502799 3698:0.013135272 4107:0.091008671 4651:0.12759978 5059:0.71024293 5066:0.10132924 5095:0.10132924 #
0.52568016609705947583819352075807 1:0.028129762 8:0.013638672 10:0.039211184 14:0.022162843 15:0.027277345 17:0.041768435 22:0.032391846 23:0.038358767 24:0.069898196 25:0.051145021 27:0.11848597 53:0.069898196 62:0.07586512 74:0.093765877 76:0.063931279 78:0.046882939 123:0.066488527 130:0.066488527 182:0.10229004 193:0.040916018 196:0.028129762 218:0.056259524 230:0.051145021 239:0.070750616 269:0.029834596 276:0.12701014 304:0.056259524 321:0.027277345 328:0.046882939 347:0.05455469 349:0.11678114 360:0.046882939 370:0.13212465 394:0.073307864 430:0.063931279 432:0.28811696 543:0.22844777 621:0.12274805 624:0.10399488 694:0.13127223 962:0.12104322 994:0.040063601 1086:0.066488527 1223:0.1099618 1252:0.037506349 1375:0.080979615 1387:0.063931279 1396:0.093765877 1421:0.14150123 1787:0.080979615 1844:0.045178104 1845:0.07160303 2292:0.11933839 3133:0.013638672 3628:0.07586512 5045:0.076717533 5348:0.54298967 5535:0.068193361 5688:0.50207365 #
0.47754103088625282635959479193843 1:0.0099991737 14:0.075448312 36:0.22543591 193:0.14089745 195:0.4199653 276:0.058177009 360:0.07999339 432:0.23543508 468:0.068176188 499:0.069085203 543:0.10544583 655:0.58722419 694:0.043632757 717:0.037269648 1054:0.11999008 1189:0.13453433 1480:0.084538467 1494:0.043632757 1627:0.40269399 1629:0.04090571 1699:0.021816378 1700:0.097264692 1726:0.1036278 1856:0.067267165 3866:0.1208991 3946:0.13453433 4178:0.13180728 4286:0.050904885 4301:0.054540947 4486:0.015453269 4607:0.12635319 4613:0.073630281 4627:0.073630281 #
0.3995047695611944615912136669067 1:0.014393624 10:0.018231923 15:0.010555324 18:0.14297666 24:0.13146177 40:0.037423421 45:0.17464264 53:0.065251097 54:0.039342571 62:0.03550427 63:0.017272349 126:0.081563868 196:0.025908522 224:0.047978748 229:0.11035112 245:0.047978748 328:0.044140447 360:0.022070223 429:0.074846841 432:0.095957495 457:0.15449156 543:0.071008541 649:0.037423421 696:0.23701501 766:0.18999584 825:0.049897894 1140:0.043180872 1204:0.083483018 1251:0.076765992 1305:0.043180872 1456:0.040302146 1565:0.037423421 1595:0.055655345 1735:0.058534071 1856:0.14585538 2328:0.071008541 2437:0.0076765995 2716:0.055655345 2729:0.055655345 2758:0.11706814 2936:0.52296835 2988:0.023029799 3106:0.053736195 3114:0.053736195 4277:0.071968116 5258:0.61220878 5590:0.077725567 5723:0.11898729 5725:0.059493646 #
-0.76106382176226494706838821002748 1:0.011727002 8:0.0081186937 14:0.025258159 15:0.030670622 20:0.014433234 29:0.082089022 33:0.041495547 38:0.017139465 42:0.022551928 47:0.033376854 58:0.045103855 62:0.043299701 65:0.023454005 66:0.024356082 70:0.024356082 78:0.053222552 85:0.026160236 91:0.018943619 99:0.027964391 101:0.0315727 103:0.050516319 104:0.071264096 112:0.025258159 123:0.037887238 124:0.018943619 129:0.18041542 141:0.060439169 149:0.035181008 153:0.025258159 170:0.018943619 187:0.042397626 200:0.095620178 210:0.035181008 234:0.083893172 236:0.033376854 238:0.039691392 244:0.033376854 250:0.0315727 251:0.034278929 258:0.014433234 263:0.023454005 273:0.030670622 278:0.056830861 279:0.025258159 306:0.0315727 310:0.027964391 321:0.015335311 332:0.036985163 357:0.018041542 358:0.055026706 360:0.080284864 366:0.027062314 372:0.045103855 425:0.023454005 445:0.094718099 455:0.0315727 510:0.032474775 518:0.052320473 530:0.030670622 543:0.18582788 546:0.042397626 623:0.036083084 674:0.018943619 694:0.16778634 701:0.064047478 704:0.029768545 711:0.057732936 730:0.021649851 763:0.039691392 1079:0.073970325 1181:0.051418398 1235:0.10824925 1333:0.052320473 1390:0.090207711 1456:0.055026706 1513:0.027964391 1550:0.057732936 1565:0.046005934 1566:0.026160236 1579:0.041495547 1604:0.04690801 1606:0.11907418 1631:0.4970445 1637:0.027062314 1704:0.028866468 1736:0.04420178 1766:0.026160236 1773:0.055928782 1786:0.027062314 1807:0.017139465 1845:0.061341245 1856:0.15064688 1857:0.057732936 3623:0.060439169 3684:0.051418398 3702:0.068557858 3705:0.068557858 3707:0.034278929 3716:0.068557858 3774:0.089305639 3903:0.053222552 3918:0.064047478 3927:0.0036083085 3970:0.057732936 4028:0.021649851 4037:0.065851629 4043:0.086599402 4067:0.10103264 4448:0.20296736 4570:0.11185756 4582:0.10373887 4599:0.084795251 4601:0.097424328 4618:0.048712164 4622:0.061341245 4640:0.055928782 4642:0.24536498 4690:0.43119287 4694:0.16237389 4721:0.10193472 4835:0.08840356 4857:0.04420178 #
