SVM-light Version V6.02
0 # kernel type
3 # kernel parameter -d 
1 # kernel parameter -g 
1 # kernel parameter -s 
1 # kernel parameter -r 
empty# kernel parameter -u 
100 # highest feature index 
300 # number of training documents 
95 # number of support vectors plus 1 
0.010506431 # threshold b, each following line is a SV (starting with alpha*y)
1 10:0.22883433 15:0.084130272 22:0.12787801 47:0.11441717 59:0.16153012 70:0.16826054 74:0.91197211 81:0.1581649 #
-0.25975748773941659264252734828915 1:0.01473841 15:0.061059128 19:0.067375585 29:0.40214804 33:0.082113996 38:0.13475117 49:0.065270104 50:0.32845598 59:0.092641436 62:0.086324975 66:0.48215654 69:0.077903025 74:0.21054871 85:0.6232242 86:0.073692046 #
0.25118494364750765246441233102814 1:0.080456816 7:0.46358451 15:0.061300434 27:0.44825941 49:0.33332109 53:0.39845282 55:0.50955987 63:0.21072024 #
-0.53018183727019907447441937620169 1:0.094910525 15:0.22145788 42:0.55891752 86:0.36909649 88:0.52728069 91:0.46400699 #
0.20764887144519694750499638757901 15:0.063999757 20:0.15359941 23:0.23039912 27:0.23679909 51:0.23679909 53:0.21119919 61:0.76799703 63:0.22079915 77:0.35199866 #
1 1:0.18554704 4:0.26232514 8:0.15995435 10:0.44147399 15:0.24313061 31:0.36469591 51:0.44147399 79:0.28791782 81:0.45427036 #
1 1:0.021449341 10:0.075072691 15:0.1072467 17:0.32174009 23:0.15014538 24:0.27347907 27:0.3056531 38:0.11797137 54:0.16623239 63:0.14478305 77:0.11260904 86:0.78290093 #
-0.2811597798790778091060360566189 1:0.24474905 8:0.38000512 15:0.070848413 65:0.55390573 89:0.6956026 #
-0.86738209427941237450454536883626 1:0.041615255 32:0.61233878 53:0.51721817 90:0.59648532 #
0.6774907874959357201305465423502 1:0.087069616 14:0.27862278 15:0.034827847 21:0.32505989 24:0.44695735 51:0.2554042 53:0.45276201 63:0.11609282 76:0.40632486 78:0.30184135 81:0.26120883 #
-1 1:0.048747923 2:0.17703193 10:0.42077157 13:0.11032425 14:0.059010647 15:0.11545561 23:0.62346029 24:0.31301299 38:0.24373962 71:0.31044731 81:0.10775857 96:0.3258414 #
-1 1:0.047990724 10:0.17276661 13:0.36153013 15:0.092782065 23:0.33913445 24:0.6110819 35:0.33593509 63:0.16316846 86:0.44791344 #
-1 1:0.036691483 8:0.089107886 9:0.25159872 15:0.031449839 23:0.24111545 24:0.14676593 27:0.24635708 41:0.30401513 44:0.40884793 52:0.35643154 54:0.52940565 59:0.25684038 63:0.23063217 #
-1 1:0.060046252 8:0.10207863 10:0.44434229 15:0.20415726 19:0.45635152 51:0.30023128 55:0.33625901 58:0.29422665 63:0.13810638 64:0.25219426 67:0.28822201 80:0.28822201 #
-1 1:0.082998119 8:0.071141243 9:0.20156686 10:0.19761457 14:0.32804018 15:0.082998119 22:0.16204394 25:0.25689894 31:0.49008411 32:0.20947143 41:0.24504206 53:0.17785311 56:0.16599624 61:0.43079975 62:0.18970998 63:0.094854988 69:0.17390081 93:0.19366227 #
1 1:0.0549259 8:0.079892218 12:0.51929945 15:0.029959582 59:0.22969013 60:0.68407714 61:0.23468339 66:0.23967665 84:0.29460254 #
1 1:0.066431336 5:0.66905844 18:0.74023485 #
1 1:0.041853532 7:0.19531649 14:0.052316915 15:0.076731481 17:0.19880429 20:0.48829123 21:0.24065782 44:0.31041372 61:0.20577988 71:0.69058329 #
1 1:1 #
0.84326208036159777670093262713635 40:0.68280464 61:0.73060101 #
-1 1:0.15049537 15:0.018811921 18:0.91708112 26:0.16930728 38:0.098762579 49:0.29628775 71:0.098762579 #
-0.32650084492178299555575904378202 1:1 #
-1 1:0.61006594 8:0.14789477 14:0.33276325 18:0.3142764 78:0.48065802 81:0.40671062 #
-0.45093517785998465940977553145785 1:0.15776955 8:0.048962962 14:0.038082305 15:0.1849712 17:0.14144856 24:0.081604935 40:0.13600823 47:0.29921812 49:0.097925924 51:0.13600823 60:0.70180249 69:0.11968724 74:0.15776955 94:0.13600823 97:0.47330865 #
-1 1:0.094902903 8:0.066783525 11:0.1581715 14:0.10544766 15:0.10544766 22:0.1581715 30:0.17926103 37:0.17926103 38:0.14762673 42:0.19332072 49:0.14411181 51:0.57644725 56:0.16168642 71:0.55887264 79:0.24604456 81:0.19683564 #
1 1:0.03352309 8:0.080455415 9:0.23130932 13:0.24136625 14:0.19108161 15:0.09386465 23:0.67381412 24:0.40898168 54:0.24807087 63:0.10727388 79:0.14750159 92:0.34528783 #
-1 1:0.087588906 2:0.90508538 10:0.40144917 15:0.10948613 #
1 1:0.05998262 10:0.13710313 13:0.55698144 14:0.14567208 15:0.11139629 24:0.31705099 59:0.28277519 64:0.45415413 86:0.49699885 #
0.42489820556372615012463711536839 1:0.051489729 10:0.49650812 13:0.34571677 14:0.18389189 15:0.11401297 23:0.16182487 35:0.48547462 36:0.13975784 39:0.20963676 55:0.18756974 61:0.18021406 63:0.15446919 77:0.12504649 85:0.38985083 #
1 18:0.39785761 22:0.42399424 53:0.45884308 54:0.55177331 77:0.38333726 #
-1 1:0.012241737 15:0.024483474 24:0.11017563 44:0.155062 45:0.44886369 47:0.13873969 53:0.16730374 66:0.82019639 70:0.20402895 #
-1 1:0.080645256 3:0.33794203 4:0.16897102 8:0.10368676 13:0.30337977 15:0.038402501 20:0.18817227 24:0.34178227 31:0.47619104 38:0.22273451 61:0.31106028 77:0.21505402 81:0.29569927 96:0.29569927 #
-1 1:0.0568191 15:0.0757588 35:0.55872113 69:0.50190204 86:0.65341961 #
-1 15:0.067292139 33:0.42297918 86:0.90363729 #
0.18266155162388192367828310125333 15:0.036073331 22:0.21643998 25:0.34389907 31:0.21884486 36:0.44009462 44:0.21884486 52:0.38478217 63:0.12505421 64:0.45211905 67:0.25972798 68:0.32946974 #
1 1:0.028299648 8:0.072321326 9:0.21067517 10:0.10376538 14:0.116343 15:0.028299648 22:0.16979788 36:0.34588459 41:0.76723492 51:0.20753075 72:0.27356327 77:0.15407586 94:0.21381956 #
1 1:0.089322776 10:0.16189753 14:0.089322776 15:0.089322776 21:0.40753514 36:0.53593665 44:0.26238564 47:0.24005495 49:0.24005495 52:0.46336189 67:0.3126297 #
1 22:0.64764839 62:0.76193935 #
-1 63:1 #
-1 1:0.038860373 15:0.050817411 17:0.39159298 43:0.75927192 58:0.37066817 62:0.35871112 #
-1 1:0.014446302 14:0.10593955 22:0.61637557 27:0.37560385 29:0.68379164 #
1 27:0.71603757 35:0.69806176 #
-1 1:0.034055196 15:0.15324838 91:0.98760074 #
1 1:0.021560138 10:0.094864607 15:0.081928521 27:0.19404124 53:0.1724811 59:0.2026653 63:0.090552576 79:0.1250488 86:0.9227739 #
1 1:0.031297579 15:0.13562284 35:0.97022498 86:0.198218 #
0.20151510801364197478235951166425 1:0.051656619 10:0.065431714 15:0.03788152 18:0.51312238 24:0.47179711 40:0.13430721 45:0.62676698 53:0.23417667 54:0.14119475 62:0.12741965 63:0.06198794 #
0.10389653375177032579301794612547 1:0.015609129 8:0.14048217 9:0.39543128 14:0.1092639 36:0.32779172 44:0.32258868 52:0.5671317 63:0.18210651 77:0.29137042 81:0.40063432 #
-1 1:0.044035584 15:0.044035584 46:0.29357058 47:0.90272951 81:0.30824909 #
-1 1:0.068448611 8:0.062744558 15:0.14830533 30:0.16541748 33:0.16541748 36:0.29661065 40:0.18252963 42:0.18252963 47:0.2680904 53:0.31942686 60:0.37646735 77:0.13119318 79:0.23386608 86:0.61033344 #
-1 1:0.1022059 15:0.08176472 86:0.99139726 #
1 95:1 #
0.95524299864242701030292437280877 15:0.10557943 28:0.99441087 #
1 1:0.018043501 7:0.47514552 14:0.12630451 15:0.060145006 56:0.38492802 63:0.21652201 84:0.63753706 91:0.39094251 #
-0.30174363823277539076173070498044 1:0.064283766 8:0.10606821 15:0.083568893 46:0.86461663 65:0.31177625 71:0.22177899 88:0.28927693 #
-0.87052145850484607958463811883121 85:0.56585807 97:0.56585807 99:0.59967428 #
-0.011382013784974493245116811124262 1:0.050457921 14:0.16054793 15:0.038990211 30:0.27063793 80:0.28439918 88:0.83714277 89:0.33944419 #
1 9:0.25617099 10:0.12096963 15:0.17078066 17:0.52657372 81:0.25617099 86:0.74004954 #
1 1:0.075804248 7:0.24365652 14:0.064975068 15:0.064975068 17:0.49272761 51:0.23282734 53:0.20575438 63:0.10829178 64:0.20033979 77:0.34653372 86:0.6443361 #
1 1:0.038714714 9:0.21777026 10:0.10646546 12:0.25648499 15:0.087108105 20:0.14034083 24:0.13066216 38:0.49845195 40:0.44037986 42:0.44037986 67:0.21293092 79:0.14034083 86:0.35811111 #
0.75885962182266375464223528979346 9:0.41527805 10:0.10090869 15:0.085384272 24:0.1203142 25:0.26779613 27:0.20569848 63:0.19405517 73:0.23674731 76:0.3298938 78:0.24450952 86:0.57440329 100:0.29884496 #
-1 1:0.07009206 14:0.09512493 15:0.045059178 32:0.70592713 53:0.30039454 77:0.50065756 86:0.38049972 #
-0.97046954469425517064706809833297 1:0.040362366 8:0.13117769 14:0.10090591 15:0.050452955 34:0.36326128 75:0.4742578 86:0.78202081 #
0.48639390333405541078093392570736 1:0.042024545 14:0.3170943 36:0.9474625 #
1 #
1 27:0.66210276 55:0.74941301 #
1 15:1 #
0.83084845675722907021309993069735 73:1 #
-1 1:0.077469945 15:0.041501757 27:0.62252635 45:0.36798224 60:0.65019417 86:0.21580914 #
-1 1:0.080773972 15:0.20193492 49:0.55734038 64:0.63811433 79:0.48464382 #
-0.80780238795619008218551471145474 1:0.0072035301 15:0.052825887 70:0.64351535 93:0.76357418 #
-0.92488040123388604030196802341379 87:1 #
0.84046685276739607761697925525368 1:0.0094824545 8:0.047412273 10:0.26076749 12:0.15646049 15:0.054524112 32:0.13749559 44:0.10667761 47:0.19439031 54:0.1398662 55:0.14934866 56:0.10904822 59:0.41011614 61:0.14223681 62:0.63295382 64:0.22283767 69:0.11378945 77:0.19439031 79:0.085342087 86:0.28921485 #
-0.66489239168951852487765563637367 1:0.081668817 3:0.33308065 5:0.39873597 6:0.4387697 26:0.72861391 #
1 1:0.052587748 24:0.29298887 45:0.58597773 53:0.43948331 68:0.61227161 #
-0.33862123150643153035588284183177 1:0.09484107 15:0.061646692 38:0.35091195 60:0.4789474 89:0.79666495 #
-0.13949098216227318047799599298742 1:0.19287418 14:0.07386671 15:0.069763005 20:0.16825195 38:0.2010816 40:0.2626372 46:0.25032607 47:0.19287418 50:0.48423731 65:0.27084461 79:0.16825195 83:0.5375855 87:0.29957053 #
0.93919467008455759238216842277325 1:0.14704865 12:0.28821534 14:0.34115288 15:0.09999308 23:0.47643763 24:0.43526399 56:0.20586811 57:0.28821534 63:0.2293959 64:0.41761816 #
0.21745279192004668411541956629662 1:0.1221552 24:0.99251103 #
0.99675899509220378114093819021946 1:0.018549182 9:0.54587591 10:0.13514404 14:0.074196726 15:0.074196726 18:0.62802225 24:0.15899298 39:0.3418349 47:0.20139112 63:0.25438878 79:0.17489228 #
-0.50843082720306553845546204684069 1:0.061969571 8:0.12049638 10:0.17213769 15:0.092954352 35:0.33738989 38:0.26509205 63:0.16180943 86:0.35460365 88:0.33050436 96:0.70576453 #
-0.57464104402148463712762804789236 1:0.16272396 2:0.15968238 3:0.33457261 4:0.50794208 5:0.39844558 6:0.43950674 11:0.2372424 20:0.18553571 82:0.36802986 #
-0.48880898950489720666823245665 1:0.21242279 8:0.47077483 14:0.183717 15:0.091858499 22:0.54540986 31:0.54540986 63:0.31002244 #
-1 1:0.20621169 14:0.50407296 15:0.050407298 18:0.27953139 27:0.36659855 79:0.47199562 80:0.35743359 94:0.37118101 #
-0.26350916673096574927015467437741 1:0.037876192 15:0.15150477 38:0.056814287 47:0.053657938 50:0.13887937 65:0.075752385 71:0.92165399 79:0.28722778 87:0.085221432 93:0.072596036 #
0.31380824691785413893541090146755 1:0.012685251 7:0.77062905 10:0.18393615 15:0.050741006 63:0.1744222 78:0.4408125 81:0.38055754 #
0.054345616154947901099703244653938 1:0.11586513 10:0.11586513 14:0.13152258 15:0.031314898 18:0.36325282 24:0.69519073 45:0.27870259 51:0.23486175 53:0.20980982 56:0.19728386 63:0.10960215 67:0.23173025 81:0.24112472 #
-0.31957220568094385493296272215957 1:0.050265815 14:0.40571696 15:0.10053163 79:0.47393483 86:0.20106326 94:0.74680644 #
-0.099764412645275607482986401919334 1:0.22770667 14:0.59095305 15:0.048794288 27:0.35782477 79:0.46083492 80:0.35240319 94:0.36324635 #
-0.10897230199289673069351636058855 1:0.075030416 2:0.15006083 4:0.15943962 10:0.26573271 14:0.075030416 15:0.071904145 24:0.15943962 47:0.19695483 58:0.80032444 63:0.12505069 80:0.26260644 83:0.27511153 #
-0.081950414184990716393031107145362 1:0.045103859 15:0.030069239 29:0.19043851 33:0.19043851 47:0.15535773 50:0.39090011 54:0.2255193 70:0.46106166 75:0.54625785 81:0.43099242 #
-0.058662635590709041877310880863661 1:0.13764496 15:0.075942047 43:0.2800363 45:0.3227537 49:0.20409425 53:0.24206528 59:0.28478268 60:0.57431173 64:0.23257253 71:0.19934787 79:0.17561598 83:0.2800363 90:0.2800363 #
-0.037115870764086858479835484558862 49:0.79280818 86:0.60947126 #
-0.039065295790105300510752783793578 1:0.18812303 2:0.25171393 3:0.52727443 4:0.26761165 5:0.31530482 6:0.086112656 11:0.094061516 14:0.062266078 16:0.19209747 20:0.072864555 24:0.40141746 37:0.21064481 43:0.11525849 47:0.16692607 48:0.26761165 58:0.22521771 82:0.14440431 #
0.04028420042780476995059046885217 1:0.058047865 12:0.97788322 86:0.20093492 #
