SVM-light Version V6.02
0 # kernel type
3 # kernel parameter -d 
1 # kernel parameter -g 
1 # kernel parameter -s 
1 # kernel parameter -r 
empty# kernel parameter -u 
20 # highest feature index 
300 # number of training documents 
96 # number of support vectors plus 1 
-0.32639533 # threshold b, each following line is a SV (starting with alpha*y)
-1 1:0.087588906 2:0.90508538 10:0.40144917 15:0.10948613 #
1 1:0.23610134 10:0.46275863 14:0.25498945 15:0.3872062 18:0.71774811 #
-1 1:0.3584902 14:0.93036741 15:0.07681933 #
1 1:0.082607962 8:0.19825912 9:0.56999493 13:0.59477735 14:0.47086537 15:0.23130229 #
-1 1:0.29591823 8:0.59752721 10:0.66581601 14:0.18779427 15:0.091051765 19:0.26177382 #
1 1:0.29987878 4:0.42396656 8:0.25851619 10:0.71350473 15:0.39294463 #
-1 1:0.26040506 8:0.50634319 10:0.72334743 15:0.3906076 #
1 1:0.20531623 8:0.08034113 9:0.45526642 10:0.11604831 14:0.62487549 15:0.21424302 16:0.19638944 17:0.47312 19:0.17853585 #
1 #
0.23171605644428722170502510380174 1:0.069489703 7:0.50032586 8:0.17372425 10:0.23626497 14:0.53507072 15:0.13203043 17:0.50727481 20:0.31270364 #
-1 1:0.097938336 15:0.12807322 17:0.98691708 #
1 1:1 #
-1 1:0.9507612 10:0.29799977 15:0.085142791 #
-1 1:0.16190344 15:0.02023793 18:0.98659909 #
-1 1:0.099558346 2:0.361554 10:0.85934573 13:0.22531626 14:0.120518 15:0.23579608 #
-0.32003461462837756723587290252908 1:1 #
1 1:0.11122712 8:0.16313311 14:0.12605742 15:0.12605742 17:0.96396846 #
1 1:0.27533847 10:0.27533847 14:0.31254637 15:0.074415803 18:0.86322331 #
1 1:0.082391083 14:0.94749743 15:0.30896655 #
0.28004635816379885859817022719653 1:0.073249757 7:0.34183219 14:0.091562189 15:0.13429122 17:0.34793633 20:0.85458046 #
1 1:0.37948588 8:0.18399315 10:0.52898031 14:0.29898885 15:0.36798629 17:0.56347901 #
-1 1:0.11912969 14:0.96386749 15:0.23825939 #
1 1:1 #
-1 1:0.54775512 8:0.16999297 14:0.13221675 15:0.64219564 17:0.4910908 #
0.78441913126906726017040227816324 1:0.066431336 5:0.66905844 18:0.74023485 #
-1 #
1 1:0.22485951 15:0.97439122 #
1 15:1 #
-1 1:0.70040119 14:0.26823875 15:0.25333661 20:0.61098826 #
1 1:0.13138133 14:0.99133188 #
-1 1:0.12660682 14:0.98471975 15:0.11957311 #
1 1:1 #
-1 1:1 #
1 1:0.29617444 14:0.9477582 15:0.11846977 #
-1 1:0.13511321 14:0.99083018 #
0.95560734575244665744975236520986 1:0.10621679 10:0.21907212 13:0.92275834 15:0.29873472 #
-1 1:0.11589665 10:0.41722795 13:0.87308812 15:0.22406685 #
1 1:0.39181387 10:0.78362775 14:0.42446506 15:0.22855811 #
-1 15:1 #
0.94026817500175774444670651064371 1:0.099113956 10:0.22654618 13:0.92034388 14:0.24070533 15:0.18406878 #
-1 1:0.13526727 8:0.32850626 9:0.92754704 15:0.11594338 #
-1 15:1 #
1 1:0.03597267 8:0.32375404 9:0.91130769 14:0.2518087 #
-1 #
1 15:1 #
-1 1:0.05547002 15:0.99846035 #
-1 1:0.075342171 8:0.11301326 14:0.087899201 15:0.25114056 18:0.95433414 #
-1 1:0.08839871 8:0.15027781 10:0.65415043 15:0.30055562 19:0.67183018 #
1 #
-1 #
-1 10:0.45599261 11:0.74309909 15:0.48976985 #
1 15:1 #
1 1:0.16301279 14:0.20376599 15:0.23093478 18:0.93732351 #
1 1:0.1388849 10:0.93431664 15:0.32827342 #
1 #
-1 #
1 15:1 #
-1 1:0.13511321 15:0.99083018 #
1 #
1 15:1 #
-1 #
-1 1:0.18589167 15:0.98257023 #
-1 1:0.24253562 15:0.97014248 #
1 #
-1 1:0.78526926 8:0.19036831 14:0.42832869 18:0.40453264 #
1 1:0.39887974 10:0.72296947 14:0.39887974 15:0.39887974 #
1 15:0.38461539 20:0.92307693 #
1 1:0.2496535 10:0.84882188 15:0.46601987 #
-1 1:0.21693046 15:0.97618705 #
-1 1:0.24253562 15:0.97014248 #
-1 1:0.29208973 14:0.92937642 15:0.2257057 #
1 1:0.10423455 7:0.83387637 15:0.54201967 #
-1 1:0.18280923 8:0.15669364 9:0.44396529 10:0.43526009 14:0.72253174 15:0.18280923 #
-1 1:0.20422019 2:0.40844038 4:0.43396792 10:0.72327983 14:0.20422019 15:0.19571102 #
1 1:0.16951588 10:0.74586987 15:0.64416033 #
1 1:0.30590338 12:0.59957063 14:0.70969588 15:0.20801431 #
-1 1:0.33571807 14:0.8206442 15:0.08206442 18:0.4550845 #
-1 1:0.15003063 3:0.62869972 4:0.31434986 8:0.19289652 13:0.56440091 15:0.071443155 20:0.35007146 #
-1 1:0.11939675 14:0.96370226 15:0.23879349 #
1 1:0.20828353 9:0.83313411 14:0.46119922 15:0.22316092 #
-1 1:0.30782029 15:0.95144451 #
-1 1:0.1393328 8:0.47771245 10:0.65685463 14:0.17914218 15:0.53742653 #
1 #
1 10:0.76619154 15:0.64261228 #
-0.12983093290435004929506135340489 1:0.13199349 3:0.66335189 4:0.67012078 8:0.19968246 10:0.14214684 20:0.18276021 #
1 #
-0.98274028352867137670045849517919 1:0.11923767 3:0.48630264 5:0.58216035 6:0.64061022 #
-0.3473200236556497899620410407806 6:0.70710677 19:0.70710677 #
1 1:0.21427682 7:0.16482833 8:0.10713841 10:0.074172743 12:0.18955258 13:0.16482833 14:0.56041628 15:0.082414165 18:0.72524464 #
0.14519200208515842254186622994894 1:0.22298096 8:0.30016667 10:0.42023334 12:0.49741906 13:0.43738571 14:0.23155715 15:0.29159048 18:0.32589525 #
0.1852896709226004579029734031792 1:0.13393524 15:0.061816264 17:0.98906022 #
0.30076787915074043588958829786861 1:0.24589524 12:0.96274239 15:0.11252833 #
-0.03909029914088840707009353536705 1:1 #
0.0042171544045862732058571609172759 1:0.10297995 8:0.26317099 9:0.7666285 10:0.37759316 14:0.42336202 15:0.10297995 #
-0.0085076193365065944096414796149475 1:0.22941573 14:0.6882472 15:0.6882472 #
