SVM-light Version V6.02
0 # kernel type
3 # kernel parameter -d 
1 # kernel parameter -g 
1 # kernel parameter -s 
1 # kernel parameter -r 
empty# kernel parameter -u 
3000 # highest feature index 
300 # number of training documents 
226 # number of support vectors plus 1 
-0.10839242 # threshold b, each following line is a SV (starting with alpha*y)
-0.36834192124188946948493139643688 1:0.062264342 8:0.054339789 14:0.12679285 15:0.026037816 33:0.035094447 38:0.057736024 56:0.031698212 60:0.3973597 69:0.03283029 75:0.048679393 85:0.044151079 94:0.11660413 101:0.05320771 116:0.10528334 122:0.087170079 142:0.031698212 149:0.11773621 160:0.056603946 167:0.041886922 202:0.15509482 244:0.056603946 286:0.055471867 295:0.038490683 305:0.13811363 357:0.030566132 361:0.098490864 388:0.096226707 418:0.062264342 425:0.039622761 432:0.21056668 445:0.09962295 469:0.11320789 480:0.045283157 543:0.13811363 581:0.052075632 596:0.21962331 619:0.074717209 669:0.050943553 680:0.070188895 682:0.074717209 699:0.1607552 704:0.34868032 715:0.058868106 751:0.095094629 814:0.098490864 823:0.083773844 878:0.066792659 915:0.067924738 975:0.062264342 976:0.172076 1003:0.056603946 1099:0.027169894 1110:0.097358786 1115:0.14264195 1152:0.082641765 1252:0.036226526 1255:0.056603946 1310:0.078113444 1378:0.065660581 1389:0.07358513 1437:0.070188895 1462:0.064528503 1488:0.061132263 1543:0.05320771 1582:0.038490683 1597:0.12452868 1606:0.097358786 1642:0.31698209 1652:0.061132263 1684:0.083773844 1688:0.086038001 1694:0.060000185 1704:0.097358786 1748:0.052075632 1763:0.05320771 1764:0.078113444 1769:0.078113444 2831:0.079245523 2898:0.11547205 2899:0.11547205 2904:0.11773621 #
-0.011510300820837567406518253676495 1:0.085908599 2:0.25049141 3:0.41959569 4:0.15915699 5:0.12479355 6:0.068726882 11:0.074152686 14:0.099473119 19:0.069631182 20:0.057875268 24:0.21251075 37:0.083195701 43:0.092238709 58:0.089525804 63:0.04250215 85:0.10489892 93:0.087717205 168:0.21431936 243:0.10851613 252:0.38884947 285:0.10670753 290:0.13926236 341:0.11213333 360:0.10580323 452:0.094047315 453:0.049736559 487:0.10309032 613:0.047927957 694:0.11575054 712:0.069631182 781:0.1682 849:0.16277419 850:0.21341506 1014:0.068726882 1150:0.026224731 1306:0.12841076 1422:0.075961292 1657:0.069631182 1729:0.039789248 1792:0.010851613 1801:0.037980646 1827:0.088621505 1856:0.0850043 1877:0.068726882 1994:0.060588174 2108:0.14287958 2112:0.28575915 2207:0.15011398 2453:0.058779571 2683:0.043406453 2692:0.010851613 #
-0.45460221389842170314210534343147 1:0.035027653 15:0.019325603 43:0.071263157 45:0.082133807 49:0.051937558 53:0.061600357 59:0.072471008 60:0.14614987 64:0.059184659 71:0.050729707 79:0.044690456 83:0.071263157 90:0.071263157 124:0.11716147 155:0.10266726 178:0.072471008 224:0.089380912 234:0.17272258 258:0.13165566 269:0.053145409 279:0.07609456 331:0.23190723 359:0.084549509 360:0.12320071 516:0.088173062 543:0.26693487 551:0.11595362 580:0.073678859 596:0.13407136 612:0.13407136 617:0.11474577 876:0.010870651 994:0.070055306 1070:0.14977342 1126:0.17996967 1189:0.062808208 1321:0.12440857 1323:0.15702052 1325:0.14252631 1438:0.39738271 1445:0.083341658 1466:0.15218912 1474:0.14614987 1597:0.19567172 1601:0.12682426 1604:0.072471008 1636:0.15822837 1642:0.067639612 1734:0.3273274 1793:0.0096628014 1800:0.074886709 1811:0.17876182 2205:0.15943623 2809:0.13407136 2880:0.088173062 #
-1 1:0.016202345 8:0.017552542 14:0.013501954 15:0.020252932 21:0.063459188 29:0.090463094 44:0.040505864 71:0.036455277 79:0.064809382 86:0.14177053 87:0.056708209 136:0.10396505 137:0.070210166 167:0.055358015 197:0.14582111 226:0.059408601 227:0.054007817 261:0.03915567 282:0.07156036 304:0.070210166 359:0.060758796 372:0.098564267 376:0.045906644 418:0.24438538 424:0.081011727 452:0.090463094 471:0.14582111 473:0.11476661 487:0.16202345 491:0.060758796 543:0.53332722 615:0.079661533 634:0.072910555 661:0.20657991 674:0.041856058 679:0.070210166 711:0.083712116 730:0.048607036 874:0.12286779 1008:0.12151759 1252:0.047256842 1305:0.13636974 1320:0.13907014 1381:0.23358381 1382:0.083712116 1444:0.054007817 1480:0.075610943 1497:0.14987169 1525:0.07156036 1648:0.11476661 1675:0.10531525 1687:0.055358015 1715:0.097214073 1716:0.043206256 1773:0.21333088 1803:0.19307795 1821:0.070210166 1827:0.1201674 1838:0.093163483 1841:0.06210899 1845:0.0891129 1857:0.041856058 1863:0.094513685 1876:0.035105083 1878:0.14042033 1897:0.0891129 2031:0.11611681 2271:0.049957231 2742:0.064809382 #
-0.138971717510331410627699710858 1:0.0080507332 8:0.027602512 10:0.037953455 14:0.010350943 15:0.031052828 24:0.023002094 29:0.069006279 30:0.035653245 33:0.14031278 38:0.028752618 42:0.07820712 47:0.05635513 49:0.057505235 50:0.035653245 53:0.03450314 66:0.20816895 79:0.098909006 91:0.19551779 101:0.05405492 102:0.27832535 105:0.05865534 120:0.043703977 131:0.10120922 133:0.052904814 157:0.098909006 168:0.046004187 189:0.052904814 220:0.059805445 226:0.046004187 241:0.048304398 252:0.055205025 269:0.05865534 273:0.051754713 277:0.051754713 288:0.011501047 295:0.03910356 310:0.048304398 320:0.081657432 332:0.69006282 360:0.023002094 456:0.066706076 467:0.057505235 475:0.1460633 517:0.071306489 534:0.060955551 568:0.048304398 603:0.14031278 654:0.070156388 661:0.10695974 664:0.0736067 706:0.032202933 710:0.0057505234 711:0.097758897 934:0.087407954 947:0.083957642 956:0.093158484 968:0.077057011 975:0.031052828 989:0.063255757 1008:0.047154292 1096:0.080507331 1252:0.072456598 1305:0.059805445 1322:0.051754713 1336:0.066706076 1367:0.07590691 1438:0.072456598 1445:0.092008375 1640:0.17366581 1642:0.1449132 1715:0.037953455 1748:0.051754713 1777:0.072456598 1834:0.10580963 #
0.93076105466984926373186226555845 1:0.028991999 4:0.040988687 8:0.024993103 10:0.068980962 15:0.037989516 31:0.056984276 51:0.068980962 79:0.044987585 81:0.070980415 106:0.078978203 149:0.053985104 168:0.081977375 204:0.14196083 226:0.081977375 261:0.054984827 285:0.061982896 312:0.13196358 314:0.092974342 320:0.051985655 322:0.081977375 360:0.040988687 371:0.048986483 372:0.068980962 479:0.055984549 481:0.071980134 543:0.115968 607:0.12196634 613:0.21694013 661:0.021993931 876:0.11796745 1306:0.14895889 1430:0.11096938 1478:0.034990344 1480:0.10896993 1593:0.089975171 1597:0.090974897 1641:0.075979032 1656:0.071980134 1968:0.13096386 2017:0.042988136 2132:0.10497103 2198:0.80777711 2356:0.14595972 2460:0.064982064 2698:0.023993379 #
0.93886504573165519005328860657755 1:0.0040677115 10:0.014236989 15:0.020338556 17:0.061015669 23:0.028473979 24:0.05186332 27:0.057964887 38:0.022372412 54:0.031524763 63:0.027457051 77:0.021355484 86:0.14847146 168:0.034575544 196:0.020338556 224:0.03762633 248:0.11084513 261:0.023389339 266:0.039660186 318:0.029490907 488:0.12101441 1068:0.1098282 1305:0.07525266 1476:0.11491285 1478:0.046778679 1623:0.10067586 1626:0.086438864 1656:0.030507835 1690:0.040677112 1696:0.064066455 1725:0.092540435 1796:0.031524763 1856:0.1098282 1998:0.068134166 2041:0.90201497 2176:0.093557358 2268:0.11287899 2855:0.11084513 #
0.53010080787681712610748263614369 1:0.022038518 8:0.0086237676 9:0.048868019 10:0.012456554 14:0.067073755 15:0.022996714 16:0.021080323 17:0.050784413 19:0.019163929 21:0.092945054 22:0.040244251 23:0.047909822 24:0.057491787 27:0.023954911 36:0.060366377 43:0.024913108 44:0.020122126 55:0.027787697 63:0.022996714 69:0.021080323 73:0.027787697 74:0.028745893 76:0.039286055 81:0.024913108 88:0.022996714 123:0.021080323 126:0.0268295 127:0.052700806 136:0.075697519 140:0.038327858 149:0.05653359 154:0.028745893 191:0.030662287 196:0.05174261 224:0.063240968 225:0.02970409 235:0.027787697 258:0.015331144 283:0.049826216 298:0.098694235 330:0.063240968 360:0.050784413 372:0.023954911 407:0.063240968 543:0.12456554 554:0.045993429 559:0.076655716 580:0.034495071 603:0.017247535 652:0.17151716 661:0.063240968 673:0.098694235 674:0.020122126 694:0.097736038 697:0.030662287 700:0.061324574 701:0.10252702 827:0.047909822 1020:0.14756225 1120:0.0268295 1134:0.14181307 1176:0.030662287 1194:0.091028661 1195:0.073781125 1290:0.69373423 1296:0.17343356 1305:0.035453267 1306:0.052700806 1322:0.1082762 1377:0.045035232 1403:0.043118842 1421:0.069948338 1589:0.041202448 1642:0.071864732 1652:0.039286055 1656:0.049826216 1675:0.05174261 1702:0.0095819645 1704:0.031620484 1712:0.063240968 1721:0.038327858 1733:0.11115079 1752:0.15235324 1764:0.050784413 1771:0.048868019 1809:0.14660406 1811:0.062282771 1823:0.063240968 1847:0.097736038 1849:0.095819645 1857:0.041202448 1860:0.17726634 1874:0.048868019 1884:0.036411464 1888:0.12648194 1934:0.066115558 2159:0.10061063 2182:0.044077035 2230:0.096777841 2533:0.12935652 2751:0.14277127 #
0.080922357482736767542164102451352 1:0.043770719 10:0.037934624 12:0.26991946 15:0.020426337 22:0.24949311 23:0.14882044 24:0.17945996 57:0.090459488 63:0.035016578 64:0.064197056 73:0.087541439 110:0.087541439 112:0.16778776 126:0.084623396 145:0.080246322 149:0.05836096 196:0.05398389 204:0.077328272 245:0.099213637 258:0.048147794 347:0.10504973 360:0.02188536 409:0.15173849 428:0.056901935 543:0.27575555 598:0.10504973 694:0.043770719 1099:0.05398389 1104:0.062738031 1266:0.11963997 1287:0.1094268 1349:0.28450969 1421:0.22906677 1570:0.097754613 1660:0.38518235 1729:0.25824726 1771:0.23344384 1814:0.14444338 2444:0.18967313 2801:0.12839411 2825:0.25678822 #
0.56263039922239488355160119681386 1:0.01998041 12:0.055183988 14:0.012368825 15:0.012368825 18:0.036155026 24:0.10941653 27:0.093241915 38:0.03520358 41:0.11417377 51:0.046620958 107:0.051378198 161:0.07801874 194:0.23691057 205:0.25784242 249:0.098950602 258:0.029494891 359:0.056135438 372:0.046620958 529:0.087533221 543:0.23976491 609:0.098950602 994:0.046620958 1099:0.065649919 1114:0.080873087 1382:0.13225128 1421:0.059941228 1441:0.042815164 1473:0.062795572 1522:0.07040716 1542:0.13700852 1626:0.10465929 1775:0.041863717 1776:0.13891143 1879:0.049475301 1885:0.072310053 1891:0.10180494 2186:0.65649921 2202:0.087533221 2228:0.38438502 2298:0.060892679 2473:0.12368825 2520:0.12844549 #
-0.76408893332378624574374725852977 1:0.026835656 15:0.017443176 38:0.099291921 60:0.13552006 89:0.22541951 129:0.18382424 258:0.16235571 294:0.13417828 360:0.076481618 371:0.068430923 432:0.13686185 627:0.40656018 648:0.11002619 957:0.16906463 1006:0.057696659 1103:0.088557661 1204:0.15027967 1623:0.13015293 1660:0.29116687 1662:0.11405154 1685:0.16503929 1723:0.22810307 1725:0.10600084 1776:0.0040253485 1814:0.13954541 2234:0.53805488 2272:0.17577355 2319:0.089899443 2377:0.11539332 2412:0.079165183 #
-1 1:0.021417495 10:0.077102982 13:0.16134512 15:0.041407157 23:0.15135029 24:0.2727161 35:0.14992246 63:0.072819479 86:0.1998966 117:0.18704611 126:0.16991211 196:0.21845844 281:0.23987593 304:0.21988627 321:0.10708747 406:0.18133478 432:0.19846877 543:0.14849463 560:0.1170823 580:0.041407157 640:0.052829817 652:0.15420596 667:0.15848945 673:0.41549939 823:0.11422663 994:0.15420596 1039:0.12422147 1099:0.10994314 1404:0.12993279 1488:0.052829817 1606:0.031412326 1775:0.18133478 1807:0.16848429 2246:0.1998966 2581:0.095664807 2684:0.16848429 2949:0.11851013 #
-1 1:0.026007634 8:0.022292256 9:0.063161395 10:0.061922934 14:0.10279207 15:0.026007634 22:0.050776806 25:0.080499813 31:0.15356888 32:0.065638311 41:0.076784439 53:0.055730641 56:0.052015267 61:0.134992 62:0.059446018 63:0.029723009 69:0.054492183 93:0.060684476 106:0.070592143 141:0.082976736 142:0.10403053 149:0.04829989 150:0.060684476 184:0.10898437 263:0.063161395 284:0.099076696 359:0.22787639 373:0.095361322 385:0.074307524 491:0.075545982 543:0.056969099 601:0.11517666 619:0.12260741 631:0.19815339 652:0.061922934 669:0.33562231 691:0.12013049 767:0.095361322 876:0.055730641 1138:0.092884406 1239:0.10526899 1252:0.059446018 1305:0.18329188 1306:0.13375354 1380:0.17214575 1434:0.18824573 1480:0.22168411 1488:0.032199927 1523:0.22911486 1579:0.22911486 1614:0.10031515 1642:0.10526899 1650:0.19567648 1660:0.15604579 1755:0.10279207 1773:0.03839222 1799:0.081738278 1811:0.079261355 1839:0.060684476 1868:0.08669211 2243:0.35296074 2280:0.14737658 #
-0.57493478696397315452770726551535 1:0.068876579 8:0.054901622 15:0.020962438 30:0.072869428 38:0.05989268 46:0.22359933 71:0.11379609 83:0.23957072 94:0.1597138 108:0.095828287 115:0.055899832 294:0.050908778 298:0.1058104 323:0.10780682 400:0.11379609 406:0.095828287 543:0.031942762 576:0.29447234 588:0.12277999 627:0.12277999 683:0.094830073 948:0.08384975 969:0.11279788 1099:0.16570307 1206:0.092833653 1305:0.1327621 1352:0.11878715 1382:0.062887311 1409:0.074865848 1419:0.47415036 1567:0.036933817 1660:0.10780682 1696:0.17069413 1800:0.077860482 1856:0.11778893 1896:0.051906988 1902:0.075864062 2014:0.13376032 2059:0.085846171 2060:0.17169234 2255:0.054901622 2334:0.44120941 2423:0.073867634 #
-0.48626304149388926978403446810262 1:0.0076621603 15:0.0076621603 46:0.051081069 47:0.15707429 81:0.053635124 122:0.061297283 126:0.058743231 164:0.068959445 352:0.085560791 431:0.056189176 492:0.10343917 580:0.088114843 582:0.15452023 677:0.076621607 694:0.098331057 706:0.04341891 767:0.095777005 891:0.11365538 940:0.093222953 993:0.10727025 1095:0.089391872 1150:0.058743231 1176:0.066405393 1204:0.18899995 1305:0.038310803 1382:0.065128364 1591:0.12387159 1607:0.18899995 1687:0.058743231 1695:0.56189173 1697:0.61680388 1775:0.17878374 2887:0.072790526 #
0.88644381755534928934991967253154 1:0.023599686 10:0.046255384 14:0.025487661 15:0.038703486 18:0.071743049 36:0.15481395 40:0.18879749 53:0.083070897 55:0.21239717 63:0.043423422 67:0.091566786 74:0.11044654 78:0.11044654 81:0.095342733 86:0.076462984 123:0.07929495 179:0.17369369 360:0.027375637 418:0.076462984 432:0.061359186 453:0.11327849 475:0.069855072 487:0.082126908 543:0.4200744 550:0.092510767 645:0.13215825 701:0.13121426 715:0.1434861 716:0.094398744 1027:0.057583235 1080:0.020767724 1089:0.13971014 1170:0.09723071 1176:0.11799843 1178:0.16142185 1347:0.17369369 1401:0.061359186 1442:0.031151585 1520:0.067023106 1660:0.023599686 1726:0.10100666 1773:0.57300037 1855:0.13027027 1992:0.098174699 2193:0.04059146 2547:0.1123345 2677:0.12743831 #
1 1:0.02514093 5:0.25320509 18:0.2801418 135:0.017957808 312:0.21549369 321:0.25320509 360:0.10774685 450:0.24602197 543:0.42200848 598:0.17419073 605:0.17598651 674:0.30707851 749:0.16162027 1058:0.11672575 1317:0.091584817 1360:0.05028186 1382:0.2244726 1513:0.15443714 1597:0.20292322 1752:0.17598651 1856:0.15443714 2447:0.25140932 2564:0.11852153 2834:0.20471901 #
0.85226583383177723085566412919434 1:0.0023899316 10:0.031069109 13:0.19836432 15:0.017924486 22:0.052578494 25:0.08245264 28:0.33100551 39:0.080062702 40:0.064528152 57:0.075282842 63:0.059748288 68:0.078867741 151:0.10515699 222:0.0872325 346:0.14459085 349:0.1254714 432:0.13622609 540:0.054968424 543:0.66798586 568:0.081257671 694:0.10276706 696:0.20433915 832:0.09798719 1005:0.10276706 1099:0.0454087 1478:0.13981099 1496:0.10515699 1702:0.11949658 1715:0.18760963 1717:0.15056568 1738:0.32742062 #
0.83933875892793674555747429621988 10:0.049198247 15:0.054118071 17:0.20663263 27:0.098396495 36:0.16235422 44:0.080357134 63:0.091836728 77:0.072157428 84:0.070517488 123:0.083637021 124:0.081997074 140:0.15415451 261:0.078717194 322:0.11479591 324:0.13283527 398:0.15579444 418:0.16071427 428:0.1738338 432:0.10331631 445:0.15907434 449:0.1180758 450:0.20335275 543:0.52478129 598:0.062317777 764:0.072157428 926:0.16399415 977:0.15579444 1072:0.090196788 1305:0.22303206 1369:0.20827258 1402:0.065597661 1504:0.1459548 1658:0.12627549 2274:0.17219387 2413:0.0065597664 2491:0.1065962 2654:0.22139211 2701:0.19023322 2767:0.20007287 #
0.62512959318850691570190747370361 40:0.20896782 61:0.22359557 193:0.10761843 312:0.067914546 375:0.43360823 418:0.17030877 432:0.36255917 543:0.20687814 577:0.083587125 661:0.066869706 889:0.082542293 984:0.079407774 1105:0.13269457 1263:0.085676804 1305:0.099259712 1387:0.17657781 1499:0.070004217 1520:0.11702198 1622:0.54122669 1807:0.1201565 1855:0.085676804 1856:0.14418779 2187:0.070004217 2368:0.082542293 2393:0.12224618 2506:0.057466149 2728:0.076273255 2797:0.13582909 #
-1 1:0.017513167 14:0.02376787 15:0.011258464 32:0.17638262 53:0.075056434 77:0.12509406 86:0.09507148 117:0.10132618 158:0.13760346 228:0.12759593 269:0.063797966 360:0.025018809 543:0.82562071 637:0.14260721 716:0.12009029 718:0.1325997 825:0.11258464 1109:0.12634499 1366:0.063797966 1382:0.10758089 1626:0.1976486 1642:0.11383559 1729:0.090067714 1801:0.083813012 2652:0.053790443 2857:0.1976486 #
-1 1:0.0089146318 15:0.0059430883 29:0.037639558 33:0.037639558 47:0.030705955 50:0.077260144 54:0.044573162 70:0.091127351 75:0.1079661 81:0.085184261 120:0.047544707 133:0.057449851 157:0.053487793 170:0.034668013 216:0.076269634 225:0.051506765 227:0.044573162 231:0.16145389 284:0.066364482 320:0.063392937 432:0.068345517 501:0.18423574 511:0.074288599 530:0.056459337 543:0.5111056 583:0.046554189 598:0.12084279 692:0.29220182 707:0.057449851 709:0.063392937 711:0.035658527 720:0.059430882 788:0.10400404 790:0.1010325 793:0.098060951 840:0.17234956 888:0.078250661 890:0.088155806 952:0.073298089 971:0.10202301 975:0.0336775 1094:0.069336027 1129:0.089146324 1237:0.073298089 1250:0.06141191 1267:0.068345517 1306:0.11886176 1333:0.11985227 1456:0.14065309 1480:0.11192816 1493:0.076269634 1575:0.067354999 1579:0.1148997 1593:0.054478306 1660:0.071317054 1719:0.014857721 1856:0.091127351 2157:0.10598507 2169:0.13173845 2170:0.13173845 2183:0.098060951 2277:0.068345517 2381:0.11291867 2389:0.11291867 2397:0.14065309 2428:0.085184261 2583:0.078250661 2600:0.078250661 2605:0.10400404 2779:0.10895661 2787:0.11787125 2799:0.29319236 2810:0.10994713 2893:0.072307572 #
-1 1:0.031753082 3:0.13306053 4:0.066530265 8:0.040825389 13:0.11945207 15:0.015120515 20:0.074090518 24:0.13457258 31:0.18749438 38:0.087698981 61:0.12247617 77:0.08467488 81:0.11642796 96:0.11642796 149:0.087698981 150:0.11189181 167:0.12550028 237:0.16481361 263:0.11642796 317:0.077114627 324:0.14364488 329:0.17086181 372:0.11340386 399:0.18900643 432:0.18447028 543:0.52316982 568:0.14515693 578:0.068042316 816:0.21168721 1006:0.10281949 1045:0.13306053 1664:0.1527172 1752:0.21319926 1836:0.26763311 2480:0.16178951 2769:0.10735565 2866:0.089211032 2961:0.23890413 2976:0.11945207 #
-0.18480118455496988283393022811651 1:0.1054447 8:0.11716077 30:0.15348062 46:0.079669327 88:0.31867731 103:0.18511403 106:0.094900228 127:0.27064139 131:0.10895953 153:0.18511403 156:0.18511403 166:0.2870439 200:0.087870583 327:0.20503137 445:0.17574117 508:0.042177878 543:0.46747151 560:0.15816705 565:0.055065565 580:0.12653364 585:0.072639681 626:0.25892532 1128:0.097243443 1382:0.13239168 1456:0.2577537 1488:0.094900228 1642:0.11247434 1752:0.11950399 1767:0.094900228 1773:0.050379135 1801:0.06678164 1814:0.041006271 #
-1 1:0.0026945956 15:0.01212568 91:0.078143276 230:0.23981902 350:0.13338248 391:0.13742438 432:0.30583662 543:0.42305154 558:0.18053791 580:0.22095685 598:0.15493925 694:0.2452082 712:0.16437034 717:0.063322999 801:0.16302304 841:0.35164472 944:0.126646 1049:0.19670549 1209:0.052544616 1305:0.10104734 1309:0.049850021 1405:0.047155425 1417:0.067364894 1478:0.079490572 1642:0.0053891912 1684:0.17245412 1685:0.11856221 1743:0.098352745 2046:0.18592711 2452:0.14955007 2648:0.087574363 2903:0.22769333 2937:0.16437034 #
1 1:0.00622829 15:0.026989257 35:0.193077 86:0.039445836 130:0.12248971 142:0.16401164 193:0.10380483 196:0.13909848 220:0.18269651 222:0.27196866 321:0.13702239 432:0.089272156 668:0.26574039 673:0.53148079 694:0.3799257 876:0.24082722 974:0.19515309 1061:0.031141451 1099:0.13909848 1480:0.19100089 1597:0.15570726 1726:0.28234917 #
0.52551436859073030749556210139417 1:0.035505369 14:0.11361718 15:0.014202148 21:0.13255338 24:0.1822609 51:0.10414909 53:0.18462792 63:0.047340494 76:0.16569173 78:0.12308528 81:0.10651611 107:0.2296014 115:0.030771321 123:0.17515983 182:0.1349204 196:0.073377766 243:0.12545231 269:0.078111812 280:0.19883007 304:0.14675553 314:0.13965446 360:0.15148959 432:0.35505369 554:0.19646305 624:0.1349204 694:0.32901642 889:0.23433544 1160:0.12545231 1510:0.28877702 1547:0.15385661 1857:0.087579913 2109:0.089946941 2133:0.31244725 2318:0.1349204 #
0.12634619949137509964387504624028 1:0.0052360441 8:0.01780255 10:0.21991386 13:0.026180221 14:0.013613715 15:0.040841144 17:0.026180221 18:0.056549277 21:0.062832527 23:0.072257407 24:0.058643695 25:0.032463472 27:0.074351825 28:0.032463472 45:0.029321847 61:0.1068153 62:0.024085803 63:0.03455789 67:0.048171606 68:0.091107167 76:0.079587869 78:0.029321847 79:0.015708132 93:0.048171606 107:0.02722743 119:0.12775947 123:0.062832527 147:0.07854066 151:0.18430875 165:0.063879736 168:0.029321847 196:0.052360442 201:0.091107167 222:0.068068571 230:0.063879736 258:0.015708132 280:0.047124397 334:0.03455789 348:0.084823914 360:0.014660924 427:0.10053205 432:0.054454859 444:0.17278945 445:0.097390421 488:0.14451481 543:0.2618022 591:0.039793935 592:0.046077188 621:0.038746726 633:0.028274639 706:0.040841144 712:0.084823914 715:0.037699517 724:0.058643695 730:0.024085803 889:0.11938181 975:0.019896967 994:0.025133012 1003:0.036652308 1120:0.054454859 1178:0.2974073 1204:0.06911578 1238:0.080635078 1478:0.20944177 1520:0.060738113 1552:0.026180221 1612:0.05340765 1665:0.10053205 1669:0.054454859 1704:0.031416263 1742:0.10262647 1767:0.028274639 1835:0.037699517 1840:0.037699517 1845:0.021991385 1859:0.54769021 1880:0.054454859 1996:0.13718435 2024:0.074351825 2033:0.074351825 2049:0.045029979 2226:0.10576809 2287:0.12461785 2300:0.13404272 2715:0.063879736 2725:0.12775947 2744:0.025133012 2778:0.17697829 2856:0.011519297 #
0.41440977423246705413362178660464 1:0.012927072 7:0.15368852 10:0.037344877 13:0.077562436 14:0.02010878 15:0.030163169 17:0.15656121 23:0.07181707 24:0.13070707 42:0.074689753 47:0.054580972 58:0.14794315 63:0.068944387 139:0.10054389 261:0.058889996 432:0.12639804 592:0.13932511 694:0.23412365 764:0.061762679 994:0.074689753 1080:0.02154512 1293:0.0057453653 1480:0.19534242 1557:0.12352536 1597:0.21832389 1631:0.1249617 1660:0.15225218 1682:0.086180478 1741:0.076126091 1820:0.18672438 2737:0.76413363 #
0.59935250417334151595838420689688 15:0.024920169 20:0.059808407 23:0.089712612 27:0.092204623 51:0.092204623 53:0.082236558 61:0.29904202 63:0.085974582 77:0.13706093 135:0.20185336 183:0.071022481 193:0.095942654 196:0.064792439 224:0.11961681 264:0.15948908 335:0.14578299 365:0.12833887 432:0.295304 434:0.16821115 598:0.097188659 610:0.041118279 616:0.059808407 648:0.13083088 652:0.18565527 661:0.090958618 671:0.099680677 712:0.15948908 774:0.077252522 789:0.12086282 1002:0.15076703 1204:0.076006517 1218:0.16696513 1421:0.05607038 1446:0.22677355 1480:0.082236558 1492:0.1781792 1623:0.090958618 1642:0.15699707 1660:0.098434672 1770:0.01619811 1782:0.15824308 2524:0.14578299 2693:0.18440925 2705:0.42987293 2865:0.090958618 #
-1 1:0.022574499 32:0.33216763 53:0.28056878 90:0.32356784 162:0.39774117 248:0.1171724 432:0.36871684 516:0.40204108 694:0.14512178 1305:0.13759695 1340:0.15049666 1488:0.13759695 1597:0.20317049 1615:0.10749762 1672:0.12577221 1773:0.19349571 1807:0.074173354 1856:0.1128725 2141:0.075248331 2890:0.0042999047 2951:0.15694652 #
-0.9440644524802525028306376952969 1:0.038175423 8:0.084604986 14:0.033016581 15:0.016508291 22:0.098017976 31:0.098017976 63:0.055715479 108:0.077382609 130:0.059842553 149:0.092859134 154:0.28579977 213:0.12174864 237:0.09904974 244:0.17746413 317:0.12278041 360:0.10627212 371:0.048493102 385:0.11762157 432:0.098017976 487:0.11555804 543:0.0010317682 573:0.063969627 580:0.053651944 643:0.12897103 674:0.10111328 694:0.04952487 775:0.093890905 870:0.065001391 1305:0.095954441 1456:0.07428731 1457:0.04952487 1619:0.13928869 1656:0.12381218 1674:0.025794204 1682:0.023730667 1726:0.013412986 1789:0.15270169 1855:0.12587571 1856:0.1134945 2038:0.03920719 2044:0.76041311 2512:0.10833566 #
-0.064046408980717742243093937304366 1:0.060030781 32:0.12814263 89:0.13506927 116:0.33594149 132:0.17316572 137:0.11082606 149:0.18817341 252:0.1754746 271:0.23550537 341:0.081965104 360:0.035787582 432:0.34055924 543:0.18240122 577:0.17316572 581:0.16623908 598:0.021934325 624:0.15931246 694:0.18009235 1025:0.21241662 1091:0.19163673 1099:0.086582862 1305:0.20779887 1350:0.24589533 1382:0.072729602 1421:0.11428937 1513:0.049640838 1533:0.10389943 1538:0.057721905 1597:0.19971779 1626:0.046177525 1631:0.20433556 1660:0.15584914 1677:0.20548999 1807:0.098127238 1811:0.15469471 #
-0.22924737446571458177047020399186 1:0.006927147 8:0.039831094 14:0.01039072 15:0.020781441 23:0.072735041 29:0.10217541 33:0.034635734 49:0.25110906 54:0.039831094 60:0.039831094 67:0.036367521 70:0.081393979 102:0.10910256 105:0.057148963 107:0.041562881 118:0.067539684 123:0.031172162 134:0.036367521 145:0.039831094 148:0.046758242 152:0.11949328 164:0.048490029 170:0.031172162 187:0.14027472 189:0.051953603 213:0.038099308 221:0.086589336 223:0.053685389 225:0.046758242 241:0.095248267 258:0.046758242 261:0.05888075 266:0.10217541 286:0.055417176 287:0.071003258 292:0.072735041 295:0.076198615 310:0.046758242 322:0.043294668 344:0.095248267 356:0.069271468 360:0.01039072 363:0.060612537 380:0.076198615 399:0.15932438 412:0.16105616 417:0.067539684 432:0.10910256 442:0.129884 480:0.045026455 487:0.11429793 517:0.069271468 535:0.074466832 582:0.10910256 600:0.074466832 608:0.071003258 623:0.05888075 636:0.045026455 651:0.05888075 674:0.031172162 694:0.18703297 711:0.12642044 727:0.05888075 745:0.20435083 822:0.086589336 885:0.15586081 896:0.13334757 975:0.031172162 976:0.3376984 989:0.12468865 991:0.08832112 1003:0.055417176 1078:0.071003258 1081:0.076198615 1104:0.20088726 1117:0.079662189 1162:0.046758242 1206:0.15412901 1237:0.065807894 1257:0.15412901 1280:0.10044363 1456:0.16798331 1478:0.22340049 1587:0.053685389 1604:0.077930406 1631:0.062344324 1658:0.048490029 1660:0.08832112 1680:0.24591371 1687:0.041562881 1710:0.18010582 1786:0.045026455 1833:0.05888075 1855:0.025976801 #
-1 1:0.0035925156 14:0.026345113 22:0.15328066 27:0.093405403 29:0.17004573 122:0.10777546 212:0.14609563 220:0.14250311 235:0.10657796 291:0.23710603 322:0.22034095 344:0.11855301 347:0.12813306 360:0.027542619 431:0.065862782 432:0.071850307 442:0.48738462 467:0.2814137 543:0.13651559 581:0.12813306 608:0.17723076 648:0.11855301 694:0.17603326 710:0.046702702 754:0.071850307 1091:0.29458627 1120:0.10418295 1183:0.16765073 1248:0.1856133 1353:0.23710603 1488:0.10657796 1807:0.13412058 2310:0.16765073 2712:0.080232844 2944:0.11017048 #
0.95130779095953665880358585127397 95:0.24941455 191:0.11645816 289:0.14654317 302:0.30667314 405:0.31346655 543:0.33093527 675:0.12422203 694:0.0067933924 865:0.58132029 897:0.06987489 1305:0.15624802 1382:0.11160573 1456:0.056288108 1478:0.030085023 1569:0.21544759 1644:0.12034009 1691:0.37460706 1753:0.0067933924 1820:0.020380177 #
0.68578331144357940196698564250255 7:0.089379914 9:0.17450364 15:0.011704512 44:0.071291119 52:0.1255575 61:0.093636096 63:0.040433768 77:0.063842796 150:0.085123725 163:0.25430712 183:0.15854295 205:0.16067103 445:0.09576419 462:0.090443961 475:0.036177583 543:0.55649638 661:0.0074483259 694:0.23941047 712:0.062778749 876:0.05213828 1196:0.13087773 1458:0.137262 1478:0.14258224 1497:0.084059678 1573:0.43838719 1598:0.30750945 1606:0.1255575 1642:0.03724163 1664:0.081931584 1737:0.14790247 2593:0.054266375 2900:0.060650654 2946:0.091508009 #
0.91505595674845197073921099217841 1:0.0094550056 10:0.021611441 13:0.087796479 14:0.022962157 15:0.017559297 24:0.049976461 59:0.044573598 64:0.071587898 86:0.078341477 115:0.15668295 117:0.051327173 149:0.032417163 196:0.029715732 261:0.033767879 357:0.033767879 360:0.037820023 419:0.10400506 435:0.054028604 459:0.098602206 491:0.051327173 543:0.35523808 688:0.060782179 705:0.060782179 711:0.10805721 824:0.071587898 994:0.04187217 1120:0.047275029 1225:0.15263081 1263:0.11886293 1341:0.076990761 1444:0.13642223 1566:0.049976461 1642:0.23907657 1660:0.067535758 1687:0.094550058 1695:0.063483611 1702:0.18910012 1706:0.08374434 1733:0.12831794 1764:0.043222882 1771:0.063483611 1773:0.12966865 1807:0.051327173 1834:0.058080751 1895:0.051327173 1899:0.10265435 2028:0.095900774 2095:0.079692192 2253:0.099952921 2256:0.099952921 2721:0.40251312 2730:0.40251312 2741:0.40251312 #
1 9:0.035870489 10:0.016938843 15:0.023913661 17:0.073733784 81:0.035870489 86:0.10362586 205:0.13052873 269:0.026902867 270:0.094658241 348:0.060780551 351:0.070744582 366:0.041848905 367:0.10362586 418:0.028895672 419:0.082701407 543:0.4354279 570:0.083697811 598:0.10860787 645:0.10561866 694:0.079712197 937:0.15942439 1101:0.047827322 1200:0.093661837 1306:0.049820125 1319:0.049820125 1359:0.17138124 1456:0.12554671 1478:0.069748178 1532:0.12753952 1562:0.084694214 1593:0.045834515 1597:0.024910063 1642:0.12355391 1660:0.12455031 1773:0.086687021 1847:0.00099640246 2384:0.72438461 2472:0.050816528 2481:0.10661507 2502:0.065762565 #
0.42832106756990062645940042784787 1:0.003317748 7:0.056401715 10:0.054189883 12:0.064143129 15:0.022118319 41:0.13381582 44:0.045342553 54:0.058613546 61:0.058613546 63:0.025436066 67:0.053083967 72:0.071884535 73:0.1249685 150:0.053083967 197:0.079625949 219:0.084049612 239:0.098426521 335:0.086261444 432:0.060825378 445:0.034283396 459:0.12718034 543:0.39038834 580:0.099532433 598:0.12828626 679:0.077414118 1382:0.1105916 1497:0.084049612 1531:0.15704006 1597:0.085155532 1604:0.056401715 1623:0.037601143 1628:0.11390934 1675:0.05750763 1684:0.064143129 1701:0.74649328 1703:0.086261444 1737:0.092896938 1752:0.096214689 1811:0.069672704 2291:0.072990455 2559:0.14487499 2858:0.025436066 2878:0.091791026 #
-1 1:0.019672003 8:0.038251113 10:0.054644451 15:0.029508002 35:0.10710312 38:0.084152453 63:0.051365782 86:0.11256757 88:0.10491734 96:0.22404224 142:0.091802679 196:0.15519024 222:0.15081868 269:0.16721201 312:0.034972448 337:0.11147468 418:0.089616895 432:0.10819601 445:0.057923116 475:0.12131068 543:0.39234716 598:0.085245341 809:0.053551562 917:0.38906848 919:0.12896091 943:0.11693912 1061:0.10491734 1076:0.1387969 1421:0.14098269 1489:0.050272893 1529:0.27322224 1642:0.13770401 1643:0.50710052 1660:0.075409338 1729:0.098360009 #
-1 1:0.02238483 2:0.081292272 10:0.19321643 13:0.050660402 14:0.027097424 15:0.0530167 23:0.2862902 24:0.14373417 38:0.11192415 71:0.14255601 81:0.049482256 96:0.14962491 109:0.07540153 126:0.054194849 127:0.1060334 164:0.12724008 167:0.054194849 193:0.025919275 196:0.2073542 206:0.064798191 229:0.076579683 255:0.065976337 269:0.037700765 278:0.073045231 281:0.1614064 366:0.058907446 399:0.14962491 432:0.090717465 543:0.46183437 568:0.062441893 673:0.39467987 706:0.040057063 720:0.069510788 874:0.12134933 1003:0.071867086 1108:0.11899304 1130:0.062441893 1204:0.12606193 1297:0.1519812 1305:0.1036771 1382:0.10014266 1391:0.081292272 1443:0.048304107 1445:0.058907446 1478:0.11310229 1496:0.080114126 1589:0.082470424 1662:0.018850382 1685:0.062441893 1715:0.14373417 1737:0.25094572 1764:0.050660402 2079:0.038878914 2369:0.1013208 2727:0.086004868 #
-1 1:0.01054468 8:0.02560851 9:0.07230638 15:0.0090382975 23:0.069293611 24:0.04217872 27:0.070799999 41:0.087370209 44:0.11749787 52:0.10243404 54:0.15214467 59:0.07381276 63:0.066280849 133:0.3946723 220:0.097914889 327:0.19733615 354:0.027114892 366:0.085863821 543:0.3600255 598:0.19432339 624:0.09339574 630:0.5347659 637:0.12051063 666:0.18829787 667:0.094902121 1275:0.10695318 1305:0.11900425 1382:0.11147233 1421:0.10845957 1430:0.19884254 1447:0.07230638 1587:0.10092765 1626:0.08435744 1661:0.11147233 1677:0.12051063 1779:0.12804255 1844:0.14461276 1845:0.064774461 1857:0.060255315 #
-1 63:0.14761017 137:0.16699333 150:0.30863947 220:0.14761017 257:0.15804726 432:0.13120905 445:0.099897794 493:0.13120905 543:0.22066976 694:0.14611916 699:0.14313714 831:0.25048998 876:0.2132147 971:0.12077196 999:0.20277761 1421:0.058149464 1533:0.26838213 1678:0.18488547 1729:0.13717309 1736:0.61727893 #
0.18074796259086362004708803397079 1:0.012995082 9:0.37985626 14:0.10396066 67:0.36886042 86:0.030988272 192:0.15694061 360:0.11095801 432:0.19692548 543:0.029988652 729:0.11195763 986:0.10296103 1047:0.73972005 1083:0.10795914 1089:0.099962175 1179:0.10296103 1305:0.094964065 1660:0.12795158 1781:0.055978816 #
1 22:0.16166863 62:0.19019839 432:0.25296384 475:0.063716456 505:0.041843645 529:0.037088685 543:0.22253211 632:0.077981338 694:0.077981338 709:0.30336642 959:0.5163886 1034:0.079883322 1038:0.070373401 1169:0.34711206 1262:0.068471417 1391:0.32714123 1674:0.066569433 1728:0.42224041 1807:0.037088685 1825:0.0038039677 1826:0.022823807 1846:0.13408986 #
0.55305666320943513980523675854784 1:0.0039572897 9:0.058370028 14:0.015829159 15:0.0079145795 17:0.061337993 21:0.14839837 25:0.076177828 27:0.058370028 68:0.072220542 79:0.037594255 123:0.049466126 143:0.22853349 169:0.057380702 193:0.030668996 276:0.10981479 360:0.016818482 396:0.079145797 432:0.1404838 543:0.016818482 605:0.19093923 678:0.074199185 719:0.34626287 820:0.063316636 866:0.055402059 970:0.33142304 974:0.1187187 987:0.08112444 1240:0.20083246 1305:0.25227723 1322:0.08903902 1421:0.061337993 1544:0.08903902 1549:0.15631296 1625:0.11377209 1626:0.056391381 1660:0.063316636 1757:0.099921569 1816:0.10684683 1822:0.076177828 1846:0.021765094 2813:0.60150808 #
0.5969280071533646925274751993129 1:0.01499375 8:0.035985 9:0.10345688 13:0.10795501 14:0.085464381 15:0.041982502 23:0.30137441 24:0.18292376 54:0.11095376 63:0.047980003 79:0.065972507 92:0.15443563 107:0.1139525 123:0.17392752 126:0.1139525 192:0.016493127 193:0.053977504 258:0.06447313 318:0.10495625 340:0.038983751 372:0.10195751 432:0.24889626 492:0.10045813 543:0.25039563 580:0.10345688 624:0.27138689 656:0.29987502 661:0.11845063 694:0.12144938 706:0.085464381 1168:0.16343188 1266:0.16043313 1305:0.15293626 1421:0.10645563 1446:0.12594751 1456:0.3613494 1505:0.083965003 1536:0.094460629 1544:0.155935 1557:0.17092876 1699:0.23090376 1794:0.076468132 2973:0.077967502 #
0.41978410765824397676837520521076 1:0.0039809267 10:0.096869215 15:0.039809268 21:0.12340873 22:0.079618536 36:0.080945507 37:0.090234339 44:0.079618536 52:0.14065941 56:0.082272485 63:0.13667849 77:0.21762399 110:0.11279292 232:0.035828341 432:0.20037331 463:0.11013897 694:0.067675754 710:0.10483107 975:0.15923707 1040:0.094215266 1306:0.069002725 1322:0.12208175 1421:0.084926434 1478:0.14331336 1678:0.057059947 1754:0.22160491 1787:0.058386926 1799:0.12871663 1812:0.1791417 1855:0.07696458 1856:0.21098912 2450:0.092888288 2588:0.17648774 2601:0.28397277 2621:0.13137057 2867:0.60510087 2871:0.17781472 #
-0.98586684906331623068354019778781 87:0.26662853 542:0.071927696 543:0.14509553 563:0.12153301 640:0.20214163 967:0.11781261 972:0.069447435 1305:0.017361859 1686:0.14261526 1763:0.32615492 1795:0.41048393 1814:0.13889487 2036:0.085569158 2102:0.17609885 2140:0.68083286 2374:0.057046104 2426:0.091769822 #
-0.94871833054007004282226489522145 1:0.0088618007 8:0.033477914 15:0.019692892 38:0.072863698 47:0.035447203 79:0.030523982 85:0.056124739 127:0.052186161 164:0.063017249 189:0.065971188 193:0.024616115 202:0.064986542 210:0.074832991 269:0.036431849 308:0.074832991 312:0.10240304 334:0.067940474 347:0.065971188 358:0.058094028 432:0.23828399 445:0.042339716 543:0.071879052 580:0.08861801 598:0.12111128 637:0.16246635 659:0.025600759 975:0.1171727 994:0.048247583 1417:0.020677537 1478:0.12406521 1489:0.061047964 1703:0.07581763 1726:0.066955827 1911:0.54549307 1972:0.31016305 2013:0.065971188 2023:0.084679432 2025:0.27963907 2091:0.11618806 2307:0.28948551 2590:0.43915147 2690:0.011815735 2763:0.060063317 #
-0.64549832749340885218458652161644 1:0.013803056 8:0.020704582 15:0.023662381 47:0.042395096 49:0.17155226 50:0.10648071 66:0.18831311 74:0.068029344 77:0.085776128 79:0.037465435 81:0.059155952 85:0.20211616 91:0.097607322 104:0.060141884 142:0.048310693 160:0.086762063 170:0.047324762 242:0.065071546 360:0.016760852 391:0.085776128 418:0.047324762 435:0.072959006 456:0.60043287 524:0.0049296627 543:0.18831311 561:0.084790193 588:0.09070579 598:0.029577976 674:0.048310693 694:0.20507397 708:0.076902732 711:0.049296625 775:0.086762063 975:0.047324762 1012:0.13014309 1060:0.093663588 1077:0.099579185 1513:0.013803056 1514:0.31352654 1574:0.014788988 1634:0.41014794 1684:0.10253698 1694:0.091691725 1820:0.063099682 1837:0.092677653 2920:0.097607322 #
-0.89528558249461920315326324271155 1:0.012262621 15:0.030656552 49:0.084612086 64:0.096874706 79:0.073575728 115:0.126305 123:0.19129689 175:0.12753126 181:0.12139995 200:0.36052105 220:0.079707034 247:0.16677165 262:0.1716767 324:0.012262621 432:0.12017369 516:0.14347266 543:0.096874706 711:0.095648445 1044:0.053955533 1093:0.21091709 1239:0.19129689 1252:0.1066848 1272:0.21950091 1305:0.1716767 1480:0.061313104 1544:0.1716767 1565:0.11526863 1646:0.49908867 1660:0.091969654 1677:0.19129689 1780:0.15941407 1856:0.083385825 1925:0.22685848 2194:0.069896936 2612:0.14592519 2638:0.089517131 2639:0.089517131 2780:0.079707034 #
-0.91457569674980254692542303018854 1:0.0072123632 8:0.02344018 14:0.018030908 15:0.009015454 34:0.064911269 75:0.084745266 86:0.13973954 115:0.12351172 121:0.15236117 185:0.18481681 369:0.091056086 392:0.097366907 418:0.054092724 432:0.086548358 543:0.23440181 568:0.083843723 598:0.1469519 900:0.11089008 978:0.064009726 1043:0.071222089 1231:0.07663136 1338:0.064009726 1366:0.10097308 1367:0.13072409 1430:0.097366907 1446:0.16137663 1479:0.086548358 1518:0.12441327 1625:0.054092724 1626:0.072123632 1683:0.085646816 1692:0.33807954 1745:0.48232681 1746:0.43364334 1809:0.079335995 1837:0.092859179 1845:0.059501998 2101:0.1667859 2211:0.068517454 2224:0.034258727 2538:0.038766451 2596:0.10638236 2768:0.08294218 2795:0.020735545 2796:0.08294218 2943:0.19202918 #
0.30484810004513451797691914180177 1:0.0042218887 7:0.03377511 15:0.021953823 21:0.081904642 24:0.037997 38:0.024486955 50:0.029553222 59:0.03377511 63:0.0303976 111:0.052351423 115:0.11314663 120:0.037152622 147:0.051507045 150:0.032086357 229:0.10554722 240:0.44498709 261:0.051507045 291:0.081904642 310:0.040530134 322:0.037997 333:0.029553222 360:0.019420689 369:0.089504048 418:0.026175711 430:0.12074602 443:0.5598225 487:0.052351423 543:0.33184046 590:0.15705428 638:0.076838382 661:0.081904642 674:0.027020089 694:0.10554722 701:0.045596402 720:0.046440776 785:0.078527138 858:0.065017089 1016:0.082749024 1018:0.081904642 1021:0.08443778 1022:0.081060268 1087:0.078527138 1099:0.045596402 1162:0.040530134 1263:0.062483955 1305:0.25669086 1420:0.068394601 1421:0.093725935 1543:0.044752024 1551:0.072616488 1556:0.052351423 1587:0.046440776 1641:0.035463866 1660:0.08443778 1664:0.029553222 1735:0.066705845 1755:0.053195801 1763:0.044752024 1856:0.16465367 2087:0.059106443 2147:0.086126536 2281:0.058262069 2616:0.066705845 2660:0.088659666 2706:0.070083357 2930:0.13087855 2964:0.054884557 #
1 1:0.0149504 8:0.021746036 12:0.14134924 15:0.0081547638 59:0.062519856 60:0.18620044 61:0.063878983 66:0.065238111 84:0.080188513 139:0.081547633 232:0.095138907 377:0.084265888 418:0.048928581 425:0.061160728 432:0.073392875 490:0.10329367 533:0.20658734 543:0.24600203 688:0.085625015 694:0.25687507 700:0.60481161 714:0.20115083 963:0.085625015 1003:0.08834327 1195:0.18076393 1438:0.11280756 1442:0.11280756 1444:0.063878983 1456:0.016309528 1688:0.26910719 1697:0.23105164 1703:0.09377978 1734:0.18620044 1790:0.11416669 1794:0.11280756 1807:0.11824407 1820:0.10737105 #
0.98217101829339814589303614411619 1:0.01957104 4:0.010251497 7:0.018639086 8:0.038210128 10:0.017707132 12:0.064304844 14:0.0046597715 15:0.022366904 17:0.018639086 18:0.083875887 19:0.02795863 20:0.046597715 22:0.029822538 24:0.064304844 31:0.029822538 39:0.023298858 41:0.022366904 45:0.085739799 47:0.01304736 51:0.054985303 53:0.015843224 55:0.061508983 56:0.030754492 62:0.05218944 63:0.0083875889 69:0.015843224 73:0.020502994 74:0.02143495 77:0.01304736 79:0.035414264 85:0.02143495 93:0.017707132 103:0.040074036 107:0.020502994 111:0.058713123 130:0.060577031 146:0.01957104 149:0.013979315 150:0.053121395 154:0.02143495 157:0.023298858 175:0.020502994 177:0.036346219 194:0.061508983 201:0.033550356 204:0.037278172 224:0.023298858 226:0.02143495 236:0.027026676 255:0.024230812 258:0.056849211 261:0.013979315 295:0.018639086 310:0.068032667 314:0.048461623 321:0.01304736 330:0.047529671 339:0.024230812 357:0.014911269 360:0.058713123 381:0.13699728 425:0.037278172 432:0.030754492 435:0.023298858 446:0.025162766 448:0.13140556 480:0.043801852 489:0.02609472 543:0.34016332 591:0.028890584 607:0.031686448 614:0.040074036 615:0.028890584 619:0.035414264 623:0.028890584 665:0.034482308 669:0.024230812 694:0.027026676 706:0.014911269 707:0.025162766 708:0.024230812 710:0.037278172 711:0.030754492 722:0.1081067 725:0.0326184 730:0.017707132 733:0.05218944 765:0.076420255 804:0.094127387 864:0.038210128 873:0.030754492 876:0.10065106 886:0.0037278172 975:0.014911269 994:0.036346219 1003:0.027026676 1063:0.67007512 1090:0.074556343 1120:0.020502994 1162:0.023298858 1252:0.016775178 1305:0.14072511 1306:0.02609472 1327:0.041937944 1421:0.088535659 1456:0.10437888 1472:0.044733807 1478:0.089467615 1488:0.071760483 1499:0.02143495 1556:0.029822538 1558:0.02609472 1566:0.02143495 1570:0.023298858 1579:0.13326946 1593:0.023298858 1614:0.028890584 1625:0.062440939 1629:0.065236799 1658:0.023298858 1660:0.050325532 1675:0.038210128 1677:0.030754492 1704:0.023298858 1705:0.02609472 1762:0.030754492 1766:0.041937944 1773:0.011183452 1786:0.02143495 1796:0.01957104 1828:0.30940884 1839:0.072692439 1841:0.022366904 2048:0.048461623 2051:0.048461623 2052:0.096923247 2055:0.024230812 2066:0.035414264 2068:0.070828527 2275:0.053121395 2294:0.040074036 2572:0.10251497 2607:0.042869899 2680:0.034482308 2735:0.059645075 #
0.52516731650591275126771506620571 1:0.0034462025 7:0.097642407 15:0.012636076 24:0.056287974 35:0.091898732 86:0.097642407 183:0.11717089 193:0.098791137 349:0.066626586 360:0.02756962 408:0.098791137 445:0.11372469 491:0.11487342 543:0.2285981 667:0.13784811 973:0.74093354 1162:0.11946835 1287:0.17001265 1393:0.11372469 1413:0.052841771 1592:0.27569622 1655:0.021825949 1715:0.18609494 1784:0.13210443 1949:0.11946835 1961:0.07581646 1963:0.12291456 2110:0.07696519 2124:0.065477848 2192:0.13555063 2355:0.16886392 2881:0.066626586 2948:0.01378481 #
1 1:0.018065915 7:0.028389296 10:0.055488165 12:0.032260563 14:0.01548507 15:0.023227604 24:0.032260563 40:0.11226676 41:0.033550985 54:0.17807831 107:0.030970139 117:0.033550985 120:0.032260563 131:0.036131829 202:0.037422251 252:0.040003099 261:0.13162309 288:0.18194957 295:0.028389296 314:0.074844502 360:0.016775493 373:0.042583942 427:0.15097943 432:0.094200842 521:0.1380752 543:0.16646451 580:0.1716262 583:0.10194337 590:0.10065296 592:0.0516169 627:0.043874364 634:0.04129352 667:0.15226986 694:0.10065296 730:0.080006197 889:0.033550985 895:0.054197744 908:0.064521126 975:0.045164786 1094:0.13936563 1186:0.10710507 1204:0.095491268 1382:0.15872197 1432:0.016775493 1483:0.16646451 1520:0.1032338 1536:0.11226676 1548:0.23743774 1558:0.040003099 1564:0.038712673 1579:0.25421324 1588:0.31486309 1660:0.0090329573 1729:0.13678478 1737:0.047745634 1814:0.074844502 1824:0.18969211 1838:0.0516169 1839:0.081296615 1855:0.12000929 1856:0.21162929 1905:0.065811545 1918:0.13420394 1921:0.13420394 1977:0.33421943 2076:0.14710817 2148:0.076134928 2150:0.076134928 2151:0.076134928 2258:0.059359435 2290:0.13549437 2532:0.083877459 2752:0.074844502 #
-1 1:0.019418737 15:0.025393734 17:0.19568112 43:0.37941226 58:0.18522488 62:0.17924988 124:0.1553499 137:0.14638741 312:0.031368729 350:0.26887482 360:0.055268716 412:0.19568112 432:0.25393733 445:0.18970613 495:0.13144992 543:0.37642476 694:0.12995617 712:0.053774964 1065:0.19418737 1209:0.10306869 1274:0.20165612 1306:0.26588732 1457:0.11053743 1588:0.2345186 1642:0.09410619 1702:0.097093686 1787:0.037343726 1814:0.044812471 1820:0.21659361 2720:0.12398117 #
-1 1:0.035672322 15:0.0044590402 18:0.2173782 26:0.04013136 38:0.023409961 49:0.070229881 71:0.023409961 102:0.045705162 124:0.079147957 127:0.034557559 131:0.16498448 146:0.033442799 152:0.0501642 166:0.035672322 167:0.13823023 184:0.059082281 204:0.064656079 227:0.16944352 258:0.02006568 269:0.047934681 279:0.10367268 300:0.049049441 321:0.043475639 331:0.05239372 346:0.01003284 350:0.045705162 366:0.074688919 445:0.049049441 516:0.04013136 543:0.19508301 590:0.3790184 643:0.15049261 670:0.12931216 694:0.04013136 905:0.066885598 1006:0.13823023 1128:0.14268929 1205:0.099213637 1217:0.42583832 1274:0.078033201 1321:0.055738002 1323:0.070229881 1325:0.063541323 1382:0.078033201 1415:0.14826308 1456:0.18170588 1552:0.066885598 1651:0.068000361 1705:0.045705162 1707:0.18839444 1727:0.074688919 1813:0.10813172 1953:0.073574163 1959:0.084721759 2040:0.076918438 2126:0.079147957 2144:0.047934681 2155:0.047934681 2156:0.38347745 2465:0.13265644 2513:0.071344644 2906:0.068000361 2992:0.098098882 #
-0.69926180211917465801008120251936 1:0.0034995163 15:0.025663119 70:0.31262344 93:0.37094873 115:0.11198452 118:0.1714763 122:0.10965151 132:0.13648114 170:0.079322368 258:0.12015006 278:0.079322368 374:0.12714909 390:0.051326238 392:0.12598258 414:0.19947243 478:0.20413844 543:0.072323337 620:0.17497581 636:0.11315103 694:0.07115683 711:0.081655383 726:0.14697969 1109:0.07815586 1257:0.1959729 1295:0.18780737 1382:0.10265248 1411:0.09915296 1438:0.18197484 1446:0.11665054 1530:0.14464667 1552:0.10265248 1579:0.17614232 1597:0.065324306 1652:0.15397872 1679:0.13298161 1715:0.2822943 1720:0.10615199 1794:0.1073185 1809:0.11431753 1829:0.21930303 1851:0.068823822 1856:0.1703098 2391:0.044327207 2672:0.050159734 2972:0.096819952 #
-1 1:0.054488454 3:0.22222742 5:0.26603186 6:0.29274189 26:0.48612249 130:0.092950895 193:0.1987226 248:0.14316574 324:0.1036349 341:0.17308097 360:0.22543262 543:0.42842883 694:0.22863783 712:0.080130078 957:0.10790851 1172:0.1014981 1180:0.16880737 1435:0.014957615 1456:0.10790851 1724:0.15919176 1856:0.18483338 1922:0.055556856 2080:0.075856477 2623:0.069446072 2851:0.13034493 #
-0.73292496528053774351718629986863 1:0.02824104 8:0.0087644607 14:0.0068168025 15:0.033110183 17:0.025319552 24:0.014607434 40:0.024345724 47:0.053560592 49:0.017528921 51:0.024345724 60:0.12562394 69:0.021424238 74:0.02824104 94:0.024345724 97:0.084723115 124:0.020450408 127:0.052586764 134:0.04771762 135:0.1041997 142:0.039926987 154:0.057455909 193:0.025319552 202:0.033110183 212:0.11393799 223:0.035057843 258:0.030188696 269:0.037005499 295:0.024345724 304:0.034084015 320:0.089592263 339:0.032136355 344:0.031162526 355:0.037005499 358:0.058429737 360:0.036031671 366:0.11588565 376:0.022398066 407:0.031162526 411:0.07303717 432:0.24443106 435:0.061351225 447:0.048691448 453:0.075958654 469:0.25027403 480:0.029214868 509:0.10906884 536:0.086670779 543:0.20937322 549:0.04771762 555:0.090566091 561:0.035057843 569:0.024345724 619:0.04771762 671:0.026293382 680:0.31357291 694:0.20450407 705:0.034084015 718:0.075958654 753:0.064272709 795:0.05648208 844:0.040900815 852:0.037979327 924:0.051612936 975:0.01947658 1008:0.029214868 1162:0.030188696 1190:0.10712118 1241:0.11685947 1268:0.45867345 1305:0.1343884 1334:0.083749287 1335:0.081801631 1353:0.030188696 1443:0.21424237 1444:0.026293382 1449:0.095435239 1451:0.062325053 1550:0.030188696 1552:0.026293382 1578:0.037005499 1607:0.057455909 1648:0.082775459 1707:0.032136355 1733:0.037005499 1734:0.30188698 1748:0.033110183 1773:0.029214868 1840:0.074010998 2315:0.12854542 2615:0.083749287 2625:0.16749857 2697:0.11491182 2985:0.062325053 2999:0.062325053 #
1 27:0.20308971 55:0.22987078 130:0.16626576 232:0.078111425 354:0.20420559 432:0.01785404 486:0.13836882 520:0.41510645 543:0.4273811 635:0.11828302 796:0.13948469 1185:0.091501959 1322:0.11493539 1377:0.072532043 1382:0.021201674 1496:0.33253151 1527:0.38609362 1617:0.0066952654 1646:0.2979393 1713:0.043519225 1933:0.058025632 1944:0.021201674 1965:0.1539911 2181:0.088154323 2854:0.098197222 #
0.96907554118563510314743325579911 1:0.0196748 7:0.063240431 14:0.016864115 15:0.016864115 17:0.12788621 51:0.060429744 53:0.053403031 63:0.028106859 64:0.051997688 77:0.089941949 86:0.16723581 146:0.064645775 193:0.030917544 230:0.1573984 249:0.12929155 333:0.12226483 350:0.087131262 360:0.018269459 376:0.056213718 387:0.12367018 432:0.14756101 439:0.14334498 543:0.32603955 598:0.10540072 613:0.10118469 858:0.12085949 1006:0.084320575 1120:0.13491292 1222:0.11804881 1311:0.10961675 1603:0.077293858 1700:0.17426252 1706:0.59727073 1742:0.16864115 1764:0.063240431 1776:0.21782815 1870:0.098374002 1903:0.1503717 2056:0.094157979 2358:0.16723581 2475:0.18269458 2488:0.18269458 #
0.64936577660139016554552426896407 9:0.12437287 10:0.030221445 15:0.025571993 24:0.036033262 25:0.080203071 27:0.061605256 63:0.058118165 73:0.070904158 76:0.098800883 78:0.073228888 86:0.17202976 100:0.089501977 115:0.012785996 123:0.052306347 126:0.06741707 196:0.044169806 199:0.10577506 230:0.080203071 283:0.1266976 311:0.13250941 320:0.046494532 365:0.090664335 372:0.061605256 445:0.090664335 461:0.10461269 543:0.038357988 577:0.11623633 580:0.070904158 599:0.52422583 800:0.13250941 975:0.10112561 1119:0.14180832 1242:0.045332167 1298:0.10461269 1368:0.074391253 1489:0.058118165 1623:0.10577506 1982:0.15459432 2260:0.0918267 2285:0.58699346 2457:0.12902233 2586:0.16970505 2877:0.13483414 #
0.87590150994937654438388108246727 1:0.0065119956 10:0.028652782 15:0.024745584 27:0.058607962 53:0.052095965 59:0.061212759 63:0.027350381 79:0.037769575 86:0.27871341 117:0.071631953 179:0.10940152 193:0.061212759 224:0.075539149 335:0.09247034 353:0.14326391 463:0.083353542 525:0.16149749 537:0.095075138 543:0.15889269 557:0.09247034 633:0.13544951 656:0.085958339 683:0.071631953 694:0.09247034 960:0.11591353 1075:0.11070392 1247:0.12372792 1283:0.12242552 1305:0.17321908 1382:0.036467176 1395:0.46495649 1421:0.061212759 1429:0.31908777 1560:0.12893751 1597:0.09247034 1606:0.24875824 1703:0.27741101 1943:0.067724757 2067:0.089865543 2093:0.17061429 2508:0.16670708 2510:0.16670708 2629:0.19015028 2842:0.12503032 2864:0.12503032 #
0.30229036697235506236935975721281 27:0.21991625 35:0.21439534 115:0.15642579 130:0.069011375 195:0.33953598 261:0.17482881 312:0.047847886 432:0.046927735 453:0.10673759 543:0.29996943 568:0.27972612 571:0.3791025 651:0.3505778 1202:0.061650161 1433:0.12698093 1478:0.15550563 1597:0.12882124 1606:0.056129251 1660:0.10121668 1794:0.04968819 1808:0.45087433 #
-1 1:0.014443721 8:0.024554325 10:0.10688353 15:0.049108651 19:0.10977227 51:0.072218604 55:0.080884837 58:0.070774227 63:0.033220556 64:0.060663626 67:0.069329858 80:0.069329858 123:0.060663626 127:0.07799609 147:0.11410539 148:0.089551069 149:0.054886136 190:0.10399479 193:0.037553672 230:0.18632399 236:0.10688353 254:0.13432659 269:0.054886136 355:0.1083279 360:0.041886788 372:0.070774227 392:0.13432659 543:0.15599218 577:0.1964346 650:0.124216 674:0.060663626 694:0.093884185 814:0.11699414 885:0.14877032 1049:0.15165906 1120:0.07944046 1162:0.089551069 1260:0.12854911 1305:0.12999348 1339:0.18343525 1369:0.075107343 1478:0.11699414 1488:0.15021469 1500:0.036109302 1502:0.41453478 1565:0.14588158 1690:0.099661671 1693:0.44342223 1729:0.12854911 1742:0.29754063 1773:0.043331161 1786:0.085217953 1845:0.064996742 #
-0.72766142679830669859342151539749 1:0.028916687 15:0.015491082 27:0.23236623 45:0.13735427 60:0.24269362 86:0.080553629 102:0.16833644 128:0.17969656 158:0.19002394 220:0.10740484 269:0.17763108 321:0.080553629 337:0.067128025 365:0.077455409 390:0.17350012 542:0.061964329 543:0.29433057 552:0.28400317 572:0.20758051 597:0.075389937 674:0.098110192 712:0.069193505 798:0.08675006 1032:0.10017566 1231:0.15904178 1327:0.038211338 1411:0.037178598 1423:0.52772957 1487:0.018589299 1597:0.080553629 1642:0.1012084 1771:0.13115783 2118:0.036145858 2312:0.071258977 2418:0.27057758 2884:0.033047643 2888:0.016523821 #
-0.83571685521816785335857957761618 1:0.0039905277 14:0.011971584 15:0.011971584 29:0.11472768 33:0.018955007 44:0.034917116 49:0.031924222 53:0.018955007 65:0.021947904 66:0.091782138 69:0.036912382 77:0.015962111 79:0.040902909 86:0.13667558 91:0.017957374 105:0.031924222 125:0.025938431 128:0.097767927 156:0.023943167 166:0.023943167 170:0.034917116 221:0.024940798 223:0.029928958 242:0.047886334 259:0.033919487 279:0.022945534 303:0.064846076 310:0.025938431 315:0.024940798 317:0.11672293 358:0.025938431 360:0.011971584 363:0.033919487 372:0.020950271 373:0.031924222 380:0.042898174 386:0.036912382 432:0.16161637 543:0.27734169 575:0.040902909 577:0.13667558 636:0.074822396 663:0.040902909 671:0.022945534 694:0.13767321 710:0.16361164 747:0.10674661 825:0.027933694 876:0.09277977 922:0.057862651 928:0.12969215 968:0.084798716 994:0.020950271 1046:0.079810552 1118:0.045891069 1139:0.066841342 1252:0.039905276 1266:0.032921854 1282:0.17757848 1285:0.1157253 1305:0.068836607 1307:0.060855549 1328:0.099763192 1382:0.039905276 1416:0.049881596 1444:0.090784505 1474:0.043895807 1479:0.035914749 1489:0.038907647 1549:0.0069834236 1591:0.025938431 1597:0.11373004 1636:0.57762891 1642:0.089786872 1658:0.026936062 1660:0.08878924 1731:0.038907647 1834:0.028931325 1881:0.268363 1954:0.050879229 1960:0.10375372 2065:0.068836607 2069:0.25838667 2134:0.13368268 2138:0.056865022 2212:0.058860283 2227:0.058860283 2561:0.063848443 2950:0.047886334 2974:0.1685998 #
-0.45098073658160592325216953213385 1:0.073105402 8:0.034558918 15:0.013291892 29:0.089055672 49:0.14488162 69:0.085068107 77:0.073105402 79:0.062471893 107:0.10766432 113:0.32830971 130:0.1222854 142:0.081080541 166:0.22463298 175:0.21931621 204:0.099689186 223:0.14089406 248:0.15684432 258:0.061142702 282:0.10101838 303:0.15152757 357:0.078422159 435:0.12361459 543:0.21532865 577:0.071776219 598:0.099689186 611:0.19672 647:0.16747783 683:0.11962703 689:0.14089406 706:0.16216108 708:0.5183838 988:0.078422159 1105:0.0066459458 1227:0.090384863 1259:0.061142702 1305:0.086397298 1500:0.13158973 1579:0.17944054 1642:0.11563946 1660:0.045192432 1773:0.17944054 1850:0.12494379 #
-0.54781973363459035564204668844468 1:0.0061541665 8:0.0092312498 14:0.007179861 15:0.020513888 18:0.07795278 21:0.031796526 23:0.024616666 36:0.020513888 42:0.025642361 50:0.11590347 65:0.025642361 66:0.054361805 69:0.021539584 71:0.1097493 79:0.032822222 81:0.025642361 85:0.029745139 86:0.099492364 87:0.086158335 90:0.051284723 91:0.021539584 97:0.058464583 104:0.026668055 105:0.03897639 107:0.055387501 113:0.084106945 122:0.028719444 124:0.020513888 136:0.052310415 141:0.032822222 146:0.05333611 164:0.032822222 170:0.020513888 178:0.025642361 190:0.035899304 204:0.051284723 210:0.11795486 225:0.030770833 247:0.13231458 258:0.015385416 259:0.041027777 274:0.094363891 279:0.02769375 300:0.078978471 321:0.034873612 331:0.12513472 344:0.031796526 358:0.030770833 360:0.007179861 376:0.022565277 418:0.041027777 441:0.049233332 442:0.044104859 455:0.034873612 475:0.065644443 491:0.030770833 500:0.086158335 543:0.1097493 567:0.030770833 590:0.21334444 594:0.084106945 598:0.072824307 612:0.048207637 652:0.025642361 679:0.035899304 680:0.04615625 683:0.030770833 698:0.1097493 711:0.043079168 753:0.066670135 763:0.044104859 772:0.064618751 791:0.062567361 920:0.045130555 979:0.049233332 1008:0.030770833 1061:0.15487985 1174:0.052310415 1175:0.067695834 1256:0.080004163 1271:0.18359931 1289:0.043079168 1305:0.17641944 1350:0.10154375 1381:0.078978471 1467:0.043079168 1478:0.20616458 1484:0.048207637 1493:0.04615625 1545:0.082055554 1555:0.096415274 1594:0.06051597 1595:0.037950695 1604:0.052310415 1627:0.036924999 1673:0.10154375 1729:0.055387501 1731:0.32206807 1750:0.037950695 1754:0.057438888 1762:0.043079168 1766:0.028719444 1767:0.028719444 1772:0.040002082 1773:0.16923958 1786:0.029745139 1828:0.032822222 1856:0.11590347 2688:0.067695834 2820:0.53130972 2911:0.11692917 2938:0.11692917 2945:0.072824307 2975:0.14564861 #
1 10:0.096128076 15:0.035341207 22:0.053718634 47:0.048064038 59:0.067855112 70:0.070682414 74:0.38309866 81:0.066441469 104:0.067855112 121:0.074923359 124:0.053718634 130:0.090473488 145:0.069268763 150:0.063614167 170:0.053718634 178:0.067855112 185:0.090473488 229:0.13712388 230:0.084818892 269:0.049477689 358:0.079164296 376:0.059373226 377:0.18377426 432:0.1639832 467:0.097541727 543:0.33362097 598:0.14277847 636:0.076337002 644:0.13429658 667:0.14701942 730:0.06220052 825:0.086232543 985:0.22477007 1308:0.093300782 1372:0.31241626 1444:0.13995117 1445:0.077750653 1446:0.15832859 1505:0.029686613 1509:0.10602362 1552:0.069268763 1585:0.1173328 1635:0.1173328 1658:0.083405241 1679:0.049477689 1701:0.14701942 1722:0.18377426 1751:0.093300782 1766:0.074923359 1771:0.13005564 1779:0.10743727 1795:0.11450551 1809:0.15550131 1831:0.10885091 1856:0.11874645 2236:0.15126036 2535:0.12157375 2770:0.14277847 #
0.30273892032185656386644723170321 1:0.0067284089 7:0.1537922 9:0.037486847 10:0.018262824 13:0.11630535 15:0.03075844 17:0.03940925 18:0.14321899 21:0.04709886 23:0.036525648 24:0.022107629 25:0.048060063 35:0.036525648 39:0.04709886 45:0.088430516 49:0.027874837 56:0.03075844 63:0.017301623 95:0.05478847 98:0.18743424 107:0.082663305 119:0.096120127 134:0.14706379 150:0.073051296 161:0.06247808 176:0.61036283 196:0.025952434 198:0.079779707 201:0.069206491 220:0.074012496 239:0.066322885 265:0.081702106 267:0.058633275 268:0.068245292 321:0.077857301 325:0.081702106 360:0.010573214 382:0.061516881 411:0.055749673 418:0.061516881 432:0.20377466 465:0.14129658 477:0.089391716 543:0.032680843 580:0.091314122 602:0.18839544 604:0.18358944 623:0.058633275 655:0.080740906 712:0.12880097 737:0.084585711 765:0.076896101 787:0.21627028 803:0.099003732 1072:0.076896101 1140:0.043254055 1240:0.10573214 1252:0.035564445 1328:0.046137661 1382:0.18166704 1445:0.044215258 1487:0.018262824 1533:0.03171964 1552:0.079779707 1607:0.044215258 1630:0.18166704 1672:0.084585711 1832:0.061516881 1843:0.08650811 1853:0.074973695 2070:0.049982466 2222:0.066322885 2554:0.10092613 2651:0.10669334 2909:0.06247808 #
0.56681244522977303201827226075693 1:0.017364684 10:0.031473491 14:0.017364684 15:0.017364684 21:0.079226375 36:0.10418811 44:0.051008761 47:0.046667591 49:0.046667591 52:0.0900793 67:0.060776398 134:0.24636146 193:0.032558784 213:0.062946983 233:0.11829691 360:0.018449977 432:0.29411435 439:0.069458738 453:0.12697926 513:0.092249885 543:0.18341449 570:0.14759982 609:0.39830247 610:0.013023513 632:0.037985247 634:0.18449977 694:0.011938221 782:0.11395574 862:0.14000277 937:0.14108807 1015:0.11178516 1279:0.16279392 1306:0.044497006 1357:0.14868511 1369:0.066202864 1407:0.054264639 1440:0.036899954 1505:0.044497006 1603:0.079226375 1623:0.14325865 1642:0.13349101 1727:0.14977041 1756:0.01953527 1810:0.11287045 1855:0.15411158 2777:0.15411158 2845:0.51225823 #
0.6001788297475333378017126051418 15:0.039441045 28:0.3714796 150:0.28067347 192:0.06512358 353:0.16418481 432:0.14675738 445:0.072461456 537:0.028434241 559:0.12657823 694:0.055034015 992:0.07337869 1162:0.3604728 1359:0.072461456 1374:0.029351475 1394:0.096309528 1407:0.10731633 1421:0.022013607 1551:0.64114624 1583:0.015592971 1715:0.2815907 1771:0.080716558 1779:0.14767461 1815:0.088054426 1940:0.064206347 1941:0.032103173 2363:0.096309528 #
0.64641251641826313889538369039656 1:0.015589325 13:0.18432084 15:0.023842497 18:0.067859419 28:0.22925478 40:0.26685256 45:0.10454018 86:0.058689225 92:0.088950858 117:0.10637422 142:0.22100161 193:0.09170191 207:0.17148258 218:0.12563162 263:0.089867875 269:0.067859419 365:0.008253172 369:0.12288056 376:0.080697685 432:0.11371037 445:0.04126586 487:0.14397201 543:0.29803121 598:0.08528278 649:0.045850955 706:0.073361531 794:0.45392448 975:0.072444513 1006:0.049519032 1263:0.13755287 1480:0.22375266 1498:0.045850955 1597:0.089867875 1607:0.31453755 1715:0.087116815 1733:0.13388479 1804:0.16689748 1821:0.12563162 1856:0.055938166 1866:0.064191341 1909:0.06052326 1912:0.12104652 1987:0.1201295 2200:0.092618935 2327:0.10087211 2879:0.088033833 #
-0.58466115989650169204594476468628 1:0.012870914 15:0.030032134 42:0.075795382 86:0.050053556 88:0.071505077 91:0.062924467 121:0.085806094 235:0.084375992 284:0.11869843 287:0.14014995 288:0.12727904 309:0.14158006 376:0.068644874 401:0.13156934 432:0.31033203 464:0.12727904 476:0.13156934 538:0.37182641 543:0.22881626 558:0.074365281 577:0.077225484 694:0.052913759 706:0.061494369 928:0.15302087 952:0.13156934 1099:0.052913759 1184:0.097246908 1318:0.19449382 1322:0.11869843 1353:0.28316012 1379:0.22023565 1445:0.17733259 1521:0.054343861 1525:0.10582752 1546:0.31319225 1575:0.11869843 1577:0.12155864 1641:0.081515789 1675:0.078655586 1710:0.11869843 1805:0.10439742 1820:0.030032134 2514:0.081515789 2553:0.10153721 2649:0.084375992 2876:0.21022493 2894:0.078655586 2918:0.13156934 #
-1 85:0.29017556 97:0.29017556 99:0.30751672 108:0.12254425 130:0.1202321 178:0.25780538 406:0.12254425 432:0.15029012 543:0.40693942 1104:0.06820859 1191:0.057803892 1214:0.094798386 1382:0.16531913 1421:0.28670731 1497:0.15491444 1533:0.21156225 1642:0.058959972 1646:0.36416453 1794:0.17456776 1807:0.16531913 1816:0.049711347 1818:0.094798386 1855:0.10520308 2822:0.11445171 2823:0.11445171 #
-0.28090681374461856645297075374401 1:0.01291497 14:0.10424226 15:0.025829939 79:0.12176972 86:0.051659878 94:0.19187956 103:0.20940702 197:0.27582684 220:0.10700975 296:0.24353944 359:0.22970197 432:0.17711958 471:0.070109837 503:0.51106381 543:0.2924318 573:0.10793225 598:0.024907442 674:0.15866964 702:0.36623165 710:0.056272369 954:0.14944465 1057:0.14944465 1180:0.027674936 1637:0.12269221 1686:0.076567322 1771:0.071954831 1773:0.11531223 1856:0.10239726 1882:0.032287426 1883:0.064574853 1937:0.098707266 2361:0.10977724 2466:0.10239726 #
-0.53178805179657007151661218813388 1:0.039177708 14:0.10167548 15:0.0083952229 27:0.061564967 79:0.079288214 80:0.060632166 94:0.062497769 103:0.13712198 113:0.069027387 141:0.081153817 142:0.051304139 197:0.090481848 224:0.079288214 235:0.13992038 331:0.10167548 352:0.098877072 359:0.59979206 385:0.092347451 432:0.10633949 494:0.10167548 541:0.15111402 543:0.083019428 674:0.052236941 685:0.47572929 686:0.056900956 710:0.049438536 876:0.037312102 921:0.12686114 1019:0.058766559 1180:0.0363793 1227:0.10260828 1305:0.10354108 1382:0.11193631 1584:0.094213054 1626:0.031715285 1771:0.1846949 1773:0.15111402 1852:0.14831561 1856:0.093280256 2113:0.12219714 2476:0.10354108 2733:0.060632166 2781:0.1856277 2958:0.10820509 #
-0.82810974501497969235686014144449 30:0.070543982 47:0.056244526 70:0.08389014 71:0.056244526 75:0.099142894 118:0.13727477 121:0.17731325 185:0.21544515 216:0.14108796 220:0.084843442 261:0.061011013 306:0.10581598 362:0.03908518 367:0.11344235 420:0.1000962 472:0.13536818 475:0.042898368 543:0.34318694 598:0.015252753 711:0.064824201 867:0.13632149 876:0.050524745 880:0.048618153 1050:0.075310469 1059:0.13632149 1382:0.18017314 1533:0.065777496 1540:0.32507432 1616:0.18017314 1774:0.58246452 1845:0.13822807 1855:0.12488192 1856:0.18779953 2619:0.036225289 2626:0.062917605 2636:0.048618153 2642:0.097236305 2785:0.13155499 #
1 1:0.0219147 8:0.032141559 14:0.024836659 15:0.024836659 17:0.1899274 22:0.074509978 63:0.042368419 64:0.15340289 76:0.14463702 112:0.099346638 123:0.075970963 126:0.099346638 205:0.16801271 293:0.11833938 321:0.062822141 360:0.02629764 372:0.090580761 402:0.06136116 407:0.1168784 432:0.086197823 543:0.29511797 634:0.13294919 694:0.18554446 724:0.21476406 746:0.16947368 994:0.090580761 1003:0.26735935 1085:0.16362976 1305:0.36816695 1306:0.12856624 1382:0.24398366 1421:0.16801271 1456:0.083275862 1463:0.18262251 1464:0.18700545 1642:0.28927404 1660:0.068666063 1771:0.05990018 1772:0.146098 1773:0.055517241 1826:0.1899274 1856:0.099346638 1857:0.07743194 #
0.57186031596274577992744525545277 1:0.0016116187 9:0.1289295 10:0.064464748 14:0.017727805 15:0.025785899 44:0.10636684 63:0.030620756 77:0.048348561 79:0.041902088 115:0.14182244 130:0.16921997 270:0.087027408 283:0.13215274 333:0.12731788 335:0.10153198 360:0.019339425 479:0.037067231 513:0.1031436 543:0.19500586 684:0.049960181 694:0.21595691 730:0.062853128 761:0.21595691 839:0.10475522 1003:0.095085502 1029:0.075746082 1094:0.10797846 1238:0.22723824 1305:0.30459595 1306:0.046736944 1370:0.17727806 1382:0.15149216 1431:0.2417428 1434:0.096697122 1476:0.066076368 1558:0.093473889 1645:0.52055287 1761:0.11442493 1764:0.066076368 1799:0.085415795 1856:0.25624737 2105:0.12248302 2365:0.069299608 2932:0.10475522 #
0.65505012697426112655563201769837 1:0.01732743 7:0.06468907 9:0.063533902 10:0.031189373 15:0.01732743 49:0.046206478 115:0.06584423 196:0.043896154 261:0.099343926 263:0.1270678 272:0.094723277 371:0.023103239 543:0.18136042 587:0.091257796 674:0.053137448 681:0.44935799 760:0.16634332 762:0.15132621 995:0.11089554 1069:0.039275505 1252:0.058913257 1305:0.092412956 1382:0.03581002 1388:0.082016498 1421:0.14324008 1456:0.19637753 1472:0.077395849 1501:0.44473734 1533:0.053137448 1597:0.10280941 1660:0.22063592 1676:0.51289189 1754:0.14208491 1780:0.087792307 #
0.56625940479484215828165361017454 192:0.10252932 375:0.48863071 453:0.085902937 480:0.280801 543:0.19397438 652:0.23461664 661:0.11730832 815:0.54405195 854:0.080360815 894:0.10530037 1008:0.28726682 1035:0.098834567 1040:0.09052138 1147:0.068352878 1170:0.058192313 1236:0.047108065 1301:0.04064225 1306:0.16718744 1461:0.064658128 1480:0.18104276 1488:0.10160562 1533:0.19951651 1660:0.073895 1807:0.07020025 2610:0.060963377 2987:0.054497562 #
0.29830787029491317996487964592234 1:0.015832314 24:0.12863755 130:0.047496941 222:0.30081394 360:0.064318776 445:0.064318776 504:0.080151089 543:0.17019737 606:0.72531784 693:0.33544713 847:0.091035806 936:0.042549342 1140:0.25430652 1264:0.098951958 1382:0.100931 1513:0.10983668 1520:0.045517903 1585:0.1870192 1653:0.14743842 1660:0.10686812 1807:0.10488908 1814:0.075203486 1839:0.057392135 2573:0.1058786 #
-0.71123632522044144543826860171976 15:0.010813949 33:0.06797339 86:0.14521588 133:0.10350493 170:0.06179399 220:0.11122918 324:0.27343839 358:0.091146134 363:0.12049828 367:0.11122918 432:0.20546502 543:0.021627897 672:0.091146134 694:0.08033219 705:0.10659464 779:0.21164441 888:0.14058132 948:0.16066438 1059:0.15602982 1216:0.29661116 1228:0.038621243 1305:0.19310622 1332:0.19310622 1382:0.13903648 1397:0.35840514 1455:0.10196009 1456:0.010813949 1478:0.14830558 1579:0.13749163 1635:0.40629548 1642:0.10968433 1698:0.12667768 1807:0.06179399 2919:0.30588025 #
-0.42143657995662714421669647890667 1:0.023863321 2:0.25119287 3:0.13187625 6:0.17206711 96:0.22984147 142:0.18839465 172:0.24742496 173:0.27003232 193:0.11680468 318:0.22984147 321:0.15699553 422:0.10047714 432:0.025119286 543:0.031399108 547:0.052750502 686:0.16076343 809:0.057774357 956:0.12685239 1002:0.08289364 1084:0.16453132 1099:0.15950747 1116:0.091685392 1214:0.057774357 1298:0.011303679 1305:0.08289364 1313:0.17081115 1421:0.17960289 1456:0.14317992 1620:0.49861783 1713:0.16076343 1771:0.23235339 1848:0.05903032 1850:0.10298907 2558:0.04144682 2927:0.10801293 #
-0.48920752852384524755890993219509 1:0.059434406 2:0.23198591 3:0.12174467 86:0.055599928 96:0.21281351 130:0.053682689 142:0.17446874 172:0.22911005 173:0.25019968 193:0.108324 313:0.051765449 321:0.29046169 324:0.064227507 432:0.11982743 433:0.088192992 539:0.056558549 543:0.10065504 689:0.058475785 694:0.058475785 703:0.31442717 723:0.011503434 745:0.11215848 843:0.62981296 946:0.048889592 1305:0.12174467 1421:0.11024123 1458:0.09202747 1497:0.052724071 1606:0.052724071 1660:0.028758584 1667:0.012462053 1768:0.088192992 1820:0.08723437 1856:0.078606792 1914:0.072855078 2349:0.079565413 #
-1 1:0.0036178178 15:0.0072356355 24:0.03256036 44:0.04582569 45:0.13265333 47:0.041001935 53:0.049443509 66:0.24239379 70:0.060296964 116:0.23154034 117:0.067532599 122:0.063914783 132:0.07959199 136:0.057885084 145:0.11818205 279:0.061502904 313:0.12541768 339:0.074768238 349:0.044619754 384:0.12662362 425:0.11577017 426:0.1169761 432:0.055473205 506:0.098887019 507:0.084415749 543:0.25927693 545:0.092857324 560:0.15074241 584:0.10009295 633:0.063914783 642:0.20742156 688:0.080797933 696:0.26892444 840:0.23154034 1183:0.10009295 1192:0.11215235 1330:0.07718011 1382:0.13627113 1423:0.25445318 1444:0.12059393 1446:0.068738535 1456:0.059091024 1480:0.16641963 1489:0.085621685 1505:0.049443509 1529:0.13868302 1533:0.04703163 1537:0.088033564 1594:0.26771852 1642:0.22671658 1686:0.14712459 1764:0.11577017 1776:0.09165138 1800:0.10732859 1809:0.20139186 2666:0.1688315 #
-0.51035184594986482409240124979988 1:0.053184334 14:0.02036847 15:0.019236887 20:0.046394847 38:0.0554475 40:0.072421223 46:0.069026478 47:0.053184334 50:0.13352662 65:0.074684389 79:0.046394847 83:0.1482372 87:0.082605459 103:0.080342293 106:0.16407934 113:0.080342293 200:0.076947547 254:0.15276352 330:0.093921274 365:0.13013189 432:0.1663425 493:0.20481627 543:0.1663425 551:0.11994765 580:0.076947547 598:0.18331622 618:0.20594786 666:0.037342194 688:0.10410551 711:0.061105408 712:0.075815968 1006:0.0554475 1099:0.050921172 1305:0.19576362 1372:0.43339577 1447:0.13918453 1451:0.092789695 1489:0.091658108 1552:0.076947547 1565:0.073552802 1566:0.084868625 1660:0.064500153 1773:0.35418504 1807:0.032815866 2111:0.064500153 2336:0.11428975 2375:0.093921274 2409:0.12447397 2505:0.14484245 2873:0.032815866 2929:0.33721131 2933:0.13805296 #
0.6983439921466924049653357542411 1:0.010376786 10:0.034589287 12:0.027671428 13:0.0242125 14:0.044966072 15:0.0069178571 18:0.072637498 20:0.014988691 22:0.038048215 24:0.069178574 35:0.023059525 40:0.023059525 41:0.086473219 51:0.047272023 56:0.019600596 62:0.023059525 63:0.010376786 64:0.040354166 72:0.031130357 79:0.014988691 80:0.023059525 84:0.054189883 88:0.021906547 112:0.077249408 135:0.077249408 146:0.025365477 193:0.012682739 194:0.19831191 196:0.016141666 209:0.062260713 222:0.032283332 225:0.057648811 230:0.029977381 328:0.027671428 340:0.10376786 345:0.040354166 357:0.036895238 359:0.19946489 372:0.023059525 543:0.059954762 562:0.029977381 590:0.056495834 607:0.041507144 624:0.031130357 710:0.14758095 821:0.11760357 907:0.83936667 994:0.023059525 1061:0.14412202 1119:0.092238098 1120:0.025365477 1200:0.062260713 1244:0.056495834 1297:0.036895238 1603:0.029977381 1642:0.079555355 1670:0.068025596 1685:0.029977381 1729:0.063413695 1742:0.032283332 1769:0.06110774 1783:0.050730955 1792:0.10376786 1820:0.084167264 1839:0.13143928 #
0.58782210364390308221516079356661 1:0.012121015 8:0.012121015 10:0.052891701 12:0.083745196 15:0.014324836 36:0.058401257 47:0.026445851 54:0.076031826 72:0.046280239 84:0.11790442 86:0.045178331 99:0.08705093 151:0.19393624 162:0.04407642 165:0.046280239 191:0.20495535 219:0.10908914 312:0.20164962 341:0.028649673 492:0.10247768 543:0.34710181 598:0.07713373 652:0.035261136 694:0.048484061 701:0.049585972 705:0.050687883 712:0.085949019 1031:0.096968122 1300:0.0055095525 1306:0.025343942 1456:0.035261136 1531:0.050687883 1597:0.058401257 1642:0.20164962 1653:0.033057313 1660:0.090356663 1729:0.16418466 1741:0.0066114627 1794:0.11459869 1805:0.040770687 1849:0.040770687 1850:0.15206365 2103:0.2931082 2130:0.072726093 2131:0.072726093 2283:0.53442657 2311:0.31294256 2442:0.08705093 2471:0.17410186 2613:0.11129296 #
0.64143786825361470693707133250427 1:0.012710394 12:0.21412127 86:0.043997519 270:0.11341583 302:0.32851481 341:0.11830444 365:0.098749988 371:0.068440586 432:0.1075495 437:0.13688117 461:0.050841577 524:0.075284645 543:0.21900988 897:0.082128704 987:0.10461632 1133:0.14568068 1312:0.50059402 1382:0.016621286 1456:0.066485144 1512:0.34611383 1875:0.034220293 1917:0.10461632 1919:0.10461632 2245:0.022487622 2788:0.52797025 #
0.3368105916638081120950687363802 1:0.0094313482 10:0.056588087 12:0.089597806 15:0.020748965 18:0.058474358 22:0.216921 44:0.031123448 53:0.13486828 57:0.045270469 63:0.017919561 64:0.064133167 67:0.036782257 68:0.04715674 73:0.043384202 76:0.060360625 81:0.038668528 112:0.041497931 117:0.045270469 123:0.032066584 145:0.03961166 151:0.1084605 225:0.046213605 322:0.044327334 347:0.051872414 418:0.031123448 428:0.029237179 432:0.093370348 543:0.1923995 661:0.0056588086 1099:0.026407775 1113:0.09431348 1140:0.044327334 1252:0.035839122 1258:0.085825264 1306:0.027350908 1354:0.11034677 1362:0.41780871 1488:0.18013875 1489:0.11317617 1607:0.045270469 1614:0.061303761 1633:0.1358114 1702:0.10091542 1837:0.051872414 1886:0.024521505 1908:0.062246896 1988:0.12355066 2710:0.72055501 #
0.50301715640307997912117343730642 1:0.033829182 24:0.18847688 45:0.37695375 53:0.28271532 68:0.39386836 320:0.08336477 351:0.036245555 365:0.030204628 371:0.11115303 389:0.63671356 451:0.080948405 492:0.084572956 543:0.054368328 598:0.036245555 690:0.054368328 1382:0.09665481 1478:0.16793773 1642:0.12685944 1679:0.12323488 1726:0.11477759 1794:0.085781142 1872:0.084572956 2085:0.17156228 2208:0.11115303 2953:0.0036245552 #
-0.91170681744262749290896863385569 1:0.022418214 149:0.068573363 156:0.098903887 196:0.12527826 321:0.061979771 487:0.13846545 543:0.13714673 583:0.17538956 694:0.22022599 734:0.072529517 876:0.13319057 1076:0.11472851 1228:0.059342332 1260:0.061979771 1318:0.11604723 1383:0.068573363 1478:0.16879597 1596:0.075166956 1642:0.040880274 1679:0.18198316 1695:0.26901859 1697:0.68837106 1729:0.011868467 1744:0.37451607 1775:0.02637437 1814:0.072529517 2400:0.13846545 2959:0.076485671 #
-0.79578835647788181972828169818968 1:0.010106213 15:0.0080849705 86:0.098030269 121:0.064679764 133:0.076807223 185:0.077817842 190:0.080849707 271:0.10813648 275:0.086913437 288:0.044467341 432:0.19100744 475:0.16776314 502:0.072764739 535:0.11015773 543:0.21425173 574:0.05154169 578:0.082870953 583:0.13138078 630:0.20919862 688:0.079839088 716:0.13441265 720:0.079839088 887:0.11925332 1017:0.075796604 1217:0.21627297 1219:0.061647903 1322:0.06063728 1382:0.12531705 1513:0.13946575 1515:0.40829104 1597:0.022233671 1660:0.18595433 1729:0.11622146 1838:0.10510462 1839:0.10611524 2344:0.10813648 2451:0.13946575 2624:0.52956557 2934:0.046488583 2954:0.16776314 2966:0.16776314 #
-0.73665789498035794125030406576116 1:0.015460734 2:0.15976092 10:0.070861697 15:0.019325918 135:0.140435 159:0.085034035 204:0.14687698 208:0.2576789 252:0.41486302 258:0.18037523 536:0.068284906 543:0.082457252 744:0.034786653 817:0.1172439 873:0.24221817 1098:0.10564835 1373:0.059266146 1518:0.5449909 1642:0.14687698 1685:0.18424042 1729:0.17779845 1850:0.13141625 2818:0.36075047 2907:0.13399303 #
-0.58003623669123649531087494324311 1:0.031982407 2:0.063964814 4:0.067962617 10:0.11327103 14:0.031982407 15:0.030649807 24:0.067962617 47:0.08395382 58:0.34114566 63:0.053304013 80:0.11193842 83:0.11726883 109:0.17590325 115:0.070627816 149:0.087951623 178:0.11860143 237:0.13326003 243:0.13725783 244:0.16924024 250:0.15991203 254:0.16657504 269:0.08661902 358:0.13859043 360:0.067962617 414:0.23853545 543:0.18922925 580:0.16524243 641:0.21588124 697:0.14125563 825:0.45841449 1281:0.10127763 1306:0.081288621 1316:0.21721385 1369:0.12126663 1581:0.03598021 1593:0.14925124 1629:0.062632218 1766:0.13192743 1767:0.13059483 1779:0.067962617 1786:0.13725783 1802:0.054636613 1804:0.21588124 1855:0.014658604 #
-0.64470363832128796399700831898372 1:0.029614914 8:0.05407941 10:0.037340544 14:0.063092642 15:0.020601681 19:0.17511427 31:0.12489768 54:0.081119113 63:0.036052939 80:0.074681088 86:0.25494578 125:0.092707559 149:0.11717205 154:0.090132348 175:0.084981933 180:0.12489768 226:0.090132348 257:0.15064979 303:0.11717205 314:0.2047292 318:0.0772563 357:0.060517434 360:0.090132348 362:0.15322499 365:0.14421175 432:0.11974727 470:0.15580021 577:0.20344159 640:0.1287605 855:0.06180504 873:0.12747289 983:0.15580021 1006:0.068243064 1382:0.21631764 1454:0.068243064 1495:0.059229828 1572:0.042490967 1579:0.069530673 1583:0.086269535 1588:0.096570373 1642:0.14807457 1665:0.034765337 1675:0.079831511 1683:0.099145584 1711:0.28584832 1757:0.037340544 1794:0.075968698 1850:0.11717205 1856:0.10558361 1950:0.16996387 2094:0.14678697 2247:0.15064979 2261:0.1017208 2461:0.14292416 2468:0.01030084 2550:0.18799032 2568:0.37598065 2908:0.078543901 #
0.67659616054341564783669582539005 1:0.011925384 8:0.030475982 9:0.088777862 10:0.043726411 14:0.049026579 15:0.011925384 22:0.071552306 36:0.14575469 41:0.32331043 51:0.087452821 72:0.11527871 77:0.064927094 94:0.090102904 249:0.18683103 264:0.11925384 359:0.21465692 369:0.12190393 432:0.25970837 610:0.01987564 652:0.088777862 826:0.18550599 916:0.1179288 1071:0.66782153 1305:0.071552306 1382:0.1086535 1504:0.03975128 1513:0.11130359 1642:0.27825898 1752:0.15900512 1771:0.049026579 1856:0.07950256 #
0.62532875546557253887414162818459 7:0.10682817 8:0.035609391 10:0.0506749 15:0.027391838 35:0.19996041 57:0.24378736 63:0.047935717 163:0.15065511 193:0.053414084 221:0.1191545 368:0.2369394 385:0.0041087759 419:0.079436332 457:0.21502593 487:0.12463287 523:0.1848949 543:0.29994062 694:0.0506749 696:0.16435103 766:0.26433122 830:0.29857102 1029:0.087653883 1140:0.1191545 1277:0.23967858 1382:0.1191545 1445:0.12326327 1513:0.11230654 1533:0.087653883 1642:0.21365634 1660:0.25885287 1715:0.1013498 1773:0.25200492 1851:0.060262043 1856:0.087653883 2279:0.091762654 2303:0.078066736 2678:0.1013498 2681:0.2026996 2708:0.11367613 #
0.34471518121859717753707741394464 1:0.042571679 8:0.020640815 10:0.059342343 14:0.033541322 15:0.041281629 17:0.063212492 22:0.049021933 23:0.05805229 24:0.10578418 25:0.077403054 27:0.17931707 53:0.10578418 62:0.11481453 74:0.14190561 76:0.096753821 78:0.070952803 123:0.10062397 130:0.10062397 182:0.15480611 193:0.061922442 196:0.042571679 218:0.085143358 230:0.077403054 239:0.10707422 269:0.045151781 276:0.19221759 304:0.085143358 321:0.041281629 328:0.070952803 347:0.082563259 349:0.17673698 360:0.070952803 370:0.19995789 394:0.11094438 430:0.096753821 432:0.43603721 543:0.34573364 621:0.18576734 624:0.15738621 694:0.19866784 962:0.18318723 994:0.060632393 1086:0.10062397 1223:0.16641657 1252:0.056762241 1375:0.12255484 1387:0.096753821 1396:0.14190561 1421:0.21414845 1787:0.12255484 1844:0.068372697 1845:0.10836428 2292:0.18060713 #
0.24992933194849326072883854976681 1:0.0030291164 7:0.086834669 14:0.023223227 15:0.01110676 17:0.087844379 53:0.074718207 54:0.089863792 55:0.094912313 77:0.12419377 151:0.10601908 165:0.1090482 191:0.15549465 193:0.043417335 253:0.10500937 360:0.024232931 423:0.12419377 459:0.39075601 543:0.34430957 668:0.18780522 838:0.23122256 846:0.074718207 1376:0.080776438 1421:0.085824966 1489:0.1292423 1535:0.044427041 1558:0.12217437 1642:0.027262049 1702:0.091883197 1773:0.46244511 1776:0.10803849 1812:0.13933936 1813:0.43114424 1856:0.081786148 2827:0.099960841 #
0.75995551096886881925485113242758 1:0.0084500294 9:0.047531415 10:0.02323758 12:0.055981442 15:0.019012565 20:0.030631356 24:0.028518848 38:0.10879412 40:0.096119083 42:0.096119083 67:0.046475161 79:0.030631356 86:0.078162767 115:0.099287838 121:0.054925188 171:0.054925188 196:0.033800118 213:0.048587669 312:0.08978156 324:0.083444037 328:0.057037696 343:0.12463793 402:0.21547574 445:0.13731298 543:0.073937751 562:0.062318966 694:0.16583182 706:0.039081383 729:0.0063375216 740:0.10456911 1252:0.045418907 1305:0.052812681 1505:0.057037696 1510:0.059150204 1606:0.11935666 1716:0.1024566 1722:0.067600235 1750:0.071825244 1794:0.048587669 1820:0.081331529 1837:0.042250145 2350:0.13836923 2399:0.07076899 2800:0.1161879 2830:0.05809395 2869:0.81754029 2889:0.13520047 #
-0.67637165183398073597942357082502 49:0.14073187 86:0.10818762 135:0.057172321 296:0.49080238 422:0.093234859 432:0.14512974 472:0.055413172 497:0.26739055 543:0.29289821 585:0.096753158 694:0.14161144 1050:0.096753158 1293:0.068606786 1305:0.11786294 1434:0.28674117 1521:0.10291018 1525:0.27090883 1533:0.16184165 1597:0.071245506 1714:0.37030071 1856:0.058051895 2305:0.06157019 2417:0.089716561 2500:0.34831136 2784:0.075643376 #
-0.17562143527646753571325177745166 1:0.0064821704 15:0.034262903 22:0.10371473 30:0.058339536 32:0.265769 42:0.12779136 71:0.092602439 86:0.11667907 104:0.13242148 108:0.14631185 162:0.31855237 164:0.16483234 166:0.073155925 279:0.069451831 291:0.080564119 367:0.093528464 410:0.087046288 510:0.35929745 543:0.28428948 549:0.12408727 568:0.080564119 580:0.087972313 628:0.1064928 652:0.12686534 664:0.12130919 706:0.052783389 958:0.13797763 990:0.06574773 1023:0.15279402 1104:0.10834485 1120:0.1407557 1199:0.13705161 1310:0.12964341 1406:0.10093666 1478:0.1444598 1484:0.12223522 1533:0.053709414 1597:0.078712068 1642:0.072229899 1686:0.044449169 1776:0.042597122 1831:0.21298561 1832:0.10464075 1898:0.17131451 1901:0.17131451 1991:0.091676414 2404:0.085194245 2446:0.10186268 2543:0.059265561 2807:0.18427885 2837:0.18427885 #
-0.65081523986650302582290805730736 1:0.037168883 8:0.018584441 14:0.042887174 15:0.035739314 47:0.077196911 60:0.37883672 94:0.052894183 104:0.054323755 105:0.080056056 127:0.055753328 154:0.1243728 261:0.041457601 284:0.082915202 295:0.052894183 300:0.081485629 360:0.015725298 361:0.06718991 365:0.11150666 432:0.092922211 475:0.15582339 487:0.080056056 543:0.1501051 554:0.098640501 621:0.080056056 624:0.068619482 627:0.081485629 648:0.22301331 694:0.12008409 709:0.15868254 873:0.08720392 890:0.11007708 1135:0.12008409 1252:0.048605464 1336:0.3588227 1352:0.078626484 1457:0.14581639 1515:0.19013314 1523:0.19156271 1533:0.044316746 1558:0.075767338 1597:0.23016118 1627:0.077196911 1647:0.15153468 1656:0.052894183 1700:0.16154169 1783:0.11293623 2071:0.074337766 2104:0.10864751 2116:0.094351783 2122:0.14152768 2306:0.19156271 2589:0.26304135 2622:0.11865452 2644:0.10578837 2669:0.15725297 2786:0.045746319 #
-0.62052622707293603188105635126703 1:0.039496105 3:0.19849326 4:0.2005187 8:0.05975052 10:0.042534269 20:0.054686915 22:0.13975546 24:0.050636034 31:0.20963317 96:0.087093979 135:0.1225392 154:0.10127207 362:0.099246629 432:0.11139927 543:0.17925155 580:0.056712359 694:0.088106699 872:0.088106699 893:0.11241199 1006:0.096208461 1130:0.083043098 1203:0.18431516 1372:0.40913916 1421:0.057725079 1443:0.084055819 1456:0.04658515 1478:0.13773002 1488:0.09013214 1550:0.10836111 1603:0.10734839 1615:0.024305295 1626:0.083043098 1660:0.11038655 1671:0.04455971 1715:0.084055819 1796:0.09215758 1856:0.0293689 2163:0.13266641 2164:0.13266641 2232:0.04354699 2366:0.08000493 2433:0.21267134 2577:0.12051376 2580:0.12051376 2592:0.24102752 2885:0.48104233 #
-0.39323789471904624370779401942855 1:0.0043898327 8:0.039508495 15:0.015364414 25:0.071334779 47:0.040605951 49:0.040605951 51:0.054872908 60:0.057067823 66:0.060360201 86:0.099868692 93:0.21400434 118:0.098771237 120:0.063652575 121:0.063652575 130:0.043898325 132:0.23595351 160:0.16571619 222:0.075724617 231:0.14266956 234:0.068042405 255:0.074627154 258:0.069139861 274:0.20851704 295:0.055970367 347:0.075724617 366:0.065847486 373:0.083406821 376:0.050483074 478:0.35338151 509:0.16571619 527:0.10535599 543:0.019754248 608:0.10425852 620:0.10096615 643:0.028533911 663:0.10535599 674:0.046093244 694:0.038411036 705:0.079016991 706:0.046093244 710:0.068042405 759:0.11084327 779:0.15583906 927:0.13498735 980:0.096576318 1011:0.25900012 1025:0.096576318 1056:0.10206361 1107:0.086699195 1161:0.11303819 1245:0.12840261 1346:0.22497892 1348:0.19973738 1382:0.096576318 1416:0.13059752 1446:0.13498735 1472:0.20302977 1478:0.061457656 1502:0.10645344 1540:0.11742803 1552:0.059262741 1579:0.15254669 1641:0.060360201 1645:0.11194073 1660:0.13827972 1715:0.1624238 1722:0.077919528 1809:0.065847486 1831:0.093283944 #
0.49283872366464703818067505380895 73:0.22691318 209:0.088055864 219:0.30480877 432:0.076766647 453:0.02596519 475:0.045156851 480:0.23820239 543:0.19981907 586:0.038383324 590:0.23933132 668:0.089184783 694:0.069993123 712:0.075637728 835:0.10160292 894:0.11063429 1013:0.11740781 1322:0.15466222 1369:0.20997937 1456:0.055317145 1480:0.062090673 1597:0.085798018 1625:0.083540179 1629:0.095958315 1660:0.17272496 1798:0.090313703 1823:0.11514997 1858:0.072250962 2006:0.4605999 2007:0.11514997 2008:0.4605999 2011:0.11514997 2325:0.13321272 2776:0.073379882 #
-0.45931279654079254504139839809795 1:0.0068526692 15:0.0091368919 35:0.067384578 69:0.060531911 86:0.078805692 131:0.091368921 133:0.095937364 149:0.053679243 158:0.34149134 170:0.057105575 271:0.13476916 309:0.13248494 322:0.082232028 363:0.22271174 365:0.19986951 464:0.081089921 538:0.34720191 543:0.1381955 547:0.12791649 589:0.12334804 679:0.0993637 927:0.17017461 994:0.1393376 1000:0.16446406 1041:0.0993637 1099:0.049110796 1191:0.098221593 1328:0.076521471 1340:0.075379357 1353:0.087942585 1382:0.075379357 1428:0.094795257 1480:0.10164793 1530:0.045684461 1558:0.10164793 1577:0.34034923 1596:0.017131673 1685:0.0890847 1726:0.02170012 1740:0.36775991 1775:0.1393376 1779:0.079947807 1948:0.079947807 1989:0.058247689 2002:0.0593898 2160:0.14961661 2188:0.15304294 2333:0.13362704 2345:0.090226807 2441:0.026268564 #
-0.2894396092809606302331815186335 1:0.022739021 2:0.23930113 3:0.12560602 92:0.070382684 142:0.17974655 172:0.23605269 173:0.25770891 193:0.11152948 206:0.28477916 269:0.1645872 318:0.21981053 320:0.071465492 366:0.25770891 399:0.068217061 543:0.071465492 560:0.088790461 667:0.13210289 896:0.071465492 980:0.073631115 1246:0.077962361 1305:0.097452946 1338:0.16242158 1436:0.057388958 1480:0.063885823 1488:0.14726223 1660:0.056306146 1815:0.0411468 2229:0.60853952 2266:0.11044668 2570:0.1234404 2726:0.085542031 #
-0.26816865903224701428442244832695 1:0.023399495 2:0.18817092 3:0.098472871 135:0.086773127 142:0.14039697 172:0.18524599 173:0.20182064 193:0.087748103 206:0.22327018 257:0.13552207 269:0.12869722 318:0.17257127 321:0.11797245 384:0.10529772 432:0.11797245 543:0.17939612 710:0.084823169 810:0.10334776 877:0.095547937 1002:0.019499578 1051:0.1062727 1305:0.25544447 1351:0.092622995 1382:0.058498736 1478:0.08287321 1488:0.15112174 1647:0.49138936 1673:0.05362384 1856:0.11309756 1984:0.064348608 2173:0.138447 2286:0.45629013 2394:0.022424515 2501:0.10822266 2519:0.015599662 2892:0.093597978 2941:0.056548778 #
0.53466688054817135267171579471324 18:0.20440136 22:0.21782918 53:0.23573296 54:0.28347632 77:0.19694145 130:0.055203285 192:0.12980232 343:0.14173816 362:0.11935846 432:0.095486768 471:0.0014919807 475:0.14173816 543:0.18500561 635:0.14621411 1088:0.099962704 1208:0.11339054 1712:0.693771 1726:0.0074599036 1775:0.12980232 1784:0.10145469 1807:0.20589334 1814:0.14621411 1819:0.04326744 #
0.51640329270625895397017757204594 1:0.010440201 14:0.078776069 36:0.2353791 193:0.14711194 195:0.43848848 276:0.060742993 360:0.083521612 432:0.2458193 468:0.071183197 499:0.072132304 543:0.11009667 655:0.61312461 694:0.045557246 717:0.038913481 1054:0.12528242 1189:0.14046817 1480:0.088267162 1494:0.045557246 1627:0.4204554 1629:0.042709917 1699:0.022778623 1700:0.10155469 1726:0.10819846 1856:0.070234083 #
0.51624513064123900285551371780457 1:0.0050029792 14:0.057534263 15:0.018761173 21:0.088802882 36:0.11631927 51:0.070041709 55:0.15884459 63:0.065038733 78:0.082549155 86:0.043776069 100:0.10131033 134:0.068790965 165:0.091304369 199:0.11882076 214:0.09880884 215:0.10131033 289:0.18135799 304:0.09880884 360:0.061286494 372:0.070041709 425:0.072543196 430:0.13633119 543:0.16384757 694:0.11131629 710:0.09880884 1306:0.050029792 1505:0.10756405 1569:0.088802882 1590:0.086301394 1597:0.15134013 1633:0.13007747 1690:0.19386545 1814:0.080047667 1854:0.0012507448 2000:0.17510428 2299:0.10756405 2542:0.75419915 2676:0.13883267 2861:0.081298411 #
0.36082766989418080250118237017887 1:0.020283228 10:0.1364508 15:0.047942173 23:0.13460687 24:0.16410975 27:0.070069328 35:0.068225399 36:0.11432365 54:0.073757187 63:0.033190735 110:0.079288982 147:0.21942763 193:0.036878593 196:0.097728275 211:0.1180115 229:0.077445045 230:0.18070512 258:0.086664699 272:0.10510399 360:0.020283228 387:0.14198259 482:0.11432365 543:0.30240446 624:0.090352558 820:0.12723115 876:0.25077444 965:0.13276294 1013:0.14382651 1120:0.15304616 1159:0.097728275 1264:0.35034665 1273:0.1733294 1435:0.18808083 1571:0.22864729 1576:0.077445045 1586:0.16226582 1603:0.086664699 1605:0.40013275 1667:0.066381469 1708:0.031346805 1742:0.19176869 1855:0.042410385 #
0.27544598722425062131691220201901 1:0.022817098 7:0.11155025 9:0.10901502 14:0.030422796 15:0.015211398 51:0.10774741 63:0.10140932 67:0.10647979 117:0.1305645 140:0.16986062 193:0.055775125 263:0.11028264 333:0.18253678 336:0.18887486 360:0.063380823 371:0.16732538 381:0.19521295 398:0.14831114 432:0.09126839 544:0.57042742 633:0.12422642 676:0.26112899 713:0.070986524 902:0.23450905 1100:0.25098807 1198:0.23324144 1418:0.051972277 1478:0.15591682 1497:0.098874085 1660:0.11155025 1671:0.16859299 1818:0.092536002 1834:0.14957875 1842:0.1229588 #
-0.25099967189422822677613567066146 1:0.057687718 4:0.13090675 8:0.063234612 10:0.022187585 14:0.036609516 15:0.024406344 19:0.27290729 22:0.10871916 31:0.10871916 35:0.04326579 46:0.042156409 47:0.033281378 60:0.046593927 61:0.14421929 66:0.047703307 85:0.052140824 87:0.10095351 88:0.085422203 90:0.045484547 106:0.049922064 153:0.049922064 155:0.065453373 170:0.073219031 175:0.099844128 196:0.15642247 228:0.13201612 256:0.079875305 258:0.027734481 261:0.035500135 266:0.059906479 281:0.10539103 357:0.035500135 376:0.041047033 377:0.063234612 401:0.078765929 432:0.18193819 485:0.08875034 543:0.085422203 598:0.0022187585 615:0.072109647 622:0.074328408 652:0.04437517 674:0.037718892 788:0.11093792 793:0.10428165 918:0.072109647 964:0.11426606 1028:0.092078477 1305:0.10760979 1306:0.032171998 1372:0.48036119 1382:0.080984682 1405:0.016640689 1419:0.089859717 1421:0.12868799 1459:0.18526633 1469:0.072109647 1471:0.087640956 1478:0.18859448 1525:0.063234612 1555:0.34057942 1579:0.082094066 1634:0.10539103 1660:0.10982855 1683:0.057687718 1716:0.072109647 1726:0.054359581 1814:0.11093792 2295:0.038828272 2425:0.084312819 2439:0.084312819 2671:0.14532869 2723:0.074328408 2774:0.13090675 2921:0.12979737 #
0.42060864148277943286302615888417 1:0.0065446259 9:0.028048398 10:0.014024199 13:0.028983343 15:0.022438718 18:0.14959145 22:0.068251103 24:0.049552169 25:0.035527971 28:0.036462918 35:0.054226901 38:0.042072598 39:0.10471401 41:0.033658076 45:0.098169394 63:0.013089252 111:0.044877436 112:0.091624767 123:0.07012099 126:0.030853238 150:0.027113451 186:0.5217002 193:0.028983343 217:0.061706476 246:0.36088938 269:0.021503771 279:0.030853238 283:0.057031743 299:0.040202703 332:0.044877436 360:0.032723129 372:0.028048398 373:0.042072598 411:0.042072598 425:0.028983343 432:0.1346323 445:0.091624767 466:0.10097423 543:0.085080139 553:0.094429605 568:0.035527971 656:0.080405407 813:0.057031743 884:0.097234443 1099:0.019633878 1106:0.5217002 1140:0.032723129 1177:0.062641419 1213:0.055161849 1215:0.064511314 1243:0.057966687 1265:0.040202703 1451:0.035527971 1477:0.040202703 1478:0.10190918 1498:0.051422063 1527:0.053291954 1584:0.042072598 1585:0.051422063 1614:0.044877436 1642:0.11312854 1766:0.064511314 1789:0.035527971 1796:0.060771529 1821:0.039267756 1840:0.042072598 1845:0.025243558 2082:0.064511314 2119:0.10658391 2171:0.066381209 2172:0.13276242 2435:0.10284413 2469:0.15520114 2530:0.10377907 2546:0.00093494658 2915:0.057031743 #
0.48323045396079133961819707110408 1:0.020739298 15:0.0095719835 17:0.15315174 28:0.28396884 59:0.1515564 72:0.095719837 81:0.074980535 92:0.14677042 165:0.095719837 175:0.08136186 220:0.12603112 297:0.1515564 360:0.020739298 432:0.15474707 482:0.16112839 543:0.2345136 557:0.11326847 712:0.19463034 730:0.07019455 1086:0.18346302 1227:0.11326847 1236:0.14836575 1305:0.15793774 1337:0.0015953307 1421:0.18186769 1456:0.26642022 1480:0.2392996 1513:0.20420232 1658:0.094124503 1729:0.11167314 1747:0.25206223 1752:0.074980535 1766:0.084552519 1771:0.18665367 1801:0.20260699 1807:0.086147852 1856:0.13719843 2526:0.20898831 2551:0.22653694 2594:0.13719843 2969:0.10210116 #
0.57864456967688904232005597805255 1:0.049657062 12:0.097327836 14:0.11520438 15:0.033766802 23:0.16088888 24:0.14698491 56:0.069519885 57:0.097327836 63:0.077465013 64:0.14102605 110:0.28602466 115:0.20657337 123:0.069519885 130:0.23636761 145:0.087396428 193:0.085410148 196:0.11719067 281:0.11123182 360:0.073492453 366:0.099314123 432:0.053629626 466:0.23239504 543:0.34362686 598:0.27609324 804:0.18869683 863:0.18273798 876:0.10725925 1211:0.14102605 1305:0.1013004 1460:0.17876542 1487:0.19664197 1761:0.025821671 1770:0.30390123 1807:0.14301233 1812:0.033766802 1816:0.24232645 2928:0.19664197 #
0.52654357642938576233859748754185 10:0.029077567 12:0.13731073 15:0.032308407 39:0.072693914 61:0.063001394 62:0.054924291 68:0.071078494 115:0.13246447 132:0.082386442 149:0.045231771 150:0.056539711 169:0.19385044 219:0.26654437 242:0.064616814 261:0.045231771 322:0.067847654 342:0.23423596 377:0.082386442 432:0.14215699 445:0.18092708 480:0.13892615 510:0.16477288 533:0.10015606 543:0.1033869 554:0.10984858 579:0.2067738 674:0.048462611 679:0.16477288 694:0.23262054 706:0.048462611 712:0.24877474 740:0.15992661 802:0.111464 1008:0.071078494 1024:0.13731073 1094:0.096925221 1142:0.19546586 1143:0.14377241 1265:0.084001862 1305:0.046847191 1372:0.069463074 1421:0.11307942 1493:0.10661774 1533:0.050078031 1536:0.20031212 1543:0.080771014 1614:0.093694381 1659:0.10177148 1708:0.18900418 1715:0.056539711 1729:0.15669577 1750:0.087232701 1790:0.22131258 1844:0.14700325 1846:0.088848121 2458:0.082386442 2566:0.053308871 2970:0.12761821 2971:0.12761821 #
0.54474063989115428796594642335549 1:0.0030828048 7:0.081180528 14:0.021579634 15:0.010276016 56:0.065766506 63:0.03699366 84:0.10892577 91:0.066794105 117:0.094539352 169:0.026717642 261:0.062683702 322:0.092484146 360:0.023634838 411:0.11817419 448:0.099677354 543:0.13975382 577:0.092484146 590:0.094539352 606:0.39048862 633:0.089401342 694:0.041104063 717:0.066794105 730:0.076042518 1007:0.075014919 1038:0.10481536 1258:0.17674749 1456:0.16236106 1556:0.1274226 1642:0.1274226 1664:0.094539352 1682:0.092484146 1715:0.077070124 1737:0.66999626 1764:0.081180528 1861:0.1901063 1862:0.1901063 1930:0.14180902 1993:0.13461581 2485:0.066794105 2653:0.11920179 #
-0.3192156289007272440549911607377 1:0.010165052 14:0.082244508 15:0.020330103 79:0.19313599 86:0.073927648 94:0.15247577 103:0.33175033 197:0.21901067 203:0.065610789 313:0.082244508 352:0.48052973 359:0.18204685 472:0.082244508 475:0.085016795 503:0.40567797 534:0.10904329 543:0.13306977 555:0.37241054 598:0.092409566 642:0.03788792 674:0.125677 1070:0.079472221 1146:0.12105653 1382:0.064686693 1619:0.02957106 1650:0.15802035 1686:0.10165052 1773:0.091485471 1794:0.081320412 1801:0.098878235 1841:0.18666732 #
-0.34678342390838740039171739226731 1:0.043414172 14:0.10612354 15:0.010612354 18:0.058850322 27:0.077180751 79:0.099370219 80:0.075251237 94:0.078145511 103:0.17076242 113:0.08586359 129:0.054026525 197:0.11287685 235:0.087793104 352:0.1234892 359:0.56245476 390:0.16304433 432:0.067533158 494:0.12734824 515:0.047273211 541:0.18812808 543:0.12252445 573:0.074286476 636:0.09165214 674:0.064638883 685:0.44571885 712:0.028942782 723:0.054991286 921:0.15822054 955:0.087793104 991:0.27206215 1044:0.058850322 1046:0.1070883 1221:0.081039794 1278:0.054991286 1382:0.10322925 1385:0.01543615 1479:0.086828344 1584:0.11770064 1613:0.13120727 1672:0.067533158 1689:0.12252445 1773:0.18812808 2700:0.049202729 2702:0.073321715 #
0.30351174643088107973909473003005 1:0.0089508556 8:0.011934475 9:0.035803422 13:0.073595926 15:0.0049726977 22:0.057683293 24:0.10343211 28:0.091497637 40:0.10641573 41:0.12929015 49:0.052710596 54:0.037792504 59:0.036797963 77:0.052710596 107:0.038787041 144:0.044754282 151:0.13426284 207:0.06862323 220:0.099453956 252:0.050721519 304:0.1004485 348:0.060666911 360:0.030830726 434:0.12730107 435:0.044754282 445:0.061661452 543:0.22178233 598:0.16907172 621:0.054699674 694:0.073595926 699:0.060666911 711:0.029836187 792:0.076579548 818:0.5559476 819:0.45748821 871:0.069617771 1015:0.076579548 1036:0.083541319 1159:0.08453586 1186:0.14023007 1301:0.02187987 1468:0.025858028 1509:0.3470943 1548:0.056688756 1552:0.037792504 1564:0.099453956 1606:0.067628689 1743:0.062655993 1823:0.054699674 1830:0.080557704 2427:0.058677834 2534:0.078568622 2539:0.15713724 2591:0.10442665 #
0.38106077363622292697442617281922 1:0.0036632849 8:0.032969564 9:0.092803217 14:0.025642995 36:0.076928981 44:0.07570789 52:0.13309935 63:0.042738326 77:0.068381317 81:0.094024315 231:0.11966731 360:0.026864089 405:0.514081 512:0.072044604 523:0.095245406 543:0.1453103 694:0.10745636 730:0.089139931 863:0.10012979 1061:0.06349694 1137:0.10257198 1167:0.18072206 1306:0.065939128 1456:0.1465314 1588:0.11722512 1597:0.097687595 1757:0.06471803 1824:0.0048843799 2214:0.6862554 2314:0.1208884 2322:0.1208884 #
0.67351314194677769364716368727386 1:0.0046625747 12:0.087034725 15:0.0093251495 22:0.060613472 35:0.071492814 74:0.087034725 122:0.083926342 124:0.060613472 143:0.14298563 177:0.14609401 211:0.12433533 220:0.22846617 347:0.10102245 377:0.10413083 381:0.23623712 543:0.16785268 590:0.17717785 598:0.12278114 633:0.083926342 636:0.087034725 644:0.30306736 694:0.18028623 711:0.062167663 719:0.14453982 737:0.13676886 799:0.15386496 853:0.16319011 914:0.038854789 992:0.094805688 1031:0.18650299 1445:0.088588923 1461:0.28907964 1541:0.16008173 1597:0.21292424 1600:0.046625748 1642:0.37456018 1686:0.052842513 1702:0.19427395 1752:0.2408997 1755:0.12122694 1773:0.090143114 1781:0.0062167663 #
0.31396889094400198816359193187964 7:0.15207915 9:0.14802369 15:0.040554438 22:0.11963559 53:0.1297742 63:0.13788509 84:0.22913258 134:0.14396825 163:0.21493852 248:0.083136596 263:0.15005141 295:0.15005141 324:0.070970267 383:0.16019003 432:0.068942547 437:0.18046725 483:0.075025707 523:0.13180192 607:0.25752068 652:0.29401967 717:0.12166332 773:0.25346524 1382:0.35890678 1428:0.060831659 1526:0.26968703 1529:0.18249497 1560:0.060831659 1729:0.2311603 1794:0.093275204 1855:0.099358372 2269:0.13991281 2696:0.075025707 2947:0.26360384 #
0.62945002803237815047765479903319 15:0.039711215 432:0.13342968 451:0.073068634 459:0.67191374 543:0.293863 573:0.10483761 635:0.16361021 1008:0.35422403 1034:0.18267159 1306:0.20649832 1311:0.14931417 1597:0.21920592 1605:0.087364674 1606:0.12231054 1642:0.036534317 1660:0.0063537946 1995:0.081010878 2026:0.10483761 2045:0.15725641 2339:0.12548745 2463:0.036534317 2562:0.1763178 2647:0.11595675 #
0.41607956847216964746394296525978 1:0.029574452 10:0.11711483 14:0.065063797 15:0.031940408 18:0.091089316 23:0.11593185 24:0.34897855 27:0.23659562 45:0.13959141 92:0.12066376 124:0.099370159 193:0.061514862 196:0.083991446 258:0.074527621 360:0.035489343 432:0.24014455 519:0.05678295 543:0.21885094 635:0.016561693 966:0.5559997 1326:0.269719 1488:0.11001696 1606:0.16088502 1660:0.18217863 1775:0.067429751 2656:0.32650197 2674:0.16325098 2956:0.13840844 #
0.39080597755157991946006745820341 1:0.018730855 10:0.02372575 15:0.01373596 18:0.18605982 24:0.17107514 40:0.048700221 45:0.2272677 53:0.084913209 54:0.05119767 62:0.046202775 63:0.022477025 126:0.10614151 196:0.033715539 224:0.062436182 229:0.14360322 245:0.062436182 328:0.057441287 360:0.028720643 429:0.097400442 432:0.12487236 457:0.2010445 543:0.09240555 649:0.048700221 696:0.30843472 766:0.24724728 825:0.064933628 1140:0.056192562 1204:0.10863896 1251:0.099897891 1305:0.056192562 1456:0.052446391 1565:0.048700221 1595:0.072425969 1735:0.076172143 1856:0.189806 2328:0.09240555 2437:0.0099897888 2716:0.072425969 2729:0.072425969 2758:0.15234429 2936:0.68055439 2988:0.029969368 #
