SVM-light Version V6.02
0 # kernel type
3 # kernel parameter -d 
1 # kernel parameter -g 
1 # kernel parameter -s 
1 # kernel parameter -r 
empty# kernel parameter -u 
20 # highest feature index 
300 # number of training documents 
72 # number of support vectors plus 1 
0.41140605 # threshold b, each following line is a SV (starting with alpha*y)
1 1:7 #
1 1:12 10:24 14:13 15:7 #
-1 1:6 15:6 #
-0.00043436390127209525968687842123472 1:10 8:17 10:74 15:34 19:76 #
-1 1:7 8:17 9:48 15:6 #
1 1:4 14:46 15:15 #
0.67158811574136867417195162488497 18:137 #
1 1:9 13:55 15:14 18:41 #
-1 1:13 15:17 17:131 #
-1 1:32 15:4 18:195 #
-0.0018422403841136802959965734771686 1:19 2:69 10:164 13:43 14:23 15:45 #
1 1:33 8:16 10:46 14:26 15:32 17:49 #
-1 1:6 8:9 14:7 15:20 18:76 #
-1 1:15 10:54 13:113 15:29 #
1 15:43 #
-1 1:9 15:6 #
1 1:15 14:48 15:6 #
1 1:5 10:22 15:19 #
1 1:24 14:30 15:34 18:138 #
-1 1:2 15:9 #
1 1:28 #
1 1:11 14:83 #
-1 #
-1 #
1 15:28 #
-1 1:21 8:18 9:51 10:50 14:83 15:21 #
-1 1:3 15:6 #
0.0010117522740114015533663405221887 1:25 12:49 14:58 15:17 #
1 1:16 10:29 14:16 15:16 #
1.7509866710524284172389997138453e-05 1:14 5:141 18:156 #
0.0011887301588729415335876637982437 1:29 4:41 8:25 10:69 15:38 #
-0.00010563100277159297862850095839349 1:39 3:196 4:198 8:59 10:42 20:54 #
-0.80603372161092667891324481388438 1:14 14:19 15:9 #
-1 15:17 #
1 #
-1 1:3 15:22 #
1 #
-1 1:11 14:89 15:22 #
1 #
-1 1:10 15:8 #
-1 #
0.16492190366707937254631133328076 1:7 10:16 13:65 14:17 15:13 #
1 #
1 1:16 #
-1 1:4 14:12 15:12 #
-1 #
0.12786764037928058379556262025289 15:20 20:48 #
-1 #
-1 15:7 #
1 1:3 15:13 #
1 15:15 #
-1 1:1 15:18 #
0.63099405144004172552030240694876 1:15 8:22 14:17 15:17 17:130 #
-0.14875416704174115878345219243784 1:47 14:18 15:17 20:41 #
-1 1:9 14:12 15:6 #
1 1:3 8:27 9:76 14:21 #
1 #
1 #
-0.00091065680545560079295341893157456 10:27 11:44 15:29 #
-1 1:9 15:21 #
0.0011446873746983657858800054185622 1:5 7:40 15:26 #
-0.86070280190002113052116783364909 1:7 8:24 10:33 14:9 15:27 #
-1 1:3 14:22 #
1 15:26 #
-1 1:6 15:8 #
-0.30826564301622361163879304513102 1:8 15:32 #
0.6401820365827860515040015343402 1:9 8:12 9:36 13:74 15:5 #
0.29350081164718400117408236837946 10:31 15:26 #
1 15:25 #
1 #
-0.40536801346950951385750272493169 1:14 14:113 15:28 #
