SVM-light Version V6.02
0 # kernel type
3 # kernel parameter -d 
1 # kernel parameter -g 
1 # kernel parameter -s 
1 # kernel parameter -r 
empty# kernel parameter -u 
400 # highest feature index 
300 # number of training documents 
132 # number of support vectors plus 1 
0.071424481 # threshold b, each following line is a SV (starting with alpha*y)
0.24064440762925295991259133643325 1:0.011831281 9:0.3481777 15:0.047325123 16:0.086199328 24:0.40057337 25:0.047325123 40:0.2180336 60:0.10141098 70:0.12845391 121:0.11155207 124:0.16225757 314:0.11831281 324:0.27042928 376:0.68283391 381:0.19944158 #
0.42390672041295840433150488024694 1:0.062366422 15:0.19957255 25:0.024946569 26:0.23283465 42:0.29104331 60:0.32014763 89:0.18294151 92:0.2162036 102:0.32430542 124:0.08315523 150:0.18709926 219:0.34925199 237:0.40330288 251:0.0540509 258:0.2369924 276:0.30767435 341:0.22036137 #
-0.64280335862690851644885015048203 1:0.076879546 11:0.023859169 15:0.018557131 17:0.068926491 25:0.090134643 44:0.06627547 55:0.34198144 57:0.047718339 60:0.039765283 66:0.23063864 70:0.14580603 89:0.06627547 96:0.076879546 109:0.058322415 111:0.06627547 152:0.055671394 156:0.14315502 162:0.31016919 171:0.15641011 175:0.12989992 176:0.095436677 178:0.090134643 273:0.10073871 282:0.28365901 353:0.13255094 369:0.10869177 373:0.68131185 #
-0.25265701533397244560319450101815 1:0.043126702 11:0.046720594 15:0.035938919 20:0.24079075 25:0.053908378 26:0.16891292 59:0.15094346 78:0.10781676 94:0.18688238 108:0.09703508 121:0.17250681 180:0.37735865 220:0.19047627 222:0.14375567 242:0.38814032 244:0.14734957 246:0.27672967 335:0.21563351 358:0.24079075 375:0.30548081 382:0.38814032 #
0.95986947298200941958157272893004 1:0.025213145 8:0.16703708 9:0.14182393 16:0.069336146 25:0.056729574 27:0.091397651 44:0.28679952 60:0.085094362 63:0.32461923 65:0.13867229 74:0.28679952 121:0.091397651 145:0.16388544 166:0.16388544 180:0.23322159 251:0.29625446 314:0.64293516 391:0.14497557 #
1 1:0.13596456 4:0.19222575 11:0.11721083 16:0.32350188 25:0.17816046 30:0.26724067 89:0.32350188 121:0.21097948 150:0.33287874 174:0.37038621 240:0.38445151 381:0.33756718 388:0.25317538 #
1 1:0.017871752 16:0.062551133 17:0.26807627 25:0.089358762 38:0.12510227 50:0.25467247 60:0.22786485 63:0.098294638 80:0.13850608 124:0.12063432 135:0.093826696 180:0.65231895 240:0.15190989 389:0.53168464 #
0.19358654282492154807826523210679 1:0.091494881 9:0.20287995 11:0.035802342 12:0.087516837 13:0.079560764 15:0.27846268 16:0.051714495 17:0.21083602 25:0.095472917 26:0.38586971 32:0.1670776 33:0.10342899 38:0.19890191 42:0.16309957 45:0.11536311 49:0.2506164 50:0.099450953 56:0.11536311 60:0.23868228 69:0.095472917 78:0.0835388 96:0.11934114 101:0.15912153 109:0.087516837 124:0.095472917 142:0.12729722 150:0.10342899 156:0.2187921 171:0.11934114 221:0.20685798 246:0.31426501 266:0.11138507 276:0.087516837 281:0.11536311 388:0.23470426 #
-0.8088665330588500346209457347868 22:0.30081999 25:0.047857724 91:0.45806679 180:0.64266086 278:0.53327179 #
0.0085877095540657401306905427418315 1:0.046668511 8:0.12889399 15:0.02889003 24:0.084447779 25:0.02889003 46:0.2666772 50:0.21778639 60:0.25556564 63:0.082225472 89:0.10889319 144:0.55335522 151:0.60224599 191:0.23112024 223:0.18222941 237:0.12000474 #
-1 1:0.03937225 14:0.29660428 16:0.1417401 25:0.076119684 38:0.27823055 54:0.27560574 60:0.50133997 124:0.13386564 180:0.36747432 266:0.31235316 268:0.34385097 319:0.3333517 #
-1 1:0.043952052 2:0.15961535 14:0.099470437 15:0.053205118 16:0.37937561 25:0.10409696 38:0.5621236 60:0.28221846 63:0.21976027 104:0.29378477 108:0.27990517 127:0.14804901 150:0.097157165 156:0.20819393 165:0.24983272 173:0.12722963 218:0.14342248 244:0.10641024 266:0.10641024 #
-1 1:0.069814846 9:0.16955034 11:0.059841298 15:0.27593488 16:0.16622584 25:0.069814846 30:0.41224006 31:0.17619938 32:0.13630518 36:0.21609358 46:0.20612003 81:0.1595768 83:0.13962969 90:0.36237231 102:0.14960325 109:0.14627872 119:0.16290131 124:0.079788402 134:0.29255745 174:0.18949744 201:0.22274262 280:0.16290131 369:0.27925938 388:0.12965615 #
-1 1:0.18312417 195:0.80790079 388:0.56014454 #
-0.77329968837957285821005370962666 1:0.084652014 11:0.18760717 15:0.073212549 25:0.036606275 30:0.21734977 32:0.21734977 82:0.17159192 124:0.12354618 171:0.63374615 182:0.21963766 187:0.39351746 250:0.27225918 272:0.13269775 388:0.20591031 391:0.26997128 #
1 1:0.047169048 8:0.44596192 11:0.068609521 25:0.025728572 51:0.25299761 55:0.58746904 58:0.20582858 72:0.19725238 90:0.20154049 99:0.25728571 179:0.30016667 392:0.32589525 #
1 1:0.055652916 7:0.56050438 24:0.62013251 282:0.039752085 356:0.54460353 #
1 1:0.033341181 6:0.15559217 15:0.041676477 17:0.15837061 25:0.061125498 26:0.19171178 27:0.38898045 78:0.24728042 90:0.16392747 108:0.55012947 164:0.19171178 229:0.3945373 251:0.38898045 280:0.14725688 #
0.89167292239983741986009135871427 1:0.010476401 185:0.65402675 245:0.23197745 304:0.11673704 351:0.70491213 383:0.088301092 #
0.36865049145265549324079756843275 9:0.31808633 16:0.077292003 25:0.065400921 36:0.20512109 42:0.2526854 50:0.15755677 56:0.18133892 60:0.092155851 92:0.18728447 95:0.22890323 124:0.14863847 147:0.270522 180:0.43996987 221:0.32403186 245:0.33889571 251:0.03270046 266:0.17242062 276:0.13377462 365:0.26754925 #
-0.96053878855233998379503645992372 1:0.022621134 25:0.056552835 57:0.15608583 93:0.17870696 121:0.13572681 133:0.22394924 189:0.30764744 190:0.2352598 208:0.3166959 251:0.23299769 253:0.66506135 276:0.35288969 #
-0.73758005499664791582148382076412 1:0.090777673 18:0.10212488 24:0.55317646 25:0.011347209 57:0.17871855 63:0.059572849 75:0.1163089 107:0.1276561 108:0.059572849 122:0.090777673 134:0.15035053 137:0.41984674 152:0.20141298 156:0.087940872 202:0.085104071 222:0.43119395 232:0.1248193 244:0.35176349 260:0.13332972 317:0.025531221 #
-1 1:0.0080303801 25:0.01606076 58:0.53803545 60:0.072273418 67:0.13383967 68:0.29444727 70:0.091010973 78:0.10171815 85:0.51394433 102:0.10974853 117:0.17666836 192:0.14187005 246:0.12848608 268:0.14990044 296:0.28106332 306:0.26232576 336:0.25964895 #
0.059788870800407137306997640280315 1:0.13586488 6:0.50722891 9:0.49817124 16:0.24455678 25:0.13586488 57:0.36230636 251:0.51628655 #
-1 1:0.055581164 25:0.029775623 50:0.44663435 55:0.46648476 68:0.26401052 75:0.32356176 88:0.34539723 114:0.36524764 180:0.15483324 263:0.12902769 301:0.33348697 #
1 1:0.029515481 9:0.20365682 11:0.070837155 14:0.21251146 15:0.16823824 25:0.082643345 38:0.59326118 60:0.36008886 80:0.21841456 106:0.30400947 121:0.12986812 124:0.094449542 237:0.22431765 265:0.07674025 266:0.22431765 276:0.34237957 304:0.03246703 #
1 1:0.021816019 25:0.094536081 54:0.67629659 180:0.13816811 272:0.42904836 369:0.57448846 #
0.7704090009192964272344283926941 1:0.11469608 60:0.93190563 272:0.34408823 #
1 1:0.01748519 9:0.17135486 15:0.045461494 16:0.083928913 25:0.069940761 47:0.24479266 65:0.16785783 80:0.18184598 135:0.37768009 346:0.44762087 384:0.24479266 388:0.65744311 #
0.075790277949893902764699760155054 1:0.014783348 6:0.41886154 25:0.054205611 54:0.39422262 60:0.24146135 180:0.41886154 228:0.50263387 320:0.42378932 #
-1 1:0.02156502 9:0.14787441 11:0.052372191 25:0.018484302 38:0.14171298 46:0.1786816 47:0.20948876 50:0.1447937 60:0.08626008 72:0.15095514 78:0.24029593 80:0.31115243 91:0.80714786 124:0.13555156 390:0.055452906 #
-0.72236301366105404309081450264785 1:0.03664263 25:0.085499473 69:0.20357017 74:0.21578439 113:0.17914174 145:0.2442842 180:0.14249912 224:0.39899755 243:0.40306893 281:0.2402128 313:0.37456912 368:0.3623549 377:0.37456912 #
-0.94996573643532800090838463802356 1:0.016992532 25:0.076466389 113:0.4927834 302:0.86661911 #
-0.57932335441262272635043473201222 1:0.049902786 11:0.082339592 25:0.064873621 28:0.67119247 52:0.2420285 69:0.22456253 108:0.1721646 110:0.26198962 174:0.2669799 254:0.32436809 256:0.13723266 279:0.15719377 310:0.20959169 342:0.2545042 #
-0.94161868670104387213370955578284 1:0.056407213 11:0.10968069 16:0.15668669 25:0.08461082 54:0.30710593 63:0.24129751 69:0.30083847 104:0.64241546 124:0.14728549 180:0.32277459 263:0.31964087 369:0.26323366 #
1 1:0.017671155 16:0.077753082 25:0.067150384 50:0.15904039 72:0.16610885 102:0.14136924 121:0.1024927 124:0.074218847 131:0.29687539 180:0.75632542 268:0.1943827 271:0.38876539 367:0.22619078 #
0.98467300642960864376362906114082 1:0.037227131 37:0.43343017 60:0.20740831 68:0.41481662 102:0.31111246 300:0.7006678 357:0.089079209 #
1 32:0.64764839 81:0.76193935 #
0.057905125630024999183742551167597 1:0.023557449 9:0.27680004 14:0.14428937 16:0.067727663 25:0.055948939 36:0.17962554 37:0.17079151 38:0.27091065 42:0.22085108 60:0.16195746 80:0.14723405 92:0.16195746 96:0.16195746 102:0.12367661 163:0.43286812 228:0.2944681 266:0.15312342 276:0.11778724 321:0.4181447 352:0.32980427 #
0.98222716043027757937267097076983 1:0.013958321 6:0.36756912 15:0.097708248 25:0.046527736 51:0.49319398 83:0.2977775 113:0.30243027 124:0.16749986 268:0.42805517 286:0.12097211 354:0.45131904 #
-1 1:0.053312544 15:0.072352737 25:0.03427235 31:0.53693348 102:0.22848234 114:0.41888428 135:0.38080388 177:0.38841996 180:0.28941095 268:0.30845115 #
-1 1:0.03278441 17:0.33036596 25:0.042871919 33:0.64055693 53:0.31271282 81:0.30262533 94:0.247144 152:0.26227528 323:0.33036596 395:0.22192523 #
-0.72715263509456851132028987194644 57:0.23591483 180:0.18135951 231:0.82275295 282:0.095840394 333:0.15629357 397:0.44823816 #
-0.74781386866499544030517654391588 1:0.033560544 31:0.49381945 77:0.48103449 102:0.41710964 143:0.59130484 #
-1 94:0.38603708 124:0.34122923 205:0.36535653 280:0.71347928 393:0.30331486 #
0.78542609732494816920933544679428 1:0.04986481 15:0.04986481 16:0.090379968 25:0.04986481 26:0.22750819 47:0.2586737 49:0.29918885 57:0.13401167 65:0.17452683 70:0.13401167 78:0.14647788 175:0.70745695 181:0.33970401 348:0.19945924 391:0.18075994 #
0.99020223330419221419163022801513 25:0.058654103 357:0.10792355 363:0.99242741 #
0.97354309858567500413073503295891 64:0.48171452 142:0.22492507 234:0.59230268 318:0.60542333 #
0.53630291569083510250237623040448 1:0.020168893 15:0.15218346 49:0.45471683 217:0.11734628 248:0.84709346 372:0.13751517 400:0.13934872 #
0.99645502526963658507241916595376 56:0.58172959 155:0.22574583 172:0.78142786 #
-1 1:0.006089516 15:0.044656452 20:0.28823709 32:0.25981936 50:0.15832742 162:0.24764033 192:0.18268548 281:0.18065564 340:0.11164113 350:0.82614434 #
-1 1:0.035914805 11:0.061055169 13:0.27295253 16:0.26576954 25:0.12211034 45:0.20112291 53:0.17598255 65:0.17239106 76:0.17239106 89:0.17957403 93:0.15084217 105:0.22267179 124:0.082604051 156:0.19393994 199:0.33400768 226:0.28372696 273:0.26936105 276:0.15084217 303:0.33400768 338:0.25858659 388:0.13647626 399:0.26576954 #
-0.62984640882178610787889283528784 1:0.014882227 15:0.12041075 25:0.029764455 111:0.22323342 118:0.4857018 121:0.28276232 149:0.096058011 180:0.10823438 242:0.32064435 270:0.70352352 #
-0.88338204572596035202280972953304 66:0.47453612 82:0.20040171 97:0.47453612 100:0.50289482 203:0.42159981 272:0.19662054 319:0.20040171 #
-0.13148649791804384312499109910277 1:0.030540999 15:0.23754109 25:0.028844276 76:0.21039355 118:0.47677892 121:0.2765657 149:0.069565609 242:0.31389359 270:0.34443459 281:0.48865598 290:0.084836103 394:0.35461491 #
1 16:0.20523117 25:0.075452641 32:0.11468801 67:0.15090528 70:0.10261559 72:0.14486907 96:0.81790662 123:0.14486907 145:0.1599596 150:0.14185096 152:0.11468801 196:0.19315876 203:0.14486907 272:0.19315876 280:0.13581476 306:0.14788717 #
0.6353793336631807786574199781171 25:0.019619061 30:0.11902229 32:0.11771436 36:0.18703504 37:0.17918742 47:0.20926997 49:0.23935254 65:0.14125723 78:0.11902229 93:0.24589223 124:0.068012744 251:0.21711759 280:0.42507964 284:0.66704804 366:0.082400054 390:0.15695249 #
0.006132227143735430319182455605187 1:0.017264903 9:0.24362695 15:0.067141287 16:0.11893599 25:0.032611482 72:0.25130025 89:0.24170864 92:0.28391173 95:0.34913468 102:0.21485212 124:0.22444373 147:0.41243935 257:0.52753866 272:0.18991393 309:0.12469096 #
0.44884061302238492663363444989955 16:0.54498667 17:0.57951075 25:0.036990047 83:0.22933829 124:0.12823217 135:0.20467827 226:0.43648255 245:0.11343615 286:0.2268723 #
-0.22982589123183400081629201849864 21:0.17314692 41:0.24334161 67:0.20590444 70:0.13804956 86:0.33693454 108:0.13804956 145:0.4352071 167:0.34629384 196:0.52880001 238:0.25972036 331:0.24568143 #
-1 1:0.021357724 11:0.069412604 15:0.05339431 23:0.19221951 25:0.026697155 41:0.25095326 145:0.45118192 180:0.4138059 196:0.54729164 251:0.36575103 303:0.28832927 #
-0.81784494250881667465336022360134 1:0.080887601 3:0.32989451 5:0.43457258 7:0.39492181 18:0.72164428 272:0.13798472 #
-0.89037699916248380649363980410271 59:1 #
0.022426350914572464045892985495811 1:0.0092576724 9:0.039675739 14:0.040998261 16:0.019837869 19:0.051578458 24:0.21160392 25:0.031740591 32:0.096544296 36:0.050255932 40:0.14812276 46:0.047610886 54:0.076706424 60:0.070093803 63:0.059513606 68:0.13886508 124:0.018515345 136:0.73796868 160:0.063481182 168:0.087286621 188:0.51049447 193:0.12960741 221:0.080674 266:0.043643311 276:0.099189341 280:0.038353212 291:0.063481182 371:0.14283265 #
-0.1749165935393312554246847412287 1:0.025820987 15:0.20841224 25:0.051641975 111:0.3836261 118:0.41866887 121:0.24345502 180:0.10328395 231:0.48691005 242:0.55146253 382:0.14017107 #
0.72356877320307866341408953303471 1:0.01497349 6:0.088689141 24:0.065652996 25:0.023036139 32:0.070260227 43:0.07947468 46:0.10481444 54:0.24994212 60:0.10135902 68:0.10135902 113:0.072563842 136:0.71527213 168:0.18889634 188:0.55747461 226:0.13591322 #
0.68755906328149041240038741307217 45:0.52920467 50:0.46754974 179:0.17982683 272:0.38277423 387:0.31855038 390:0.47011867 #
-0.63212857936657085300424796514562 1:0.073902443 25:0.048036586 55:0.37320733 61:0.62078053 63:0.27343905 230:0.3695122 256:0.50623173 #
-0.77102538459135827597634715857566 1:0.12453451 11:0.058870859 20:0.15170567 25:0.022642639 57:0.24680476 109:0.14491288 121:0.1064204 122:0.38266057 135:0.12453451 138:0.55927318 176:0.24001196 190:0.37360352 220:0.17208405 235:0.25812608 237:0.18340537 272:0.20831227 369:0.13812009 #
-0.81980304905668388570916249591392 1:0.0630918 3:0.26438469 4:0.13219234 11:0.081118032 14:0.23734535 25:0.030043716 27:0.1472142 30:0.37254208 60:0.26738906 63:0.17425355 90:0.2433541 104:0.23133661 135:0.16824481 150:0.23133661 182:0.3274765 244:0.24936284 250:0.15322295 259:0.33949399 280:0.22232349 388:0.17425355 #
-0.19047187966924972180038366786903 1:0.19991557 11:0.04846438 15:0.10904486 24:0.10298681 92:0.15750924 116:0.5997467 122:0.30896044 150:0.13327704 162:0.20597363 175:0.13327704 176:0.19385752 192:0.15145119 247:0.30896044 253:0.42406332 277:0.17568338 388:0.10298681 #
-0.34187243668481470670883481943747 1:0.0074504046 11:0.067053638 25:0.026076416 36:0.12106907 55:0.09685526 57:0.068916239 58:0.10244306 70:0.068916239 86:0.1676341 89:0.09313006 116:0.28125277 117:0.40045923 119:0.36320722 145:0.10803086 169:0.10803086 180:0.1694967 215:0.3538942 272:0.074504048 380:0.59975755 #
0.4338795040027980109975658251642 1:0.052762236 6:0.1695929 15:0.045224775 17:0.34295455 25:0.045224775 89:0.16205545 93:0.13944305 102:0.14321178 124:0.075374626 135:0.24119879 180:0.44847903 191:0.34672326 202:0.17336163 261:0.32787961 298:0.33164835 348:0.38441059 #
0.12037372845880575655819200164842 1:0.047144979 6:0.23048657 9:0.22524823 15:0.062859975 25:0.031429987 65:0.22000991 89:0.22262907 101:0.35096818 124:0.20953324 261:0.37715983 262:0.39025566 268:0.26977405 293:0.40335149 311:0.30644238 #
0.71985873733910443750261265449808 1:0.012127277 8:0.22637583 25:0.024254553 32:0.1576546 54:0.18595158 96:0.22637583 103:0.37190315 130:0.37998801 152:0.1576546 161:0.32339403 192:0.21829098 293:0.61444867 #
-0.60676762550554774744426822508103 1:0.10840526 2:0.12746553 3:0.17868999 4:0.31687692 5:0.11674412 10:0.063137129 11:0.081006125 13:0.17630745 15:0.14771706 16:0.076241061 23:0.075049795 24:0.17749871 27:0.050033197 28:0.072667263 30:0.31449437 43:0.071475998 60:0.22634065 98:0.72309881 124:0.035737999 132:0.10721399 329:0.11197906 341:0.091727525 #
-0.20753243994187825505193245589908 1:0.0093651544 11:0.0321091 15:0.012040912 16:0.044150013 20:0.080272749 21:0.041474253 22:0.16322125 25:0.036122736 35:0.041474253 57:0.066893958 58:0.24215612 60:0.026757583 63:0.033446979 70:0.065556079 73:0.062880322 74:0.090975784 75:0.32376674 79:0.068231836 91:0.06154244 102:0.040136375 113:0.22743945 121:0.1150576 137:0.11773337 141:0.06154244 169:0.050839409 186:0.056190923 200:0.1150576 240:0.053515166 287:0.064218201 291:0.80272746 360:0.077596992 379:0.060204562 #
1 25:0.049727403 27:0.11934576 38:0.17901865 50:0.18399139 89:0.18399139 90:0.5967288 102:0.16410042 124:0.17155954 135:0.27350071 209:0.31825536 228:0.1417231 282:0.40279195 343:0.33565995 #
0.42522027336884826720364571883692 1:0.0037961639 6:0.10629259 14:0.15943888 16:0.050615519 17:0.054411683 24:0.19740053 25:0.041757803 26:0.064534783 36:0.065800175 38:0.050615519 40:0.064534783 43:0.048084743 54:0.049350131 57:0.037961639 60:0.030369312 64:0.075923279 68:0.12147725 71:0.34292012 83:0.043023191 124:0.024042372 129:0.73519039 146:0.11008875 148:0.094904095 157:0.13286574 175:0.10123104 184:0.091107935 210:0.11261953 211:0.080984831 212:0.094904095 223:0.086046383 237:0.11261953 255:0.11261953 280:0.099965647 294:0.084780991 304:0.15437733 317:0.041757803 370:0.19360435 378:0.12274263 #
0.8587019401793806183675883403339 19:0.74366152 25:0.078956656 271:0.32868004 280:0.56187761 304:0.13037029 #
0.16304587050374963475007916713366 1:0.082662359 8:0.16201822 15:0.19177668 25:0.056210402 34:0.16201822 38:0.26782605 60:0.24468058 83:0.1157273 93:0.2347611 124:0.12895328 158:0.47613519 251:0.34387541 272:0.39347282 276:0.1157273 306:0.14548574 371:0.38685983 #
-0.61455115519790493028295941257966 1:0.071551368 10:0.11925227 11:0.05035096 15:0.079501517 21:0.13515258 25:0.079501517 32:0.11925227 43:0.13515258 57:0.10865207 63:0.11130212 74:0.14575277 83:0.12190232 89:0.43460828 105:0.18020344 108:0.42135805 118:0.16165309 121:0.18550354 150:0.14840282 152:0.2411546 165:0.18815359 222:0.15635298 246:0.15105288 253:0.30740586 279:0.37100708 #
-0.90393525619419112793195836275117 1:0.028387681 2:0.29333937 16:0.1301102 25:0.035484601 115:0.15613224 154:0.47312802 282:0.25785476 287:0.76173609 #
-0.47054716801016333027618543383142 1:0.018998902 11:0.028498353 25:0.032569546 35:0.14656296 57:0.23612922 58:0.25919932 70:0.058353774 96:0.093637452 97:0.27819821 113:0.13434939 116:0.11942168 121:0.051568452 123:0.082780935 135:0.11806461 150:0.081423871 302:0.11806461 360:0.82645226 369:0.066496156 #
0.78642308030434804333452802893589 9:0.15139286 16:0.07149107 17:0.31119645 25:0.10092857 150:0.15139286 151:0.55090177 180:0.43735716 213:0.39950895 269:0.2565268 330:0.34904465 #
0.22731213864273916436253841766302 1:0.042249329 16:0.053515818 24:0.41967669 25:0.030982843 44:0.10984826 60:0.38587722 68:0.51262522 80:0.1154815 81:0.10421502 102:0.1915303 124:0.050699197 266:0.23941287 339:0.21969652 344:0.1408311 361:0.45347616 #
-0.36125114283393777725450490834191 1:0.1807463 2:0.24184364 3:0.50659877 4:0.25711796 5:0.082735978 7:0.30294096 10:0.090373151 12:0.18456487 15:0.059824478 27:0.070007369 29:0.25711796 33:0.11073893 43:0.20238493 48:0.13874188 53:0.21638641 60:0.38567695 70:0.16038051 84:0.1578348 282:0.11201179 386:0.19856635 #
-0.46929059118873112099734612456814 1:0.04057594 2:0.42701349 3:0.22413377 106:0.1255922 125:0.42121691 126:0.45986068 173:0.50816536 369:0.32074314 #
-0.16138161497661224208499675114581 1:0.13738865 2:0.13482063 3:0.28248131 4:0.42885801 5:0.37107775 7:0.33640957 10:0.20030494 27:0.15664873 48:0.31072944 82:0.083460391 127:0.37364575 225:0.37492976 #
-0.2245321125391712413499334388689 1:0.049653057 2:0.099306114 4:0.10551275 15:0.049653057 16:0.17585458 25:0.04758418 53:0.52963263 60:0.10551275 62:0.18206121 70:0.13033928 76:0.1737857 124:0.082755096 127:0.27309182 182:0.20688775 187:0.26274744 194:0.2482653 199:0.25860968 203:0.18413009 251:0.10965051 325:0.37032905 341:0.21309438 388:0.13654591 #
0.4067917997682787834001771898329 1:0.062806167 6:0.098695405 8:0.11215387 15:0.053833857 16:0.19290465 25:0.080750786 44:0.39029545 46:0.11664002 60:0.11215387 80:0.61908937 137:0.12561233 169:0.11215387 178:0.13009849 237:0.10766771 268:0.11664002 287:0.13907079 337:0.52488011 #
0.25816935722956130261351859189745 16:0.085801825 25:0.071962826 26:0.21865627 49:0.14392565 135:0.12731884 158:0.39856333 272:0.17437145 354:0.25186989 376:0.68087906 400:0.43177694 #
-0.39254255331305676346431710044271 1:0.033371463 25:0.033371463 28:0.22247642 70:0.68411499 150:0.23360026 165:0.30034319 192:0.26697171 266:0.2558479 270:0.37264803 340:0.24472408 #
0.26710670157717530948104922572384 1:0.019664492 2:0.033278372 6:0.18756901 9:0.18303105 11:0.021177147 14:0.063531436 16:0.089246549 24:0.046892252 25:0.024202453 32:0.04991756 38:0.29496741 50:0.18151841 60:0.14218941 64:0.089246549 68:0.071094707 96:0.071094707 102:0.054455519 104:0.12403757 121:0.039328985 124:0.028740413 150:0.062018786 153:0.23446126 157:0.7064091 198:0.096809812 211:0.095297158 237:0.066556744 258:0.15731594 266:0.066556744 285:0.30253068 369:0.04991756 372:0.17092982 #
0.54332627644098496766389416734455 1:0.025046328 9:0.18645599 11:0.064007282 15:0.10296824 16:0.091836534 25:0.025046328 32:0.15027797 39:0.24211451 46:0.67903382 49:0.3061218 89:0.18367307 111:0.18923892 135:0.13636334 191:0.39239249 209:0.25046328 #
0.14352065533423030707638190506259 1:0.034846578 14:0.32357535 15:0.084627405 16:0.079649322 25:0.064715073 60:0.18418905 72:0.16427672 93:0.26383838 180:0.28872877 251:0.57745755 268:0.18916713 330:0.38331234 363:0.36340001 388:0.11947398 #
-0.34658385506881755899755148675467 1:0.09103173 25:0.050224401 33:0.18520248 55:0.37982205 57:0.13497809 62:0.18520248 68:0.21345371 72:0.18834151 77:0.18520248 93:0.15381223 102:0.16009028 108:0.13183905 112:0.26681712 121:0.11614393 152:0.30448544 203:0.18834151 260:0.60269284 #
-0.36090432022655249966192059218884 1:0.0054332046 25:0.039843503 67:0.48536628 86:0.26622704 117:0.21189499 119:0.57591969 192:0.17024042 218:0.12315264 251:0.17386255 301:0.079687007 303:0.19559537 325:0.30969268 380:0.31693694 #
-0.2540954471993498442472514398105 1:0.037912302 20:0.16007416 22:0.16007416 25:0.025274867 35:0.32857326 41:0.45916009 67:0.38754797 70:0.13058682 80:0.1895615 91:0.24432372 150:0.3622731 167:0.32436079 169:0.20219894 200:0.2274738 222:0.1895615 #
-0.21384802697185031905569019272662 1:0.028641358 11:0.085924074 16:0.040916227 20:0.29664263 25:0.045007847 31:0.085924074 57:0.061374336 70:0.059328526 73:0.11456543 74:0.16571072 75:0.11865705 96:0.096153133 100:0.10024475 107:0.25981802 117:0.69966745 121:0.10638218 135:0.12070286 236:0.14934422 275:0.30073425 276:0.069557585 310:0.15548165 336:0.29459682 #
0.99920856084572606814475648207008 288:0.97868699 304:0.20535776 #
0.35124831009651280577799070670153 1:0.016610654 8:0.21593851 9:0.063120484 16:0.18271719 25:0.093019664 34:0.14617376 49:0.04983196 62:0.063120484 70:0.046509832 93:0.053154092 160:0.19932784 166:0.25912622 193:0.13620736 244:0.066442616 257:0.53486305 272:0.37540078 283:0.29566965 294:0.20264998 306:0.063120484 317:0.27573687 362:0.30231389 369:0.10298605 379:0.083053268 #
0.42632220839607998241760355995211 1:0.00679714 8:0.11215281 11:0.0339857 16:0.18692136 25:0.039083555 31:0.09855853 45:0.10705496 70:0.13934137 72:0.29397631 78:0.076467827 80:0.10025781 81:0.4537091 83:0.078167111 90:0.10195711 93:0.15973279 109:0.081565678 118:0.10535567 120:0.13764209 121:0.061174262 135:0.13934137 180:0.20731278 248:0.58115548 252:0.15973279 289:0.10875424 316:0.16313136 339:0.19201921 357:0.13254423 #
0.25981823515825031023496194393374 6:0.20819256 11:0.069397517 16:0.098758005 25:0.053382706 34:0.47510609 54:0.38969374 120:0.29360488 124:0.093419738 284:0.4617604 289:0.23221476 330:0.15480985 361:0.41905424 #
0.61629710360377920608243584865704 1:0.028909266 14:0.34180954 19:0.42513627 24:0.12584034 25:0.04421417 44:0.49485859 68:0.19386213 106:0.16495287 153:0.31800193 170:0.23297466 180:0.10883488 268:0.19726323 369:0.40983135 #
0.23145569837998641871124050339859 1:0.0091353012 6:0.55496955 16:0.13246188 25:0.036541205 92:0.31745172 101:0.4225077 124:0.1256104 150:0.27405906 267:0.4681842 276:0.22609872 337:0.1804222 #
-0.25211566593575829298146118162549 1:0.059433706 11:0.10853112 13:0.35143408 15:0.12661964 16:0.074938156 25:0.041345187 30:0.2506552 76:0.14987631 80:0.16279668 87:0.18605335 124:0.072354078 132:0.2506552 171:0.1808852 180:0.51164669 190:0.1705489 205:0.30233669 235:0.23515075 374:0.31267297 388:0.23515075 #
-0.19386355556521792098401135717722 1:0.047124539 11:0.11875384 15:0.12440878 25:0.030159704 28:0.21488789 33:0.11498387 62:0.22996774 74:0.11309889 75:0.81242704 180:0.40715599 369:0.094249077 388:0.086709149 #
0.32781115600806060017546883500472 1:0.078161053 16:0.26574758 25:0.14590064 50:0.53670591 60:0.31785494 89:0.53670591 102:0.47417706 #
-0.10313596922441550796101239484415 1:0.045044504 11:0.17016812 25:0.10009889 63:0.37036592 70:0.18017802 97:0.28528187 121:0.15515329 141:0.33533129 156:0.26526207 159:0.3803758 165:0.32031646 178:0.33032635 241:0.3803758 #
0.21688784607339969823236458523752 1:0.014112267 15:0.16229106 25:0.052921001 26:0.25049275 45:0.44806448 49:0.32811022 89:0.19757174 92:0.2328524 95:0.2857734 124:0.18345948 147:0.33516634 163:0.27871728 175:0.19404367 180:0.12348233 274:0.25754887 329:0.2857734 #
0.1916349643016653225835455032211 1:0.029410813 6:0.16946231 25:0.022408238 45:0.18626848 50:0.16386025 57:0.1218448 102:0.14565355 124:0.077028319 185:0.75207651 228:0.21147776 251:0.14845458 256:0.2436896 257:0.3585318 272:0.084030896 307:0.14845458 348:0.13024789 #
0.11546708928368459856628192028438 1:0.028002689 6:0.16001536 15:0.12801228 24:0.23602267 25:0.02000192 32:0.12801228 60:0.18001728 65:0.3000288 80:0.16401574 101:0.24402343 102:0.27202612 121:0.1000096 124:0.072006911 135:0.46004418 150:0.15601498 152:0.12801228 157:0.2000192 164:0.19601882 195:0.17201652 280:0.1520146 281:0.1760169 338:0.22402151 356:0.32803148 388:0.12001152 #
0.088752025518027036210533253779431 1:0.032226484 8:0.22265571 11:0.032226484 16:0.14062467 25:0.038085848 39:0.12304658 49:0.15527306 51:0.31347582 70:0.070312336 80:0.20214796 100:0.23144476 142:0.54492056 143:0.11718722 172:0.29003838 180:0.1201169 274:0.12304658 283:0.51562375 #
0.099415614843896910057807758676063 1:0.0064823399 9:0.16421928 11:0.05834106 15:0.045376379 47:0.23552501 49:0.13612914 78:0.13396835 124:0.075627297 135:0.12100368 150:0.16638006 318:0.90968835 #
0.1495016531932691628004050699019 1:0.054426119 11:0.079824969 15:0.061682932 17:0.47169301 25:0.061682932 32:0.1850488 42:0.35921237 93:0.38098282 124:0.10522383 151:0.41726691 193:0.24673173 229:0.29390103 266:0.24673173 276:0.18867721 314:0.15239313 #
0.13453952014191017383382131811231 1:0.023083778 9:0.67475659 15:0.18467022 65:0.65522414 180:0.055045933 304:0.278781 #
0.070037685029652851920189959855634 1:0.032300208 8:0.08613389 14:0.075367153 15:0.13996758 16:0.10766736 24:0.22610147 25:0.021533472 27:0.04665586 32:0.1184341 39:0.096900627 44:0.071778245 46:0.26916841 51:0.16867886 54:0.071778245 60:0.21533473 69:0.06818933 76:0.071778245 81:0.071778245 83:0.061011508 89:0.14714541 93:0.12561193 121:0.04665586 124:0.032300208 144:0.61729288 155:0.19380125 193:0.24045712 202:0.078956068 265:0.3230021 267:0.12561193 282:0.24045712 #
-0.10055845473392577282822912820848 1:0.083911143 11:0.041955572 15:0.096820548 25:0.08068379 55:0.85524821 70:0.17427699 79:0.1807317 111:0.11941201 123:0.12263937 156:0.12586671 171:0.2807796 232:0.18395904 277:0.15168552 #
-0.1035091812372083697191271767224 1:0.044447079 25:0.035557661 91:0.33779779 145:0.28446129 180:0.43113667 196:0.34224251 214:0.47558373 216:0.38224488 338:0.35557663 #
-0.058765890813095092437556843378843 1:0.057410065 11:0.089136682 25:0.016618703 52:0.12992804 61:0.16316545 85:0.52424455 149:0.11028776 152:0.73726612 214:0.24474818 228:0.075539559 256:0.19791365 388:0.098201431 #
-0.052931176888740230634944339271897 1:0.013044205 13:0.059630655 20:0.35592046 22:0.072674856 25:0.054040279 35:0.29069942 57:0.057767194 58:0.42673185 63:0.11926131 72:0.081992149 81:0.076401778 96:0.18634579 97:0.55158353 109:0.068947941 169:0.089445978 180:0.065221027 200:0.10062673 231:0.10249019 322:0.22361495 345:0.15653047 347:0.12485168 369:0.065221027 382:0.2478399 396:0.13603243 399:0.11739785 #
0.12620684057467668193197596337995 1:0.0059732874 14:0.15132329 16:0.071679451 24:0.22499382 25:0.059732873 54:0.28273562 60:0.17123424 68:0.34445956 83:0.12145685 124:0.067697257 163:0.1433589 198:0.13738561 223:0.24490479 226:0.23096712 237:0.16127875 251:0.59135544 264:0.24689588 280:0.28472671 #
0.069937833200146487522275151604845 1:0.011345977 9:0.16735315 15:0.045383908 17:0.17586264 25:0.022691954 26:0.42547414 36:0.21841006 37:0.20706408 50:0.16735315 103:0.65523016 121:0.10778678 217:0.31485087 276:0.14182471 286:0.16451667 309:0.22691953 #
0.066808900759487643838951953512151 1:0.040090933 14:0.34829 16:0.082687549 19:0.65147769 25:0.11275575 57:0.12528417 60:0.097721651 78:0.13781258 80:0.17790352 89:0.16788079 106:0.33576158 135:0.12528417 156:0.18040921 180:0.12778986 211:0.26309675 229:0.21799445 262:0.11776712 282:0.14532964 #
0.12946212991682931603421025101852 1:0.057365797 6:0.044127539 8:0.050746668 11:0.028682899 14:0.044127539 15:0.15003362 16:0.019857392 19:0.11031884 21:0.039714783 24:0.19416116 25:0.022063769 30:0.068397686 32:0.035302028 43:0.039714783 44:0.21181218 46:0.15444638 57:0.030889276 60:0.34860754 62:0.041921161 70:0.061778553 72:0.044127539 78:0.035302028 89:0.083842322 121:0.05515942 144:0.5714516 152:0.035302028 157:0.05515942 160:0.068397686 171:0.050746668 223:0.21181218 237:0.046333913 251:0.43024349 268:0.15224001 362:0.31551188 388:0.063984931 #
-0.030612980076125773792883322244052 1:0.14973241 11:0.11935192 21:0.15841255 25:0.045570731 28:0.4860878 62:0.52080834 63:0.13020208 82:0.20832334 108:0.24738397 111:0.34720558 230:0.11067178 251:0.12152195 254:0.23436376 312:0.24738397 319:0.20832334 #
0.075223887472418649036143278863165 1:0.03662594 6:0.4354417 14:0.21975563 15:0.056973681 16:0.10580827 17:0.44358081 25:0.085460521 38:0.20347744 53:0.41916353 60:0.37032893 70:0.15464285 74:0.21161653 99:0.28486842 124:0.19533834 #
-0.048000119976271390931366056520346 1:0.14488359 25:0.062782891 28:0.10866269 53:0.11349215 63:0.34772059 69:0.10866269 70:0.084515423 72:0.1183216 74:0.11590687 77:0.11590687 78:0.094174333 108:0.49984837 167:0.2100812 174:0.13039523 180:0.22456956 199:0.19800757 222:0.36945313 240:0.13522469 282:0.32115862 331:0.25837573 335:0.18834867 #
-0.013198383797792435576101688354811 1:0.12739386 2:0.99185222 #
-0.021896692420573980741860253829145 1:0.022111636 25:0.068345055 28:0.11859877 31:0.26332948 44:0.12663937 49:0.10452773 67:0.27338022 70:0.092466839 74:0.12663937 77:0.5125879 108:0.090456694 109:0.10854803 121:0.24121785 143:0.47238496 145:0.1447307 174:0.14272057 180:0.13669011 202:0.26533964 305:0.19900472 358:0.14071041 397:0.17689309 #
