SVM-light Version V6.02
0 # kernel type
3 # kernel parameter -d 
1 # kernel parameter -g 
1 # kernel parameter -s 
1 # kernel parameter -r 
empty# kernel parameter -u 
16502 # highest feature index 
300 # number of training documents 
264 # number of support vectors plus 1 
-0.1704223 # threshold b, each following line is a SV (starting with alpha*y)
0.57137492791364630217998410444125 1:0.012623576 16:0.015989862 24:0.12539418 25:0.0092572886 44:0.032821294 60:0.11529532 68:0.15316604 80:0.03450444 81:0.031138152 102:0.057226874 124:0.01514829 266:0.071533591 339:0.065642588 344:0.042078584 361:0.13549304 507:0.038712297 536:0.09678074 538:0.032821294 540:0.022722436 587:0.042078584 650:0.16663119 1127:0.019356148 1135:0.067325734 1440:0.084157169 1473:0.043761726 1493:0.062276304 1577:0.2078682 1592:0.037870724 1694:0.047128014 1698:0.047128014 1723:0.068167306 1748:0.45865655 1936:0.0067325733 2327:0.10435489 2335:0.052177444 2356:0.08668188 3268:0.063117877 4283:0.062276304 4689:0.10267174 5236:0.048811156 5260:0.048811156 5556:0.53692275 5793:0.07658302 5872:0.020197719 5896:0.073216736 5926:0.037870724 5955:0.035346009 5966:0.032821294 5981:0.048811156 6026:0.051335871 6163:0.053860586 6169:0.056385301 6183:0.1279189 6185:0.042078584 6310:0.07658302 6399:0.12707733 6403:0.079949312 6440:0.18851206 6476:0.021039292 6486:0.050494302 6498:0.082474023 6662:0.052177444 6723:0.078266166 6749:0.060593162 6842:0.038712297 6855:0.048811156 6930:0.1304436 6941:0.03450444 7028:0.058910016 7053:0.084157169 7119:0.10772117 7131:0.056385301 7291:0.030296581 7299:0.054702159 7330:0.052177444 7416:0.065642588 7465:0.074058309 7508:0.066484161 7573:0.024405578 7588:0.12623575 7631:0.042078584 7636:0.10014703 7676:0.047969587 7709:0.047128014 7717:0.14054246 7720:0.049652729 #
-0.18796183149838374681905861507403 1:0.070995271 2:0.20700726 3:0.34675583 4:0.13152808 5:0.056796215 7:0.10312997 10:0.061280128 13:0.057543535 15:0.08220505 27:0.047828391 33:0.076226503 43:0.06875331 53:0.073984541 60:0.17561987 97:0.086688958 119:0.07248991 124:0.035123974 225:0.11508707 240:0.17711452 287:0.321347 341:0.089678235 358:0.077721134 499:0.088183597 665:0.13900127 732:0.13451736 734:0.17636719 894:0.056796215 1003:0.092667513 1030:0.02167224 1127:0.087436281 1168:0.039607886 1298:0.062774763 1373:0.041102525 1442:0.085194319 1587:0.057543535 1598:0.057543535 1599:0.095656782 1668:0.083699688 1768:0.12779148 1781:0.11807634 1791:0.23615268 1922:0.050070349 1943:0.12405489 3918:0.056796215 5276:0.079215772 5404:0.12704417 5880:0.048575711 5891:0.035871293 5892:0.0089678233 5915:0.10611925 5979:0.0089678233 6076:0.03288202 6132:0.031387381 6137:0.073237225 6183:0.070247948 6216:0.071742587 6246:0.038860567 6310:0.073984541 6340:0.039607886 6440:0.03288202 6447:0.10611925 6452:0.041102525 6498:0.14497982 6516:0.041849844 6597:0.084447004 6661:0.083699688 6672:0.05903817 6673:0.040355206 6788:0.060532808 6897:0.096404105 6898:0.10761388 6917:0.041849844 6942:0.09864606 6993:0.11508707 6998:0.038113251 7013:0.053806942 7028:0.082952365 7055:0.04932303 7078:0.10910852 7119:0.029892744 7271:0.10088801 7346:0.070995271 7487:0.10537192 7491:0.073984541 7563:0.10910852 7571:0.11060315 7608:0.033629339 7631:0.082952365 7709:0.080710411 7717:0.16291545 7724:0.087436281 7726:0.082952365 7744:0.11957098 #
0.12268612063383252386294941516098 1:0.0060549616 6:0.12034237 14:0.060549617 16:0.057522137 17:0.061306488 25:0.023462977 26:0.073416412 32:0.18997443 40:0.073416412 65:0.056765266 124:0.027247328 144:0.29593626 276:0.098393127 300:0.3481603 440:0.10217748 552:0.2361435 560:0.09763626 594:0.044655342 1091:0.080985114 1102:0.082498856 1355:0.059792746 1381:0.03178855 1406:0.073416412 1424:0.21949236 1493:0.011353053 1497:0.12412672 1499:0.089310683 1523:0.089310683 1593:0.073416412 1617:0.076443888 2389:0.10444809 2391:0.061306488 2676:0.1218561 2935:0.14304847 3049:0.046925955 3217:0.11882862 3498:0.11201679 4047:0.16878206 4352:0.087796941 4512:0.029517937 5936:0.068875186 5958:0.082498856 5970:0.052980915 6058:0.086283207 6063:0.064333968 6082:0.082498856 6094:0.043141603 6191:0.077200763 6218:0.093851909 6259:0.063577101 6306:0.12336984 6344:0.079471372 6350:0.043898471 6361:0.087796941 6399:0.063577101 6440:0.12866794 6477:0.10823244 6486:0.091581292 6491:0.096879385 6498:0.27852824 6522:0.075687021 6525:0.098393127 6538:0.062063359 6558:0.080228239 6562:0.07190267 6565:0.0015137404 6585:0.082498856 6612:0.082498856 6678:0.096122518 6732:0.055251524 6785:0.091581292 6864:0.069632061 6898:0.18543321 6990:0.037843511 7031:0.080985114 7067:0.032545418 7070:0.074173279 7108:0.061306488 7119:0.030274808 7142:0.021192366 7289:0.055251524 7298:0.079471372 7399:0.063577101 7437:0.19829999 7556:0.049953435 7717:0.0075687021 7736:0.073416412 #
-1 1:0.0093129342 11:0.010089012 15:0.0077607785 20:0.051997215 25:0.011641167 26:0.036475658 59:0.032595269 78:0.023282334 94:0.040356047 108:0.020954102 121:0.037251737 180:0.08148817 220:0.041132126 222:0.031043114 242:0.083816409 244:0.031819191 246:0.059757993 335:0.046564668 358:0.051997215 375:0.065966614 382:0.083816409 514:0.034147423 581:0.034923501 756:0.070623085 784:0.022506258 981:0.040356047 1196:0.07993602 1254:0.13426146 1283:0.045788594 1314:0.041908205 1345:0.034923501 1364:0.026386647 1371:0.056653682 1421:0.14047009 1442:0.093129337 1493:0.30655074 1504:0.069847003 1544:0.040356047 1558:0.11873991 1575:0.024058413 1597:0.11097913 1611:0.048116826 1624:0.027162723 1633:0.027938802 1636:0.065966614 1639:0.051221136 1662:0.60378855 1766:0.087696798 1879:0.12339637 2218:0.076055631 2222:0.038027816 2238:0.048116826 2279:0.07993602 4229:0.02871488 4696:0.020178024 4759:0.080712095 4891:0.066742696 4945:0.054325446 5727:0.12106814 5889:0.037251737 5906:0.041132126 5926:0.078383863 5935:0.031043114 5937:0.048116826 5942:0.086144641 5962:0.043460358 6028:0.024834491 6044:0.060534071 6063:0.031819191 6071:0.053549372 6077:0.055877604 6082:0.040356047 6106:0.03569958 6111:0.1226203 6137:0.069070928 6158:0.024058413 6164:0.02871488 6171:0.051221136 6222:0.069070928 6280:0.054325446 6281:0.092353262 6312:0.042684279 6324:0.13814186 6358:0.023282334 6399:0.11641167 6436:0.060534071 6440:0.0031043114 6444:0.055101525 6476:0.036475658 6479:0.065190539 6483:0.015521557 6491:0.072951317 6498:0.18703476 6532:0.069847003 6541:0.024058413 6568:0.052773293 6646:0.060534071 6680:0.077607781 6721:0.054325446 6743:0.027162723 6783:0.054325446 6803:0.065190539 6805:0.040356047 6842:0.034147423 6910:0.093905419 6915:0.020954102 6920:0.046564668 6939:0.033371348 7039:0.034923501 7089:0.03880389 7175:0.031819191 7181:0.046564668 7199:0.036475658 7236:0.03880389 7249:0.1156356 7290:0.1016662 7292:0.07993602 7333:0.041908205 7335:0.068294846 7338:0.039579969 7342:0.090801105 7344:0.017073711 7397:0.089248948 7527:0.15599164 7536:0.069070928 7550:0.03569958 7594:0.034923501 7622:0.078383863 7636:0.023282334 7680:0.029490957 #
-0.34917778914283514879457470669877 1:0.096104652 2:0.093278043 3:0.31163347 4:0.059358753 5:0.025439467 7:0.093278043 10:0.027559422 11:0.070665181 13:0.15475675 15:0.18514279 23:0.032505985 27:0.021906206 29:0.079145007 30:0.16464987 43:0.12437072 53:0.16606319 60:0.11871751 104:0.03391929 119:0.097517952 124:0.01554634 258:0.043105762 266:0.036745895 272:0.059358753 274:0.043812413 341:0.040279154 391:0.067838579 435:0.048052326 553:0.067838579 554:0.057945453 583:0.089038134 1127:0.19715586 1378:0.087624826 1440:0.04946563 1476:0.039572503 1493:0.28690064 1599:0.092571393 1625:0.086211525 1633:0.032505985 1638:0.06995853 2098:0.097517952 2394:0.079851657 2420:0.055825494 2430:0.055825494 2472:0.090451434 2489:0.045225717 2544:0.084091567 2560:0.094691344 3901:0.030386029 3944:0.073491789 4356:0.10882439 5338:0.045932371 5405:0.016959645 5915:0.095398001 5920:0.054412194 5923:0.03533259 5940:0.046639021 5973:0.12790398 6032:0.046639021 6045:0.074905097 6046:0.013426385 6089:0.038159199 6098:0.060772058 6158:0.028266074 6160:0.10317117 6183:0.043812413 6258:0.055118844 6266:0.059358753 6279:0.050878935 6289:0.079851657 6318:0.044519067 6324:0.096811302 6436:0.06925188 6440:0.17666297 6469:0.06995853 6498:0.44519067 6526:0.06995853 6540:0.02685277 6599:0.12225077 6605:0.031799331 6606:0.055825494 6655:0.065718621 6723:0.10246452 6751:0.025439467 6801:0.082678266 6827:0.10175787 6918:0.031799331 6984:0.073491789 6988:0.041692458 7121:0.084798224 7192:0.025439467 7196:0.058652103 7310:0.078438357 7505:0.087624826 7572:0.048758976 7578:0.040279154 7582:0.10529113 7596:0.031799331 7608:0.029679377 7619:0.016252993 7688:0.098224603 7693:0.052998889 7704:0.038159199 7717:0.047345672 #
1 1:0.022154408 4:0.031321749 11:0.019098626 16:0.05271221 25:0.029029913 30:0.04354487 89:0.05271221 121:0.034377526 150:0.0542401 174:0.060351659 240:0.062643498 381:0.055004045 388:0.041253034 499:0.047364593 514:0.062643498 519:0.1084802 599:0.042780925 602:0.071046889 784:0.042016979 912:0.039725143 1020:0.062643498 1112:0.10084075 1127:0.031321749 1168:0.16577607 1208:0.037433308 1348:0.093201295 1371:0.05271221 1493:0.08861763 1558:0.016806791 1619:0.090145521 2081:0.1000768 2248:0.078686342 2286:0.080214232 4371:0.61726761 4867:0.032849636 5317:0.11153598 5370:0.064935327 5735:0.032085694 5882:0.049656428 5893:0.018334681 5912:0.084797904 5915:0.11382782 5962:0.083270013 5964:0.026738077 5989:0.068755053 6011:0.055004045 6015:0.069518998 6024:0.058059826 6164:0.053476155 6173:0.033613581 6187:0.10618836 6278:0.14973323 6353:0.14209378 6384:0.081742123 6403:0.068755053 6440:0.20550123 6476:0.033613581 6491:0.05271221 6498:0.35065079 6594:0.07410267 6599:0.048128538 6661:0.13598222 6734:0.035905417 6768:0.10084075 6783:0.073338725 6784:0.069518998 6842:0.021390462 6915:0.038961198 6928:0.12223121 6960:0.04354487 6990:0.067227162 6992:0.074866615 6993:0.1237591 7051:0.064171389 7197:0.061879549 7219:0.066463217 7291:0.049656428 7325:0.10236864 7330:0.058059826 7375:0.038197253 7543:0.063407443 7598:0.098548912 7600:0.066463217 7717:0.16042846 #
0.91714168497324077833354749600403 1:0.0032296546 16:0.011303792 17:0.048444819 25:0.016148273 38:0.022607584 50:0.046022579 60:0.041178096 63:0.017763101 80:0.025029823 124:0.02180017 135:0.016955687 180:0.11788239 240:0.027452065 389:0.096082225 502:0.031489134 524:0.088008091 540:0.016148273 549:0.023414996 587:0.029874306 784:0.018570514 951:0.087200679 1340:0.091237746 1654:0.31812099 1679:0.71617591 1864:0.050867062 1935:0.054096717 2233:0.050059646 2784:0.089622915 4163:0.064593092 5564:0.074282058 5568:0.071859814 5684:0.075896882 5759:0.088008091 5925:0.050867062 5926:0.059748612 5964:0.037141029 6008:0.068630159 6011:0.024222409 6014:0.079933956 6025:0.032296546 6046:0.073474646 6092:0.025029823 6121:0.029874306 6183:0.087200679 6192:0.11626757 6258:0.037948441 6266:0.082356192 6278:0.02180017 6327:0.010496378 6362:0.062170852 6403:0.17117169 6443:0.038755856 6475:0.073474646 6480:0.05248189 6491:0.037141029 6498:0.25029823 6736:0.037948441 6760:0.12191946 6842:0.0088815503 6844:0.10738602 6865:0.14371963 6933:0.096082225 6974:0.056518957 6979:0.023414996 6990:0.090430334 6995:0.033103961 7017:0.068630159 7028:0.07024499 7053:0.09285257 7124:0.042792924 7165:0.062170852 7392:0.050059646 7437:0.026644651 7522:0.054096717 7564:0.084778436 7717:0.075896882 7744:0.065400504 #
0.92836637259308929515100317075849 1:0.017544417 9:0.038902834 11:0.0068652062 12:0.016781615 13:0.015256014 15:0.05339605 16:0.0099164089 17:0.040428437 25:0.018307216 26:0.073991664 32:0.032037631 33:0.019832818 38:0.038140036 42:0.031274829 45:0.022121221 49:0.048056442 50:0.019070018 56:0.022121221 60:0.045768041 69:0.018307216 78:0.016018815 96:0.022884021 101:0.030512027 109:0.016781615 124:0.018307216 142:0.024409622 150:0.019832818 156:0.041954037 171:0.022884021 221:0.039665636 246:0.060261253 266:0.021358419 276:0.016781615 281:0.022121221 388:0.04500524 453:0.061024055 495:0.078568473 496:0.023646822 540:0.041191239 551:0.012204811 557:0.050344847 582:0.050344847 586:0.048819244 587:0.050344847 597:0.013730412 710:0.038140036 902:0.11747131 1014:0.11289451 1071:0.058735654 1072:0.072466068 1127:0.040428437 1174:0.55226773 1179:0.13806693 1371:0.019070018 1391:0.036614433 1493:0.099164091 1497:0.027460825 1505:0.024409622 1512:0.078568473 1513:0.13654132 1520:0.050344847 1536:0.024409622 1558:0.050344847 1566:0.034326032 1575:0.016018815 1591:0.081619672 1599:0.077805668 1621:0.032800429 1626:0.077805668 1640:0.10068969 1659:0.15484855 1665:0.052633248 1893:0.045768041 2316:0.080094077 3966:0.028986426 4414:0.07704287 5119:0.058735654 5280:0.038902834 5579:0.035088833 5717:0.14111812 5778:0.1136573 5842:0.1029781 5867:0.019070018 5901:0.086196482 5902:0.021358419 5907:0.035851631 5915:0.041954037 5926:0.028223626 5946:0.055684451 5949:0.031274829 5963:0.030512027 6011:0.039665636 6032:0.057210051 6034:0.025172424 6044:0.041191239 6070:0.0076280069 6075:0.088484883 6084:0.049582046 6086:0.040428437 6094:0.12128531 6098:0.038902834 6112:0.050344847 6127:0.076280072 6151:0.11670851 6158:0.032800429 6179:0.076280072 6197:0.087722078 6241:0.019832818 6254:0.023646822 6291:0.019832818 6294:0.075517267 6317:0.024409622 6320:0.041954037 6357:0.041191239 6358:0.016018815 6440:0.20748179 6498:0.30817148 6515:0.031274829 6532:0.047293644 6540:0.031274829 6576:0.028986426 6578:0.13196452 6585:0.027460825 6630:0.032037631 6689:0.055684451 6723:0.089247681 6728:0.047293644 6842:0.0076280069 6868:0.11747131 6873:0.083145276 6915:0.028223626 6982:0.021358419 7058:0.070940465 7070:0.024409622 7078:0.06712646 7101:0.067889258 7116:0.091536082 7134:0.022884021 7163:0.050344847 7221:0.054921649 7291:0.018307216 7356:0.069414862 7420:0.058735654 7501:0.022121221 7508:0.088484883 7534:0.03356323 7536:0.091536082 7543:0.023646822 7589:0.10221529 7594:0.023646822 7608:0.028986426 7615:0.029749228 7646:0.04347964 7700:0.11975971 7717:0.15942535 7725:0.057972852 #
0.38882160292935785683710037119454 1:0.024007037 8:0.14804339 16:0.0208061 25:0.011203284 32:0.13684012 34:0.049614545 38:0.081623927 56:0.048014075 60:0.098428853 93:0.035210323 124:0.01920563 158:0.048014075 193:0.092026979 266:0.046413608 306:0.044012904 321:0.083224401 344:0.054415952 388:0.032009386 519:0.042412434 540:0.02960868 551:0.026407741 795:0.031209148 1127:0.012003519 1171:0.060017593 1225:0.15604575 1277:0.057616889 1493:0.15124434 1519:0.057616889 1582:0.034410089 1599:0.024007037 1608:0.065619238 1614:0.02960868 1673:0.7170102 2255:0.049614545 2271:0.082424164 5083:0.070420645 5129:0.14084129 5347:0.027207976 5378:0.068019941 5578:0.10323026 5878:0.1040305 5946:0.12563683 5948:0.053615719 6052:0.21126193 6076:0.14164153 6098:0.12803754 6153:0.079223223 6181:0.10002933 6184:0.091226742 6185:0.015204458 6241:0.042412434 6271:0.068019941 6287:0.068820179 6399:0.05921736 6403:0.1088319 6406:0.0056016422 6440:0.064819001 6444:0.017605161 6476:0.026407741 6498:0.10723144 6516:0.098428853 6700:0.063218534 6722:0.056016423 6728:0.033609852 6734:0.088025808 6736:0.034410089 6811:0.077622756 6842:0.049614545 6878:0.060017593 6889:0.021606334 6980:0.050414778 6982:0.046413608 6990:0.098428853 7003:0.072021112 7014:0.10002933 7053:0.086425334 7095:0.046413608 7244:0.084824868 7250:0.061618064 7567:0.048814312 7568:0.075222053 7635:0.017605161 #
0.54246437473591724298671579163056 1:0.016636556 8:0.045948584 15:0.01029882 24:0.030104244 25:0.01029882 46:0.095066033 50:0.077637263 60:0.091104947 63:0.029312028 89:0.038818631 144:0.19726202 151:0.21469079 191:0.082390562 223:0.064961791 237:0.042779718 426:0.072883964 501:0.082390562 551:0.024558725 581:0.0467408 993:0.067338444 1312:0.035649762 1337:0.052286319 1371:0.038818631 1377:0.058624055 1392:0.11407924 1493:0.19963868 1614:0.054662969 1677:0.022182075 1680:0.044364151 1762:0.54662973 1828:0.09981934 1842:0.050701886 1882:0.047533017 1890:0.095066033 2046:0.097442687 3980:0.060208488 4297:0.084767215 4401:0.32005566 4722:0.095858254 4772:0.041195281 5594:0.072883964 5681:0.037234198 5733:0.061792921 5836:0.10694929 5837:0.028519811 5876:0.10298821 5894:0.038818631 5937:0.11011816 5946:0.04990967 6008:0.087143868 6042:0.11566368 6083:0.034857545 6260:0.0095066037 6274:0.14497571 6310:0.16002783 6436:0.084767215 6440:0.058624055 6498:0.20439197 6540:0.030896461 6649:0.039610848 6700:0.045948584 6707:0.023766508 6803:0.056247406 6814:0.21389858 6823:0.14180684 6842:0.030896461 6887:0.0467408 6898:0.054662969 6939:0.045156367 6997:0.045948584 7001:0.077637263 7069:0.056247406 7133:0.02614316 7198:0.045156367 7248:0.10298821 7291:0.036441982 7372:0.037234198 7389:0.012675472 7396:0.025350943 7416:0.057831839 7459:0.084767215 7508:0.086351648 7526:0.11407924 7542:0.083182782 7573:0.029312028 7608:0.077637263 7693:0.061792921 #
-1 1:0.0046928045 25:0.0046928045 28:0.031285364 70:0.0962025 150:0.032849632 165:0.042235244 192:0.037542436 266:0.035978168 270:0.052402988 340:0.0344139 477:0.094638228 564:0.046928048 651:0.05866006 771:0.06960994 822:0.057095792 876:0.065699264 977:0.054749388 1030:0.035978168 1335:0.063352861 1429:0.075867012 1497:0.053967256 1536:0.040670976 1559:0.02659256 1599:0.060224328 2752:0.076649144 2837:0.043017376 2886:0.075867012 2939:0.43017375 3198:0.05866006 4456:0.10637024 4480:0.044581644 4811:0.065699264 5012:0.089945421 5051:0.089945421 5896:0.11575585 5914:0.34413901 5926:0.023464024 5929:0.37777078 5936:0.11575585 5937:0.03988884 6063:0.035978168 6083:0.10949878 6173:0.0015642683 6192:0.11653799 6233:0.10402384 6256:0.053967256 6324:0.031285364 6338:0.10715237 6380:0.057095792 6403:0.043799512 6414:0.21117622 6440:0.37698865 6444:0.053967256 6476:0.041453108 6498:0.055531524 6525:0.007039207 6623:0.054749388 6736:0.02659256 6774:0.055531524 6907:0.017989084 6946:0.035978168 6997:0.038324572 7027:0.036760304 7028:0.1032417 7103:0.062570728 7119:0.049274448 7134:0.076649144 7203:0.14000201 7229:0.05866006 7239:0.12279506 7271:0.14469482 7372:0.062570728 7398:0.082124084 7416:0.1353092 7419:0.098548897 7426:0.055531524 7480:0.067263536 7573:0.073520608 7698:0.041453108 7717:0.060224328 7736:0.038324572 #
-1 1:0.0151142 25:0.0098242303 55:0.076326713 61:0.12695928 63:0.055922542 230:0.075571001 256:0.10353228 551:0.091440916 608:0.22898014 839:0.095219463 982:0.049876861 1127:0.043075472 1208:0.038541213 1440:0.077082425 1483:0.064235352 1490:0.061968222 1622:0.032495532 1749:0.30303973 1840:0.41186196 1899:0.20630884 2006:0.085395232 2150:0.095219463 2213:0.050632574 2331:0.38616782 2350:0.098998018 4440:0.064991064 4483:0.091440916 5350:0.044586893 5507:0.082372397 5896:0.084639527 5919:0.1284707 6014:0.073303871 6042:0.0022671302 6046:0.059701093 6048:0.092952333 6052:0.16398908 6153:0.078593843 6322:0.046098311 6372:0.094463758 6393:0.037029792 6403:0.079349555 6440:0.18288183 6444:0.010579941 6498:0.26676565 6559:0.098998018 6582:0.066502482 6598:0.10504369 6628:0.037029792 6660:0.082372397 6723:0.089173786 6811:0.16172194 6842:0.028716981 6943:0.089929491 6959:0.11033367 6969:0.040808342 7011:0.071036741 7271:0.12242503 7312:0.043075472 7331:0.067258194 7408:0.073303871 7446:0.083883815 7531:0.052899703 7635:0.13451639 7674:0.043831181 7717:0.1209136 #
-0.80202431340349988886373466812074 1:0.055178147 11:0.04398258 21:0.058376878 25:0.016793348 28:0.17912905 62:0.19192398 63:0.047980994 82:0.07676959 108:0.091163889 111:0.12794933 230:0.040783845 251:0.044782262 254:0.086365789 312:0.091163889 319:0.07676959 470:0.23590656 481:0.098361038 495:0.084766425 608:0.098361038 830:0.067173392 852:0.09036421 1229:0.09516231 1284:0.059976246 1296:0.37984955 1330:0.075969912 1409:0.02958828 1493:0.025589865 1607:0.074370541 1614:0.13274743 1952:0.10715756 1956:0.14474267 2246:0.35346001 2598:0.04398258 3956:0.060775928 4127:0.05917656 4697:0.041583531 4735:0.068772763 4755:0.13754553 5435:0.10155977 5925:0.13674584 5926:0.10635787 5937:0.050380044 6052:0.086365789 6102:0.062375296 6183:0.094362624 6310:0.055178147 6313:0.039984163 6391:0.083167061 6403:0.10555819 6440:0.12075217 6498:0.33666664 6519:0.045581944 6592:0.05917656 6628:0.04638163 6660:0.027988914 6661:0.12555027 6779:0.053578779 6806:0.16473475 6842:0.12395091 6887:0.018392716 6999:0.049580362 7136:0.11115597 7163:0.034386382 7197:0.072771177 7212:0.055178147 7262:0.040783845 7297:0.14234363 7317:0.09036421 7325:0.12075217 7504:0.060775928 7608:0.071171813 7635:0.06157561 7636:0.047181312 7717:0.082367375 7722:0.12555027 #
-1 1:0.029715694 15:0.077119306 25:0.006367649 50:0.046696093 76:0.045988575 111:0.047403608 118:0.10400493 121:0.060138907 138:0.052356225 201:0.06155394 242:0.068629108 260:0.077119306 270:0.074996755 281:0.10612749 369:0.03891341 394:0.077119306 438:0.11461768 572:0.36083344 581:0.45493314 587:0.060138907 611:0.070044138 803:0.096222252 901:0.044573542 1057:0.027593145 1349:0.043158509 1440:0.080656886 1493:0.062968977 1575:0.039620928 1594:0.037498377 1600:0.07782682 1619:0.028300662 1629:0.11249513 1727:0.019810464 1998:0.021225497 2177:0.092684671 2487:0.072874203 2829:0.078534335 5144:0.024055563 5185:0.082071923 5570:0.029715694 5678:0.1407958 5829:0.045988575 5903:0.071459174 5926:0.078534335 5937:0.084901989 6003:0.0035375827 6008:0.024055563 6098:0.14008828 6111:0.11461768 6173:0.07782682 6183:0.070751652 6371:0.040328443 6399:0.070751652 6403:0.26744124 6440:0.18961443 6444:0.033253279 6498:0.40752953 6516:0.11249513 6568:0.058723874 6593:0.066506557 6646:0.029715694 6719:0.04528106 6728:0.038205896 6804:0.052356225 6842:0.07428924 6860:0.031130727 6869:0.047403608 6922:0.12523043 6964:0.086317018 7014:0.020517981 7101:0.050941192 7108:0.04881864 7118:0.11744775 7119:0.07428924 7174:0.035375826 7244:0.047403608 7316:0.095514737 7471:0.06155394 7508:0.097637281 7527:0.029008178 7528:0.053063743 7596:0.023348046 7599:0.053063743 7608:0.04881864 7667:0.062968977 7717:0.078534335 #
-1 59:0.17033766 439:0.045951553 455:0.077642284 530:0.12913971 849:0.075265475 856:0.044367019 1493:0.092695378 1693:0.054666504 1713:0.088734038 1863:0.11250208 1977:0.099825792 2076:0.43495524 2194:0.35414389 4164:0.058627844 4256:0.064965993 5309:0.10061806 5334:0.10061806 5431:0.036444336 5589:0.09903352 5775:0.085564964 5814:0.072096407 5926:0.011091755 6002:0.26224077 6013:0.20836653 6058:0.09111084 6097:0.058627844 6153:0.088734038 6285:0.26224077 6286:0.09507218 6376:0.09111084 6440:0.29630831 6498:0.21866602 6616:0.059420113 6661:0.062589183 6700:0.1045794 6723:0.080019087 6823:0.067342795 6898:0.041197944 7026:0.11567115 7147:0.055458773 7224:0.2986851 7350:0.071304135 7413:0.080811352 7416:0.094279915 7451:0.076057747 7527:0.054666504 7597:0.087941766 7701:0.049912896 7717:0.021391241 #
0.55505653914400654436178683681646 1:0.011953669 14:0.14133455 19:0.17578925 24:0.052033618 25:0.018282082 44:0.20461868 68:0.080159895 106:0.068206228 153:0.13149036 170:0.096332505 180:0.045002047 268:0.081566215 369:0.16946083 537:0.070315696 538:0.035157848 573:0.068909384 594:0.052033618 679:0.34806272 1059:0.094223037 1329:0.0063284128 1364:0.061877817 1424:0.031642064 1440:0.08719147 1442:0.11039565 1493:0.22852603 1519:0.065393597 1559:0.056252558 1622:0.037970476 1627:0.055549402 1642:0.046408363 1644:0.092816725 1657:0.066799916 2050:0.092113569 2293:0.043595735 2336:0.072425172 2442:0.068206228 2631:0.077347271 3203:0.052736774 4386:0.07101886 4884:0.04922099 5641:0.087894626 5647:0.099145137 5885:0.067503072 5900:0.10547355 5936:0.24118285 5962:0.1715703 5970:0.035157848 6015:0.068909384 6075:0.10266092 6077:0.066799916 6082:0.096332505 6103:0.12797457 6183:0.042892575 6247:0.037970476 6250:0.041486263 6261:0.051330462 6318:0.090004094 6331:0.013359983 6399:0.030938908 6417:0.06609676 6439:0.05414309 6444:0.059065185 6476:0.086488307 6498:0.42751944 6518:0.073831484 6541:0.11250512 6569:0.097035661 6684:0.072425172 6691:0.063284129 6749:0.073128328 6780:0.056252558 6784:0.089300938 6842:0.026719965 6898:0.11461459 6914:0.033751536 6915:0.04922099 6962:0.035861008 6988:0.07101886 7169:0.023204181 7235:0.11320828 7252:0.063284129 7258:0.094926193 7271:0.094926193 7297:0.065393597 7345:0.10687986 7416:0.056252558 7446:0.030235751 7653:0.080159895 7717:0.14414719 #
0.74579137271914952567186674059485 44:0.15100767 90:0.16157819 288:0.3133409 537:0.077768944 867:0.057382911 1112:0.049077488 1146:0.095889866 1260:0.12760147 1357:0.050587568 1421:0.12307125 1440:0.2619983 1453:0.060403064 1459:0.39110985 1493:0.14949758 1558:0.04832245 1595:0.059648026 1829:0.088339485 1976:0.059648026 2045:0.022651149 2091:0.050587568 2529:0.073238716 2673:0.041527107 4238:0.06191314 4865:0.033221684 4961:0.055117797 5006:0.32013625 5323:0.067198411 5668:0.054362759 5779:0.098154977 5900:0.06191314 5926:0.071728639 5951:0.084564291 6118:0.01812092 6149:0.086829409 6163:0.0045302301 6178:0.06191314 6183:0.10419529 6190:0.3805393 6251:0.070218563 6268:0.11703094 6330:0.046812374 6399:0.075503834 6403:0.027936418 6422:0.019630997 6498:0.27558899 6516:0.070218563 6593:0.077768944 6615:0.036996879 6646:0.05813795 6689:0.088339485 6711:0.060403064 6751:0.067953445 6887:0.056627873 6898:0.11703094 6946:0.12684643 6964:0.050587568 7047:0.068708487 7119:0.068708487 7154:0.10797048 7179:0.051342607 7194:0.046057336 7198:0.067198411 7335:0.01812092 7386:0.051342607 7530:0.033221684 7635:0.016610842 7717:0.078523986 #
1 1:0.017538285 15:0.018941348 16:0.034375038 24:0.053316388 25:0.028762788 44:0.14030628 45:0.15784457 49:0.11505115 65:0.068048544 92:0.082079172 96:0.082079172 102:0.061734766 124:0.032270446 131:0.12908179 150:0.070854671 180:0.056824043 276:0.058928639 446:0.068750076 910:0.042793415 965:0.015433691 972:0.10382665 1049:0.072257735 1055:0.11996187 1079:0.098214395 1127:0.020344412 1222:0.12908179 1275:0.045599543 1313:0.023150537 1373:0.084183767 1414:0.051913325 1421:0.056824043 1440:0.045599543 1442:0.061033234 1462:0.10663278 1493:0.31218147 1536:0.087691426 1553:0.07015314 1591:0.097512864 1707:0.13329098 2187:0.083482236 4584:0.030165851 4590:0.061033234 4624:0.072959267 5690:0.094706744 5716:0.075765394 5951:0.049808729 6052:0.017538285 6069:0.075063862 6111:0.42582956 6178:0.096811332 6189:0.051211793 6264:0.061033234 6351:0.091199085 6376:0.082079172 6380:0.0098214401 6382:0.30025545 6435:0.027359726 6439:0.047704138 6440:0.027359726 6447:0.021045942 6459:0.085586831 6498:0.40548515 6516:0.027359726 6570:0.063137829 6646:0.071556203 6728:0.056824043 6834:0.11505115 6960:0.049107198 7028:0.075765394 7244:0.070854671 7271:0.031568915 7273:0.041390352 7344:0.054719452 7379:0.065242425 7491:0.075765394 7508:0.051913325 7561:0.025255131 7608:0.15854611 7619:0.042793415 7623:0.15573998 7666:0.07015314 7717:0.078571521 7726:0.069451608 7736:0.084885299 #
0.66104990512899974852700779592851 6:0.074570879 9:0.072311155 17:0.075324126 25:0.009792136 47:0.10394729 78:0.058752816 124:0.033895854 320:0.052726887 463:0.17098576 472:0.11449267 573:0.14688204 669:0.067038469 720:0.060259297 869:0.091142185 956:0.076830603 1015:0.052726887 1023:0.10545377 1059:0.10018108 1063:0.10470053 1248:0.053480126 1379:0.032389373 1421:0.17701168 1474:0.029376408 1493:0.25158256 1598:0.11976536 2454:0.08511626 2636:0.050467163 3063:0.079090327 3509:0.16119362 3710:0.061765779 4134:0.18002465 4313:0.039921787 4334:0.087375984 4488:0.13407694 4629:0.069298193 4804:0.029376408 4831:0.086622737 4915:0.20337513 4941:0.45646417 5344:0.068544954 5900:0.086622737 5955:0.056493092 6073:0.056493092 6107:0.1114797 6183:0.1024408 6361:0.11449267 6440:0.10846674 6442:0.076830603 6498:0.23651774 6506:0.051973645 6536:0.08511626 6620:0.051973645 6632:0.03163613 6673:0.11976536 6731:0.11449267 6737:0.049713921 6866:0.091142185 6917:0.088882461 6920:0.11750563 6999:0.082856536 7025:0.067038469 7071:0.046700954 7142:0.038415302 7190:0.047454197 7214:0.10470053 7271:0.038415302 7297:0.081350051 7407:0.20563486 7416:0.069298193 7419:0.12654452 7500:0.1333237 7535:0.10018108 7593:0.10093433 7717:0.067791708 7742:0.13483018 #
0.51484739219579445101970804898883 1:0.025657009 11:0.012439761 15:0.020214614 16:0.035764314 17:0.038096771 25:0.024879523 32:0.029544434 36:0.046649106 38:0.034986831 42:0.058311384 50:0.10807043 60:0.063753776 81:0.069196172 92:0.04276168 96:0.085523359 102:0.063753776 170:0.051314019 184:0.064531267 217:0.11584528 258:0.093298212 272:0.060643837 276:0.060643837 285:0.12051019 307:0.066863716 507:0.04276168 537:0.037319284 540:0.025657009 585:0.046649106 593:0.058311384 594:0.027211979 844:0.11040288 898:0.10651546 969:0.060643837 981:0.051314019 1091:0.024879523 1105:0.10029558 1127:0.04276168 1249:0.073861085 1260:0.058311384 1270:0.085523359 1277:0.049759045 1402:0.11195786 1440:0.26278996 1448:0.094853185 1493:0.20836601 1599:0.11973271 1624:0.034209345 2290:0.012439761 2453:0.069973662 2490:0.495258 3682:0.062198807 4107:0.10884792 4726:0.45793873 4820:0.069196172 5894:0.036541801 5946:0.12906253 5996:0.073861085 6142:0.04120671 6171:0.06530875 6296:0.052091502 6331:0.089410789 6399:0.10884792 6440:0.054423958 6448:0.079303481 6498:0.11662277 6533:0.071528628 6599:0.032654375 6628:0.062198807 6730:0.076971024 6751:0.0031099403 6842:0.013994732 6898:0.11273534 6915:0.052868988 6939:0.04276168 6965:0.021769583 7005:0.049759045 7119:0.18193151 7145:0.054423958 7271:0.063753776 7279:0.06530875 7294:0.076193541 7333:0.052868988 7386:0.031876888 7545:0.076193541 7568:0.08241342 7593:0.06530875 7638:0.11429031 7695:0.038096771 7744:0.028766949 #
-1 1:0.010340549 15:0.014033603 25:0.006647496 31:0.1041441 102:0.044316638 114:0.081247173 135:0.073861063 177:0.075338289 180:0.05613441 268:0.059827462 527:0.084201612 594:0.037669145 600:0.078292727 988:0.074599676 1127:0.014772213 1243:0.037669145 1473:0.066474959 1493:0.48748302 1553:0.070906624 2110:0.10709854 2267:0.11670049 2718:0.14476769 2928:0.41140613 3239:0.1107916 4166:0.031760257 4972:0.10118966 5427:0.27402455 5560:0.13738158 5576:0.070906624 5937:0.063520513 6008:0.11670049 6032:0.067213573 6076:0.053179968 6132:0.049486913 6191:0.066474959 6218:0.16027851 6236:0.073861063 6281:0.046532471 6321:0.03249887 6358:0.08050856 6403:0.094542161 6404:0.08050856 6408:0.05687302 6443:0.082724392 6444:0.035453312 6540:0.079769954 6706:0.092326336 6723:0.087894671 6800:0.076815508 6842:0.019942489 6912:0.028067205 6924:0.11226882 6954:0.10635994 7017:0.11743909 7039:0.019942489 7090:0.094542161 7125:0.062043294 7142:0.063520513 7173:0.062043294 7186:0.17726655 7187:0.17726655 7284:0.23487818 7345:0.078292727 7359:0.085678838 7367:0.05687302 7518:0.036191922 7647:0.12704103 7717:0.077554122 7726:0.097496606 #
-1 1:0.013675688 11:0.026591614 16:0.037988022 25:0.020513531 54:0.07445652 63:0.058501553 69:0.072936997 104:0.15575089 124:0.03570874 180:0.078255326 263:0.07749556 369:0.063819878 450:0.10484694 540:0.10788598 594:0.11624335 691:0.03722826 799:0.2704747 801:0.089651726 825:0.081294365 959:0.096489571 1112:0.024312334 1414:0.084333405 1421:0.062300354 1424:0.040267304 1440:0.075216278 1472:0.35252884 1493:0.27275398 1519:0.059261311 1601:0.072936997 1634:0.18994011 2292:0.072177239 2328:0.072177239 2700:0.097249337 2757:0.045585625 2973:0.37684116 4270:0.08813221 4370:0.098009095 4443:0.082813889 4822:0.0045585623 5945:0.034948979 5946:0.098009095 6032:0.095729813 6052:0.05242347 6076:0.068378441 6310:0.011396406 6382:0.11016526 6418:0.020513531 6440:0.12156167 6460:0.047864906 6498:0.26363686 6516:0.011396406 6517:0.041786823 6541:0.063819878 6557:0.11016526 6617:0.1056067 6646:0.080534607 6749:0.073696762 6774:0.0091171246 6797:0.073696762 6842:0.060780834 6868:0.050144188 6920:0.12460071 7101:0.019753771 7103:0.050144188 7149:0.045585625 7245:0.16410825 7246:0.067618676 7261:0.1344776 7279:0.089651726 7298:0.10332742 7349:0.070657723 7361:0.098768853 7373:0.07749556 7497:0.032669697 7562:0.10484694 7610:0.11016526 7613:0.05394299 7619:0.10104813 7717:0.17170586 #
-1 1:0.00602184 20:0.025425546 22:0.025425546 25:0.00401456 35:0.052189279 41:0.07293117 67:0.061556585 70:0.020741893 80:0.030109201 91:0.038807414 150:0.057542026 167:0.051520187 169:0.03211648 200:0.036131039 222:0.030109201 402:0.12445136 410:0.050182 427:0.038138319 467:0.023418266 473:0.044829253 496:0.034792852 515:0.10906221 579:0.19738254 672:0.070254803 674:0.068247519 677:0.066240244 724:0.11642224 769:0.052858375 770:0.059549306 834:0.049512908 854:0.068916611 912:0.042821974 1008:0.060218401 1134:0.041483786 1147:0.046167441 1195:0.038807414 1207:0.080960296 1413:0.031447388 1440:0.046167441 1493:0.34525216 1499:0.042821974 1519:0.081629388 1526:0.0100364 1556:0.040145598 1570:0.049512908 1588:0.046836533 1611:0.02408736 1627:0.022749173 1628:0.045498345 1765:0.088989414 1772:0.088989414 1867:0.046167441 2086:0.095011257 2099:0.10772403 2100:0.052858375 2109:0.11441496 2133:0.052858375 2409:0.079622105 2541:0.070254803 2576:0.065571144 2665:0.13783322 2766:0.07360027 2861:0.074269362 3872:0.19805163 4096:0.071592987 4330:0.057542026 4530:0.058211122 4881:0.048843812 4958:0.076276638 4971:0.056872934 4995:0.076276638 5057:0.084974855 5112:0.059549306 5235:0.062894776 5538:0.066240244 5558:0.072262079 5602:0.072262079 5645:0.066909336 5711:0.06423296 5729:0.00802912 5768:0.060887493 5897:0.051520187 5915:0.080291197 5955:0.095011257 5962:0.075607546 5989:0.036800135 5997:0.077614829 6052:0.04817472 6109:0.053527467 6118:0.11709134 6134:0.061556585 6183:0.061556585 6241:0.028771013 6269:0.039476506 6304:0.050182 6331:0.084305763 6356:0.043491066 6358:0.022749173 6364:0.038807414 6403:0.12779683 6451:0.095680349 6498:0.40212509 6509:0.050851092 6529:0.034792852 6533:0.10638584 6537:0.060887493 6564:0.12712774 6593:0.043491066 6603:0.11173858 6609:0.046167441 6617:0.038807414 6627:0.059549306 6649:0.028771013 6713:0.030109201 6773:0.052189279 6805:0.039476506 6842:0.011374586 6847:0.078953013 6896:0.029440107 6997:0.033454668 7019:0.047505628 7046:0.060218401 7047:0.033454668 7053:0.075607546 7071:0.030778293 7108:0.029440107 7152:0.078953013 7153:0.10839312 7178:0.100364 7234:0.021410987 7237:0.078953013 7252:0.0100364 7271:0.059549306 7276:0.074938454 7325:0.027432827 7372:0.027432827 7490:0.26496097 7493:0.096349441 7521:0.047505628 7608:0.058880214 7633:0.054196559 7675:0.066909336 7717:0.066909336 #
-1 1:0.016588014 3:0.069511682 4:0.034755841 11:0.021327447 14:0.062402528 25:0.0078990543 27:0.038705368 30:0.097948276 60:0.070301585 63:0.045814514 90:0.063982338 104:0.060822718 135:0.044234704 150:0.060822718 182:0.086099692 244:0.065562151 250:0.040285178 259:0.089259312 280:0.058453001 388:0.045814514 471:0.035545744 573:0.060822718 701:0.11058676 926:0.069511682 1083:0.098738179 1085:0.075041018 1371:0.059242908 1406:0.075830922 1440:0.096368462 1493:0.27330729 1622:0.053713571 2199:0.38784358 2312:0.056083284 2347:0.12480506 2372:0.062402528 2414:0.00078990543 2433:0.049764041 2476:0.035545744 2484:0.13033439 2526:0.097158365 3664:0.084519878 3981:0.032386124 4245:0.13981326 4499:0.10742714 4609:0.067141965 4611:0.10979685 4711:0.10031799 4782:0.070301585 4924:0.074251108 4992:0.046604421 5228:0.48342213 5268:0.056873191 6016:0.13981326 6033:0.079780452 6094:0.11137667 6185:0.023697164 6198:0.046604421 6202:0.098738179 6264:0.078200638 6310:0.12401515 6320:0.25750917 6436:0.074251108 6491:0.097158365 6498:0.055293381 6533:0.022907257 6649:0.060822718 6753:0.025276974 6814:0.10979685 6878:0.074251108 6882:0.078200638 6984:0.00078990543 7049:0.072671302 7150:0.15798108 7195:0.027646691 7218:0.044234704 7229:0.095578559 7291:0.056083284 7380:0.062402528 7420:0.18009844 7608:0.082940072 7635:0.071091488 #
-0.11844117678838655960404935285624 1:0.0056260028 21:0.050634023 25:0.029737443 31:0.23066612 32:0.090016045 74:0.11091263 82:0.12698692 108:0.080371469 122:0.06349346 123:0.1149312 143:0.27647784 165:0.14306121 180:0.10126805 322:0.075549178 445:0.10769776 521:0.092427187 545:0.069923177 558:0.10528662 574:0.060278602 840:0.11975349 874:0.057063743 905:0.13261291 1048:0.31184128 1076:0.11894977 1189:0.11252005 1232:0.081175186 1280:0.087604903 1344:0.10609034 1406:0.069923177 1493:0.2467404 1497:0.076352894 1513:0.11010891 1559:0.045811735 1582:0.09403462 1726:0.0056260028 1913:0.13743521 1987:0.051437739 2653:0.088408612 4779:0.069923177 4833:0.017681723 4837:0.12377206 5388:0.073941752 5534:0.14868721 5552:0.14868721 5597:0.031344872 5669:0.15993921 5686:0.15993921 5722:0.079567753 5724:0.057867456 5806:0.073138036 5902:0.12216463 5964:0.12537949 5971:0.046615452 6015:0.068315744 6032:0.062689744 6042:0.036970876 6058:0.038578305 6068:0.18485437 6115:0.090819761 6164:0.055456314 6184:0.082782611 6254:0.065904602 6256:0.016878009 6276:0.07796032 6306:0.068315744 6349:0.036970876 6392:0.067512035 6399:0.096445762 6403:0.062689744 6649:0.056260027 6673:0.075549178 6740:0.071530603 6743:0.052241452 6768:0.1044829 6784:0.072334319 6811:0.080371469 6852:0.085193753 6970:0.02571887 7026:0.042596877 7041:0.057867456 7059:0.049026594 7119:0.03455973 7155:0.064297177 7218:0.10528662 7259:0.10609034 7299:0.092427187 7300:0.059474885 7330:0.065904602 7349:0.042596877 7429:0.095642045 7542:0.013663149 7566:0.10126805 7703:0.026522584 7717:0.17922837 #
0.60435286157114664895573241665261 1:0.00078612589 6:0.029086657 9:0.028300531 14:0.029086657 17:0.029086657 19:0.072323583 24:0.021225398 25:0.014936391 90:0.060531691 92:0.06603457 99:0.037734043 124:0.025942154 135:0.020439273 152:0.023583775 157:0.072323583 257:0.060531691 258:0.036161792 276:0.070751332 304:0.13364139 366:0.039306294 381:0.055028811 475:0.095121227 497:0.051098183 537:0.043236922 585:0.036161792 784:0.022011524 1112:0.067606822 1208:0.091976725 1329:0.072323583 1440:0.033017285 1493:0.036161792 3116:0.073109709 3117:0.075468086 3137:0.112416 3204:0.073109709 3299:0.44180274 3309:0.58959442 3338:0.057387188 3362:0.071537457 3377:0.066820696 3387:0.077040337 3420:0.118705 3501:0.049525931 5926:0.10691312 5964:0.044809174 5994:0.099051863 6033:0.06603457 6272:0.063676193 6399:0.052670434 6403:0.15722518 6415:0.036947917 6440:0.23033488 6444:0.12892464 6498:0.033803411 6508:0.044023048 6522:0.024369901 6525:0.082543217 6555:0.036161792 6585:0.039306294 6597:0.10219637 6652:0.079398714 6707:0.070751332 6723:0.086473845 6736:0.02279765 6747:0.037734043 6749:0.028300531 6842:0.011005762 6862:0.039306294 6901:0.025942154 6915:0.020439273 6930:0.063676193 6985:0.045595299 7009:0.094335102 7063:0.018867021 7068:0.095907353 7074:0.096693479 7098:0.043236922 7119:0.018867021 7193:0.10219637 7271:0.055028811 7337:0.080970965 7416:0.13914427 7419:0.12342176 7568:0.070751332 7608:0.12342176 7620:0.088046096 7668:0.042450797 #
0.67039839487370500581420174057712 1:0.0053060628 9:0.15614985 15:0.021224251 16:0.038658459 24:0.17964813 25:0.021224251 40:0.097783156 60:0.045480538 70:0.057608683 121:0.050028592 124:0.07276886 314:0.053060628 324:0.12128143 376:0.30623561 381:0.089445055 511:0.11749139 538:0.092477091 566:0.10081519 570:0.080348946 604:0.35853824 864:0.10233121 1127:0.045480538 1345:0.09475112 1445:0.14023165 1493:0.093993112 1499:0.11900741 1517:0.093993112 1598:0.061398726 1966:0.011370135 2164:0.12507148 2341:0.074284881 2552:0.11445935 4104:0.056092665 5085:0.077316917 5447:0.067462794 5469:0.034868412 5482:0.10384723 5574:0.063672751 5624:0.059124701 5863:0.018192215 5930:0.13568361 5937:0.090203069 5955:0.069736823 5960:0.06594678 5964:0.042448502 5970:0.057608683 6052:0.025772305 6097:0.12355546 6198:0.071252845 6313:0.072010852 6362:0.078832932 6388:0.056092665 6427:0.082622975 6437:0.15993989 6440:0.14932777 6444:0.055334654 6447:0.20466241 6488:0.068978816 6498:0.088687047 6510:0.15084378 6544:0.025014296 6674:0.027288323 6723:0.05836669 6734:0.08792904 6746:0.1781321 6761:0.066704787 6783:0.046996556 6846:0.068978816 6870:0.046996556 6946:0.096267141 6968:0.049270581 6978:0.072010852 6979:0.079590939 7004:0.085655011 7017:0.068220809 7097:0.078832932 7119:0.047754563 7252:0.080348946 7260:0.14477971 7263:0.044722527 7269:0.1440217 7271:0.12810351 7277:0.015918188 7325:0.075042889 7416:0.05836669 7508:0.032594386 7614:0.045480538 7653:0.02956235 7656:0.27515724 7717:0.13416758 #
0.60967726441675340609549493819941 1:0.022115814 37:0.25749126 60:0.12321667 68:0.24643335 102:0.18482502 300:0.41625121 357:0.052919984 566:0.023695515 578:0.03554327 912:0.054499682 1208:0.072666243 1329:0.019746263 1335:0.055289533 1493:0.03554327 1519:0.023695515 1832:0.11215877 1901:0.09952116 1907:0.04976058 3213:0.059238788 4846:0.055289533 5477:0.072666243 5784:0.45179448 5797:0.11294862 5874:0.0023695515 5937:0.063188039 5964:0.10978922 6022:0.080564752 6032:0.082934298 6069:0.075035796 6133:0.056079384 6284:0.063188039 6322:0.080564752 6399:0.12716593 6403:0.13980353 6440:0.14059338 6477:0.12242682 6498:0.19272351 6516:0.074245945 6552:0.26144052 6575:0.066347443 6711:0.043441776 6751:0.033173721 6788:0.11610802 6811:0.034753423 6869:0.072666243 6910:0.095571905 6922:0.073456094 6931:0.038702674 6946:0.11531817 6986:0.058448937 7119:0.029224468 7204:0.10189071 7271:0.061608337 7303:0.043441776 7320:0.073456094 7323:0.038702674 7343:0.097151607 7404:0.072666243 7429:0.074245945 7508:0.017376712 7619:0.091622658 7697:0.13664414 7717:0.12795578 #
0.80053065171250170628525211213855 1:0.0075698947 8:0.020186385 14:0.017663088 15:0.032802876 16:0.025232982 24:0.052989263 25:0.0050465963 27:0.010934292 32:0.027756281 39:0.022709684 44:0.016821988 46:0.063082457 51:0.039531674 54:0.016821988 60:0.050465964 69:0.015980888 76:0.016821988 81:0.016821988 83:0.01429869 89:0.034485076 93:0.029438479 121:0.010934292 124:0.0075698947 144:0.1446691 155:0.045419369 193:0.056353662 202:0.018504187 265:0.075698949 267:0.029438479 282:0.056353662 450:0.023550784 454:0.021868585 496:0.04205497 507:0.020186385 537:0.0092520937 540:0.011775392 581:0.1455102 585:0.021868585 705:0.085792139 788:0.61232036 998:0.067287952 1077:0.045419369 1080:0.026915181 1129:0.04121387 1348:0.030279579 1371:0.016821988 1448:0.022709684 1489:0.049624864 1493:0.043737169 1509:0.026915181 1517:0.04121387 1594:0.10766073 1601:0.10513743 3024:0.095044233 3301:0.004205497 3430:0.046260469 3434:0.034485076 3452:0.047942668 3585:0.044578269 3605:0.46765128 3709:0.035326175 3881:0.038690574 3891:0.10513743 4217:0.08410994 4288:0.021027485 5894:0.016821988 5902:0.018504187 5979:0.075698949 5987:0.037008375 6006:0.021868585 6032:0.058035858 6048:0.021868585 6050:0.044578269 6076:0.046260469 6081:0.023550784 6150:0.061400257 6155:0.095885336 6172:0.025232982 6187:0.052148163 6214:0.024391884 6220:0.026915181 6258:0.056353662 6261:0.11438952 6285:0.030279579 6310:0.07401675 6326:0.024391884 6355:0.027756281 6358:0.013457591 6361:0.073175646 6378:0.016821988 6392:0.1312115 6440:0.11859502 6444:0.11354842 6479:0.038690574 6485:0.064764656 6498:0.15392119 6584:0.029438479 6609:0.052989263 6641:0.021868585 6649:0.035326175 6663:0.10177303 6665:0.083268844 6669:0.037849475 6683:0.019345287 6752:0.047942668 6764:0.024391884 6792:0.031120678 6842:0.013457591 6853:0.021868585 6897:0.055512562 6913:0.031961776 6919:0.024391884 6955:0.022709684 6998:0.063923553 7026:0.013457591 7119:0.031961776 7140:0.14971569 7166:0.028597381 7271:0.086633243 7274:0.047942668 7416:0.044578269 7570:0.027756281 7610:0.10934293 7680:0.052989263 7684:0.021868585 7717:0.11186622 #
0.58944289545225203585943063444574 1:0.0061817304 9:0.07263533 14:0.037863098 16:0.017772475 25:0.01468161 36:0.047135696 37:0.044817545 38:0.071089901 42:0.057953723 60:0.042499397 80:0.038635816 92:0.042499397 96:0.042499397 102:0.032454085 163:0.11358929 228:0.077271633 266:0.040181249 276:0.030908652 321:0.10972571 352:0.086544223 419:0.060271874 537:0.037863098 540:0.025499638 784:0.028590504 870:0.061044589 906:0.054862857 1168:0.12286189 1227:0.051771995 1318:0.047135696 1415:0.09195324 1424:0.039408531 1440:0.054090142 1493:0.057181008 1519:0.067226321 1544:0.051771995 1596:0.043272112 1611:0.030908652 1690:0.053317424 1761:0.62126392 1841:0.10972571 1852:0.10972571 1941:0.046362977 2022:0.064135455 4195:0.028590504 4282:0.082680643 4710:0.093498677 4749:0.32840443 4757:0.067226321 5042:0.13599807 5195:0.040953964 5680:0.060271874 5894:0.036317665 5926:0.026272355 5937:0.070317186 5978:0.045590263 5997:0.033226803 6134:0.078817062 6164:0.036317665 6276:0.051771995 6301:0.10972571 6331:0.04404483 6376:0.060271874 6395:0.053317424 6399:0.17540661 6403:0.10663485 6440:0.24572378 6498:0.23876934 6591:0.12518004 6603:0.04790841 6650:0.078817062 6742:0.079589777 6779:0.11436202 6842:0.043272112 6990:0.077271633 7001:0.030908652 7016:0.062590018 7119:0.11513473 7142:0.057181008 7162:0.046362977 7184:0.057953723 7212:0.078817062 7271:0.076498918 7419:0.095816821 #
-1 1:0.011776636 14:0.088717327 16:0.04239589 25:0.022768164 38:0.083221562 54:0.08243645 60:0.14995584 124:0.040040564 180:0.10991527 266:0.093427978 268:0.10284929 319:0.099708855 465:0.13189833 530:0.029049035 540:0.12012169 707:0.06280873 922:0.068304487 981:0.1209068 1091:0.058883179 1278:0.071444929 1361:0.064378947 1440:0.10913016 1493:0.081651345 1497:0.022768164 1512:0.22846673 1513:0.08479178 1569:0.087147109 1614:0.0604534 2111:0.11384082 2363:0.00078510906 2400:0.05260231 2401:0.065164052 2672:0.53858483 4341:0.068304487 4354:0.10991527 4923:0.10755994 5093:0.092642874 5131:0.098138638 5197:0.030619254 5358:0.090287544 5381:0.10598972 5555:0.073015146 5894:0.08479178 5969:0.029049035 6004:0.0172724 6083:0.099708855 6131:0.0172724 6149:0.092642874 6185:0.08479178 6200:0.062023617 6239:0.040825672 6246:0.076940693 6247:0.073800251 6399:0.1303281 6403:0.15702182 6423:0.020412836 6440:0.14917073 6452:0.069089599 6491:0.049461871 6498:0.17350911 6528:0.047891654 6548:0.074585363 6570:0.07851091 6617:0.11776636 6646:0.036115017 6760:0.075370468 6781:0.28263927 6787:0.067519382 6898:0.1476005 7028:0.065949164 7119:0.010991527 7175:0.18921129 7415:0.11776636 7565:0.068304487 7608:0.05260231 7678:0.053387418 7684:0.10755994 #
-1 1:0.0078890407 11:0.01341137 13:0.059956715 16:0.058378905 25:0.02682274 45:0.044178631 53:0.038656302 65:0.037867397 76:0.037867397 89:0.039445207 93:0.033133972 105:0.048912056 124:0.018144796 156:0.042600822 199:0.07336808 226:0.062323425 273:0.05916781 276:0.033133972 303:0.07336808 338:0.056801096 388:0.029978357 399:0.058378905 537:0.020511508 539:0.067845754 585:0.10176863 594:0.029978357 698:0.063901231 766:0.081257127 931:0.082834929 1127:0.02287822 1142:0.070212469 1213:0.10019083 1359:0.22641549 1371:0.038656302 1453:0.10729096 1491:0.048912056 1493:0.085201643 1502:0.24219356 1575:0.033133972 1599:0.051278766 2822:0.050489865 2842:0.06547904 2941:0.12543575 3128:0.49543178 3322:0.058378905 3391:0.029189453 3440:0.029189453 3637:0.096246302 3696:0.095457397 3764:0.11518 3800:0.082046032 4006:0.070212469 4064:0.089935072 4076:0.10176863 4558:0.075734794 5902:0.043389726 5923:0.041023016 5926:0.071001373 5933:0.019722603 5964:0.063901231 5966:0.079679318 5969:0.082046032 6025:0.054434385 6076:0.070212469 6081:0.16251425 6111:0.023667123 6122:0.046545342 6171:0.035500687 6192:0.056012191 6278:0.07336808 6394:0.07336808 6434:0.062323425 6435:0.06153452 6440:0.21615973 6498:0.26980522 6533:0.051278766 6540:0.062323425 6581:0.044967536 6669:0.087568358 6689:0.059956715 6716:0.037867397 6811:0.085201643 6862:0.089146167 6867:0.052856576 6898:0.06705685 6979:0.040234111 6997:0.046545342 7069:0.11360219 7095:0.093879588 7129:0.056012191 7136:0.069423564 7175:0.13016918 7197:0.045756441 7229:0.063901231 7252:0.014200274 7292:0.054434385 7339:0.1143911 7350:0.0086779455 7416:0.19170371 7423:0.043389726 7469:0.046545342 7470:0.10334644 7494:0.05759 7549:0.10886877 7565:0.019722603 7568:0.011044658 7636:0.089146167 7680:0.12070233 7684:0.049700961 7715:0.083623834 7735:0.064690135 #
-1 1:0.016687281 9:0.040526252 11:0.014303383 15:0.065954491 16:0.039731622 25:0.016687281 30:0.09853442 31:0.042115517 32:0.032579929 36:0.051651109 46:0.04926721 81:0.038142357 83:0.033374563 90:0.086614937 102:0.035758458 109:0.034963828 119:0.038936988 124:0.019071179 134:0.069927655 174:0.04529405 201:0.053240374 280:0.038936988 369:0.066749126 388:0.030990664 473:0.063570596 492:0.073900819 525:0.12714119 573:0.040526252 581:0.14621237 591:0.061186697 611:0.047677945 651:0.061186697 946:0.21534538 1018:0.059597433 1122:0.06754376 1253:0.11045391 1345:0.04847258 1356:0.078668609 1397:0.077079348 1493:0.036553092 1513:0.039731622 1522:0.12078413 1618:0.147007 1619:0.035758458 1624:0.038142357 1883:0.10012369 2087:0.094561256 2244:0.09853442 4191:0.22647025 4827:0.055624269 5248:0.084231034 5659:0.074695446 5805:0.091382727 5827:0.042910151 5841:0.057213534 5915:0.085820302 5926:0.1176056 5957:0.12555192 5962:0.1422392 5969:0.020660443 5997:0.147007 6005:0.05244574 6017:0.064365223 6029:0.065954491 6032:0.06754376 6052:0.10012369 6084:0.050856475 6111:0.024633605 6123:0.058008168 6130:0.087409563 6155:0.038936988 6185:0.080257878 6262:0.066749126 6268:0.061981328 6357:0.042910151 6367:0.11681097 6392:0.089793466 6399:0.11442707 6440:0.17243524 6443:0.066749126 6444:0.071516916 6476:0.025428237 6498:0.21375613 6540:0.064365223 6557:0.057213534 6583:0.031785298 6599:0.036553092 6619:0.062775962 6649:0.041320886 6689:0.082641773 6757:0.078668609 6809:0.10727537 6811:0.012714119 6827:0.060392063 6838:0.45294049 6890:0.063570596 6913:0.07549008 6990:0.10807001 6995:0.018276546 7034:0.060392063 7048:0.084231034 7096:0.051651109 7119:0.087409563 7288:0.068338387 7437:0.04529405 7482:0.063570596 7608:0.14144458 7614:0.088204198 7632:0.047677945 7644:0.10727537 7653:0.086614937 7699:0.11681097 7717:0.073900819 7724:0.1541587 #
-1 1:0.03043949 11:0.067460492 15:0.026326047 25:0.013163024 30:0.078155451 32:0.078155451 82:0.06170167 124:0.044425204 171:0.22788484 182:0.078978136 187:0.1415025 250:0.097899988 272:0.047715958 388:0.074042007 391:0.097077295 532:0.10283612 611:0.093786538 659:0.074864693 753:0.051829405 1127:0.084736966 1208:0.038666382 1440:0.078155451 1442:0.092141166 1455:0.11106301 1464:0.051006716 1493:0.00082268898 1497:0.042779826 1575:0.080623515 1599:0.039489068 1604:0.020567223 1719:0.60632175 1886:0.1192899 2428:0.26408315 2620:0.086382337 3596:0.031262182 4925:0.027971424 5425:0.077332765 5909:0.018921847 5926:0.076510072 5941:0.039489068 5955:0.059233606 6011:0.098722674 6039:0.12175796 6069:0.010694956 6178:0.10036805 6183:0.090495788 6217:0.10859494 6268:0.093786538 6355:0.093786538 6403:0.10365881 6440:0.1044815 6444:0.088850409 6498:0.14726132 6519:0.078155451 6521:0.10365881 6599:0.08720503 6735:0.051006716 6811:0.046070583 6889:0.07075125 6915:0.069928564 7039:0.10859494 7053:0.067460492 7095:0.050184026 7100:0.11764452 7190:0.034552936 7219:0.23857979 7271:0.064992428 7345:0.15137477 7416:0.083914272 7505:0.10777225 7577:0.025503358 7586:0.088850409 7717:0.076510072 7738:0.052652095 #
-0.98131717578377153365920548822032 1:0.0073084286 11:0.02760962 25:0.016240953 63:0.060091525 70:0.029233715 97:0.046286717 121:0.025173478 141:0.054407194 156:0.043038525 159:0.061715622 165:0.051971048 178:0.053595144 241:0.061715622 460:0.056031287 527:0.13398786 537:0.020301191 553:0.021113239 594:0.030045763 1112:0.084452957 1214:0.04791081 1277:0.054407194 1294:0.017053001 1424:0.034918047 1440:0.19651553 1493:0.059279479 1497:0.073084287 1519:0.099881858 1627:0.096633673 1728:0.16322158 1801:0.23062153 1944:0.054407194 3225:0.23874201 4707:0.069836095 4812:0.049534906 4966:0.36217326 5120:0.12505534 5339:0.255795 5583:0.10475415 5650:0.095821619 5821:0.4498744 5826:0.021925287 5839:0.11612281 5887:0.0097445715 5894:0.039790336 5945:0.050346956 5964:0.102318 5972:0.062527671 6069:0.05521924 6333:0.072272241 6361:0.1209951 6403:0.059279479 6430:0.046286717 6440:0.30776605 6498:0.15753724 6529:0.048722859 6540:0.031669859 6557:0.056843337 6641:0.050346956 6842:0.015428905 6914:0.069836095 6940:0.077144526 6979:0.040602382 7042:0.072272241 7051:0.10800233 7080:0.090137288 7215:0.11449872 7259:0.050346956 7264:0.092573434 7271:0.11125053 7356:0.070648149 7572:0.037354194 7614:0.025173478 7717:0.13073967 #
1 1:0.010730308 7:0.10806952 24:0.11956628 282:0.0076645049 356:0.10500372 497:0.075112149 633:0.068980545 941:0.049819283 1091:0.10806952 1112:0.091974065 1127:0.045987032 1194:0.039088976 1237:0.021460615 1493:0.18011586 1519:0.0743457 1575:0.13106304 2028:0.050585736 2048:0.04292123 2056:0.04292123 2475:0.068980545 3925:0.10730307 4426:0.3747943 4506:0.040621877 4652:0.087375358 4681:0.35563305 5109:0.31501117 5428:0.073579252 5937:0.095806316 5960:0.065914743 6015:0.086608909 6094:0.075112149 6183:0.065914743 6269:0.13719465 6310:0.1425598 6331:0.10500372 6392:0.049819283 6399:0.00076645054 6414:0.33647177 6498:0.34107047 6568:0.11879983 6575:0.055184435 6703:0.037556075 6906:0.086608909 6990:0.06284894 7110:0.09044116 7147:0.0743457 7203:0.22303709 7239:0.043687679 7293:0.009963857 7311:0.011496758 7344:0.099638566 7419:0.083543107 7462:0.11420113 7495:0.060549591 7646:0.065914743 7717:0.13872755 7719:0.033723824 #
1 1:0.0090460861 8:0.08552663 11:0.013157943 25:0.004934229 51:0.048519917 55:0.11266489 58:0.039473832 72:0.03782909 90:0.038651459 99:0.04934229 179:0.057566002 392:0.062500231 430:0.12500046 586:0.36595532 598:0.12171098 845:0.051809404 1071:0.10937541 1227:0.050987031 1313:0.068256833 1355:0.037006717 1421:0.029605374 1440:0.044408061 1493:0.14884923 1527:0.053454146 1537:0.051809404 1555:0.068256833 1599:0.15542822 2572:0.046052802 2628:0.078125291 3295:0.49588999 3494:0.06743446 3551:0.018092172 3951:0.10608592 3999:0.17680986 4161:0.07565818 4196:0.064144976 4197:0.11184252 4241:0.15049398 4289:0.095395088 4565:0.039473832 4680:0.078947663 5916:0.16282955 5929:0.13980316 5935:0.038651459 5955:0.0098684579 5972:0.056743633 6009:0.11266489 6023:0.069079205 6133:0.068256833 6149:0.071546316 6150:0.064967349 6295:0.018092172 6310:0.041940946 6320:0.078125291 6399:0.04934229 6409:0.081414774 6418:0.078125291 6440:0.02220403 6498:0.15789533 6540:0.028783001 6541:0.030427745 6646:0.13240181 6660:0.087171376 6743:0.034539603 6744:0.044408061 6778:0.15378347 6842:0.028783001 6872:0.10526355 6942:0.095395088 7026:0.02796063 7108:0.03782909 7305:0.052631773 7342:0.04523043 7372:0.069901578 7515:0.074013434 7539:0.12911232 7589:0.12664521 7647:0.13075706 7669:0.057566002 7672:0.2277969 7686:0.13733603 7717:0.07565818 #
0.83354273139287005101039085275261 1:0.0082819285 8:0.057220593 11:0.0082819285 16:0.036139324 25:0.0097877327 39:0.031621907 49:0.039903834 51:0.080560572 70:0.018069662 80:0.051950276 100:0.0594793 142:0.14003988 143:0.030116102 172:0.074537352 180:0.030869005 274:0.031621907 283:0.13251086 914:0.066255428 1003:0.019575465 1112:0.13778117 1184:0.0037645127 1335:0.070019938 1480:0.022587076 1493:0.2371643 1513:0.024092881 1519:0.052703179 1542:0.034633517 1543:0.0045174155 1568:0.034633517 1591:0.033880614 1598:0.0587264 1599:0.033127714 1721:0.20027208 1733:0.049691569 1735:0.049691569 1777:0.010540635 1787:0.021081271 1985:0.0594793 1993:0.21382433 2032:0.1189586 2510:0.093359917 2654:0.073031545 3642:0.13025214 3950:0.076043159 4181:0.36515772 4473:0.065502524 4496:0.065502524 4761:0.033127714 4796:0.24921075 4921:0.10239474 5278:0.097124428 5331:0.070772842 5361:0.070772842 5524:0.082066379 5573:0.4381893 5653:0.0067761228 5787:0.068514131 5915:0.017316759 5955:0.024092881 6015:0.039903834 6032:0.13778117 6052:0.06173801 6076:0.11218248 6091:0.027857395 6127:0.027857395 6133:0.078301862 6170:0.10390055 6176:0.10013604 6215:0.074537352 6322:0.065502524 6381:0.046679959 6399:0.012046441 6401:0.035386421 6440:0.08583089 6498:0.22135335 6541:0.040656738 6568:0.097877331 6599:0.021834174 6627:0.10465346 6645:0.034633517 6677:0.033127714 6713:0.079807669 6730:0.021834174 6783:0.023339979 6806:0.031621907 6842:0.038398031 6915:0.017316759 6959:0.074537352 6993:0.082819283 7026:0.037645128 7035:0.05646769 7105:0.1166999 7119:0.053456083 7147:0.065502524 7226:0.0594793 7229:0.064749621 7266:0.037645128 7328:0.076043159 7336:0.071525745 7398:0.042915445 7416:0.042162541 7512:0.045174152 7582:0.037645128 7609:0.050444473 7717:0.1182057 #
0.80901031616012097913426259765401 1:0.0024436272 6:0.041541662 8:0.047243457 16:0.039912578 25:0.016290847 39:0.052945256 46:0.098559633 56:0.092043288 65:0.039098036 78:0.033396237 80:0.043170746 90:0.043170746 124:0.018734476 172:0.06190522 184:0.072494276 242:0.058647051 280:0.039098036 363:0.093672372 1200:0.063534304 1424:0.025250815 1440:0.044799831 1461:0.083897866 1493:0.28753346 1497:0.073308818 1507:0.54981613 1519:0.094486915 1544:0.057017967 1568:0.11566502 1868:0.053759798 2151:0.092043288 2288:0.097745091 2318:0.067607015 2606:0.10670505 2789:0.2557663 4452:0.071679734 4529:0.071679734 4767:0.11077777 4974:0.018734476 5410:0.029323526 5419:0.1172941 5937:0.08145424 5942:0.06190522 5972:0.063534304 5992:0.068421558 5998:0.047243457 6014:0.027694441 6015:0.062719762 6019:0.041541662 6021:0.0065163393 6044:0.042356204 6084:0.051316172 6094:0.070865192 6130:0.35188231 6157:0.029323526 6229:0.1229959 6241:0.04072712 6278:0.038283493 6313:0.083083324 6358:0.097745091 6383:0.055388883 6386:0.10100326 6403:0.053759798 6440:0.066792473 6457:0.12462499 6469:0.074937902 6476:0.10263234 6498:0.14743218 6643:0.094486915 6842:0.031767152 6862:0.06190522 6864:0.052130714 6899:0.08145424 6910:0.095301457 7028:0.098559633 7119:0.026879899 7169:0.08145424 7217:0.10100326 7352:0.064348847 7453:0.057832509 7479:0.087970577 7608:0.14173038 7635:0.069236107 7653:0.035025325 7717:0.051316172 #
0.91764483088947956801462169096339 64:0.1925635 142:0.089912921 234:0.23677069 318:0.24201562 503:0.11314043 748:0.44881532 777:0.05394775 869:0.095907114 1493:0.25550255 1500:0.28921989 1554:0.0052449205 1599:0.0052449205 3437:0.11388969 3607:0.016484035 3708:0.038212992 3781:0.030720247 3820:0.026224602 3893:0.10414913 3929:0.13337083 4128:0.093659289 4237:0.012737663 4479:0.048702832 4514:0.037463717 4535:0.080921628 5926:0.12063317 5937:0.086166546 5955:0.04345791 5959:0.092910014 5964:0.023227504 5973:0.16633891 6150:0.01573476 6259:0.12213171 6268:0.037463717 6279:0.19855769 6292:0.039711539 6308:0.011988389 6313:0.054697026 6359:0.23826924 6385:0.10714623 6391:0.10265058 6403:0.020979682 6410:0.085417271 6440:0.17832729 6498:0.24276488 6593:0.020230407 6661:0.030720247 6723:0.13711721 6945:0.048702832 7039:0.057694122 7106:0.11688679 7128:0.033717345 7167:0.068183966 7271:0.16184326 7389:0.14386067 7717:0.098904215 #
-0.91363271435799808806166311114794 1:0.023090182 25:0.012739411 33:0.046976577 55:0.096341796 57:0.034237165 62:0.046976577 68:0.054142494 72:0.047772791 77:0.046976577 93:0.039014444 102:0.040606871 108:0.033440955 112:0.067678116 121:0.029459888 152:0.077232681 203:0.047772791 260:0.15287293 416:0.11385848 447:0.076436467 488:0.088379659 506:0.088379659 510:0.075640254 543:0.058123562 551:0.086787239 574:0.050161429 581:0.055734921 587:0.058919776 594:0.035033379 953:0.09873043 1005:0.11863576 1127:0.081213742 1197:0.082009956 1198:0.10350771 1201:0.093953155 1331:0.10032286 1338:0.096341796 1437:0.083602384 1466:0.10430393 1493:0.1759631 1497:0.048569005 1529:0.041403085 1555:0.26195413 1590:0.0063697053 1619:0.0071659186 1790:0.10510014 2412:0.097934216 2608:0.2778784 2860:0.088379659 4014:0.12739411 4246:0.13057896 4250:0.13057896 4569:0.070066758 4836:0.058123562 4890:0.092360727 5098:0.1027115 5474:0.23169804 5565:0.079621315 5726:0.074047826 5894:0.046180364 5905:0.054938708 6009:0.21577378 6015:0.12898654 6019:0.047772791 6032:0.044587936 6084:0.11783955 6102:0.049365215 6173:0.039810658 6229:0.070066758 6278:0.042995512 6288:0.15287293 6357:0.049365215 6444:0.05255007 6498:0.30256101 6499:0.10669257 6541:0.038218234 6544:0.081213742 6618:0.094749369 6646:0.082009956 6654:0.053346284 6664:0.069270544 6723:0.049365215 6749:0.049365215 6804:0.051753856 6906:0.084398597 6990:0.06847433 7102:0.085991025 7119:0.14570701 7144:0.063697055 7175:0.050957642 7203:0.066085696 7253:0.070066758 7330:0.063697055 7392:0.046180364 7416:0.071659185 7450:0.031052314 7520:0.048569005 7530:0.096341796 7544:0.058919776 7583:0.10350771 7596:0.03742202 7608:0.072455399 7713:0.042995512 7717:0.2237359 7729:0.083602384 #
-1 1:0.0023800239 25:0.0047600479 58:0.1594616 60:0.021420214 67:0.039667062 68:0.08726754 70:0.026973603 78:0.030146969 85:0.15232153 102:0.032526992 117:0.052360523 192:0.042047087 246:0.038080383 268:0.044427112 296:0.083300836 306:0.077747449 336:0.076954104 406:0.065053985 407:0.05553389 441:0.061087281 531:0.1364547 571:0.049187161 574:0.040460404 583:0.082507491 724:0.15232153 898:0.029353628 1061:0.06584733 1070:0.073780738 1204:0.05077384 1299:0.16739501 1355:0.076160766 1361:0.09916766 1387:0.057913914 1422:0.06584733 1431:0.17612177 1440:0.0364937 1493:0.17056838 1535:0.042047087 1537:0.053153865 1577:0.17691511 1634:0.091234244 2215:0.075367421 2228:0.075367421 2530:0.00079334126 2569:0.28322282 2619:0.053153865 2925:0.049187161 3314:0.11662117 3934:0.095994294 4034:0.11106778 4050:0.0087267542 4188:0.061087281 4299:0.084094174 4304:0.042047087 4333:0.10789441 4349:0.09202759 4605:0.0364937 4690:0.09916766 4982:0.4284043 4997:0.057120573 5934:0.045220453 5935:0.079334125 5937:0.089647561 5945:0.056327231 5954:0.032526992 5955:0.038873725 5962:0.1094811 5971:0.030940309 6032:0.14914817 6042:0.060293939 6058:0.096787639 6086:0.076160766 6102:0.070607372 6151:0.132488 6357:0.078540787 6399:0.085680857 6403:0.064260647 6430:0.042840429 6447:0.00634673 6498:0.25307587 6502:0.048393819 6516:0.026973603 6519:0.049187161 6568:0.078540787 6572:0.046013795 6611:0.033320334 6649:0.037287042 6660:0.044427112 6673:0.0095200958 6677:0.049980503 6701:0.032526992 6752:0.051567182 6842:0.014280143 6910:0.058707256 6946:0.034113675 6976:0.021420214 7039:0.04363377 7051:0.0023800239 7108:0.038873725 7131:0.063467301 7159:0.069814034 7169:0.011900119 7208:0.083300836 7325:0.035700358 7395:0.080920808 7419:0.046807136 7444:0.049187161 7552:0.16104828 7594:0.045220453 7606:0.072194055 7677:0.076160766 7717:0.17532842 7744:0.04363377 #
-1 66:0.19252452 82:0.081305176 97:0.19252452 100:0.20402998 203:0.17104769 272:0.079771116 319:0.081305176 1068:0.038351499 1096:0.06289646 1440:0.099713892 1493:0.26999456 1582:0.045254767 2559:0.049089916 2595:0.098179832 2908:0.095111713 2982:0.084373295 3553:0.43720707 3559:0.030681198 5045:0.075935967 5052:0.075935967 5937:0.10968529 5942:0.10278202 5946:0.19022343 5971:0.14036648 5974:0.24161443 6032:0.039118528 6117:0.06289646 6133:0.11582153 6146:0.03298229 6149:0.10968529 6178:0.069799729 6180:0.31524932 6224:0.062129427 6301:0.071333788 6317:0.204797 6325:0.17795095 6399:0.099713892 6403:0.06443052 6440:0.079771116 6498:0.23164305 6573:0.069799729 6646:0.029147139 6723:0.057527248 6910:0.070566759 6949:0.088975474 7097:0.049089916 7101:0.1434346 7117:0.036817439 7185:0.098179832 7273:0.03144823 7313:0.075935967 7369:0.054459129 7717:0.13346322 #
-1 21:0.056631472 41:0.079590179 67:0.067345537 70:0.04515212 86:0.11020178 108:0.04515212 145:0.14234397 167:0.11326294 196:0.17295557 238:0.084947206 331:0.080355465 560:0.068110824 750:0.10943649 761:0.039029799 784:0.048978571 933:0.060457923 942:0.10943649 1232:0.091069527 1262:0.031376898 1265:0.1086712 1389:0.26096395 1414:0.034438059 1452:0.14463983 1493:0.27550447 1519:0.012244643 1567:0.4675923 1611:0.052039731 1619:0.04056038 2082:0.050509151 2156:0.10561004 2192:0.021428125 2550:0.068876117 3818:0.029081026 4141:0.067345537 4364:0.039029799 4403:0.078059599 4568:0.068110824 4805:0.1400481 4940:0.088008367 5937:0.14463983 5971:0.052805021 6093:0.081120759 6171:0.11096707 6172:0.090304241 6178:0.10025301 6183:0.15076216 6214:0.08877366 6278:0.11555882 6289:0.055100892 6310:0.051274441 6331:0.11785468 6332:0.12015056 6349:0.039029799 6358:0.049743861 6370:0.077294305 6401:0.18060848 6429:0.10790591 6498:0.25024989 6550:0.065814957 6553:0.063519083 6598:0.065049663 6649:0.062753797 6668:0.052805021 6686:0.096426561 6780:0.036733929 6840:0.079590179 6990:0.15076216 7123:0.052039731 7147:0.04515212 7375:0.055100892 7528:0.069641404 7625:0.065049663 7636:0.098722428 7652:0.093365401 7717:0.18060848 #
-1 1:0.0029685479 15:0.0089056436 20:0.085345745 22:0.014100602 25:0.0089056436 52:0.016327012 57:0.023748383 58:0.068276599 78:0.025974793 79:0.023748383 87:0.01929556 88:0.072729424 102:0.014100602 109:0.027459066 113:0.013358465 121:0.030427614 122:0.017811287 135:0.011874191 176:0.022264108 180:0.10167276 195:0.017811287 206:0.025232656 235:0.048238903 247:0.018553423 250:0.08683002 278:0.025232656 289:0.018553423 292:0.031911887 297:0.027459066 467:0.025974793 469:0.030427614 546:0.035622574 574:0.01706915 591:0.023748383 631:0.079408653 804:0.043043941 810:0.096477807 850:0.063081637 928:0.059370957 996:0.0341383 1019:0.049723174 1090:0.01929556 1127:0.0089056436 1164:0.13210037 1169:0.086087883 1186:0.045270354 1214:0.01929556 1293:0.037106846 1338:0.032654025 1371:0.015584876 1429:0.01929556 1439:0.05566027 1440:0.12022618 1453:0.10167276 1457:0.0051949588 1466:0.4296973 1469:0.030427614 1473:0.020779835 1482:0.01706915 1493:0.20631407 1533:0.028943341 1578:0.074213691 1594:0.12171046 1599:0.1024149 1608:0.024490518 1619:0.069018736 1624:0.029685479 1691:0.070503011 1714:0.051207449 1732:0.04155967 1897:0.19221348 2020:0.047496766 2095:0.099446349 2289:0.072729424 2393:0.046012491 4112:0.030427614 4395:0.19963484 4669:0.077182241 5003:0.12542114 5124:0.037848983 5354:0.042301808 5487:0.043786079 5516:0.043786079 5569:0.031169752 5766:0.037106846 5845:0.035622574 5894:0.015584876 5921:0.026716931 5926:0.051207449 5935:0.067534462 5937:0.029685479 5945:0.028943341 6015:0.084603615 6030:0.020037698 6031:0.027459066 6032:0.066792324 6052:0.066050187 6159:0.021521971 6176:0.036364712 6252:0.023748383 6253:0.030427614 6264:0.080892928 6278:0.014842739 6402:0.021521971 6439:0.074213691 6440:0.087572157 6459:0.03859112 6476:0.020037698 6491:0.071987286 6498:0.38368481 6604:0.070503011 6641:0.060113091 6701:0.014100602 6723:0.028201204 6733:0.097219937 6743:0.014842739 6746:0.39630112 6773:0.029685479 6780:0.044528216 6804:0.017811287 6842:0.0059370957 6910:0.056402408 6951:0.020779835 6982:0.017811287 6997:0.018553423 7018:0.01929556 7026:0.011874191 7063:0.056402408 7108:0.016327012 7111:0.049723174 7119:0.14397457 7159:0.022264108 7214:0.023006245 7224:0.031169752 7254:0.032654025 7289:0.010389918 7379:0.064565912 7437:0.035622574 7445:0.061597366 7472:0.066050187 7511:0.048981037 7521:0.026716931 7556:0.071987286 7608:0.063081637 7617:0.029685479 7638:0.0066792327 7669:0.025232656 7717:0.093509257 7735:0.025974793 #
1 1:0.0022854332 25:0.0099035436 54:0.070848428 180:0.014474411 272:0.044946853 369:0.060183074 450:0.099797249 537:0.038090553 540:0.051041342 560:0.067039371 858:0.071610242 1091:0.050279532 1440:0.032757875 1494:0.09751182 1512:0.19502364 1599:0.13941142 1601:0.011427166 1614:0.051041342 1619:0.088370085 2296:0.69096261 2481:0.078466542 3806:0.13179332 3995:0.0038090553 4140:0.062468506 4695:0.058659453 5365:0.067801185 5402:0.098273627 5476:0.095226385 5809:0.069324806 5962:0.070086621 5985:0.095226385 6015:0.057135832 6069:0.10360631 6113:0.13864961 6160:0.042661421 6185:0.062468506 6200:0.10893898 6316:0.093702763 6349:0.10132087 6380:0.051803153 6403:0.13788781 6434:0.11579528 6440:0.095226385 6469:0.024377955 6491:0.12950788 6498:0.096750006 6541:0.060183074 6617:0.10055906 6847:0.04189961 6874:0.022854332 6907:0.083037406 6961:0.11808071 6989:0.09446457 7029:0.078466542 7119:0.057135832 7255:0.11198623 7271:0.050279532 7335:0.031234253 7361:0.09446457 7413:0.060944885 7416:0.075419299 7417:0.047994096 7419:0.076181106 7491:0.10893898 7561:0.11046261 7614:0.079990163 7619:0.066277564 7717:0.24606498 #
0.66445550795813490552177427161951 1:0.0088465754 15:0.0095837899 16:0.017693151 19:0.04644452 25:0.0051605022 26:0.045707304 36:0.04644452 42:0.057502739 46:0.044232875 50:0.036123514 51:0.064137667 54:0.034649085 60:0.021379223 80:0.038335159 90:0.038335159 92:0.08477968 95:0.10394726 124:0.016955936 144:0.06118881 147:0.12237762 160:0.058239952 274:0.04644452 276:0.030225798 286:0.072247028 384:0.03686073 475:0.053816665 537:0.018430365 573:0.072984241 696:0.021379223 1020:0.04202123 1093:0.05602831 1102:0.044970091 1127:0.021379223 1406:0.045707304 1440:0.070035383 1442:0.05160502 1513:0.036123514 1528:0.15997556 1583:0.003686073 2835:0.082568035 2992:0.08846575 3023:0.022116438 3043:0.049393378 3088:0.049393378 3234:0.075933106 3255:0.10910776 3320:0.028014155 3369:0.014744292 3390:0.074458674 3550:0.089940183 3685:0.10247283 3756:0.061926026 3810:0.061926026 3888:0.02875137 4057:0.047918949 4058:0.086991325 4079:0.11500548 4211:0.29119977 5915:0.02580251 5997:0.0656121 6024:0.039072372 6025:0.049393378 6063:0.039809588 6077:0.035386302 6191:0.047918949 6274:0.02875137 6358:0.058239952 6367:0.41726345 6378:0.034649085 6440:0.19093858 6445:0.019904794 6447:0.0656121 6466:0.045707304 6498:0.46518239 6533:0.02580251 6582:0.025065295 6594:0.014007078 6686:0.22558767 6694:0.047181733 6723:0.054553881 6784:0.047181733 6811:0.14154521 6838:0.20273401 6842:0.014007078 7035:0.02875137 7117:0.086254105 7119:0.070035383 7125:0.08404246 7139:0.15481506 7215:0.0066349311 7220:0.080356389 7271:0.040546801 7416:0.10468447 7430:0.04644452 7503:0.10321004 7542:0.043495663 7614:0.12164041 7677:0.074458674 7699:0.10468447 7717:0.10910776 #
0.68777545885834867611663412390044 1:0.0071596825 8:0.072392344 11:0.0071596825 16:0.040571533 25:0.0023865609 32:0.033411853 39:0.026252169 44:0.040571533 46:0.050117776 60:0.035798412 90:0.066028185 106:0.10659972 135:0.03022977 150:0.020683527 201:0.02704769 246:0.021479048 321:0.10819076 343:0.14717124 365:0.06125506 473:0.032616332 536:0.15353541 560:0.055686418 580:0.014319365 692:0.073187865 702:0.41287503 703:0.33968717 789:0.046935696 890:0.070005782 919:0.048526738 1069:0.049322259 1166:0.038980495 1371:0.019888006 1392:0.035798412 1476:0.023865608 1494:0.087507233 1551:0.10023555 1575:0.017501445 1591:0.05727746 1611:0.051708817 1619:0.13126084 1739:0.054890901 4173:0.065232664 4630:0.055686418 4653:0.069210261 5015:0.11614596 5132:0.067619227 5449:0.046935696 5511:0.066823706 5831:0.019092487 5926:0.072392344 5937:0.07716547 6052:0.099440038 6053:0.023865608 6153:0.12807876 6155:0.038184974 6183:0.078756511 6259:0.092280351 6285:0.035798412 6310:0.049322259 6322:0.066028185 6330:0.052504338 6372:0.026252169 6379:0.003182081 6391:0.015114885 6403:0.074778907 6440:0.11296388 6444:0.031820811 6476:0.012728324 6491:0.086711712 6498:0.28320521 6566:0.067619227 6684:0.021479048 6696:0.033411853 6730:0.070005782 6736:0.016705927 6800:0.083529629 6842:0.056481939 6869:0.019092487 6885:0.032616332 6954:0.11455492 7175:0.022274569 7186:0.36196172 7187:0.36196172 7323:0.0063641621 7325:0.019888006 7379:0.020683527 7393:0.03420737 7419:0.00079552026 7549:0.093871392 7573:0.046140175 7675:0.0087507227 7717:0.17103685 #
0.95467120998947030408032787818229 1:0.011002597 6:0.035365492 15:0.0094307978 17:0.071516886 25:0.0094307978 89:0.033793692 93:0.029078294 102:0.029864194 124:0.015717996 135:0.050297588 180:0.093522079 191:0.072302781 202:0.036151391 261:0.068373285 298:0.069159187 348:0.08016178 520:0.048725788 537:0.017289797 585:0.088020779 741:0.067587383 1103:0.066015586 1127:0.010216698 1168:0.056584787 1364:0.031435993 1440:0.082519479 1493:0.18232876 1514:0.33400741 1519:0.058942486 1622:0.047153991 1638:0.061300185 1916:0.04951169 1942:0.052655287 2103:0.093522079 2172:0.35444081 4190:0.084091283 4340:0.51555026 4389:0.032221891 4875:0.055012986 5488:0.069945082 5822:0.11238367 5848:0.078589983 5854:0.10216697 5859:0.10216697 5902:0.075446382 6006:0.043224491 6042:0.12181447 6047:0.097451575 6081:0.094307981 6086:0.035365492 6177:0.029078294 6358:0.082519479 6399:0.16818257 6440:0.18075696 6444:0.012574397 6498:0.26327643 6533:0.097451575 6540:0.027506493 6672:0.064443782 6728:0.027506493 6811:0.041652691 6856:0.11395548 6899:0.065229684 7019:0.08566308 7114:0.014146197 7175:0.037723191 7229:0.097451575 7271:0.10295288 7285:0.058942486 7313:0.087234877 7330:0.055798888 7335:0.07466048 7353:0.038509089 7355:0.067587383 7373:0.048725788 7416:0.084877178 7474:0.050297588 7480:0.081733584 7527:0.059728388 7593:0.072302781 7646:0.04008089 7708:0.088020779 7717:0.0070730983 7726:0.067587383 #
0.48258391534587929960764540737728 25:0.023308614 32:0.093234457 43:0.053276829 46:0.069925837 49:0.047449678 50:0.057439081 81:0.054941732 83:0.047449678 89:0.057439081 90:0.061601337 124:0.053276829 135:0.042454973 180:0.034130469 251:0.11820797 284:0.13152717 362:0.12819737 496:0.069925837 537:0.029968217 713:0.16649009 745:0.095731802 954:0.28886032 1039:0.027470866 1250:0.029968217 1276:0.077417895 1440:0.074088089 1493:0.058271535 1519:0.024973514 1912:0.079082794 1999:0.11487816 2375:0.13402453 2396:0.012486757 2471:0.069093391 2859:0.32299078 2912:0.17231725 3113:0.062433787 3773:0.06326624 3961:0.49863783 4661:0.042454973 4917:0.11404572 5016:0.098229155 5241:0.11238082 5349:0.059936434 5926:0.062433787 5946:0.061601337 5949:0.09156955 6004:0.071590744 6052:0.081580147 6187:0.11654307 6268:0.079082794 6308:0.078250349 6309:0.054109283 6357:0.060768884 6403:0.16981989 6440:0.061601337 6458:0.13319208 6498:0.041622523 6505:0.12819737 6516:0.088239752 6579:0.085742399 6582:0.024973514 6616:0.025805965 6628:0.059936434 6675:0.077417895 6730:0.082412601 6815:0.13818678 6822:0.082412601 6856:0.044952326 6893:0.10738611 7026:0.044119876 7053:0.029135767 7086:0.15483579 7142:0.039125174 7169:0.073255643 7215:0.12403512 7380:0.01914636 7416:0.14567883 7583:0.064098686 7607:0.084909946 7657:0.076585442 7674:0.059103984 7717:0.044952326 7738:0.014151658 #
-0.76639944761413070217770382441813 1:0.0032782073 11:0.018849691 15:0.004917311 20:0.048353557 22:0.016391037 25:0.009834622 38:0.034421176 55:0.018849691 57:0.11883502 65:0.017210588 67:0.038518935 75:0.051631764 79:0.027045211 80:0.018849691 86:0.031962521 105:0.0221279 107:0.056549076 139:0.066383697 141:0.024586555 165:0.022947451 175:0.017210588 176:0.025406107 186:0.04507535 224:0.033601627 227:0.034421176 237:0.019669244 275:0.032782074 276:0.014751933 278:0.028684314 289:0.04097759 292:0.036060281 306:0.018849691 323:0.076218322 328:0.031962521 350:0.061466388 391:0.018030141 414:0.032782074 432:0.035240728 467:0.014751933 477:0.051631764 491:0.035240728 496:0.0221279 500:0.033601627 502:0.048353557 550:0.026225658 551:0.0221279 588:0.036060281 595:0.04507535 612:0.027864762 629:0.096707113 706:0.04097759 766:0.073759668 775:0.063105494 784:0.027864762 859:0.1598126 873:0.05900773 962:0.033601627 964:0.036060281 997:0.037699383 1020:0.020488795 1083:0.075398766 1090:0.0221279 1120:0.027864762 1127:0.004917311 1139:0.072940111 1162:0.047534008 1292:0.021308348 1439:0.021308348 1440:0.051631764 1442:0.054090422 1476:0.041797142 1479:0.027864762 1491:0.0221279 1496:0.11637636 1527:0.026225658 1570:0.031142969 1575:0.014751933 1582:0.095068015 1589:0.029503865 1599:0.088511601 1607:0.072940111 1611:0.059827283 1627:0.014751933 2479:0.045894902 2505:0.045894902 2666:0.095887564 2705:0.095887564 2762:0.10981995 2820:0.092609353 2826:0.09752667 2888:0.13194785 2926:0.036879834 3062:0.04507535 3087:0.04507535 3146:0.54746062 3523:0.18276006 3536:0.035240728 3593:0.071301006 3633:0.049992662 3702:0.031142969 3785:0.099985324 3792:0.049992662 3847:0.036060281 3864:0.049992662 3963:0.041797142 3972:0.083594285 4040:0.041797142 4119:0.22455721 4125:0.038518935 4187:0.046714455 4287:0.046714455 4321:0.075398766 4348:0.037699383 4548:0.088511601 4561:0.04097759 5955:0.079496525 5958:0.025406107 5964:0.10572219 5991:0.08523339 6019:0.036879834 6030:0.022947451 6052:0.041797142 6061:0.032782074 6063:0.019669244 6122:0.021308348 6126:0.027864762 6162:0.0221279 6178:0.012293277 6185:0.023767004 6191:0.023767004 6210:0.064744592 6229:0.027045211 6238:0.029503865 6310:0.056549076 6318:0.023767004 6353:0.095068015 6358:0.028684314 6440:0.11637636 6442:0.10654174 6453:0.028684314 6476:0.022947451 6482:0.057368629 6496:0.10900039 6497:0.0221279 6498:0.030323418 6522:0.014751933 6625:0.027864762 6637:0.056549076 6648:0.060646836 6716:0.034421176 6723:0.082774736 6725:0.04507535 6728:0.014751933 6730:0.10654174 6739:0.14588022 6842:0.013932381 6919:0.025406107 6926:0.0221279 6938:0.027045211 6982:0.019669244 6989:0.09342891 6990:0.10080487 6993:0.090970255 7018:0.043436248 7025:0.094248459 7026:0.013932381 7043:0.026225658 7073:0.026225658 7085:0.041797142 7125:0.067203254 7160:0.035240728 7171:0.049992662 7218:0.052451316 7237:0.024586555 7244:0.018030141 7247:0.098346218 7256:0.033601627 7325:0.017210588 7364:0.057368629 7402:0.077857427 7444:0.047534008 7556:0.045894902 7575:0.026225658 7595:0.027045211 7600:0.0221279 7601:0.15325619 7608:0.014751933 7614:0.0073759663 7717:0.14178246 7739:0.12621099 #
-1 1:0.0025243727 15:0.018512066 20:0.11948697 32:0.10770657 50:0.065633692 162:0.10265782 192:0.075731181 281:0.074889719 340:0.046280164 350:0.34247324 474:0.09003596 500:0.12453572 545:0.1666086 560:0.10013345 595:0.083304301 606:0.19774252 638:0.050487455 974:0.20699856 1020:0.15482819 1061:0.11780406 1127:0.019353524 1132:0.13042592 1277:0.09003596 1440:0.050487455 1490:0.083304301 1493:0.095926158 1593:0.1666086 1594:0.032816846 1599:0.12369426 2000:0.023560811 2304:0.053011827 2437:0.056377657 2733:0.20868148 3774:0.062267859 3865:0.084987216 4027:0.068999521 4296:0.11780406 4588:0.02440227 4656:0.07152389 4934:0.077414095 5300:0.12874301 5332:0.17754754 5902:0.073206805 5969:0.074889719 6095:0.22719353 6149:0.094243243 6310:0.063109316 6325:0.070682436 6376:0.060584944 6472:0.14557216 6477:0.10013345 6498:0.019353524 6519:0.09760908 6525:0.058060572 6552:0.08246284 6588:0.12116989 6625:0.31218076 6672:0.053011827 6743:0.063109316 6747:0.091718875 6804:0.074048266 6870:0.081621386 6898:0.10097491 6907:0.10938948 6979:0.067316607 7064:0.15566964 7119:0.12790155 7250:0.10854802 7378:0.13379174 7434:0.098450534 7527:0.02440227 7536:0.098450534 7593:0.12790155 7608:0.036182676 #
-1 1:0.024655061 18:0.027736945 24:0.15024178 25:0.0030818826 57:0.048539653 63:0.016179884 75:0.031589299 107:0.03467118 108:0.016179884 122:0.024655061 134:0.040834945 137:0.11402966 152:0.054703418 156:0.023884591 202:0.023114121 222:0.11711154 232:0.033900708 244:0.095538363 260:0.03621212 317:0.0069342363 519:0.044687301 520:0.031589299 532:0.10401354 543:0.027736945 551:0.013868473 561:0.089374602 574:0.071653776 594:0.03313024 785:0.046228241 1007:0.098620243 1084:0.068571888 1091:0.030048355 1099:0.29431981 1155:0.053932946 1156:0.051621534 1197:0.038523532 1198:0.048539653 1201:0.043916829 1290:0.1024726 1424:0.033900708 1493:0.13483237 1517:0.26196003 1599:0.027736945 1622:0.095538363 1663:0.050851066 1695:0.053162478 1804:0.22343649 1887:0.054703418 1974:0.049310122 1986:0.12250484 2141:0.18953578 2159:0.09168601 2415:0.047769181 3167:0.057785302 3829:0.058555771 4048:0.061637655 4693:0.046998709 4703:0.03313024 4764:0.03313024 4790:0.26504192 4950:0.067801416 5160:0.065490007 5224:0.052392006 5456:0.068571888 5460:0.19878143 5463:0.13714378 5639:0.083981305 5749:0.027736945 5772:0.020802708 5801:0.070112832 5810:0.070112832 5815:0.077047065 5927:0.046998709 5937:0.053932946 5955:0.12558672 5967:0.13020955 5976:0.031589299 5983:0.046228241 6000:0.051621534 6027:0.074735656 6172:0.031589299 6261:0.057785302 6278:0.020032238 6291:0.02234365 6399:0.052392006 6403:0.044687301 6440:0.22651838 6488:0.10016119 6495:0.035441652 6498:0.29431981 6571:0.077817537 6576:0.03313024 6650:0.083981305 6666:0.045457769 6685:0.10709542 6728:0.017720826 6736:0.017720826 6842:0.086292714 6886:0.11788201 6913:0.040834945 7022:0.044687301 7038:0.08860413 7050:0.070883304 7053:0.10709542 7119:0.062408123 7124:0.077817537 7201:0.086292714 7225:0.075506128 7242:0.083981305 7258:0.030048355 7267:0.056244358 7317:0.058555771 7323:0.10093166 7405:0.062408123 7457:0.089374602 7495:0.073965184 7518:0.016179884 7532:0.084751777 7640:0.064719535 7717:0.026196003 7726:0.059326243 #
-1 1:0.010091163 17:0.10168788 25:0.013196137 33:0.19716582 53:0.096254177 81:0.0931492 94:0.076071851 152:0.080729306 323:0.10168788 395:0.068309411 520:0.13972381 948:0.10091164 1089:0.05356079 1112:0.01630111 1127:0.028721005 1155:0.10479286 1424:0.098582909 1440:0.13196138 1493:0.19561332 1598:0.02794476 1599:0.067533173 2178:0.097806662 2305:0.064428195 2542:0.038035925 2668:0.075295605 2726:0.079953067 4553:0.068309411 4907:0.28177634 4913:0.045022115 5000:0.082281798 5239:0.29186749 5255:0.072966874 5267:0.29186749 5915:0.13817132 5941:0.057442009 5978:0.1218702 5996:0.019406084 6032:0.048903331 6070:0.05045582 6144:0.3275747 6150:0.11255529 6153:0.0232873 6162:0.23830672 6306:0.10013539 6328:0.12575142 6331:0.082281798 6350:0.07684809 6399:0.063651957 6411:0.0465746 6440:0.12652767 6477:0.080729306 6485:0.060546983 6498:0.12652767 6516:0.11255529 6582:0.10556909 6646:0.067533173 6699:0.059770737 6730:0.11954147 6782:0.10789783 6857:0.071414389 6868:0.070638143 6910:0.097806662 7014:0.069861904 7028:0.055113278 7057:0.038035925 7086:0.13118513 7103:0.038035925 7119:0.077624336 7271:0.065980688 7369:0.061323225 7380:0.025616031 7441:0.13506635 7620:0.078400582 7650:0.031049734 7672:0.20337576 7717:0.014748624 #
-0.84140883886430295479641472411458 1:0.004799074 25:0.0063987654 54:0.047190893 91:0.067187034 109:0.042391822 114:0.23915386 137:0.063987657 180:0.055189352 214:0.094381787 243:0.092782095 278:0.1559699 368:0.056789044 388:0.037592746 443:0.089582719 467:0.039992284 482:0.086383335 603:0.24315308 809:0.11917701 882:0.11517778 924:0.069586575 1020:0.05758889 1068:0.068786725 1215:0.052789815 1329:0.139973 1382:0.031993829 1418:0.23835401 1432:0.011997685 1493:0.096781328 1544:0.069586575 1578:0.053589661 1585:0.066387191 1593:0.061588116 1614:0.034393363 1815:0.093581945 1970:0.063187808 2040:0.047990739 2092:0.10717932 2252:0.10477979 2281:0.36073041 2604:0.077585034 4566:0.041591976 4650:0.055989198 5027:0.04079213 5053:0.10877901 5067:0.054389507 5135:0.13597377 5262:0.11117855 5307:0.01839645 5523:0.13437407 5605:0.11917701 5691:0.11437793 5701:0.043191668 5706:0.091982253 5752:0.079984568 5894:0.09758117 5937:0.052789815 5939:0.071186267 5962:0.071186267 5988:0.2575503 6048:0.062387962 6069:0.015197068 6083:0.09758117 6119:0.055989198 6343:0.055989198 6409:0.08078441 6426:0.051190123 6440:0.021595834 6476:0.092782095 6489:0.091182411 6498:0.09758117 6536:0.13117468 6626:0.085583486 6646:0.13437407 6741:0.11357809 6778:0.059188578 6804:0.054389507 6848:0.10637947 6881:0.085583486 6937:0.048790585 7119:0.11437793 7174:0.053589661 7285:0.083983794 7286:0.067986883 7313:0.087983027 7318:0.069586575 7396:0.11997685 7416:0.12477592 7419:0.08078441 7462:0.067986883 7479:0.10637947 7484:0.043191668 7521:0.08158426 7625:0.051989969 7635:0.062387962 7717:0.15996914 7721:0.088782869 #
0.86750209044793424872921150381444 45:0.15501368 50:0.13695383 179:0.052674551 272:0.11212154 387:0.093309209 390:0.13770632 418:0.27992761 680:0.094061702 1063:0.061704475 1375:0.079764321 1440:0.012039897 1493:0.28820506 1565:0.22424309 1579:0.26036277 1584:0.0045149615 1700:0.10384411 1844:0.059446994 1917:0.39806911 2295:0.07750684 3595:0.014297378 4645:0.039129667 4728:0.06546694 4962:0.066219434 5212:0.10233913 5637:0.02934725 5644:0.117389 5648:0.12641892 5692:0.35668197 5901:0.07750684 5907:0.048912082 5937:0.014297378 5938:0.02934725 5974:0.20091578 6219:0.10309162 6310:0.064714447 6369:0.057189513 6439:0.034614705 6498:0.19640082 6506:0.057942007 6533:0.040634654 6537:0.015049872 6548:0.074496865 6598:0.12115147 6614:0.049664576 6673:0.066971928 6723:0.045149617 6751:0.079011828 6910:0.088041753 6988:0.0060199485 6990:0.08954674 6998:0.093309209 7053:0.075249359 7100:0.014297378 7114:0.025584782 7119:0.12039898 7397:0.11136905 7416:0.033862211 7506:0.088041753 7558:0.063961953 7565:0.059446994 7608:0.043644629 7681:0.07750684 7717:0.13620134 7741:0.093309209 #
1 1:0.015297864 4:0.0080131665 6:0.014569394 8:0.050264411 11:0.029867258 13:0.021854091 15:0.0036423486 16:0.013840924 17:0.014569394 24:0.065562271 25:0.017483274 27:0.036423486 30:0.02331103 32:0.02331103 40:0.018211743 45:0.048078999 46:0.017483274 56:0.016026333 60:0.050264411 68:0.067019209 70:0.010198575 81:0.040794302 83:0.024039499 89:0.042979714 96:0.016754802 97:0.016754802 102:0.012383985 109:0.012383985 118:0.031324197 119:0.013840924 121:0.027681848 124:0.0065562273 130:0.028410319 135:0.010198575 144:0.048078999 148:0.026224909 160:0.045893591 171:0.016754802 190:0.016026333 200:0.018211743 202:0.015297864 237:0.016026333 272:0.04735053 280:0.041522771 293:0.10708505 354:0.10271423 388:0.010927046 399:0.021125622 409:0.018940212 458:0.019668682 476:0.020397151 483:0.022582561 508:0.031324197 514:0.016754802 519:0.029138789 551:0.044436652 557:0.037151955 559:0.026953379 571:0.018940212 587:0.018211743 588:0.014569394 602:0.037880424 605:0.084502488 610:0.02549644 622:0.040794302 649:0.059734516 688:0.073575437 747:0.029867258 767:0.0029138788 784:0.010927046 895:0.018211743 945:0.52376974 946:0.018940212 973:0.058277577 1080:0.011655515 1090:0.053178288 1091:0.010198575 1111:0.018940212 1127:0.045893591 1195:0.019668682 1283:0.022582561 1292:0.034238078 1348:0.024767971 1355:0.029138789 1356:0.027681848 1357:0.016754802 1410:0.024039499 1440:0.024039499 1479:0.022582561 1491:0.018211743 1493:0.26589143 1527:0.021125622 1559:0.011655515 1560:0.034966547 1594:0.029138789 1599:0.021125622 1602:0.016754802 1603:0.032781135 1611:0.024039499 1619:0.078674726 1624:0.013112455 1627:0.011655515 1633:0.013840924 1896:0.14642242 2124:0.04662206 2161:0.065562271 2162:0.032781135 2496:0.022582561 2640:0.080131665 3714:0.027681848 3747:0.055363696 3899:0.026953379 4273:0.029867258 4416:0.037880424 4433:0.031324197 4468:0.037880424 4485:0.075760849 4526:0.018940212 4744:0.056092165 4844:0.032052666 4856:0.016026333 4857:0.032052666 4861:0.032052666 4864:0.032052666 4987:0.024767971 5213:0.041522771 5242:0.033509605 5401:0.034238078 5415:0.034238078 5416:0.034238078 5434:0.030595727 5455:0.030595727 5548:0.13330996 5705:0.072846971 5774:0.034966547 5811:0.066290744 5894:0.028410319 5902:0.016026333 5915:0.020397151 5926:0.10999893 5939:0.020397151 5946:0.069204621 5947:0.048807468 5948:0.018211743 5950:0.05099288 5955:0.081588604 5964:0.069933094 5965:0.02331103 5968:0.024039499 5969:0.056092165 5976:0.020397151 5989:0.018211743 5997:0.10417116 6007:0.24185194 6017:0.022582561 6030:0.018211743 6031:0.024767971 6034:0.018211743 6044:0.029867258 6052:0.039337363 6053:0.032781135 6066:0.024039499 6092:0.015297864 6106:0.017483274 6111:0.0087416368 6122:0.016754802 6138:0.021854091 6155:0.056820638 6211:0.024039499 6214:0.020397151 6220:0.022582561 6241:0.014569394 6258:0.02331103 6268:0.07066156 6281:0.067747682 6288:0.04735053 6297:0.02549644 6300:0.077217788 6310:0.076489322 6324:0.013840924 6332:0.027681848 6337:0.019668682 6345:0.026224909 6364:0.038608894 6375:0.02331103 6393:0.037880424 6399:0.2068854 6403:0.081588604 6404:0.077946261 6412:0.085959427 6423:0.086687893 6431:0.065562271 6440:0.079403199 6459:0.017483274 6462:0.026224909 6476:0.026953379 6491:0.028410319 6498:0.25860673 6527:0.069933094 6532:0.017483274 6533:0.08960177 6540:0.022582561 6547:0.019668682 6559:0.018940212 6641:0.036423486 6649:0.014569394 6664:0.021125622 6674:0.071390033 6684:0.015297864 6692:0.061919924 6728:0.011655515 6743:0.026953379 6752:0.019668682 6756:0.020397151 6764:0.059734516 6792:0.026224909 6806:0.018940212 6842:0.022582561 6853:0.018211743 6919:0.061919924 6939:0.016754802 6969:0.07430391 6980:0.016754802 7013:0.091787182 7028:0.040794302 7088:0.028410319 7089:0.018940212 7096:0.018211743 7108:0.014569394 7118:0.058277577 7119:0.041522771 7150:0.090330243 7181:0.04662206 7219:0.017483274 7233:0.064833805 7243:0.024039499 7271:0.042979714 7272:0.018940212 7326:0.02549644 7333:0.021125622 7338:0.019668682 7352:0.0050992877 7361:0.018211743 7407:0.040794302 7415:0.019668682 7416:0.064833805 7437:0.032052666 7440:0.033509605 7476:0.034966547 7494:0.021125622 7516:0.032781135 7552:0.068476155 7583:0.016026333 7587:0.026224909 7592:0.039337363 7594:0.017483274 7602:0.029138789 7617:0.026224909 7630:0.024767971 7636:0.091787182 7669:0.045165122 7707:0.029138789 7710:0.029138789 7717:0.15006475 12809:0.021854091 #
0.93049713894840391237295307291788 6:0.062340841 11:0.02078028 16:0.029571937 25:0.015984831 34:0.14226499 54:0.11668926 120:0.087916568 124:0.027973453 284:0.13826878 289:0.069534011 330:0.046356007 361:0.12548092 421:0.10789761 537:0.03117042 611:0.0023977247 650:0.15425362 713:0.17423466 911:0.051151458 1158:0.13986726 1442:0.072730981 1493:0.1750339 1577:0.095908985 1592:0.069534011 1599:0.029571937 1795:0.15425362 1802:0.15425362 1813:0.12947713 2179:0.053549182 2224:0.066337049 2444:0.039162833 2527:0.049552973 3548:0.059143875 3562:0.11828775 4278:0.032768901 4291:0.065537803 4704:0.070333257 5122:0.045556769 5418:0.12468168 5498:0.1462612 5617:0.11429154 5905:0.071931735 5937:0.069534011 5960:0.065537803 5971:0.051151458 6032:0.12468168 6035:0.035166629 6052:0.15105665 6077:0.059143875 6111:0.14706044 6183:0.051151458 6431:0.061541598 6451:0.10230292 6492:0.14386347 6498:0.19261721 6516:0.075128704 6596:0.082321875 6647:0.04715525 6660:0.04156056 6673:0.034367386 6688:0.27413985 6700:0.0055946908 6765:0.053549182 6811:0.13986726 6898:0.083121121 6937:0.047954492 6959:0.084719598 7004:0.059943113 7041:0.31729889 7119:0.078325666 7236:0.082321875 7252:0.059943113 7417:0.087916568 7444:0.16144679 7510:0.33328372 7518:0.091912776 7568:0.04156056 7580:0.067136288 7608:0.051151458 7663:0.066337049 7680:0.12388244 7717:0.1134923 7723:0.042359799 7743:0.099105947 #
1 1:0.0056263991 14:0.052245133 15:0.013664111 16:0.01286034 25:0.010449027 60:0.029739536 72:0.026524452 93:0.042599875 180:0.046618734 251:0.093237467 268:0.030543309 330:0.061890386 363:0.058675304 388:0.019290511 540:0.017682968 708:0.042599875 784:0.020094281 895:0.03215085 1080:0.020094281 1107:0.090826154 1127:0.022505596 1216:0.045814961 1345:0.030543309 1493:0.21139184 1514:0.049833819 1537:0.036169708 1542:0.036169708 1602:0.029739536 1611:0.064301699 1658:0.076358274 1807:0.057067759 2317:0.099667639 3894:0.030543309 3984:0.061086617 4138:0.059479073 4179:0.064301699 4232:0.059479073 5533:0.071535639 5628:0.60443598 5657:0.047422506 5767:0.23952384 5771:0.23952384 5776:0.23952384 5832:0.086807296 5894:0.02491691 5900:0.070731871 5902:0.028131993 5914:0.037777249 5935:0.0811809 5961:0.056263987 6032:0.14226751 6052:0.040188562 6063:0.056263987 6070:0.11252797 6075:0.076358274 6086:0.02572068 6098:0.037777249 6111:0.077162042 6149:0.030543309 6159:0.034562163 6209:0.02491691 6268:0.083592214 6310:0.11172421 6318:0.033758394 6330:0.079573356 6341:0.069928102 6389:0.035365935 6394:0.047422506 6440:0.09564878 6498:0.22023332 6533:0.12217323 6593:0.069124326 6637:0.040188562 6646:0.22907481 6712:0.093237467 6723:0.065909244 6728:0.020094281 6743:0.024113137 6842:0.0096452553 6857:0.091629922 6898:0.045011193 7037:0.050637592 7039:0.046618734 7043:0.03697348 7059:0.022505596 7108:0.026524452 7145:0.092433698 7203:0.036169708 7252:0.098863862 7256:0.047422506 7271:0.029739536 7281:0.045814961 7292:0.035365935 7326:0.045011193 7437:0.028935766 7517:0.03215085 7680:0.052245133 7717:0.11333175 #
1 9:0.02589291 16:0.012227207 17:0.053224314 25:0.017261939 150:0.02589291 151:0.094221421 180:0.074801736 213:0.068328507 269:0.043874096 330:0.059697539 463:0.060416788 566:0.05106657 594:0.019419681 820:0.1150796 984:0.034523878 1077:0.067609265 1079:0.076240234 1156:0.030208394 1232:0.074801736 1236:0.12371057 1384:0.092063673 1404:0.061136033 1421:0.020858176 1493:0.31431115 1519:0.078397974 1599:0.057539798 1610:0.035962373 1626:0.00071924744 1945:0.047470335 2055:0.040277857 2722:0.070486255 2769:0.074082486 3286:0.21577424 3665:0.076959476 4184:0.043874096 4342:0.063293777 4398:0.036681622 4737:0.52289289 4936:0.056101304 5177:0.10716787 5306:0.071924746 5465:0.13737626 5599:0.065451518 5915:0.035962373 5955:0.090625182 5964:0.050347324 5989:0.033085383 6015:0.017981187 6032:0.089186683 6052:0.089905933 6111:0.062574528 6143:0.040277857 6187:0.072643995 6205:0.043154847 6274:0.092063673 6282:0.05394356 6382:0.18340811 6399:0.13593777 6430:0.089186683 6440:0.12658755 6444:0.081994213 6448:0.017981187 6476:0.016542692 6498:0.34667727 6524:0.081994213 6533:0.12371057 6554:0.038120117 6555:0.032366138 6614:0.021577423 6811:0.05106657 6868:0.061136033 6886:0.097817659 6888:0.093502171 6963:0.065451518 7041:0.026612157 7053:0.012946455 7090:0.10860637 7103:0.063293777 7123:0.030927641 7145:0.036681622 7213:0.04818958 7236:0.13953401 7291:0.023735167 7310:0.058259044 7312:0.056101304 7313:0.065451518 7360:0.046031836 7382:0.073363245 7416:0.055382054 7434:0.038120117 7437:0.028769899 7484:0.031646889 7501:0.058259044 7540:0.056101304 7680:0.078397974 7713:0.088467441 7717:0.084871203 #
-0.93593895806137517023870486809756 1:0.034521077 15:0.013220838 25:0.012486347 27:0.030114131 28:0.044803951 35:0.086669937 44:0.047007423 52:0.048476405 59:0.053617842 62:0.096218325 63:0.035990059 70:0.034521077 118:0.05214886 121:0.030114131 138:0.05214886 174:0.1065012 199:0.099156283 253:0.049945388 393:0.13294287 447:0.077856049 512:0.13367736 557:0.060962755 884:0.024238203 1315:0.090342395 1329:0.084466465 1440:0.10797018 1493:0.10797018 1497:0.049945388 1519:0.11898755 1537:0.067573175 1580:0.060228262 1596:0.28131005 1598:0.049210899 1602:0.055086825 1611:0.039662514 1614:0.033052094 1622:0.035990059 1689:0.069776647 1808:0.1065012 1830:0.082997486 2007:0.094014846 2008:0.088138923 2088:0.060962755 2549:0.071245626 2694:0.080794014 3949:0.02937964 4336:0.074183591 4719:0.063900717 4758:0.089607902 5148:0.021300239 5182:0.062431734 5368:0.041865986 5492:0.10062527 5539:0.10356323 5588:0.061697245 5700:0.21887831 5926:0.12706694 5945:0.059493773 5966:0.047741916 5983:0.049945388 6052:0.041865986 6111:0.22989568 6149:0.021300239 6176:0.060228262 6290:0.049210899 6324:0.045538444 6341:0.25927532 6357:0.049945388 6399:0.085200958 6440:0.060228262 6476:0.030114131 6498:0.38413879 6525:0.050679881 6532:0.057290297 6565:0.084466465 6646:0.11237712 6661:0.042600479 6723:0.12339449 6736:0.076387063 6743:0.044803951 6751:0.019096766 6868:0.071245626 6870:0.020565748 6947:0.31950358 6955:0.061697245 6959:0.071245626 7059:0.16746394 7067:0.052883353 7098:0.021300239 7119:0.055086825 7209:0.13294287 7227:0.044069462 7231:0.069042154 7322:0.088873409 7331:0.040397007 7372:0.044803951 7399:0.017627785 7567:0.055086825 7581:0.088138923 7614:0.031583112 7717:0.12339449 7737:0.084466465 #
-1 1:0.0078729708 25:0.019682428 57:0.054323502 93:0.062196475 121:0.047237828 133:0.077942416 189:0.10707241 190:0.081878901 208:0.11022159 251:0.081091605 253:0.23146535 276:0.12281835 543:0.092113763 560:0.051174313 927:0.034641072 976:0.13541511 1085:0.0078729708 1122:0.12281835 1152:0.14092618 1440:0.077155121 1493:0.062196475 1611:0.061409175 1624:0.068494849 2102:0.070856743 2243:0.093688361 2438:0.097624846 3962:0.062983766 4968:0.33853775 4983:0.057472691 4985:0.057472691 5172:0.044875935 5484:0.1110089 5526:0.061409175 5546:0.14564997 5696:0.042514045 5755:0.051174313 5926:0.11022159 5956:0.11022159 5962:0.039364856 5966:0.074005932 5968:0.12281835 5974:0.32042992 6052:0.059047285 6074:0.10234863 6183:0.053536203 6192:0.070069447 6204:0.1110089 6293:0.08660268 6396:0.1369897 6403:0.064558364 6476:0.046450529 6498:0.36845505 6541:0.06062188 6620:0.055110797 6842:0.029129993 6862:0.1094343 6915:0.052748907 6965:0.062983766 6980:0.087389983 7014:0.059834581 7039:0.029129993 7041:0.077155121 7244:0.14801186 7353:0.051174313 7372:0.14013889 7410:0.042514045 7565:0.08502809 7608:0.051174313 7615:0.33775046 7619:0.12281835 7631:0.096050248 7717:0.11258349 #
-0.44869752655751066194866893965809 1:0.016983572 15:0.054038636 21:0.091093704 25:0.013123669 61:0.11425312 69:0.28177288 76:0.095725589 122:0.22541831 133:0.069478251 138:0.10962123 156:0.10653331 190:0.22001445 195:0.10962123 207:0.11965698 231:0.38058642 272:0.052494675 315:0.062530421 374:0.084917858 589:0.19067919 894:0.044002891 895:0.12351689 1363:0.037827045 1440:0.035511106 1485:0.009263766 1487:0.18527533 1493:0.22464633 1519:0.033195164 1559:0.16211592 1572:0.062530421 1599:0.13200867 1631:0.096497566 1783:0.20611881 2431:0.047862794 2477:0.081057958 4550:0.040142987 4562:0.19067919 4597:0.067162305 4613:0.066390328 4887:0.0084917862 5024:0.056354579 5105:0.052494675 5693:0.1111652 5731:0.076426074 5907:0.10267341 5946:0.073338151 6032:0.081057958 6094:0.053266656 6111:0.12042896 6150:0.094181627 6183:0.046318833 6222:0.069478251 6260:0.045546852 6392:0.09032172 6403:0.12660481 6424:0.025475359 6452:0.036283087 6471:0.064074382 6498:0.3087922 6611:0.067162305 6724:0.079513997 6734:0.11811302 6754:0.023931397 6811:0.042458929 6946:0.046318833 6959:0.020071493 6983:0.05789854 7119:0.035511106 7302:0.094181627 7379:0.054038636 7416:0.037827045 7451:0.08646182 7674:0.022387436 7717:0.11734104 #
-0.8031090933769524653484950249549 1:0.04565743 11:0.021583512 20:0.055619054 25:0.0083013512 57:0.090484731 109:0.053128649 121:0.039016351 122:0.14029284 135:0.04565743 138:0.20504338 176:0.087994322 190:0.13697229 220:0.063090272 235:0.094635405 237:0.067240946 272:0.07637243 369:0.050638244 505:0.12286 519:0.062260132 524:0.097955942 535:0.10459702 551:0.038186215 577:0.087994322 872:0.048977971 895:0.077202566 1080:0.048977971 1111:0.3237527 1141:0.038186215 1146:0.0041506756 1330:0.074712157 1453:0.044827297 1493:0.13448189 1519:0.062260132 1559:0.10127649 1600:0.056449186 2441:0.45823458 2508:0.057279322 2724:0.097125806 2781:0.052298512 2833:0.13780242 2871:0.13780242 2989:0.051468376 3102:0.062260132 3142:0.085503913 3409:0.12286 3824:0.063090272 3978:0.060599864 4103:0.043997161 4242:0.11289837 4264:0.09629567 4555:0.044827297 5926:0.053958781 5933:0.082183376 5997:0.11206824 6032:0.072221756 6052:0.028224593 6111:0.11206824 6170:0.078032702 6209:0.12286 6310:0.13946269 6331:0.13531202 6362:0.047317702 6397:0.070561484 6445:0.075542293 6498:0.17515852 6501:0.068901211 6507:0.31545135 6525:0.089654595 6581:0.095465541 6663:0.11787919 7039:0.064750537 7271:0.053128649 7419:0.044827297 7603:0.089654595 7619:0.12036959 7646:0.046487566 7713:0.074712157 7717:0.11372851 #
-1 1:0.01478388 2:0.053688824 14:0.033458252 15:0.017896276 16:0.12760822 25:0.035014451 38:0.18907803 60:0.094928071 63:0.073919401 104:0.098818563 108:0.09414997 127:0.049798332 150:0.032680154 156:0.070028901 165:0.084034681 173:0.042795442 218:0.048242133 244:0.035792552 266:0.035792552 409:0.04357354 465:0.10659955 536:0.05057643 537:0.017118176 540:0.13694541 594:0.024899166 756:0.080144189 987:0.078587994 1009:0.041239243 1083:0.098818563 1156:0.038904946 1406:0.041239243 1440:0.059913617 1483:0.012449583 1493:0.30501479 1508:0.053688824 1509:0.10037476 1512:0.26066312 1527:0.047464035 1556:0.045907836 1559:0.026455363 1565:0.052910727 1621:0.054466926 1631:0.031902056 1731:0.025677264 1824:0.20464002 2274:0.095706165 2573:0.080144189 3923:0.33224824 3938:0.33224824 4522:0.066916503 4956:0.056801222 5343:0.03657065 5362:0.097262368 5896:0.083256587 5905:0.038904946 5926:0.068472706 5937:0.066138409 5964:0.074697495 5992:0.16573507 6048:0.041239243 6077:0.094928071 6086:0.033458252 6323:0.11049005 6392:0.082478486 6397:0.058357418 6403:0.087925181 6440:0.046685934 6444:0.035014451 6498:0.23265158 6540:0.025677264 6734:0.051354527 6753:0.035792552 6842:0.025677264 6914:0.045129739 6946:0.074697495 7075:0.1447264 7090:0.11904913 7119:0.033458252 7252:0.12371773 7271:0.1455045 7282:0.084812783 7533:0.097262368 7547:0.063804112 7555:0.065360308 7582:0.05057643 7635:0.10582145 7653:0.072363198 7656:0.22876108 7701:0.062247913 7741:0.03657065 #
