SVM-light Version V6.02
0 # kernel type
3 # kernel parameter -d 
1 # kernel parameter -g 
1 # kernel parameter -s 
1 # kernel parameter -r 
empty# kernel parameter -u 
500 # highest feature index 
300 # number of training documents 
103 # number of support vectors plus 1 
0.24976204 # threshold b, each following line is a SV (starting with alpha*y)
-7.8355254566271133358961245574115e-06 1:20 25:13 55:101 61:168 63:74 230:100 256:137 #
5.008194751164639365952589711295e-06 25:20 27:48 38:72 50:74 89:74 90:240 102:66 124:69 135:110 209:128 228:57 282:162 343:135 #
-8.540522925918227605066729291039e-06 59:215 439:58 455:98 #
-6.6040264727502866404706613479014e-06 1:12 11:13 15:10 20:67 25:15 26:47 59:42 78:30 94:52 108:27 121:48 180:105 220:53 222:40 242:108 244:41 246:77 335:60 358:67 375:85 382:108 #
6.9044088291401010135193289096733e-06 1:10 9:69 11:24 14:72 15:57 25:28 38:201 60:122 80:74 106:103 121:44 124:32 237:76 265:26 266:76 276:116 304:11 #
3.8906474492444870498693287874659e-05 1:29 4:41 11:25 16:69 25:38 30:57 89:69 121:45 150:71 174:79 240:82 381:72 388:54 499:62 #
3.2201397030700226200260194442393e-05 1:4 16:14 17:60 25:20 38:28 50:57 60:51 63:22 80:31 124:27 135:21 180:146 240:34 389:119 #
6.9873789843554118530132533704258e-06 1:23 9:51 11:9 12:22 13:20 15:70 16:13 17:53 25:24 26:97 32:42 33:26 38:50 42:41 45:29 49:63 50:25 56:29 60:60 69:24 78:21 96:30 101:40 109:22 124:24 142:32 150:26 156:55 171:30 221:52 246:79 266:28 276:22 281:29 388:59 453:80 495:103 496:31 #
1.3783595980020807230618379302101e-05 1:3 8:56 25:6 32:39 54:46 96:56 103:92 130:94 152:39 161:80 192:54 293:152 #
9.6695809194832209201939804410486e-06 1:15 11:22 15:17 17:130 25:17 32:51 42:99 93:105 124:29 151:115 193:68 229:81 266:68 276:52 314:42 #
2.5982550893801142936282832368589e-06 1:9 9:67 11:23 15:37 16:33 25:9 32:54 39:87 46:244 49:110 89:66 111:68 135:49 191:141 209:90 #
-2.9987342859535978472317052645479e-05 1:15 14:113 16:54 25:29 38:106 54:105 60:191 124:51 180:140 266:119 268:131 319:127 465:168 #
-3.0697276247157913958393034986605e-06 1:37 11:82 15:32 25:16 30:95 32:95 82:75 124:54 171:277 182:96 187:172 250:119 272:58 388:90 391:118 #
-2.2540809484004523501401995311255e-05 1:21 9:51 11:18 15:83 16:50 25:21 30:124 31:53 32:41 36:65 46:62 81:48 83:42 90:109 102:45 109:44 119:49 124:24 134:88 174:57 201:67 280:49 369:84 388:39 473:80 492:93 #
-1.9245167536817650181862546232558e-05 1:10 11:17 13:76 16:74 25:34 45:56 53:49 65:48 76:48 89:50 93:42 105:62 124:23 156:54 199:93 226:79 273:75 276:42 303:93 338:72 388:38 399:74 #
-7.1435348395707514929580750698279e-07 1:21 3:88 4:44 11:27 14:79 25:10 27:49 30:124 60:89 63:58 90:81 104:77 135:56 150:77 182:109 244:83 250:51 259:113 280:74 388:58 471:45 #
1.9346120618454593461299148571264e-05 1:11 8:104 11:16 25:6 51:59 55:137 58:48 72:46 90:47 99:60 179:70 392:76 430:152 #
1.8022346217872162356258072812842e-05 1:5 16:22 25:19 50:45 72:47 102:40 121:29 124:21 131:84 180:214 268:55 271:110 367:64 422:124 434:73 #
1.5773998204402161848287564072102e-05 1:14 7:141 24:156 282:10 356:137 497:98 #
1.1590964339663372475184091592304e-05 1:14 6:22 8:25 15:12 16:43 25:18 44:87 46:26 60:25 80:138 137:28 169:25 178:29 237:24 268:26 287:31 337:117 419:107 484:40 #
-1.6529886154595395000670415147637e-06 1:28 25:15 50:225 55:235 68:133 75:163 88:174 114:184 180:78 263:65 301:168 439:60 448:275 466:201 489:73 #
-1.6325343904825267818175984352314e-06 57:160 180:123 231:558 282:65 333:106 397:304 478:110 #
-1.1432351186471343947124307272034e-05 1:7 9:48 11:17 25:6 38:46 46:58 47:68 50:47 60:28 72:49 78:78 80:101 91:262 124:44 390:18 #
-2.3004626536654326660015154604189e-06 1:20 11:33 25:26 28:269 52:97 69:90 108:69 110:105 174:107 254:130 256:55 279:63 310:84 342:102 495:127 #
-4.1287503669133580820778395281678e-05 22:44 25:7 91:67 180:94 278:78 467:40 #
-2.5672789736510003732366039241874e-05 1:18 11:35 16:50 25:27 54:98 63:77 69:96 104:205 124:47 180:103 263:102 369:84 450:138 #
7.4512748237839865545536349733524e-06 1:11 16:74 25:26 38:73 49:62 50:38 54:37 60:89 80:40 124:18 158:43 161:64 226:119 298:77 383:62 #
1.1096031528935961834111826110338e-06 1:9 6:107 14:54 15:14 16:26 17:109 25:21 38:50 53:103 60:91 70:38 74:52 99:70 124:48 484:97 #
-9.527988688154475436833923916724e-07 1:14 11:21 25:24 35:108 57:174 58:191 70:43 96:69 97:205 113:99 116:88 121:38 123:61 135:87 150:60 302:87 360:609 369:49 467:48 472:5 481:92 #
-7.125202004295095320886115064507e-06 1:10 25:25 57:69 93:79 121:60 133:99 189:136 190:104 208:140 251:103 253:294 276:156 #
-1.5501457817739472809406668651899e-06 66:251 82:106 97:251 100:266 203:223 272:104 319:106 #
-5.3712927094975491154236167667957e-06 1:3 25:6 58:201 60:27 67:50 68:110 70:34 78:38 85:192 102:41 117:66 192:53 246:48 268:56 296:105 306:98 336:97 406:82 407:70 441:77 #
2.2231031598421817227972593911112e-05 32:170 81:200 405:44 426:39 #
3.2990996642886522519251806667695e-06 19:405 25:43 271:179 280:306 304:71 434:31 453:138 #
1.3415848321318479940814950845951e-05 1:7 6:40 15:32 24:59 25:5 32:32 60:45 65:75 80:41 101:61 102:68 121:25 124:18 135:115 150:39 152:32 157:50 164:49 195:43 280:38 281:44 338:56 356:82 388:30 467:32 #
-9.5743464072312097764639107766449e-06 1:13 17:131 25:17 33:254 53:124 81:120 94:98 152:104 323:131 395:88 #
-1.0803862877264687556572164695012e-05 94:112 124:99 205:106 280:207 393:88 #
-4.1732556413721937402889691770547e-06 1:3 15:22 20:142 32:128 50:78 162:122 192:90 281:89 340:55 350:407 474:107 500:148 #
-0.00010915373334170125135204193478344 1:17 195:75 388:52 #
-2.3125805421758197631156017681775e-05 1:2 25:9 113:58 302:102 452:134 #
1.5814368779835590465084223243952e-06 1:28 37:326 60:156 68:312 102:234 300:527 357:67 #
8.0698665888007935733701328842593e-07 1:25 8:49 15:58 25:17 34:49 38:81 60:74 83:35 93:71 124:39 158:144 251:104 272:119 276:35 306:44 371:117 465:56 #
1.2442397878614078355209281862015e-07 9:107 16:26 25:22 36:69 42:85 50:53 56:61 60:31 92:63 95:77 124:50 147:91 180:148 221:109 245:114 251:11 266:58 276:45 365:90 490:451 #
6.5365074610398231206610797361378e-05 1:3 25:13 54:93 180:19 272:59 369:79 450:131 #
-4.0085497956373238243651252465938e-06 1:55 11:26 20:67 25:10 57:109 109:64 121:47 122:169 135:55 138:247 176:106 190:165 220:76 235:114 237:81 272:92 369:61 #
-2.9070998220129185971233928137414e-06 1:51 3:208 5:274 7:249 18:455 272:87 #
8.2338655381792577792792256485832e-06 1:5 9:49 15:13 16:24 25:20 47:70 65:48 80:52 135:108 346:128 384:70 388:188 440:85 498:242 #
4.2271810326232991096248071960506e-06 64:257 142:120 234:316 318:323 #
1.3517497205345350249803496739398e-06 1:3 6:79 15:21 25:10 51:106 83:64 113:65 124:36 268:92 286:26 354:97 498:380 #
2.6220710261417141072586706185277e-06 1:7 185:437 245:155 304:78 351:471 383:59 #
5.3017350581639996237766354614251e-05 1:15 6:56 9:55 16:27 25:15 57:40 251:57 480:79 #
-5.2073212785057502392229919485622e-06 1:29 25:16 33:59 55:121 57:43 62:59 68:68 72:60 77:59 93:49 102:51 108:42 112:85 121:37 152:97 203:60 260:192 416:143 447:96 488:111 #
-1.4012939924441864583118041998056e-05 1:8 11:26 15:20 23:72 25:10 41:94 145:169 180:155 196:205 251:137 303:108 #
-3.6769460800008971943463303294619e-06 1:26 11:13 15:30 25:25 55:265 70:54 79:56 111:37 123:38 156:39 171:87 232:57 277:47 473:58 #
4.9110343092047870669058368120474e-06 9:36 16:17 17:74 25:24 150:36 151:131 180:104 213:95 269:61 330:83 463:84 #
4.6596010224838132910210597437128e-06 1:14 6:45 15:12 17:91 25:12 89:43 93:37 102:38 124:20 135:64 180:119 191:92 202:46 261:87 298:88 348:102 #
-1.5023403037375163517671422530597e-05 1:14 15:19 25:9 31:141 102:60 114:110 135:100 177:102 180:76 268:81 #
-4.9795968107233518746244926855837e-05 1:14 2:109 455:36 #
-1.4376094144907985677007793146043e-05 1:6 25:6 28:40 70:123 150:42 165:54 192:48 266:46 270:67 340:44 477:121 #
5.8716756679024356498542043525379e-06 16:68 25:25 32:38 67:50 70:34 72:48 96:271 123:48 145:53 150:47 152:38 196:64 203:48 272:64 280:45 306:49 467:38 #
4.8303849277944749878127388142968e-06 1:8 8:53 9:45 16:22 25:18 27:29 44:91 60:27 63:103 65:44 74:91 121:29 145:52 166:52 180:74 251:94 314:204 391:46 454:59 #
-3.4707658944737468285316340371738e-06 1:29 11:9 15:7 17:26 25:34 44:25 55:129 57:18 60:15 66:87 70:55 89:25 96:29 109:22 111:25 152:21 156:54 162:117 171:59 175:49 176:36 178:34 273:38 282:107 353:50 369:41 373:257 433:89 445:49 449:93 462:25 #
9.8526897025986657759153569680066e-06 1:4 15:46 25:15 26:71 45:127 49:93 89:56 92:66 95:81 124:52 147:95 163:79 175:55 180:35 274:73 329:81 #
4.648986127634764849993979224374e-06 1:16 15:16 16:29 25:16 26:73 47:83 49:96 57:43 65:56 70:43 78:47 175:227 181:109 348:64 391:58 412:85 463:136 #
5.7729290813413271332390141674096e-07 1:11 15:83 49:248 217:64 248:462 372:75 400:76 #
-1.5779306465373280543487005678216e-05 1:33 11:8 15:18 24:17 92:26 116:99 122:51 150:22 162:34 175:22 176:32 192:25 247:51 253:70 277:29 388:17 425:69 #
-2.4697833511179077375626358947791e-06 1:9 25:21 69:50 74:53 113:44 145:60 180:35 224:98 243:99 281:59 313:92 368:89 377:92 452:52 473:83 #
5.4874368179564672837276312344912e-07 1:15 16:51 25:28 50:103 60:61 89:103 102:91 411:126 419:171 #
3.7928449519666331862701846161512e-06 1:15 16:19 24:149 25:11 44:39 60:137 68:182 80:41 81:37 102:68 124:18 266:85 339:78 344:50 361:161 #
1.0739429929118520743456036137253e-05 1:7 6:48 9:47 16:23 24:72 25:19 38:46 54:46 60:28 89:47 90:50 124:66 223:79 266:103 280:46 392:81 #
-3.4800178428391223575092024156152e-06 1:45 15:110 24:61 25:11 50:80 76:78 111:81 118:177 121:103 138:89 242:117 256:56 270:128 281:91 301:169 394:132 438:195 #
-4.5381520132470129247912252190567e-06 1:27 10:45 11:19 15:30 21:51 25:30 32:45 43:51 57:41 63:42 74:55 83:46 89:164 105:68 108:159 118:61 121:70 150:56 152:91 165:71 222:59 246:57 253:116 279:140 403:62 424:104 445:107 #
3.6076229884492211537078826255609e-05 1:7 14:65 15:17 16:16 25:13 60:37 72:33 93:53 180:58 251:116 268:38 330:77 363:73 388:24 #
9.9525263027223004791465069129863e-06 56:201 155:78 172:270 479:34 #
1.5356492846020626888165622192517e-05 1:3 6:85 25:11 54:80 60:49 180:85 228:102 320:86 #
-9.1165182333160392681324288299827e-06 1:32 18:36 24:195 25:4 57:63 63:21 75:41 107:45 108:21 122:32 134:53 137:148 152:71 156:31 202:30 222:152 232:44 244:124 260:47 317:9 #
-2.6954105248446427411609417623684e-07 1:11 25:34 28:59 31:131 44:63 49:52 67:136 70:46 74:63 77:255 108:45 109:54 121:120 143:235 145:72 174:71 180:68 202:132 305:99 358:70 397:88 416:77 451:194 467:103 #
1.4850775390881119306920807310313e-05 1:9 14:55 24:41 25:14 47:76 49:88 65:52 78:43 96:63 124:25 131:98 286:59 #
1.1084562869219852080694688201135e-05 1:15 15:48 25:6 26:56 42:70 60:77 89:44 92:52 102:78 124:20 150:45 219:84 237:97 251:13 258:57 276:74 341:53 #
3.6709695546476683630622377639552e-07 25:25 357:46 363:423 #
-4.7421308930718555286662994896485e-06 1:39 3:196 4:198 11:59 16:42 27:54 30:207 32:138 60:50 104:86 171:100 282:121 #
-1.9072232386280081680194698270925e-06 1:12 2:124 16:55 25:15 115:66 154:200 282:109 287:322 433:53 #
-9.0956877049760024791938764487931e-06 1:9 11:34 25:20 63:74 70:36 97:57 121:31 141:67 156:53 159:76 165:64 178:66 241:76 460:69 #
4.0829451338182537749495193413196e-06 288:529 304:111 #
2.1146633362823997680202906673808e-06 1:5 8:65 9:19 16:55 25:28 34:44 49:15 62:19 70:14 93:16 160:60 166:78 193:41 244:20 257:161 272:113 283:89 294:61 306:19 317:83 362:91 369:31 379:25 453:55 #
-7.9113378092987379331079951863548e-08 1:14 15:113 25:28 111:208 118:227 121:132 180:56 231:264 242:299 382:76 #
-4.4547211104846114965112374370348e-07 1:3 25:22 67:268 86:147 117:117 119:318 192:94 218:68 251:96 301:44 303:108 325:171 380:175 467:68 #
-8.2799549184062895937667118234637e-07 1:4 11:36 25:14 36:65 55:52 57:37 58:55 70:37 86:90 89:50 116:151 117:215 119:195 145:58 169:58 180:91 215:190 272:40 380:322 409:68 416:62 424:96 450:69 500:95 #
-2.2146853061699876607853684773453e-06 1:9 20:38 22:38 25:6 35:78 41:109 67:92 70:31 80:45 91:58 150:86 167:77 169:48 200:54 222:45 402:186 410:75 427:57 467:35 473:67 496:52 #
5.3914975989022297821868200118356e-07 45:206 50:182 179:70 272:149 387:124 390:183 418:372 #
1.5573942822518126445998677687133e-06 1:13 17:96 19:178 25:6 39:60 72:95 106:92 150:47 190:51 274:60 383:101 475:95 #
5.3253582510940640048612698675967e-07 1:2 14:166 16:26 19:277 25:15 32:44 34:63 36:69 37:66 40:67 44:54 124:50 283:88 317:121 437:46 450:73 #
1.6242795592959290904000718008815e-06 1:11 6:104 16:50 25:27 50:100 120:147 248:155 276:85 404:98 #
1.5636247755563180362927550026697e-06 1:9 8:91 11:9 16:51 25:3 32:42 39:33 44:51 46:63 60:45 90:83 106:134 135:38 150:26 201:34 246:27 321:136 343:185 365:77 473:41 #
4.6634050322836160038094885371684e-06 1:6 6:54 15:7 16:13 25:18 32:21 34:31 38:25 40:33 45:30 47:38 49:22 60:15 63:20 81:100 90:56 106:141 124:12 142:31 150:27 160:42 180:78 252:44 266:29 268:31 280:26 309:68 #
1.856498281398453555123082697742e-06 1:9 8:24 14:21 15:39 16:30 24:63 25:6 27:13 32:33 39:27 44:20 46:75 51:47 54:20 60:60 69:19 76:20 81:20 83:17 89:41 93:35 121:13 124:9 144:172 155:54 193:67 202:22 265:90 267:35 282:67 450:28 454:26 496:50 #
-3.4518598366702031015072543382316e-07 1:14 11:42 16:20 20:145 25:22 31:42 57:30 70:29 73:56 74:81 75:58 96:47 100:49 107:127 117:342 121:52 135:59 236:73 275:147 276:34 310:76 336:144 401:68 465:33 467:33 #
-1.8493174226667148373117876159616e-07 1:8 21:37 25:32 26:101 31:42 35:110 41:102 49:66 52:41 57:236 59:90 69:38 77:162 88:245 100:49 108:58 113:168 122:46 143:100 174:45 204:71 286:30 299:93 301:45 369:66 456:59 461:98 467:33 482:70 485:554 #
-2.2217379410130988714550072035681e-07 1:7 13:32 20:191 22:39 25:29 35:156 57:31 58:229 63:64 72:44 81:41 96:100 97:296 109:37 169:48 180:35 200:54 231:55 322:120 345:84 347:67 369:35 382:133 396:73 399:63 429:76 467:35 487:76 #
-5.2804156354726172788140918599314e-08 1:4 11:23 15:6 20:59 22:20 25:12 38:42 55:23 57:145 65:21 67:47 75:63 79:33 80:23 86:39 105:27 107:69 139:81 141:30 165:28 175:21 176:31 186:55 224:41 227:42 237:24 275:40 276:18 278:35 289:50 292:44 306:23 323:93 328:39 350:75 391:22 414:40 432:43 467:18 477:63 491:43 496:27 500:41 #
1.5112799233085998868776102244116e-07 9:98 16:96 17:102 25:27 164:123 262:57 320:96 490:207 #
1.6065549433626500957714156037071e-07 1:24 15:30 24:138 25:34 40:45 44:36 60:148 64:53 72:37 81:69 180:50 276:30 287:52 476:52 #
