SVM-light Version V6.02
0 # kernel type
3 # kernel parameter -d 
1 # kernel parameter -g 
1 # kernel parameter -s 
1 # kernel parameter -r 
empty# kernel parameter -u 
2000 # highest feature index 
300 # number of training documents 
207 # number of support vectors plus 1 
-0.065029351 # threshold b, each following line is a SV (starting with alpha*y)
-0.38750956311075290816603455823497 1:0.063827708 4:0.14483981 11:0.06996499 13:0.30195415 15:0.040506046 16:0.024549119 25:0.027004031 28:0.046643324 30:0.12029068 32:0.12029068 54:0.047870781 55:0.051553149 58:0.052780606 59:0.11169849 69:0.094514109 70:0.036823679 77:0.050325692 90:0.15956928 97:0.05769043 110:0.055235516 112:0.072419904 174:0.055235516 177:0.14606726 190:0.11047103 204:0.088376828 313:0.087149374 386:0.098196477 465:0.11660831 467:0.081012093 502:0.066282623 516:0.082239546 540:0.17307128 551:0.030686399 672:0.1227456 677:0.11538086 784:0.039278589 800:0.079784639 846:0.12642796 909:0.10187884 1080:0.039278589 1227:0.06996499 1279:0.018411839 1283:0.079784639 1296:0.09942393 1323:0.20498514 1334:0.079784639 1336:0.096969016 1364:0.045415871 1400:0.37682897 1440:0.20130277 1465:0.11660831 1493:0.094514109 1513:0.049098238 1519:0.0024549118 1575:0.041733503 1596:0.53148842 1908:0.11660831 #
-0.034120620303505468096094688235098 1:0.086372919 2:0.25184524 3:0.4218635 4:0.16001719 5:0.069098331 7:0.12546803 10:0.074553467 13:0.070007525 15:0.10001075 27:0.05818807 33:0.092737235 43:0.083645351 53:0.090009674 60:0.21365932 97:0.10546587 119:0.088191293 124:0.042731863 225:0.14001505 240:0.21547769 287:0.3909511 341:0.10910263 358:0.094555616 499:0.10728426 665:0.16910908 732:0.16365394 734:0.21456851 894:0.069098331 1003:0.11273938 1030:0.026366469 1127:0.10637507 1168:0.048186995 1298:0.076371841 1373:0.050005373 1442:0.1036475 1587:0.070007525 1598:0.070007525 1599:0.11637614 1668:0.10182912 1768:0.15547125 1781:0.1436518 1791:0.2873036 1922:0.060915638 1943:0.15092531 #
0.33928817141598799356216886735638 16:0.053892184 25:0.045199897 26:0.13733815 49:0.090399794 135:0.079969049 158:0.2503379 272:0.10952283 354:0.15819964 376:0.42766055 400:0.27119938 417:0.17036884 418:0.44504511 430:0.18775341 551:0.067799844 602:0.14603043 877:0.12690739 936:0.11647666 956:0.12169202 1013:0.16689192 1200:0.17036884 1305:0.10604591 1421:0.088661335 1493:0.43113747 1633:0.10430745 #
-1 1:0.011607653 11:0.012574957 15:0.0096730441 20:0.064809397 25:0.014509566 26:0.045463305 59:0.040626783 78:0.029019132 94:0.050299827 108:0.026117219 121:0.04643061 180:0.10156696 220:0.051267132 222:0.038692176 242:0.10446887 244:0.039659481 246:0.074482441 335:0.058038265 358:0.064809397 375:0.082220875 382:0.10446887 514:0.042561393 581:0.043528698 756:0.088024698 784:0.028051827 981:0.050299827 1196:0.099632353 1254:0.16734366 1283:0.057070959 1314:0.052234437 1345:0.043528698 1364:0.032888349 1371:0.07061322 1421:0.17508209 1442:0.11607653 1493:0.38208523 1504:0.087057397 1544:0.050299827 1558:0.14799757 1575:0.029986436 1597:0.13832453 1611:0.059972871 1624:0.033855654 1633:0.034822959 1636:0.082220875 1639:0.063842088 1662:0.75256282 1766:0.1093054 1879:0.1538014 #
-0.12791309314688412146487905829417 1:0.0079252385 11:0.027172245 21:0.023775715 22:0.046419252 25:0.058873199 27:0.015850477 28:0.023775715 31:0.079252385 32:0.040758368 40:0.031700954 58:0.027172245 59:0.086045444 63:0.05774102 65:0.024907891 67:0.05434449 69:0.023775715 86:0.090574153 97:0.029436599 100:0.092838503 105:0.062269729 108:0.091706328 109:0.044154897 110:0.083781086 116:0.037361838 119:0.024907891 121:0.015850477 123:0.18454483 128:0.049815781 138:0.056608845 140:0.091706328 143:0.031700954 145:0.029436599 150:0.05094796 152:0.021511361 160:0.040758368 171:0.030568777 177:0.079252385 187:0.037361838 192:0.029436599 196:0.035097484 222:0.05434449 231:0.065666258 239:0.035097484 242:0.037361838 253:0.027172245 259:0.037361838 263:0.063401908 272:0.11208551 276:0.043022722 281:0.028304422 289:0.029436599 292:0.05094796 305:0.039626192 308:0.046419252 350:0.044154897 369:0.021511361 379:0.067930616 385:0.046419252 388:0.019247007 397:0.035097484 399:0.037361838 401:0.043022722 413:0.076988026 424:0.048683606 435:0.10982116 442:0.093970679 451:0.039626192 460:0.035097484 467:0.020379184 487:0.045287076 496:0.030568777 506:0.048683606 510:0.041890543 515:0.097367212 521:0.043022722 522:0.076988026 540:0.018114829 541:0.033965308 550:0.036229659 556:0.038494013 576:0.043022722 581:0.030568777 588:0.05094796 590:0.038494013 592:0.033965308 594:0.05774102 640:0.063401908 668:0.052080136 670:0.047551431 681:0.083781086 728:0.043022722 736:0.039626192 784:0.039626192 891:0.35550353 895:0.031700954 916:0.064534083 978:0.053212315 989:0.064534083 991:0.048683606 1003:0.067930616 1004:0.048683606 1048:0.10755681 1085:0.13472904 1090:0.031700954 1156:0.030568777 1214:0.030568777 1232:0.037361838 1242:0.046419252 1262:0.18341266 1264:0.049815781 1282:0.11661422 1292:0.030568777 1300:0.044154897 1303:0.063401908 1320:0.55816323 1342:0.10982116 1343:0.055476665 1346:0.043022722 1355:0.026040068 1356:0.049815781 1364:0.046419252 1416:0.035097484 1421:0.082648911 1422:0.13586123 1469:0.096235037 1493:0.13699341 1509:0.039626192 1519:0.097367212 1535:0.028304422 1544:0.036229659 1557:0.18567701 1575:0.021511361 1579:0.096235037 1580:0.031700954 1637:0.039626192 1704:0.10755681 1745:0.063401908 1747:0.063401908 1932:0.08038456 #
1 1:0.062316328 4:0.088102393 11:0.053720973 16:0.14826989 25:0.081655882 30:0.12248382 89:0.14826989 121:0.096697748 150:0.15256757 174:0.16975828 240:0.17620479 381:0.1547164 388:0.1160373 499:0.13322802 514:0.17620479 519:0.30513513 599:0.12033498 602:0.19984202 784:0.11818614 912:0.11173962 1020:0.17620479 1112:0.28364673 1127:0.088102393 1168:0.46629804 1208:0.10529311 1348:0.26215833 1371:0.14826989 1493:0.24926531 1558:0.047274455 1619:0.25356299 #
0.87888430301424391721809570299229 1:0.0039194389 16:0.013718036 17:0.058791582 25:0.019597193 38:0.027436072 50:0.055852003 60:0.049972843 63:0.021556914 80:0.03037565 124:0.026456213 135:0.020577054 180:0.14305952 240:0.03331523 389:0.11660331 502:0.038214527 524:0.10680471 540:0.019597193 549:0.028415931 587:0.036254808 784:0.022536773 951:0.10582485 1340:0.11072414 1654:0.38606474 1679:0.86913556 1864:0.061731163 1935:0.065650597 #
0.61760101120171306821049483914976 1:0.024207268 9:0.053676985 11:0.0094724093 12:0.023154778 13:0.021049798 15:0.073674291 16:0.013682368 17:0.055781964 25:0.025259757 26:0.10209152 32:0.044204574 33:0.027364736 38:0.052624494 42:0.043152086 45:0.030522207 49:0.066306867 50:0.026312247 56:0.030522207 60:0.063149393 69:0.025259757 78:0.022102287 96:0.031574696 101:0.042099595 109:0.023154778 124:0.025259757 142:0.033679675 150:0.027364736 156:0.057886943 171:0.031574696 221:0.054729473 246:0.083146699 266:0.029469717 276:0.023154778 281:0.030522207 388:0.062096905 453:0.08419919 495:0.10840646 496:0.032627188 540:0.056834456 551:0.016839838 557:0.069464333 582:0.069464333 586:0.067359351 587:0.069464333 597:0.018944819 710:0.052624494 902:0.16208345 1014:0.1557685 1071:0.081041723 1072:0.099986538 1127:0.055781964 1174:0.76200271 1179:0.19050068 1371:0.026312247 1391:0.050519515 1493:0.13682368 1497:0.037889637 1505:0.033679675 1512:0.10840646 1513:0.18839569 1520:0.069464333 1536:0.033679675 1558:0.069464333 1566:0.047362044 1575:0.022102287 1591:0.11261642 1599:0.10735397 1621:0.045257065 1626:0.10735397 1640:0.13892867 1659:0.21365544 1665:0.0726218 1893:0.063149393 #
0.49169818556588457125755553533963 1:0.029257629 8:0.18042204 16:0.025356611 25:0.013653561 32:0.16676849 34:0.060465768 38:0.099475935 56:0.058515258 60:0.11995628 93:0.042911191 124:0.023406103 158:0.058515258 193:0.11215425 266:0.056564748 306:0.053638987 321:0.10142644 344:0.06631729 388:0.039010171 519:0.051688477 540:0.03608441 551:0.03218339 795:0.038034916 1127:0.014628815 1171:0.073144071 1225:0.19017459 1277:0.07021831 1493:0.18432306 1519:0.07021831 1582:0.041935936 1599:0.029257629 1608:0.079970852 1614:0.03608441 1673:0.87382787 #
0.47039621505020101643879115727032 1:0.022715224 8:0.062737286 15:0.014061805 24:0.041103739 25:0.014061805 46:0.12980127 50:0.10600438 60:0.12439289 63:0.04002206 89:0.05300219 144:0.26933765 151:0.29313454 191:0.11249444 223:0.088697538 237:0.058410574 426:0.099514313 501:0.11249444 551:0.033531997 581:0.063818961 993:0.091942571 1312:0.048675478 1337:0.071390703 1371:0.05300219 1377:0.080044121 1392:0.15576154 1493:0.27258268 1614:0.074635737 1677:0.030286964 1680:0.060573928 1762:0.74635732 1828:0.13629134 1842:0.069227345 1882:0.064900637 1890:0.12980127 #
-0.20691929957872579048938632695354 1:0.0070806369 13:0.032368626 20:0.19320023 22:0.039449263 25:0.029334066 35:0.15779705 57:0.031357106 58:0.23163797 63:0.064737253 72:0.044506859 81:0.041472301 96:0.10115195 97:0.29940978 109:0.037426222 169:0.048552938 180:0.035403185 200:0.054622054 231:0.055633575 322:0.12138234 345:0.084967643 347:0.067771807 369:0.035403185 382:0.13453209 396:0.073840924 399:0.063725732 429:0.076875485 467:0.035403185 487:0.076875485 519:0.043495338 524:0.16487768 525:0.54318601 744:0.11834779 758:0.11227867 852:0.090025239 855:0.10317499 975:0.12745146 1127:0.012138234 1172:0.04046078 1271:0.10216347 1350:0.077887006 1440:0.10418651 1453:0.047541417 1493:0.51688647 1617:0.055633575 1627:0.069794849 #
-1 1:0.023656981 14:0.17821592 16:0.085165136 25:0.045736831 38:0.16717601 54:0.16559887 60:0.30123222 124:0.080433734 180:0.22079849 266:0.18767872 268:0.2066043 319:0.20029578 465:0.2649582 530:0.058353886 540:0.24130121 707:0.12617056 922:0.13721049 981:0.24287835 1091:0.1182849 1278:0.14351901 1361:0.12932484 1440:0.21922135 1493:0.16402173 1497:0.045736831 1512:0.45894542 1513:0.17033027 1569:0.17506166 1614:0.12143917 #
-1 1:0.033467039 9:0.081277095 11:0.028686034 15:0.13227448 16:0.079683423 25:0.033467039 30:0.19761489 31:0.084464431 32:0.065340407 36:0.10358845 46:0.098807447 81:0.076496087 83:0.066934079 90:0.17370987 102:0.071715079 109:0.070121415 119:0.078089759 124:0.038248044 134:0.14024283 174:0.090839103 201:0.10677579 280:0.078089759 369:0.13386816 388:0.062153071 473:0.12749349 492:0.14821117 525:0.25498697 573:0.081277095 581:0.293235 591:0.12271248 611:0.095620111 651:0.12271248 946:0.43188417 1018:0.11952513 1122:0.13546182 1253:0.22151992 1345:0.097213775 1356:0.15777318 1397:0.15458584 1493:0.073308751 1513:0.079683423 1522:0.24223761 1618:0.29482868 1619:0.071715079 1624:0.076496087 1883:0.20080224 #
-0.72604142422058548511643039091723 1:0.017767817 25:0.017767817 28:0.11845211 70:0.36424026 150:0.12437472 165:0.15991035 192:0.14214253 266:0.13621993 270:0.19840729 340:0.13029732 477:0.35831764 564:0.17767817 651:0.22209771 771:0.26355594 822:0.21617511 876:0.24874943 977:0.2072912 1030:0.13621993 1335:0.23986553 1429:0.28724638 1497:0.20432989 1536:0.15398775 1559:0.10068429 1599:0.22802031 #
-1 1:0.020084281 195:0.088607118 388:0.061434269 540:0.11223569 616:0.064978555 959:0.10278426 1091:0.055527128 1109:0.053164274 1142:0.055527128 1258:0.061434269 1413:0.15712996 1432:0.06734141 1442:0.12404997 1493:0.12286854 1545:0.33552563 1599:0.19729853 1617:0.10396568 1619:0.11932425 1989:0.84353977 #
0.68774570782181609907013353222283 1:0.018473122 14:0.2184175 19:0.27166355 24:0.08041241 25:0.02825301 44:0.31621638 68:0.12387858 106:0.10540546 153:0.20320433 170:0.14887163 180:0.069545873 268:0.12605189 369:0.26188368 537:0.10866542 538:0.054332711 573:0.10649211 594:0.08041241 679:0.53789383 1059:0.14561166 1329:0.0097798882 1364:0.095625572 1424:0.048899438 1440:0.13474512 1442:0.17060471 1493:0.35316262 1519:0.10105884 1559:0.086932339 1622:0.058679327 1627:0.085845686 1642:0.071719177 1644:0.14343835 1657:0.10323215 #
1 1:0.029824251 7:0.30037281 24:0.33232737 282:0.021303035 356:0.29185158 497:0.20876975 633:0.19172733 941:0.13846974 1091:0.30037281 1112:0.25563642 1127:0.12781821 1194:0.10864548 1237:0.059648503 1493:0.50062132 1519:0.20663945 1575:0.36428192 #
0.75375830862814530153315217830823 44:0.22100013 90:0.23647015 288:0.45857531 537:0.11381508 867:0.083980054 1112:0.071825042 1146:0.14033508 1260:0.18674512 1357:0.074035048 1421:0.18011512 1440:0.38343525 1453:0.088400058 1459:0.57239038 1493:0.21879014 1558:0.070720047 1595:0.087295055 1829:0.12928508 1976:0.087295055 #
0.68954754299537679429477066150866 1:0.0024769441 14:0.20558636 16:0.032200273 19:0.34305674 25:0.01857708 32:0.054492768 34:0.078023739 36:0.085454568 37:0.08173915 40:0.082977623 44:0.066877492 124:0.061923601 283:0.10898554 317:0.14985511 437:0.056969713 450:0.090408459 715:0.10155471 886:0.10650859 898:0.13003956 1406:0.084216096 1440:0.14118581 1493:0.69230586 1524:0.15604748 1540:0.33934134 1565:0.10898554 1577:0.21177872 1599:0.10650859 1614:0.047061935 #
0.39827879077458527845578828419093 1:0.045217235 11:0.021923507 15:0.0356257 16:0.063030079 17:0.067140743 25:0.043847013 32:0.05206833 36:0.082213148 38:0.061659861 42:0.10276644 50:0.19046046 60:0.11235797 81:0.12194951 92:0.075362056 96:0.15072411 102:0.11235797 170:0.090434469 184:0.1137282 217:0.20416266 258:0.1644263 272:0.1068771 276:0.1068771 285:0.21238397 307:0.11783885 507:0.075362056 537:0.065770522 540:0.045217235 585:0.082213148 593:0.10276644 594:0.04795767 844:0.19457112 898:0.18772003 969:0.1068771 981:0.090434469 1091:0.043847013 1105:0.17675827 1127:0.075362056 1249:0.13017082 1260:0.10276644 1270:0.15072411 1277:0.087694027 1402:0.19731157 1440:0.46313408 1448:0.16716674 1493:0.36721873 1599:0.21101375 1624:0.060289644 #
-1 1:0.018676447 15:0.025346607 25:0.012006287 31:0.18809851 102:0.080041915 114:0.14674352 135:0.1334032 177:0.13607126 180:0.10138643 268:0.10805659 527:0.15207964 594:0.068035632 600:0.14140739 988:0.13473722 1127:0.026680639 1243:0.068035632 1473:0.12006287 1493:0.8804611 1553:0.12806706 #
-1 1:0.0028900679 25:0.013005305 113:0.083811969 302:0.14739345 452:0.19363454 520:0.14305836 585:0.25721604 684:0.17484911 723:0.37715384 826:0.13583319 931:0.21097495 1089:0.056356322 1188:0.053466253 1279:0.050576188 1294:0.072251692 1440:0.32802269 1493:0.45374066 1497:0.23698556 1519:0.1661789 1552:0.067916594 1598:0.17629413 1599:0.26299617 1705:0.19941467 1889:0.23554052 #
-0.93029895671507067955730008179671 1:0.010711121 20:0.045224734 22:0.045224734 25:0.0071407473 35:0.092829719 41:0.12972358 67:0.10949146 70:0.036893863 80:0.053555604 91:0.069027223 150:0.10235071 167:0.091639593 169:0.057125978 200:0.064266726 222:0.053555604 402:0.22136317 410:0.089259341 427:0.067837097 467:0.04165436 473:0.079738349 496:0.061886478 515:0.19399031 579:0.35108674 672:0.12496308 674:0.1213927 677:0.11782233 724:0.20708168 769:0.094019838 770:0.10592109 834:0.088069215 854:0.12258283 912:0.076167971 1008:0.10711121 1134:0.073787726 1147:0.082118593 1195:0.069027223 1207:0.14400508 1413:0.055935856 1440:0.082118593 1493:0.61410427 1499:0.076167971 1519:0.1451952 1526:0.017851869 1556:0.071407475 1570:0.088069215 1588:0.083308719 1611:0.042844485 1627:0.040464234 1628:0.080928467 1765:0.15828657 1772:0.15828657 1867:0.082118593 #
-1 1:0.036847718 3:0.1544095 4:0.077204749 11:0.047375638 14:0.1386176 25:0.017546533 27:0.085978009 30:0.21757701 60:0.15616414 63:0.10176989 90:0.14212692 104:0.13510831 135:0.098260589 150:0.13510831 182:0.19125721 244:0.14563623 250:0.089487322 259:0.19827582 280:0.12984435 388:0.10176989 471:0.078959398 573:0.13510831 701:0.24565147 926:0.1544095 1083:0.21933167 1085:0.16669206 1371:0.13159899 1406:0.16844672 1440:0.2140677 1493:0.60711002 1622:0.11931643 #
-1 66:0.38131809 82:0.16103473 97:0.38131809 100:0.40410602 203:0.33878061 272:0.15799634 319:0.16103473 1068:0.075959779 1096:0.12457404 1440:0.19749542 1493:0.53475684 1582:0.089632533 #
1 1:0.0067178844 25:0.029110834 54:0.20825443 180:0.042546604 272:0.1321184 369:0.17690429 450:0.29334763 537:0.11196475 540:0.15003276 560:0.19705795 858:0.21049371 1091:0.14779346 1440:0.096289679 1494:0.28662974 1512:0.57325947 1599:0.40979096 1601:0.033589423 1614:0.15003276 1619:0.2597582 #
-0.015112592890257075736726299908241 1:0.0074483976 21:0.067035578 25:0.039370101 31:0.30538431 32:0.11917436 74:0.14683984 82:0.16812098 108:0.10640568 122:0.08406049 123:0.15216012 143:0.36603555 165:0.18940212 180:0.13407116 322:0.10002134 445:0.14258361 521:0.12236653 545:0.092572942 558:0.13939144 574:0.079804264 840:0.15854447 874:0.07554803 905:0.17556937 1048:0.41285405 1076:0.1574804 1189:0.14896795 1232:0.10746974 1280:0.11598219 1344:0.1404555 1406:0.092572942 1493:0.32666543 1497:0.10108539 1513:0.14577578 1559:0.060651239 1582:0.12449465 1726:0.0074483976 1913:0.18195371 1987:0.068099633 #
0.711714838288970530477683951176 9:0.12563385 16:0.030527852 25:0.02583126 36:0.08101622 42:0.099802591 50:0.062229853 56:0.071623035 60:0.036398593 92:0.073971331 95:0.090409406 124:0.058707409 147:0.10684748 180:0.17377393 221:0.12798215 245:0.13385288 251:0.01291563 266:0.068100594 276:0.052836668 365:0.10567334 490:0.52954084 540:0.044617631 585:0.08101622 685:0.13385288 912:0.046965927 998:0.14324607 1124:0.045791779 1245:0.075145483 1329:0.091583557 1371:0.062229853 1383:0.10567334 1424:0.091583557 1453:0.11741482 1493:0.03874689 1497:0.071623035 1627:0.10215089 1669:0.15616171 1770:0.64108491 1872:0.092757702 #
-0.69404681136026624699297826737165 1:0.0248494 25:0.02360693 31:0.37025604 55:0.36777112 57:0.13045934 75:0.25470635 102:0.15655121 250:0.06460844 304:0.12176206 548:0.0745482 551:0.11057983 587:0.22737201 750:0.15779369 960:0.085730426 1091:0.12300453 1200:0.27831328 1361:0.03851657 1365:0.33546689 1373:0.07206326 1424:0.090700306 1440:0.01987952 1493:0.51810998 1557:0.05342621 1569:0.05591115 1585:0.06709338 #
0.18651601881564960905279804137535 1:0.024337061 6:0.11898118 9:0.11627707 15:0.032449413 25:0.016224707 65:0.11357295 89:0.11492501 101:0.1811759 124:0.10816471 261:0.19469649 262:0.20145679 268:0.13926207 293:0.20821707 311:0.15819089 440:0.60842651 537:0.059490591 563:0.27852413 573:0.11762913 782:0.25013089 1075:0.24877883 1127:0.067602947 1208:0.17847177 1295:0.055434417 1379:0.075715296 1440:0.097348243 1486:0.26770768 1535:0.13250178 #
-0.73942934644654600973012747999746 1:0.022876527 25:0.014869743 55:0.11552647 61:0.19216284 63:0.084643155 230:0.11438264 256:0.15670422 551:0.138403 608:0.3465794 839:0.14412212 982:0.075492546 1127:0.065198101 1208:0.058335148 1440:0.1166703 1483:0.097225241 1490:0.093793765 1622:0.049184535 1749:0.45867437 1840:0.62338537 1899:0.31226462 #
-0.85222603307475908174239975778619 1:0.039718393 11:0.088024542 15:0.03435104 25:0.01717552 30:0.10197965 32:0.10197965 82:0.080510251 124:0.057967383 171:0.29735121 182:0.10305312 187:0.18463685 250:0.12774293 272:0.062261261 388:0.096612304 391:0.12666947 532:0.13418375 611:0.12237559 659:0.097685777 753:0.067628615 1127:0.11056741 1208:0.050453093 1440:0.10197965 1442:0.12022864 1455:0.14491846 1464:0.066555142 1493:0.00107347 1497:0.055820443 1575:0.10520007 1599:0.051526561 1604:0.026836751 1719:0.79114741 1886:0.15565315 #
-0.62528258768688804725144336771336 1:0.032896407 11:0.060071699 13:0.19451788 15:0.070083648 16:0.041478079 25:0.022884456 30:0.13873702 76:0.082956158 80:0.090107553 87:0.10298005 124:0.040047798 132:0.13873702 171:0.1001195 180:0.28319517 190:0.094398387 205:0.16734259 235:0.13015535 374:0.17306371 388:0.13015535 514:0.1001195 530:0.14302786 549:0.085816711 602:0.2274143 738:0.068653367 866:0.17306371 1080:0.067223094 1127:0.1001195 1262:0.17020315 1321:0.075804763 1329:0.16019119 1353:0.065792814 1410:0.14159758 1412:0.047199193 1440:0.1330159 1453:0.22598401 1518:0.31752184 1576:0.095828667 1622:0.075804763 1661:0.18879677 1720:0.080095597 1771:0.16734259 1788:0.4476772 1838:0.112992 1973:0.011442228 #
-0.42404196303409436019649092486361 1:0.02678418 11:0.044193897 25:0.034819435 28:0.36024722 52:0.12990327 69:0.12052881 108:0.092405416 110:0.14061694 174:0.14329536 254:0.17409717 256:0.073656492 279:0.084370166 310:0.11249355 342:0.13659932 495:0.17007954 537:0.065621242 560:0.061603613 814:0.24239683 912:0.17409717 1213:0.080352537 1439:0.59728718 1440:0.18882847 1443:0.19820292 1474:0.097762257 1478:0.22766553 1493:0.074995704 1497:0.14463457 1560:0.15400903 1611:0.10713672 1634:0.15668745 #
-1 1:0.0037572337 15:0.027553048 20:0.17784239 32:0.16030864 50:0.097688079 162:0.15279417 192:0.11271701 281:0.1114646 340:0.068882622 350:0.50973135 474:0.13400801 500:0.18535687 545:0.24797744 560:0.14903694 595:0.12398872 606:0.29431665 638:0.075144678 974:0.30809316 1020:0.23044367 1061:0.17533758 1127:0.028805459 1132:0.19412374 1277:0.13400801 1440:0.075144678 1490:0.12398872 1493:0.14277488 1593:0.24797744 1594:0.048844039 1599:0.18410446 2000:0.035067514 #
1 1:0.017304271 14:0.16068251 15:0.042024657 16:0.039552618 25:0.032136504 60:0.091465428 72:0.081577279 93:0.13101806 180:0.14337824 251:0.28675649 268:0.093937472 330:0.19034699 363:0.18045883 388:0.059328929 540:0.05438485 708:0.13101806 784:0.061800968 895:0.09888155 1080:0.061800968 1107:0.27934039 1127:0.069217086 1216:0.1409062 1345:0.093937472 1493:0.65014619 1514:0.1532664 1537:0.11124174 1542:0.11124174 1602:0.091465428 1611:0.1977631 1658:0.23484367 1807:0.17551474 #
1 9:0.056916159 16:0.026877075 17:0.11699433 25:0.037944108 150:0.056916159 151:0.20711158 180:0.16442446 213:0.15019542 269:0.096441269 330:0.13122337 463:0.13280438 566:0.11225132 594:0.042687122 820:0.25296071 984:0.075888216 1077:0.14861442 1079:0.16758648 1156:0.066402189 1232:0.16442446 1236:0.27193275 1384:0.20236857 1404:0.13438538 1421:0.04584913 1493:0.69089895 1519:0.17232949 1599:0.12648036 1610:0.079050221 1626:0.0015810045 1945:0.10434629 #
0.56900251788293687571496093369205 6:0.09458182 9:0.18465975 25:0.012385715 47:0.13286494 78:0.075440265 90:0.099085718 120:0.26910779 124:0.042787015 135:0.067558445 151:0.17002209 228:0.16777013 280:0.090077922 366:0.095707797 1073:0.1384948 1414:0.038283117 1415:0.46390131 1424:0.10133766 1434:0.32540649 1493:0.58888441 1558:0.0078818183 1598:0.066432469 1599:0.25334418 1619:0.05517273 #
0.49617557254459715432304278692754 1:0.016311089 8:0.11269479 11:0.016311089 16:0.071175657 25:0.01927674 39:0.062278699 49:0.07858979 51:0.15866241 70:0.035587829 80:0.10231501 100:0.11714327 142:0.27580568 143:0.059313048 172:0.14679979 180:0.060795873 274:0.062278699 283:0.26097742 914:0.13048871 1003:0.03855348 1112:0.27135721 1184:0.007414131 1335:0.13790284 1480:0.044484787 1493:0.46709025 1513:0.047450438 1519:0.10379783 1542:0.068210006 1543:0.0088969572 1568:0.068210006 1591:0.066727176 1598:0.11566044 1599:0.065244354 1721:0.39443177 1733:0.097866528 1735:0.097866528 1777:0.020759568 1787:0.041519135 1985:0.11714327 1993:0.42112264 #
0.16248209843823749332081263219152 6:0.14360711 9:0.13925539 17:0.14505769 25:0.0188575 47:0.20017962 78:0.113145 124:0.06527596 320:0.10154039 463:0.32928097 472:0.2204877 573:0.28286251 669:0.12910135 720:0.11604615 869:0.17551981 956:0.14795884 1015:0.10154039 1023:0.20308077 1059:0.19292673 1063:0.20163019 1248:0.10299096 1379:0.062374808 1421:0.34088558 1474:0.056572501 1493:0.48449269 1598:0.23064174 #
-0.92934274050273013578760128439171 1:0.02025489 11:0.039384507 16:0.056263585 25:0.030382335 54:0.11027662 63:0.086645916 69:0.10802608 104:0.23068069 124:0.052887768 180:0.11590298 263:0.11477771 369:0.094522819 450:0.15528749 540:0.15978858 594:0.17216657 691:0.055138312 799:0.40059671 801:0.13278206 825:0.12040406 959:0.1429095 1112:0.036008693 1414:0.12490515 1421:0.092272274 1424:0.059639398 1440:0.11140189 1472:0.52212608 1493:0.40397254 1519:0.087771192 1601:0.10802608 1634:0.28131792 #
-1 1:0.011470078 9:0.078651965 11:0.027855905 25:0.0098314956 38:0.075374797 46:0.095037788 47:0.11142362 50:0.077013381 60:0.045880314 72:0.080290549 78:0.12780945 80:0.16549684 91:0.42930865 124:0.072097637 390:0.029494487 523:0.58169681 527:0.1310866 548:0.21465433 560:0.10650787 884:0.20482282 1156:0.093399212 1315:0.078651965 1448:0.10159212 1493:0.39162123 1519:0.21137716 1569:0.10323071 1606:0.12125511 1615:0.11633936 #
-1 1:0.023145925 2:0.084056258 14:0.052382886 15:0.028018752 16:0.19978589 25:0.054819297 38:0.2960242 60:0.14862122 63:0.11572963 104:0.15471224 108:0.147403 127:0.077965222 150:0.051164679 156:0.10963859 165:0.13156632 173:0.067001365 218:0.075528808 244:0.056037504 266:0.056037504 409:0.068219572 465:0.16689432 536:0.079183429 537:0.026800547 540:0.21440437 594:0.038982611 756:0.12547529 987:0.12303887 1009:0.064564951 1083:0.15471224 1156:0.060910333 1406:0.064564951 1440:0.093801908 1483:0.019491306 1493:0.47753701 1508:0.084056258 1509:0.15714866 1512:0.40809923 1527:0.074310608 1556:0.071874194 1559:0.041419026 1565:0.082838051 1621:0.085274465 1631:0.049946472 1731:0.040200818 1824:0.32038835 #
-0.13058205833407193763306963774085 1:0.02666375 21:0.058455143 25:0.008204231 28:0.24202481 62:0.064608313 63:0.048199855 69:0.18254413 75:0.092297599 115:0.03486798 154:0.11280818 180:0.10255288 244:0.069735959 268:0.076914661 272:0.051276442 282:0.13434428 312:0.092297599 374:0.068710431 388:0.049225383 470:0.11896134 499:0.15485485 519:0.064608313 524:0.068710431 527:0.64403212 540:0.045123268 555:0.17228885 793:0.095374182 977:0.106655 1172:0.081016779 1259:0.09639971 1274:0.065633848 1283:0.10255288 1493:0.49635595 1519:0.14665063 1599:0.046148799 1627:0.051276442 #
0.79194700235501847007668629885302 1:0.012865074 9:0.095773332 11:0.032877412 15:0.052889749 16:0.047171939 25:0.012865074 32:0.077190444 39:0.12436239 46:0.34878647 49:0.15723979 89:0.094343878 111:0.097202785 135:0.070043184 191:0.20155284 209:0.12865074 504:0.021441791 581:0.23157133 709:0.20012338 798:0.12722129 954:0.72044414 1059:0.13150965 1360:0.042883582 1440:0.28017274 1513:0.095773332 #
0.84848649457897706849252017491381 25:0.024288287 27:0.05829189 38:0.087437838 50:0.089866661 89:0.089866661 90:0.29145944 102:0.080151349 124:0.083794594 135:0.13358559 209:0.15544504 228:0.069221616 282:0.19673513 343:0.16394594 504:0.040075675 509:0.05829189 537:0.093509905 540:0.063149549 587:0.11658378 658:0.07529369 673:0.11779819 1100:0.16273153 1200:0.14208648 1329:0.12508468 1352:0.17366126 1440:0.2878162 1482:0.09715315 1490:0.12751351 1513:0.18094774 1519:0.09472432 1558:0.088652246 1562:0.015787387 1574:0.15423062 1598:0.15544504 1625:0.14694414 1839:0.27202883 1857:0.54405767 1950:0.14208648 #
0.047721200972922837857392863725181 1:0.0077733775 16:0.18915218 25:0.07773377 26:0.24097469 32:0.15546754 43:0.17619655 47:0.27465934 49:0.15805867 78:0.15546754 83:0.16064979 124:0.26688597 135:0.42494464 158:0.22024569 179:0.069960393 367:0.21506344 923:0.18396993 1440:0.39126 1594:0.20469894 1599:0.13214742 1627:0.31093508 #
0.77168767369714619253073806248722 1:0.015638275 15:0.05004248 25:0.00625531 26:0.058382895 42:0.072978616 60:0.080276482 89:0.045872275 92:0.054212686 102:0.081319034 124:0.020851033 150:0.046914827 219:0.08757434 237:0.10112751 251:0.013553171 258:0.059425447 276:0.077148825 341:0.055255238 540:0.032319102 594:0.034404207 602:0.061510548 981:0.064638205 1039:0.055255238 1127:0.066723309 1391:0.086531788 1440:0.15638275 1448:0.059425447 1528:0.067765862 1595:0.10321262 1599:0.14491469 1738:0.13761683 1805:0.11676579 1965:0.90284973 #
0.83330256786711154326496853173012 1:0.023388427 6:0.036753241 8:0.041765045 15:0.020047223 16:0.071835883 25:0.030070834 44:0.14534236 46:0.043435648 60:0.041765045 80:0.23054306 137:0.046776854 169:0.041765045 178:0.048447452 237:0.040094446 268:0.043435648 287:0.051788658 337:0.19546042 419:0.1787544 484:0.066824071 588:0.036753241 591:0.05512986 602:0.096894905 608:0.056800462 776:0.070165277 784:0.17040139 789:0.083530091 855:0.23555486 1064:0.13865995 1127:0.021717824 1306:0.021717824 1314:0.053459261 1396:0.30739075 1407:0.050118055 1413:0.13197754 1433:0.21550764 1440:0.12195393 1493:0.21550764 1497:0.22219005 1517:0.13030694 1569:0.19713102 1588:0.180425 1595:0.043435648 1599:0.13030694 1609:0.24557847 1627:0.058471065 1633:0.10357732 1670:0.15870717 1825:0.43268588 1920:0.10524791 1921:0.10524791 1959:0.025059028 #
-0.75304770862451531066028564964654 1:0.024786634 31:0.36471763 77:0.35527509 102:0.30806246 143:0.43671688 524:0.12865444 543:0.44143817 1215:0.16524424 1440:0.40484837 1451:0.11803159 1599:0.15934265 1822:0.11213002 #
-0.86312917367351105202288863438298 1:0.017385915 25:0.043464787 57:0.11996281 93:0.13734873 121:0.10431549 133:0.17212056 189:0.23644845 190:0.18081352 208:0.24340281 251:0.17907493 253:0.51114589 276:0.27122027 543:0.20341522 560:0.11300845 927:0.076498024 976:0.29903775 1085:0.017385915 1122:0.27122027 1152:0.31120789 1440:0.17038196 1493:0.13734873 1611:0.13561013 1624:0.15125746 #
-1 94:0.17887221 124:0.15811025 205:0.16928977 280:0.33059415 393:0.14054245 560:0.15811025 714:0.26830831 854:0.12936294 881:0.21720196 1424:0.10700391 1440:0.14054245 1478:0.15331903 1493:0.23636684 1538:0.6611883 1599:0.15651318 1619:0.22838147 #
-0.74615235931143963910017191665247 22:0.085783184 25:0.013647324 91:0.1306244 180:0.18326408 278:0.15207019 467:0.077984713 560:0.14037248 562:0.11502745 663:0.26709765 769:0.17741522 830:0.20276025 942:0.19691139 1085:0.34508234 1098:0.37432662 1109:0.048740447 1206:0.24370222 1214:0.11502745 1232:0.14037248 1271:0.45231134 1322:0.12867478 1440:0.25929916 1493:0.027294649 1503:0.15986866 1542:0.13452363 1599:0.10138012 #
-1 1:0.038870893 18:0.043729752 24:0.2368695 25:0.0048588617 57:0.076527067 63:0.025509022 75:0.049803331 107:0.05466219 108:0.025509022 122:0.038870893 134:0.064379916 137:0.17977788 152:0.086244792 156:0.037656177 202:0.03644146 222:0.18463674 232:0.053447478 244:0.15062471 260:0.057091624 317:0.010932438 519:0.070453495 520:0.049803331 532:0.16398658 543:0.043729752 551:0.021864876 561:0.14090699 574:0.11296853 594:0.052232761 785:0.072882921 1007:0.15548357 1084:0.10810967 1091:0.047373898 1099:0.46402127 1155:0.085030079 1156:0.081385933 1197:0.06073577 1198:0.076527067 1201:0.069238774 1290:0.16155714 1424:0.053447478 1493:0.2125752 1517:0.41300324 1599:0.043729752 1622:0.15062471 1663:0.080171213 1695:0.083815359 1804:0.35226744 1887:0.086244792 1974:0.077741787 1986:0.19313975 #
1 16:0.11220893 25:0.041253284 32:0.062704988 67:0.082506567 70:0.056104466 72:0.079206303 96:0.44718558 123:0.079206303 145:0.087456957 150:0.077556171 152:0.062704988 196:0.1056084 203:0.079206303 272:0.1056084 280:0.074255906 306:0.080856435 467:0.062704988 533:0.15676248 536:0.16006273 585:0.099007882 594:0.057754595 606:0.11385906 868:0.26237088 1214:0.092407353 1227:0.21451707 1364:0.069305517 1439:0.089107089 1440:0.19141524 1444:0.10890867 1473:0.10065801 1493:0.389431 1507:0.17161366 1519:0.16666326 1551:0.12375985 1569:0.17161366 1596:0.36467901 1633:0.072605781 1877:0.18481471 #
0.79477686413769155215902628697222 64:0.26323637 142:0.12291192 234:0.32366806 318:0.33083794 503:0.15466417 748:0.61353534 777:0.073747151 869:0.13110605 1493:0.34927472 1500:0.3953667 1554:0.0071698623 1599:0.0071698623 #
0.78379144129143951680305235640844 45:0.20765518 50:0.18346234 179:0.070562437 272:0.15019719 387:0.12499632 390:0.18447037 418:0.37498894 680:0.12600435 1063:0.082658857 1375:0.10685169 1440:0.016128557 1493:0.38607734 1565:0.30039439 1579:0.34878004 1584:0.006048209 1700:0.13910881 1844:0.079634748 1917:0.53325039 #
0.33795384868758793217580205237027 1:0.038526006 15:0.048157506 24:0.22152452 25:0.054578505 40:0.072236255 44:0.057789005 60:0.23757702 64:0.085078262 72:0.059394255 81:0.11076226 180:0.080262512 276:0.048157506 287:0.083473012 476:0.083473012 537:0.059394255 547:0.12360426 585:0.075446755 605:0.13163051 722:0.094709761 784:0.044947006 842:0.11397276 999:0.12520951 1017:0.21028778 1127:0.051368006 1355:0.11878851 1385:0.23115602 1427:0.21510352 1448:0.52973258 1491:0.072236255 1493:0.45107529 1519:0.11397276 1544:0.081867762 1582:0.030499753 1592:0.067420505 1599:0.080262512 1618:0.10594651 1620:0.17818277 1633:0.056183755 1708:0.10594651 1964:0.11397276 #
0.38974349177403877497738449164899 1:0.013173383 6:0.078026958 24:0.057760216 25:0.020266743 32:0.061813567 43:0.069920264 46:0.092213683 54:0.21989416 60:0.089173667 68:0.089173667 113:0.06384024 136:0.62928236 168:0.16618729 188:0.49045518 226:0.11957379 496:0.092213683 511:0.11349376 537:0.039520148 585:0.19557407 984:0.072960272 1112:0.064853579 1127:0.022293417 1220:0.13882719 1355:0.078026958 1385:0.046613511 1493:0.35669467 #
-1 1:0.016312931 11:0.027731983 13:0.12397828 16:0.12071569 25:0.055463966 45:0.091352418 53:0.079933368 65:0.07830207 76:0.07830207 89:0.081564657 93:0.06851431 105:0.10114018 124:0.037519742 156:0.088089831 199:0.15171026 226:0.12887216 273:0.12234699 276:0.06851431 303:0.15171026 338:0.11745311 388:0.06198914 399:0.12071569 537:0.042413622 539:0.14029121 585:0.21043682 594:0.06198914 698:0.13213475 766:0.1680232 931:0.17128578 1127:0.047307502 1142:0.14518508 1213:0.20717423 1359:0.46818113 1371:0.079933368 1453:0.22185586 1491:0.10114018 1493:0.17617966 1502:0.50080699 1575:0.06851431 1599:0.10603406 #
-1 1:0.0079381643 11:0.025799034 15:0.019845411 23:0.071443483 25:0.0099227056 41:0.093273431 145:0.16769372 180:0.15380193 196:0.20341547 251:0.13594106 303:0.10716522 779:0.12204928 861:0.070451207 925:0.078389376 1059:0.10021932 1113:0.084342994 1212:0.070451207 1243:0.1111343 1244:0.14387923 1372:0.13693334 1406:0.092281163 1421:0.059536234 1440:0.095257975 1493:0.25799033 1501:0.37210146 1519:0.16174009 1546:0.53086472 1547:0.47728214 #
-0.7976985673041459001808561879443 21:0.076120734 41:0.10698049 67:0.090521947 70:0.060690854 86:0.14812683 108:0.060690854 145:0.19133048 167:0.15224147 196:0.23247683 238:0.11418109 331:0.10800914 560:0.091550611 750:0.14709817 761:0.052461583 784:0.065834142 933:0.081264026 942:0.14709817 1232:0.12241036 1262:0.042174999 1265:0.14606951 1389:0.35077256 1414:0.046289634 1452:0.19441646 1493:0.37031707 1519:0.016458536 1567:0.62851036 1611:0.069948778 1619:0.054518901 #
-0.45811450526018482332091252828832 1:0.06498833 15:0.024889149 25:0.023506418 27:0.056691948 28:0.084346555 35:0.1631622 44:0.088494748 52:0.09126021 59:0.10093933 62:0.1811377 63:0.067753792 70:0.06498833 118:0.098173864 121:0.056691948 138:0.098173864 174:0.20049591 199:0.18666862 253:0.094025671 393:0.25027421 447:0.14656943 512:0.25165695 557:0.11476663 884:0.045630105 1315:0.17007585 1329:0.159014 1440:0.20326138 1493:0.20326138 1497:0.094025671 1519:0.22400233 1537:0.1272112 1580:0.1133839 1596:0.52958578 1598:0.092642941 1602:0.10370479 1611:0.074667446 1614:0.062222872 1622:0.067753792 1689:0.1313594 1808:0.20049591 1830:0.15624854 #
-0.89127443709712672603728833564674 59:0.52936238 439:0.14280474 455:0.24129076 530:0.40133056 849:0.23390432 856:0.13788044 1493:0.28807163 1693:0.16988839 1713:0.27576089 1863:0.34962541 1977:0.31023097 #
1 32:0.16329969 81:0.19211729 405:0.042265803 426:0.037462872 526:0.078768089 841:0.52159846 917:0.080689259 921:0.071083397 1047:0.35061404 1143:0.06916222 1414:0.064359292 1440:0.25551599 1493:0.22477722 1499:0.30642706 1508:0.33044174 1532:0.42650038 1599:0.078768089 1604:0.06724105 1612:0.0038423457 #
0.61745128006661775810215431192773 19:0.39833274 25:0.042292118 271:0.17605324 280:0.30096251 304:0.06983117 434:0.030489666 453:0.1357282 875:0.078683011 1236:0.077699475 1248:0.031473204 1268:0.10327145 1281:0.1150739 1398:0.68749279 1424:0.077699475 1440:0.15736602 1491:0.38653028 1576:0.01672014 1599:0.059012257 #
0.85552407207543745837341475635185 1:0.007011997 185:0.43774897 245:0.15526566 304:0.078133687 351:0.47180724 383:0.05910112 509:0.12120738 528:0.45277467 552:0.38866499 583:0.079135396 632:0.10618167 633:0.091155961 878:0.10417824 1203:0.026044561 1205:0.049083982 1329:0.17529993 1440:0.0010017139 1486:0.10417824 1493:0.13322794 1517:0.23139592 1529:0.085145682 1582:0.043073699 1599:0.024041133 1614:0.13523138 1636:0.025042847 #
0.076885972163374061150165061917505 1:0.0058003296 6:0.052202966 15:0.0067670513 16:0.01256738 25:0.017400989 32:0.020301154 34:0.02996837 38:0.024168039 40:0.031901814 45:0.029001648 47:0.036735419 49:0.021267874 60:0.014500824 63:0.019334432 81:0.096672155 90:0.05413641 106:0.13630775 124:0.011600659 142:0.02996837 150:0.026101483 160:0.040602308 180:0.075404286 252:0.042535748 266:0.028034925 268:0.02996837 280:0.025134761 309:0.065737069 537:0.026101483 540:0.035768699 551:0.015467545 594:0.019334432 841:0.65737069 983:0.034801979 1047:0.57519937 1127:0.014500824 1292:0.02996837 1419:0.074437559 1440:0.25618121 1493:0.18174365 1499:0.11600659 1508:0.16627611 1513:0.025134761 1517:0.03093509 1523:0.11600659 1532:0.05413641 1591:0.035768699 1594:0.052202966 1619:0.084104776 #
0.89125912235112692005856160903932 1:0.0074169692 16:0.032634664 25:0.028184483 50:0.066752724 72:0.069719508 102:0.059335753 121:0.043018419 124:0.03115127 131:0.12460508 180:0.31744629 268:0.081586659 271:0.16317332 367:0.094937205 422:0.18394083 434:0.10828775 537:0.069719508 587:0.086036839 842:0.13202205 958:0.12608847 1093:0.10532096 1131:0.14092241 1165:0.13943902 1187:0.097903989 1200:0.10532096 1269:0.52957159 1304:0.36343148 1330:0.081586659 1401:0.146856 1493:0.18097405 1535:0.15427296 1599:0.10532096 1710:0.10235418 1741:0.1201549 1853:0.1676235 1869:0.1676235 1963:0.18987441 1969:0.18987441 #
-0.65286722865225810252809424127918 1:0.014096568 11:0.021144852 25:0.024165545 35:0.10874496 57:0.17520021 58:0.19231747 70:0.043296602 96:0.069475941 97:0.20641403 113:0.099682875 116:0.088606998 121:0.038262114 123:0.061420761 135:0.087600105 150:0.060413864 302:0.087600105 360:0.61320072 369:0.049337987 467:0.048331089 472:0.0050344886 481:0.092634588 546:0.066455252 659:0.088606998 892:0.1329105 895:0.074510433 943:0.095655285 960:0.10169667 1111:0.078538023 1127:0.017117262 1223:0.086593203 1368:0.32019347 1421:0.048331089 1465:0.41886944 1493:0.19231747 1519:0.030206932 1563:0.015103466 1575:0.049337987 1599:0.20943472 1611:0.050344884 1627:0.048331089 #
-0.29775541635914914984084589377744 1:0.043076131 15:0.11179281 25:0.0092305997 50:0.067691058 76:0.066665441 111:0.068716682 118:0.15076646 121:0.08717788 138:0.07589604 201:0.089229129 242:0.099485345 260:0.11179281 270:0.10871594 281:0.15384333 369:0.056409217 394:0.11179281 438:0.16615079 572:0.5230673 581:0.65947503 587:0.08717788 611:0.10153659 803:0.13948461 901:0.064614192 1057:0.039999265 1349:0.06256295 1440:0.11692093 1493:0.091280371 1575:0.057434842 1594:0.054357972 1600:0.11281843 1619:0.041024886 1629:0.16307393 1727:0.028717421 1998:0.030768665 #
-1 1:0.022013986 17:0.22183324 25:0.028787522 33:0.43011943 53:0.20997956 81:0.20320603 94:0.16595159 152:0.17611189 323:0.22183324 395:0.14901775 520:0.30480903 948:0.22013986 1089:0.11684347 1112:0.035561055 1127:0.062655196 1155:0.22860679 1424:0.21505971 1440:0.28787521 1493:0.42673266 1598:0.060961809 1599:0.14732437 #
-0.79993528883554343433814892705414 1:0.031199647 11:0.0096826488 15:0.0075309491 17:0.027972097 25:0.036578897 44:0.026896248 55:0.13878463 57:0.019365298 60:0.016137749 66:0.093598939 70:0.059171744 89:0.026896248 96:0.031199647 109:0.023668697 111:0.026896248 152:0.022592848 156:0.058095895 162:0.12587443 171:0.063475139 175:0.052716643 176:0.038730595 178:0.036578897 273:0.040882297 282:0.11511593 353:0.053792495 369:0.044109844 373:0.27649343 433:0.095750637 445:0.052716643 449:0.10005404 462:0.026896248 537:0.027972097 551:0.033351347 567:0.34642366 571:0.035503045 582:0.034427196 588:0.026896248 594:0.040882297 595:0.034427196 596:0.12049519 600:0.083916292 637:0.071006089 678:0.062399294 728:0.045185696 736:0.041958146 806:0.057020042 895:0.067778543 912:0.098978192 981:0.037654746 1010:0.080688737 1067:0.11834349 1125:0.12910199 1127:0.039806444 1149:0.50672531 1156:0.12802613 1209:0.092523091 1210:0.090371393 1214:0.064550996 1223:0.038730595 1292:0.032275498 1317:0.10543329 1356:0.052716643 1364:0.024744548 1373:0.083916292 1423:0.040882297 1440:0.27003831 1482:0.029047947 1491:0.033351347 1493:0.23130773 1504:0.032275498 1542:0.037654746 1580:0.068854392 1593:0.033351347 1599:0.22592847 1627:0.021516997 1631:0.23668697 1636:0.091447242 1843:0.14201218 #
-0.39609471374775523377920194434409 1:0.0456312 15:0.11154294 24:0.061855629 25:0.011154294 50:0.081122138 76:0.079094082 111:0.082136162 118:0.17948273 121:0.10444475 138:0.090248376 242:0.11864112 256:0.056785494 270:0.12979542 281:0.092276432 301:0.17137051 394:0.13385153 438:0.19773521 572:0.46848035 581:0.59117758 607:0.057799522 803:0.16630037 837:0.092276432 927:0.061855629 928:0.11255696 932:0.049687307 1104:0.085178241 1160:0.057799522 1256:0.016224427 1439:0.096332535 1440:0.070981868 1450:0.13790762 1464:0.078080058 1476:0.28595552 1493:0.12878139 1575:0.067939788 1598:0.030420801 #
0.52374353418166419427137725506327 1:0.053235248 8:0.10434108 15:0.12350577 25:0.036199968 34:0.10434108 38:0.17248221 60:0.15757634 83:0.07452935 93:0.15118811 124:0.083046988 158:0.30663502 251:0.22145863 272:0.25339979 276:0.07452935 306:0.093694039 371:0.24914096 465:0.11924695 537:0.091564626 540:0.12563518 688:0.20229395 746:0.19590572 1092:0.15118811 1127:0.078788169 1156:0.1064705 1324:0.19164689 1440:0.057494067 1493:0.36838791 1519:0.29598796 1539:0.21081159 1562:0.3257997 1619:0.11498813 #
0.85956454904891599344551877948106 25:0.026654391 357:0.04904408 363:0.45099229 917:0.1226102 1375:0.10981609 1440:0.08955875 1441:0.05863966 1464:0.07036759 1493:0.1972425 1504:0.23775716 1638:0.10022051 1696:0.07036759 1718:0.10128669 1821:0.15459546 1904:0.54694808 1910:0.54694808 1960:0.084227875 #
0.85568067136544190276481458568014 1:0.005632991 8:0.10514916 25:0.011265982 32:0.073228881 54:0.086372524 96:0.10514916 103:0.17274505 130:0.17650038 152:0.073228881 161:0.15021309 192:0.10139383 293:0.28540486 533:0.36614442 560:0.27601656 601:0.17462271 623:0.1652344 683:0.18588869 735:0.19715469 797:0.04694159 875:0.11453748 914:0.22531964 1227:0.12580346 1277:0.12204813 1325:0.34924543 1390:0.19339935 1439:0.10514916 1493:0.20278767 1517:0.21405365 1519:0.14833543 1535:0.10139383 1571:0.05632991 1573:0.0075106546 1599:0.21780898 1611:0.075106546 #
0.6814543219150862585209438293532 1:0.018893111 6:0.070534281 9:0.069274738 16:0.034007601 25:0.018893111 57:0.050381631 251:0.071793824 480:0.099503718 511:0.10328234 540:0.047862548 568:0.48996136 573:0.13854948 644:0.18137386 645:0.16499984 784:0.1083205 877:0.12091591 952:0.042824384 1208:0.025190815 1261:0.089427397 1358:0.48492318 1493:0.1977479 1495:0.55923611 1560:0.084389232 1575:0.057938874 1624:0.064236581 #
0.38120835338379255308183246597764 1:0.016706195 60:0.13573784 272:0.050118584 404:0.084575109 450:0.31741771 498:0.76535255 730:0.096060619 818:0.044897899 1127:0.067868918 1145:0.10441372 1148:0.35396251 1424:0.067868918 1480:0.15557644 1493:0.1795916 1592:0.26834327 #
-0.44477966585955730494106319383718 1:0.0080482261 25:0.010730969 54:0.079140894 91:0.11267517 109:0.071092665 114:0.40106994 137:0.10730968 180:0.092554606 214:0.15828179 243:0.15559904 278:0.26156735 368:0.095237345 388:0.063044444 443:0.15023355 467:0.067068554 482:0.14486808 603:0.4077768 809:0.19986428 882:0.19315743 924:0.11669929 1020:0.096578717 1068:0.11535791 1215:0.088530488 1329:0.23473993 1382:0.053654842 1418:0.39972857 1432:0.020120567 1493:0.16230589 1544:0.11669929 1578:0.089871861 1585:0.11133379 1593:0.10328557 1614:0.057678957 1815:0.15694042 1970:0.10596831 #
-0.63085180131390716784522965099313 1:0.03042075 25:0.01629683 50:0.24445246 55:0.255317 68:0.14449857 75:0.17709222 88:0.18904324 114:0.19990779 180:0.084743522 263:0.070619598 301:0.1825245 439:0.06518732 448:0.29877523 466:0.21837753 489:0.079311244 560:0.11299136 594:0.18687032 682:0.091262251 915:0.10538618 1091:0.084743522 1113:0.16731413 1286:0.039112393 1299:0.5551787 1329:0.081484154 1493:0.30963978 1539:0.019556196 1575:0.10321326 1598:0.072792508 1603:0.040198848 1876:0.074965425 1898:0.121683 #
-0.83316431271047408646523990682908 1:0.0041955579 25:0.0083911158 58:0.28110239 60:0.037760023 67:0.069925964 68:0.15383713 70:0.047549658 78:0.053143736 85:0.26851571 102:0.057339292 117:0.092302278 192:0.074121527 246:0.067128927 268:0.078317083 296:0.14684454 306:0.13705489 336:0.13565637 406:0.11467858 407:0.097896352 441:0.10768599 531:0.24054533 571:0.086708196 574:0.071324483 583:0.14544602 724:0.26851571 898:0.051745214 1061:0.1160771 1070:0.1300623 1204:0.08950524 1299:0.29508758 1355:0.13425785 1361:0.17481491 1387:0.10209191 1422:0.1160771 1431:0.3104713 1440:0.064331889 1493:0.30068165 1535:0.074121527 1537:0.093700796 1577:0.3118698 1634:0.16082972 #
-1 1:0.056523375 3:0.23052672 5:0.30367461 7:0.27596706 18:0.50427717 272:0.096422233 524:0.14851241 537:0.20614408 839:0.11193845 1003:0.17954484 1051:0.10528864 1057:0.17511164 1085:0.10750525 1127:0.23385161 1436:0.015516221 1493:0.44442889 1530:0.16513692 1598:0.083122611 1599:0.23717652 1851:0.078689404 #
-0.27218757247848501812370614061365 1:0.018961592 13:0.067719974 25:0.035214387 63:0.13408555 66:0.20451432 113:0.07449197 114:0.43069902 152:0.073137574 243:0.33453667 256:0.075846367 391:0.088035963 416:0.10835195 444:0.11647835 502:0.11918715 541:0.11918715 583:0.20045112 603:0.43747103 778:0.088035963 783:0.12731355 887:0.16523674 1008:0.18826152 1041:0.15575594 1127:0.02573359 1493:0.36704224 1575:0.07449197 1592:0.10157996 1862:0.12866795 1914:0.21941271 #
1 1:0.016981255 8:0.16055004 11:0.024700006 25:0.0092625022 51:0.091081277 55:0.21149381 58:0.074100018 72:0.071012519 90:0.072556272 99:0.092625022 179:0.10806253 392:0.11732503 430:0.23465006 586:0.68696892 598:0.22847506 845:0.097256273 1071:0.20531881 1227:0.095712528 1313:0.12813129 1355:0.069468766 1421:0.055575013 1440:0.08336252 1493:0.27941883 1527:0.10034378 1537:0.097256273 1555:0.12813129 1599:0.29176882 #
0.83212667100992954161142733937595 1:0.022388332 15:0.022388332 16:0.040578853 25:0.022388332 26:0.10214677 47:0.11613947 49:0.13432999 57:0.060168643 65:0.078359164 70:0.060168643 78:0.065765724 175:0.31763446 181:0.15252051 348:0.089553326 391:0.081157707 412:0.11893801 463:0.19030082 501:0.5135324 504:0.016791249 526:0.048974477 537:0.041978125 666:0.14692344 745:0.18050593 820:0.1819052 896:0.1441249 1127:0.023787603 1161:0.20989062 1234:0.1917001 1281:0.069963537 1310:0.047575206 1314:0.23787603 1373:0.16371468 1440:0.3792024 1493:0.23647676 1599:0.015391978 #
0.3951342955178135385452264927153 1:0.025390018 6:0.30185908 14:0.1523401 15:0.039495584 16:0.073348939 17:0.30750132 25:0.059243374 38:0.14105564 53:0.29057464 60:0.25672129 70:0.10720229 74:0.14669788 99:0.19747791 124:0.13541342 484:0.27364796 648:0.12130786 784:0.11566563 965:0.042316694 1289:0.011284452 1440:0.24825795 1543:0.14951898 1589:0.24543683 1599:0.45984143 1635:0.24261571 #
0.1414932792244915915613745482915 1:0.013163263 9:0.3847723 15:0.1053061 65:0.37363416 180:0.031389318 304:0.15897171 614:0.11340657 870:0.10429355 929:0.74929345 966:0.10935634 972:0.10125587 1056:0.10429355 1127:0.11239401 1440:0.19947407 1493:0.03037676 1573:0.056703284 #
0.65755758258265450955093456286704 1:0.017124519 9:0.11815917 11:0.041098844 14:0.12329653 15:0.097609751 25:0.047948651 38:0.34420282 60:0.20891912 80:0.12672143 106:0.17638253 121:0.075347878 124:0.054798458 237:0.13014634 265:0.044523746 266:0.13014634 276:0.19864441 304:0.01883697 537:0.061648265 549:0.11987162 551:0.073635429 1046:0.18665725 1187:0.34249035 1335:0.11473427 1371:0.11644672 1440:0.28426701 1448:0.30995378 1493:0.28597945 1497:0.11815917 1506:0.26371756 1558:0.13528369 1559:0.097609751 1599:0.13870859 1608:0.18323234 1635:0.1952195 #
-0.88420666037230644107580701529514 1:0.015848558 11:0.059872333 25:0.035219017 63:0.13031037 70:0.063394234 97:0.10037421 121:0.05458948 141:0.11798371 156:0.093330398 159:0.13383228 165:0.11270086 178:0.11622276 241:0.13383228 460:0.12150562 527:0.29055691 537:0.044023775 553:0.045784723 594:0.065155186 1112:0.18313889 1214:0.1038961 1277:0.11798371 1294:0.03697997 1424:0.075720891 1440:0.42615014 1493:0.12854943 1497:0.15848559 1519:0.21659696 1627:0.20955317 1728:0.35395116 1801:0.50011009 1944:0.11798371 #
-0.42674097950506828524908087274525 1:0.014977947 11:0.013729785 21:0.036196705 22:0.036196705 25:0.032452218 44:0.039941192 49:0.064904436 55:0.082378708 70:0.058663625 74:0.039941192 102:0.069897085 121:0.051174652 135:0.028707732 152:0.098604821 165:0.25712141 167:0.07239341 180:0.13355336 194:0.054919139 202:0.083626874 206:0.063656278 224:0.074889734 239:0.054919139 246:0.041189354 247:0.044933841 256:0.067400761 266:0.043685678 278:0.062408112 287:0.16975006 289:0.046182003 302:0.11732725 338:0.057415463 349:0.077386059 469:0.15102763 519:0.079882383 540:0.027459569 551:0.32077771 555:0.10734195 588:0.11982358 592:0.3145369 594:0.059911788 641:0.13480152 661:0.074889734 690:0.16600558 804:0.087371357 876:0.079882383 885:0.071145251 950:0.11358277 1040:0.079882383 1048:0.11108644 1120:0.062408112 1257:0.079882383 1292:0.09486033 1322:0.21593207 1364:0.10859012 1393:0.32077771 1403:0.22716554 1422:0.071145251 1440:0.13604969 1477:0.27459571 1482:0.042437516 1490:0.093612172 1493:0.057415463 1519:0.13604969 1522:0.059911788 1559:0.097356655 1580:0.04992649 1599:0.19471331 #
-0.76363947099870121970610625794507 1:0.017882286 2:0.18478362 16:0.081960477 25:0.022352858 115:0.098352574 154:0.2980381 282:0.16243076 287:0.47984135 433:0.078980096 519:0.16988172 551:0.20862667 621:0.040235143 700:0.13560733 980:0.12219562 1247:0.068548761 1372:0.63035059 1410:0.28015581 1493:0.095372193 #
-0.46193988512829120551828054885846 1:0.025206245 2:0.20270023 3:0.10607629 125:0.19954945 126:0.21740387 173:0.2405096 205:0.14598617 282:0.093473166 296:0.11342811 369:0.15123747 537:0.094523422 549:0.18589607 594:0.13863435 694:0.11132759 758:0.10292551 934:0.11447837 1091:0.1270815 1228:0.099774726 1440:0.1270815 1475:0.52933115 1493:0.19324788 1594:0.091372639 1625:0.021005206 1671:0.069317177 1767:0.49152181 1938:0.14913696 1994:0.016804164 #
-0.45392330456651025505365737444663 1:0.061238278 2:0.23902683 3:0.1254397 104:0.21927255 125:0.23606369 126:0.2577934 180:0.057287421 272:0.055311993 342:0.090869702 369:0.17976399 436:0.058275137 537:0.1116117 577:0.060250565 583:0.053336564 590:0.32397026 607:0.01185257 629:0.11556256 726:0.64892823 827:0.050373424 1085:0.066176847 1091:0.2992774 1440:0.12346427 1493:0.10370999 1561:0.090869702 1599:0.060250565 1616:0.012840284 1688:0.055311993 1988:0.081980273 #
0.64796510028057374697141312935855 16:0.056943323 17:0.23916197 25:0.062637657 49:0.18791297 50:0.11388665 51:0.081618764 78:0.09300743 101:0.17842242 124:0.10629421 135:0.083516873 152:0.09490554 276:0.09680365 311:0.18032053 355:0.13666397 356:0.23536573 648:0.083516873 784:0.091109321 795:0.20119974 808:0.18981108 860:0.18032053 955:0.1043961 1020:0.13286775 1085:0.15374698 1276:0.075924434 1360:0.16893186 1421:0.18601486 1424:0.18411675 1440:0.11958098 1493:0.60739547 1519:0.072128214 1931:0.0075924434 1981:0.17082997 #
0.53049368033741128858338242935133 1:0.035267644 37:0.41061616 60:0.19649117 68:0.39298233 102:0.29473674 300:0.66378742 357:0.084390432 566:0.037786763 578:0.056680143 912:0.086909555 1208:0.1158794 1329:0.03148897 1335:0.088169113 1493:0.056680143 1519:0.037786763 1832:0.17885734 1901:0.1587044 1907:0.0793522 #
0.86918465888389617735043657376082 1:0.022773292 6:0.073199868 15:0.019519964 17:0.14802639 25:0.019519964 89:0.069946535 93:0.060186554 102:0.06181322 124:0.032533273 135:0.10410647 180:0.19357297 191:0.14965306 202:0.074826531 261:0.14151974 298:0.1431464 348:0.16591969 520:0.10085315 537:0.035786599 585:0.18218634 741:0.13989307 1103:0.13663974 1127:0.021146627 1168:0.11711978 1364:0.065066546 1440:0.17079969 1493:0.37738597 1514:0.69133204 1519:0.12199978 1622:0.097599819 1638:0.12687977 1916:0.10247981 1942:0.10898647 #
0.80302088062888077324430469161598 56:0.3724893 155:0.14454809 172:0.50035876 479:0.063008137 718:0.16678625 774:0.1816117 893:0.19273078 1292:0.3910211 1373:0.042623155 1414:0.07412722 1440:0.12601627 1493:0.32801297 1494:0.14640127 1517:0.39287427 1598:0.1241631 1599:0.11489719 #
0.51321390013787793193955621973146 6:0.11501273 11:0.038337577 16:0.05455732 25:0.029490443 34:0.26246494 54:0.21528023 120:0.16219744 124:0.051608276 284:0.25509232 289:0.12828343 330:0.085522287 361:0.23149997 421:0.19906048 537:0.057506364 611:0.0044235666 650:0.28458276 713:0.32144582 911:0.094369419 1158:0.25804138 1442:0.13418151 1493:0.32292035 1577:0.17694266 1592:0.12828343 1599:0.05455732 1795:0.28458276 1802:0.28458276 1813:0.23887259 #
-0.74893124988481529769046574074309 57:0.16368648 180:0.12583399 231:0.57085663 282:0.066497631 333:0.10844229 397:0.31100431 478:0.11253446 933:0.11253446 1265:0.064451553 1289:0.079797164 1376:0.11969574 1440:0.16880168 1493:0.34067249 1521:0.43070006 1522:0.3335112 1599:0.16470952 #
-0.69799314656656463728978678773274 1:0.0044185519 15:0.013255656 20:0.12703337 22:0.020988122 25:0.013255656 52:0.024302036 57:0.035348415 58:0.10162669 78:0.038662329 79:0.035348415 87:0.028720586 88:0.10825452 102:0.020988122 109:0.040871605 113:0.019883484 121:0.045290157 122:0.026511312 135:0.017674208 176:0.033139139 180:0.1513354 195:0.026511312 206:0.037557691 235:0.071801469 247:0.027615948 250:0.12924264 278:0.037557691 289:0.027615948 292:0.047499433 297:0.040871605 467:0.038662329 469:0.045290157 546:0.053022623 574:0.025406674 591:0.035348415 631:0.11819626 804:0.064069003 810:0.14360294 850:0.093894228 928:0.088371038 996:0.050813347 1019:0.074010745 1090:0.028720586 1127:0.013255656 1164:0.19662556 1169:0.12813801 1186:0.067382917 1214:0.028720586 1293:0.055231895 1338:0.048604071 1371:0.023197398 1429:0.028720586 1439:0.082847849 1440:0.17895135 1453:0.1513354 1457:0.0077324654 1466:0.63958538 1469:0.045290157 1473:0.030929862 1482:0.025406674 1493:0.30708936 1533:0.043080881 1578:0.11046379 1594:0.18116063 1599:0.15244004 1608:0.036453053 1619:0.10273133 1624:0.044185519 1691:0.10494061 1714:0.076220021 1732:0.061859723 1897:0.28610122 #
-0.72570252905594334613681439805077 1:0.065539047 11:0.015888253 15:0.035748571 24:0.033762541 92:0.051636826 116:0.19661714 122:0.10128762 150:0.043692697 162:0.067525081 175:0.043692697 176:0.063553013 192:0.049650792 247:0.10128762 253:0.13902222 277:0.057594918 388:0.033762541 425:0.13703619 513:0.079441272 553:0.29790476 564:0.19065905 588:0.043692697 616:0.10923175 760:0.18271492 912:0.19065905 913:0.14895238 920:0.089371428 1012:0.18072888 1082:0.2065473 1127:0.063553013 1148:0.067525081 1175:0.093343489 1211:0.075469203 1424:0.13306412 1470:0.089371428 1472:0.20058921 1482:0.047664762 1484:0.095329523 1493:0.36542985 1497:0.13902222 1517:0.15888254 1519:0.17675683 1570:0.45877331 1599:0.017874286 1631:0.12909207 1633:0.12710603 #
-0.28624692388232003681380888338026 1:0.020789094 15:0.066147119 21:0.11150514 25:0.016064301 61:0.13985391 69:0.34491 76:0.1171749 122:0.27592799 133:0.085046299 138:0.13418415 156:0.13040432 190:0.26931328 195:0.13418415 207:0.14646862 231:0.46586472 272:0.064257205 315:0.07654167 374:0.10394547 589:0.23340483 894:0.053862654 895:0.15119341 1363:0.046302985 1440:0.043468107 1485:0.011339506 1487:0.22679013 1493:0.27498302 1519:0.040633231 1559:0.19844136 1572:0.07654167 1599:0.16158797 1631:0.11811986 1783:0.25230402 #
-0.65798428714173451403723902330967 1:0.016722765 11:0.011577299 15:0.036018264 20:0.11705935 22:0.059172858 25:0.043736462 27:0.020581864 52:0.03344553 53:0.064318322 58:0.034731895 63:0.024440963 67:0.034731895 70:0.047595561 73:0.045022827 74:0.032159161 81:0.061745591 92:0.075895622 97:0.037304629 100:0.039877363 110:0.036018264 113:0.027013697 118:0.072036527 123:0.10162295 139:0.060459226 152:0.027013697 159:0.050168294 183:0.056600127 187:0.047595561 193:0.036018264 194:0.045022827 197:0.048881926 201:0.086186558 218:0.08104109 238:0.045022827 253:0.13635485 256:0.25727329 276:0.054027393 291:0.052741025 379:0.043736462 388:0.050168294 399:0.047595561 415:0.074609257 416:0.11963209 427:0.043736462 442:0.060459226 467:0.027013697 551:0.020581864 573:0.03344553 574:0.036018264 647:0.056600127 961:0.10548205 1048:0.046309195 1058:0.073322892 1080:0.02572733 1090:0.039877363 1091:0.021868231 1118:0.15436397 1127:0.11448662 1156:0.038590994 1207:0.074609257 1214:0.078468353 1264:0.12863664 1355:0.03344553 1371:0.064318322 1416:0.045022827 1420:0.042450093 1424:0.13506848 1467:0.038590994 1479:0.05145466 1493:0.26499149 1538:0.063031957 1575:0.027013697 1589:0.70878792 1591:0.091332018 1599:0.23926418 1602:0.037304629 1611:0.082327455 1633:0.030872796 #
0.72300345460208637060617320457823 1:0.010679012 8:0.028477365 14:0.024917696 15:0.04627572 16:0.035596706 24:0.074753083 25:0.0071193413 27:0.01542524 32:0.039156377 39:0.032037035 44:0.023731139 46:0.088991769 51:0.055768173 54:0.023731139 60:0.071193412 69:0.022544581 76:0.023731139 81:0.023731139 83:0.020171467 89:0.048648834 93:0.041529492 121:0.01542524 124:0.010679012 144:0.20408779 155:0.064074069 193:0.079499312 202:0.026104251 265:0.10679012 267:0.041529492 282:0.079499312 450:0.033223592 454:0.030850479 496:0.059327845 507:0.028477365 537:0.013052125 540:0.016611796 581:0.20527434 585:0.030850479 705:0.1210288 788:0.8638134 998:0.094924554 1077:0.064074069 1080:0.03796982 1129:0.058141287 1348:0.042716049 1371:0.023731139 1448:0.032037035 1489:0.070006855 1493:0.061700959 1509:0.03796982 1517:0.058141287 1594:0.15187928 1601:0.14831962 #
0.73685492264330820777473718408146 1:0.01811685 8:0.12002414 9:0.10190728 16:0.04982134 25:0.040762912 27:0.065673582 44:0.20607917 60:0.061144371 63:0.23325445 65:0.099642679 74:0.20607917 121:0.065673582 145:0.11775953 166:0.11775953 180:0.16758087 251:0.212873 314:0.46197969 391:0.10417189 454:0.13361177 507:0.12228874 540:0.072467402 614:0.013587638 618:0.22419603 906:0.26722354 1085:0.17890389 1112:0.19249153 1424:0.29439881 1493:0.15852244 1559:0.083790436 1599:0.3555432 1624:0.097378075 #
0.72330895814621221084905755560612 1:0.0033647113 6:0.095333487 25:0.012337275 54:0.089725636 60:0.05495695 180:0.095333487 228:0.11440018 320:0.096455052 537:0.096455052 857:0.72341293 898:0.065051086 1127:0.02691769 1171:0.16599242 1288:0.051592238 1345:0.11215704 1424:0.11103547 1430:0.2691769 1491:0.11664332 1493:0.22319251 1511:0.11103547 1569:0.13458845 1666:0.074023649 1785:0.36451039 1792:0.22543566 #
-0.44385007100465706519898390070011 1:0.082209758 11:0.065529518 21:0.086975545 25:0.025020363 28:0.26688385 62:0.285947 63:0.071486749 82:0.1143788 108:0.13582483 111:0.19063133 230:0.060763735 251:0.066720963 254:0.12867615 312:0.13582483 319:0.1143788 470:0.35147652 481:0.14654784 495:0.12629326 608:0.14654784 830:0.10008145 852:0.13463338 1229:0.14178205 1284:0.089358434 1296:0.56593674 1330:0.11318735 1409:0.044083495 1493:0.038126267 1607:0.11080446 1614:0.19778 1952:0.15965374 1956:0.21565169 #
-0.28609234709225117576636421290459 1:0.039112762 11:0.098564155 15:0.10325769 25:0.025032166 28:0.17835419 33:0.095435135 62:0.19087027 74:0.093870625 75:0.67430401 180:0.33793426 369:0.078225523 388:0.071967475 514:0.11108024 524:0.17053163 690:0.19556379 869:0.018774126 1085:0.10169318 1114:0.13298339 1199:0.15175751 1388:0.059451394 1442:0.012516083 1599:0.042241782 1643:0.20651537 1817:0.24719265 1823:0.24719265 1881:0.098564155 #
-0.5360374882098030147048461913073 1:0.0042519369 25:0.031180872 67:0.37983972 86:0.20834492 117:0.16582555 119:0.45070532 192:0.13322736 218:0.096377239 251:0.13606198 301:0.062361743 303:0.15306973 325:0.24236041 380:0.24802966 467:0.096377239 513:0.21259685 551:0.14598317 592:0.15448704 988:0.09495993 1139:0.23810847 1178:0.22818729 1286:0.12047155 1382:0.17574674 1439:0.13747931 1474:0.17858136 1493:0.087873369 1555:0.22110073 1599:0.086456053 1611:0.099211864 #
-0.47750744462319116845350208677701 1:0.034797121 2:0.069594242 4:0.073943876 15:0.034797121 16:0.1232398 25:0.033347238 53:0.37116927 60:0.073943876 62:0.12758943 70:0.091342442 76:0.12178992 124:0.0579952 127:0.19138415 182:0.144988 187:0.18413475 194:0.1739856 199:0.181235 203:0.12903932 251:0.076843642 325:0.25952852 341:0.14933763 388:0.095692076 594:0.0942422 887:0.23488055 1127:0.073943876 1163:0.11019088 1193:0.23633043 1214:0.15078752 1426:0.039146759 1473:0.4987587 1493:0.20588295 1497:0.17978512 1505:0.15368728 #
-0.19269672371282997591634966738638 1:0.057777919 11:0.11666696 13:0.051111236 15:0.036666758 16:0.13000032 21:0.06111126 25:0.017777821 30:0.10777804 33:0.066666834 55:0.068889059 66:0.076666854 76:0.064444602 93:0.055555694 104:0.13444477 111:0.13444477 143:0.58000141 178:0.088889107 180:0.11666696 239:0.09111134 246:0.136667 291:0.53777909 388:0.051111236 449:0.082222424 514:0.077777967 518:0.10222247 537:0.03444453 594:0.050000124 731:0.067777947 898:0.10777804 1028:0.066666834 1091:0.04555567 1181:0.09111134 1195:0.18000044 1274:0.16444485 1414:0.074444629 1421:0.054444578 1453:0.1122225 1493:0.16777819 1513:0.065555714 1516:0.010000025 1559:0.054444578 1594:0.055555694 1603:0.10666693 1614:0.046666782 1622:0.031111188 1627:0.10777804 1687:0.09000022 #
0.60520956281411730781627511532861 1:0.015226899 8:0.25651467 180:0.052708495 213:0.13587078 234:0.39355677 346:0.16398199 365:0.060907595 472:0.09019009 777:0.098389193 871:0.12532909 1003:0.14172728 1013:0.17452368 1190:0.59970558 1208:0.081990995 1329:0.11830129 1367:0.41464016 1440:0.12884299 1493:0.26237118 1971:0.073791891 #
0.71097069824639802515520159431617 1:0.021919426 4:0.011481605 6:0.020875644 8:0.07202097 11:0.04279507 13:0.031313468 15:0.005218911 16:0.019831862 17:0.020875644 24:0.0939404 25:0.025050772 27:0.052189112 30:0.033401031 32:0.033401031 40:0.026094556 45:0.068889625 46:0.025050772 56:0.022963209 60:0.07202097 68:0.096027963 70:0.01461295 81:0.058451802 83:0.034444813 89:0.06158315 96:0.024006991 97:0.024006991 102:0.017744297 109:0.017744297 118:0.044882633 119:0.019831862 121:0.039663725 124:0.0093940394 130:0.040707506 135:0.01461295 144:0.068889625 148:0.037576158 160:0.06575828 171:0.024006991 190:0.022963209 200:0.026094556 202:0.021919426 237:0.022963209 272:0.067845844 280:0.059495587 293:0.15343599 354:0.14717329 388:0.015656734 399:0.030269684 409:0.027138337 458:0.028182119 476:0.029225901 483:0.032357249 508:0.044882633 514:0.024006991 519:0.041751288 551:0.063670717 557:0.053232893 559:0.038619943 571:0.027138337 587:0.026094556 588:0.020875644 602:0.054276675 605:0.12107874 610:0.036532376 622:0.058451802 649:0.085590139 688:0.10542201 747:0.04279507 767:0.0041751289 784:0.015656734 895:0.026094556 945:0.7504794 946:0.027138337 973:0.083502576 1080:0.016700516 1090:0.076196097 1091:0.01461295 1111:0.027138337 1127:0.06575828 1195:0.028182119 1283:0.032357249 1292:0.049057763 1348:0.035488594 1355:0.041751288 1356:0.039663725 1357:0.024006991 1410:0.034444813 1440:0.034444813 1479:0.032357249 1491:0.026094556 1493:0.38098049 1527:0.030269684 1559:0.016700516 1560:0.050101545 1594:0.041751288 1599:0.030269684 1602:0.024006991 1603:0.0469702 1611:0.034444813 1619:0.11272848 1624:0.018788079 1627:0.016700516 1633:0.019831862 1896:0.20980023 #
0.57974944643770454089093391303322 1:0.011117594 14:0.067940854 24:0.050646819 25:0.017294036 47:0.093881905 49:0.10870537 65:0.064234987 78:0.053117394 96:0.077823162 124:0.030882208 131:0.12105825 286:0.072882012 730:0.12599941 737:0.096352488 784:0.10376421 798:0.09141133 1159:0.049411532 1302:0.086470179 1335:0.11364652 1424:0.18529324 1461:0.54599744 1493:0.26064584 1548:0.020999901 1563:0.081529029 1797:0.67323214 1798:0.10005835 #
0.53319946939965823240470399468904 1:0.02885811 11:0.042325228 15:0.032705858 17:0.25010362 25:0.032705858 32:0.098117575 42:0.19046353 93:0.20200677 124:0.055792347 151:0.22124551 193:0.13082343 229:0.1558338 266:0.13082343 276:0.10004145 314:0.080802709 582:0.15390992 609:0.28280947 630:0.22316939 968:0.21547389 1091:0.082726583 1127:0.034629732 1314:0.17507254 1326:0.24048424 1328:0.24625586 1371:0.11928018 1440:0.11350857 1493:0.38862255 1527:0.35206893 1599:0.24433199 #
-0.79247505735182743880073985565105 1:0.018175948 11:0.054527845 16:0.02596564 20:0.1882509 25:0.028562205 31:0.054527845 57:0.038948461 70:0.037650179 73:0.072703794 74:0.10516085 75:0.075300358 96:0.061019257 100:0.063615821 107:0.16488183 117:0.44401246 121:0.067510664 135:0.076598637 236:0.094774589 275:0.19084746 276:0.044141591 310:0.098669432 336:0.18695261 401:0.088283181 465:0.042843308 467:0.042843308 529:0.39337945 537:0.053229563 546:0.058422692 550:0.075300358 827:0.081791766 905:0.1583904 1041:0.092178024 1091:0.036351897 1217:0.10516085 1232:0.15319727 1238:0.093476303 1267:0.093476303 1280:0.33106193 1413:0.12074023 1419:0.10256428 1424:0.10775741 1493:0.35572928 1542:0.07400208 1599:0.21161997 1624:0.049334716 #
-0.52399472746602004935567720167455 1:0.023470448 2:0.18273421 455:0.060352582 520:0.4727619 574:0.36043903 837:0.12238163 1052:0.12405809 1127:0.097234719 1144:0.095558256 1195:0.44929147 1285:0.14249915 1351:0.19614589 1414:0.30679229 1440:0.13244039 1492:0.13746977 1493:0.41073287 1597:0.011735224 #
-0.46340566770331481638578452475485 1:0.0086001288 11:0.012900193 15:0.010033484 24:0.10893497 25:0.028667096 26:0.044434 35:0.1619691 38:0.034400515 49:0.028667096 52:0.035833869 58:0.075967804 59:0.12040181 66:0.081701227 74:0.035833869 77:0.071667738 79:0.054467484 97:0.041567288 108:0.15336896 109:0.030100452 113:0.030100452 121:0.045867354 123:0.037267227 138:0.11753509 150:0.035833869 152:0.028667096 159:0.16483581 165:0.045867354 180:0.13903542 189:0.18490277 192:0.040133934 201:0.045867354 202:0.074534453 203:0.035833869 206:0.057334192 215:0.13186865 232:0.11036832 237:0.077401161 246:0.073101096 260:0.17486928 338:0.050167419 349:0.068801031 350:0.061634257 401:0.12040181 461:0.043000646 467:0.028667096 486:0.11753509 496:0.043000646 506:0.067367673 519:0.071667738 551:0.021500323 567:0.064500965 574:0.038700581 584:0.15336896 595:0.044434 637:0.093168065 647:0.061634257 656:0.090301357 675:0.087434642 802:0.063067615 862:0.068801031 1053:0.073101096 1054:0.094601415 1091:0.048734065 1127:0.010033484 1153:0.25657052 1173:0.060200904 1214:0.043000646 1226:0.14190213 1254:0.11036832 1330:0.043000646 1332:0.060200904 1344:0.067367673 1345:0.043000646 1364:0.031533808 1393:0.11466838 1400:0.13473535 1414:0.091734707 1416:0.048734065 1421:0.057334192 1431:0.084567934 1493:0.15336896 1504:0.043000646 1513:0.035833869 1517:0.29813781 1519:0.1017682 1531:0.11180168 1533:0.45007342 1544:0.050167419 1564:0.051600773 1601:0.21643658 1611:0.060200904 #
0.43050438837464805041932436324714 1:0.01963832 16:0.024875205 24:0.19507398 25:0.014401434 44:0.05105963 60:0.17936333 68:0.23827828 80:0.053678073 81:0.04844119 102:0.089027047 124:0.023565983 266:0.11128381 339:0.10211926 344:0.065461062 361:0.21078463 507:0.060224179 536:0.15056045 538:0.05105963 540:0.035348974 587:0.065461062 650:0.25922582 1127:0.03011209 1135:0.10473771 1440:0.13092212 1473:0.068079509 1493:0.096882381 1577:0.32337767 1592:0.058914959 1694:0.073316395 1698:0.073316395 1723:0.10604692 1748:0.71352559 1936:0.01047377 #
0.48210626323390576297711618281028 1:0.033662472 15:0.074057437 16:0.13330339 24:0.10368041 25:0.036355469 38:0.13195689 50:0.26929978 60:0.39721715 68:0.15888686 106:0.13734289 152:0.1131059 417:0.064631946 537:0.070017941 540:0.095601417 551:0.084829427 848:0.63285446 1127:0.040394966 1202:0.30700174 1375:0.018850984 1440:0.27333927 1493:0.24910228 #
0.26215631671520439605060914800561 8:0.15862544 16:0.03359127 25:0.037323631 37:0.082111992 40:0.083978176 81:0.063450173 90:0.072781086 117:0.095175266 172:0.30791998 251:0.15302689 280:0.065316357 286:0.22394179 388:0.052253086 430:0.11570326 546:0.074647263 618:0.18475199 686:0.12876654 784:0.052253086 851:0.27059633 907:0.15862544 1020:0.078379631 1022:0.22580798 1023:0.16609016 1048:0.19035053 1227:0.095175266 1267:0.23887125 1292:0.16049162 1391:0.12690035 1424:0.20901234 1440:0.16422398 1493:0.11943562 1504:0.082111992 1515:0.21834324 1544:0.19035053 1559:0.055985447 1575:0.055985447 1588:0.11197089 1596:0.080245808 1598:0.28739196 1599:0.26873016 1623:0.097041443 #
0.025014416141013670613624242378137 1:0.015059693 8:0.10353538 9:0.088475689 14:0.090358153 16:0.086593233 17:0.092240617 25:0.035766769 36:0.11294769 37:0.21648307 60:0.10353538 93:0.075298458 102:0.077180922 124:0.080945849 135:0.065886155 150:0.088475689 229:0.11483015 268:0.10541785 276:0.22213046 282:0.22401293 361:0.18259877 450:0.12047754 540:0.12424246 559:0.33131322 715:0.14118461 784:0.069651075 787:0.1618917 981:0.24848492 1045:0.171304 1085:0.17883384 1127:0.026354462 1167:0.13930215 1411:0.15247938 1440:0.25977969 1493:0.23530769 1508:0.14494954 1558:0.14306708 1577:0.28048676 1894:0.30684122 1940:0.060238771 #
-0.51875369653964908955856571992626 1:0.014004581 25:0.032677356 69:0.077803224 74:0.082471423 113:0.068466842 145:0.093363874 180:0.054462258 224:0.15249433 243:0.15405039 281:0.091807805 313:0.14315794 368:0.13848974 377:0.14315794 452:0.080915354 473:0.12915336 603:0.40457678 810:0.1664989 834:0.14315794 855:0.13848974 1062:0.10581239 1252:0.23963393 1364:0.074691094 1376:0.059130453 1395:0.34077814 1418:0.13226548 1440:0.337666 1453:0.084027484 1493:0.24897033 1559:0.066910774 1593:0.30810079 1599:0.057574388 1614:0.057574388 1617:0.21162477 1628:0.12915336 1865:0.14782614 1933:0.12604123 #
-0.61508327453908673287941155649605 1:0.039002188 11:0.060556024 25:0.011290106 52:0.088268101 61:0.11084832 85:0.35615155 149:0.074925251 152:0.50087017 214:0.16627248 228:0.051318664 256:0.13445491 388:0.066714264 514:0.10161096 536:0.088268101 799:0.30380651 1409:0.1272703 1440:0.15600875 1493:0.22374938 1599:0.18166807 1614:0.060556024 1627:0.069793388 1780:0.54397786 #
-0.42328368469267485529883288108977 1:0.041866001 11:0.020933 15:0.048306923 25:0.04025577 55:0.42671117 70:0.086952463 79:0.090172924 111:0.059578538 123:0.061188769 156:0.062798999 171:0.14009008 232:0.091783158 277:0.075680844 473:0.093393385 588:0.059578538 608:0.091783158 770:0.12398777 784:0.046696693 1016:0.13525939 1127:0.017712539 1211:0.40416792 1229:0.088562697 1329:0.125598 1369:0.2141607 1391:0.11110593 1402:0.090172924 1410:0.098224081 1414:0.17551516 1440:0.104665 1442:0.090172924 1448:0.077291079 1475:0.17068447 1490:0.251196 1493:0.16907424 1499:0.17873561 1564:0.086952463 1599:0.13525939 1618:0.21577093 1624:0.054747846 1725:0.10627523 1758:0.15297192 1955:0.28179038 1990:0.18195608 #
-0.40431629596721507802215000992874 22:0.059633471 25:0.026678132 41:0.0847423 57:0.048648357 67:0.070618585 107:0.10357393 109:0.056494869 118:0.072187886 123:0.13652927 145:0.075326487 175:0.064341381 180:0.059633471 196:0.18360832 246:0.067479983 276:0.054925565 291:0.21342506 299:0.15536089 350:0.22597948 369:0.054925565 409:0.087880909 441:0.32484549 461:0.081603698 499:0.076895796 557:0.0847423 674:0.15222229 1011:0.12397485 1083:0.10357393 1132:0.13025206 1178:0.12711345 1292:0.078465097 1296:0.13182136 1345:0.080034398 1364:0.11926694 1414:0.021970227 1422:0.11769764 1424:0.065910682 1427:0.021970227 1440:0.14908367 1442:0.21656366 1493:0.27933574 1519:0.098866016 1537:0.094158113 1570:0.11455904 1575:0.054925565 1592:0.15222229 1599:0.20243995 1627:0.053356264 1628:0.41900361 1962:0.17576182 1982:0.17576182 #
0.65199440794395147058537531847833 1:0.016288163 6:0.076011434 15:0.020360205 17:0.077368781 25:0.029861633 26:0.093656942 27:0.19002858 78:0.12080389 90:0.080083475 108:0.26875469 164:0.093656942 229:0.19274327 251:0.19002858 280:0.071939386 537:0.077368781 573:0.22531959 929:0.72346592 936:0.12759061 1080:0.059723265 1091:0.051579185 1127:0.021717552 1424:0.089584902 1447:0.042077757 1463:0.14252143 1493:0.20360205 1550:0.18459919 1559:0.061080616 1584:0.032576326 1605:0.005429388 1610:0.20631674 1633:0.071939386 #
-0.59252470891137221098432519283961 1:0.077939659 11:0.036844201 20:0.094944671 25:0.014170847 57:0.15446223 109:0.090693414 121:0.066602975 122:0.23948731 135:0.077939659 138:0.3500199 176:0.15021098 190:0.23381896 220:0.10769843 235:0.16154765 237:0.11478385 272:0.13037179 369:0.086442165 505:0.20972852 519:0.10628135 524:0.16721599 535:0.17855267 551:0.065185897 577:0.15021098 872:0.083607994 895:0.13178888 1080:0.083607994 1111:0.55266303 1141:0.065185897 1146:0.0070854235 1330:0.12753762 1453:0.076522574 1493:0.22956771 1519:0.10628135 1559:0.17288433 1600:0.096361756 #
-0.45244878390768994425030768979923 1:0.035470631 10:0.059117716 11:0.024960814 15:0.039411809 21:0.067000076 25:0.039411809 32:0.059117716 43:0.067000076 57:0.053862806 63:0.055176534 74:0.072254986 83:0.060431443 89:0.21545123 105:0.089333437 108:0.2088826 118:0.08013735 121:0.091960892 150:0.073568717 152:0.11954916 165:0.093274616 222:0.077509895 246:0.07488244 253:0.15239233 279:0.18392178 403:0.081451073 424:0.13662761 445:0.14056879 512:0.10247071 537:0.036784358 554:0.12349034 560:0.14976488 574:0.15764724 608:0.11298052 822:0.11823543 840:0.15633352 895:0.090647161 1091:0.14976488 1116:0.18129432 1127:0.042039264 1272:0.1458237 1300:0.12480406 1403:0.072254986 1420:0.28113759 1493:0.18129432 1510:0.41382402 1513:0.072254986 1531:0.11429425 1535:0.081451073 1580:0.27588266 1590:0.18917669 1599:0.090647161 1611:0.12217661 1614:0.051235355 1961:0.1747257 #
-0.22956396525021555143908358331828 1:0.0093552014 15:0.012473602 20:0.039499737 25:0.0062368009 31:0.046776004 41:0.057170674 43:0.040539205 57:0.22972216 67:0.047815472 74:0.044697072 97:0.051973339 100:0.32743204 107:0.21101175 113:0.074841611 152:0.036381338 175:0.087315209 224:0.083157346 268:0.10706508 275:0.08107841 287:0.12681495 322:0.13617015 379:0.11849921 410:0.15799895 415:0.13720961 456:0.065486409 470:0.16631469 485:0.20581442 491:0.088354677 511:0.066525877 557:0.057170674 573:0.044697072 590:0.066525877 606:0.19957763 681:0.072762676 855:0.10914401 1048:0.062368006 1091:0.061328541 1127:0.013513068 1168:0.015592001 1170:0.075881071 1196:0.051973339 1217:0.17878829 1223:0.064446941 1265:0.12577549 1267:0.23699842 1364:0.16215682 1428:0.12889388 1440:0.061328541 1456:0.097709879 1460:0.13720961 1473:0.17670935 1493:0.3565371 1575:0.037420806 1599:0.25778776 1607:0.12369655 1614:0.062368006 1672:0.098749347 1711:0.014552535 1924:0.13305175 1929:0.13305175 1980:0.062368006 #
-0.52328428984403974055794606101699 1:0.090576954 2:0.10650257 3:0.14930266 4:0.26476339 5:0.097544409 10:0.052753609 11:0.067683876 13:0.14731197 15:0.12342354 16:0.063702472 23:0.062707119 24:0.14830732 27:0.041804746 28:0.060716417 30:0.26277271 43:0.059721068 60:0.18911672 98:0.60417813 124:0.029860534 132:0.089581601 329:0.093563005 341:0.076642036 408:0.062707119 423:0.11844678 425:0.12342354 455:0.17518179 458:0.18015856 548:0.078632742 781:0.033841938 851:0.25978664 855:0.062707119 1080:0.10252117 1127:0.094558358 1133:0.10053046 1156:0.15328407 1405:0.11247468 1424:0.060716417 1471:0.032846589 1493:0.16124688 1497:0.10650257 1505:0.079628088 1527:0.094558358 1624:0.060716417 #
-0.56965030357269896832406175235519 1:0.14190368 2:0.18987112 3:0.39773002 4:0.20186298 5:0.064955913 7:0.23783857 10:0.070951842 12:0.14490165 15:0.046968121 27:0.054962695 29:0.20186298 33:0.086940989 43:0.15889215 48:0.10892607 53:0.16988468 60:0.30279449 70:0.12591453 84:0.12391589 282:0.087940305 386:0.15589419 922:0.1199186 1079:0.026981685 1127:0.12591453 1262:0.11092471 1329:0.13890572 1440:0.0059959302 1493:0.52564323 1496:0.023983721 1505:0.1059281 1519:0.11392267 1594:0.022984399 1595:0.10293014 1599:0.093936242 #
-0.12757333076180116249176421661105 1:0.052628085 2:0.064110577 3:0.33490598 4:0.10142867 5:0.044016216 7:0.15979801 10:0.047843713 11:0.040188719 12:0.097601175 13:0.4430328 15:0.11099742 16:0.028706228 23:0.056455582 27:0.037318096 29:0.13587615 53:0.057412457 98:0.31002727 158:0.066024326 180:0.061239954 249:0.5616852 329:0.084204935 436:0.11386804 851:0.077506818 855:0.061239954 912:0.083248064 979:0.091859929 987:0.064110577 1127:0.067938074 1186:0.11769553 1329:0.11291116 1424:0.022008108 1440:0.1042993 1478:0.078463688 1493:0.16553925 1599:0.22103795 #
-0.21927682849388593910866518399416 1:0.053646572 2:0.18940525 3:0.19816387 4:0.29998288 7:0.11824143 10:0.14013799 11:0.06021554 13:0.13028453 15:0.1872156 27:0.1094828 33:0.17298283 43:0.15765524 127:0.26166388 240:0.20144835 439:0.13028453 458:0.47734502 489:0.22115526 1127:0.09962935 1136:0.18502593 1289:0.1445173 1397:0.10181901 1493:0.413845 1503:0.014232764 1519:0.12152591 1619:0.10729314 #
0.58431897856057157802922574774129 1:0.010636493 15:0.08025717 49:0.23980455 217:0.061885048 248:0.44673267 372:0.072521538 400:0.073488496 537:0.14987785 547:0.62465221 937:0.12763791 1127:0.085091941 1354:0.046413787 1440:0.25044104 1493:0.11216664 1506:0.023206893 1529:0.14310917 1552:0.039645109 1564:0.42836055 1599:0.046413787 #
0.40776787199237457537392970152723 1:0.016046586 14:0.10774136 15:0.057309236 16:0.15473494 25:0.035531726 38:0.050432127 40:0.065332524 45:0.058455419 49:0.043555018 54:0.15129638 90:0.05616305 97:0.12149557 124:0.048139758 135:0.03897028 138:0.058455419 175:0.051578309 237:0.057309236 288:0.21662891 503:0.11117992 537:0.053870682 540:0.036677912 551:0.032093171 559:0.098571882 568:0.12378795 570:0.037824094 573:0.10544899 582:0.067624897 592:0.13868834 594:0.040116463 662:0.098571882 699:0.72553492 790:0.093987145 833:0.11805702 902:0.13066505 941:0.10544899 1022:0.088256225 1127:0.076794371 1214:0.06304016 1397:0.033239357 1402:0.080232926 1406:0.13181125 1419:0.17422007 1420:0.067624897 1421:0.08481767 1440:0.018338956 1493:0.14556545 1505:0.064186342 1513:0.051578309 1519:0.10888755 1529:0.10774136 1544:0.074502006 1588:0.087110035 1591:0.073355824 1592:0.060747787 1594:0.053870682 1621:0.088256225 1624:0.097425699 #
0.79868865931679522418562555685639 1:0.0083943438 8:0.10912647 9:0.031898506 16:0.092337787 25:0.047008328 34:0.073870227 49:0.025183033 62:0.031898506 70:0.023504164 93:0.0268619 160:0.10073213 166:0.13095176 193:0.068833619 244:0.033577375 257:0.27029788 272:0.18971218 283:0.14941932 294:0.10241099 306:0.031898506 317:0.13934611 362:0.15277706 369:0.052044932 379:0.041971721 453:0.092337787 514:0.036935113 537:0.016788688 540:0.08730118 548:0.070512488 578:0.060439277 585:0.080585703 594:0.047008328 654:0.10912647 767:0.1074476 786:0.057081539 853:0.11752082 1091:0.021825295 1231:0.090658918 1239:0.34081036 1295:0.16452914 1304:0.16788688 1345:0.036935113 1416:0.085622311 1440:0.31059074 1477:0.1074476 1493:0.46840441 1495:0.12759402 1540:0.053723801 1558:0.10408986 1559:0.052044932 1575:0.078906834 1577:0.099053264 1599:0.25183031 1627:0.20146427 #
-0.21993859939887805410307919373736 1:0.010709504 15:0.086649619 25:0.021419007 111:0.16064255 118:0.34951925 121:0.20348057 149:0.069124974 180:0.077887297 242:0.23074111 270:0.50626743 431:0.11488377 449:0.39235726 531:0.039917242 555:0.42740655 581:0.19179747 583:0.086649619 953:0.083728842 1026:0.12754045 1265:0.086649619 1414:0.089570396 1455:0.031154919 1493:0.14019714 1519:0.097359121 1575:0.13240841 #
0.50779962764643027384181550587527 1:0.0092548868 9:0.037019547 11:0.012339849 14:0.07609573 19:0.094605505 25:0.0051416038 32:0.059642602 44:0.11003032 46:0.1336817 57:0.054500997 60:0.10694536 72:0.038047865 80:0.039076187 135:0.054500997 153:0.070954129 164:0.046274431 237:0.040104508 269:0.062727563 283:0.1388233 287:0.052444357 343:0.13162506 560:0.10283207 676:0.079180695 702:0.57483131 703:0.47302753 754:0.071982451 895:0.046274431 896:0.079180695 919:0.086378939 981:0.10386039 1038:0.087407261 1064:0.14499322 1127:0.031877942 1182:0.022623057 1333:0.02673634 1396:0.05861428 1402:0.05655764 1407:0.10283207 1424:0.063755885 1478:0.062727563 1493:0.22931552 1519:0.17481452 1551:0.35888392 1599:0.07609573 1611:0.030849621 #
0.562948796627677494619490516925 24:0.21460599 32:0.2287042 80:0.29762876 102:0.24750181 135:0.20677365 272:0.057959281 304:0.13628264 382:0.0015664671 906:0.14881438 971:0.1049533 1087:0.1190515 1262:0.12531736 1375:0.15351377 1414:0.14881438 1440:0.10025389 1493:0.19424191 1520:0.7284072 #
0.35318679341756370471117065790168 1:0.010009044 15:0.115104 25:0.037533913 26:0.17766052 45:0.31778714 49:0.23271026 89:0.14012662 92:0.16514921 95:0.20268314 124:0.13011757 147:0.23771478 163:0.19767861 175:0.13762435 180:0.087579131 274:0.18266505 329:0.20268314 503:0.36282784 593:0.27274644 981:0.19767861 1127:0.12261079 1355:0.14513113 1371:0.14012662 1493:0.32779616 1594:0.19767861 1599:0.22270122 1632:0.002502261 #
-0.21821517437773416125956771338679 1:0.042928409 25:0.0083762743 55:0.37693235 62:0.12355005 76:0.058633924 82:0.068057232 85:0.33295691 111:0.061775025 114:0.19684245 152:0.15077294 177:0.011517378 195:0.067010194 368:0.12669115 415:0.097374193 448:0.29421663 895:0.22825348 961:0.058633924 1067:0.067010194 1419:0.093186058 1493:0.28479335 1610:0.08480978 1614:0.042928409 1619:0.021987721 1627:0.049210612 1684:0.058633924 1685:0.058633924 1706:0.08480978 1757:0.4209078 1834:0.17066659 1884:0.13402039 1888:0.37379125 #
-0.26520849522078282500814339073258 1:0.039928734 25:0.022029646 33:0.081234321 55:0.1665992 57:0.059204672 62:0.081234321 68:0.093625993 72:0.082611173 77:0.081234321 93:0.06746579 102:0.070219494 108:0.057827819 112:0.11703249 121:0.050943557 152:0.13355473 203:0.082611173 260:0.26435575 416:0.19688997 447:0.13217787 488:0.15283068 506:0.15283068 510:0.13080102 543:0.10051026 551:0.15007696 574:0.086741731 581:0.096379697 587:0.10188711 594:0.060581528 953:0.17072976 1005:0.20515108 1127:0.14043899 1197:0.14181584 1198:0.17899087 1201:0.16246864 1331:0.17348346 1338:0.1665992 1437:0.14456955 1466:0.18036772 1493:0.30428448 1497:0.083988026 1529:0.071596347 1555:0.4529846 1590:0.011014823 1619:0.012391676 1790:0.18174458 #
0.29693242822219922949500414688373 1:0.019512996 6:0.18448649 16:0.088695429 25:0.047895532 50:0.17739086 120:0.26076457 248:0.27495584 276:0.15078224 404:0.17384304 537:0.092243247 719:0.1419127 729:0.14546052 782:0.38493818 1127:0.053217258 1419:0.13304316 1493:0.039025992 1525:0.02483472 1536:0.22351249 1541:0.67585921 #
0.38901588166029815729629603993089 1:0.0018582706 9:0.14866166 15:0.020440977 16:0.074330829 25:0.02973233 78:0.12264586 121:0.048315037 124:0.035307143 135:0.05574812 213:0.10034662 221:0.15237819 251:0.16352782 261:0.14680338 272:0.19511841 412:0.11892932 570:0.057606392 599:0.042740226 646:0.24900827 722:0.12078759 911:0.087338723 1121:0.26201618 1127:0.022299249 1200:0.11707105 1305:0.27874058 1340:0.076189093 1427:0.20440978 1493:0.22485074 1522:0.11149624 1527:0.10963797 1586:0.6002214 1588:0.12450413 1599:0.24900827 1633:0.072472557 #
0.38831550712914836287481534782273 1:0.013728268 9:0.071583115 14:0.024514765 16:0.082369611 24:0.018631222 25:0.029417718 32:0.21376875 44:0.071583115 49:0.019611811 56:0.027456537 60:0.028437126 64:0.035301261 76:0.023534173 83:0.040204212 96:0.055893663 102:0.021572992 103:0.093156107 111:0.024514765 130:0.047068346 131:0.044126578 161:0.040204212 166:0.027456537 181:0.045107167 193:0.026475945 203:0.049029529 219:0.09119492 237:0.078447245 272:0.079427838 280:0.047068346 420:0.050010119 496:0.029417718 511:0.03628185 536:0.11178733 537:0.012747677 540:0.033340078 551:0.014708859 563:0.057854842 594:0.03628185 595:0.030398307 757:0.65895689 784:0.038243033 821:0.13139914 823:0.11767087 824:0.058835436 831:0.06569957 832:0.052951891 860:0.0725637 944:0.39125565 947:0.12845737 1020:0.028437126 1021:0.098059058 1024:0.11570968 1074:0.050990708 1103:0.046087757 1127:0.020592403 1148:0.03628185 1187:0.034320671 1277:0.032359488 1292:0.028437126 1339:0.15395272 1345:0.029417718 1362:0.044126578 1366:0.044126578 1370:0.050990708 1435:0.057854842 1444:0.034320671 1462:0.03628185 1488:0.052951891 1493:0.31673077 1528:0.035301261 1601:0.037262443 1605:0.11570968 1608:0.037262443 1615:0.03628185 1621:0.040204212 1624:0.022553584 1692:0.093156107 1729:0.054913074 #
0.29380293966169490627038385355263 1:0.0030757084 6:0.096372195 9:0.094321728 17:0.098422669 25:0.012302834 47:0.13533117 65:0.091246016 72:0.097397432 78:0.076892711 102:0.083044127 124:0.044085152 256:0.02152996 268:0.11277597 283:0.027681375 324:0.11687692 537:0.048186097 794:0.10559932 947:0.094321728 1066:0.10149838 1190:0.25835949 1333:0.071766533 1419:0.12815452 1493:0.15378542 1535:0.10662456 1587:0.010252361 1619:0.1220031 1633:0.090220779 1651:0.27168757 1652:0.27168757 1715:0.11482645 1814:0.72074097 1946:0.12302834 1948:0.12302834 1967:0.061514169 #
0.58294806373211349725949048661278 1:0.0087815169 9:0.086058863 15:0.022831943 16:0.04215128 25:0.035126068 47:0.12294123 65:0.084302559 80:0.091327772 135:0.18968076 346:0.22480683 384:0.12294123 388:0.33018503 440:0.14928578 498:0.4250254 503:0.14752948 537:0.043907583 551:0.054445405 566:0.17738664 573:0.087815166 907:0.20197488 918:0.13699166 1120:0.27222702 1127:0.024588246 1167:0.16860512 1202:0.19319336 1214:0.10362189 1345:0.20724379 1440:0.23183204 1493:0.36882371 1599:0.11942863 1630:0.14577317 #
0.40716652296941335809066231377074 1:0.024820285 6:0.14301212 25:0.018910693 45:0.15719514 50:0.13828444 57:0.10282689 102:0.12291951 124:0.065005511 185:0.63469017 228:0.17846967 251:0.12528335 256:0.20565379 257:0.30257109 272:0.070915103 307:0.12528335 348:0.10991841 537:0.072097018 551:0.087461956 898:0.12055567 1127:0.081552364 1379:0.12291951 1408:0.16192281 1440:0.20919955 1493:0.38175961 1557:0.11228224 1619:0.10164498 #
0.43581913654832016291607033053879 1:0.0034948969 6:0.059413247 8:0.067568004 16:0.057083316 25:0.023299312 39:0.075722769 46:0.14096084 56:0.13164112 65:0.055918351 78:0.04776359 80:0.061743177 90:0.061743177 124:0.02679421 172:0.088537388 184:0.10368194 242:0.083877526 280:0.055918351 363:0.13397105 1200:0.090867318 1424:0.036113933 1440:0.064073108 1461:0.11999146 1493:0.41123286 1497:0.1048469 1507:0.7863518 1519:0.13513601 1544:0.081547596 1568:0.16542512 1868:0.076887734 #
0.50282457632303412253804708598182 1:0.028772965 17:0.21247728 19:0.39396828 25:0.01327983 39:0.1327983 72:0.21026397 106:0.20362405 150:0.10402533 190:0.11287855 274:0.1327983 383:0.22354381 475:0.21026397 560:0.17485109 969:0.25453007 1093:0.15714465 1119:0.20583737 1127:0.028772965 1259:0.0022133051 1440:0.21469058 1493:0.32535583 1548:0.34970218 1598:0.2700232 1600:0.15714465 1633:0.097385421 1905:0.12394508 #
0.31652629417797517596966372366296 1:0.0055570509 9:0.081966504 15:0.022228204 17:0.086134292 25:0.011114102 26:0.20838942 36:0.10697323 37:0.10141619 50:0.081966504 103:0.32091969 121:0.052791987 217:0.15420817 276:0.069463141 286:0.080577239 309:0.11114103 497:0.26812771 537:0.043067146 565:0.10419471 601:0.48624197 704:0.088912815 749:0.077798717 853:0.46540302 858:0.16671154 871:0.11391955 1123:0.28202036 1127:0.023617467 1440:0.19727531 1457:0.21950352 1493:0.023617467 #
0.33575078984343703636383793309506 1:0.008385919 9:0.098534554 14:0.051363755 16:0.024109518 25:0.019916559 36:0.063942634 37:0.060797915 38:0.096438073 42:0.07861799 60:0.057653196 80:0.052411996 92:0.057653196 96:0.057653196 102:0.044026077 163:0.15409127 228:0.10482399 266:0.054508474 276:0.041929595 321:0.14885007 352:0.11740287 419:0.081762716 537:0.051363755 540:0.034591917 784:0.038784876 870:0.082810953 906:0.074425034 1168:0.16667014 1227:0.070232071 1318:0.063942634 1415:0.12474055 1424:0.053460237 1440:0.073376797 1493:0.077569753 1519:0.091196872 1544:0.070232071 1596:0.058701437 1611:0.041929595 1690:0.072328553 1761:0.84278488 1841:0.14885007 1852:0.14885007 1941:0.062894396 #
0.38238643541992173302546120794432 1:0.0053707324 9:0.13605855 11:0.048336592 15:0.037595127 47:0.19513661 49:0.11278538 78:0.11099514 124:0.062658548 135:0.10025367 150:0.13784879 318:0.75369281 411:0.10562441 421:0.13963905 515:0.17544393 746:0.14680003 1017:0.15038051 1045:0.26495615 1127:0.039385371 1493:0.21303906 1599:0.15754148 1601:0.093092695 1609:0.0071609765 1633:0.13068782 1928:0.20050734 #
0.13460695702453404076770482333814 1:0.0079490198 9:0.23392829 15:0.031796079 16:0.057914287 24:0.26913109 25:0.031796079 40:0.14648908 60:0.068134457 70:0.086303644 121:0.074947901 124:0.10901513 314:0.0794902 324:0.18169188 376:0.458772 381:0.13399777 511:0.17601401 538:0.13854006 566:0.15103137 570:0.12037087 604:0.5371266 864:0.15330252 1127:0.068134457 1345:0.14194678 1445:0.21008123 1493:0.1408112 1499:0.17828515 1517:0.1408112 1598:0.091981515 1966:0.017033614 #
-0.17855695060996537582020948775607 1:0.026145216 2:0.27521279 3:0.14448671 5:0.18852076 104:0.2518197 125:0.27108461 126:0.29585376 333:0.11008511 369:0.2064096 443:0.057794686 537:0.12797394 549:0.2518197 691:0.063298941 838:0.13898246 967:0.18026438 995:0.10045267 1091:0.17200799 1096:0.063298941 1349:0.1761362 1383:0.012384576 1394:0.1871447 1440:0.027521279 1456:0.54629737 1493:0.034401599 1614:0.17476012 1625:0.090820223 #
0.23034284737367438644639605627162 1:0.0054054549 6:0.32838139 16:0.078379095 25:0.02162182 92:0.18783955 101:0.25000229 124:0.074325003 150:0.16216365 267:0.27702954 276:0.13378501 337:0.10675773 446:0.089190006 537:0.082433186 864:0.14054182 1020:0.37432775 1088:0.12432546 1146:0.17838001 1404:0.38108456 1440:0.13648774 1444:0.22973183 1493:0.30405682 1599:0.15540682 1614:0.11216319 1619:0.11892001 1878:0.26081321 #
0.24171135773504162647107307293481 9:0.15635553 16:0.1531646 17:0.16273738 25:0.043077543 164:0.19624215 262:0.090941481 320:0.1531646 490:0.33026117 537:0.081368692 685:0.19305122 790:0.15476006 983:0.086155087 1020:0.36536139 1341:0.18986028 1373:0.11487345 1440:0.20581493 1449:0.33504757 1493:0.12285078 1513:0.15635553 1599:0.15476006 1632:0.27282444 1949:0.44034824 #
0.37910431334132715930351764654915 1:0.0070453989 6:0.16103768 9:0.039252937 14:0.12178475 16:0.019123226 17:0.041265909 24:0.14996634 25:0.032207537 26:0.049317792 36:0.050324276 38:0.038246453 40:0.049317792 54:0.038246453 57:0.029188082 60:0.023149168 64:0.057369675 68:0.092596672 71:0.19626468 83:0.032207537 124:0.018116741 129:0.63911831 146:0.083538301 148:0.072466962 157:0.10064855 175:0.1539923 184:0.069447502 210:0.085551269 211:0.061395619 212:0.071460471 223:0.065421559 237:0.086557761 255:0.085551269 280:0.076492906 294:0.064415075 370:0.14795338 378:0.093603157 493:0.19727117 494:0.19223873 540:0.02717511 547:0.084544785 560:0.07749939 623:0.088570729 649:0.080518842 671:0.22645925 687:0.10366801 955:0.080518842 1010:0.058376163 1091:0.081525333 1123:0.11071341 1127:0.011071341 1421:0.064415075 1440:0.21337494 1479:0.061395619 1493:0.034220509 1497:0.095616125 1539:0.019123226 1578:0.048311308 1592:0.045291848 1598:0.13486907 1613:0.19022577 1624:0.037239965 1752:0.095616125 1782:0.069447502 #
0.28061439508664820507988224562723 288:0.52324611 304:0.10979266 699:0.5825935 737:0.086053707 774:0.11276003 918:0.10583617 923:0.096934058 1027:0.073195107 1049:0.062314752 1119:0.050445277 1182:0.043521415 1292:0.30069342 1325:0.069238618 1373:0.091988444 1493:0.20771584 1504:0.30761728 1513:0.25123727 1558:0.12561864 #
0.24819653434338262432135024937452 50:0.25563514 54:0.24921753 248:0.39468357 251:0.18183254 272:0.080220237 464:0.44067648 784:0.2032246 1081:0.071663409 1112:0.055619363 1120:0.4075188 1307:0.14760524 1373:0.12407397 1406:0.32515934 1440:0.054549761 1493:0.34869063 #
0.23168679431678287916618330655183 25:0.015311018 30:0.092886843 32:0.091866106 36:0.14596504 37:0.13984063 47:0.16331752 49:0.18679442 65:0.11023933 78:0.092886843 93:0.19189809 124:0.053078193 251:0.16944192 280:0.33173871 284:0.52057457 366:0.064306274 390:0.12248814 625:0.081658758 1185:0.18373221 1275:0.028580567 1384:0.40829381 1493:0.16433826 1599:0.16842119 1809:0.35725707 #
-0.15190995702854992455144156338065 1:0.013544812 25:0.054179247 35:0.049664311 52:0.027089624 59:0.030475827 63:0.020317217 70:0.019188484 105:0.032733295 108:0.32959041 118:0.1185171 119:0.025960889 121:0.10271482 128:0.053050514 138:0.029347092 149:0.12754698 152:0.089170009 171:0.12641825 203:0.082397602 208:0.12077457 222:0.40182942 230:0.054179247 240:0.094813682 259:0.039505702 281:0.030475827 282:0.12190331 297:0.047406841 332:0.044020638 396:0.046278108 397:0.29911458 432:0.10497229 510:0.044020638 515:0.033862028 519:0.13544811 529:0.081268869 541:0.072238997 551:0.016931014 566:0.057565451 574:0.029347092 575:0.049664311 581:0.064337857 584:0.038376968 592:0.034990765 595:0.033862028 668:0.054179247 670:0.049664311 678:0.062080387 706:0.060951654 764:0.1185171 784:0.063209124 885:0.048535574 1118:0.074496463 1180:0.046278108 1187:0.038376968 1193:0.090298742 1272:0.054179247 1292:0.031604562 1320:0.21445952 1416:0.037248231 1420:0.17382509 1421:0.021445952 1422:0.047406841 1440:0.17721128 1443:0.041763172 1473:0.036119498 1476:0.093684949 1493:0.071110263 1502:0.055307981 1505:0.032733295 1510:0.1151309 1516:0.06998153 1519:0.12867571 1522:0.040634435 1535:0.030475827 1570:0.046278108 1575:0.022574686 1611:0.045149371 1633:0.25735143 1763:0.14899293 1831:0.07788267 1846:0.07788267 1847:0.063209124 1855:0.2528365 1859:0.063209124 1978:0.13206191 1995:0.16366647 #
0.16729655145730704113304909697035 1:0.013845994 6:0.099691153 11:0.034614984 15:0.10661415 16:0.047076378 17:0.10107575 25:0.026307387 27:0.06230697 32:0.078922167 36:0.12461394 38:0.18830551 45:0.2187667 56:0.11076795 60:0.11353715 89:0.096921958 90:0.10384496 93:0.081691362 102:0.085845165 121:0.06230697 124:0.08999896 135:0.07199917 150:0.098306559 170:0.13707533 446:0.22430509 537:0.049845576 657:0.16753653 692:0.13569073 754:0.10938335 898:0.16476732 1127:0.085845165 1361:0.10938335 1424:0.06230697 1440:0.076152965 1493:0.34061146 1558:0.10246035 1582:0.11215255 1599:0.17722872 1730:0.13153695 1737:0.56214732 1740:0.28107366 #
0.29249507965103482831636938499287 1:0.029698124 15:0.032073975 16:0.058208324 24:0.090282299 25:0.048704922 44:0.23758499 45:0.26728311 49:0.19481969 65:0.11522872 92:0.13898721 96:0.13898721 102:0.1045374 124:0.054644547 131:0.21857819 150:0.11998042 180:0.096221924 276:0.099785693 446:0.11641665 910:0.072463423 965:0.026134349 972:0.1758129 1049:0.12235627 1055:0.20313516 1079:0.16630949 1127:0.034449823 1222:0.21857819 1275:0.07721512 1313:0.039201524 1373:0.14255099 1414:0.08790645 1421:0.096221924 1440:0.07721512 1442:0.10334947 1462:0.1805646 1493:0.52862662 1536:0.14849062 1553:0.1187925 1591:0.16512157 1707:0.22570574 #
0.27908467685747434527954169425357 1:0.0051804357 6:0.13641813 15:0.036263049 25:0.017268118 51:0.18304205 83:0.11051596 113:0.11224277 124:0.062165227 268:0.15886669 286:0.044897109 354:0.16750075 498:0.65618849 784:0.10533552 888:0.12605727 921:0.17613481 1010:0.19858336 1020:0.15541306 1127:0.039716672 1140:0.29701164 1453:0.15541306 1493:0.23484641 1517:0.15886669 1535:0.15023263 1552:0.11224277 1599:0.06907247 1633:0.12778407 1667:0.23830004 1885:0.051804356 #
-0.22801719002808717995378628984326 1:0.026700599 2:0.2848064 3:0.14876048 125:0.28099203 126:0.30642116 173:0.3382076 180:0.11697406 340:0.083916172 369:0.21360479 531:0.12587425 537:0.13350299 549:0.26192015 778:0.096630737 948:0.1157026 1001:0.15766068 1035:0.1360459 1091:0.178004 1150:0.095359281 1262:0.23521957 1440:0.400509 1493:0.27717766 1614:0.18181837 1926:0.087730542 #
-0.34595434230435667677383548834769 1:0.013756681 25:0.011005345 91:0.10455077 145:0.088042758 180:0.13343981 196:0.10592645 214:0.14719649 216:0.11830746 338:0.11005345 403:0.0990481 432:0.14994782 468:0.07015907 471:0.11280479 523:0.28476331 768:0.16232884 855:0.060529396 899:0.1031751 1099:0.29439297 1101:0.083915755 1369:0.55576992 1413:0.17883685 1414:0.22836091 1440:0.26000127 1493:0.29164162 1537:0.10867778 1553:0.18296386 1556:0.10867778 1954:0.18984219 #
-0.27765475821045615401061468219268 1:0.0046965894 11:0.042269304 25:0.016438063 36:0.076319575 55:0.06105566 57:0.043443453 58:0.064578101 70:0.043443453 86:0.10567326 89:0.058707368 116:0.17729625 117:0.25244167 119:0.22895873 145:0.068100549 169:0.068100549 180:0.10684741 215:0.223088 272:0.046965893 380:0.37807545 409:0.079842016 416:0.072797135 424:0.11271814 450:0.081016168 500:0.111544 513:0.10802156 515:0.15263915 532:0.03052783 551:0.073971279 588:0.059881516 591:0.089235201 596:0.17729625 643:0.11858888 663:0.16672893 809:0.14442012 863:0.10332496 891:0.27709877 939:0.1091957 986:0.092757642 1040:0.12093718 1128:0.13737524 1156:0.070448838 1221:0.2407002 1224:0.21369481 1277:0.081016168 1293:0.13972354 1359:0.11389229 1364:0.054010779 1389:0.12563376 1469:0.11271814 1477:0.10332496 1493:0.021134652 1542:0.084538609 1559:0.04931419 1560:0.21721725 1575:0.04931419 1586:0.11976303 1594:0.072797135 1599:0.041095156 #
-0.30568616131502851507306672829145 1:0.0082811657 21:0.038300391 25:0.033124663 26:0.10454971 31:0.043476116 35:0.11386602 41:0.10558486 49:0.068319611 52:0.042440973 57:0.24429438 59:0.09316311 69:0.039335534 77:0.1676936 88:0.2536107 100:0.050722137 108:0.060038447 113:0.17390446 122:0.047616702 143:0.10351457 174:0.046581555 204:0.073495343 286:0.03105437 299:0.09626855 301:0.046581555 369:0.068319611 456:0.061073594 461:0.10144427 467:0.034159806 482:0.072460197 485:0.57347071 546:0.046581555 557:0.10662001 560:0.12421748 574:0.044511262 711:0.11593632 812:0.080741361 874:0.09626855 925:0.059003301 934:0.080741361 967:0.19978312 1076:0.26603243 1080:0.033124663 1439:0.24325924 1440:0.06210874 1493:0.2649973 1519:0.15734214 1542:0.057968158 1551:0.067284465 1599:0.1428501 #
-0.40495610639978757427925870615582 1:0.012391152 15:0.1000143 25:0.024782304 111:0.18409711 118:0.20091367 121:0.11683086 180:0.049564607 231:0.23366171 242:0.26463959 382:0.067266248 555:0.49033558 560:0.10266954 581:0.22038548 589:0.35137767 836:0.14338332 940:0.14338332 1057:0.026552469 1440:0.16993579 1464:0.10355462 1467:0.11771594 1493:0.28057107 1519:0.023897221 1575:0.15223415 1594:0.053990018 1647:0.33367601 1702:0.099129215 1900:0.11152036 1911:0.11152036 #
0.21396714685486961649019121978199 1:0.017870832 8:0.26309836 25:0.019856479 32:0.060562264 49:0.061555088 60:0.087368511 81:0.14296666 90:0.080418743 93:0.063540734 124:0.034748841 136:0.30976108 158:0.17076573 168:0.16381596 283:0.048648376 306:0.078433096 355:0.042691432 467:0.061555088 537:0.038720135 540:0.05261967 587:0.095311105 598:0.0059569441 664:0.16282314 1050:0.13800253 1127:0.021842128 1311:0.10921064 1435:0.72376871 1440:0.083397217 1493:0.21444999 1513:0.074461803 1519:0.19657914 1599:0.090346985 1614:0.05261967 1637:0.11616041 #
0.10063007128971945824957856530091 1:0.02357061 8:0.06154548 10:0.043212786 14:0.053688612 15:0.014404261 16:0.051069655 19:0.20165966 24:0.079878181 25:0.035355914 32:0.041903306 39:0.068092875 50:0.10344879 60:0.18332696 63:0.039284348 81:0.049760178 89:0.052379135 150:0.052379135 416:0.064164437 479:0.14928053 501:0.10999618 537:0.053688612 566:0.13487627 585:0.066783398 610:0.09166348 636:0.10213931 767:0.1335668 895:0.065473914 898:0.19511227 1088:0.068092875 1110:0.80925763 1127:0.04583174 1262:0.051069655 1266:0.098210879 1311:0.057617046 1422:0.092972964 1482:0.056307569 1493:0.044522263 1499:0.079878181 1517:0.062854961 1558:0.02357061 1575:0.043212786 1875:0.14666158 1919:0.10606775 #
0.12410791070918261724820297331462 1:0.0040342957 14:0.10220215 16:0.048411548 24:0.15195847 25:0.040342957 54:0.19095667 60:0.11564981 68:0.23264438 83:0.082030676 124:0.045722019 163:0.096823096 198:0.092788801 223:0.16540612 226:0.15599276 237:0.10892598 251:0.39939526 264:0.16675089 280:0.19230142 508:0.21516244 537:0.051101077 551:0.061859202 680:0.17750901 884:0.016137183 963:0.060514435 1010:0.29584834 1127:0.029584834 1176:0.063203968 1240:0.080685914 1297:0.41284293 1362:0.18019854 1366:0.18288808 1370:0.2124729 1421:0.080685914 1493:0.2622292 #
