SVM-light Version V6.02
0 # kernel type
3 # kernel parameter -d 
1 # kernel parameter -g 
1 # kernel parameter -s 
1 # kernel parameter -r 
empty# kernel parameter -u 
10 # highest feature index 
300 # number of training documents 
116 # number of support vectors plus 1 
-0.99911689 # threshold b, each following line is a SV (starting with alpha*y)
1 1:0.35897908 9:0.93334562 #
1 1:0.5774647 4:0.81641567 #
-1 1:0.40325832 4:0.91508621 #
1 1:0.098804936 7:0.99510682 #
-1 2:0.47434822 5:0.65070844 7:0.59293526 #
-1 1:1 #
1 1:0.29908752 8:0.78095073 10:0.54832709 #
1 1:1 #
1 #
-1 1:0.1443069 9:0.98953301 #
1 1:1 #
-0.89357855136791664030226911563659 1:0.43381563 10:0.90100169 #
1 #
-1 1:0.38074979 9:0.92467809 #
1 1:1 #
-1 1:1 #
-0.46980782616062477519136564296787 1:0.20874092 3:0.87472385 4:0.43736193 #
-1 #
1 1:1 #
-1 1:1 #
1 #
-1 #
1 1:1 #
-1 1:1 #
1 #
-1 #
1 1:1 #
-1 1:1 #
1 #
-1 #
1 1:1 #
-1 1:1 #
1 #
-1 #
1 1:1 #
-1 1:1 #
1 #
-1 #
1 1:1 #
-1 1:1 #
1 #
-1 #
1 1:1 #
-1 1:1 #
1 #
-1 1:1 #
1 1:1 #
-1 1:1 #
1 1:1 #
-1 1:1 #
1 1:1 #
-1 1:1 #
1 1:1 #
-1 1:1 #
1 1:1 #
-1 1:1 #
1 1:1 #
-1 1:1 #
1 1:1 #
-1 1:1 #
1 1:1 #
-1 1:1 #
1 1:1 #
1 1:1 #
-1 1:1 #
1 #
-1 10:1 #
-1 5:1 #
1 1:1 #
-1 1:1 #
1 #
-1 1:1 #
1 1:1 #
-1 1:1 #
1 1:1 #
-1 1:1 #
1 1:1 #
-1 1:1 #
1 1:1 #
-1 1:1 #
1 1:1 #
-1 1:1 #
1 #
-1 1:0.096324198 2:0.99535 #
-1 1:1 #
1 1:1 #
-1 1:1 #
1 1:1 #
-1 1:1 #
1 1:1 #
-1 1:1 #
1 1:1 #
-1 1:1 #
1 1:1 #
1 #
-1 1:1 #
1 1:1 #
-1 1:1 #
1 1:1 #
-1 1:1 #
1 1:1 #
-1 1:1 #
-1 1:0.13863212 3:0.69671524 4:0.70382458 #
-0.29223151197594438022164808899106 1:0.12739386 2:0.99185222 #
1 1:0.64898676 6:0.49922058 8:0.57410365 #
-0.86377120914973015697313485361519 1:1 #
1 1:0.41110775 9:0.91158676 #
-0.49192976137300759020831719681155 1:1 #
0.031412034814690903417044864909258 1:0.56788856 8:0.6360352 9:0.52245748 #
-0.40046752739185953462452971507446 1:1 #
0.5705932725824083284749121958157 1:0.24253562 9:0.97014248 #
-0.40450401573093525131596948085644 1:0.11923767 3:0.48630264 5:0.64061022 7:0.58216035 #
-0.09742563319518662834362032754143 1:1 #
0.12881684033583754023233325369802 1:0.29706654 6:0.95485675 #
0.18289388861226818505656410707161 #
