SVM-light Version V6.02
0 # kernel type
3 # kernel parameter -d 
1 # kernel parameter -g 
1 # kernel parameter -s 
1 # kernel parameter -r 
empty# kernel parameter -u 
10 # highest feature index 
300 # number of training documents 
122 # number of support vectors plus 1 
0.99906859 # threshold b, each following line is a SV (starting with alpha*y)
-1 3:1 #
1 3:0.87594771 6:0.48240599 #
-1 6:1 #
1 3:0.68433517 6:0.046448089 7:0.7276867 #
0.057138818657659198874121386779734 1:0.99173003 6:0.12834153 #
1 3:0.14913739 5:0.95218492 6:0.08604081 10:0.25238636 #
-1 3:1 #
1 6:1 #
-1 6:0.79435784 7:0.60745013 #
0.45189621894465087370562628166226 3:0.068543628 5:0.14235985 6:0.094906561 7:0.14763243 8:0.85943168 10:0.45344248 #
1 3:0.94346017 6:0.33148599 #
1 2:0.41649541 3:0.81361896 6:0.22277662 10:0.33900788 #
1 3:0.77167332 6:0.21045636 8:0.60019034 #
-1 3:1 #
1 6:1 #
-1 6:0.66162163 8:0.74983788 #
1 6:0.062378287 7:0.9980526 #
-1 6:0.1286919 7:0.99168462 #
1 6:0.23922317 8:0.97096461 #
-1 3:0.39466342 8:0.91882575 #
1 3:0.21612763 6:0.30875376 7:0.92626131 #
-1 10:1 #
1 3:0.30286184 6:0.081854552 8:0.94951278 #
-1 6:0.020508505 8:0.99978966 #
1 10:1 #
-1 2:0.60008305 3:0.58831674 6:0.24709302 10:0.48241973 #
1 8:1 #
-1 6:0.17746553 8:0.98412704 #
-1 6:0.23674028 8:0.89961302 9:0.36694741 #
-1 5:0.99208349 6:0.12558019 #
1 2:0.84319991 3:0.41299587 6:0.34416324 #
1 2:0.72353196 3:0.35636652 6:0.097190864 10:0.5831452 #
-1 2:0.99227786 6:0.12403473 #
0.62479877351556589726300217080279 2:0.11018991 3:0.38199168 4:0.38933769 5:0.11386291 6:0.10651691 8:0.08447893 10:0.81173235 #
-1 3:0.99077857 6:0.13549109 #
1 6:0.10653313 9:0.99430913 #
-1 6:0.30203468 9:0.95329696 #
1 6:1 #
-1 6:0.63323778 10:0.77395731 #
0.48909954373467007249232096910418 3:0.36176592 6:0.19959499 9:0.9106521 #
-1 6:0.30404016 9:0.95265919 #
1 6:0.24253562 10:0.97014248 #
-1 3:0.29116163 10:0.95667386 #
-1 10:1 #
1 6:0.20670493 9:0.97840333 #
-1 3:0.28900459 6:0.95732772 #
-1 #
1 6:0.16439898 10:0.98639393 #
1 2:0.29366094 3:0.33791122 5:0.10056882 6:0.12068258 8:0.076432303 10:0.8769601 #
1 3:0.22701718 4:0.35944387 6:0.08323963 8:0.23458442 10:0.87023252 #
1 6:1 #
-1 3:0.19529164 6:0.2148208 10:0.95692903 #
-1 3:0.42005861 5:0.87901151 6:0.22558703 #
1 3:0.12615468 6:0.073036917 8:0.98931825 #
-1 8:1 #
1 3:0.23463538 5:0.95320624 6:0.19064125 #
1 3:0.4935165 6:0.41294238 8:0.76545417 #
-1 3:0.93493217 5:0.24513465 6:0.25653628 #
-1 3:0.8799054 6:0.47514892 #
1 8:0.68427336 10:0.72922564 #
1 2:0.27553409 4:0.32145646 6:0.14836451 10:0.89371955 #
-1 6:0.16608201 10:0.98611194 #
1 3:0.87657857 6:0.48125881 #
-0.14353317038294746699200743478286 6:1 #
1 3:0.83118653 6:0.3055833 10:0.4644866 #
1 6:1 #
-1 3:0.96528602 6:0.26119503 #
-1 6:0.31368324 10:0.94952768 #
1 3:0.756823 6:0.65361989 #
-1 3:0.67267281 6:0.73994005 #
-1 6:0.5547002 10:0.83205032 #
1 3:0.80646253 5:0.56153691 6:0.1851877 #
1 #
-1 3:0.96476382 6:0.2631174 #
-1 #
1 3:0.55039519 6:0.38288361 7:0.58629054 10:0.45467427 #
1 3:0.53702611 6:0.22069564 9:0.68415654 10:0.44139129 #
0.028870101671801526310723318147211 5:0.92203057 6:0.18353215 8:0.34084541 #
-1 #
1 #
-1 #
1 #
-1 #
-1 3:0.96152395 6:0.27472112 #
-1 6:0.58549052 10:0.81067926 #
-1 6:0.82219219 10:0.56920999 #
-1 3:0.90867686 6:0.41750017 #
-1 #
1 #
1 #
-1 #
1 #
-1 #
1 #
-1 #
1 #
-1 #
1 #
-1 #
1 #
-1 #
-1 #
1 3:0.84403396 4:0.50642037 6:0.17647982 #
0.29855032698995398465768857931835 2:1 #
-1 3:0.87557769 6:0.48307735 #
-1 #
1 3:0.22031847 5:0.92800808 6:0.30043426 #
1 1:0.96782249 6:0.25163385 #
1 3:0.34926391 6:0.29293102 9:0.89005965 #
1 3:0.84403396 4:0.50642037 6:0.17647982 #
-1 3:0.77395731 6:0.63323778 #
-1 3:0.68141854 6:0.73189396 #
1 3:0.9088695 5:0.10819875 6:0.16879006 7:0.10819875 8:0.23370931 9:0.25967699 #
-1 #
0.18789938477298850916241690356401 3:0.22445007 6:0.24689507 7:0.94269031 #
-1 #
0.36268908759732959579125122218102 3:0.10250371 4:0.72935331 6:0.055194303 10:0.67415899 #
1 1:0.99137044 6:0.1310903 #
0.76280271707176816597950619325275 2:0.8804509 3:0.44022545 6:0.17609018 #
-0.093889150130444687381015000937623 #
-0.026322652442997418464898373713368 #
