SVM-light Version V6.02
0 # kernel type
3 # kernel parameter -d 
1 # kernel parameter -g 
1 # kernel parameter -s 
1 # kernel parameter -r 
empty# kernel parameter -u 
600 # highest feature index 
300 # number of training documents 
106 # number of support vectors plus 1 
-0.18458598 # threshold b, each following line is a SV (starting with alpha*y)
-3.9307341298231046265688418822615e-07 1:11 15:34 32:131 36:52 40:63 42:63 46:59 47:46 69:54 70:136 71:45 79:120 86:68 90:255 106:71 121:72 146:132 162:235 170:103 204:64 231:80 234:77 291:157 360:18 373:95 393:99 452:70 497:88 510:88 543:67 556:194 598:148 #
-8.3719570050796255971867210199377e-07 1:20 8:33 15:26 46:269 65:97 71:69 88:90 106:107 129:55 153:105 193:49 220:46 298:127 320:130 323:130 364:63 397:84 432:141 433:102 543:56 580:108 #
-1.3520566784830695782732533360981e-06 1:12 8:13 14:10 15:15 21:47 29:67 44:30 71:27 79:48 86:105 87:42 136:77 137:52 167:41 197:108 226:44 227:40 261:29 282:53 304:52 359:45 372:73 376:34 418:181 424:60 452:67 471:108 473:85 487:120 491:45 543:395 #
-5.3324246076238736234925545687258e-06 1:9 15:21 42:53 86:35 88:50 91:44 121:60 235:59 284:83 287:98 288:89 309:99 376:48 401:92 432:217 464:89 476:92 538:260 543:160 558:52 577:54 #
8.8212364332582805158356961672261e-06 1:29 4:41 8:25 10:69 15:38 31:57 51:69 79:45 81:71 106:79 149:54 168:82 204:142 226:82 261:55 285:62 312:132 314:93 320:52 322:82 360:41 371:49 372:69 479:56 481:72 543:116 #
1.4970763780336520466828290065742e-05 1:4 10:14 15:20 17:60 23:28 24:51 27:57 38:22 54:31 63:27 77:21 86:146 168:34 196:20 224:37 248:109 261:23 266:39 318:29 488:119 #
3.6631781435393477495369041890827e-06 1:23 8:9 9:51 10:13 14:70 15:24 16:22 17:53 19:20 21:97 22:42 23:50 24:60 27:25 36:63 43:26 44:21 55:29 63:24 69:22 73:29 74:30 76:41 81:26 88:24 123:22 126:28 127:55 136:79 140:40 149:59 154:30 191:32 196:54 224:66 225:31 235:29 258:16 283:52 298:103 330:66 360:53 372:25 407:66 543:130 554:48 559:80 580:36 #
7.3312601776554860521606209189382e-06 1:7 7:48 9:47 10:23 15:19 18:72 23:46 24:28 35:46 51:47 61:50 63:66 126:103 150:46 161:79 193:24 196:66 360:14 399:74 411:141 490:81 543:151 #
7.6258930009721034292964440826079e-06 1:5 10:22 15:19 27:45 53:40 59:47 63:21 79:29 86:214 117:55 179:84 193:47 224:58 335:71 353:110 463:64 525:124 537:73 543:122 557:71 #
-1.7562096266597665352327678478517e-05 1:6 15:6 46:40 47:123 81:42 122:48 126:46 164:54 352:67 431:44 492:81 580:69 582:121 #
-1.7176472231446403683783469285018e-05 1:21 8:18 9:51 10:50 14:83 15:21 22:41 25:65 31:124 32:53 41:62 53:45 56:42 61:109 62:48 63:24 69:44 93:49 106:57 141:67 142:84 149:39 150:49 184:88 263:51 284:80 359:184 373:77 385:60 491:61 543:46 #
-1.1796000484085814464380037591695e-05 1:20 15:13 38:74 60:101 89:168 129:137 258:121 294:100 360:57 371:51 432:102 #
-5.8258599952263782689385052115938e-07 1:69 8:55 15:21 30:73 38:60 46:224 71:114 83:240 94:160 108:96 115:56 294:51 298:106 323:108 400:114 406:96 543:32 576:295 588:123 #
-1.0405954734732525841903226851426e-06 1:37 8:82 14:32 15:16 22:95 31:95 63:54 108:75 130:58 149:90 154:277 213:118 237:96 244:172 317:119 360:103 371:47 385:114 432:95 487:112 543:1 573:62 580:52 #
7.8295745972298284507100846196792e-06 1:11 10:74 15:26 23:73 24:89 27:38 35:37 36:62 54:40 63:18 110:43 147:119 193:20 196:53 211:64 229:42 230:98 258:47 272:57 360:11 387:77 482:62 543:164 #
1.4350923947752273936439041876478e-06 1:10 8:9 9:26 10:38 13:53 14:21 15:17 17:27 21:65 24:30 25:33 31:21 53:45 63:12 67:50 68:63 73:29 74:30 77:19 107:28 140:40 193:13 196:18 207:99 218:36 222:70 258:16 295:26 304:72 360:38 370:42 444:109 537:78 543:243 #
1.2185589756949930890985323711506e-06 1:17 13:201 15:26 18:74 28:250 40:291 45:114 86:64 92:97 117:116 142:241 193:100 207:187 218:137 263:98 269:74 365:9 369:134 376:88 432:124 445:45 487:157 543:325 598:93 #
2.8783028724690231873854524141665e-06 1:25 12:49 14:58 15:17 23:81 24:74 56:35 57:49 63:39 64:71 110:144 115:104 123:35 130:119 145:44 193:43 196:59 281:56 360:37 366:50 432:27 466:117 543:173 598:139 #
3.3114045357213040406504271986887e-07 10:30 15:33 17:126 27:60 36:99 44:49 63:56 77:44 84:43 123:51 124:50 140:94 261:48 322:70 324:81 398:95 418:98 428:106 432:63 445:97 449:72 450:124 543:320 598:38 #
-1.5698981538523159424101949266372e-05 1:14 14:19 15:9 32:141 53:60 77:100 86:76 117:81 158:110 228:102 269:51 360:20 543:660 #
4.2483982324290249380296935477475e-06 1:3 7:85 15:11 24:49 35:80 86:85 183:102 193:86 349:58 360:24 408:86 445:99 491:100 543:199 #
2.5894589584876905812938028411674e-07 1:3 8:27 9:76 14:21 36:63 44:62 52:109 63:35 77:56 81:77 231:98 360:22 405:421 512:59 523:78 543:119 #
3.5167739781888271377531442890563e-06 1:16 10:29 14:16 15:16 21:73 36:96 44:47 47:43 49:43 52:83 67:56 134:227 193:30 213:58 233:109 360:17 432:271 439:64 453:117 513:85 543:169 570:136 #
-1.1664671460822731270342601794798e-05 1:18 8:35 10:50 15:27 35:98 38:77 63:47 86:103 88:96 96:205 142:84 196:142 222:138 269:153 312:32 337:102 418:82 432:99 445:53 475:111 543:359 598:78 #
1.7426243152674511348857637818566e-06 1:7 192:78 240:437 311:155 313:79 365:175 432:1 443:471 482:59 543:133 590:231 #
3.5538894765680673884424706221452e-05 1:3 15:13 35:93 86:19 130:59 142:79 193:50 196:67 220:88 222:131 321:66 432:43 #
1.0723999945446401882149893569629e-05 1:15 14:48 15:6 21:56 24:77 51:44 53:78 63:20 76:70 78:52 81:45 107:97 115:13 123:74 182:57 196:31 243:53 269:33 280:84 304:62 314:59 360:64 432:150 554:83 #
4.338789593725945049722259039271e-06 1:9 8:23 9:67 10:33 14:37 15:9 22:54 36:110 41:244 51:66 72:87 77:49 94:68 249:141 264:90 359:162 369:92 432:196 #
-5.4112870609760075176408386510296e-06 1:10 15:25 49:69 64:79 79:60 115:103 123:156 175:104 181:99 200:294 220:65 247:136 262:140 324:10 432:98 516:117 543:79 #
-1.9271668397487140604812730360074e-05 15:7 33:44 86:94 133:67 170:40 220:72 324:177 358:59 363:78 367:72 432:133 543:14 #
-2.2577880515404893616720777976825e-06 1:4 8:23 14:6 15:12 23:42 29:59 33:20 49:145 54:23 60:23 67:21 70:47 102:63 105:33 107:24 118:39 123:18 134:21 145:23 148:27 152:69 164:28 170:18 187:81 189:30 213:22 221:50 223:31 225:27 241:55 258:27 261:34 266:59 286:32 287:41 292:42 295:44 310:27 322:25 344:55 356:40 360:6 363:35 380:44 399:92 412:93 417:39 432:63 442:75 480:26 487:66 517:40 535:43 582:63 600:43 #
1.3078747749841839915509698888396e-05 9:36 10:17 15:24 17:74 81:36 86:104 205:131 269:27 270:95 348:61 351:71 366:42 367:104 418:29 419:83 543:437 570:84 598:109 #
6.0812091447988745007658881180923e-06 1:3 7:51 10:49 12:58 15:20 41:121 44:41 54:53 61:53 63:23 67:48 72:65 73:113 150:48 197:72 219:76 239:89 335:78 432:55 445:31 459:115 543:353 580:90 598:116 #
1.759177681485612100627138713882e-06 7:78 8:26 10:37 15:20 35:146 57:178 63:35 163:110 193:39 221:87 368:173 385:3 419:58 457:157 487:91 523:135 543:219 #
2.3293641012602904668811563265729e-06 95:257 191:120 289:151 302:316 405:323 543:341 #
6.1206327343996147391210274624207e-06 1:9 13:55 15:14 18:41 36:88 44:43 52:76 63:25 67:52 74:63 169:59 179:98 261:84 440:40 445:150 492:92 543:211 #
-1.2758297674533652064920996593855e-05 1:7 8:17 9:48 15:6 23:46 24:28 27:47 41:58 44:78 52:68 54:101 59:49 63:44 133:262 220:65 327:131 354:18 366:57 543:239 598:129 #
7.4294838233079863183791653746813e-07 15:20 20:48 23:72 27:74 51:74 53:66 61:240 63:69 77:110 135:162 183:57 193:77 196:52 224:96 264:128 335:117 365:103 432:237 434:135 598:78 #
3.5331228460736086148411081581111e-06 1:9 10:30 12:24 13:21 14:39 15:6 18:63 20:13 22:33 24:60 35:20 40:20 41:75 51:41 56:17 62:20 63:9 64:35 72:27 79:13 80:20 84:47 88:19 112:67 135:67 146:22 193:11 194:172 196:14 209:54 222:28 225:50 230:26 328:24 340:90 345:35 357:32 359:173 372:20 543:52 562:26 590:49 #
-6.393054071391932288815165320861e-07 1:14 8:21 15:24 47:43 49:174 50:108 66:191 74:69 77:87 79:38 81:60 85:205 91:99 104:61 142:49 160:88 170:48 242:66 360:17 391:87 418:48 435:74 456:609 524:5 543:191 561:86 588:92 598:30 #
6.7471730257081545311997547442751e-07 7:84 9:164 15:11 44:67 52:118 61:88 63:38 77:60 150:80 163:239 183:149 205:151 445:90 462:85 475:34 543:523 #
-1.5970206755520437418970763898685e-05 1:10 8:17 10:74 15:34 19:76 51:50 55:56 58:49 63:23 64:42 67:48 80:48 123:42 127:54 147:79 148:62 149:38 190:72 193:26 230:129 236:74 254:93 269:38 355:75 360:29 372:49 392:93 543:108 577:136 #
1.5176713210591020791675326284675e-06 1:12 7:56 14:15 15:22 17:57 20:140 21:69 44:89 61:59 71:198 115:140 144:69 150:53 193:57 263:166 293:142 321:38 357:44 360:16 445:66 543:150 #
-8.9984817430110705714727675763598e-06 1:9 8:34 15:20 38:74 47:36 79:31 85:57 127:53 164:64 189:67 193:25 202:66 210:76 269:37 308:76 312:104 334:69 347:67 358:59 432:242 445:43 543:73 580:90 598:123 #
-1.493666998069587866491449157369e-05 63:99 137:112 150:207 220:99 257:106 432:88 445:67 493:88 543:148 #
2.0526853419502956774435678544144e-05 1:7 10:16 13:65 14:17 15:13 24:37 59:33 64:53 86:58 115:116 117:38 149:24 196:22 261:25 357:25 360:28 419:77 435:40 459:73 491:38 543:263 #
1.6694692856332294767326323084444e-06 27:182 55:206 130:149 232:70 354:183 432:16 486:124 520:372 543:383 #
-9.1539317708584005338053393718845e-06 1:8 8:26 14:20 15:10 34:72 75:94 86:155 115:137 121:169 185:205 369:101 392:108 418:60 432:96 543:260 568:93 598:163 #
-2.0297130320465721483799703683815e-05 1:15 10:54 13:113 15:29 23:106 24:191 35:105 63:51 86:140 117:131 126:119 196:153 281:168 304:154 321:75 406:127 432:139 543:104 560:82 580:29 #
-2.9484447851235327111934191035569e-06 85:251 97:251 99:266 108:106 130:104 178:223 406:106 432:130 543:352 #
-4.0507221201983774575157946917781e-06 1:3 15:6 24:27 44:38 45:110 47:34 53:41 66:201 70:50 116:192 117:56 122:53 132:66 136:48 145:98 279:51 313:104 339:62 349:37 384:105 425:96 426:97 432:46 506:82 507:70 543:215 545:77 560:125 584:83 #
4.0141900968649588165096386838115e-06 15:43 28:405 150:306 192:71 353:179 432:160 445:79 537:31 559:138 #
1.4566896484246024723091441493983e-06 1:9 8:12 9:36 13:74 15:5 22:58 24:104 28:92 40:107 41:130 49:53 54:38 59:37 77:53 107:39 144:45 151:135 207:69 220:100 252:51 304:101 348:61 360:31 434:128 435:45 445:62 543:223 598:170 #
8.438255599364688063629413861122e-06 1:3 12:56 15:6 22:39 35:46 74:56 122:54 124:39 143:92 177:94 211:80 220:147 347:65 377:67 381:152 543:108 590:114 598:79 #
2.7977093243566528170103522438206e-06 9:107 10:26 15:22 24:31 25:69 27:53 63:50 73:61 76:85 78:63 86:148 100:77 115:11 123:45 126:58 196:38 199:91 230:69 283:109 311:114 320:40 365:78 372:53 445:78 461:90 543:33 577:100 580:61 599:451 #
-1.8507910165033124701367342468394e-05 87:215 542:58 543:117 563:98 #
-2.9511244448360363302119244166555e-05 1:17 149:52 156:75 196:95 321:47 487:105 543:104 583:133 #
-3.7509801658210194056101895870858e-06 1:3 14:22 22:128 27:78 29:142 122:90 212:122 220:119 235:89 291:198 322:184 344:99 347:107 360:23 431:55 432:60 442:407 467:235 543:114 581:107 #
-6.599346668879097333024110610955e-06 1:32 15:4 18:195 26:36 38:21 49:63 71:21 102:41 124:71 127:31 131:148 146:30 152:45 166:32 167:124 184:53 204:58 227:152 258:18 269:43 279:93 300:44 321:39 331:47 346:9 350:41 366:67 445:44 516:36 543:175 590:340 #
7.7541838414620212731201767675238e-06 1:10 8:24 9:69 13:72 14:57 15:28 23:201 24:122 54:74 63:32 79:44 92:103 107:76 123:116 126:76 192:11 193:36 258:43 318:70 340:26 372:68 432:166 492:67 543:167 580:69 #
7.7280986920834072109737092684534e-07 40:200 61:214 193:103 312:65 375:415 418:163 432:347 543:198 577:80 #
1.7692339722676235410627962330032e-05 22:170 62:200 432:266 475:67 505:44 529:39 543:234 #
6.2739603175299092424274660650951e-06 1:6 7:54 10:13 14:7 15:18 22:21 23:25 24:15 36:22 38:20 39:33 52:38 55:30 57:31 61:56 62:100 63:12 81:27 86:78 92:141 111:42 117:31 126:29 150:26 191:31 193:27 196:37 258:16 269:20 319:44 360:15 396:68 432:265 480:31 543:188 553:77 590:32 #
-2.6706527902039385988415282763286e-06 1:21 2:224 3:117 86:92 142:168 172:221 173:241 193:105 206:266 318:206 321:140 362:185 431:66 432:315 543:218 #
-7.6983636557866884532605120106119e-06 1:13 15:17 17:131 43:254 58:124 62:120 124:104 137:98 312:21 350:180 360:37 412:131 432:170 445:127 495:88 543:252 #
-1.6793606984794849317876690164564e-06 1:29 8:9 14:7 15:34 17:26 24:15 40:25 47:55 49:18 51:25 60:129 69:22 74:29 94:25 97:87 124:21 127:54 134:49 135:107 142:41 154:59 193:26 202:34 212:117 223:36 258:31 269:38 295:25 304:35 320:92 339:33 344:32 355:38 358:60 360:37 366:119 376:23 407:32 411:75 432:251 435:63 447:50 453:78 469:257 480:30 509:112 536:89 543:215 549:49 555:93 561:36 569:25 #
-7.0805261261668353387930749387458e-06 1:2 15:9 91:58 230:178 350:99 391:102 432:227 543:314 558:134 580:164 598:115 #
1.355513954208794712011972721788e-05 1:14 5:141 18:156 135:10 312:120 321:141 360:60 450:137 543:235 598:97 #
9.9961577855468408405599858856938e-06 1:3 7:79 14:21 15:10 56:64 63:36 84:106 91:65 117:92 169:26 261:61 322:90 360:23 411:115 448:97 543:136 577:90 590:92 #
7.1938166263043741048490049838637e-06 1:8 9:45 10:22 12:53 15:18 20:29 24:27 38:103 40:91 42:91 67:44 79:29 86:74 115:94 121:52 171:52 196:32 213:46 312:85 324:79 328:54 343:118 402:204 445:130 543:70 562:59 #
7.7709585357854873711438634109605e-07 1:28 24:156 45:312 53:234 68:326 320:69 351:30 365:25 371:92 389:527 451:67 492:70 543:45 598:30 #
-3.30797435230785164155041348788e-06 1:55 8:26 15:10 29:67 49:109 69:64 77:55 79:47 107:81 113:247 130:92 142:61 166:169 175:165 204:75 223:106 248:118 258:46 282:76 303:114 357:59 435:93 543:162 577:54 598:75 #
-3.9534565566531097168564805321989e-06 1:51 3:208 5:249 6:274 26:455 130:87 193:186 248:134 324:97 341:162 360:211 543:401 #
-1.5090905721213013232040282829427e-05 1:33 8:8 14:18 18:17 78:26 81:22 122:25 134:22 149:17 160:99 166:51 200:70 212:34 223:32 295:22 315:51 320:96 360:32 361:29 445:67 528:69 543:184 580:70 590:80 598:89 #
6.5527861612507813150480667774289e-06 10:68 15:25 22:38 47:34 59:48 70:50 74:271 81:47 104:48 121:53 124:38 130:64 145:49 150:45 170:38 178:48 185:64 229:97 230:60 269:35 358:56 376:42 377:130 432:116 467:69 543:236 598:101 #
1.1480957499133721884279450697885e-05 1:14 7:45 14:12 15:12 17:91 51:43 53:38 63:20 64:37 77:64 86:119 146:46 193:22 230:112 249:92 333:87 350:62 360:13 376:40 387:88 432:105 439:102 543:232 598:75 #
4.8734515409659106150710647376023e-06 1:5 9:19 10:55 12:65 15:28 36:15 47:14 57:44 64:16 83:19 111:60 112:41 130:113 142:31 145:19 151:89 167:20 171:78 193:10 196:52 226:22 230:48 269:28 273:25 321:13 326:161 327:42 346:83 382:61 432:185 455:51 458:91 491:22 543:279 559:55 #
1.2114949819747182399023652243919e-05 1:11 8:16 12:104 15:6 59:46 60:137 61:47 66:48 84:59 139:60 232:70 377:62 418:36 425:45 432:54 490:76 533:152 543:181 #
3.0999682301955935884098421173594e-06 1:4 14:46 15:15 21:71 36:93 51:56 55:127 63:52 78:66 86:35 100:81 134:55 165:73 199:95 214:79 215:81 289:145 304:79 360:49 372:56 425:58 430:109 543:131 #
-1.4694824554864163581398197461203e-06 49:160 86:123 135:65 296:558 422:106 432:165 472:63 497:304 543:333 585:110 #
8.9593573794682040387126267799722e-06 1:14 7:22 10:43 12:25 14:12 15:18 24:25 40:87 41:26 54:138 107:24 117:26 120:25 131:28 202:29 252:31 261:102 288:141 295:22 314:58 360:13 373:33 427:117 432:73 521:107 543:129 580:133 583:79 590:78 592:40 #
-5.9614293314652269114390856219465e-06 1:12 2:124 10:55 15:15 135:109 159:66 204:114 208:200 252:322 258:140 536:53 543:64 #
-2.4653898247802283844401245033184e-06 1:23 8:42 10:29 14:49 15:16 19:136 31:97 54:63 63:28 80:58 86:198 125:72 149:91 154:70 175:66 180:97 226:70 257:117 303:91 314:159 318:60 357:47 360:70 362:119 365:112 432:93 470:121 577:158 #
5.2338554766497149713496079073694e-07 192:111 375:529 453:93 480:304 543:210 #
-4.1853608166955825429242712965028e-06 1:27 8:19 11:45 14:30 15:30 22:45 30:51 37:51 38:42 42:55 49:41 51:164 56:46 71:159 79:70 81:56 103:61 124:91 136:57 148:68 164:71 193:28 200:116 220:114 227:59 279:120 321:114 360:32 364:140 435:69 502:62 527:104 543:138 549:107 #
-1.171259847584896626740348819784e-06 1:6 8:9 14:7 15:20 18:76 21:31 23:24 36:20 42:25 50:113 65:25 66:53 69:21 71:107 79:32 81:25 85:29 86:97 87:84 90:50 91:21 97:57 104:26 105:38 107:54 113:82 122:28 124:20 136:51 141:32 146:52 164:32 170:20 178:25 190:35 204:50 210:115 225:30 247:129 258:15 259:40 274:92 279:27 300:77 321:34 331:122 344:31 358:30 360:7 376:22 418:40 441:48 442:43 455:34 475:64 491:30 500:84 543:107 567:30 590:208 594:82 598:71 #
-1.2557965922531299010205278407493e-06 1:3 15:22 70:268 93:318 115:96 118:147 122:94 132:117 170:68 258:103 278:68 374:109 390:44 392:108 414:171 478:175 543:62 #
6.742439764266866895480335292179e-06 1:15 7:56 9:55 10:27 15:15 49:40 115:57 196:38 261:86 263:110 272:82 371:20 543:157 587:79 #
4.7332232274010653701179496266604e-06 1:7 7:40 14:32 15:5 18:59 22:32 24:45 53:68 54:41 63:18 67:75 77:115 79:25 81:39 119:50 124:32 140:61 144:49 149:30 150:38 156:43 170:32 190:56 229:55 235:44 242:44 269:29 360:34 377:55 379:66 418:32 450:82 475:95 480:46 543:162 598:52 #
-6.4592475210314366087052152798353e-06 1:26 8:13 14:30 15:25 47:54 60:265 94:37 104:38 105:56 127:39 154:87 261:29 284:58 295:37 300:57 360:11 361:47 365:78 432:65 475:109 487:56 543:105 554:69 #
-4.1476227732248343336112330129173e-07 1:107 2:105 3:220 4:334 5:262 6:289 11:156 20:122 82:242 108:65 109:291 290:292 360:56 432:74 475:102 543:190 565:137 #
-1.8518537994156594149046434275019e-06 1:25 8:63 14:66 15:16 42:60 43:61 46:114 83:122 86:216 102:431 142:50 149:46 226:71 248:109 324:65 487:8 #
-1.4169288539620637185447761530188e-06 1:39 3:196 4:198 8:59 10:42 20:54 22:138 24:50 31:207 96:86 135:121 154:100 362:98 432:110 543:177 580:56 #
-3.5617140416133447457323196738699e-07 1:19 2:200 3:105 6:137 96:183 142:150 172:197 173:215 193:93 318:183 321:125 422:80 432:20 543:25 547:42 #
7.1847593310522731336362038667698e-06 1:5 9:49 10:24 14:13 15:20 52:70 54:52 67:48 77:108 149:188 193:25 258:31 263:50 289:84 351:101 358:59 360:14 432:132 437:128 483:70 491:118 543:210 544:85 #
-8.2678823297288462552978062503062e-07 30:74 47:59 70:88 71:59 75:104 118:144 121:186 185:226 216:148 220:89 261:64 306:111 362:41 367:119 420:105 472:142 475:45 543:360 598:16 #
-2.8950843692605576847363480288977e-07 1:14 14:113 15:28 79:132 86:56 94:208 103:227 197:299 220:116 296:264 359:249 432:192 471:76 503:554 543:317 573:117 598:27 #
-1.6640937661534270183995689110223e-06 1:21 3:88 4:44 8:27 13:79 15:10 20:49 24:89 31:124 38:58 61:81 77:56 81:77 96:77 149:58 150:74 167:83 237:109 263:77 317:51 324:95 329:113 372:75 399:125 432:122 543:346 568:96 578:45 #
-1.2841202173037912052526486952897e-06 1:4 14:12 15:12 29:115 33:19 44:35 49:32 53:19 65:22 66:92 69:37 77:16 79:41 86:137 91:18 105:32 125:26 128:98 156:24 166:24 170:35 221:25 223:30 242:48 259:34 279:23 303:65 310:26 315:25 317:117 358:26 360:12 363:34 372:21 373:32 380:43 386:37 432:162 543:278 575:41 577:137 #
6.1407271849398803171930782962562e-06 1:8 9:47 10:46 12:55 13:48 15:19 17:49 24:55 25:60 53:41 63:43 64:40 68:115 77:35 81:47 117:56 123:118 135:119 196:66 222:64 261:37 293:61 304:132 324:95 360:14 432:138 457:97 543:125 #
2.6491929610678483596034916980333e-06 73:201 209:78 219:270 432:68 453:23 475:40 480:211 543:177 586:34 590:212 #
1.8867001231378901838126082093905e-06 1:14 10:135 13:94 14:50 15:31 23:44 35:132 36:38 39:57 55:51 61:49 63:42 77:34 85:106 107:50 113:51 134:45 193:47 196:32 258:28 263:92 269:35 289:97 358:55 360:67 374:121 375:189 407:59 418:74 432:16 543:127 553:152 568:115 598:95 #
-7.4549088908668120528384524667298e-07 1:7 15:29 19:32 29:191 33:39 38:64 49:31 50:156 59:44 62:41 66:229 69:37 74:100 85:296 86:35 120:48 142:35 157:54 170:35 204:43 236:63 248:163 288:102 296:55 360:12 410:120 432:103 436:84 438:67 471:133 496:73 532:76 543:511 577:47 595:76 #
-2.8592747404223376637437859133783e-07 1:4 8:36 15:14 25:65 47:37 49:37 51:50 60:52 66:55 86:91 93:195 118:90 120:58 121:58 130:40 132:215 160:151 222:69 231:130 234:62 255:68 258:63 274:190 295:51 347:69 366:60 373:76 376:46 478:322 509:151 527:96 543:18 #
-8.7167511577227810284774329151192e-08 1:14 8:42 10:20 15:22 29:145 32:42 42:81 47:29 49:30 74:47 77:59 79:52 99:49 101:56 102:58 123:34 132:342 152:127 170:33 193:41 242:45 281:33 286:58 305:73 321:28 356:147 367:118 397:76 426:144 445:83 500:68 543:274 553:79 579:72 583:93 #
