SVM-light Version V6.02
0 # kernel type
3 # kernel parameter -d 
1 # kernel parameter -g 
1 # kernel parameter -s 
1 # kernel parameter -r 
empty# kernel parameter -u 
2000 # highest feature index 
300 # number of training documents 
219 # number of support vectors plus 1 
-0.030850516 # threshold b, each following line is a SV (starting with alpha*y)
-0.1409660451201303343893300734635 1:0.0087031787 8:0.045449935 14:0.017406357 15:0.043515895 24:0.037713774 29:0.029010596 30:0.029977616 33:0.029010596 38:0.17212954 42:0.064790331 49:0.047383972 65:0.065757349 66:0.06962543 71:0.023208477 77:0.024175497 79:0.14505298 94:0.032878675 97:0.037713774 101:0.045449935 116:0.26689747 120:0.14698702 122:0.036746755 125:0.039647814 128:0.049318012 131:0.042548873 135:0.15182212 136:0.066724367 142:0.027076555 149:0.099603042 151:0.054153111 155:0.047383972 159:0.11991046 167:0.035779733 180:0.061889272 196:0.067691393 202:0.043515895 204:0.032878675 206:0.042548873 234:0.039647814 235:0.07349351 258:0.06092225 266:0.043515895 269:0.049318012 284:0.1025041 308:0.050285034 341:0.1218445 361:0.041581854 374:0.042548873 421:0.053186093 424:0.053186093 460:0.066724367 508:0.079295628 543:0.058021192 573:0.088965826 596:0.061889272 601:0.05898821 611:0.064790331 631:0.051252052 635:0.046416953 654:0.05898821 661:0.06092225 667:0.14602 677:0.2340188 682:0.57150877 697:0.039647814 751:0.080262646 755:0.054153111 758:0.053186093 850:0.057054173 899:0.10153709 918:0.05221907 919:0.094767943 975:0.10443814 1048:0.072526492 1112:0.062856294 1146:0.080262646 1154:0.1025041 1201:0.065757349 1382:0.14215192 1446:0.039647814 1467:0.10927325 1472:0.039647814 1570:0.041581854 1578:0.1315147 1593:0.041581854 1597:0.043515895 1604:0.099603042 1639:0.19630504 1642:0.015472318 1661:0.15762423 1672:0.022241456 1687:0.071559466 1690:0.044482913 1704:0.08219669 1748:0.043515895 1759:0.074460529 1789:0.040614832 1801:0.078328609 1802:0.064790331 1809:0.038680796 #
-0.11826942376447156790586490160422 1:0.078681618 2:0.22493686 3:0.35267878 4:0.23789617 5:0.13977557 6:0.15458623 16:0.17124823 26:0.2564095 63:0.094417937 151:0.13237025 247:0.092566602 285:0.070350617 475:0.011107992 543:0.14903224 598:0.11663392 1104:0.080532946 1430:0.14070123 1446:0.24715284 1488:0.087012611 1597:0.12866758 1633:0.056465629 1807:0.11570825 1856:0.063870959 1874:0.03054698 1911:0.074978948 1974:0.63963526 #
-0.52197691084214115075923245967715 1:0.040968664 8:0.020484332 14:0.047271535 15:0.039392944 47:0.08508876 60:0.41756523 94:0.058301561 104:0.059877276 105:0.088240199 127:0.061452996 154:0.13708745 261:0.045695819 284:0.091391638 295:0.058301561 300:0.089815915 360:0.017332897 361:0.074058741 365:0.12290599 432:0.10242166 475:0.17175324 487:0.088240199 543:0.16545038 554:0.10872453 621:0.088240199 624:0.075634457 627:0.089815915 648:0.24581198 694:0.13236029 709:0.17490467 873:0.096118785 890:0.12133028 1136:0.13236029 1252:0.053574406 1336:0.39550519 1352:0.086664483 1457:0.16072322 1515:0.20957047 1523:0.21114619 1533:0.048847254 1558:0.083513044 1597:0.25369057 1627:0.08508876 1647:0.16702609 1656:0.058301561 1700:0.17805612 1783:0.12448171 1942:0.10399738 1986:0.14969319 #
-1 1:0.011243321 8:0.012180264 14:0.0093694339 15:0.014054151 21:0.04403634 29:0.06277521 44:0.028108303 71:0.025297472 79:0.044973284 86:0.098379053 87:0.039351624 136:0.072144642 137:0.048721056 167:0.038414679 197:0.10118989 226:0.041225508 227:0.037477735 261:0.027171358 282:0.049658 304:0.048721056 359:0.042162452 372:0.068396866 376:0.031856075 418:0.16958675 424:0.056216605 452:0.06277521 471:0.10118989 473:0.079640187 487:0.11243321 491:0.042162452 543:0.37009263 615:0.055279661 634:0.050594945 661:0.14335234 674:0.029045245 679:0.048721056 711:0.058090489 730:0.033729963 874:0.085261852 1008:0.084324904 1252:0.032793019 1305:0.094631284 1320:0.096505173 1381:0.16209121 1382:0.058090489 1444:0.037477735 1480:0.052468829 1497:0.10400072 1525:0.049658 1648:0.079640187 1675:0.073081583 1687:0.038414679 1715:0.067459926 1716:0.029982189 1773:0.14803706 1803:0.13398291 1821:0.048721056 1827:0.083387963 1838:0.064649098 1841:0.043099396 1845:0.061838266 1857:0.029045245 1860:0.061838266 1880:0.72894198 1979:0.10587461 #
-0.36791093010512770922204595080984 1:0.0043898327 8:0.039508495 15:0.015364414 25:0.071334779 47:0.040605951 49:0.040605951 51:0.054872908 60:0.057067823 66:0.060360201 86:0.099868692 93:0.21400434 118:0.098771237 120:0.063652575 121:0.063652575 130:0.043898325 132:0.23595351 160:0.16571619 222:0.075724617 231:0.14266956 234:0.068042405 255:0.074627154 258:0.069139861 274:0.20851704 295:0.055970367 347:0.075724617 366:0.065847486 373:0.083406821 376:0.050483074 478:0.35338151 509:0.16571619 527:0.10535599 543:0.019754248 608:0.10425852 620:0.10096615 643:0.028533911 663:0.10535599 674:0.046093244 694:0.038411036 705:0.079016991 706:0.046093244 710:0.068042405 759:0.11084327 779:0.15583906 927:0.13498735 980:0.096576318 1011:0.25900012 1025:0.096576318 1056:0.10206361 1107:0.086699195 1161:0.11303819 1244:0.12840261 1346:0.22497892 1348:0.19973738 1382:0.096576318 1416:0.13059752 1446:0.13498735 1472:0.20302977 1478:0.061457656 1502:0.10645344 1540:0.11742803 1552:0.059262741 1579:0.15254669 1641:0.060360201 1645:0.11194073 1660:0.13827972 1715:0.1624238 1722:0.077919528 1809:0.065847486 1831:0.093283944 #
1 1:0.053709596 4:0.075934261 8:0.046301376 10:0.12779181 15:0.070378095 31:0.10556714 51:0.12779181 79:0.083342478 81:0.13149591 106:0.14631236 149:0.10001098 168:0.15186852 204:0.26299182 226:0.15186852 261:0.10186303 285:0.11482742 312:0.24447127 314:0.17224112 320:0.096306868 322:0.15186852 360:0.075934261 371:0.090750702 372:0.12779181 479:0.10371508 481:0.13334797 543:0.21483839 607:0.22595072 613:0.40189597 661:0.040745214 876:0.2185425 1306:0.27595621 1430:0.20557812 1478:0.064821929 1480:0.201874 1593:0.16668496 1597:0.16853702 1641:0.14075619 1656:0.13334797 #
0.97881651838852901104104375917814 1:0.0038400062 10:0.013440021 15:0.019200031 17:0.057600092 23:0.026880043 24:0.048960079 27:0.054720085 38:0.021120034 54:0.029760048 63:0.025920041 77:0.020160032 86:0.14016022 168:0.032640051 196:0.019200031 224:0.035520058 248:0.10464016 261:0.022080036 266:0.037440058 318:0.027840044 488:0.11424018 1068:0.10368016 1305:0.071040116 1476:0.10848017 1478:0.044160072 1623:0.09504015 1626:0.08160013 1656:0.028800046 1690:0.038400061 1696:0.060480095 1725:0.087360136 1796:0.029760048 1856:0.10368016 1870:0.37824062 1893:0.85152137 #
0.50393823837030315981877492959029 1:0.022680979 8:0.0088751661 9:0.050292604 10:0.012819684 14:0.069029063 15:0.023667108 16:0.02169485 17:0.052264865 19:0.01972259 21:0.095654562 22:0.041417439 23:0.049306475 24:0.059167773 27:0.024653237 36:0.06212616 43:0.025639368 44:0.020708719 55:0.028597755 63:0.023667108 69:0.02169485 73:0.028597755 74:0.029583886 76:0.040431309 81:0.025639368 88:0.023667108 123:0.02169485 126:0.027611626 127:0.054237124 136:0.077904232 140:0.03944518 149:0.05818164 154:0.029583886 191:0.031556144 196:0.053250995 224:0.065084547 225:0.030570015 235:0.028597755 258:0.015778072 283:0.051278736 298:0.10157134 330:0.065084547 360:0.052264865 372:0.024653237 407:0.065084547 543:0.12819684 554:0.047334217 559:0.078890361 580:0.035500664 603:0.017750332 652:0.17651719 661:0.065084547 673:0.10157134 674:0.020708719 694:0.10058521 697:0.031556144 700:0.063112289 701:0.10551586 827:0.049306475 1020:0.15186395 1120:0.027611626 1134:0.14594717 1176:0.031556144 1194:0.075931974 1195:0.093682304 1290:0.71395779 1296:0.17848945 1305:0.036486793 1306:0.054237124 1322:0.11143263 1377:0.046348087 1403:0.044375829 1421:0.071987458 1589:0.042403568 1642:0.073959716 1652:0.040431309 1656:0.051278736 1675:0.053250995 1702:0.0098612951 1704:0.032542273 1712:0.065084547 1721:0.03944518 1733:0.11439102 1752:0.15679459 1764:0.052264865 1771:0.050292604 1809:0.15087782 1811:0.064098418 1823:0.065084547 1847:0.10058521 1849:0.098612949 1857:0.042403568 1861:0.13016909 1882:0.20018429 1887:0.068042934 #
0.47142457099897044914271759807889 1:0.027194683 10:0.023568725 12:0.16770054 15:0.012690851 22:0.15500969 23:0.092461921 24:0.1114982 57:0.056202345 63:0.021755746 64:0.039885536 73:0.054389365 110:0.054389365 112:0.10424628 126:0.052576385 145:0.04985692 149:0.036259577 196:0.033540107 204:0.04804394 245:0.06164128 258:0.02991415 347:0.065267235 360:0.013597341 409:0.094274901 428:0.035353087 543:0.1713265 598:0.065267235 694:0.027194683 1099:0.033540107 1104:0.038979046 1266:0.074332133 1287:0.067986704 1349:0.17676544 1421:0.14231884 1570:0.06073479 1660:0.2393132 1729:0.16044863 1771:0.14503831 1814:0.089742452 1900:0.81221449 #
0.547416652774201262232622866577 1:0.02241471 12:0.061907295 14:0.013875773 15:0.013875773 18:0.040559951 24:0.12274723 27:0.10460198 38:0.039492585 41:0.12808406 51:0.05230099 107:0.057637826 161:0.087524109 194:0.26577443 205:0.28925651 249:0.11100619 258:0.033088382 359:0.062974662 372:0.05230099 529:0.098197781 543:0.26897654 609:0.11100619 994:0.05230099 1099:0.073648334 1114:0.090726212 1382:0.14836404 1421:0.067244135 1441:0.048031524 1473:0.07044623 1522:0.07898517 1542:0.15370087 1626:0.11741039 1775:0.046964154 1776:0.1558356 1892:0.029886281 1897:0.059772562 1972:0.73648334 #
-1 1:0.028272785 8:0.024233816 9:0.06866248 10:0.067316152 14:0.11174481 15:0.028272785 22:0.055199247 25:0.087511003 31:0.16694406 32:0.071355127 41:0.083472028 53:0.060584538 56:0.05654557 61:0.14674921 62:0.064623505 63:0.032311752 69:0.059238218 93:0.065969832 106:0.076740414 141:0.09020365 142:0.11309114 149:0.0525066 150:0.065969832 184:0.11847644 263:0.06866248 284:0.10770585 359:0.24772345 373:0.10366688 385:0.080779389 491:0.082125708 543:0.061930861 601:0.12520805 619:0.13328598 631:0.21541169 652:0.067316152 669:0.36485356 691:0.13059334 767:0.10366688 876:0.060584538 1138:0.10097423 1239:0.11443746 1252:0.064623505 1305:0.19925582 1306:0.14540289 1380:0.18713892 1434:0.2046411 1480:0.24099183 1488:0.0350044 1523:0.24906977 1579:0.24906977 1614:0.10905217 1642:0.11443746 1650:0.21271905 1660:0.16963671 1755:0.11174481 1773:0.041736014 1799:0.088857323 1811:0.086164676 1839:0.065969832 #
0.21038266912816666609487015193736 1:0.017351214 12:0.2554484 15:0.019279126 22:0.058801334 24:0.084828153 36:0.05976529 61:0.07808046 62:0.13880971 63:0.033738472 64:0.061693203 110:0.16580048 145:0.076152548 151:0.047233857 170:0.05976529 186:0.30075437 193:0.037594296 196:0.051089682 217:0.15905279 224:0.092539802 360:0.021207038 432:0.080972329 449:0.041450121 543:0.20821455 598:0.19086334 652:0.072296724 694:0.087720022 714:0.0057837376 780:0.15808883 1099:0.051089682 1171:0.13398993 1440:0.10603519 1599:0.70272416 1642:0.10603519 1649:0.11278289 1660:0.068440899 1686:0.093503758 1705:0.10507123 1771:0.093503758 1841:0.089647934 1856:0.069404855 #
-1 1:0.022470681 10:0.080894448 13:0.16927913 15:0.043443315 23:0.15879281 24:0.28612667 35:0.15729477 63:0.076400317 86:0.20972635 117:0.19624394 126:0.1782674 196:0.22920094 281:0.25167161 304:0.23069899 321:0.11235341 406:0.19025177 432:0.2082283 543:0.15579672 560:0.12283972 580:0.043443315 640:0.055427678 652:0.1617889 667:0.16628304 673:0.43593121 823:0.11984363 994:0.1617889 1039:0.13032995 1099:0.11534949 1404:0.13632213 1488:0.055427678 1606:0.032956999 1775:0.19025177 1807:0.17676936 #
-0.95675128278880949839191316641518 1:0.022704074 149:0.069447756 156:0.10016503 196:0.1268757 321:0.062770084 487:0.14023104 543:0.13889551 583:0.17762598 694:0.22303413 733:0.073454358 876:0.1348889 1076:0.11619143 1228:0.060099017 1260:0.062770084 1318:0.11752697 1386:0.069447756 1478:0.17094831 1596:0.076125421 1642:0.041401546 1679:0.18430366 1695:0.27244887 1697:0.69714862 1729:0.012019804 1744:0.37929159 1775:0.026710674 1814:0.073454358 #
-0.068335522880260485267811532139604 1:0.0070563657 15:0.037297931 22:0.11290185 30:0.063507289 32:0.28931099 42:0.13911121 71:0.10080522 86:0.12701458 104:0.14415146 108:0.15927225 162:0.34676996 164:0.1794333 166:0.079636127 279:0.075603917 291:0.087700546 367:0.10181327 410:0.094756909 510:0.39112425 543:0.30947202 549:0.135079 568:0.087700546 580:0.095764965 628:0.115926 652:0.13810316 664:0.13205484 706:0.057458978 958:0.15019979 990:0.071571708 1023:0.16632862 1104:0.11794211 1120:0.15322393 1199:0.14919172 1310:0.14112732 1406:0.10987769 1478:0.15725614 1484:0.1330629 1533:0.058467031 1597:0.085684441 1642:0.078628071 1686:0.048386507 1776:0.046370402 1831:0.23185201 1832:0.1139099 1955:0.0070563657 #
0.67298481638545348815227953309659 40:0.21487509 61:0.22991635 193:0.11066067 312:0.069834404 375:0.44586581 418:0.1751232 432:0.37280828 543:0.21272634 577:0.085950032 661:0.06876003 889:0.084875658 984:0.08165253 1105:0.13644569 1263:0.088098787 1305:0.10206567 1387:0.18156944 1499:0.071983151 1520:0.12033005 1622:0.55652648 1807:0.12355317 1855:0.088098787 1856:0.14826381 #
0.79013081034012955239376196914236 1:0.023694374 10:0.04644097 14:0.025589922 15:0.038858771 18:0.072030894 36:0.15543509 40:0.18955499 53:0.083404191 55:0.21324936 63:0.043597646 67:0.091934167 74:0.11088967 78:0.11088967 81:0.095725268 86:0.076769769 123:0.07961309 179:0.17439058 360:0.027485473 418:0.076769769 432:0.061605368 453:0.11373299 475:0.07013534 487:0.082456417 543:0.42175984 550:0.09288194 645:0.13268849 701:0.13174072 715:0.14406179 716:0.094777495 1028:0.05781427 1082:0.020851048 1089:0.14027068 1170:0.097620815 1176:0.11847186 1178:0.16206951 1347:0.17439058 1401:0.061605368 1442:0.031276572 1520:0.06729202 1660:0.023694374 1726:0.10141192 1773:0.57529938 1855:0.13079293 1928:0.18007724 #
1 1:0.0267876 5:0.2697894 18:0.29849041 135:0.019134 312:0.229608 321:0.2697894 360:0.114804 450:0.2621358 543:0.44964898 598:0.18559979 605:0.18751319 674:0.32719138 749:0.172206 1058:0.124371 1317:0.097583398 1360:0.053575199 1382:0.23917499 1513:0.16455239 1597:0.21621419 1752:0.18751319 1856:0.16455239 #
0.1428597814825871559207826066995 7:0.13752428 9:0.13335687 15:0.018058743 17:0.13891341 44:0.10835246 52:0.1917005 63:0.062511034 263:0.27088115 369:0.18475483 408:0.09723939 418:0.3264465 524:0.21114838 543:0.46397078 570:0.31533343 675:0.16808523 712:0.22087233 713:0.059732765 726:0.05417623 785:0.12363294 837:0.11113073 1073:0.14169168 1135:0.09723939 1143:0.19447878 1185:0.19308963 1263:0.15975042 1374:0.098628521 1456:0.10418506 1757:0.10418506 1856:0.18892224 #
0.8724974479332912036255720522604 10:0.053881764 15:0.059269942 17:0.22630341 27:0.10776353 36:0.17780982 44:0.088006884 63:0.10057929 77:0.079026587 84:0.077230528 123:0.091599002 124:0.089802943 140:0.16882953 261:0.086210825 322:0.12572412 324:0.14548077 398:0.17062558 418:0.17601377 428:0.19038223 432:0.11315171 445:0.1742177 449:0.12931624 450:0.22271129 543:0.5747388 598:0.068250231 763:0.079026587 926:0.17960589 977:0.17062558 1072:0.098783232 1305:0.24426399 1369:0.22809947 1402:0.07184235 1504:0.15984924 1658:0.13829653 #
-1 1:0.017892562 14:0.024282761 15:0.011502361 32:0.18020365 53:0.076682404 77:0.12780401 86:0.097131044 117:0.10352124 158:0.14058441 228:0.13036008 269:0.065180041 360:0.025560802 543:0.84350646 637:0.14569657 716:0.12269185 718:0.13547225 825:0.11502361 1109:0.12908205 1366:0.065180041 1382:0.10991145 1626:0.20193033 1642:0.11630165 1729:0.092018887 1801:0.085628688 #
-1 1:0.010160272 15:0.0067735151 29:0.042898927 33:0.042898927 47:0.034996495 50:0.088055693 54:0.050801363 70:0.10386056 75:0.12305219 81:0.097087048 120:0.054188121 133:0.065477312 157:0.060961634 170:0.039512169 216:0.086926773 225:0.058703795 227:0.050801363 231:0.18401383 284:0.075637586 320:0.072250828 432:0.077895418 501:0.20997897 511:0.084668934 530:0.064348392 543:0.58252227 583:0.053059202 598:0.13772814 692:0.33303115 707:0.065477312 709:0.072250828 711:0.040641088 720:0.06773515 788:0.11853651 790:0.11514975 793:0.11176299 841:0.19643193 888:0.089184612 890:0.10047381 952:0.083540015 971:0.11627867 975:0.038383253 1094:0.079024337 1129:0.10160273 1237:0.083540015 1250:0.069992989 1267:0.077895418 1306:0.1354703 1333:0.13659921 1456:0.16030651 1480:0.12756786 1493:0.086926773 1575:0.076766506 1579:0.13095462 1593:0.062090553 1660:0.081282176 1719:0.016933788 1856:0.10386056 1977:0.15014625 1987:0.15014625 #
-1 1:0.033791419 3:0.14160213 4:0.070801064 8:0.043446109 13:0.12712009 15:0.016091151 20:0.078846641 24:0.14321125 31:0.19953027 38:0.093328677 61:0.13033833 77:0.090110444 81:0.12390187 96:0.12390187 149:0.093328677 150:0.11907452 167:0.13355656 237:0.17539355 263:0.12390187 317:0.082064874 324:0.15286593 329:0.18183 372:0.12068363 399:0.20113939 432:0.19631204 543:0.55675381 568:0.15447505 578:0.072410181 817:0.22527611 1006:0.10941983 1044:0.14160213 1664:0.16252063 1752:0.22688523 1836:0.28481337 #
-0.22418081792181432376764860237017 1:0.1054447 8:0.11716077 30:0.15348062 46:0.079669327 88:0.31867731 103:0.18511403 106:0.094900228 127:0.27064139 131:0.10895953 153:0.18511403 156:0.18511403 166:0.2870439 200:0.087870583 327:0.20503137 445:0.17574117 508:0.042177878 543:0.46747151 560:0.15816705 565:0.055065565 580:0.12653364 585:0.072639681 626:0.25892532 1128:0.097243443 1382:0.13239168 1456:0.2577537 1488:0.094900228 1642:0.11247434 1752:0.11950399 1767:0.094900228 1773:0.050379135 1801:0.06678164 1814:0.041006271 #
-1 1:0.01054468 8:0.02560851 9:0.07230638 15:0.0090382975 23:0.069293611 24:0.04217872 27:0.070799999 41:0.087370209 44:0.11749787 52:0.10243404 54:0.15214467 59:0.07381276 63:0.066280849 133:0.3946723 220:0.097914889 327:0.19733615 354:0.027114892 366:0.085863821 543:0.3600255 598:0.19432339 624:0.09339574 630:0.5347659 637:0.12051063 666:0.18829787 667:0.094902121 1275:0.10695318 1305:0.11900425 1382:0.11147233 1421:0.10845957 1430:0.19884254 1447:0.07230638 1587:0.10092765 1626:0.08435744 1661:0.11147233 1677:0.12051063 1779:0.12804255 1844:0.14461276 1845:0.064774461 1857:0.060255315 #
1 1:0.00622829 15:0.026989257 35:0.193077 86:0.039445836 130:0.12248971 142:0.16401164 193:0.10380483 196:0.13909848 220:0.18269651 222:0.27196866 321:0.13702239 432:0.089272156 668:0.26574039 673:0.53148079 694:0.3799257 876:0.24082722 974:0.19515309 1061:0.031141451 1099:0.13909848 1480:0.19100089 1597:0.15570726 1726:0.28234917 #
0.0096868971283167078223375057177691 1:0.011160997 9:0.15749407 10:0.07688687 14:0.043403879 15:0.021081883 51:0.15625396 53:0.13889241 59:0.16245452 63:0.14509296 78:0.1835364 100:0.22570017 130:0.12277097 196:0.11036986 199:0.26662382 312:0.18725672 326:0.34103048 341:0.048364323 360:0.045884099 396:0.080607198 432:0.49728444 479:0.1153303 543:0.14013252 586:0.11781053 695:0.090528086 730:0.15129352 802:0.080607198 1088:0.12277097 1127:0.18105617 1251:0.18601662 1305:0.18725672 1322:0.16369462 1421:0.14385284 1597:0.15501384 1632:0.029762659 1753:0.089287974 1855:0.028522547 #
0.37643114779045061535356353488169 73:0.31285837 209:0.12140772 219:0.42025751 432:0.10584264 453:0.035799716 475:0.062260374 480:0.32842347 543:0.27550215 586:0.052921318 590:0.32997999 668:0.12296423 694:0.096503578 712:0.10428613 835:0.14008583 894:0.15253791 1013:0.16187696 1322:0.21324177 1369:0.28951073 1456:0.076268956 1480:0.085608013 1597:0.11829471 1625:0.11518169 1629:0.1323033 1660:0.23814593 1798:0.12452075 1823:0.15876395 1858:0.099616595 #
0.61977351332698404906551559179206 1:0.035981569 14:0.11514103 15:0.014392628 21:0.1343312 24:0.18470539 51:0.10554594 53:0.18710417 63:0.047975428 76:0.167914 78:0.12473611 81:0.10794471 107:0.23268083 115:0.031184027 123:0.17750908 182:0.13672997 196:0.074361913 243:0.12713489 269:0.079159454 280:0.20149679 304:0.14872383 314:0.14152752 360:0.15352137 432:0.35981572 554:0.19909802 624:0.13672997 694:0.33342922 889:0.23747836 1160:0.12713489 1510:0.2926501 1547:0.15592013 1857:0.088754542 1957:0.31663781 #
0.57422733322139862810473687204649 1:0.034688924 24:0.19326685 45:0.38653371 53:0.2899003 68:0.40387818 320:0.085483417 351:0.037166703 365:0.030972254 371:0.11397789 389:0.65289509 451:0.083005637 492:0.086722307 543:0.055750057 598:0.037166703 690:0.055750057 1382:0.099111207 1478:0.17220573 1642:0.13008346 1679:0.12636679 1726:0.11769456 1794:0.087961197 #
-0.74579230013964947776372582666227 1:0.027657703 15:0.017977508 38:0.1023335 60:0.1396714 89:0.2323247 129:0.18945527 258:0.1673291 294:0.13828851 360:0.078824453 371:0.070527144 432:0.14105429 627:0.41901419 648:0.11339658 957:0.17424352 1006:0.05946406 1101:0.091270417 1204:0.15488313 1623:0.13413987 1660:0.30008608 1662:0.11754524 1685:0.17009488 1723:0.23509048 1725:0.10924792 1776:0.0041486556 1814:0.14382006 1958:0.55453694 #
-0.90794758675901376943073728398304 1:0.038431339 8:0.085172154 14:0.033237915 15:0.016618958 22:0.098675057 31:0.098675057 63:0.05608898 108:0.077901363 130:0.060243722 149:0.093481638 154:0.2877157 213:0.12256481 237:0.099713743 244:0.17865379 317:0.12360349 360:0.10698454 371:0.048818186 385:0.11841007 432:0.098675057 487:0.1163327 543:0.0010386849 573:0.06439846 580:0.054011613 643:0.12983561 674:0.10179111 694:0.049856871 775:0.094520323 870:0.065437146 1305:0.096597694 1456:0.074785307 1457:0.049856871 1619:0.14022246 1656:0.12464218 1674:0.025967121 1682:0.023889752 1726:0.013502903 1789:0.15372536 1855:0.12671955 1856:0.11425533 1937:0.76551074 #
-0.95155669631431150090605797231547 1:0.02292463 32:0.33731955 53:0.28492039 90:0.32858637 162:0.40391016 248:0.11898975 432:0.37443563 516:0.40827674 694:0.14737262 1305:0.13973108 1340:0.15283087 1488:0.13973108 1597:0.20632167 1615:0.10916491 1672:0.12772293 1773:0.19649683 1807:0.075323783 1856:0.11462315 #
-0.99121402020521875986247550827102 1:0.017320156 8:0.065431699 15:0.038489234 38:0.14241016 47:0.069280624 79:0.059658311 85:0.10969432 127:0.10199647 164:0.12316555 189:0.12893893 193:0.048111543 202:0.12701447 210:0.14625908 269:0.07120508 308:0.14625908 312:0.20014402 334:0.13278785 347:0.12893893 358:0.11354324 432:0.46571973 445:0.082751855 543:0.1404857 580:0.17320155 598:0.23670879 637:0.31753618 659:0.050036006 975:0.22901094 994:0.094298624 1417:0.040413696 1478:0.24248217 1489:0.11931662 1703:0.14818355 1726:0.1308634 1944:0.3868168 #
-0.0081024075949981400057708924578037 1:0.013969922 15:0.055879686 38:0.020954883 47:0.019790722 50:0.051223047 65:0.027939843 71:0.33993477 79:0.10593857 87:0.031432323 93:0.026775682 103:0.12223681 113:0.030268162 124:0.091968648 135:0.12572929 148:0.033760644 154:0.13038594 168:0.097789451 174:0.054715525 178:0.084983692 203:0.13155009 204:0.13969922 227:0.41444102 231:0.034924805 235:0.031432323 258:0.017462403 261:0.065192968 262:0.12456513 277:0.074506246 279:0.030268162 294:0.055879686 329:0.040745605 344:0.034924805 351:0.059372168 359:0.066357128 374:0.036088966 386:0.048894726 418:0.022119043 421:0.045402244 432:0.18277314 455:0.038417283 480:0.032596484 496:0.047730565 497:0.30850244 535:0.10826689 543:0.073342085 584:0.048894726 598:0.13271426 617:0.045402244 633:0.031432323 639:0.083819531 656:0.039581444 674:0.023283202 687:0.051223047 697:0.033760644 698:0.039581444 704:0.17928065 711:0.046566404 730:0.26542851 784:0.055879686 786:0.051223047 794:0.064028807 822:0.062864646 825:0.037253123 883:0.12223681 991:0.096625291 1004:0.050058886 1235:0.076834567 1237:0.047730565 1299:0.047730565 1316:0.093132809 1382:0.16181825 1398:0.055879686 1434:0.041909765 1453:0.22119042 1559:0.11874434 1608:0.043073926 1693:0.057043847 1709:0.072177932 1721:0.043073926 1742:0.075670406 1771:0.10943105 1773:0.10128193 1801:0.12922177 1973:0.15366913 #
0.84694509901329795287239221579512 1:0.0023899316 10:0.031069109 13:0.19836432 15:0.017924486 22:0.052578494 25:0.08245264 28:0.33100551 39:0.080062702 40:0.064528152 57:0.075282842 63:0.059748288 68:0.078867741 151:0.10515699 222:0.0872325 346:0.14459085 349:0.1254714 432:0.13622609 540:0.054968424 543:0.66798586 568:0.081257671 694:0.10276706 696:0.20433915 832:0.09798719 1005:0.10276706 1099:0.0454087 1478:0.13981099 1496:0.10515699 1702:0.11949658 1715:0.18760963 1717:0.15056568 1738:0.32742062 #
1 1:0.013622829 10:0.031137893 13:0.1264977 14:0.033084013 15:0.025299538 24:0.072006382 59:0.064221904 64:0.10314427 86:0.11287487 115:0.22574973 117:0.073952496 149:0.04670684 196:0.042814605 261:0.048652958 357:0.048652958 360:0.054491315 419:0.14985111 435:0.077844732 459:0.14206664 491:0.073952496 543:0.51182914 688:0.087575324 705:0.087575324 711:0.15568946 824:0.10314427 994:0.060329668 1120:0.068114139 1225:0.21991138 1263:0.17125842 1341:0.11092874 1444:0.19655795 1566:0.072006382 1642:0.34446296 1660:0.097305916 1687:0.13622828 1695:0.091467559 1702:0.27245656 1706:0.12065934 1733:0.18488124 1764:0.062275786 1771:0.091467559 1773:0.18682736 1807:0.073952496 1834:0.083683088 1876:0.18488124 #
1 9:0.053061862 10:0.02505699 15:0.035374574 17:0.1090716 81:0.053061862 86:0.15328982 205:0.19308622 269:0.039796397 270:0.14002436 348:0.089910381 351:0.10464978 366:0.061905507 367:0.15328982 418:0.042744279 419:0.12233707 543:0.64411205 570:0.12381101 598:0.16065952 645:0.15623771 694:0.11791525 938:0.2358305 1103:0.070749149 1200:0.13855042 1306:0.073697031 1319:0.073697031 1359:0.25351778 1456:0.18571651 1478:0.10317584 1532:0.18866439 1562:0.12528495 1593:0.067801267 1597:0.036848515 1642:0.18276864 1660:0.18424258 1773:0.12823284 1847:0.0014739406 #
0.60512233425078199022806302309618 7:0.09005776 9:0.17582706 15:0.011793278 44:0.071831785 52:0.12650971 61:0.094346225 63:0.040740415 77:0.064326972 150:0.085769296 163:0.25623578 183:0.15974532 205:0.16188955 445:0.096490458 462:0.091129877 475:0.036451951 543:0.56071681 661:0.0075048138 694:0.24122615 712:0.063254856 876:0.052533694 1196:0.1318703 1458:0.138303 1478:0.14366357 1497:0.084697179 1573:0.44171187 1598:0.3098416 1606:0.12650971 1642:0.037524067 1664:0.082552947 1737:0.14902416 #
1 95:0.24941455 191:0.11645816 289:0.14654317 302:0.30667314 405:0.31346655 543:0.33093527 675:0.12422203 694:0.0067933924 865:0.58132029 897:0.06987489 1305:0.15624802 1382:0.11160573 1456:0.056288108 1478:0.030085023 1569:0.21544759 1644:0.12034009 1691:0.37460706 1753:0.0067933924 1820:0.020380177 #
-1 1:0.019672003 8:0.038251113 10:0.054644451 15:0.029508002 35:0.10710312 38:0.084152453 63:0.051365782 86:0.11256757 88:0.10491734 96:0.22404224 142:0.091802679 196:0.15519024 222:0.15081868 269:0.16721201 312:0.034972448 337:0.11147468 418:0.089616895 432:0.10819601 445:0.057923116 475:0.12131068 543:0.39234716 598:0.085245341 807:0.053551562 917:0.38906848 919:0.12896091 943:0.11693912 1061:0.10491734 1076:0.1387969 1421:0.14098269 1489:0.050272893 1529:0.27322224 1642:0.13770401 1643:0.50710052 1660:0.075409338 1729:0.098360009 #
-1 1:0.022585176 2:0.082019851 10:0.19494572 13:0.051113818 14:0.02733995 15:0.053491205 23:0.28885251 24:0.1450206 38:0.11292588 71:0.14383191 81:0.049925126 96:0.15096407 109:0.076076381 126:0.0546799 127:0.10698241 164:0.1283789 167:0.0546799 193:0.026151257 196:0.20921005 206:0.065378144 229:0.077265076 255:0.066566832 269:0.03803819 278:0.073698997 281:0.16285101 366:0.059434675 399:0.15096407 432:0.091529399 543:0.46596783 568:0.063000754 673:0.39821231 706:0.040415578 720:0.070132919 874:0.12243543 1003:0.072510302 1108:0.12005804 1130:0.063000754 1204:0.1271902 1297:0.15334146 1305:0.10460503 1382:0.10103895 1391:0.082019851 1443:0.048736431 1445:0.059434675 1478:0.11411458 1496:0.080831155 1589:0.083208546 1662:0.019019095 1685:0.063000754 1715:0.1450206 1737:0.25319171 1764:0.051113818 1948:0.039226886 #
-0.76308488705521382300389632291626 1:0.0301635 15:0.016159019 27:0.24238528 45:0.14327663 60:0.25315794 86:0.084026895 102:0.17559467 128:0.18744461 158:0.19821729 220:0.11203586 269:0.18529008 321:0.084026895 337:0.070022412 365:0.080795094 390:0.18098101 542:0.064636074 543:0.30702135 552:0.29624867 572:0.21653084 597:0.078640558 674:0.10234045 712:0.072176948 798:0.090490505 1032:0.10449499 1230:0.16589926 1327:0.039858911 1411:0.038781643 1423:0.55048388 1487:0.019390821 1597:0.084026895 1642:0.10557225 1771:0.13681303 #
-1 1:0.0036705083 15:0.0073410165 24:0.033034574 44:0.046493102 45:0.13458531 47:0.041599091 53:0.050163612 66:0.24592406 70:0.061175138 116:0.23491253 117:0.06851615 122:0.064845644 132:0.080751181 136:0.058728132 145:0.11990327 279:0.062398639 313:0.12724428 339:0.07585717 349:0.045269601 384:0.12846778 425:0.11745626 426:0.11867976 432:0.056281127 506:0.10032722 507:0.085645191 543:0.26305309 545:0.094209708 560:0.15293784 584:0.10155073 633:0.064845644 642:0.21044247 688:0.081974685 696:0.2728411 841:0.23491253 1183:0.10155073 1193:0.11378575 1330:0.078304172 1382:0.1382558 1423:0.25815907 1444:0.12235028 1446:0.069739655 1456:0.059951633 1480:0.16884337 1489:0.086868696 1505:0.050163612 1529:0.14070281 1533:0.047716606 1537:0.089315698 1594:0.27161759 1642:0.23001851 1686:0.14926733 1764:0.11745626 1776:0.092986204 1800:0.10889174 1809:0.20432496 #
0.66227482829405559527913283091038 15:0.028743228 20:0.068983749 23:0.10347562 27:0.10634995 51:0.10634995 53:0.094852656 61:0.34491873 63:0.099164136 77:0.15808776 135:0.23282015 183:0.081918202 193:0.11066143 196:0.074732393 224:0.1379675 264:0.18395665 335:0.16814789 365:0.14802763 432:0.34060726 434:0.19401678 598:0.11209859 610:0.047426328 616:0.068983749 648:0.15090194 652:0.21413705 661:0.10491278 671:0.11497291 712:0.18395665 774:0.089104004 789:0.13940465 1002:0.17389654 1204:0.087666847 1218:0.19257963 1421:0.064672261 1446:0.26156339 1480:0.094852656 1492:0.20551409 1623:0.10491278 1642:0.18108234 1660:0.11353575 1770:0.018683098 1782:0.1825195 #
0.31616763427704880351498673007882 1:0.0058406782 10:0.14212318 15:0.058406781 21:0.18106103 22:0.11681356 36:0.11876046 37:0.13238871 44:0.11681356 52:0.20637064 56:0.12070735 63:0.20052995 77:0.3192904 110:0.16548589 232:0.052566104 432:0.29398081 463:0.1615921 694:0.099291533 710:0.15380453 975:0.23362713 1040:0.13822939 1306:0.10123842 1322:0.17911413 1421:0.12460113 1478:0.21026441 1678:0.083716385 1754:0.32513109 1787:0.085663281 1799:0.1888486 1812:0.26283053 1855:0.11291978 1856:0.30955595 #
0.20670499391815377876469028706197 1:0.012995082 9:0.37985626 14:0.10396066 67:0.36886042 86:0.030988272 192:0.15694061 360:0.11095801 432:0.19692548 543:0.029988652 729:0.11195763 986:0.10296103 1047:0.73972005 1083:0.10795914 1089:0.099962175 1179:0.10296103 1305:0.094964065 1660:0.12795158 1781:0.055978816 #
0.70641522279050494859120590263046 1:0.011925384 8:0.030475982 9:0.088777862 10:0.043726411 14:0.049026579 15:0.011925384 22:0.071552306 36:0.14575469 41:0.32331043 51:0.087452821 72:0.11527871 77:0.064927094 94:0.090102904 249:0.18683103 264:0.11925384 359:0.21465692 369:0.12190393 432:0.25970837 610:0.01987564 652:0.088777862 826:0.18550599 916:0.1179288 1071:0.66782153 1305:0.071552306 1382:0.1086535 1504:0.03975128 1513:0.11130359 1642:0.27825898 1752:0.15900512 1771:0.049026579 1856:0.07950256 #
0.71940643204193810422708565965877 9:0.12524252 10:0.030432763 15:0.025750799 24:0.036285218 25:0.080763869 27:0.062036015 63:0.058524542 73:0.071399942 76:0.099491723 78:0.073740922 86:0.17323264 100:0.090127796 115:0.0128754 123:0.052672088 126:0.067888469 196:0.044478651 199:0.10651467 230:0.080763869 283:0.1275835 311:0.13343595 320:0.046819635 365:0.091298282 372:0.062036015 445:0.091298282 461:0.10534418 543:0.038626198 577:0.11704908 580:0.071399942 599:0.5278914 801:0.13343595 975:0.1018327 1119:0.14279988 1241:0.045649141 1298:0.10534418 1368:0.074911416 1489:0.058524542 1623:0.10651467 1886:0.15567528 1982:0.63908798 #
-1 63:0.14761017 137:0.16699333 150:0.30863947 220:0.14761017 257:0.15804726 432:0.13120905 445:0.099897794 493:0.13120905 543:0.22066976 694:0.14611916 699:0.14313714 831:0.25048998 876:0.2132147 971:0.12077196 999:0.20277761 1421:0.058149464 1533:0.26838213 1678:0.18488547 1729:0.13717309 1736:0.61727893 #
-1 1:0.014443721 8:0.024554325 10:0.10688353 15:0.049108651 19:0.10977227 51:0.072218604 55:0.080884837 58:0.070774227 63:0.033220556 64:0.060663626 67:0.069329858 80:0.069329858 123:0.060663626 127:0.07799609 147:0.11410539 148:0.089551069 149:0.054886136 190:0.10399479 193:0.037553672 230:0.18632399 236:0.10688353 254:0.13432659 269:0.054886136 355:0.1083279 360:0.041886788 372:0.070774227 392:0.13432659 543:0.15599218 577:0.1964346 650:0.124216 674:0.060663626 694:0.093884185 814:0.11699414 885:0.14877032 1049:0.15165906 1120:0.07944046 1162:0.089551069 1260:0.12854911 1305:0.12999348 1339:0.18343525 1369:0.075107343 1478:0.11699414 1488:0.15021469 1500:0.036109302 1502:0.41453478 1565:0.14588158 1690:0.099661671 1693:0.44342223 1729:0.12854911 1742:0.29754063 1773:0.043331161 1786:0.085217953 1845:0.064996742 #
-1 1:0.0036794227 14:0.026982432 22:0.1569887 27:0.095664985 29:0.17415933 122:0.11038268 212:0.14962985 220:0.14595042 235:0.10915621 291:0.24284188 322:0.22567125 344:0.12142094 347:0.13123274 360:0.028208906 431:0.067456082 432:0.073588453 442:0.49917498 467:0.28822145 543:0.13981806 581:0.13123274 608:0.18151818 648:0.12142094 694:0.18029171 710:0.047832493 754:0.073588453 1091:0.30171266 1120:0.10670325 1183:0.17170639 1248:0.1901035 1353:0.24284188 1488:0.10915621 1807:0.1373651 #
-0.55712454739098504763461505717714 1:0.040730923 14:0.10570644 15:0.0087280544 27:0.064005733 79:0.082431629 80:0.06303595 94:0.064975515 103:0.14255823 113:0.071764007 141:0.084371194 142:0.053338114 197:0.094069034 224:0.082431629 235:0.14546758 331:0.10570644 352:0.10279709 359:0.62357104 385:0.096008599 432:0.11055536 494:0.10570644 541:0.15710498 543:0.086310767 674:0.054307897 685:0.49458978 686:0.059156816 710:0.051398546 876:0.038791355 921:0.13189061 1019:0.061096381 1180:0.037821572 1227:0.10667623 1305:0.10764601 1382:0.11637406 1584:0.097948171 1626:0.032972652 1771:0.1920172 1773:0.15710498 1852:0.15419564 1856:0.096978389 1943:0.027153948 #
-0.86857571631411589763160918664653 1:0.012926112 15:0.03231528 49:0.089190178 64:0.10211629 79:0.07755667 115:0.13313895 123:0.20164736 175:0.13443157 181:0.12796851 200:0.38002771 220:0.084019728 247:0.17579512 262:0.18096557 324:0.012926112 432:0.1266759 516:0.15123551 543:0.10211629 711:0.10082368 1045:0.056874894 1093:0.22232912 1239:0.20164736 1252:0.11245718 1271:0.23137741 1305:0.18096557 1480:0.064630561 1544:0.18096557 1565:0.12150545 1646:0.52609277 1660:0.096945845 1677:0.20164736 1780:0.16803946 1856:0.087897561 #
1 10:0.099045627 15:0.036413833 22:0.05534903 47:0.049522813 59:0.069914564 70:0.072827667 74:0.39472595 81:0.068458006 104:0.069914564 121:0.077197328 124:0.05534903 130:0.093219414 145:0.071371116 150:0.065544903 170:0.05534903 178:0.069914564 185:0.093219414 229:0.14128567 230:0.087393202 269:0.050979368 358:0.081566989 376:0.061175242 377:0.18935193 432:0.16896018 467:0.10050219 543:0.3437466 598:0.14711189 636:0.078653879 644:0.13837257 667:0.15148155 730:0.064088345 825:0.088849753 985:0.23159198 1308:0.096132524 1372:0.32189828 1444:0.14419879 1445:0.080110438 1446:0.16313398 1505:0.030587621 1509:0.1092415 1552:0.071371116 1585:0.12089393 1635:0.12089393 1658:0.085936651 1679:0.050979368 1701:0.15148155 1722:0.18935193 1751:0.096132524 1766:0.077197328 1771:0.13400291 1779:0.11069806 1795:0.11798082 1809:0.16022088 1831:0.11215461 1856:0.12235048 #
0.4384698549222103558520302613033 1:0.0033780592 7:0.057427008 10:0.055174969 12:0.065309145 15:0.022520395 41:0.13624839 44:0.046166811 54:0.059679046 61:0.059679046 63:0.025898455 67:0.054048948 72:0.073191285 73:0.12724023 150:0.054048948 197:0.081073418 219:0.085577503 239:0.10021576 335:0.087829538 432:0.061931085 445:0.034906611 459:0.12949227 543:0.39748496 580:0.10134178 598:0.13061829 679:0.078821383 1382:0.11260197 1497:0.085577503 1531:0.15989481 1597:0.086703524 1604:0.057427008 1623:0.038284671 1628:0.11598004 1675:0.058553025 1684:0.065309145 1701:0.76006335 1703:0.087829538 1737:0.094585657 1752:0.097963721 1811:0.070939243 #
0.25504330618348725057131787252729 1:0.034693275 14:0.043366596 15:0.049148809 18:0.19948635 24:0.21394187 39:0.065049894 40:0.052039914 59:0.053485468 62:0.099743173 86:0.072277658 95:0.07661432 123:0.043366596 193:0.053485468 230:0.067941003 252:0.075168766 261:0.040475488 360:0.046257701 425:0.10697094 489:0.075168766 543:0.40620044 598:0.10263427 624:0.47703254 655:0.11130759 679:0.073723212 694:0.072277658 722:0.11853536 730:0.05059436 839:0.085287638 960:0.10263427 994:0.10407983 1104:0.027465511 1120:0.057822127 1121:0.11275315 1137:0.18936746 1140:0.060713232 1162:0.065049894 1177:0.1604564 1370:0.19370413 1382:0.16190195 1513:0.083842084 1523:0.09540651 1534:0.20815966 1558:0.15178308 1565:0.053485468 1606:0.027465511 1660:0.11998092 1705:0.075168766 1726:0.17057528 1740:0.091069847 1761:0.16768417 1807:0.10407983 1830:0.15467419 1834:0.072277658 1931:0.09540651 #
1 1:0.0149504 8:0.021746036 12:0.14134924 15:0.0081547638 59:0.062519856 60:0.18620044 61:0.063878983 66:0.065238111 84:0.080188513 139:0.081547633 232:0.095138907 377:0.084265888 418:0.048928581 425:0.061160728 432:0.073392875 490:0.10329367 533:0.20658734 543:0.24600203 688:0.085625015 694:0.25687507 700:0.60481161 714:0.20115083 963:0.085625015 1003:0.08834327 1194:0.18076393 1438:0.11280756 1442:0.11280756 1444:0.063878983 1456:0.016309528 1688:0.26910719 1697:0.23105164 1703:0.09377978 1734:0.18620044 1790:0.11416669 1794:0.11280756 1807:0.11824407 1820:0.10737105 #
0.5451761432650514827003007667372 1:0.0036148068 7:0.10241953 15:0.013254291 24:0.059041843 35:0.096394844 86:0.10241953 183:0.12290343 193:0.10362446 349:0.069886267 360:0.028918454 408:0.10362446 445:0.11928862 491:0.12049356 543:0.23978218 667:0.14459227 973:0.77718347 1162:0.1253133 1287:0.17833047 1393:0.11928862 1413:0.055427037 1592:0.28918454 1655:0.022893777 1715:0.19519956 1784:0.1385676 1888:0.079525746 #
-1 1:0.019569727 15:0.025591182 17:0.19720262 43:0.38236234 58:0.18666509 62:0.18064363 124:0.15655781 137:0.14752562 312:0.031612635 350:0.27096546 360:0.055698451 412:0.19720262 432:0.2559118 445:0.19118117 495:0.13247199 543:0.37935162 694:0.13096663 712:0.054193087 1065:0.19569726 1210:0.10387009 1274:0.20322408 1306:0.26795471 1457:0.1113969 1588:0.23634209 1642:0.094837904 1702:0.097848631 1787:0.03763409 1814:0.045160908 1820:0.21827772 #
-0.89511036826905521213149086179328 1:0.0075922552 8:0.024674829 14:0.018980637 15:0.0094903186 34:0.068330295 75:0.089208998 86:0.14709994 115:0.13001737 121:0.16038638 185:0.19455154 369:0.095852219 392:0.10249545 418:0.056941915 432:0.091107063 543:0.2467483 568:0.088259965 598:0.1546922 899:0.11673092 978:0.067381263 1043:0.074973516 1230:0.080667712 1338:0.067381263 1366:0.10629157 1367:0.13760963 1430:0.10249545 1446:0.16987671 1479:0.091107063 1518:0.1309664 1625:0.056941915 1626:0.075922549 1683:0.09015803 1692:0.35588697 1745:0.50773203 1746:0.45648435 1809:0.08351481 1837:0.097750284 1845:0.062636107 #
-1 1:0.0028544965 15:0.012845234 91:0.082780398 230:0.25405017 350:0.14129758 391:0.14557932 432:0.32398534 543:0.44815594 558:0.19125126 580:0.23406871 598:0.16413355 694:0.25975916 712:0.17412429 717:0.067080662 800:0.17269704 840:0.37251177 944:0.13416132 1049:0.20837824 1210:0.05566268 1305:0.10704362 1309:0.052808184 1405:0.049953688 1417:0.071362413 1478:0.084207647 1642:0.0057089929 1684:0.18268777 1685:0.12559783 1743:0.10418912 1925:0.19696026 #
-0.59524000647877617353742607519962 1:0.013869281 8:0.020803921 15:0.023775911 47:0.042598505 49:0.17237535 50:0.1069916 66:0.18921661 74:0.068355739 77:0.086187676 79:0.037645191 81:0.059439775 85:0.2030859 91:0.098075628 104:0.060430437 142:0.048542485 160:0.087178335 170:0.047551822 242:0.065383755 360:0.01684127 391:0.086187676 418:0.047551822 435:0.073309056 456:0.60331374 524:0.0049533146 543:0.18921661 561:0.085197009 588:0.091140985 598:0.029719887 674:0.048542485 694:0.20605789 708:0.077271707 711:0.049533147 775:0.087178335 975:0.047551822 1012:0.13076751 1060:0.094112977 1077:0.10005695 1513:0.013869281 1514:0.31503081 1574:0.014859944 1634:0.41211578 1684:0.10302895 1694:0.092131652 1820:0.063402429 1837:0.093122311 #
-1 1:0.055343285 3:0.22571379 5:0.27020544 6:0.29733452 26:0.4937489 130:0.094409131 193:0.20184021 248:0.14541176 324:0.10526076 341:0.17579632 360:0.22896928 543:0.43515015 694:0.23222476 712:0.081387185 957:0.10960141 1172:0.10309043 1180:0.17145567 1435:0.015192274 1456:0.10960141 1724:0.16168921 1856:0.1877331 #
1 22:0.16166863 62:0.19019839 432:0.25296384 475:0.063716456 505:0.041843645 529:0.037088685 543:0.22253211 632:0.077981338 694:0.077981338 709:0.30336642 959:0.5163886 1034:0.079883322 1038:0.070373401 1169:0.34711206 1261:0.068471417 1391:0.32714123 1674:0.066569433 1728:0.42224041 1807:0.037088685 1825:0.0038039677 1826:0.022823807 1846:0.13408986 #
1 27:0.2052805 55:0.23235045 130:0.1680593 232:0.078954034 354:0.20640841 432:0.018046636 486:0.13986143 520:0.4195843 543:0.43199137 635:0.11955897 796:0.14098935 1185:0.092489012 1322:0.11617523 1377:0.073314466 1382:0.021430381 1496:0.33611861 1527:0.39025852 1617:0.006767489 1646:0.30115324 1713:0.043988679 1921:0.15565224 #
0.59192109712346463457066647606553 1:0.0032660656 7:0.086006396 14:0.02286246 15:0.010886885 56:0.069676071 63:0.039192788 84:0.11540098 91:0.070764758 117:0.10015935 169:0.028305903 261:0.066410005 322:0.097981967 360:0.025039837 411:0.12519918 448:0.10560279 543:0.14806165 577:0.097981967 590:0.10015935 606:0.41370165 633:0.094715908 694:0.043547541 717:0.070764758 730:0.080562957 1007:0.079474263 1038:0.11104623 1258:0.18725443 1456:0.17201279 1556:0.13499738 1642:0.13499738 1664:0.10015935 1682:0.097981967 1715:0.081651643 1737:0.70982492 1764:0.086006396 1890:0.15023902 #
0.64905517709446125529382243257714 1:0.01732743 7:0.06468907 9:0.063533902 10:0.031189373 15:0.01732743 49:0.046206478 115:0.06584423 196:0.043896154 261:0.099343926 263:0.1270678 272:0.094723277 371:0.023103239 543:0.18136042 587:0.091257796 674:0.053137448 681:0.44935799 760:0.16634332 761:0.15132621 995:0.11089554 1069:0.039275505 1252:0.058913257 1305:0.092412956 1382:0.03581002 1388:0.082016498 1421:0.14324008 1456:0.19637753 1472:0.077395849 1501:0.44473734 1533:0.053137448 1597:0.10280941 1660:0.22063592 1676:0.51289189 1754:0.14208491 1780:0.087792307 #
0.22092708597527146996419844526827 1:0.017634977 7:0.1667307 10:0.080158986 15:0.043285854 27:0.16031797 123:0.13627028 163:0.23566742 193:0.083365351 195:0.24849287 360:0.048095394 504:0.15711161 543:0.035269953 553:0.12023848 836:0.12825438 846:0.13146074 902:0.34789002 994:0.16031797 1176:0.20200065 1305:0.20841336 1456:0.099397145 1513:0.12985756 1544:0.24368332 1606:0.1667307 1718:0.022444516 1739:0.61081147 1771:0.012825438 #
-0.92313042370459608143562491022749 87:0.37223536 542:0.10041698 543:0.20256528 563:0.16967008 640:0.28220636 967:0.1644761 972:0.096954323 1305:0.024238581 1686:0.19910264 1763:0.45533907 1795:0.57306933 1814:0.19390865 1915:0.11946158 1930:0.19390865 #
-0.37283804650404139824360072452691 1:0.0071670525 15:0.00955607 35:0.07047601 69:0.063308962 86:0.082421102 131:0.0955607 133:0.10033873 149:0.056141909 158:0.35715809 170:0.059725434 271:0.14095202 309:0.13856301 322:0.08600463 363:0.2329292 365:0.20903902 464:0.084810115 538:0.36313066 543:0.14453556 547:0.13378498 589:0.12900694 679:0.10392226 927:0.17798179 994:0.14573006 1000:0.17200926 1041:0.10392226 1099:0.051363874 1191:0.10272775 1328:0.08003208 1340:0.078837574 1353:0.091977172 1382:0.078837574 1428:0.09914422 1480:0.10631128 1530:0.04778035 1558:0.10631128 1577:0.35596359 1596:0.017917631 1685:0.093171678 1726:0.022695666 1740:0.38463181 1775:0.14573006 1779:0.083615609 #
-0.68645818254860180296361704677111 1:0.003524014 15:0.025842769 70:0.31481192 93:0.3735455 115:0.11276845 118:0.17267668 122:0.11041911 132:0.13743655 170:0.079877652 258:0.12099115 278:0.079877652 374:0.12803918 390:0.051685538 392:0.12686451 414:0.2008688 478:0.20556748 543:0.072829627 620:0.1762007 636:0.11394312 694:0.071654953 711:0.082226992 726:0.14800858 1109:0.078702979 1257:0.19734478 1295:0.18912208 1382:0.10337108 1411:0.099847063 1438:0.18324873 1446:0.11746714 1530:0.14565925 1552:0.10337108 1579:0.17737538 1597:0.065781593 1652:0.15505661 1679:0.13391253 1715:0.28427047 1720:0.10689509 1794:0.10806976 1809:0.11511779 1829:0.22083822 1851:0.069305606 1856:0.17150201 #
-0.4911266096689345106440782728896 1:0.058905199 14:0.022559438 15:0.021306137 20:0.051385388 38:0.061411802 40:0.080211334 46:0.076451428 47:0.058905199 50:0.14788964 65:0.08271794 79:0.051385388 83:0.16418257 87:0.091491051 103:0.088984452 106:0.18172881 113:0.088984452 200:0.085224546 254:0.16919579 330:0.10402407 365:0.14412974 432:0.18423541 493:0.22684768 543:0.18423541 551:0.13285002 580:0.085224546 598:0.20303494 618:0.22810099 666:0.04135897 688:0.11530379 711:0.06767831 712:0.08397124 1006:0.061411802 1099:0.056398593 1305:0.21682127 1372:0.48001471 1447:0.15415616 1451:0.10277078 1489:0.10151747 1552:0.085224546 1565:0.081464633 1566:0.093997657 1660:0.071438223 1773:0.39228356 1807:0.036345761 1896:0.1190637 #
-0.40181880192866986645228166707966 1:0.035959758 15:0.019839866 43:0.073159508 45:0.084319428 49:0.05331964 53:0.063239574 59:0.074399494 60:0.15003899 64:0.060759589 71:0.052079648 79:0.045879688 83:0.073159508 90:0.073159508 124:0.12027919 155:0.10539929 178:0.074399494 224:0.091759376 234:0.1773188 258:0.13515909 269:0.054559629 279:0.078119472 331:0.23807839 359:0.086799413 360:0.12647915 516:0.090519391 543:0.27403814 551:0.11903919 580:0.075639486 596:0.13763908 612:0.13763908 617:0.1177992 876:0.011159925 994:0.071919516 1070:0.15375896 1126:0.18475875 1189:0.064479567 1321:0.12771913 1323:0.16119891 1325:0.14631902 1438:0.40795726 1445:0.08555942 1466:0.15623894 1474:0.15003899 1597:0.20087864 1601:0.13019912 1604:0.074399494 1636:0.1624389 1642:0.06943953 1734:0.33603773 1793:0.009919933 1800:0.076879479 1811:0.18351875 #
0.94203904223310741539165746871731 1:0.021165213 7:0.068031043 14:0.018141611 15:0.018141611 17:0.13757388 51:0.065007441 53:0.057448432 63:0.030236017 64:0.055936631 77:0.096755259 86:0.1799043 146:0.06954284 193:0.033259619 230:0.1693217 249:0.13908568 333:0.13152668 350:0.093731657 360:0.019653412 376:0.060472034 387:0.13303848 432:0.15873909 439:0.15420368 543:0.35073781 598:0.11338507 613:0.10884966 858:0.13001488 1006:0.090708055 1120:0.14513288 1221:0.12699127 1311:0.11792047 1603:0.083149046 1700:0.18746331 1706:0.64251536 1742:0.18141611 1764:0.068031043 1776:0.23432913 #
1 1:0.020333163 7:0.031952117 10:0.062451862 12:0.03630922 14:0.017428426 15:0.02614264 24:0.03630922 40:0.1263561 41:0.037761591 54:0.20042691 107:0.034856852 117:0.037761591 120:0.03630922 131:0.040666327 202:0.042118698 252:0.045023434 261:0.14814162 288:0.20478401 295:0.031952117 314:0.084237397 360:0.018880796 373:0.047928173 427:0.16992716 432:0.10602292 521:0.15540347 543:0.18735558 580:0.19316506 583:0.11473714 590:0.11328477 592:0.058094755 627:0.049380541 634:0.046475805 667:0.17137952 694:0.11328477 730:0.090046868 889:0.037761591 896:0.060999494 908:0.07261844 975:0.050832909 1094:0.15685584 1186:0.12054662 1204:0.1074753 1382:0.17864136 1432:0.018880796 1483:0.18735558 1520:0.11618951 1536:0.1263561 1548:0.26723588 1558:0.045023434 1564:0.043571066 1579:0.28611666 1588:0.35437801 1660:0.010166582 1729:0.15395109 1737:0.053737648 1814:0.084237397 1824:0.21349822 1838:0.058094755 1839:0.091499239 1855:0.13507031 1856:0.23818849 1894:0.13797504 #
0.26654581371368257780574140269891 1:0.023390552 7:0.13477413 15:0.017821372 27:0.13031879 49:0.096903712 53:0.11583892 55:0.14814016 63:0.061260968 115:0.11806659 129:0.19380742 130:0.066830143 183:0.1681892 193:0.067943983 240:0.59812981 258:0.082423851 326:0.28514194 349:0.11361125 360:0.076854669 394:0.11806659 432:0.19714893 439:0.10358673 543:0.35976896 657:0.15259551 713:0.11583892 876:0.09578988 1042:0.1058144 1305:0.036756579 1306:0.093562208 1588:0.1648477 1603:0.1648477 1684:0.017821372 1729:0.01336603 1771:0.11472508 1856:0.18378291 #
0.7210974206554570109517499076901 1:0.0081653688 9:0.031028401 10:0.089819059 12:0.10614979 15:0.045726065 36:0.024496106 47:0.022863032 57:0.071855247 64:0.026129181 83:0.031028401 111:0.097984426 112:0.066956021 130:0.18453734 142:0.050625287 145:0.031028401 151:0.14534356 167:0.032661475 171:0.12737975 193:0.016330738 196:0.084919833 226:0.035927624 230:0.078387536 269:0.045726065 273:0.040826842 321:0.021229958 326:0.26292488 327:0.068589099 346:0.13554512 382:0.099617496 432:0.30211863 455:0.083286762 458:0.14860971 491:0.035927624 543:0.45562756 559:0.089819059 661:0.10125057 674:0.076754466 690:0.058790654 694:0.24496105 696:0.096351348 706:0.050625287 770:0.10614979 886:0.10451672 905:0.055524506 970:0.11431516 975:0.19596885 1025:0.10451672 1355:0.088185981 1362:0.33151397 1418:0.16004123 1429:0.16330737 1480:0.11758131 1569:0.037560694 1586:0.086552911 1607:0.035927624 1650:0.086552911 1673:0.034294549 1676:0.1241136 1702:0.14534356 1738:0.052258361 #
0.17650021123479942009026899540913 1:0.0043353769 7:0.034683015 15:0.022543961 21:0.084106319 24:0.039018393 38:0.025145188 50:0.03034764 59:0.034683015 63:0.031214716 111:0.053758677 115:0.11618811 120:0.03815132 147:0.052891601 150:0.032948866 229:0.10838443 240:0.45694876 261:0.052891601 291:0.084106319 310:0.041619621 322:0.039018393 333:0.03034764 360:0.019942734 369:0.091909997 418:0.026879339 430:0.12399179 443:0.574871 487:0.053758677 543:0.34076065 590:0.16127603 638:0.078903861 661:0.084106319 674:0.027746413 694:0.10838443 701:0.046822071 720:0.047689147 785:0.080638014 858:0.066764809 1016:0.084973387 1018:0.084106319 1021:0.08670754 1022:0.083239242 1087:0.080638014 1099:0.046822071 1162:0.041619621 1263:0.064163581 1305:0.26359093 1420:0.070233107 1421:0.096245371 1543:0.045954999 1551:0.074568488 1556:0.053758677 1587:0.047689147 1641:0.036417168 1660:0.08670754 1664:0.03034764 1735:0.068498962 1755:0.05462575 1763:0.045954999 1856:0.16907971 #
-1 85:0.29405296 97:0.29405296 99:0.31162584 108:0.12418173 130:0.12183868 178:0.26125026 406:0.12418173 432:0.15229835 543:0.41237706 1104:0.06912002 1191:0.058576286 1214:0.096065111 1382:0.16752818 1421:0.2905384 1497:0.15698445 1533:0.21438922 1642:0.059747815 1646:0.36903062 1794:0.17690039 1807:0.16752818 1816:0.050375607 1818:0.096065111 1855:0.10660885 #
-0.76292050506616648775093381118495 1:0.012732976 15:0.010186381 86:0.12350987 121:0.081491046 133:0.096770622 185:0.098043919 190:0.10186381 271:0.13624285 275:0.1095036 288:0.056025095 432:0.24065325 475:0.21136741 502:0.091677427 535:0.13878945 543:0.26993909 574:0.06493818 578:0.1044104 583:0.16552868 630:0.2635726 688:0.10059051 716:0.16934858 720:0.10059051 887:0.15024912 1017:0.095497325 1217:0.2724857 1219:0.077671155 1322:0.076397859 1382:0.1578889 1513:0.17571507 1515:0.51441222 1597:0.028012548 1660:0.23428677 1729:0.14642923 1838:0.13242295 1839:0.13369626 #
-0.98475466642304576581068431551103 1:0.037550177 15:0.0046937722 18:0.2288214 26:0.04224395 38:0.024642304 49:0.073926911 71:0.024642304 102:0.048111163 124:0.083314456 127:0.036376733 131:0.17366956 146:0.035203289 152:0.052804936 166:0.037550177 167:0.14550693 184:0.062192481 204:0.068059698 227:0.17836334 258:0.021121975 269:0.050458051 279:0.1091302 300:0.051631492 321:0.045764279 331:0.055151824 346:0.010560988 350:0.048111163 366:0.07862068 445:0.051631492 516:0.04224395 543:0.20535253 590:0.39897063 643:0.15841481 670:0.1361194 694:0.04224395 904:0.070406578 1006:0.14550693 1128:0.15020071 1205:0.10443643 1217:0.44825524 1274:0.082141012 1321:0.058672152 1323:0.073926911 1325:0.066886254 1382:0.082141012 1414:0.15606792 1456:0.19127122 1552:0.070406578 1651:0.071580023 1705:0.048111163 1707:0.19831187 1727:0.07862068 1813:0.11382397 1881:0.077447243 1916:0.080967568 2000:0.34029847 #
-0.81392852998118592200427201532875 30:0.071789429 47:0.057237517 70:0.085371211 71:0.057237517 75:0.10089325 118:0.13969836 121:0.1804437 185:0.2192488 216:0.14357886 220:0.086341344 261:0.062088154 306:0.10768414 362:0.039775226 367:0.11544517 420:0.10186338 472:0.13775809 475:0.043655735 543:0.34924588 598:0.015522039 711:0.065968663 867:0.13872822 876:0.051416755 880:0.049476501 1050:0.076640069 1059:0.13872822 1382:0.18335408 1533:0.066938795 1540:0.33081347 1616:0.18335408 1774:0.59274787 1845:0.14066848 1855:0.1270867 1856:0.19111511 #
-0.72265233067963452473492225180962 1:0.029325096 8:0.0091008916 14:0.0070784716 15:0.034381147 17:0.026291465 24:0.015168154 40:0.025280256 47:0.055616561 49:0.018201783 51:0.025280256 60:0.13044612 69:0.022246625 74:0.029325096 94:0.025280256 97:0.087975286 124:0.021235414 127:0.054605354 134:0.0495493 135:0.10819949 142:0.04145962 154:0.059661403 193:0.026291465 202:0.034381147 212:0.1183116 223:0.036403567 258:0.031347517 269:0.038425989 295:0.025280256 304:0.035392359 320:0.093031339 339:0.033369936 344:0.032358728 355:0.038425989 358:0.060672615 360:0.037414778 366:0.12033401 376:0.023257835 407:0.032358728 411:0.075840764 432:0.25381377 435:0.063706242 447:0.050560512 453:0.078874394 469:0.25988102 480:0.030336307 509:0.11325555 536:0.089997709 543:0.21741019 549:0.0495493 555:0.094042554 561:0.036403567 569:0.025280256 619:0.0495493 671:0.027302677 680:0.32560968 694:0.21235415 705:0.035392359 718:0.078874394 753:0.066739872 794:0.058650192 845:0.042470828 853:0.039437197 924:0.053594142 975:0.020224204 1008:0.030336307 1162:0.031347517 1190:0.11123312 1242:0.12134523 1268:0.47628 1305:0.13954701 1334:0.086964078 1335:0.084941655 1353:0.031347517 1443:0.22246625 1444:0.027302677 1449:0.0990986 1451:0.064717457 1550:0.031347517 1552:0.027302677 1578:0.038425989 1607:0.059661403 1648:0.085952871 1707:0.033369936 1733:0.038425989 1734:0.31347516 1748:0.034381147 1773:0.030336307 1840:0.076851979 #
0.6766321636167522690641362714814 15:0.039728701 28:0.37418893 150:0.28272051 192:0.065598547 353:0.16538227 432:0.14782771 445:0.072989941 537:0.028641621 559:0.12750141 694:0.055435397 992:0.073913857 1162:0.36310184 1359:0.072989941 1374:0.029565545 1394:0.097011939 1407:0.10809902 1421:0.022174157 1551:0.64582235 1583:0.015706696 1715:0.28364444 1771:0.081305243 1779:0.14875165 1815:0.088696629 #
0.52483595888555911734840719873318 192:0.10287382 375:0.49027255 453:0.086191587 480:0.28174454 543:0.19462615 652:0.23540497 661:0.11770248 815:0.54588002 854:0.080630839 894:0.1056542 1008:0.28823206 1035:0.099166662 1040:0.090825543 1147:0.06858255 1170:0.058387846 1236:0.047266353 1301:0.040778812 1306:0.16774921 1461:0.064875387 1480:0.18165109 1488:0.10194703 1533:0.20018691 1660:0.074143298 1807:0.070436135 #
0.7526522361529234261823262386315 1:0.010376786 10:0.034589287 12:0.027671428 13:0.0242125 14:0.044966072 15:0.0069178571 18:0.072637498 20:0.014988691 22:0.038048215 24:0.069178574 35:0.023059525 40:0.023059525 41:0.086473219 51:0.047272023 56:0.019600596 62:0.023059525 63:0.010376786 64:0.040354166 72:0.031130357 79:0.014988691 80:0.023059525 84:0.054189883 88:0.021906547 112:0.077249408 135:0.077249408 146:0.025365477 193:0.012682739 194:0.19831191 196:0.016141666 209:0.062260713 222:0.032283332 225:0.057648811 230:0.029977381 328:0.027671428 340:0.10376786 345:0.040354166 357:0.036895238 359:0.19946489 372:0.023059525 543:0.059954762 562:0.029977381 590:0.056495834 607:0.041507144 624:0.031130357 710:0.14758095 821:0.11760357 907:0.83936667 994:0.023059525 1061:0.14412202 1119:0.092238098 1120:0.025365477 1200:0.062260713 1245:0.056495834 1297:0.036895238 1603:0.029977381 1642:0.079555355 1670:0.068025596 1685:0.029977381 1729:0.063413695 1742:0.032283332 1769:0.06110774 1783:0.050730955 1792:0.10376786 1820:0.084167264 1839:0.13143928 #
0.21490244803596661449240912133973 1:0.010183016 8:0.010183016 10:0.057703756 12:0.1029616 15:0.0033943385 22:0.047520738 24:0.050915077 40:0.057703756 41:0.071281105 61:0.093910031 72:0.037337724 77:0.042994954 81:0.0294176 92:0.15161379 136:0.030549046 141:0.038469169 220:0.079201229 229:0.21836911 284:0.046389293 372:0.028286153 409:0.15387668 434:0.20931754 461:0.087121353 668:0.12445908 674:0.024891816 695:0.020366032 701:0.081464127 711:0.073544003 808:0.10409304 818:0.58722055 819:0.4831275 876:0.18668862 908:0.066755325 991:0.033943385 1010:0.099567264 1036:0.069018215 1192:0.07014966 1284:0.055440862 1305:0.1029616 1382:0.10975028 1509:0.14256221 1542:0.050915077 1660:0.14143077 1766:0.033943385 1814:0.18216284 1839:0.054309417 1856:0.11201317 1959:0.078069784 #
0.37463563708372643601407503410883 1:0.014944877 10:0.14411132 13:0.10034417 14:0.053374562 15:0.033092227 23:0.046969615 35:0.14090884 36:0.040564667 39:0.060846999 55:0.054442052 61:0.052307069 63:0.044834632 77:0.036294702 85:0.11315407 107:0.053374562 113:0.054442052 134:0.048037104 193:0.050172087 196:0.03415972 258:0.029889755 263:0.098209195 269:0.037362192 289:0.10354665 358:0.058712017 360:0.071521915 374:0.12916644 375:0.20175584 407:0.062981986 418:0.078994349 432:0.01707986 543:0.13557139 553:0.16225867 568:0.12276149 598:0.10141166 621:0.074724384 652:0.048037104 665:0.091804244 679:0.069386929 681:0.11528905 684:0.035227209 691:0.030957246 697:0.05977951 701:0.06831944 704:0.062981986 710:0.050172087 778:0.091804244 815:0.67572194 909:0.087534279 951:0.10995159 1020:0.121694 1058:0.098209195 1094:0.081129335 1140:0.056577034 1142:0.082196824 1189:0.10034417 1252:0.090736754 1306:0.10354665 1489:0.15158375 1525:0.13770637 1589:0.082196824 1660:0.090736754 1675:0.10247916 1704:0.061914492 1721:0.07685937 1729:0.13557139 1760:0.077926859 1764:0.050172087 1816:0.092871733 1844:0.12596397 #
-0.76130030793662062382765043366817 1:0.01675076 2:0.17309119 10:0.076774321 15:0.02093845 135:0.15215275 159:0.092129186 204:0.15913223 208:0.27917933 252:0.44947875 258:0.19542554 536:0.073982529 543:0.089337394 737:0.037689213 816:0.1270266 873:0.26242858 1098:0.11446353 1373:0.064211249 1518:0.59046429 1642:0.15913223 1685:0.19961323 1729:0.19263375 1850:0.14238146 #
-0.67708566649571666484774823402404 1:0.033751491 8:0.061633155 10:0.042556226 14:0.071905352 15:0.023479298 19:0.19957402 31:0.14234324 54:0.092449732 63:0.041088771 80:0.085112453 86:0.29055631 125:0.10565684 149:0.1335385 154:0.10272193 175:0.096852101 180:0.14234324 226:0.10272193 257:0.17169236 303:0.1335385 314:0.23332553 318:0.088047363 357:0.068970434 360:0.10272193 362:0.17462727 365:0.16435508 432:0.13647342 470:0.17756219 577:0.23185806 640:0.14674561 855:0.070437893 873:0.14527816 983:0.17756219 1006:0.077775173 1382:0.24653262 1454:0.077775173 1494:0.067502983 1572:0.048426051 1579:0.079242632 1583:0.09831956 1588:0.11005921 1642:0.16875745 1665:0.039621316 1675:0.090982281 1683:0.11299412 1711:0.32577527 1757:0.042556226 1794:0.086579911 1850:0.1335385 1856:0.1203314 1879:0.1937042 1938:0.082177542 1983:0.17169236 #
-0.47843734013422112294477983596153 1:0.080411829 8:0.064096384 15:0.024473164 30:0.085073382 38:0.069923326 46:0.2610471 71:0.13285433 83:0.27969331 94:0.18646221 108:0.11187732 115:0.065261774 294:0.059434827 298:0.12353121 323:0.12586199 400:0.13285433 406:0.11187732 543:0.037292439 576:0.3437897 588:0.14334282 627:0.14334282 683:0.11071193 948:0.097892657 969:0.13168894 1099:0.19345453 1206:0.10838116 1305:0.15499671 1352:0.13868126 1382:0.073419496 1409:0.087404162 1419:0.55355966 1567:0.043119386 1660:0.12586199 1696:0.19928148 1800:0.090900324 1856:0.13751587 #
-0.6904523073803846555662744322035 15:0.011358354 33:0.071395367 86:0.15252647 133:0.10871568 170:0.064904884 220:0.11682878 324:0.28720412 358:0.095734701 363:0.12656452 367:0.11682878 432:0.21580873 543:0.022716708 672:0.095734701 694:0.08437635 705:0.11196093 779:0.22229922 888:0.1476586 948:0.1687527 1059:0.16388483 1216:0.31154343 1228:0.04056555 1305:0.20282775 1332:0.20282775 1382:0.14603598 1397:0.3764483 1455:0.10709306 1456:0.011358354 1478:0.15577172 1579:0.14441337 1635:0.42674959 1642:0.11520617 1698:0.133055 1807:0.064904884 #
-0.51349213270588911495195816314663 1:0.05969635 2:0.23300834 3:0.12228124 86:0.055844974 96:0.21375145 130:0.053919286 142:0.17523769 172:0.23011981 173:0.25130239 193:0.10880142 313:0.051993597 321:0.29174185 324:0.064510576 432:0.12035555 433:0.088581681 539:0.05680782 543:0.10109866 689:0.058733508 694:0.058733508 703:0.31581295 723:0.011554132 745:0.11265279 843:0.63258874 945:0.049105063 1305:0.12228124 1421:0.1107271 1458:0.092433058 1497:0.05295644 1606:0.05295644 1660:0.028885331 1667:0.012516977 1768:0.088581681 1820:0.087618843 1856:0.078953236 1908:0.053919286 #
0.9077592359736563754069038623129 1:0.0219147 8:0.032141559 14:0.024836659 15:0.024836659 17:0.1899274 22:0.074509978 63:0.042368419 64:0.15340289 76:0.14463702 112:0.099346638 123:0.075970963 126:0.099346638 205:0.16801271 293:0.11833938 321:0.062822141 360:0.02629764 372:0.090580761 402:0.06136116 407:0.1168784 432:0.086197823 543:0.29511797 634:0.13294919 694:0.18554446 724:0.21476406 746:0.16947368 994:0.090580761 1003:0.26735935 1085:0.16362976 1305:0.36816695 1306:0.12856624 1382:0.24398366 1421:0.16801271 1456:0.083275862 1463:0.18262251 1465:0.18700545 1642:0.28927404 1660:0.068666063 1771:0.05990018 1772:0.146098 1773:0.055517241 1826:0.1899274 1856:0.099346638 1857:0.07743194 #
0.97188407664338682945270875279675 1:0.020000363 4:0.010476381 7:0.019047964 8:0.039048329 10:0.018095566 12:0.065715477 14:0.0047619911 15:0.022857558 17:0.019047964 18:0.085715838 19:0.028571947 20:0.047619913 22:0.030476743 24:0.065715477 31:0.030476743 39:0.023809956 41:0.022857558 45:0.087620638 47:0.013333575 51:0.056191497 53:0.016190769 55:0.062858284 56:0.031429142 62:0.053334299 63:0.0085715838 69:0.016190769 73:0.020952761 74:0.02190516 77:0.013333575 79:0.036191132 85:0.02190516 93:0.018095566 103:0.040953122 107:0.020952761 111:0.06000109 130:0.061905883 146:0.020000363 149:0.014285973 150:0.0542867 154:0.02190516 157:0.023809956 175:0.020952761 177:0.037143532 194:0.062858284 201:0.034286335 204:0.038095929 224:0.023809956 226:0.02190516 236:0.027619548 255:0.024762355 258:0.058096293 261:0.014285973 295:0.019047964 310:0.06952507 314:0.04952471 321:0.013333575 330:0.048572309 339:0.024762355 357:0.015238372 360:0.06000109 381:0.14000253 425:0.038095929 432:0.031429142 435:0.023809956 446:0.025714751 448:0.13428815 480:0.044762716 489:0.02666715 543:0.34762534 591:0.029524345 607:0.032381538 614:0.040953122 615:0.029524345 619:0.036191132 623:0.029524345 665:0.035238735 669:0.024762355 694:0.027619548 706:0.015238372 707:0.025714751 708:0.024762355 710:0.038095929 711:0.031429142 722:0.11047819 725:0.033333939 730:0.018095566 738:0.053334299 765:0.078096658 804:0.096192218 864:0.039048329 873:0.031429142 876:0.10285901 886:0.0038095929 975:0.015238372 994:0.037143532 1003:0.027619548 1063:0.68477434 1090:0.076191857 1120:0.020952761 1162:0.023809956 1252:0.017143168 1305:0.14381213 1306:0.02666715 1327:0.042857919 1421:0.090477832 1456:0.1066686 1472:0.045715116 1478:0.091430232 1488:0.073334664 1499:0.02190516 1556:0.030476743 1558:0.02666715 1566:0.02190516 1570:0.023809956 1579:0.13619295 1593:0.023809956 1614:0.029524345 1625:0.063810684 1629:0.066667877 1658:0.023809956 1660:0.051429503 1675:0.039048329 1677:0.031429142 1704:0.023809956 1705:0.02666715 1762:0.031429142 1766:0.042857919 1773:0.011428779 1786:0.02190516 1796:0.020000363 1828:0.3161962 1839:0.074287064 1841:0.022857558 #
0.87853995803085682680944046296645 1:0.0070449235 10:0.030997662 15:0.026770709 27:0.063404307 53:0.056359388 59:0.06622228 63:0.029588677 79:0.040860556 86:0.30152273 117:0.077494159 179:0.11835471 193:0.06622228 224:0.081721112 335:0.10003791 353:0.15498832 463:0.090175018 525:0.1747141 537:0.10285588 543:0.17189613 557:0.10003791 633:0.1465344 656:0.092992991 683:0.077494159 694:0.10003791 960:0.12539963 1075:0.11976369 1247:0.13385354 1283:0.13244456 1305:0.18739496 1382:0.039451569 1395:0.50300753 1421:0.06622228 1429:0.34520125 1560:0.13948949 1597:0.10003791 1606:0.26911607 1703:0.30011374 1936:0.097219944 1961:0.11412776 #
0.47672173545135348993184720711724 1:0.0068107438 7:0.15567414 9:0.037945572 10:0.018486304 13:0.11772857 15:0.031134829 17:0.0398915 18:0.14497155 21:0.047675207 23:0.036972608 24:0.022378158 25:0.048648167 35:0.036972608 39:0.047675207 45:0.089512631 49:0.028215937 56:0.031134829 63:0.01751334 95:0.055458911 98:0.18972786 107:0.083674848 119:0.097296335 134:0.14886339 150:0.073945217 161:0.063242622 176:0.61783177 196:0.026270011 198:0.080755956 201:0.070053361 220:0.074918181 239:0.06713447 265:0.082701884 267:0.059350766 268:0.069080397 321:0.078810036 325:0.082701884 360:0.010702597 382:0.062269658 411:0.056431875 418:0.062269658 432:0.20626824 465:0.14302562 477:0.090485595 543:0.033080753 580:0.092431523 602:0.19070083 604:0.185836 623:0.059350766 655:0.08172892 712:0.1303771 739:0.085620776 765:0.077837072 787:0.21891676 803:0.10021523 1072:0.077837072 1140:0.043783352 1240:0.10702597 1252:0.035999645 1328:0.046702243 1382:0.18389007 1445:0.044756316 1487:0.018486304 1533:0.032107793 1552:0.080755956 1607:0.044756316 1630:0.18389007 1672:0.085620776 1832:0.062269658 1843:0.087566704 1853:0.075891145 1976:0.092431523 #
0.73597444312998161475292135946802 1:0.016192673 9:0.091083787 10:0.044529852 12:0.10727646 15:0.036433514 20:0.058698442 24:0.054650273 38:0.20848067 40:0.18419166 42:0.18419166 67:0.089059703 79:0.058698442 86:0.14978223 115:0.19026391 121:0.10525238 171:0.10525238 196:0.064770691 213:0.093107872 312:0.17204715 324:0.15990265 328:0.10930055 343:0.23884194 402:0.41291317 445:0.26313093 543:0.14168589 562:0.11942097 694:0.31778121 706:0.074891113 729:0.012144505 732:0.20038433 1252:0.087035619 1305:0.10120421 1505:0.10930055 1510:0.11334872 1606:0.22872151 1716:0.19633617 1722:0.12954138 1750:0.13763772 1794:0.093107872 1820:0.15585448 1837:0.080963366 #
-0.6950676991759752176847086957423 1:0.015747145 8:0.010901869 14:0.033916928 15:0.041184839 20:0.0193811 29:0.11023001 33:0.055720665 38:0.023015058 42:0.030282971 47:0.044818796 58:0.060565941 62:0.058143303 65:0.03149429 66:0.032705609 70:0.032705609 78:0.071467809 85:0.035128247 91:0.025437696 99:0.037550885 101:0.042396158 103:0.067833856 104:0.095694184 112:0.033916928 123:0.050875392 124:0.025437696 129:0.24226376 141:0.081158362 149:0.047241434 153:0.033916928 170:0.025437696 187:0.056931984 200:0.12839979 210:0.047241434 234:0.11265265 236:0.044818796 238:0.05329803 244:0.044818796 250:0.042396158 251:0.046030115 258:0.0193811 263:0.03149429 273:0.041184839 278:0.076313086 279:0.033916928 306:0.042396158 310:0.037550885 321:0.020592419 332:0.049664073 357:0.024226377 358:0.073890448 360:0.10780738 366:0.036339566 372:0.060565941 425:0.03149429 445:0.12718847 455:0.042396158 510:0.043607477 518:0.070256494 530:0.041184839 543:0.24953167 546:0.056931984 623:0.048452754 674:0.025437696 694:0.2253053 701:0.086003639 704:0.03997352 711:0.077524401 730:0.029071651 764:0.05329803 1078:0.099328145 1181:0.069045171 1235:0.14535826 1333:0.070256494 1390:0.12113188 1456:0.073890448 1513:0.037550885 1550:0.077524401 1565:0.06177726 1566:0.035128247 1579:0.055720665 1604:0.062988579 1606:0.15989408 1631:0.66743666 1637:0.036339566 1704:0.038762201 1736:0.059354622 1766:0.035128247 1773:0.07510177 1786:0.036339566 1807:0.023015058 1845:0.082369678 1856:0.20229024 1857:0.077524401 #
-0.86280280806348708111386258678976 1:0.004469547 14:0.013408641 15:0.013408641 29:0.12849948 33:0.021230349 44:0.039108537 49:0.035756376 53:0.021230349 65:0.024582509 66:0.10279959 69:0.041343313 77:0.017878188 79:0.04581286 86:0.15308198 91:0.020112962 105:0.035756376 125:0.029052056 128:0.1095039 156:0.026817283 166:0.026817283 170:0.039108537 221:0.02793467 223:0.033521604 242:0.053634565 259:0.037991151 279:0.025699897 303:0.072630145 310:0.029052056 315:0.02793467 317:0.13073425 358:0.029052056 360:0.013408641 363:0.037991151 372:0.023465123 373:0.035756376 380:0.048047632 386:0.041343313 432:0.18101665 543:0.31063354 575:0.04581286 577:0.15308198 636:0.083804011 663:0.04581286 671:0.025699897 694:0.15419938 710:0.18325144 747:0.11956038 825:0.031286832 876:0.10391697 922:0.064808436 928:0.14526029 968:0.094977878 994:0.023465123 1046:0.089390941 1117:0.051399793 1139:0.074864917 1252:0.04469547 1266:0.036873765 1282:0.19889484 1285:0.12961687 1305:0.077099688 1307:0.068160594 1328:0.11173868 1382:0.04469547 1416:0.055869341 1444:0.1016822 1474:0.049165018 1479:0.040225923 1489:0.043578085 1549:0.007821708 1591:0.029052056 1597:0.1273821 1636:0.64696693 1642:0.10056481 1658:0.030169444 1660:0.099447422 1731:0.043578085 1834:0.032404218 1913:0.10615174 1945:0.077099688 1968:0.062573664 #
-0.64025986989233729662629457379808 49:0.15165658 86:0.116586 135:0.06161049 296:0.52890235 422:0.10047249 432:0.15639585 472:0.059714783 497:0.28814751 543:0.31563526 585:0.1042639 694:0.15260445 1050:0.1042639 1293:0.073932588 1305:0.12701239 1434:0.30900028 1521:0.11089888 1525:0.29193893 1533:0.17440508 1597:0.076776147 1714:0.39904639 1856:0.062558345 #
-0.39434966712276131595160677534295 1:0.020660073 14:0.065736599 15:0.015964601 30:0.11081312 80:0.11644769 88:0.34276938 89:0.13898595 113:0.13335139 127:0.12959501 130:0.063858405 156:0.13335139 166:0.27421552 175:0.26764187 181:0.084518485 260:0.14555961 296:0.46297345 403:0.076066636 432:0.043198336 435:0.15025508 470:0.10330036 543:0.27327642 598:0.040381052 694:0.16058512 702:0.23195627 706:0.19720979 1014:0.053528372 1377:0.12489954 1421:0.089213952 1443:0.11738678 1507:0.046015617 1642:0.098604895 1666:0.011269131 1668:0.22538261 1752:0.064797506 1773:0.1464987 1778:0.076066636 1820:0.1145695 1856:0.056345653 #
0.63061058200292052777768958549132 1:0.015217048 12:0.25634873 86:0.052674398 270:0.1357829 302:0.39330217 341:0.1416356 365:0.11822475 371:0.081937954 432:0.12875964 437:0.16387591 461:0.060868192 524:0.090131745 543:0.26220146 897:0.098325543 987:0.12524801 1133:0.17441078 1312:0.59931761 1382:0.019899217 1456:0.07959687 1512:0.41437194 #
0.54368494934786881778165934520075 1:0.020552568 10:0.037251532 14:0.020552568 15:0.020552568 21:0.093771093 36:0.12331542 44:0.060373172 47:0.055235028 49:0.055235028 52:0.10661645 67:0.071933992 134:0.29158956 193:0.038536068 213:0.074503064 233:0.14001438 360:0.021837104 432:0.34810913 439:0.082210273 453:0.15029065 513:0.10918552 543:0.21708651 570:0.17469683 609:0.47142455 610:0.015414427 632:0.044958744 634:0.21837105 694:0.014129891 782:0.13487624 862:0.16570508 938:0.16698962 1015:0.13230716 1279:0.19268033 1306:0.052665956 1357:0.17598137 1369:0.078356668 1407:0.064226776 1439:0.043674208 1505:0.052665956 1603:0.093771093 1623:0.16955869 1642:0.15799788 1727:0.17726591 1756:0.02312164 1810:0.1335917 1855:0.18240406 #
-0.66330953360657485262663612957112 1:0.05634173 8:0.013658601 14:0.030731851 18:0.029024526 78:0.044390451 81:0.037561152 122:0.042683128 134:0.037561152 149:0.029024526 160:0.16902518 166:0.087073579 200:0.11951276 212:0.058049053 223:0.054634403 295:0.037561152 315:0.087073579 320:0.16390321 360:0.054634403 361:0.049512427 445:0.11439078 528:0.11780543 543:0.31414783 580:0.11951276 590:0.13658601 598:0.15195194 620:0.068293005 659:0.25609878 671:0.040975802 677:0.16390321 693:0.058049053 694:0.015365926 730:0.10926881 733:0.093902878 879:0.15707392 1031:0.12804939 1037:0.076829627 1132:0.15536658 1203:0.1775618 1237:0.3943921 1291:0.08024428 1305:0.41146535 1336:0.064878352 1382:0.071707651 1443:0.11097613 1478:0.13829333 1543:0.052927077 1544:0.05634173 1558:0.054634403 1570:0.095610209 1607:0.044390451 1639:0.076829627 1643:0.17243983 1663:0.081951603 1687:0.040975802 1695:0.05634173 1764:0.039268479 1775:0.12122008 1799:0.049512427 1807:0.13829333 1810:0.068293005 #
-0.27934529742205566060775367986935 1:0.0089455843 14:0.011927445 15:0.0059637227 29:0.037770245 32:0.044727921 37:0.038764197 42:0.042740013 49:0.21966378 70:0.045721874 75:0.054667458 85:0.04969769 91:0.071564674 99:0.31309545 117:0.10237724 124:0.034788381 134:0.083492115 152:0.20177262 252:0.12126236 263:0.042740013 272:0.063613042 273:0.11331073 287:0.079516299 288:0.10436515 321:0.058643274 330:0.054667458 356:0.077528395 360:0.012921399 376:0.15505679 410:0.13020794 432:0.058643274 467:0.19083913 472:0.1202684 510:0.059637226 511:0.15108098 518:0.13120189 543:0.34092614 561:0.061625134 564:0.06261909 576:0.1590326 579:0.22662146 593:0.19680285 600:0.084486075 613:0.014909307 674:0.035782337 694:0.24650054 703:0.063613042 797:0.069576763 825:0.16897215 1099:0.059637226 1204:0.082498163 1206:0.1182805 1286:0.072558627 1320:0.04969769 1342:0.17096005 1382:0.05267955 1456:0.11231678 1493:0.15406284 1582:0.12325027 1597:0.11032887 1614:0.067588858 1620:0.093431659 1624:0.13120189 1641:0.13815957 1710:0.067588858 1723:0.074546531 1766:0.048703734 1780:0.059637226 1785:0.079516299 1814:0.094425611 1820:0.051685598 1856:0.076534443 1899:0.094425611 1926:0.013915353 #
0.53664838777960144344802984051057 7:0.11130325 8:0.037101086 10:0.052797697 15:0.028539296 35:0.20833686 57:0.25399974 63:0.049943767 163:0.15696613 193:0.055651627 221:0.12414594 368:0.24686491 385:0.0042808945 419:0.082763962 457:0.22403347 487:0.1298538 523:0.19264024 543:0.3125053 694:0.052797697 696:0.17123578 766:0.27540421 830:0.31107834 1029:0.091325745 1140:0.12414594 1277:0.24971884 1382:0.12414594 1445:0.12842683 1513:0.11701111 1533:0.091325745 1642:0.22260651 1660:0.26969635 1715:0.10559539 1773:0.26256153 1851:0.062786452 1856:0.091325745 #
0.34424491235593956961480444078916 27:0.21991625 35:0.21439534 115:0.15642579 130:0.069011375 195:0.33953598 261:0.17482881 312:0.047847886 432:0.046927735 453:0.10673759 543:0.29996943 568:0.27972612 571:0.3791025 651:0.3505778 1202:0.061650161 1433:0.12698093 1478:0.15550563 1597:0.12882124 1606:0.056129251 1660:0.10121668 1794:0.04968819 1808:0.45087433 #
0.64458104100399016278544195301947 1:0.0046625747 12:0.087034725 15:0.0093251495 22:0.060613472 35:0.071492814 74:0.087034725 122:0.083926342 124:0.060613472 143:0.14298563 177:0.14609401 211:0.12433533 220:0.22846617 347:0.10102245 377:0.10413083 381:0.23623712 543:0.16785268 590:0.17717785 598:0.12278114 633:0.083926342 636:0.087034725 644:0.30306736 694:0.18028623 711:0.062167663 719:0.14453982 739:0.13676886 799:0.15386496 852:0.16319011 914:0.038854789 992:0.094805688 1030:0.18650299 1445:0.088588923 1461:0.28907964 1541:0.16008173 1597:0.21292424 1600:0.046625748 1642:0.37456018 1686:0.052842513 1702:0.19427395 1752:0.2408997 1755:0.12122694 1773:0.090143114 1781:0.0062167663 #
0.40802251760052998807992707952508 1:0.016105365 8:0.016105365 10:0.070277959 12:0.11127344 15:0.019033615 36:0.077598579 47:0.03513898 54:0.10102457 72:0.061493214 84:0.15666129 86:0.060029089 99:0.11566581 151:0.25768584 162:0.058564965 165:0.061493214 191:0.2723271 219:0.14494829 312:0.26793471 341:0.038067229 492:0.13616355 543:0.4611991 598:0.10248869 652:0.046851974 694:0.06442146 701:0.065885589 705:0.06734971 712:0.11420168 1030:0.12884292 1303:0.0073206206 1306:0.033674855 1456:0.046851974 1531:0.06734971 1597:0.077598579 1642:0.26793471 1653:0.043923724 1660:0.12005818 1729:0.21815449 1741:0.0087847449 1794:0.15226892 1805:0.054172594 1849:0.054172594 1850:0.20204914 1939:0.38945702 1950:0.09663219 1953:0.09663219 1996:0.020497737 #
0.59610548646845329390231427169056 1:0.0016370077 9:0.13096061 10:0.065480307 14:0.018007085 15:0.026192123 44:0.10804251 63:0.031103145 77:0.04911023 79:0.042562198 115:0.14405668 130:0.1718858 270:0.088398412 283:0.13423462 333:0.1293236 335:0.10313148 360:0.019644093 479:0.037651177 513:0.10476849 543:0.19807793 684:0.050747238 694:0.21935903 730:0.063843302 762:0.21935903 839:0.1064055 1003:0.096583448 1029:0.076939359 1094:0.10967951 1238:0.23081808 1305:0.30939445 1306:0.047473222 1370:0.18007085 1382:0.15387872 1431:0.24555115 1434:0.09822046 1476:0.067117311 1558:0.094946444 1645:0.52875346 1761:0.11622754 1764:0.067117311 1799:0.086761408 1856:0.26028422 #
0.14431984182232082680741314106854 1:0.016167093 10:0.03334463 13:0.14045162 15:0.045469951 24:0.039407291 28:0.26271528 44:0.055574384 49:0.050522167 51:0.067699701 54:0.071741477 77:0.050522167 86:0.051532611 92:0.1353994 127:0.072751924 135:0.058605716 193:0.069720589 196:0.047490839 222:0.09296079 261:0.053553496 267:0.10609655 293:0.087908573 304:0.095992118 314:0.18086936 321:0.046480395 336:0.047490839 357:0.053553496 360:0.020208867 379:0.11519054 453:0.075783253 543:0.10306522 568:0.085887685 661:0.11923231 671:0.072751924 674:0.056584828 686:0.031323742 694:0.15257694 706:0.055574384 728:0.10508611 812:0.031323742 1208:0.1353994 1266:0.10508611 1305:0.17783803 1319:0.09397123 1341:0.12226365 1349:0.091950342 1421:0.0010104433 1496:0.11013833 1500:0.074772805 1505:0.038396847 1603:0.084877238 1645:0.6810388 1685:0.085887685 1832:0.11114877 1837:0.022229753 1869:0.13438897 1878:0.06668926 1902:0.069720589 1988:0.20309912 #
0.54335036702588956902815198191092 1:0.050645903 12:0.09926597 14:0.11749849 15:0.034439214 23:0.16409273 24:0.14991188 56:0.070904262 57:0.09926597 63:0.079007611 64:0.14383437 110:0.29172039 115:0.21068695 123:0.070904262 130:0.2410745 145:0.089136787 193:0.087110952 196:0.11952433 281:0.11344682 360:0.07495594 366:0.10129181 432:0.054697577 466:0.23702283 543:0.35046965 598:0.28159124 804:0.19245443 863:0.18637693 876:0.10939515 1211:0.14383437 1305:0.10331764 1460:0.18232526 1487:0.20055778 1761:0.026335869 1770:0.30995294 1807:0.1458602 1812:0.034439214 1816:0.24715202 #
0.59486844723334786344537405966548 18:0.20440136 22:0.21782918 53:0.23573296 54:0.28347632 77:0.19694145 130:0.055203285 192:0.12980232 343:0.14173816 362:0.11935846 432:0.095486768 471:0.0014919807 475:0.14173816 543:0.18500561 635:0.14621411 1088:0.099962704 1208:0.11339054 1712:0.693771 1726:0.0074599036 1775:0.12980232 1784:0.10145469 1807:0.20589334 1814:0.14621411 1819:0.04326744 #
0.46654078110318630834285613673273 1:0.022161659 15:0.010228458 17:0.16365533 28:0.30344427 59:0.16195059 72:0.10228458 81:0.080122925 92:0.15683636 165:0.10228458 175:0.086941898 220:0.1346747 297:0.16195059 360:0.022161659 432:0.16536008 482:0.17217904 543:0.25059724 557:0.12103675 712:0.20797865 730:0.07500869 1086:0.19604544 1227:0.12103675 1236:0.1585411 1305:0.16876957 1337:0.001704743 1421:0.19434071 1456:0.28469208 1480:0.25571147 1513:0.21820711 1658:0.10057984 1729:0.11933202 1747:0.2693494 1752:0.080122925 1766:0.09035138 1771:0.19945493 1801:0.21650237 1807:0.092056125 1856:0.14660791 #
0.62171332395522538316612326525501 1:0.015889829 13:0.18787386 15:0.02430209 18:0.069167487 28:0.23367395 40:0.27199647 45:0.10655532 86:0.059820529 92:0.090665489 117:0.10842471 142:0.22526169 193:0.093469575 207:0.17478812 218:0.12805332 263:0.091600187 269:0.069167487 365:0.0084122624 369:0.12524924 376:0.082253233 432:0.11590227 445:0.04206131 487:0.14674723 543:0.30377612 598:0.086926706 649:0.046734788 706:0.074775666 795:0.46267441 975:0.073840968 1006:0.050473571 1263:0.14020437 1480:0.22806577 1498:0.046734788 1597:0.091600187 1607:0.32060066 1715:0.088796102 1733:0.13646558 1804:0.17011464 1821:0.12805332 1856:0.057016443 1865:0.061689921 1873:0.12337984 1875:0.088796102 #
0.49796293337675484602655728849641 10:0.029711265 12:0.14030319 15:0.033012517 39:0.074278161 61:0.064374402 62:0.056121279 68:0.072627537 115:0.13535132 132:0.084181912 149:0.046217524 150:0.057771903 169:0.1980751 219:0.27235326 242:0.066025034 261:0.046217524 322:0.069326282 342:0.23934074 377:0.084181912 432:0.14525507 445:0.18487009 480:0.14195381 510:0.16836382 533:0.1023388 543:0.10564005 554:0.11224256 579:0.21128011 674:0.049518775 679:0.16836382 694:0.23769012 706:0.049518775 712:0.25419638 732:0.16341196 802:0.11389318 1008:0.072627537 1024:0.14030319 1094:0.09903755 1142:0.19972572 1143:0.14690569 1265:0.085832544 1305:0.047868147 1372:0.070976906 1421:0.11554381 1493:0.1089413 1533:0.051169399 1536:0.2046776 1543:0.082531288 1614:0.095736295 1659:0.10398942 1708:0.19312322 1715:0.057771903 1729:0.1601107 1750:0.089133792 1790:0.22613573 1844:0.15020695 1846:0.090784416 #
0.58317681860710746111209346054238 1:0.015039532 8:0.036094878 9:0.10377277 13:0.10828464 14:0.085725337 15:0.042110693 23:0.30229461 24:0.1834823 54:0.11129254 63:0.048126504 79:0.066173941 92:0.15490718 107:0.11430044 123:0.17445858 126:0.11430044 192:0.016543485 193:0.054142319 258:0.064669989 318:0.10527673 340:0.039102785 372:0.10226882 432:0.24965625 492:0.10076487 543:0.2511602 580:0.10377277 624:0.27221555 656:0.30079064 661:0.11881231 694:0.12182021 706:0.085725337 1168:0.16393091 1266:0.160923 1305:0.15340324 1421:0.10678068 1446:0.12633207 1456:0.36245275 1505:0.084221385 1536:0.094749056 1544:0.15641114 1557:0.17145067 1699:0.23160881 1794:0.076701619 #
0.12304430789709558391464838678075 1:0.020588856 7:0.23957942 13:0.11978971 15:0.031819142 17:0.24332285 21:0.14599371 23:0.11230285 24:0.20401685 44:0.095457427 81:0.117918 86:0.18529971 93:0.11230285 107:0.12727657 117:0.14037856 169:0.22647741 193:0.11978971 196:0.082355425 232:0.18717143 258:0.072996855 304:0.16471085 324:0.065509997 345:0.20214513 360:0.033690855 432:0.117918 486:0.26016828 543:0.19278656 730:0.11230285 792:0.15160885 994:0.11604628 1068:0.14037856 1099:0.082355425 1305:0.314448 1383:0.18529971 1392:0.32006314 1606:0.12353314 1618:0.035562571 1633:0.080483712 1856:0.21524714 1981:0.026203999 #
0.57389883848092149154496155460947 15:0.041181635 432:0.13837029 451:0.075774208 459:0.69679326 543:0.30474409 573:0.10871951 635:0.16966833 1008:0.36734018 1034:0.18943553 1306:0.2141445 1311:0.15484294 1597:0.22732262 1605:0.090599597 1606:0.12683943 1642:0.037887104 1660:0.0065890616 1907:0.10871951 1949:0.15649021 #
0.16449599097472383801843420769728 1:0.01244267 7:0.073698893 15:0.019142568 18:0.054556321 22:0.058384836 24:0.084227301 35:0.20769687 37:0.066041864 41:0.087098688 45:0.084227301 91:0.060299091 147:0.11294116 186:0.59437674 193:0.037328009 217:0.15696907 225:0.087098688 230:0.18472579 246:0.46325016 272:0.10719839 312:0.061256222 360:0.021056825 425:0.073698893 543:0.3369092 1103:0.068913251 1120:0.078484535 1345:0.1311266 1421:0.054556321 1480:0.093798585 1534:0.04402791 1597:0.075613149 1603:0.089970075 1642:0.104327 1742:0.19716845 1822:0.1311266 1826:0.095712848 #
0.37027833458295067448062809489784 1:0.020283228 10:0.1364508 15:0.047942173 23:0.13460687 24:0.16410975 27:0.070069328 35:0.068225399 36:0.11432365 54:0.073757187 63:0.033190735 110:0.079288982 147:0.21942763 193:0.036878593 196:0.097728275 211:0.1180115 229:0.077445045 230:0.18070512 258:0.086664699 272:0.10510399 360:0.020283228 387:0.14198259 482:0.11432365 543:0.30240446 624:0.090352558 820:0.12723115 876:0.25077444 965:0.13276294 1013:0.14382651 1120:0.15304616 1159:0.097728275 1264:0.35034665 1273:0.1733294 1435:0.18808083 1571:0.22864729 1576:0.077445045 1586:0.16226582 1603:0.086664699 1605:0.40013275 1667:0.066381469 1708:0.031346805 1742:0.19176869 1855:0.042410385 #
0.43347915040358986349389169845381 1:0.0068309722 9:0.029275594 10:0.014637797 13:0.030251447 15:0.023420475 18:0.1561365 22:0.071237281 24:0.051720217 25:0.037082419 28:0.038058273 35:0.056599483 38:0.04391339 39:0.10929555 41:0.035130713 45:0.10246458 63:0.013661944 111:0.046840951 112:0.095633611 123:0.073188983 126:0.032203153 150:0.028299741 186:0.54452604 193:0.030251447 217:0.064406306 246:0.3766793 269:0.022444623 279:0.032203153 283:0.059527043 299:0.041961685 332:0.046840951 360:0.034154858 372:0.029275594 373:0.04391339 411:0.04391339 425:0.030251447 432:0.14052285 445:0.095633611 466:0.10539214 543:0.088802636 553:0.098561168 568:0.037082419 656:0.08392337 813:0.059527043 884:0.10148872 1099:0.020492915 1106:0.54452604 1140:0.034154858 1177:0.06538216 1212:0.057575334 1215:0.06733387 1243:0.060502894 1265:0.041961685 1451:0.037082419 1477:0.041961685 1478:0.10636799 1498:0.053671923 1527:0.055623628 1584:0.04391339 1585:0.053671923 1614:0.046840951 1642:0.11807823 1766:0.06733387 1789:0.037082419 1796:0.063430451 1821:0.04098583 1840:0.04391339 1845:0.026348034 1952:0.06733387 #
0.3889389755168506379590098731569 1:0.0079123136 9:0.077540673 10:0.037979104 14:0.020572016 15:0.031649254 52:0.11077239 54:0.082288064 67:0.075958207 77:0.17090598 149:0.29750299 193:0.03956157 258:0.049056344 263:0.079123139 289:0.13292687 351:0.15982874 358:0.093365297 360:0.022154478 432:0.20888507 437:0.20255522 483:0.11077239 491:0.18673059 543:0.33231717 544:0.13450933 606:0.38295597 651:0.24528173 694:0.10760746 1024:0.18198322 1035:0.12343209 1158:0.15191641 1306:0.10918993 1326:0.17407089 1462:0.13134441 1498:0.18673059 1623:0.13292687 1658:0.098112687 1660:0.15191641 1755:0.12659702 1800:0.10760746 1812:0.071210824 1855:0.23262201 1857:0.064880975 #
0.52003000489919570803465376229724 1:0.0049536298 9:0.073066041 14:0.019814519 15:0.0099072596 17:0.076781258 21:0.18576111 25:0.095357373 27:0.073066041 68:0.090403743 79:0.047059484 123:0.061920371 143:0.28607211 169:0.071827628 193:0.038390629 276:0.13746323 360:0.021052927 396:0.09907259 432:0.17585385 543:0.021052927 605:0.23901263 678:0.092880554 719:0.43344259 820:0.079258077 866:0.069350816 970:0.41486648 974:0.14860889 987:0.10154941 1240:0.25139672 1305:0.3157939 1322:0.11145667 1421:0.076781258 1544:0.11145667 1549:0.19566837 1625:0.14241685 1626:0.070589222 1660:0.079258077 1757:0.12507915 1816:0.13374799 1822:0.095357373 1846:0.027244963 #
0.38033484123111638286474089909461 1:0.0085129216 9:0.10002683 10:0.024474651 13:0.052141648 15:0.02021819 23:0.097898602 24:0.058526337 25:0.06491103 53:0.04469284 54:0.053205762 68:0.061718684 74:0.058526337 76:0.079808645 78:0.058526337 123:0.042564608 126:0.055333994 183:0.10641152 193:0.052141648 196:0.035115805 214:0.15642494 261:0.039372265 343:0.07555218 377:0.071295723 409:0.15110436 432:0.074488066 444:0.11918091 445:0.054269876 521:0.083000988 543:0.078744531 598:0.092578024 613:0.16919433 679:0.071295723 711:0.042564608 986:0.084065102 994:0.050013416 1305:0.036179919 1372:0.059590455 1382:0.096834488 1450:0.06491103 1573:0.12662971 1579:0.045756955 1588:0.062782802 1910:0.073423952 1989:0.85554868 #
0.56347252851787388294724223669618 1:0.010440201 14:0.078776069 36:0.2353791 193:0.14711194 195:0.43848848 276:0.060742993 360:0.083521612 432:0.2458193 468:0.071183197 499:0.072132304 543:0.11009667 655:0.61312461 694:0.045557246 717:0.038913481 1054:0.12528242 1189:0.14046817 1480:0.088267162 1495:0.045557246 1627:0.4204554 1629:0.042709917 1699:0.022778623 1700:0.10155469 1726:0.10819846 1856:0.070234083 #
0.46412757844150442920749810582493 1:0.018952239 10:0.024006169 15:0.013898308 18:0.18825892 24:0.17309712 40:0.049275823 45:0.22995384 53:0.085916817 54:0.051802788 62:0.046748858 63:0.022742687 126:0.10739602 196:0.034114029 224:0.063174129 229:0.14530051 245:0.063174129 328:0.058120202 360:0.029060101 429:0.098551646 432:0.12634826 457:0.2034207 543:0.093497716 649:0.049275823 696:0.3120802 766:0.25016955 825:0.065701097 1140:0.056856718 1204:0.10992299 1251:0.10107861 1305:0.056856718 1456:0.053066269 1565:0.049275823 1595:0.073281989 1735:0.077072442 1856:0.19204935 1933:0.070755027 1935:0.070755027 1940:0.10234209 1971:0.68859804 #
0.36566724717242726772070682272897 1:0.0091603352 8:0.01221378 9:0.036641341 13:0.075318307 15:0.0050890748 22:0.059033271 24:0.10585276 28:0.093638979 40:0.1089062 41:0.13231595 49:0.053944197 54:0.03867697 59:0.037659153 77:0.053944197 107:0.039694786 144:0.045801677 151:0.13740502 207:0.070229232 220:0.1017815 252:0.051908564 304:0.10279931 348:0.062086716 360:0.031552266 434:0.13028032 435:0.045801677 445:0.063104533 543:0.22697274 598:0.17302854 621:0.055979826 694:0.075318307 699:0.062086716 711:0.03053445 792:0.078371756 818:0.56895858 819:0.4681949 871:0.071247049 1015:0.078371756 1036:0.085496463 1159:0.086514272 1186:0.14351192 1301:0.02239193 1468:0.02646319 1509:0.35521743 1548:0.058015455 1552:0.03867697 1564:0.1017815 1606:0.069211423 1743:0.064122342 1823:0.055979826 1830:0.082443014 #
0.2950729489352397205692568604718 1:0.012729414 9:0.027277315 10:0.094561361 12:0.096379846 13:0.02818656 15:0.026368072 18:0.020912608 22:0.20094289 23:0.080013461 24:0.064556316 36:0.022731096 37:0.025458828 38:0.020912608 40:0.05455463 53:0.024549583 56:0.022731096 57:0.032732777 59:0.056373119 62:0.052736145 64:0.022731096 74:0.12911263 86:0.096379846 95:0.040006731 107:0.030005047 130:0.097289093 143:0.052736145 145:0.029095802 150:0.026368072 179:0.050917655 193:0.02818656 196:0.038188241 220:0.036369752 221:0.031823535 225:0.067284048 233:0.051826898 269:0.041825216 272:0.040915973 280:0.051826898 322:0.031823535 336:0.090924382 345:0.04728068 347:0.074557997 360:0.016366389 372:0.027277315 418:0.022731096 432:0.21094458 515:0.041825216 543:0.17821179 554:0.051826898 598:0.11638321 633:0.03091429 667:0.093652114 676:0.065465555 679:0.039097484 693:0.041825216 836:0.080013461 866:0.057282362 875:0.69193459 939:0.15002523 941:0.1345681 942:0.067284048 949:0.075467236 950:0.060919337 1062:0.25549752 1120:0.030005047 1171:0.077285729 1305:0.11092775 1432:0.029095802 1489:0.13911431 1533:0.02364034 1549:0.055463873 1574:0.059100851 1606:0.13002187 1641:0.11911094 1726:0.019094121 1750:0.040915973 1763:0.038188241 1771:0.049099166 1807:0.070921019 1834:0.037278999 1862:0.12092943 1867:0.060010094 1917:0.073648751 #
0.20453459287952013845313103956869 1:0.014749832 2:0.024961254 7:0.1406907 8:0.015884435 9:0.1372869 10:0.066941544 13:0.047653303 15:0.01815364 18:0.035172675 22:0.03744188 23:0.22124748 24:0.10665263 27:0.1361523 45:0.053326316 53:0.040845688 63:0.021557447 74:0.053326316 79:0.029499663 81:0.046518698 95:0.066941544 96:0.093037397 107:0.049922507 119:0.52985936 126:0.049922507 142:0.03744188 182:0.11799865 196:0.064672336 207:0.17586339 222:0.31201568 253:0.072614558 258:0.028365061 267:0.071479954 304:0.064672336 318:0.046518698 321:0.063537739 360:0.013615229 370:0.22692049 418:0.074883759 432:0.14522912 468:0.12821008 524:0.12140246 543:0.37214959 544:0.15997894 667:0.12707548 675:0.034038074 694:0.11459485 704:0.058999326 752:0.089633591 884:0.10324882 1052:0.094172001 1234:0.078287572 1252:0.086229786 1457:0.11686405 1478:0.045384098 1702:0.090768196 1707:0.063537739 1750:0.068076149 1763:0.063537739 1777:0.085095182 #
0.39003500804225132991831515028025 1:0.032123595 10:0.12720942 14:0.070671909 15:0.034693483 18:0.09894067 23:0.12592448 24:0.37905842 27:0.25698876 45:0.15162337 92:0.13106427 124:0.10793527 193:0.066817075 196:0.091231003 258:0.08095146 360:0.038548313 432:0.26084358 519:0.061677299 543:0.23771459 635:0.017989213 966:0.60392356 1326:0.29296717 1488:0.11949977 1606:0.17475235 1660:0.19788134 1775:0.073241793 #
-0.69483931559123812693457011846476 1:0.084438875 2:0.099285275 3:0.13918497 4:0.24682133 6:0.090934172 8:0.063097179 10:0.059385583 11:0.049178686 14:0.11505957 18:0.13825706 19:0.13732916 20:0.038971789 24:0.17630094 31:0.24496552 34:0.058457684 37:0.055673983 46:0.056601882 63:0.027836991 138:0.56323516 180:0.083510973 215:0.087222576 243:0.071448281 288:0.058457684 327:0.073304079 342:0.24218184 357:0.095573671 360:0.088150471 366:0.14289656 445:0.056601882 446:0.16794986 508:0.058457684 526:0.11042007 528:0.11505957 543:0.15031976 563:0.16331035 580:0.099285275 697:0.074231982 901:0.031548589 1003:0.088150471 1204:0.16516615 1249:0.093717873 1252:0.056601882 1306:0.12805016 1563:0.10485267 1569:0.07608778 1571:0.088150471 1640:0.03062069 1675:0.063097179 1765:0.10206897 1766:0.13825706 1771:0.10763637 1807:0.11691537 1826:0.082583077 1841:0.074231982 1857:0.051034484 #
-0.69734455877012879732035344204633 1:0.044477068 8:0.069056503 15:0.01287494 65:0.10065863 89:0.1264085 116:0.40614584 124:0.57117921 129:0.15332884 149:0.076079197 183:0.058522459 203:0.085442789 226:0.11587447 229:0.10065863 271:0.18961276 432:0.17790827 543:0.25515792 694:0.2071695 917:0.34645295 975:0.079590544 1099:0.069056503 1305:0.045647517 1369:0.10416997 1567:0.1451357 1597:0.1498175 1642:0.10651087 1684:0.058522459 1702:0.12172671 1837:0.13928345 #
-0.54082003321368188331064175145002 1:0.013505492 15:0.031512816 42:0.079532348 86:0.052521359 88:0.075030513 91:0.066026852 121:0.090036616 235:0.088536009 284:0.12455066 287:0.14705981 288:0.13355432 309:0.14856042 376:0.072029293 401:0.13805614 432:0.32563242 464:0.13355432 476:0.13805614 538:0.39015868 543:0.24009766 558:0.078031734 577:0.081032954 694:0.05552258 706:0.064526245 928:0.1605653 952:0.13805614 1099:0.05552258 1184:0.1020415 1318:0.204083 1322:0.12455066 1353:0.29712084 1379:0.23109399 1445:0.18607567 1521:0.05702319 1525:0.11104516 1546:0.32863367 1575:0.12455066 1577:0.12755188 1641:0.085534789 1675:0.082533568 1710:0.12455066 1805:0.10954455 1820:0.031512816 #
-0.31209618134497552066619618926779 1:0.063774854 8:0.055658057 14:0.12986881 15:0.026669485 33:0.035945829 38:0.059136685 56:0.032467201 60:0.40699953 69:0.033626743 75:0.049860343 85:0.045222171 94:0.11943291 101:0.054498512 116:0.10783748 122:0.0892848 142:0.032467201 149:0.12059246 160:0.057977144 167:0.042903084 202:0.15885738 244:0.057977144 286:0.056817599 295:0.039424457 305:0.14146423 357:0.031307656 361:0.10088023 388:0.098561145 418:0.063774854 425:0.040583998 432:0.21567497 445:0.10203977 469:0.11595429 480:0.046381716 543:0.14146423 581:0.053338971 596:0.22495131 619:0.076529831 669:0.05217943 680:0.071891658 682:0.076529831 699:0.16465509 704:0.3571392 715:0.06029623 751:0.097401597 814:0.10088023 823:0.085806169 878:0.068413027 915:0.069572568 975:0.063774854 976:0.17625052 1003:0.057977144 1099:0.027829029 1110:0.099720687 1115:0.1461024 1152:0.084646627 1252:0.03710537 1255:0.057977144 1310:0.080008455 1378:0.067253485 1389:0.075370282 1437:0.071891658 1462:0.066093944 1488:0.062615313 1543:0.054498512 1582:0.039424457 1597:0.12754971 1606:0.099720687 1642:0.32467198 1652:0.062615313 1684:0.085806169 1688:0.088125259 1694:0.061455771 1704:0.099720687 1748:0.053338971 1763:0.054498512 1764:0.080008455 1769:0.080008455 #
-0.56421147416905514937468524294673 1:0.031982407 2:0.063964814 4:0.067962617 10:0.11327103 14:0.031982407 15:0.030649807 24:0.067962617 47:0.08395382 58:0.34114566 63:0.053304013 80:0.11193842 83:0.11726883 109:0.17590325 115:0.070627816 149:0.087951623 178:0.11860143 237:0.13326003 243:0.13725783 244:0.16924024 250:0.15991203 254:0.16657504 269:0.08661902 358:0.13859043 360:0.067962617 414:0.23853545 543:0.18922925 580:0.16524243 641:0.21588124 697:0.14125563 825:0.45841449 1281:0.10127763 1306:0.081288621 1316:0.21721385 1369:0.12126663 1581:0.03598021 1593:0.14925124 1629:0.062632218 1766:0.13192743 1767:0.13059483 1779:0.067962617 1786:0.13725783 1802:0.054636613 1804:0.21588124 1855:0.014658604 #
0.32079025315227233106085691360931 7:0.1598348 9:0.15557253 15:0.042622615 22:0.12573671 53:0.13639237 63:0.14491689 84:0.24081777 134:0.15131028 163:0.22589985 248:0.087376356 263:0.15770367 295:0.15770367 324:0.074589573 383:0.16835932 432:0.072458446 437:0.18967064 483:0.078851834 523:0.13852349 607:0.27065361 652:0.30901393 717:0.12786785 773:0.26639134 1382:0.37721014 1428:0.063933924 1526:0.28344038 1529:0.19180176 1560:0.063933924 1729:0.24294889 1794:0.098032013 1855:0.1044254 #
0.34829738668814030910780843441898 1:0.015921809 24:0.1293647 130:0.047765426 222:0.30251437 360:0.06468235 445:0.06468235 504:0.080604158 543:0.17115945 606:0.72941786 693:0.33734334 847:0.091550402 936:0.042789862 1140:0.25574407 1264:0.099511303 1382:0.10150153 1513:0.11045755 1520:0.045775201 1585:0.18807636 1653:0.14827184 1660:0.10747221 1807:0.10548198 1814:0.075628594 1839:0.057716556 #
0.44796548136108021997969785843452 1:0.012928179 13:0.079005539 15:0.020110501 18:0.058895037 36:0.12640886 44:0.061767966 52:0.10917129 63:0.035911608 67:0.074696146 74:0.090497255 169:0.084751397 179:0.1407735 261:0.120663 440:0.057458576 445:0.21546966 492:0.13215472 543:0.30309397 847:0.14651936 854:0.11204422 916:0.10629836 1305:0.21834259 1306:0.054585647 1426:0.10055251 1458:0.051712718 1574:0.094806649 1628:0.63491726 1642:0.13215472 1660:0.23701662 1715:0.074696146 1747:0.024419894 1755:0.37635365 #
0.4607084439301899481122859469906 1:0.017972885 10:0.16689107 12:0.1989855 13:0.087296866 14:0.046215989 15:0.03466199 24:0.10013464 31:0.069323979 40:0.084729314 41:0.10398597 62:0.080877982 72:0.11040486 73:0.096283309 110:0.097567089 144:0.10655352 193:0.043648433 219:0.25932303 224:0.10912108 258:0.052634876 289:0.10270219 301:0.13222907 343:0.030810658 354:0.12195886 359:0.10270219 360:0.05006732 432:0.35432258 543:0.30939037 598:0.088580646 750:0.1078373 1006:0.016689107 1028:0.10655352 1218:0.096283309 1229:0.44033566 1306:0.06033754 1382:0.13993174 1531:0.36202523 1533:0.071891539 1579:0.077026643 1588:0.10655352 1597:0.12966152 1654:0.12837775 1740:0.14891818 1798:0.10526975 #
-0.4856424729721968147622135347774 1:0.073105402 8:0.034558918 15:0.013291892 29:0.089055672 49:0.14488162 69:0.085068107 77:0.073105402 79:0.062471893 107:0.10766432 113:0.32830971 130:0.1222854 142:0.081080541 166:0.22463298 175:0.21931621 204:0.099689186 223:0.14089406 248:0.15684432 258:0.061142702 282:0.10101838 303:0.15152757 357:0.078422159 435:0.12361459 543:0.21532865 577:0.071776219 598:0.099689186 611:0.19672 647:0.16747783 683:0.11962703 689:0.14089406 706:0.16216108 708:0.5183838 988:0.078422159 1105:0.0066459458 1227:0.090384863 1259:0.061142702 1305:0.086397298 1500:0.13158973 1579:0.17944054 1642:0.11563946 1660:0.045192432 1773:0.17944054 1850:0.12494379 #
-0.40073278113226529217882898592507 1:0.0075794742 8:0.011369212 14:0.0088427197 15:0.025264913 18:0.096006669 21:0.039160617 23:0.030317897 36:0.025264913 42:0.031581141 50:0.14274676 65:0.031581141 66:0.06695202 69:0.026528159 71:0.13516729 79:0.040423863 81:0.031581141 85:0.036634125 86:0.12253483 87:0.10611264 90:0.063162282 91:0.026528159 97:0.072005004 104:0.032844387 105:0.048003335 107:0.068215266 113:0.10358614 122:0.035370879 124:0.025264913 136:0.064425528 141:0.040423863 146:0.065688774 164:0.040423863 170:0.025264913 178:0.031581141 190:0.0442136 204:0.063162282 210:0.14527325 225:0.037897371 247:0.1629587 258:0.018948685 259:0.050529826 274:0.1162186 279:0.034107633 300:0.097269915 321:0.042950355 331:0.15411597 344:0.039160617 358:0.037897371 360:0.0088427197 376:0.027791405 418:0.050529826 441:0.060635794 442:0.054319564 455:0.042950355 475:0.080847725 491:0.037897371 500:0.10611264 543:0.13516729 567:0.037897371 590:0.2627551 594:0.10358614 598:0.089690447 612:0.059372548 652:0.031581141 679:0.0442136 680:0.056846056 683:0.037897371 698:0.13516729 711:0.053056318 753:0.082110971 764:0.054319564 772:0.079584479 791:0.077057987 920:0.05558281 979:0.060635794 1008:0.037897371 1061:0.19075009 1174:0.064425528 1175:0.083374217 1256:0.098533161 1272:0.22612098 1289:0.053056318 1305:0.21727826 1350:0.12506132 1381:0.097269915 1467:0.053056318 1478:0.25391239 1484:0.059372548 1493:0.056846056 1545:0.10105965 1555:0.1187451 1594:0.074531496 1595:0.046740089 1604:0.064425528 1627:0.045476846 1673:0.12506132 1729:0.068215266 1731:0.39665914 1750:0.046740089 1754:0.070741758 1762:0.053056318 1766:0.035370879 1767:0.035370879 1772:0.04926658 1773:0.20843554 1786:0.036634125 1828:0.040423863 1856:0.14274676 #
-0.40053026711133354886840152175864 1:0.020996705 2:0.16347434 279:0.32244939 350:0.42293361 360:0.086986341 432:0.1184814 475:0.27445692 543:0.36744231 563:0.053991523 707:0.40193689 955:0.10948281 1173:0.11098257 1262:0.085486576 1305:0.28345549 1410:0.12747999 1470:0.12298069 1491:0.17547245 1579:0.26995763 1779:0.11548187 1803:0.010498352 1830:0.098984458 1842:0.1439774 1856:0.050991993 #
