SVM-light Version V6.02
0 # kernel type
3 # kernel parameter -d 
1 # kernel parameter -g 
1 # kernel parameter -s 
1 # kernel parameter -r 
empty# kernel parameter -u 
100 # highest feature index 
300 # number of training documents 
168 # number of support vectors plus 1 
1.0477158 # threshold b, each following line is a SV (starting with alpha*y)
0.44920439482331037117646133083326 3:0.10326917 6:0.086408906 8:0.1601726 17:0.34563562 19:0.42150685 25:0.18546301 27:0.47419521 33:0.096946575 35:0.20443082 39:0.24658151 42:0.24658151 43:0.21286096 56:0.17703287 75:0.3877863 #
-1 12:0.98058069 33:0.19611613 #
1 3:0.5485273 6:0.037230358 7:0.58327562 28:0.23082823 33:0.12906525 41:0.20600799 65:0.43931824 71:0.2283462 #
-1 6:0.25978166 9:0.81398249 21:0.51956332 #
-1 3:0.33730483 33:0.31746337 55:0.88625193 #
1 3:0.54537362 6:0.3003507 23:0.54537362 43:0.56118155 #
1 3:0.11535241 6:0.16478916 7:0.49436745 11:0.23070481 12:0.42021233 14:0.46964908 26:0.25542319 33:0.22246535 41:0.17302862 84:0.16478916 98:0.30485994 #
0.87323870288505678338708548835712 1:0.07718052 2:0.07718052 3:0.074607834 5:0.079753205 6:0.061744418 8:0.059171733 9:0.095189311 10:0.12348884 11:0.074607834 12:0.09004394 13:0.097761996 16:0.36789382 21:0.061744418 23:0.15178835 34:0.0643171 36:0.092616625 48:0.32673088 59:0.74350566 70:0.097761996 76:0.19552399 81:0.07718052 84:0.15950641 96:0.087471254 #
0.31239165351319864161183659234666 3:0.059765466 4:0.42499888 6:0.016601518 10:0.39179584 12:0.21249944 17:0.099609107 26:0.1278317 30:0.25068292 32:0.34697172 33:0.056445163 34:0.10126926 39:0.14111291 47:0.40175673 50:0.41337779 64:0.12617154 81:0.063085772 99:0.14775351 #
0.28560546536569147990647365986661 2:0.047202613 3:0.023601307 5:0.048776034 6:0.037762091 8:0.25174728 10:0.11485969 12:0.083391286 13:0.059789978 15:0.061363399 16:0.091258384 18:0.1762231 20:0.056643136 22:0.16520914 33:0.022027887 51:0.075524181 52:0.1541952 56:0.11800653 57:0.051922876 66:0.045629192 78:0.87796861 81:0.048776034 93:0.10384575 #
-1 3:0.43177634 5:0.11320965 6:0.11847521 11:0.63976616 12:0.32119948 43:0.11057687 57:0.121108 81:0.057921216 84:0.46336973 100:0.17113087 #
-1 10:0.85394078 14:0.52037019 #
-1 6:0.083340481 14:0.6111635 98:0.78710455 #
-1 3:0.27510393 10:0.9039129 12:0.32750466 #
-1 6:0.15842885 10:0.23764329 23:0.86607772 28:0.24292424 43:0.29573387 81:0.14786693 #
1 6:1 #
1 1:0.24222006 6:0.095157884 7:0.24654542 9:0.29844972 21:0.3849569 31:0.25519612 53:0.60555017 63:0.29844972 66:0.22924399 81:0.24654542 #
1 1:0.46133694 6:0.059702426 12:0.26594716 16:0.43419948 77:0.5536043 81:0.46676442 #
0.4572457776683158114927607584832 4:0.30530068 6:0.032710787 10:0.21262011 16:0.2507827 39:0.30530068 62:0.5015654 74:0.51246899 91:0.43614382 #
1 19:0.64413995 31:0.68922973 81:0.33173206 #
-1 12:0.34657335 31:0.64152944 41:0.44243407 81:0.30970386 84:0.42031237 #
-1 6:0.095256411 7:0.73403466 32:0.67239815 #
-1 5:0.42009392 6:0.053176448 12:0.47327036 31:0.43072921 41:0.29778808 43:0.40945864 66:0.39350569 #
-1 6:0.070453987 11:0.32408834 19:0.33113375 21:0.13386258 41:0.24658896 52:0.54954112 56:0.14090797 59:0.16204417 63:0.21136196 66:0.16204417 68:0.28181595 96:0.19022577 99:0.40863314 #
-1 6:0.38426054 17:0.58769256 19:0.71201217 #
1 10:0.64764839 32:0.76193935 #
-0.51442585728279477397251184811466 6:0.36017516 21:0.76902264 25:0.16548589 28:0.15575142 30:0.19468927 33:0.08761017 34:0.15575142 52:0.20442374 56:0.31150284 84:0.13628249 #
1 3:0.26656306 6:0.14634834 12:0.31883034 14:0.53835285 23:0.53835285 25:0.47563213 #
0.9325855341398374687145178540959 2:0.1534297 4:0.35986239 6:0.08368893 10:0.49934393 11:0.14785044 12:0.27059421 25:0.13390228 30:0.15900896 32:0.44076169 52:0.33475572 54:0.18411563 55:0.19806379 72:0.13948154 84:0.10879561 90:0.05858225 98:0.19527416 #
0.18394405230794630412560763943475 3:0.071061924 4:0.33557019 6:0.078957692 18:0.1776548 31:0.1539675 32:0.13422807 36:0.17370692 53:0.32372653 66:0.13817596 71:0.47374615 95:0.65140092 #
-1 10:1 #
-0.94332323667759920837738718546461 58:0.44403908 81:0.89600742 #
-1 2:0.26789099 3:0.26263821 6:0.11030805 10:0.21536334 13:0.34142968 20:0.3256714 25:0.23637441 28:0.2206161 31:0.57255131 32:0.25213268 33:0.12606634 66:0.25738546 #
1 3:0.24949574 6:0.1025325 9:0.31785074 10:0.205065 17:0.20848274 21:0.205065 24:0.3622815 28:0.2119005 33:0.35202825 41:0.56051099 50:0.29050875 #
1 3:0.10233559 6:0.056461018 9:0.25760338 17:0.3387661 21:0.16585423 24:0.29289153 35:0.19761355 59:0.80104065 81:0.10586441 #
1 17:0.45356098 81:0.28347561 83:0.84494025 #
1 2:0.30640563 3:0.15007623 6:0.12506352 24:0.43772233 26:0.32516515 35:0.30015245 41:0.67534304 81:0.15632941 #
-1 2:0.25277516 6:0.031596895 11:0.24224286 12:0.14745218 14:0.24750902 20:0.30543664 21:0.41075963 24:0.35809815 26:0.53188109 30:0.25804132 33:0.23171057 #
-1 33:0.29116163 83:0.95667386 #
-0.54403769834787296666434031067183 6:0.22254606 8:0.25221884 17:0.26705527 50:0.74182016 54:0.38574648 64:0.34123728 #
-0.62184118516505537677119264117209 3:0.2483512 6:0.070957489 25:0.44939741 33:0.7214011 41:0.37843993 81:0.26017746 #
-1 3:0.39872611 50:0.91707003 #
1 1:0.04790505 3:0.021557273 4:0.055090807 5:0.04790505 6:0.023952525 8:0.21078221 10:0.038324039 12:0.37844989 15:0.11976263 19:0.22994424 20:0.16766767 21:0.038324039 23:0.091019593 30:0.04790505 49:0.050300304 51:0.074252829 53:0.46707425 54:0.16527243 55:0.059881315 68:0.22994424 82:0.62037039 #
1 6:0.083601438 15:0.78740889 66:0.59493119 80:0.13803959 #
1 6:0.098110422 10:0.39244169 14:0.24177212 17:0.19972479 20:0.29433128 23:0.24177212 28:0.19972479 31:0.25929183 32:0.23126028 33:0.2242524 41:0.17870113 53:0.49755999 81:0.12614198 99:0.29433128 #
1 3:0.16428801 4:0.26012269 6:0.060238939 8:0.16976428 10:0.62977076 21:0.090358414 25:0.3915531 29:0.13143042 33:0.05202454 34:0.18619309 35:0.10678721 36:0.13690668 38:0.12595415 40:0.17524056 43:0.11226348 52:0.12047788 54:0.13143042 56:0.093096547 64:0.11500161 67:0.31488538 99:0.13416855 #
0.51826894153685276744880638943869 1:0.10673669 6:0.027723815 8:0.079012878 10:0.084557638 12:0.12198479 16:0.30080339 20:0.12614337 22:0.12198479 65:0.16357051 78:0.86082447 81:0.054061443 93:0.22733529 99:0.12614337 #
-1 53:1 #
1 3:0.16029075 6:0.13443741 9:0.40848288 17:0.26887482 41:0.2378508 50:0.74457639 58:0.32575217 #
-1 6:0.24926321 9:0.78673702 17:0.51410538 71:0.23368427 #
-0.88779602286143410871943615347845 6:0.074226961 41:0.40824831 49:0.60123837 58:0.68288803 #
-1 6:0.17850029 8:0.6783011 9:0.27667546 11:0.21420035 17:0.17850029 43:0.22312537 49:0.48195079 99:0.26775044 #
-1 6:0.40000001 7:0.30588236 12:0.17647059 19:0.29411766 23:0.29411766 39:0.34117648 59:0.57647061 81:0.30588236 #
-1 6:0.18874307 17:0.37748614 35:0.45007962 41:0.68237877 56:0.39200485 #
1 8:1 #
1 3:0.14578171 6:0.12590238 14:0.29818985 25:0.26505765 30:0.31144273 33:0.13915527 54:0.36445427 75:0.55662107 81:0.31144273 98:0.38433358 #
1 3:0.10058915 5:0.40864342 6:0.081728682 12:0.23261242 30:0.20746513 34:0.33320156 53:0.72927135 54:0.23889923 84:0.13831007 #
1 6:0.0586082 11:0.21098952 14:0.21685034 23:0.21685034 25:0.19340706 31:0.70329839 33:0.2021983 41:0.32234511 77:0.16703337 81:0.22564156 84:0.15238132 98:0.28131935 #
-1 6:0.078003921 25:0.51728916 80:0.402336 98:0.75130093 #
-1 6:0.11620471 22:0.49387002 25:0.37040251 30:0.43576765 34:0.35587692 98:0.5374468 #
-1 6:0.10869268 8:0.6027503 14:0.79049224 #
-1 6:0.057295747 14:0.85943621 22:0.50802231 #
-1 53:0.91548693 81:0.40234774 #
0.81196974641909469561085188615834 6:0.056524947 9:0.26755142 17:0.35045466 23:0.21102647 27:0.47857788 33:0.19595315 42:0.24870977 48:0.3052347 59:0.20725814 70:0.27508807 86:0.35799134 92:0.29769805 #
0.45173313010369259279386255911959 3:0.1315271 6:0.1446798 7:0.55241376 14:0.26305419 17:0.43403938 21:0.21482758 33:0.24551724 41:0.19290639 44:0.18852216 56:0.22359605 61:0.41211823 #
1 3:0.21231554 6:0.078057185 10:0.11864693 30:0.1498698 39:0.84613991 43:0.14674751 58:0.1998264 64:0.15299208 66:0.14050293 100:0.3028619 #
0.34038081835910244388188061748224 2:0.40189707 17:0.33315152 21:0.3278634 24:0.57640499 33:0.18508418 41:0.29613468 43:0.4071852 #
-1 3:0.15327308 6:0.16462664 17:0.50523347 41:0.22707123 56:0.77204216 84:0.21571766 #
-1 3:0.14829347 5:0.31031778 6:0.079639077 11:0.29109457 12:0.52451944 16:0.28834841 33:0.14005494 54:0.35974896 57:0.32679483 84:0.42016479 #
-1 6:0.041707326 34:0.24428575 41:0.21449481 42:0.33961678 43:0.29195127 54:0.34557498 100:0.75669003 #
-1 6:0.24118145 30:0.36593047 32:0.34098065 39:0.83166015 #
-1 3:0.46298856 6:0.21272448 23:0.31283012 27:0.35036972 33:0.14390185 34:0.2627773 35:0.3003169 56:0.2627773 65:0.49427158 81:0.16267166 #
1 12:0.29339483 22:0.58678967 25:0.44009227 36:0.61312002 #
1 8:0.3836602 10:0.40886414 25:0.44246942 26:0.53208345 41:0.36965799 58:0.10361626 80:0.24363823 #
1 3:0.057875745 6:0.033507012 8:0.4538677 12:0.41731459 19:0.11879759 22:0.5543887 25:0.20713425 26:0.12488977 32:0.1127054 33:0.054829653 57:0.25891781 84:0.082244478 98:0.15230459 100:0.35030058 #
1 3:0.074494258 5:0.15726565 6:0.062078547 8:0.2338292 12:0.1779585 16:0.29383847 22:0.3579863 28:0.12622638 33:0.070355684 49:0.16761208 53:0.61457759 65:0.24003705 66:0.29590774 68:0.25452206 81:0.078632824 92:0.14898852 #
0.92995466532757009581189322489081 14:0.44998646 16:0.43868971 53:0.32007405 58:0.14120914 83:0.69474894 #
-1 3:0.25438318 8:0.59223586 12:0.75520009 33:0.11924212 #
-1 25:1 #
-1 6:0.035398383 12:0.15929273 21:0.22418977 22:0.64897037 25:0.24188896 54:0.33038491 64:0.57817358 #
-1 6:0.020508505 8:0.99978966 #
-1 12:0.78302324 33:0.10253876 57:0.24236433 58:0.39151162 70:0.28897285 76:0.28431201 #
1 2:0.20847158 5:0.21753557 6:0.084597163 11:0.60728681 12:0.36860192 26:0.22357821 33:0.096682474 45:0.31119671 49:0.22962087 56:0.35047397 57:0.22962087 80:0.0332346 81:0.10876779 #
1 38:0.58172959 90:0.22574583 95:0.78142786 #
1 46:0.90609306 79:0.42307848 #
1 3:0.32124761 6:0.11287078 11:0.31690642 12:0.38636538 14:0.16496499 16:0.1606238 17:0.26915342 26:0.17364736 33:0.078141309 50:0.18667091 65:0.51660091 81:0.08682368 84:0.23008275 91:0.27783579 100:0.18232973 #
1 6:0.065856852 7:0.50361121 10:0.19757056 33:0.11234404 34:0.40676293 40:0.38351932 52:0.26342741 56:0.20144449 57:0.26342741 88:0.44550225 #
-1 6:0.13436367 16:0.99093211 #
-1 3:0.37915787 6:0.20919055 26:0.82368779 33:0.36608344 #
-1 53:1 #
-1 3:0.21466939 6:0.11592147 16:0.42075202 33:0.20178923 84:0.6096611 97:0.59248751 #
1 6:0.14287102 8:0.57988822 12:0.62190914 18:0.18909399 19:0.15127519 30:0.15547729 32:0.28994411 46:0.2227107 56:0.12606266 81:0.15547729 #
1 3:0.102038 6:0.02757784 8:0.31990293 12:0.61222804 22:0.24544278 23:0.20683379 25:0.18477152 28:0.17374039 33:0.096522436 35:0.20407601 43:0.21234937 53:0.022062272 75:0.38608974 81:0.10755357 84:0.14616255 99:0.2564739 #
1 6:0.027850099 9:0.25993428 12:0.3574096 23:0.20423406 25:0.36205131 33:0.092833668 40:0.32491782 42:0.24136753 43:0.20887575 49:0.45024326 53:0.060341883 56:0.34348455 76:0.26457596 84:0.14389218 #
1 3:0.23007023 6:0.062746428 8:0.17894351 11:0.22774629 12:0.68556285 14:0.46478835 22:0.27422512 45:0.23704205 81:0.12084498 84:0.16499987 #
0.10382198918728854919457660344051 1:0.21780862 2:0.21327095 3:0.10436663 6:0.086215913 8:0.32671294 11:0.20873326 12:0.12705503 16:0.20873326 23:0.21327095 31:0.22688398 33:0.29948685 57:0.467381 66:0.20873326 68:0.3584767 81:0.10890431 84:0.29948685 #
-1 12:1 #
-1 8:0.38666335 42:0.59136748 43:0.50038785 59:0.50038785 #
1 6:0.068092696 16:0.48712468 58:0.30903611 81:0.261895 84:0.3509393 97:0.68616486 #
0.080004943552650198412834470218513 1:0.2703059 3:0.12822203 6:0.069309205 16:0.50595719 29:0.61685193 33:0.12129111 69:0.38120064 81:0.13515295 96:0.30149505 #
1 1:0.44087321 6:0.055806734 28:0.3571631 33:0.20090425 44:0.59155136 54:0.51342195 71:0.14509751 #
1 12:0.38910997 58:0.14367136 97:0.90991867 #
1 80:1 #
-1 45:0.53368402 81:0.84568393 #
-1 3:0.68906164 81:0.72470278 #
1 2:0.032040793 3:0.048757728 4:0.039006181 6:0.048757728 8:0.22567862 9:0.041792337 10:0.02646848 11:0.064081587 12:0.13373548 13:0.041792337 16:0.032040793 17:0.02646848 18:0.040399261 19:0.097515456 21:0.02646848 22:0.076619282 23:0.032040793 26:0.034826949 28:0.05433004 31:0.034826949 33:0.07522621 35:0.064081587 37:0.043185417 41:0.023682324 47:0.21732016 48:0.18806551 54:0.039006181 56:0.027861558 57:0.071046971 59:0.32040793 60:0.089156985 62:0.12677009 73:0.79962671 84:0.045971572 85:0.1393078 #
1 1:0.16440454 6:0.10686295 9:0.39868101 12:0.18495511 30:0.16440454 33:0.14796409 51:0.25482705 53:0.5507552 65:0.25071692 66:0.15618432 100:0.5137642 #
1 14:0.58208787 27:0.65884674 58:0.4765445 #
1 1:0.12213179 3:0.23871213 4:0.13878612 6:0.09992601 12:0.13878612 19:0.48297569 20:0.14433756 26:0.76609939 49:0.13323468 54:0.14433756 #
0.012749987108726990037155246682232 2:0.26355928 3:0.12885121 4:0.31041428 6:0.10542372 12:0.15813558 19:0.53297544 35:0.25770241 53:0.55054611 72:0.30455741 84:0.18741994 #
-1 12:1 #
-1 6:0.10990662 77:0.49957556 100:0.85926992 #
-1 33:0.43145549 66:0.90213424 #
-0.64053090701749171298473584101885 33:0.5806995 67:0.81411797 #
0.71414521064467606503711749610375 4:0.47519714 29:0.47692513 45:0.24191855 55:0.52012485 96:0.4665572 #
-1 3:0.090545021 6:0.099599525 10:0.44367063 16:0.1765628 31:0.58854264 84:0.63834244 #
-1 58:1 #
-1 6:0.22410884 10:0.27391079 23:0.33616325 41:0.24900982 48:0.48556915 53:0.58517307 64:0.34861374 #
-1 6:0.072799027 53:0.99734664 #
1 4:0.17420302 6:0.060437784 11:0.28796825 12:0.26308212 28:0.12443073 29:0.17420302 33:0.13865139 34:0.25241661 50:0.51194358 53:0.36973703 56:0.12443073 58:0.42306447 64:0.1564272 81:0.15287204 84:0.20975466 #
0.24783630069689843722358091326896 1:0.36859971 3:0.17721139 6:0.095694155 14:0.35442278 56:0.30125937 69:0.52100152 81:0.18429986 83:0.54935533 #
1 1:0.18210813 6:0.022763517 8:0.26860949 10:0.14568651 12:0.20487164 25:0.30958381 26:0.18666083 33:0.08194866 35:0.34145275 41:0.52356088 43:0.17755543 55:0.22763516 61:0.27771491 63:0.22308245 66:0.17300272 100:0.25039867 #
-1 6:0.24626027 17:0.49252054 19:0.30308956 25:0.53040671 41:0.21784562 57:0.3315042 84:0.20837407 96:0.3504473 #
-1 6:0.13435736 11:0.47025076 26:0.25751826 35:0.23512538 49:0.26871473 56:0.20153603 59:0.23512538 64:0.25751826 96:0.55982232 99:0.30230406 #
-0.7641978321952247465986829411122 6:0.18680578 39:0.53706664 41:0.67717099 43:0.46701446 #
1 2:0.28504655 3:0.13915659 6:0.038155839 23:0.2828021 25:0.25137964 30:0.29402441 33:0.26260194 42:0.33218023 48:0.40849191 58:0.22220165 84:0.19975704 86:0.48255914 #
0.017347634124979874337135754558403 1:0.20845117 6:0.082177863 7:0.21245983 12:0.11825594 15:0.52313226 16:0.19642513 53:0.19842947 55:0.26056394 58:0.22047719 63:0.25455093 81:0.41890666 84:0.42692402 #
1 80:1 #
-1 6:0.12147763 13:0.56400329 23:0.43384868 58:0.34707892 97:0.59871113 #
-0.040352621893598006330705629807198 12:0.78010577 33:0.61541677 72:0.11268194 #
-1 3:0.88682181 6:0.12127478 34:0.37898368 81:0.23496988 #
1 6:0.061993036 21:0.1859791 24:0.3266556 25:0.2002852 27:0.25750953 33:0.10491129 38:0.25989386 41:0.336193 43:0.23128171 44:0.34096169 77:0.2861217 81:0.46971646 98:0.2908904 #
1 2:0.17111066 4:0.1996291 6:0.09213651 10:0.55501276 11:0.16452947 12:0.10091142 17:0.14039849 25:0.15136711 29:0.20182283 32:0.16233575 34:0.28737816 39:0.1996291 47:0.28299069 53:0.15136711 57:0.18646674 64:0.17988557 77:0.026324715 81:0.17549811 84:0.23911618 96:0.19743538 98:0.21717891 #
1 2:0.081949338 3:0.12030861 4:0.095898166 5:0.25107881 6:0.066256911 9:0.10287257 10:0.39579788 11:0.23713 12:0.23713 13:0.10461618 14:0.16041148 16:0.078462131 19:0.081949338 29:0.095898166 33:0.074974924 34:0.068000518 39:0.2859509 54:0.097641766 56:0.068000518 59:0.47600362 64:0.085436545 72:0.10984699 84:0.17087309 91:0.13600104 96:0.37487462 97:0.11159059 98:0.10461618 #
1 6:0.027486822 10:0.16492094 13:0.26204103 17:0.33533925 21:0.1667534 24:0.29319277 33:0.095287651 34:0.3445015 35:0.19790512 36:0.2510463 53:0.30418751 66:0.5955478 #
1 2:0.12162723 3:0.23759738 6:0.065056428 10:0.098998912 11:0.2319403 12:0.21214052 14:0.23759738 19:0.48085186 31:0.13011286 33:0.11031307 39:0.28285402 41:0.087684751 52:0.13011286 54:0.14425555 55:0.15556972 70:0.15556972 76:0.31113943 84:0.33659628 94:0.33942482 #
0.45076235232157046972645275673131 3:0.021718854 5:0.045108389 6:0.030072261 7:0.04677907 8:0.27232102 10:0.14367858 12:0.078522012 17:0.036754984 18:0.11026496 20:0.053461798 22:0.15537335 33:0.020048173 35:0.043437708 38:0.050120432 48:0.063485883 52:0.193799 60:0.060144521 67:0.14534926 78:0.82698715 81:0.045108389 93:0.096899502 100:0.29403988 #
0.58083031363769366262062021633028 3:0.13973632 6:0.097207874 7:0.14884956 10:0.11543436 11:0.13669857 12:0.24909519 13:0.18226476 14:0.42224672 25:0.24909519 32:0.2703594 39:0.33415207 40:0.22783096 42:0.16707604 56:0.2369442 58:0.2369442 76:0.36452952 81:0.14581181 84:0.10024562 94:0.20049125 #
1 3:0.51863652 5:0.36112469 6:0.11909431 11:0.16903709 16:0.50711125 17:0.14598657 18:0.21897987 27:0.19592935 31:0.18824585 33:0.16135359 41:0.13061957 49:0.19208761 59:0.17287885 81:0.18056235 84:0.12293606 #
0.53514242946285084379098861973034 2:0.18223944 6:0.024710432 7:0.19150585 9:0.46332061 13:0.23783791 14:0.18223944 36:0.22548269 56:0.15444019 62:0.71351373 71:0.17915063 81:0.095752925 #
0.046228103569809830819536955459625 3:0.14731345 4:0.23324628 6:0.03989739 17:0.16265859 26:0.21176307 37:0.12889926 44:0.32838622 67:0.54014927 70:0.12889926 79:0.57083958 95:0.30383396 #
-1 6:0.2567226 19:0.96648514 #
-1 32:1 #
-0.80636616524635229552586679346859 6:0.34799936 10:0.48184526 19:0.20076886 21:0.16061509 25:0.17399968 38:0.22753803 41:0.14723049 49:0.21415344 50:0.45507607 56:0.33461475 68:0.33461475 #
-0.15450389295612110274191763892304 6:0.60665452 14:0.4412033 35:0.42281982 41:0.33090249 67:0.38605291 #
-0.84944850912680913701535700965906 34:0.85328186 81:0.52144998 #
1 2:0.44279388 3:0.22139694 6:0.088558778 21:0.36530495 33:0.10516354 41:0.16604771 53:0.48707327 58:0.58116698 #
1 2:0.21790837 3:0.107328 6:0.029271273 10:0.17562763 17:0.35775998 20:0.79357672 23:0.214656 37:0.28295565 41:0.15936582 #
0.85644839309048181874572946981061 3:0.17335211 4:0.30931455 6:0.010197182 10:0.14276056 12:0.15295774 19:0.17335211 20:0.21414083 31:0.28212205 37:0.112169 41:0.12916431 43:0.088375583 45:0.45547414 100:0.65601873 #
1 2:0.088557161 3:0.25634968 4:0.3029587 6:0.13050529 17:0.069913544 29:0.20507973 34:0.074574448 51:0.27965418 52:0.19109704 58:0.52668208 64:0.088557161 67:0.41482037 72:0.36355045 81:0.046609033 84:0.24236697 #
-1 3:0.69954699 6:0.1892892 12:0.41972822 33:0.3291986 53:0.43618813 #
0.86936913531371151631077509591705 2:0.22286002 3:0.10523946 6:0.14857335 7:0.45810115 43:0.22286002 88:0.81096286 #
-0.85382370591972511775225029850844 6:0.063258052 25:0.42172033 41:0.70286721 54:0.56932247 #
0.88080301236265601261266056098975 1:0.63344431 3:0.15119247 6:0.041708268 33:0.14337216 42:0.36234057 43:0.312812 56:0.2580699 61:0.48225182 81:0.15901276 #
1 5:0.33676693 6:0.067034177 8:0.12449204 15:0.42135766 19:0.48998791 22:0.19152622 54:0.19631436 81:0.2521762 89:0.31442219 94:0.45966291 #
0.76854618841102728676872857249691 3:0.20916365 4:0.12549819 6:0.043734219 21:0.085566953 26:0.11218778 27:0.11979373 28:0.087468438 30:0.32895738 31:0.11408927 32:0.50769722 34:0.17873985 41:0.155922 69:0.1540205 83:0.65030885 96:0.12169522 #
-1 6:0.12826295 10:0.76156127 33:0.43288746 58:0.46495321 #
-0.45505661048132295398715996270766 6:0.054408483 26:0.40806362 43:0.77985489 99:0.47154018 #
-0.73924601249151900006495452544186 12:0.52686882 71:0.33159575 81:0.46423405 84:0.63003194 #
-0.99180913209387389084525921134627 6:0.045097489 54:0.77417356 59:0.63136482 #
-0.22445432900168144074726228609507 3:0.96476382 6:0.2631174 #
0.095875572119373433932487671427225 3:0.088195898 5:0.37149179 6:0.12026713 12:0.10423151 15:0.69487673 21:0.14699316 23:0.17906439 26:0.1897548 41:0.13363014 45:0.35812879 81:0.1844096 84:0.12561233 97:0.24587947 #
0.17579341463979267223827207544673 5:0.37112105 6:0.048005708 8:0.13663164 15:0.46159336 19:0.53729469 22:0.21048658 45:0.17909822 54:0.21417932 81:0.18463734 89:0.34527183 94:0.25295317 #
0.12553395996936367318141947180266 1:0.28861424 3:0.13795398 5:0.14521472 6:0.056270704 7:0.14702991 9:0.17607285 10:0.45561117 18:0.17607285 33:0.065346621 35:0.1361388 56:0.23597392 82:0.70973694 #
0.21100676943312113298389931514976 2:0.44879115 3:0.43963215 6:0.12364654 7:0.46710917 63:0.56327868 81:0.23355459 #
-0.28738021715928496746528253424913 12:0.75012583 81:0.66129512 #
-0.00017465577386843733620480634272099 12:0.74941301 81:0.66210276 #
