SVM-light Version V6.02
0 # kernel type
3 # kernel parameter -d 
1 # kernel parameter -g 
1 # kernel parameter -s 
1 # kernel parameter -r 
empty# kernel parameter -u 
900 # highest feature index 
300 # number of training documents 
168 # number of support vectors plus 1 
0.03635778 # threshold b, each following line is a SV (starting with alpha*y)
-0.34765530873027622460469387988269 1:0.047514964 8:0.033436459 11:0.07919161 14:0.052794404 15:0.052794404 22:0.07919161 30:0.089750491 37:0.089750491 38:0.073912166 42:0.09678974 49:0.072152354 51:0.28860942 56:0.080951422 71:0.27981034 79:0.12318695 81:0.09854956 103:0.10734863 124:0.16014303 136:0.10030937 148:0.11966732 164:0.12494676 193:0.04927478 200:0.20413837 220:0.20061874 227:0.103829 279:0.21117762 321:0.20061874 360:0.056314033 364:0.24637389 435:0.12142713 502:0.10910844 527:0.18302061 543:0.24285427 549:0.18830004 618:0.13726546 627:0.15134396 633:0.10910844 652:0.09678974 660:0.16542247 694:0.12142713 704:0.37660009 711:0.16366266 #
-0.26209463825245227219795651762979 1:0.018537281 15:0.014829826 86:0.17981163 121:0.1186386 133:0.14088334 185:0.14273706 190:0.14829825 271:0.19834891 275:0.15942062 288:0.081564039 432:0.35035461 475:0.30771887 502:0.13346842 535:0.20205636 543:0.39299038 574:0.094540134 578:0.1520057 583:0.24098466 630:0.38372174 688:0.14644453 716:0.24654584 720:0.14644453 887:0.21873993 #
0.2327130614735270497384078680625 192:0.11796115 375:0.56217521 453:0.098832317 480:0.32306477 543:0.22316974 652:0.26992911 661:0.13496456 815:0.625938 854:0.092456035 894:0.12114929 #
-1 1:0.020474209 8:0.022180393 14:0.017061841 15:0.025592761 21:0.080190651 29:0.11431433 44:0.051185522 71:0.04606697 79:0.081896834 86:0.17914933 87:0.071659729 136:0.13137618 137:0.088721573 167:0.069953546 197:0.18426788 226:0.075072102 227:0.068247363 261:0.049479339 282:0.090427756 304:0.088721573 359:0.076778285 372:0.12455144 376:0.058010258 418:0.30881932 424:0.10237104 452:0.11431433 471:0.18426788 473:0.14502564 487:0.20474209 491:0.076778285 543:0.67394269 615:0.10066486 634:0.092133939 661:0.26104617 674:0.052891705 679:0.088721573 711:0.10578341 730:0.061422627 874:0.15526275 #
-0.76237092351644764054441338885226 1:0.0074080299 14:0.022224089 15:0.022224089 29:0.21298085 33:0.035188142 44:0.06482026 49:0.059264239 53:0.035188142 65:0.040744163 66:0.17038469 69:0.068524279 77:0.029632119 79:0.075932309 86:0.25372502 91:0.033336133 105:0.059264239 125:0.048152193 128:0.18149672 156:0.044448178 166:0.044448178 170:0.06482026 221:0.046300188 223:0.055560224 242:0.088896357 259:0.062968254 279:0.042596173 303:0.12038048 310:0.048152193 315:0.046300188 317:0.21668488 358:0.048152193 360:0.022224089 363:0.062968254 372:0.038892157 373:0.059264239 380:0.07963632 386:0.068524279 432:0.30002519 543:0.51485807 575:0.075932309 577:0.25372502 636:0.13890056 663:0.075932309 671:0.042596173 694:0.25557703 710:0.30372924 747:0.19816481 825:0.051856209 876:0.1722367 #
1 1:0.062316328 4:0.088102393 8:0.053720973 10:0.14826989 15:0.081655882 31:0.12248382 51:0.14826989 79:0.096697748 81:0.15256757 106:0.16975828 149:0.1160373 168:0.17620479 204:0.30513513 226:0.17620479 261:0.11818614 285:0.13322802 312:0.28364673 314:0.19984202 320:0.11173962 322:0.17620479 360:0.088102393 371:0.10529311 372:0.14826989 479:0.12033498 481:0.1547164 543:0.24926531 607:0.26215833 613:0.46629804 661:0.047274455 876:0.25356299 #
0.9043959260043932246730946644675 1:0.015495614 10:0.05423465 15:0.077478074 17:0.23243421 23:0.1084693 24:0.19756907 27:0.2208125 38:0.08522588 54:0.12009101 63:0.10459539 77:0.081351973 86:0.5655899 168:0.13171272 196:0.077478074 224:0.14333443 248:0.42225549 261:0.08909978 266:0.15108223 318:0.1123432 488:0.46099451 #
0.36339390545111610597572848746495 1:0.051613115 8:0.020196436 9:0.11444648 10:0.029172631 14:0.15708339 15:0.053857166 16:0.049369067 17:0.11893457 19:0.044880971 21:0.21767271 22:0.094250038 23:0.11220243 24:0.13464291 27:0.056101214 36:0.14137506 43:0.058345262 44:0.047125019 55:0.065077409 63:0.053857166 69:0.049369067 73:0.065077409 74:0.067321457 76:0.09200599 81:0.058345262 88:0.053857166 123:0.049369067 126:0.062833361 127:0.12342267 136:0.17727983 140:0.089761943 149:0.13239886 154:0.067321457 191:0.071809553 196:0.12117862 224:0.1481072 225:0.069565505 235:0.065077409 258:0.035904776 283:0.11669052 298:0.23113699 330:0.1481072 360:0.11893457 372:0.056101214 407:0.1481072 543:0.29172632 554:0.10771433 559:0.17952389 580:0.080785744 603:0.040392872 652:0.4016847 661:0.1481072 673:0.23113699 674:0.047125019 694:0.22889295 697:0.071809553 700:0.14361911 701:0.2401132 827:0.11220243 #
-0.013994703007024045238182452521869 10:0.034178995 11:0.055699103 15:0.036710773 32:0.42787039 33:0.062028546 36:0.1126641 38:0.051901437 47:0.050635546 49:0.15064076 69:0.059496768 75:0.087346323 77:0.050635546 99:0.16709732 123:0.17216086 124:0.056964993 125:0.082282767 136:0.070889771 170:0.055699103 196:0.048103772 241:0.17089498 242:0.07595332 258:0.17089498 291:0.086080432 414:0.28355908 440:0.087346323 454:0.12658887 467:0.10253698 506:0.12025943 510:0.096207544 543:0.3025474 545:0.22532819 566:0.059496768 579:0.48610127 647:0.11646176 705:0.19368097 856:0.14557721 881:0.10380287 #
-0.20246619680730559842629645572742 1:0.010170264 14:0.013560352 15:0.006780176 29:0.042941116 32:0.050851319 37:0.044071145 42:0.048591264 49:0.24973649 70:0.051981349 75:0.062151615 85:0.056501467 91:0.081362113 99:0.35595924 117:0.11639302 124:0.039551027 134:0.094922468 152:0.22939596 252:0.13786358 263:0.048591264 272:0.072321877 273:0.12882334 287:0.09040235 288:0.11865308 321:0.066671729 330:0.062151615 356:0.088142291 360:0.014690381 376:0.17628458 410:0.14803384 432:0.066671729 467:0.21696563 472:0.13673355 510:0.067801759 511:0.17176446 518:0.14916387 543:0.38760006 561:0.070061818 564:0.071191847 576:0.1808047 579:0.25764668 593:0.22374581 600:0.096052498 613:0.01695044 674:0.040681057 694:0.28024727 703:0.072321877 797:0.079102054 825:0.192105 #
-1 1:0.024325021 10:0.087570079 13:0.18324849 15:0.047028374 23:0.17189682 24:0.30973861 35:0.17027515 63:0.082705073 86:0.22703353 117:0.21243851 126:0.1929785 196:0.24811521 281:0.27244022 304:0.24973688 321:0.1216251 406:0.20595184 432:0.22541186 543:0.16865347 560:0.13297679 580:0.047028374 640:0.06000172 652:0.17514016 667:0.18000515 673:0.47190541 823:0.12973344 #
-1 1:0.025527168 2:0.092703924 10:0.22033976 13:0.057772011 14:0.030901309 15:0.060459081 23:0.32647905 24:0.16391128 38:0.12763584 71:0.16256775 81:0.056428477 96:0.17062896 109:0.085986249 126:0.061802618 127:0.12091816 164:0.1451018 167:0.061802618 193:0.029557774 196:0.23646219 206:0.073894434 229:0.087329783 255:0.075237967 269:0.042993125 278:0.083299182 281:0.18406431 366:0.067176759 399:0.17062896 432:0.10345221 543:0.52666581 568:0.071207367 673:0.45008427 706:0.045680195 720:0.079268575 874:0.13838412 #
-1 1:0.039263997 8:0.033654857 9:0.095355421 10:0.093485713 14:0.15518628 15:0.039263997 22:0.076658286 25:0.12153143 31:0.23184456 32:0.099094853 41:0.11592228 53:0.084137142 56:0.078527994 61:0.20379885 62:0.089746282 63:0.044873141 69:0.082267426 93:0.091615997 106:0.10657371 141:0.12527086 142:0.15705599 149:0.072918855 150:0.091615997 184:0.16453485 263:0.095355421 284:0.14957714 359:0.3440274 373:0.143968 385:0.11218286 491:0.11405256 543:0.08600685 601:0.17388342 619:0.1851017 631:0.29915428 652:0.093485713 669:0.50669253 691:0.18136227 767:0.143968 876:0.084137142 #
-1 1:0.053625625 149:0.16403133 156:0.23658365 196:0.2996726 321:0.14825909 487:0.33121711 543:0.32806265 583:0.41954166 694:0.52679288 734:0.17349467 876:0.31859931 #
0.24376473387664893133219834453485 1:0.016579138 9:0.086448364 10:0.099474832 13:0.029605605 15:0.035526726 18:0.02250026 22:0.25816086 24:0.034342501 36:0.023684483 40:0.086448364 53:0.026052931 56:0.048553191 73:0.033158276 74:0.067500778 80:0.02842138 94:0.029605605 95:0.042632069 107:0.094737932 112:0.031974051 130:0.095922157 143:0.11250129 150:0.056842759 171:0.033158276 177:0.056842759 178:0.059211209 179:0.053290088 193:0.015394914 196:0.040263623 211:0.048553191 225:0.035526726 229:0.13500156 233:0.054474313 258:0.017763363 261:0.046184741 269:0.043816295 272:0.043816295 280:0.11013284 322:0.034342501 344:0.036710948 347:0.039079398 360:0.024868708 480:0.034342501 491:0.035526726 522:0.060395431 543:0.3825044 656:0.041447844 676:0.069869228 693:0.043816295 715:0.043816295 875:0.79579866 #
0.79037250835514105684609376112348 40:0.28995436 61:0.31025118 193:0.14932649 312:0.094235167 375:0.6016553 418:0.23631281 432:0.50307083 543:0.28705481 577:0.11598174 661:0.092785396 889:0.11453197 #
0.68400644615136152459911045298213 1:0.018925034 13:0.22376068 15:0.028944168 18:0.082379557 28:0.27830932 40:0.32395202 45:0.12690905 86:0.071247183 92:0.10798401 117:0.12913552 142:0.26829016 193:0.11132372 207:0.20817536 218:0.1525135 263:0.10909725 269:0.082379557 365:0.010019135 369:0.14917378 376:0.097964875 432:0.13804142 445:0.050095674 487:0.17477824 543:0.3618021 598:0.10353106 649:0.055661861 706:0.08905898 794:0.55105245 #
0.77248361387718644799349476670614 1:0.027128084 7:0.12659773 14:0.033910107 15:0.04973482 17:0.1288584 20:0.31649432 21:0.15598649 44:0.20119996 61:0.13337974 71:0.44761339 115:0.31649432 144:0.15598649 150:0.11981571 193:0.1288584 263:0.37527183 293:0.32101566 321:0.085905597 357:0.099469639 360:0.036170781 445:0.14920446 543:0.33910105 706:0.10173032 730:0.11981571 #
0.58823259790598125817950858618133 1:0.012066351 14:0.09104611 36:0.27204138 193:0.17002586 195:0.50678676 276:0.070204228 360:0.09653081 432:0.28410774 468:0.082270578 499:0.083367519 543:0.12724516 655:0.70862389 694:0.052653171 717:0.044974584 #
0.41953001047299687265024203952635 1:0.021040943 9:0.61504298 14:0.16832754 67:0.59723908 86:0.050174557 192:0.25410986 360:0.17965728 432:0.31885123 543:0.048556022 729:0.18127581 #
-0.91614902223861327534848442155635 1:0.021076994 8:0.079624198 15:0.046837766 38:0.17329973 47:0.084307976 79:0.072598539 85:0.13348763 127:0.12412008 164:0.14988086 189:0.15690652 193:0.058547206 202:0.15456462 210:0.17798351 269:0.086649865 308:0.17798351 312:0.24355638 334:0.16159029 347:0.15690652 358:0.1381714 432:0.56673694 445:0.1007012 543:0.17095785 580:0.21076994 598:0.28805226 637:0.38641158 659:0.060889095 #
-0.82590531885730733563377725658938 15:0.019874418 33:0.12492491 86:0.26688504 133:0.19022657 170:0.1135681 220:0.20442258 324:0.50253886 358:0.16751294 363:0.22145779 367:0.20442258 432:0.37761393 543:0.039748836 672:0.16751294 694:0.14763853 705:0.19590497 779:0.38897073 888:0.25836742 #
-0.97359674007211016721896612580167 1:0.018907897 15:0.044118427 42:0.11134651 86:0.073530711 88:0.10504387 91:0.092438608 121:0.12605265 235:0.12395177 284:0.17437282 287:0.20588599 288:0.18697809 309:0.20798686 376:0.10084212 401:0.19328073 432:0.45589039 464:0.18697809 476:0.19328073 538:0.54622811 543:0.33614039 558:0.10924563 577:0.11344738 694:0.077732466 706:0.090337731 #
-0.8371967527399898356676999355841 1:0.025481703 32:0.37494504 53:0.31670117 90:0.36523774 162:0.44896334 248:0.13226217 432:0.41620114 516:0.45381701 694:0.16381095 #
-0.25721084943882466244957640810753 1:0.085579686 14:0.032775197 15:0.030954354 20:0.074654616 38:0.089221373 40:0.11653403 46:0.1110715 47:0.085579686 50:0.21485963 65:0.12017573 79:0.074654616 83:0.23853061 87:0.13292164 103:0.12927994 106:0.26402241 113:0.12927994 200:0.12381741 254:0.24581398 330:0.15113008 365:0.20939709 432:0.2676641 493:0.32957283 543:0.2676641 551:0.1930095 580:0.12381741 598:0.29497677 618:0.33139366 666:0.060087863 688:0.16751768 711:0.098325595 712:0.12199657 #
1 1:0.0069584409 15:0.030153243 35:0.21571167 86:0.044070125 130:0.13684933 142:0.18323894 193:0.11597401 196:0.15540518 220:0.20411426 222:0.3038519 321:0.15308569 432:0.099737652 668:0.29689348 673:0.59378695 694:0.42446488 876:0.26905972 #
1 1:0.019539433 10:0.044661559 13:0.18143758 14:0.047452908 15:0.036287516 24:0.10327986 59:0.092114471 64:0.14794141 86:0.16189815 115:0.3237963 117:0.1060712 149:0.066992342 196:0.061409645 261:0.069783688 357:0.069783688 360:0.07815773 419:0.21493375 435:0.1116539 459:0.20376837 491:0.1060712 543:0.73412442 688:0.12561063 705:0.12561063 711:0.2233078 824:0.14794141 #
1 1:0.030352985 5:0.30569792 18:0.33821899 135:0.021680703 312:0.26016846 321:0.30569792 360:0.13008423 450:0.29702565 543:0.50949657 598:0.21030283 605:0.2124709 674:0.37074003 749:0.19512634 #
0.66577553220251883825397953842185 7:0.13855772 8:0.046185907 10:0.065726101 15:0.03552762 35:0.25935164 57:0.31619585 63:0.062173337 163:0.19540192 193:0.069278859 221:0.15454516 368:0.30731392 385:0.0053291433 419:0.1030301 457:0.27889183 487:0.16165067 523:0.23981145 543:0.38902745 694:0.065726101 696:0.21316573 766:0.34284154 830:0.38725108 #
0.3314851174458557370172684386489 1:0.0084408643 7:0.23915783 15:0.030949835 24:0.13786745 35:0.22508971 86:0.23915783 183:0.28698939 193:0.24197145 349:0.16319004 360:0.067526914 408:0.24197145 445:0.27854851 491:0.28136215 543:0.55991066 667:0.33763456 #
-1 1:0.018892905 14:0.025640372 15:0.012145439 32:0.19027855 53:0.080969594 77:0.13494933 86:0.10256149 117:0.10930895 158:0.14844427 228:0.13764831 269:0.068824157 360:0.026989866 543:0.89066553 637:0.15384223 716:0.12955135 718:0.14304629 825:0.1214544 #
-1 1:0.031122871 8:0.060516693 10:0.086452417 15:0.046684306 35:0.16944674 38:0.13313672 63:0.081265271 86:0.17809197 88:0.16598864 96:0.3544549 142:0.14524005 196:0.24552487 222:0.23860867 269:0.2645444 312:0.055329546 337:0.17636293 418:0.14178196 432:0.17117578 445:0.091639563 475:0.19192436 543:0.62072837 598:0.13486578 809:0.084723368 #
-0.56804910560308619071889779661433 30:0.11803524 47:0.094109178 70:0.14036623 71:0.094109178 75:0.16588737 118:0.22969019 121:0.29668316 185:0.360486 216:0.23607048 220:0.14196131 261:0.10208453 306:0.17705286 362:0.065397903 367:0.18981342 420:0.16748244 472:0.22650005 475:0.071778186 543:0.57422549 598:0.025521133 711:0.10846481 867:0.22809513 876:0.08453875 880:0.081348613 #
-1 1:0.05918704 3:0.24139029 5:0.28897202 6:0.31798527 26:0.52804124 130:0.10096613 193:0.21585862 248:0.15551105 324:0.11257143 341:0.18800589 360:0.24487187 543:0.46537262 694:0.24835347 712:0.087039769 #
-1 1:0.024980882 8:0.042467497 10:0.18485852 15:0.084934995 19:0.1898547 51:0.12490441 55:0.13989294 58:0.12240632 63:0.057456028 64:0.1049197 67:0.11990823 80:0.11990823 123:0.1049197 127:0.13489676 147:0.19734897 148:0.15488146 149:0.094927348 190:0.17986235 193:0.064950295 230:0.32225338 236:0.18485852 254:0.2323222 269:0.094927348 355:0.18735661 360:0.072444558 372:0.12240632 392:0.2323222 543:0.26979351 577:0.33973998 650:0.21483558 674:0.1049197 694:0.16237573 814:0.20234513 885:0.25730309 #
-0.2202928426990025945197970713707 1:0.0072663231 15:0.030103337 19:0.033217475 29:0.1982668 33:0.040483799 38:0.06643495 49:0.03217943 50:0.1619352 59:0.04567403 62:0.042559892 66:0.23771256 69:0.038407706 74:0.10380461 85:0.30726165 86:0.036331613 120:0.049826212 142:0.036331613 157:0.056054492 170:0.036331613 204:0.044635985 236:0.065396905 248:0.16920152 288:0.10588071 296:0.057092536 360:0.012456553 410:0.12456553 432:0.10691875 436:0.087195873 438:0.069549091 471:0.13806014 496:0.075777367 532:0.078891508 543:0.53044158 577:0.048788168 595:0.078891508 631:0.55743074 861:0.1214514 877:0.11522312 #
0.96357739196525915570390452558058 1:0.041118581 14:0.13157946 15:0.016447432 21:0.15350938 24:0.21107538 51:0.12061451 53:0.21381663 63:0.054824777 76:0.19188671 78:0.14254442 81:0.12335575 107:0.26590016 115:0.035636105 123:0.20285167 182:0.15625061 196:0.084978402 243:0.14528565 269:0.090460882 280:0.23026405 304:0.1699568 314:0.16173309 360:0.17543928 432:0.41118583 554:0.22752282 624:0.15625061 694:0.3810322 889:0.27138263 #
0.77334527714269341025499215902528 15:0.034092583 20:0.081822194 23:0.12273329 27:0.12614255 51:0.12614255 53:0.11250552 61:0.40911099 63:0.11761941 77:0.18750919 135:0.27614993 183:0.097163856 193:0.13125645 196:0.088640712 224:0.16364439 264:0.21819252 335:0.19944161 365:0.17557679 432:0.40399709 434:0.23012494 598:0.13296106 610:0.056252759 616:0.081822194 648:0.17898606 652:0.25398973 661:0.12443793 671:0.13637033 712:0.21819252 774:0.10568701 789:0.16534902 #
0.25855323585437606226378193241544 1:0.010009075 14:0.11510436 15:0.037534032 21:0.17766108 36:0.23271099 51:0.14012705 55:0.31778812 63:0.13011797 78:0.16514973 86:0.087579407 100:0.20268376 134:0.13762479 165:0.18266562 199:0.23771553 214:0.19767922 215:0.20268376 289:0.36282897 304:0.19767922 360:0.12261117 372:0.14012705 425:0.14513159 430:0.27274728 543:0.3277972 694:0.22270192 710:0.19767922 #
0.7523312178090468815838676164276 1:0.018908272 8:0.048321139 9:0.14076158 10:0.069330335 14:0.077734008 15:0.018908272 22:0.11344963 36:0.23110111 41:0.51262426 51:0.13866067 72:0.18277997 77:0.10294504 94:0.1428625 249:0.2962296 264:0.18908273 359:0.3403489 369:0.19328456 432:0.41178015 610:0.031513788 652:0.14076158 826:0.29412869 #
-0.63083195053806373486793290794594 1:0.069336914 8:0.1536656 14:0.059967063 15:0.029983532 22:0.17802721 31:0.17802721 63:0.10119442 108:0.1405478 130:0.1086903 149:0.16865736 154:0.51908988 213:0.22112854 237:0.17990118 244:0.32232296 317:0.22300251 360:0.19301899 371:0.088076621 385:0.21363266 432:0.17802721 487:0.20988472 543:0.0018739707 573:0.11618619 580:0.097446479 643:0.23424634 674:0.18364912 694:0.089950591 775:0.17053133 870:0.11806016 #
-0.47345346291660500570586123103567 1:0.044426128 15:0.028876984 38:0.16437668 60:0.22435196 89:0.3731795 129:0.30431899 258:0.26877809 294:0.22213064 360:0.12661447 371:0.11328663 432:0.22657326 627:0.67305589 648:0.18214713 #
-1 1:0.0042708833 14:0.031319812 22:0.18222436 27:0.11104297 29:0.20215516 122:0.1281265 212:0.1736826 220:0.1694117 235:0.12670287 291:0.28187832 322:0.26194751 344:0.14093916 347:0.15232818 360:0.032743439 431:0.07829953 432:0.085417666 442:0.57941651 467:0.33455253 543:0.16229357 581:0.15232818 608:0.21069692 648:0.14093916 694:0.20927329 710:0.055521484 754:0.085417666 #
-0.55368084967441488775108382469625 1:0.029098921 8:0.048013221 15:0.037828598 46:0.39138049 65:0.14112976 71:0.10039128 88:0.13094515 106:0.15567923 129:0.080022037 153:0.15276934 193:0.071292356 220:0.066927522 298:0.18477815 320:0.18914299 323:0.18914299 364:0.091661602 397:0.12221547 432:0.2051474 433:0.14840449 543:0.081476979 580:0.15713418 636:0.64890593 699:0.24734083 711:0.11639568 726:0.10621107 #
-0.86138852857558845244057010859251 1:0.020612467 15:0.05153117 49:0.14222603 64:0.16283849 79:0.1236748 115:0.21230841 123:0.32155448 175:0.21436965 181:0.20406343 200:0.60600656 220:0.13398103 247:0.28032956 262:0.28857455 324:0.020612467 432:0.20200218 516:0.24116586 543:0.16283849 711:0.16077724 #
1 9:0.065370537 10:0.030869421 15:0.043580357 17:0.13437277 81:0.065370537 86:0.18884821 205:0.23787612 269:0.049027901 270:0.17250559 348:0.11076674 351:0.12892522 366:0.076265626 367:0.18884821 418:0.052659597 419:0.1507154 543:0.7935257 570:0.15253125 598:0.19792746 645:0.19247991 694:0.14526786 #
1 10:0.13341337 15:0.049049035 22:0.074554533 47:0.066706687 59:0.094174147 70:0.098098069 74:0.53169155 81:0.092212185 104:0.094174147 121:0.10398395 124:0.074554533 130:0.12556553 145:0.096136108 150:0.088288262 170:0.074554533 178:0.094174147 185:0.12556553 229:0.19031025 230:0.11771768 269:0.068668649 358:0.10986984 376:0.082402378 377:0.25505498 432:0.22758752 467:0.13537534 543:0.46302289 598:0.1981581 636:0.10594591 644:0.18638633 667:0.20404398 730:0.086326301 825:0.11967964 #
0.3416017622260233421727093627851 1:0.020914173 8:0.020914173 10:0.091261841 12:0.14449792 15:0.02471675 36:0.10076829 47:0.045630921 54:0.1311889 72:0.079854116 84:0.20343786 86:0.077952825 99:0.15020178 151:0.33462676 162:0.076051541 165:0.079854116 191:0.35363966 219:0.18822755 312:0.3479358 341:0.0494335 492:0.17681983 543:0.59890586 598:0.13309018 652:0.060841229 694:0.083656691 701:0.085557982 705:0.087459266 712:0.1483005 #
0.96409799770102733162957520107739 27:0.26726702 55:0.30251101 130:0.21880651 232:0.102795 354:0.2687355 432:0.023496 486:0.18209401 520:0.54628199 543:0.56243551 635:0.155661 796:0.1835625 #
0.82699379624779834063730277193827 95:0.2865952 191:0.13381878 289:0.16838862 302:0.35238943 405:0.36019552 543:0.38026834 675:0.14274003 694:0.0078060948 865:0.6679787 897:0.080291264 #
-1 85:0.38703471 97:0.38703471 99:0.4101643 108:0.16344893 130:0.16036499 178:0.34385952 406:0.16344893 432:0.20045623 543:0.54277378 #
-1 1:0.011672748 8:0.028348101 9:0.080041699 15:0.010005212 23:0.076706626 24:0.046690993 27:0.078374162 41:0.096717052 44:0.13006777 52:0.11339241 54:0.16842107 59:0.081709236 63:0.073371559 133:0.43689427 220:0.1083898 327:0.21844713 354:0.030015638 366:0.095049515 543:0.39854097 598:0.21511206 624:0.10338719 630:0.59197509 637:0.13340284 666:0.20844193 667:0.10505473 #
-1 1:0.011598998 15:0.0077326652 29:0.048973545 33:0.048973545 47:0.039952103 50:0.10052465 54:0.057994988 70:0.11856753 75:0.14047675 81:0.11083487 120:0.061861321 133:0.074749097 157:0.069593988 170:0.045107212 216:0.09923587 225:0.06701643 227:0.057994988 231:0.21007073 284:0.086348094 320:0.082481764 432:0.088925645 501:0.23971261 511:0.096658312 530:0.073460318 543:0.6650092 583:0.060572542 598:0.15723085 692:0.38018936 707:0.074749097 709:0.082481764 711:0.046395991 720:0.077326648 788:0.13532163 790:0.1314553 793:0.12758897 840:0.22424729 888:0.10181342 890:0.1147012 #
-1 1:0.015084462 8:0.0490245 14:0.037711155 15:0.018855577 34:0.13576016 75:0.17724243 86:0.29226145 115:0.2583214 121:0.31865925 185:0.38653934 369:0.19044133 392:0.20364024 418:0.11313347 432:0.18101354 543:0.49024501 568:0.17535686 598:0.30734593 900:0.23192361 #
0.89825976637843107930336827848805 1:0.0072048344 192:0.080282442 240:0.44978753 311:0.15953562 313:0.081311703 365:0.18012086 432:0.0010292621 443:0.48478243 482:0.06072646 543:0.13689186 590:0.23775953 616:0.12454071 638:0.46522644 658:0.39935368 694:0.02470229 748:0.10910178 749:0.093662851 #
1 1:0.0064139618 12:0.11972729 15:0.012827924 22:0.083381504 35:0.098347418 74:0.11972729 122:0.11545131 124:0.083381504 143:0.19669484 177:0.20097081 211:0.17103899 220:0.31428415 347:0.13896917 377:0.14324515 381:0.32497406 543:0.23090263 590:0.24373056 598:0.168901 633:0.11545131 636:0.11972729 644:0.41690752 694:0.24800652 711:0.085519493 719:0.19883282 737:0.18814288 799:0.21166074 853:0.22448866 #
0.81412254507390968694124921967159 1:0.0364432 24:0.20304067 45:0.40608135 53:0.30456102 68:0.42430297 320:0.089806452 351:0.039046284 365:0.03253857 371:0.11974194 389:0.68591309 451:0.087203369 492:0.091107994 543:0.058569428 598:0.039046284 690:0.058569428 #
0.44866055605709692644111896697723 15:0.072472572 28:0.68259054 150:0.51573503 192:0.11966401 353:0.30168816 432:0.26966539 445:0.13314728 537:0.05224767 559:0.2325864 694:0.10112452 #
0.22658505102962886446071877344366 10:0.037244339 12:0.17587604 15:0.041382596 39:0.093110844 61:0.080696069 62:0.070350416 68:0.091041714 115:0.16966864 132:0.10552562 149:0.057935636 150:0.072419547 169:0.24829559 219:0.34140643 242:0.082765192 261:0.057935636 322:0.086903453 342:0.30002382 377:0.10552562 432:0.18208343 445:0.23174255 480:0.17794517 510:0.21105124 533:0.12828605 543:0.13242431 554:0.14070083 579:0.26484862 674:0.062073898 679:0.21105124 694:0.29795471 706:0.062073898 712:0.31864601 740:0.20484386 802:0.14276996 #
-1 1:0.055825599 15:0.0069781998 18:0.34018722 26:0.062803797 38:0.036635548 49:0.10990664 71:0.036635548 102:0.07152655 124:0.12386304 127:0.054081049 131:0.2581934 146:0.052336499 152:0.078504749 166:0.055825599 167:0.2163242 184:0.092461146 204:0.1011839 227:0.26517159 258:0.031401899 269:0.075015649 279:0.16224314 300:0.076760195 321:0.06803745 331:0.081993848 346:0.015700949 350:0.07152655 366:0.11688484 445:0.076760195 516:0.062803797 543:0.30529624 590:0.59314698 643:0.23551424 670:0.2023678 694:0.062803797 #
-1 63:0.22384387 137:0.25323752 150:0.46803719 220:0.22384387 257:0.23967122 432:0.19897233 445:0.1514903 493:0.19897233 543:0.33463529 694:0.22158283 699:0.21706073 831:0.37985629 876:0.32333004 #
-0.52171547645076676857911479601171 1:0.020886786 15:0.020886786 46:0.13924524 47:0.42817914 81:0.14620751 122:0.16709429 126:0.16013204 164:0.18798108 352:0.23323579 431:0.15316977 492:0.28197163 580:0.24019805 582:0.42121688 677:0.20886788 694:0.26804709 706:0.11835846 767:0.26108482 891:0.30982068 #
-1 1:0.0048711826 15:0.0097423652 24:0.043840643 44:0.061701648 45:0.17861003 47:0.055206738 53:0.06657283 66:0.32636923 70:0.081186377 116:0.31175569 117:0.090928741 122:0.086057559 132:0.10716601 136:0.077938922 145:0.1591253 279:0.082810104 313:0.16886766 339:0.10067111 349:0.060077921 384:0.1704914 425:0.15587784 426:0.15750158 432:0.074691467 506:0.13314566 507:0.11366093 543:0.34910142 545:0.12502702 560:0.20296595 584:0.13476938 633:0.086057559 642:0.27928114 688:0.10878974 696:0.36209124 840:0.31175569 #
-0.59328912530577981865320680299192 1:0.044579834 14:0.11569528 15:0.0095528215 27:0.070054024 79:0.090221092 80:0.0689926 94:0.071115449 103:0.15602942 113:0.078545421 141:0.092343941 142:0.058378354 197:0.10295819 224:0.090221092 235:0.15921369 331:0.11569528 352:0.11251101 359:0.68249601 385:0.10508104 432:0.12100241 494:0.11569528 541:0.17195079 543:0.094466791 674:0.059439778 685:0.54132652 686:0.064746901 710:0.056255504 876:0.042456985 #
1 22:0.30166939 62:0.35490516 432:0.47202387 475:0.11889323 505:0.078079134 529:0.069206506 543:0.41523904 632:0.14551112 694:0.14551112 709:0.56607372 #
1 1:0.033747092 7:0.10847279 14:0.028926078 15:0.028926078 17:0.21935609 51:0.10365178 53:0.091599248 63:0.048210129 64:0.08918874 77:0.15427241 86:0.28685027 146:0.1108833 193:0.053031143 230:0.26997674 249:0.22176659 333:0.20971407 350:0.1494514 360:0.031336583 376:0.096420258 387:0.21212457 432:0.25310317 439:0.24587166 543:0.55923748 598:0.18078798 613:0.17355646 858:0.20730355 #
0.94863391309147049312855415337253 15:0.051254049 432:0.1722136 451:0.094307452 459:0.86721849 543:0.37927997 573:0.13531069 635:0.21116668 #
0.67385223633588997582677393438644 1:0.059900906 12:0.11740577 14:0.13897011 15:0.040732615 23:0.19407894 24:0.17730668 56:0.083861269 57:0.11740577 63:0.093445413 64:0.17011857 110:0.34502921 115:0.24918777 123:0.083861269 130:0.2851283 145:0.1054256 193:0.10302956 196:0.14136614 281:0.13417803 360:0.088653341 366:0.11980181 432:0.064692974 466:0.28033623 543:0.41451427 598:0.33304903 804:0.22762343 863:0.22043534 876:0.12938595 #
-1 1:0.023392346 15:0.03058999 17:0.23572287 43:0.45705044 58:0.22312699 62:0.21592934 124:0.18713877 137:0.17634229 312:0.037787635 350:0.32389402 360:0.066578217 412:0.23572287 432:0.30589989 445:0.22852522 495:0.15834819 543:0.45345163 694:0.15654877 712:0.064778805 #
-1 1:0.003176128 15:0.014292576 91:0.092107713 230:0.28267539 350:0.15721834 391:0.16198252 432:0.36049053 543:0.4986521 558:0.21280058 580:0.2604425 598:0.18262736 694:0.28902766 712:0.19374381 717:0.074639007 801:0.19215575 841:0.41448471 #
-1 49:0.19998844 86:0.15374111 135:0.081245303 296:0.6974597 422:0.13249233 432:0.20623808 472:0.078745447 497:0.37997803 543:0.41622594 585:0.13749205 694:0.20123836 #
-0.82309337937233506554690620760084 1:0.040730137 8:0.012640387 14:0.0098314118 15:0.047752574 17:0.036516674 24:0.021067312 40:0.035112187 47:0.077246808 49:0.025280774 51:0.035112187 60:0.18117888 69:0.030898724 74:0.040730137 94:0.035112187 97:0.12219041 124:0.029494237 127:0.075842321 134:0.068819888 135:0.15028016 142:0.057583984 154:0.082864761 193:0.036516674 202:0.047752574 212:0.16432503 223:0.050561547 258:0.043539111 269:0.053370524 295:0.035112187 304:0.049157061 320:0.12921284 339:0.046348087 344:0.044943597 355:0.053370524 358:0.084269248 360:0.051966038 366:0.167134 376:0.03230321 407:0.044943597 411:0.10533656 432:0.35252634 435:0.088482708 447:0.070224375 453:0.10955002 469:0.36095327 480:0.042134624 509:0.15730259 536:0.12499938 543:0.30196479 549:0.068819888 555:0.13061734 561:0.050561547 569:0.035112187 619:0.068819888 671:0.03792116 680:0.45224497 694:0.29494238 705:0.049157061 718:0.10955002 753:0.092696175 795:0.081460275 844:0.058988474 852:0.054775011 #
-0.64275885414684363894366470049135 1:0.028248679 2:0.30131924 3:0.1573855 86:0.12375612 142:0.22598943 172:0.29728371 173:0.32418722 193:0.1412434 206:0.35781661 318:0.27710608 321:0.18832453 362:0.24885741 431:0.088781558 432:0.42373016 543:0.29324818 642:0.13317235 898:0.10223331 #
0.070887732848380069494709232458263 1:0.0057724551 7:0.15200798 14:0.040407185 15:0.019241517 56:0.12314571 63:0.069269463 84:0.20396009 91:0.12506986 117:0.17702197 169:0.050027944 261:0.11737326 322:0.17317365 360:0.044255491 411:0.22127745 448:0.18664272 543:0.26168463 577:0.17317365 590:0.17702197 606:0.73117763 633:0.16740119 694:0.07696607 717:0.12506986 730:0.14238723 #
1 1:0.03312888 7:0.052059669 10:0.10175299 12:0.059158716 14:0.028396184 15:0.042594276 24:0.059158716 40:0.20587233 41:0.061525065 54:0.32655612 107:0.056792367 117:0.061525065 120:0.059158716 131:0.06625776 202:0.068624109 252:0.073356807 261:0.24136756 288:0.33365515 295:0.052059669 314:0.13724822 360:0.030762533 373:0.078089505 427:0.2768628 432:0.17274345 521:0.25319931 543:0.30525896 580:0.31472436 583:0.18694153 590:0.18457519 592:0.094653942 627:0.080455855 634:0.075723156 667:0.27922913 694:0.18457519 730:0.14671361 889:0.061525065 895:0.09938664 #
0.56684274100583564859334728680551 1:0.017699884 24:0.14381155 130:0.053099651 222:0.33629778 360:0.071905777 445:0.071905777 504:0.089605659 543:0.19027375 606:0.81087595 693:0.3750163 847:0.10177433 #
0.63206398817405018419890438963193 1:0.029278286 7:0.1093056 9:0.10735371 10:0.052700914 15:0.029278286 49:0.078075424 115:0.11125749 196:0.074171655 261:0.16786216 263:0.21470742 272:0.16005462 371:0.039037712 543:0.30644605 587:0.15419897 674:0.089786738 681:0.75928354 760:0.28107154 762:0.25569701 #
1 1:0.017845554 8:0.025957169 12:0.1687216 15:0.0097339386 59:0.074626863 60:0.22225825 61:0.076249182 66:0.077871509 84:0.095717065 139:0.097339384 232:0.11356261 377:0.10058403 418:0.05840363 425:0.073004536 432:0.087605447 490:0.12329655 533:0.2465931 543:0.29364046 688:0.10220636 694:0.30661905 700:0.72193378 714:0.24010381 #
-0.7781954347818162975869427100406 87:0.68176371 542:0.18391766 543:0.37100631 563:0.31075743 640:0.51687205 #
-0.63722477990516990242753081474802 1:0.07875406 8:0.037229192 15:0.01431892 29:0.095936768 49:0.15607622 69:0.091641091 77:0.07875406 79:0.067298926 107:0.11598326 113:0.35367733 130:0.13173406 142:0.087345414 166:0.24198975 175:0.23626219 204:0.1073919 223:0.15178055 248:0.16896325 258:0.065867029 282:0.10882379 303:0.16323569 357:0.084481627 435:0.13316596 543:0.23196651 577:0.07732217 598:0.1073919 611:0.21192002 647:0.18041839 683:0.12887028 689:0.15178055 706:0.17469083 708:0.55843788 #
-0.79978298957893534382179723252193 1:0.02341955 2:0.24200201 10:0.10733961 15:0.029274438 135:0.21272758 159:0.12880753 204:0.22248572 208:0.39032584 252:0.62842458 258:0.27322808 536:0.10343634 543:0.12490427 744:0.052693985 817:0.17759825 873:0.36690629 #
-0.9902301134366526813579412191757 1:0.038365487 15:0.020552941 27:0.30829412 45:0.18223608 60:0.32199606 86:0.10687529 102:0.22334196 128:0.23841411 158:0.25211605 220:0.14250039 269:0.23567371 321:0.10687529 337:0.089062743 365:0.1027647 390:0.23019293 542:0.082211763 543:0.39050588 552:0.3768039 572:0.2754094 597:0.10002431 674:0.13016862 712:0.091803133 798:0.11509646 #
-1 1:0.084919371 8:0.020586515 14:0.046319656 18:0.043746345 78:0.066906169 81:0.056612916 122:0.064332858 134:0.056612916 149:0.043746345 160:0.25475812 166:0.13123903 200:0.180132 212:0.087492689 223:0.082346059 295:0.056612916 315:0.13123903 320:0.24703817 360:0.082346059 361:0.074626118 445:0.17241205 528:0.17755869 543:0.47348982 580:0.180132 590:0.20586514 598:0.22902498 620:0.10293257 659:0.38599715 671:0.061759543 677:0.24703817 693:0.087492689 694:0.023159828 730:0.16469212 734:0.14153229 879:0.23674491 #
1 1:0.024167584 10:0.043803748 14:0.024167584 15:0.024167584 21:0.11026461 36:0.14500551 44:0.070992284 47:0.064950384 49:0.064950384 52:0.12536936 67:0.084586546 134:0.34287763 193:0.045314223 213:0.087607495 233:0.16464168 360:0.025678059 432:0.40933847 439:0.096670337 453:0.17672546 513:0.1283903 543:0.25527012 570:0.20542447 609:0.554344 610:0.018125689 632:0.052866593 634:0.25678059 694:0.016615214 782:0.15859978 862:0.19485116 #
0.52472586574621926658323900483083 1:0.018865742 8:0.045277782 9:0.13017362 13:0.13583334 14:0.10753473 15:0.052824076 23:0.37920141 24:0.23016205 54:0.13960649 63:0.060370374 79:0.083009265 92:0.19431715 107:0.14337964 123:0.21884261 126:0.14337964 192:0.020752316 193:0.067916669 258:0.081122689 318:0.1320602 340:0.049050927 372:0.12828705 432:0.31317133 492:0.12640047 543:0.3150579 580:0.13017362 624:0.34146991 656:0.37731484 661:0.14903936 694:0.15281251 706:0.10753473 #
1 1:0.0027105496 10:0.035237145 13:0.22497563 15:0.020329123 22:0.059632093 25:0.093513966 28:0.37541112 39:0.090803415 40:0.07318484 57:0.085382313 63:0.067763746 68:0.089448139 151:0.11926419 222:0.098935068 346:0.16398826 349:0.14230385 432:0.15450133 540:0.062342644 543:0.75759864 568:0.09215869 694:0.11655363 696:0.23175199 832:0.11113254 #
1 1:0.0098113744 9:0.037283223 10:0.10792512 12:0.12754786 15:0.054943696 36:0.029434124 47:0.027471848 57:0.086340092 64:0.031396396 83:0.037283223 111:0.1177365 112:0.080453269 130:0.22173706 142:0.060830522 145:0.037283223 151:0.17464246 167:0.039245497 171:0.15305744 193:0.019622749 196:0.10203829 226:0.043170046 230:0.094189197 269:0.054943696 273:0.049056873 321:0.025509574 326:0.31592625 327:0.082415543 346:0.16286881 382:0.11969877 432:0.36302087 455:0.10007602 458:0.17856701 491:0.043170046 543:0.54747468 559:0.10792512 661:0.12166104 674:0.092226923 690:0.070641898 694:0.29434124 696:0.11577421 706:0.060830522 769:0.12754786 886:0.12558559 #
0.60059422850772814506115082622273 1:0.013245582 7:0.11921024 10:0.028698761 14:0.015453178 15:0.039736744 22:0.046359535 23:0.055189922 24:0.033113953 36:0.048567135 38:0.044151939 39:0.072850697 52:0.083888687 55:0.066227905 57:0.068435505 61:0.12362543 62:0.22075969 63:0.026491163 81:0.059605118 86:0.17219256 92:0.31127116 111:0.092719071 117:0.068435505 126:0.064020313 150:0.057397522 191:0.068435505 193:0.059605118 196:0.081681088 258:0.035321552 269:0.044151939 319:0.09713427 360:0.033113953 396:0.15011659 432:0.58501321 480:0.068435505 543:0.41502821 553:0.16998497 590:0.070643105 652:0.057397522 701:0.081681088 709:0.26491162 710:0.11921024 876:0.19206093 #
-1 1:0.03756997 3:0.15743606 4:0.078718029 8:0.048304249 13:0.14133465 15:0.017890463 20:0.087663263 24:0.15922511 31:0.22184172 38:0.10376468 61:0.14491273 77:0.10018659 81:0.13775656 96:0.13775656 149:0.10376468 150:0.13238941 167:0.14849083 237:0.19500603 263:0.13775656 317:0.091241352 324:0.16995938 329:0.20216222 372:0.13417846 399:0.22363077 432:0.21826364 543:0.61900997 568:0.17174843 578:0.080507077 816:0.25046647 #
0.77014058121257311650964538785047 9:0.17658953 10:0.042909607 15:0.036308128 24:0.051161453 25:0.11387549 27:0.087469585 63:0.082518473 73:0.10067254 76:0.14028141 78:0.10397328 86:0.24425469 100:0.12707846 115:0.018154064 123:0.074266627 126:0.095721431 196:0.06271404 199:0.15018362 230:0.11387549 283:0.17989028 311:0.18814212 320:0.066014782 365:0.12872882 372:0.087469585 445:0.12872882 461:0.14853325 543:0.054462194 577:0.16503695 580:0.10067254 599:0.74431664 800:0.18814212 #
0.68741061021331817393331675702939 1:0.013353323 7:0.079092756 15:0.020543573 18:0.058549184 22:0.0626579 24:0.090391725 35:0.22289778 37:0.070875332 41:0.093473263 45:0.090391725 91:0.064712256 147:0.12120709 186:0.63787794 193:0.040059969 217:0.1684573 225:0.093473263 230:0.19824548 246:0.49715447 272:0.11504401 312:0.065739438 360:0.022597931 425:0.079092756 543:0.3615669 #
1 1:0.012718859 10:0.05596298 15:0.048331663 27:0.11446973 53:0.10175087 59:0.11955727 63:0.053419206 79:0.073769383 86:0.54436713 117:0.13990745 179:0.21367683 193:0.11955727 224:0.14753877 335:0.1806078 353:0.2798149 463:0.16280138 525:0.31542769 537:0.18569534 543:0.31034017 557:0.1806078 633:0.26455227 656:0.16788894 683:0.13990745 694:0.1806078 #
0.045972458486928248488911918911981 1:0.02743265 7:0.32614374 10:0.079249881 13:0.1645959 14:0.04267301 15:0.064009517 17:0.33223987 23:0.15240361 24:0.27737457 42:0.15849976 47:0.11582675 58:0.31395143 63:0.14630747 139:0.21336506 261:0.12497097 432:0.26823035 592:0.295663 694:0.49683577 764:0.13106711 #
-0.58667040932450853496504805661971 1:0.044013921 8:0.080373242 10:0.055495813 14:0.093768783 15:0.030618379 19:0.26025623 31:0.18562393 54:0.12055986 63:0.053582162 80:0.11099163 86:0.37890244 125:0.13778271 149:0.17414203 154:0.1339554 175:0.12630081 180:0.18562393 226:0.1339554 257:0.22389689 303:0.17414203 314:0.30427015 318:0.11481892 357:0.089941487 360:0.1339554 362:0.22772419 365:0.21432865 432:0.17796932 470:0.23155148 577:0.30235648 640:0.19136487 855:0.091855139 873:0.18945122 #
-0.30211839613541513482886102792691 1:0.01826245 8:0.016740579 15:0.03956864 30:0.044134255 33:0.044134255 36:0.079137281 40:0.048699867 42:0.048699867 47:0.071527928 53:0.085224763 60:0.10044347 77:0.035003029 79:0.062396705 86:0.16284017 124:0.1202278 126:0.053265478 129:0.082181022 136:0.050221737 146:0.10196535 164:0.31350538 190:0.070006058 196:0.033481158 204:0.097399734 216:0.088268511 221:0.056309219 250:0.066962317 252:0.20697443 258:0.39112079 259:0.07761541 269:0.073049799 287:0.091312252 295:0.1460996 307:0.066962317 315:0.054787349 363:0.07609354 374:0.38351145 376:0.13240276 391:0.14305586 432:0.16588391 441:0.094355993 480:0.11566218 503:0.13088089 510:0.1354465 543:0.070006058 575:0.18414637 584:0.086746641 598:0.16588391 648:0.11414031 651:0.07609354 671:0.051743608 694:0.23741184 706:0.11870592 757:0.16436204 777:0.091312252 806:0.20240882 #
-0.49611990870633465577910214960866 1:0.017065722 8:0.025598586 15:0.029255526 47:0.05241615 49:0.21210256 50:0.13164987 66:0.23282522 74:0.084109634 77:0.10605128 79:0.04632125 81:0.073138811 85:0.24989095 91:0.12067904 104:0.074357793 142:0.059730031 160:0.10727026 170:0.058511052 242:0.080452695 360:0.020722663 391:0.10605128 418:0.058511052 435:0.090204537 456:0.74235898 524:0.0060949014 543:0.23282522 561:0.1048323 588:0.11214618 598:0.036569405 674:0.059730031 694:0.25354788 708:0.095080458 711:0.060949013 775:0.10727026 #
-0.27789068620906659523583925874846 1:0.010841754 14:0.087719649 15:0.021683509 79:0.20599332 86:0.078849122 94:0.16262631 103:0.35383543 197:0.23359051 203:0.069978595 313:0.087719649 352:0.5125193 359:0.19416596 472:0.087719649 475:0.090676486 503:0.43268454 534:0.11630245 543:0.14192842 555:0.39720243 598:0.098561399 642:0.040410172 674:0.1340435 #
-0.32731604307304507095466306054732 1:0.013868641 14:0.11193974 15:0.027737282 79:0.13076147 86:0.055474564 94:0.20604838 103:0.22487012 197:0.29619455 220:0.1149116 296:0.26152295 359:0.24666369 432:0.19019851 471:0.07528691 503:0.54880196 543:0.31402567 573:0.11590222 598:0.026746664 674:0.17038617 702:0.39327505 710:0.060427651 #
0.96362790866216951890521613677265 73:0.37960628 209:0.1473099 219:0.50991887 432:0.12842402 453:0.043437533 475:0.075543538 480:0.39849216 543:0.33428016 586:0.064212009 590:0.40038076 668:0.14919849 694:0.11709248 712:0.12653543 835:0.16997296 894:0.18508166 #
0.91080028910870081126915920322062 10:0.061510418 15:0.067661457 17:0.25834376 27:0.12302084 36:0.20298438 44:0.10046702 63:0.11481944 77:0.090215281 84:0.088164933 123:0.10456771 124:0.10251737 140:0.19273265 261:0.098416671 322:0.1435243 324:0.16607814 398:0.19478299 418:0.20093404 428:0.2173368 432:0.12917188 445:0.19888368 449:0.147625 450:0.25424308 543:0.65611112 598:0.077913195 764:0.090215281 #
0.83026663271577783032029174137278 1:0.018203363 9:0.10239392 10:0.050059248 12:0.12059728 15:0.040957566 20:0.065987192 24:0.061436348 38:0.23436829 40:0.20706326 42:0.20706326 67:0.1001185 79:0.065987192 86:0.16838111 115:0.21388951 121:0.11832186 171:0.11832186 196:0.072813451 213:0.10466933 312:0.19341072 324:0.17975821 328:0.1228727 343:0.26849961 402:0.46418574 445:0.29580465 543:0.15927942 562:0.13424981 694:0.357241 706:0.084190555 729:0.013652522 740:0.22526662 #
-0.17758640240401485366206202343164 1:0.044253055 8:0.1115177 14:0.11682807 15:0.028321955 42:0.10620733 43:0.10797746 46:0.20179394 83:0.21595491 86:0.38234639 102:0.7629227 142:0.08850611 149:0.081425622 226:0.12567867 248:0.19294332 324:0.11505795 487:0.014160978 675:0.021241467 694:0.047793299 806:0.22126527 #
-0.45838692365707556231058106277487 1:0.0923298 2:0.10856361 3:0.15219198 4:0.26988712 6:0.099432096 8:0.068993695 10:0.064935245 11:0.053774498 14:0.12581204 18:0.15117736 19:0.15016276 20:0.042613752 24:0.1927765 31:0.26785788 34:0.063920632 37:0.06087679 46:0.061891403 63:0.030438395 138:0.61587018 180:0.091315188 215:0.095373638 243:0.078125216 288:0.063920632 327:0.080154441 342:0.26481405 357:0.10450516 360:0.096388251 366:0.15625043 445:0.061891403 446:0.18364498 508:0.063920632 526:0.12073897 528:0.12581204 543:0.16436733 563:0.17857192 580:0.10856361 697:0.081169054 #
-0.82721702380552497579913051595213 1:0.14297687 2:0.19130707 3:0.40073797 4:0.20338963 5:0.23963729 6:0.065447159 11:0.071488433 14:0.047323328 16:0.14599751 20:0.055378363 24:0.30508444 37:0.16009381 43:0.087598503 47:0.1268668 48:0.20338963 58:0.17116949 82:0.10974985 114:0.12485304 135:0.088605382 360:0.1268668 362:0.1117636 365:0.13995624 432:0.0060412763 485:0.15707318 543:0.52961856 598:0.11478425 645:0.027185742 694:0.094646655 697:0.10672921 710:0.023158224 889:0.10370857 #
-0.63997329142821202108137867980986 1:0.019976063 8:0.05992819 10:0.028537234 15:0.031390958 29:0.20689495 32:0.05992819 42:0.1155758 47:0.04137899 49:0.042805851 74:0.067062497 77:0.08418484 79:0.074196808 99:0.069916219 101:0.079904251 102:0.08275798 123:0.048513297 132:0.48798668 152:0.18121143 170:0.047086436 193:0.058501329 242:0.064208776 281:0.047086436 286:0.08275798 305:0.1041609 321:0.039952125 356:0.20974867 367:0.16836968 397:0.10844149 426:0.20546809 445:0.11842952 500:0.097026594 543:0.3909601 553:0.11272207 579:0.10273404 583:0.13269813 639:0.4323391 694:0.23257846 705:0.081331119 #
0.46072347323065721003132466648822 1:0.0073255752 7:0.16744171 9:0.040813919 10:0.019883703 13:0.1266278 15:0.033488344 17:0.04290694 18:0.1559301 21:0.051279027 23:0.039767407 24:0.024069747 25:0.052325536 35:0.039767407 39:0.051279027 45:0.096278988 49:0.030348811 56:0.033488344 63:0.018837193 95:0.05965111 98:0.20406958 107:0.089999922 119:0.10465107 134:0.16011614 150:0.079534814 161:0.068023197 176:0.66453433 196:0.028255789 198:0.086860389 201:0.075348772 220:0.080581322 239:0.072209239 265:0.088953413 267:0.063837156 268:0.074302264 321:0.084767371 325:0.088953413 360:0.011511618 382:0.066976689 411:0.060697623 418:0.066976689 432:0.22186027 465:0.15383707 477:0.097325496 543:0.035581365 580:0.099418521 602:0.20511611 604:0.19988355 623:0.063837156 655:0.087906897 712:0.14023244 737:0.092092946 765:0.083720855 787:0.23546492 803:0.1077906 #
0.59681558102791698594558056356618 1:0.01026061 8:0.013680814 9:0.04104244 13:0.084365018 15:0.0057003391 22:0.066123933 24:0.11856705 28:0.10488624 40:0.12198725 41:0.14820881 49:0.060423594 54:0.043322578 59:0.042182509 77:0.060423594 107:0.044462644 144:0.051303051 151:0.15390915 207:0.078664675 220:0.11400678 252:0.058143459 304:0.11514685 348:0.069544137 360:0.035342101 434:0.14592868 435:0.051303051 445:0.070684202 543:0.25423512 598:0.19381152 621:0.062703729 694:0.084365018 699:0.069544137 711:0.034202036 792:0.087785222 818:0.63729793 819:0.52443117 871:0.079804748 #
0.71999763395620464123680903867353 1:0.035666402 4:0.0186824 7:0.033968002 8:0.0696344 10:0.032269601 12:0.1171896 14:0.0084920004 15:0.040761601 17:0.033968002 18:0.15285601 19:0.050952002 20:0.084920004 22:0.0543488 24:0.1171896 31:0.0543488 39:0.042460002 41:0.040761601 45:0.1562528 47:0.0237776 51:0.1002056 53:0.028872801 55:0.1120944 56:0.056047201 62:0.095110402 63:0.0152856 69:0.028872801 73:0.0373648 74:0.0390632 77:0.0237776 79:0.064539202 85:0.0390632 93:0.032269601 103:0.073031202 107:0.0373648 111:0.1069992 130:0.11039601 146:0.035666402 149:0.025476001 150:0.096808799 154:0.0390632 157:0.042460002 175:0.0373648 177:0.066237599 194:0.1120944 201:0.0611424 204:0.067936003 224:0.042460002 226:0.0390632 236:0.049253602 255:0.044158399 258:0.1036024 261:0.025476001 295:0.033968002 310:0.1239832 314:0.088316798 321:0.0237776 330:0.086618401 339:0.044158399 357:0.0271744 360:0.1069992 381:0.2496648 425:0.067936003 432:0.056047201 435:0.042460002 446:0.0458568 448:0.2394744 480:0.079824805 489:0.047555201 543:0.61991602 591:0.0526504 607:0.057745602 614:0.073031202 615:0.0526504 619:0.064539202 623:0.0526504 665:0.062840804 669:0.044158399 694:0.049253602 706:0.0271744 707:0.0458568 708:0.044158399 710:0.067936003 711:0.056047201 722:0.19701441 725:0.059444003 730:0.032269601 733:0.095110402 765:0.1392688 804:0.1715384 864:0.0696344 873:0.056047201 876:0.1834272 886:0.0067936 #
0.42811794896608484917166492778051 1:0.016904453 10:0.16300723 13:0.11350133 14:0.060373046 15:0.037431289 23:0.05312828 35:0.15938485 36:0.045883514 39:0.068825275 55:0.061580505 61:0.059165586 63:0.050713357 77:0.041053671 85:0.12799086 107:0.060373046 113:0.061580505 134:0.054335739 193:0.056750663 196:0.038638748 258:0.033808906 263:0.11108641 269:0.042261131 289:0.11712371 358:0.066410348 360:0.080899879 374:0.14610277 375:0.22821011 407:0.071240194 418:0.089352109 432:0.019319374 543:0.15334754 553:0.18353406 568:0.13885801 598:0.11470879 621:0.084522262 652:0.054335739 665:0.10384164 679:0.07848496 681:0.13040578 684:0.039846212 691:0.035016365 697:0.067617811 701:0.077277496 704:0.071240194 710:0.056750663 778:0.10384164 815:0.76432276 #
0.33046300968849617873956958646886 1:0.0047991755 8:0.023995878 10:0.13197733 12:0.079186402 15:0.027595261 32:0.06958805 44:0.053990729 47:0.098383106 54:0.07078784 55:0.075587019 56:0.055190522 59:0.20756435 61:0.071987636 62:0.32034498 64:0.11278063 69:0.057590108 77:0.098383106 79:0.04319258 103:0.074387223 163:0.097183309 191:0.15477341 195:0.41032952 221:0.076786809 226:0.079186402 319:0.11278063 371:0.09238413 372:0.065988667 379:0.11278063 404:0.11518022 418:0.055190522 429:0.13557671 430:0.1403759 480:0.080386192 489:0.097183309 491:0.081585988 522:0.1403759 531:0.15717301 543:0.20036559 571:0.11518022 598:0.098383106 636:0.1583728 651:0.10558186 694:0.12117919 731:0.16437177 732:0.16197218 736:0.18836765 738:0.14997424 739:0.1403759 741:0.19316682 742:0.19316682 743:0.14877445 746:0.1403759 761:0.15717301 #
0.57313266459683687159554210666101 1:0.023585195 12:0.39731982 86:0.081641056 270:0.2104525 302:0.60958654 341:0.21952373 365:0.18323882 371:0.1269972 432:0.19956703 437:0.25399441 461:0.094340779 524:0.13969693 543:0.40639105 897:0.15239663 #
0.60224426158173505196913311010576 1:0.023359844 10:0.077866152 12:0.062292922 13:0.054506306 14:0.10122599 15:0.015573231 18:0.16351892 20:0.033741999 22:0.085652769 24:0.1557323 35:0.051910769 40:0.051910769 41:0.19466537 51:0.10641707 56:0.044124153 62:0.051910769 63:0.023359844 64:0.090843841 72:0.070079535 79:0.033741999 80:0.051910769 84:0.1219903 88:0.049315229 112:0.17390107 135:0.17390107 146:0.057101846 193:0.028550923 194:0.44643259 196:0.036337536 209:0.14015907 222:0.072675072 225:0.12977692 230:0.067483999 328:0.062292922 340:0.23359846 345:0.090843841 357:0.083057225 359:0.44902813 372:0.051910769 543:0.134968 562:0.067483999 590:0.12718138 607:0.093439378 624:0.070079535 710:0.3322289 821:0.26474491 #
0.6530542114811234144511331578542 1:0.0095056864 9:0.093155727 10:0.045627292 14:0.024714785 15:0.038022745 52:0.1330796 54:0.098859139 67:0.091254584 77:0.20532282 149:0.3574138 193:0.047528431 258:0.058935255 263:0.095056862 289:0.15969554 351:0.19201486 358:0.1121671 360:0.026615921 432:0.25095013 437:0.24334557 483:0.1330796 491:0.2243342 543:0.39923882 544:0.16159667 606:0.4600752 651:0.29467627 694:0.12927733 #
0.43576660988597426538149193220306 1:0.034220722 8:0.050190389 14:0.038783483 15:0.038783483 17:0.29657957 22:0.11635045 63:0.06616006 64:0.23954505 76:0.22585675 112:0.15513393 123:0.11863183 126:0.15513393 205:0.26235884 293:0.18479189 321:0.098099396 360:0.041064866 372:0.14144564 402:0.09581802 407:0.18251051 432:0.1346015 543:0.46083903 634:0.2076057 694:0.28973544 724:0.33536306 746:0.26464024 #
0.28802607539644065060002731115674 18:0.32198504 22:0.34313735 53:0.37134042 54:0.44654861 77:0.31023377 130:0.086959466 192:0.20447226 343:0.22327431 362:0.18802047 432:0.15041637 471:0.0023502558 475:0.22327431 543:0.29143173 635:0.23032507 #
-0.68686485928710760973103788273875 1:0.050903775 8:0.079034805 15:0.014735303 65:0.11520328 89:0.14467388 116:0.46483183 124:0.65371162 129:0.17548406 149:0.087072246 183:0.066978648 203:0.097788833 226:0.13261773 229:0.11520328 271:0.21701083 432:0.2036151 543:0.29202691 694:0.23710442 #
-0.4189529343590366883276487897092 1:0.024981486 2:0.19449872 279:0.38364425 350:0.5031985 360:0.10349473 432:0.14096695 475:0.32654372 543:0.43717599 563:0.064238109 707:0.47821701 #
-0.35127587190456593946308316844807 1:0.05744303 8:0.028721515 14:0.066280417 15:0.055233683 47:0.11930475 60:0.58547705 94:0.081745848 104:0.083955199 105:0.12372345 127:0.086164549 154:0.19221322 261:0.064071074 284:0.12814215 295:0.081745848 300:0.1259328 360:0.02430282 361:0.10383932 365:0.1723291 432:0.14360757 475:0.24081886 487:0.12372345 543:0.23198147 554:0.15244496 621:0.12372345 624:0.10604867 627:0.1259328 648:0.3446582 694:0.18558517 709:0.24523756 873:0.13477018 890:0.17011975 #
-0.36720399030920292116064729270875 1:0.061883368 2:0.24154475 3:0.12676109 86:0.057890892 96:0.22158238 130:0.055894654 142:0.18165763 172:0.23855039 173:0.26050901 193:0.11278743 313:0.053898416 321:0.30243 324:0.06687396 432:0.12476485 433:0.091826931 539:0.058889009 543:0.10480247 689:0.060885247 694:0.060885247 703:0.32738298 723:0.011977426 745:0.1167799 843:0.65576404 #
0.26557261990303371312904801015975 27:0.25914747 35:0.25264168 115:0.18433084 130:0.081322424 195:0.40010634 261:0.20601681 312:0.056383546 432:0.055299249 453:0.12577869 543:0.35348147 568:0.32962689 571:0.44673118 651:0.41311792 #
-0.46456387342400390361163431407476 1:0.0047900775 15:0.035127234 70:0.42791361 93:0.50774825 115:0.15328248 118:0.23471381 122:0.1500891 132:0.18681303 170:0.10857509 258:0.16445933 278:0.10857509 374:0.17403948 390:0.070254467 392:0.17244279 414:0.27303442 478:0.27942118 543:0.098994933 620:0.23950388 636:0.15487917 694:0.097398244 711:0.11176848 726:0.20118326 #
0.15330131508856803534968094027136 1:0.041634016 8:0.056045789 10:0.078464106 12:0.092875876 13:0.081666723 14:0.043235321 15:0.054444481 18:0.060849711 24:0.23379099 25:0.10248373 36:0.26261455 39:0.09928111 40:0.15852952 41:0.19375829 45:0.18735306 79:0.051241864 81:0.080065414 110:0.091274567 111:0.12810466 150:0.31065381 177:0.15692821 253:0.14571905 258:0.09928111 261:0.06245102 269:0.060849711 321:0.16493475 366:0.094477184 418:0.064052328 425:0.24500015 492:0.19375829 538:0.13130727 543:0.31866035 591:0.12650335 633:0.18094783 706:0.065653637 711:0.4691833 #
0.078209233950277456948185772489524 7:0.15349667 9:0.14884526 15:0.020156128 17:0.15504715 44:0.12093677 52:0.21396506 63:0.069771215 263:0.30234194 369:0.2062127 408:0.108533 418:0.36436078 524:0.23567165 543:0.51785749 570:0.35195702 675:0.18760705 712:0.24652496 713:0.066670276 726:0.060468387 785:0.13799196 836:0.12403771 #
-0.32507499302906345262087484115909 1:0.011470032 8:0.017205048 14:0.013381704 15:0.03823344 18:0.14528707 21:0.059261832 23:0.045880128 36:0.03823344 42:0.047791801 50:0.21601894 65:0.047791801 66:0.10131862 69:0.040145114 71:0.20454891 79:0.061173506 81:0.047791801 85:0.055438489 86:0.18543218 87:0.16058046 90:0.095583603 91:0.040145114 97:0.10896531 104:0.049703471 105:0.072643533 107:0.10323029 113:0.1567571 122:0.053526815 124:0.03823344 136:0.097495273 141:0.061173506 146:0.099406943 164:0.061173506 170:0.03823344 178:0.047791801 190:0.066908523 204:0.095583603 210:0.21984228 225:0.057350162 247:0.24660569 258:0.028675081 259:0.076466881 274:0.17587383 279:0.051615145 300:0.14719875 321:0.064996846 331:0.23322399 344:0.059261832 358:0.057350162 360:0.013381704 376:0.042056784 418:0.076466881 441:0.091760255 442:0.082201898 455:0.064996846 475:0.12234701 491:0.057350162 500:0.16058046 543:0.20454891 567:0.057350162 590:0.39762777 594:0.1567571 598:0.13572872 612:0.089848585 652:0.047791801 679:0.066908523 680:0.086025238 683:0.057350162 698:0.20454891 711:0.080290228 753:0.12425868 763:0.082201898 772:0.12043533 791:0.11661199 #
-0.32400990031779025590807918888459 1:0.036073752 2:0.072147503 4:0.076656722 10:0.1277612 14:0.036073752 15:0.034570679 24:0.076656722 47:0.094693601 58:0.3847867 63:0.060122918 80:0.12625813 83:0.13227043 109:0.19840564 115:0.079662867 149:0.099202819 178:0.13377349 237:0.1503073 243:0.15481652 244:0.19089027 250:0.18036875 254:0.18788412 269:0.097699746 358:0.15631959 360:0.076656722 414:0.26905006 543:0.21343637 580:0.18638106 641:0.24349782 697:0.15932573 825:0.51705712 #
-0.32338394005756215809910258940363 1:0.11647747 8:0.09284436 15:0.035449665 30:0.12322979 38:0.10128476 46:0.37812975 71:0.19244105 83:0.40513903 94:0.2700927 108:0.16205561 115:0.094532438 294:0.086092047 298:0.17893641 323:0.18231256 400:0.19244105 406:0.16205561 543:0.054018538 576:0.4979834 588:0.20763375 627:0.20763375 683:0.16036753 #
-0.64320947146210960543299961500452 1:0.026599249 15:0.025269287 32:0.39632881 49:0.13964605 53:0.16757527 60:0.39366889 102:0.27264231 192:0.13033631 224:0.24338312 258:0.11836666 317:0.069158047 321:0.13166629 327:0.079797745 335:0.29791158 432:0.0212794 445:0.097087257 453:0.07713782 543:0.55459434 560:0.041228835 667:0.059848312 867:0.16890523 #
-0.25709994594722540561804180470062 1:0.0099475542 15:0.013263406 35:0.097817615 69:0.087870061 86:0.11439688 131:0.13263406 133:0.13926576 149:0.077922508 158:0.49571979 170:0.082896285 271:0.19563523 309:0.19231938 322:0.11937065 363:0.3232955 365:0.29013699 464:0.11771273 538:0.50400943 543:0.20060901 547:0.18568768 589:0.17905597 679:0.14423954 #
0.81015565183330628951097196477349 7:0.11644641 9:0.22734775 15:0.015248934 44:0.092879869 52:0.16357948 61:0.12199147 63:0.052678134 77:0.083176002 150:0.11090134 163:0.33131775 183:0.20655374 205:0.20932627 445:0.124764 462:0.11783267 475:0.047133069 543:0.72501749 661:0.0097038671 694:0.31191 712:0.081789739 876:0.06792707 #
0.33014681099858400603608288292889 1:0.0057972665 8:0.052175399 9:0.14686409 14:0.040580865 36:0.1217426 44:0.11981017 52:0.21063402 63:0.067634776 77:0.10821564 81:0.14879651 231:0.18937737 360:0.042513289 405:0.81354976 512:0.1140129 523:0.15072893 543:0.22995824 694:0.17005315 730:0.14106682 863:0.15845862 #
0.28004620369206062457934081066924 1:0.0066822395 7:0.40594605 10:0.096892476 15:0.026728958 63:0.091880791 78:0.23220782 81:0.20046718 123:0.16538543 140:0.30905357 193:0.10190415 322:0.4627451 345:0.34246477 427:0.13197424 432:0.16872655 543:0.37587598 550:0.11025696 694:0.19211438 876:0.14700927 #
0.29581194294074231176949751898064 1:0.024978239 7:0.14392222 15:0.019031039 27:0.13916448 49:0.10348127 53:0.12370175 55:0.15819551 63:0.065419197 115:0.12608063 129:0.20696254 130:0.071366392 183:0.17960542 193:0.072555833 240:0.63872921 258:0.088018551 326:0.30449662 349:0.12132287 360:0.082071356 394:0.12608063 432:0.21053086 439:0.11061791 543:0.3841891 657:0.16295327 713:0.12370175 876:0.10229184 #
0.27218769306695694831788046030852 1:0.020036016 7:0.13738982 9:0.13452753 10:0.065832622 15:0.054383472 18:0.20608473 23:0.13166524 24:0.080144063 35:0.13166524 51:0.13452753 61:0.1431144 63:0.18891101 126:0.29481566 150:0.13166524 161:0.22612074 193:0.068694912 196:0.18891101 360:0.040072031 399:0.21180931 411:0.4035826 490:0.23184532 543:0.43220547 614:0.29481566 778:0.25474364 #
-0.26658621567596901824614974430006 15:0.032909479 33:0.073562369 49:0.060011405 69:0.06969066 70:0.087113328 75:0.104536 86:0.073562369 103:0.089049183 104:0.16841911 121:0.092920884 123:0.067754813 134:0.079369925 136:0.083241627 142:0.067754813 152:0.12776622 185:0.22649466 255:0.1084077 285:0.094856732 330:0.104536 332:0.26327583 376:0.14712474 388:0.19164932 399:0.12776622 432:0.18390591 442:0.27876264 445:0.081305772 475:0.027101925 480:0.096792586 487:0.26714754 491:0.098728441 543:0.3445816 545:0.40072131 567:0.10066429 584:0.14518888 598:0.12195866 674:0.067754813 688:0.1161511 694:0.24972488 790:0.18777762 #
-0.19898061680295350828195921621955 1:0.055195056 2:0.19487233 3:0.20388378 4:0.30864173 5:0.12165441 8:0.061953634 11:0.14418301 14:0.19261949 19:0.13404514 20:0.11264297 37:0.16220587 43:0.17797589 109:0.26921672 168:0.20726307 360:0.1025051 446:0.49112335 542:0.13404514 543:0.42579043 597:0.22753881 598:0.12503371 691:0.10475796 876:0.11039011 #
-0.19884590180294747785438858045381 1:0.095405139 4:0.21649627 8:0.1045787 10:0.036694285 14:0.060545567 15:0.04036371 19:0.45133969 22:0.17980199 31:0.17980199 35:0.071553849 46:0.069719136 47:0.055041425 60:0.077057995 61:0.23851284 66:0.078892708 85:0.086231567 87:0.16695899 88:0.14127299 90:0.075223282 106:0.082562134 153:0.082562134 155:0.10824814 170:0.12109113 175:0.16512427 196:0.25869471 228:0.21833098 256:0.13209942 258:0.045867853 261:0.058710851 266:0.099074565 281:0.17429784 357:0.058710851 376:0.067884423 377:0.1045787 401:0.1302647 432:0.30089313 485:0.14677714 543:0.14127299 598:0.0036694282 615:0.11925642 622:0.12292585 652:0.073388569 674:0.06238028 788:0.18347141 793:0.17246313 #
0.12742622039179951620724295935361 1:0.0082335733 9:0.24230231 10:0.059987463 14:0.032934293 15:0.032934293 18:0.27876526 24:0.070573486 39:0.151733 47:0.089393087 63:0.11291758 79:0.077630833 272:0.18231484 351:0.1564379 360:0.070573486 402:0.082335733 413:0.18819596 474:0.47519481 481:0.13879453 491:0.1470281 543:0.14585188 590:0.14585188 649:0.14349942 684:0.12467983 709:0.18466729 712:0.09527421 721:0.55635434 #
0.20922126551809491767919269022968 1:0.0070865978 9:0.10452732 14:0.028346391 15:0.014173196 17:0.10984226 21:0.26574743 25:0.136417 27:0.10452732 68:0.12933041 79:0.067322679 123:0.088582471 143:0.40925103 169:0.10275567 193:0.054921132 276:0.19665308 360:0.030118041 396:0.14173196 432:0.25157422 543:0.030118041 605:0.34192833 678:0.13287371 719:0.62007731 820:0.11338557 866:0.099212371 #
-0.13646147634449973251591359257873 1:0.0083023747 15:0.043883979 22:0.132838 30:0.074721374 32:0.34039736 42:0.16367538 71:0.11860535 86:0.14944275 104:0.16960566 108:0.18739647 162:0.40800241 164:0.21111754 166:0.093698233 279:0.088954017 291:0.10318666 367:0.11979141 410:0.11148904 510:0.46018878 543:0.36411843 549:0.15893118 568:0.10318666 580:0.11267509 628:0.13639615 652:0.16248934 664:0.15537301 706:0.067605048 #
-0.080407233584762261013878514859243 1:0.060046308 8:0.12124736 10:0.13510419 14:0.038106311 15:0.018475788 19:0.05311789 30:0.063510522 31:0.11200946 43:0.069284201 60:0.071593679 64:0.057736836 80:0.066974729 86:0.12124736 94:0.13972314 96:0.13972314 97:0.079676837 136:0.14203262 149:0.05311789 162:0.60277259 193:0.03579684 202:0.092378937 226:0.080831572 269:0.051963154 307:0.094688408 321:0.047344204 332:0.55889255 349:0.11200946 418:0.056582101 475:0.077367358 543:0.17436525 555:0.085450515 577:0.11662841 626:0.10623578 652:0.068129465 706:0.056582101 707:0.18706734 710:0.057736836 848:0.070438936 #
0.2177074227697992636620938355918 1:0.048600513 8:0.023563886 10:0.06774617 14:0.038291313 15:0.047127772 17:0.072164401 22:0.055964228 23:0.066273428 24:0.12076492 25:0.088364571 27:0.20471126 53:0.12076492 62:0.13107412 74:0.16200171 76:0.11045571 78:0.081000857 123:0.11487395 130:0.11487395 182:0.17672914 193:0.07069166 196:0.048600513 218:0.097201027 230:0.088364571 239:0.12223766 269:0.051546 276:0.21943869 304:0.097201027 321:0.047127772 328:0.081000857 347:0.094255544 349:0.20176578 360:0.081000857 370:0.22827515 394:0.12665589 430:0.11045571 432:0.49778709 543:0.3946951 621:0.21207498 624:0.17967463 694:0.22680241 #
0.23069120845301613331734813527873 1:0.044500027 14:0.055625036 15:0.063041709 18:0.25587517 24:0.27441683 39:0.083437555 40:0.066750042 59:0.068604209 62:0.12793759 86:0.092708394 95:0.098270893 123:0.055625036 193:0.068604209 230:0.087145887 252:0.096416727 261:0.0519167 360:0.059333369 425:0.13720842 489:0.096416727 543:0.52102119 598:0.13164592 624:0.61187536 655:0.14277092 679:0.09456256 694:0.092708394 722:0.15204176 730:0.064895876 839:0.1093959 #
0.28329206094037023833109856241208 1:0.04735817 10:0.18753834 14:0.10418797 15:0.051146824 18:0.14586316 23:0.18564402 24:0.55882639 27:0.37886536 45:0.22353056 92:0.19322133 124:0.15912345 193:0.09850499 196:0.1344972 258:0.11934259 360:0.056829803 432:0.38454834 519:0.090927683 543:0.35045046 635:0.026520574 #
0.16241040208331966598898077336344 1:0.015264842 2:0.02583281 7:0.14560311 8:0.01643906 9:0.14208044 10:0.069278896 13:0.049317181 15:0.018787498 18:0.036400776 22:0.038749214 23:0.22897263 24:0.11037654 27:0.14090623 45:0.055188272 53:0.042271867 63:0.022310153 74:0.055188272 79:0.030529683 81:0.048142962 95:0.069278896 96:0.096285924 107:0.051665619 119:0.54836005 126:0.051665619 142:0.038749214 182:0.12211873 196:0.066930458 207:0.18200389 222:0.3229101 253:0.075149991 258:0.029355465 267:0.073975772 304:0.066930458 318:0.048142962 321:0.065756239 360:0.014090623 370:0.23484372 418:0.077498429 432:0.15029998 468:0.1326867 524:0.12564139 543:0.3851437 544:0.16556482 667:0.13151248 675:0.035226557 694:0.11859608 704:0.061059367 752:0.092763267 884:0.10685389 #
0.22686158742418588429856640686921 10:0.056296121 15:0.047216102 21:0.14346431 36:0.094432205 77:0.083536178 110:0.26150456 130:0.11440825 258:0.070824154 314:0.15254433 335:0.17796838 418:0.0926162 448:0.16525635 474:0.44673696 499:0.28329661 519:0.17796838 520:0.46489701 533:0.19612843 543:0.45036897 730:0.10896023 #
0.15689698659727233098770682317991 1:0.023937186 13:0.14628281 15:0.037235621 18:0.10904718 36:0.23405248 44:0.11436655 52:0.20213623 63:0.066492185 67:0.13830374 74:0.16756031 169:0.15692155 179:0.26064935 261:0.22341374 440:0.1063875 445:0.39895311 492:0.24469124 543:0.561194 847:0.2712881 854:0.20745562 #
0.10322544546416959065915364135435 15:0.018690199 22:0.1121412 25:0.1781799 31:0.11338721 36:0.22802043 44:0.11338721 52:0.19936213 63:0.064792693 64:0.2342505 67:0.13456944 68:0.17070383 115:0.20683821 150:0.40495431 354:0.14952159 368:0.63546675 462:0.07849884 543:0.20060813 694:0.2055922 735:0.099681064 #
0.037527499963597318877184250140999 1:0.030582327 10:0.10397991 15:0.057087012 24:0.12436813 27:0.20999864 51:0.20999864 53:0.18553278 261:0.16718338 312:0.24669744 314:0.28135741 360:0.061164655 445:0.1121352 475:0.27727976 479:0.30174562 512:0.25689155 521:0.34863853 543:0.20388217 632:0.28747386 694:0.28135741 715:0.32213384 #
0.060003937372402629812917496110458 1:0.030427517 10:0.20469421 15:0.07191959 23:0.20192806 24:0.24618627 27:0.10511325 35:0.10234711 36:0.17150055 54:0.11064552 63:0.049790483 110:0.11894393 147:0.32917041 193:0.055322759 196:0.14660531 211:0.17703283 229:0.1161778 230:0.27108151 258:0.13000849 272:0.15766986 360:0.030427517 387:0.21299262 482:0.17150055 543:0.45364663 624:0.13554075 820:0.19086352 876:0.37619478 #
-0.23253604841190933516514860457391 1:0.025551915 8:0.017689787 14:0.055034894 15:0.066828087 20:0.03144851 29:0.17886341 33:0.090414472 38:0.037345108 42:0.0491383 47:0.072724685 58:0.0982766 62:0.094345532 65:0.05110383 66:0.053069364 70:0.053069364 78:0.11596639 85:0.057000428 91:0.041276172 99:0.060931493 101:0.068793617 103:0.11006979 104:0.15527703 112:0.055034894 123:0.082552344 124:0.041276172 129:0.3931064 141:0.13169064 149:0.076655746 153:0.055034894 170:0.041276172 187:0.092380002 200:0.20834638 210:0.076655746 234:0.18279447 236:0.072724685 238:0.086483404 244:0.072724685 250:0.068793617 251:0.074690215 258:0.03144851 263:0.05110383 273:0.066828087 278:0.12382852 279:0.055034894 306:0.068793617 310:0.060931493 321:0.033414043 332:0.080586813 357:0.039310638 358:0.11989745 360:0.17493235 366:0.058965959 372:0.0982766 425:0.05110383 445:0.20638086 455:0.068793617 510:0.070759147 518:0.11400086 530:0.066828087 543:0.4048996 546:0.092380002 623:0.078621276 674:0.041276172 694:0.36558893 701:0.13955277 704:0.064862557 711:0.12579404 730:0.047172766 763:0.086483404 #
0.26820047671172708714237842286821 1:0.033664864 15:0.01553763 17:0.24860208 28:0.46094966 59:0.24601246 72:0.1553763 81:0.12171143 92:0.23824365 165:0.1553763 175:0.13206986 220:0.20457879 297:0.24601246 360:0.033664864 432:0.25119168 482:0.2615501 543:0.38067192 557:0.18386194 712:0.3159318 730:0.11394262 #
0.068104208317962267038581103406614 1:0.0048109693 7:0.038487755 15:0.025017042 21:0.093332805 24:0.043298725 38:0.027903622 50:0.033676784 59:0.038487755 63:0.034638979 111:0.05965602 115:0.12893398 120:0.042336531 147:0.058693826 150:0.036563367 229:0.12027424 240:0.50707614 261:0.058693826 291:0.093332805 310:0.046185307 322:0.043298725 333:0.033676784 360:0.02213046 369:0.10199255 418:0.02982801 430:0.13759373 443:0.63793457 487:0.05965602 543:0.37814221 590:0.17896806 638:0.08755964 661:0.093332805 674:0.030790204 694:0.12027424 701:0.051958468 720:0.052920662 785:0.089484029 858:0.074088931 #
-0.14759242777243047894941696540627 1:0.053944055 30:0.35554036 32:0.4021284 46:0.36534837 91:0.32489032 258:0.24029624 432:0.41806641 543:0.44994247 667:0.099306099 694:0.087046087 747:0.13240814 #
-0.072758439250389925212481045946333 1:0.01567293 15:0.062691718 38:0.023509394 47:0.022203317 50:0.057467408 65:0.031345859 71:0.38137463 79:0.11885305 87:0.035264093 93:0.030039782 103:0.13713814 113:0.033958014 124:0.10318012 135:0.14105637 148:0.037876248 154:0.14628068 168:0.10971051 174:0.061385643 178:0.095343657 203:0.14758676 204:0.1567293 227:0.46496359 231:0.039182324 235:0.035264093 258:0.019591162 261:0.073140338 262:0.13975029 277:0.083588958 279:0.033958014 294:0.062691718 329:0.045712713 344:0.039182324 351:0.066609949 359:0.074446417 374:0.040488403 386:0.054855254 418:0.024815472 421:0.050937023 432:0.20505416 455:0.043100558 480:0.036570169 496:0.053549178 497:0.34611052 535:0.12146521 543:0.082282878 584:0.054855254 598:0.14889283 617:0.050937023 633:0.035264093 639:0.094037578 656:0.044406634 674:0.026121549 687:0.057467408 697:0.037876248 698:0.044406634 704:0.20113593 711:0.052243099 730:0.29778567 784:0.062691718 786:0.057467408 795:0.071834259 822:0.070528187 825:0.041794479 883:0.13713814 #
-0.067380875191038844262969575993338 1:0.0031565144 8:0.026830371 15:0.015782572 23:0.072599828 30:0.069443315 33:0.034721658 34:0.036299914 40:0.074178085 42:0.037878174 44:0.029986886 47:0.11047801 49:0.026830371 70:0.080491118 71:0.082069375 77:0.055239003 79:0.023673858 83:0.037878174 86:0.19096912 87:0.42455119 90:0.2288473 101:0.052082486 103:0.041034687 104:0.11679103 112:0.12310406 113:0.083647631 121:0.17203003 123:0.031565145 125:0.04576946 132:0.15940398 134:0.036299914 141:0.048925973 144:0.047347717 146:0.078912862 150:0.036299914 155:0.055239003 161:0.063130289 174:0.074178085 185:0.10416497 210:0.11679103 221:0.042612944 225:0.091538921 226:0.0441912 231:0.047347717 234:0.04576946 238:0.066286802 241:0.047347717 251:0.055239003 256:0.066286802 261:0.029986886 262:0.39614254 277:0.05050423 285:0.17518654 291:0.094695434 305:0.067865059 306:0.20517343 308:0.058395516 310:0.04576946 339:0.048925973 357:0.089960657 358:0.04576946 362:0.11047801 373:0.05681726 376:0.034721658 377:0.10574323 395:0.067865059 415:0.091538921 417:0.066286802 425:0.037878174 496:0.064708546 501:0.1325736 506:0.066286802 509:0.055239003 514:0.05681726 543:0.16887352 551:0.061552029 556:0.058395516 557:0.058395516 588:0.058395516 622:0.1846561 626:0.058395516 639:0.05681726 668:0.16571701 679:0.053660743 685:0.071021572 688:0.053660743 711:0.094695434 768:0.05681726 791:0.091538921 881:0.11363452 #
-0.068959658452113797855176358098106 1:0.0059958221 8:0.053962402 15:0.020985378 25:0.097432114 47:0.055461358 49:0.055461358 51:0.074947782 60:0.077945694 66:0.082442559 86:0.13640496 93:0.29229635 118:0.13490601 120:0.086939424 121:0.086939424 130:0.059958223 132:0.32227546 160:0.22634229 222:0.10342794 231:0.19486423 234:0.092935249 255:0.10192898 258:0.094434202 274:0.28480157 295:0.076446734 347:0.10342794 366:0.089937337 373:0.11392062 376:0.068951957 478:0.48266369 509:0.22634229 527:0.14389974 543:0.026981201 608:0.14240079 620:0.13790391 643:0.038972847 663:0.14389974 674:0.062956132 694:0.052463446 705:0.1079248 706:0.062956132 710:0.092935249 759:0.15139452 779:0.21285169 #
-0.14175185616701321822397119376546 1:0.049916077 14:0.12201708 15:0.012201708 18:0.067664012 27:0.088739693 79:0.11425235 80:0.086521201 94:0.089848936 103:0.19633657 113:0.098722905 129:0.062117785 197:0.1297818 235:0.1009414 352:0.14198351 359:0.64669049 390:0.1874626 432:0.077647232 494:0.14642049 515:0.054353062 541:0.21630299 543:0.14087425 573:0.085411951 636:0.10537838 674:0.074319489 685:0.51247174 712:0.033277385 723:0.063227028 #
-0.024754420612097191578548915913416 1:0.019546118 14:0.15202536 15:0.018460222 79:0.17700095 80:0.13465104 103:0.30513659 197:0.20089065 203:0.044521712 235:0.31273788 334:0.19328938 352:0.22043677 359:0.66891158 378:0.054294769 432:0.11184722 475:0.069497302 494:0.22695214 543:0.070583202 555:0.17048557 574:0.16722789 674:0.11510491 694:0.11401901 #
0.17369009870453025468073349202314 1:0.0060475147 7:0.10280775 10:0.098776072 12:0.11691862 15:0.040316764 41:0.24391642 44:0.082649365 54:0.10683943 61:0.10683943 63:0.046364278 67:0.096760236 72:0.13102949 73:0.22778971 150:0.096760236 197:0.14514035 219:0.1532037 239:0.17940959 335:0.15723538 432:0.1108711 445:0.062490985 459:0.23182139 543:0.71159089 580:0.18142544 598:0.23383723 679:0.14110868 #
0.083665603109377983948036217043409 1:0.029135114 10:0.036904477 15:0.021365749 18:0.28940877 24:0.2661007 40:0.07575129 45:0.35350603 53:0.13207918 54:0.079635978 62:0.071866609 63:0.034962136 126:0.16509898 196:0.052443203 224:0.097117044 229:0.2233692 245:0.097117044 328:0.089347683 360:0.044673841 429:0.15150258 432:0.19423409 457:0.31271687 543:0.14373322 649:0.07575129 696:0.4797582 766:0.3845835 825:0.10100172 #
0.041877522147778151184738248957729 1:0.027196011 7:0.13295828 9:0.1299365 14:0.03626135 15:0.018130675 51:0.12842561 63:0.12087116 67:0.12691472 117:0.15562162 140:0.2024592 193:0.066479139 263:0.13144739 333:0.21756808 336:0.22512254 360:0.075544477 371:0.19943741 381:0.23267698 398:0.17677407 432:0.10878404 544:0.67990029 633:0.14806718 676:0.31124324 713:0.084609814 #
-0.044639082879569830231147875565512 1:0.053336859 2:0.064973988 3:0.33941638 4:0.10279467 5:0.1619501 6:0.04460901 8:0.040729966 10:0.029092832 11:0.048488054 14:0.11249229 16:0.098915629 19:0.44899938 20:0.037820682 34:0.057215903 48:0.13770607 58:0.058185663 86:0.062064707 110:0.066913515 138:0.31420258 215:0.085338973 288:0.062064707 316:0.56924975 320:0.084369212 342:0.078550644 360:0.068853036 365:0.11443181 432:0.10570396 445:0.022304505 539:0.11540157 543:0.16776866 694:0.2240148 699:0.079520404 #
-0.023467570092017553395891127365758 1:0.11822873 2:0.11601884 3:0.2430871 4:0.36905041 5:0.28949463 6:0.31932804 11:0.17237085 20:0.13480285 82:0.26739579 108:0.07182119 109:0.32153794 290:0.32264286 360:0.061876714 432:0.081765659 475:0.11270402 543:0.20993885 565:0.15137696 641:0.39335912 646:0.057456952 694:0.081765659 772:0.067401424 #
-0.035920848461985295518861249775 1:0.0089350119 15:0.035740048 21:0.11280453 30:0.041324433 32:0.046908814 36:0.073713854 49:0.26358286 50:0.12285642 65:0.045791939 71:0.064778842 75:0.1139214 87:0.10051889 88:0.042441308 90:0.180934 91:0.18763526 99:0.054726951 106:0.050259445 128:0.27363476 142:0.073713854 162:0.11168765 166:0.05137632 169:0.033506297 170:0.036856927 220:0.13402519 242:0.050259445 256:0.079298235 279:0.04802569 330:0.11503828 357:0.035740048 388:0.10386952 390:0.050259445 432:0.067012593 543:0.28592038 564:0.065895714 567:0.1094539 589:0.078181356 593:0.61874962 598:0.16976523 636:0.26246598 694:0.15412895 705:0.062545083 828:0.12509017 #
-0.018570147436376943650415682895982 1:0.0098534459 8:0.051456887 14:0.019706892 15:0.049267232 24:0.042698268 29:0.032844823 30:0.033939648 33:0.032844823 38:0.19487928 42:0.073353432 49:0.053646542 65:0.074448258 66:0.078827567 71:0.026275856 77:0.027370684 79:0.1642241 94:0.037224129 97:0.042698268 101:0.051456887 116:0.30217236 120:0.16641375 122:0.041603439 125:0.044887923 128:0.055836197 131:0.048172403 135:0.17188789 136:0.075543091 142:0.030655166 149:0.11276722 151:0.061310332 155:0.053646542 159:0.13575859 167:0.040508613 180:0.070068948 196:0.076637916 202:0.049267232 204:0.037224129 206:0.048172403 234:0.044887923 235:0.083206877 258:0.068974122 266:0.049267232 269:0.055836197 284:0.1160517 308:0.056931023 341:0.13794824 361:0.047077578 374:0.048172403 421:0.060215507 424:0.060215507 460:0.075543091 508:0.089775845 543:0.065689646 573:0.10072412 596:0.070068948 601:0.066784471 611:0.073353432 631:0.058025852 635:0.052551713 654:0.066784471 661:0.068974122 667:0.16531894 677:0.26494822 682:0.64704299 697:0.044887923 751:0.090870671 755:0.061310332 758:0.060215507 851:0.064594813 900:0.11495687 #
-0.027214018339674992535970332596662 1:0.027259974 15:0.0083876848 30:0.059762251 38:0.049277645 46:0.24743669 83:0.066053018 86:0.10484605 88:0.18662597 102:0.094361447 117:0.078634545 130:0.052423026 135:0.13734834 149:0.050326105 159:0.03564766 167:0.071295321 196:0.046132263 204:0.066053018 208:0.11533066 248:0.07024686 285:0.15831755 400:0.094361447 470:0.07024686 503:0.17614137 543:0.50745493 576:0.12162142 598:0.14992987 615:0.10484605 637:0.6584332 694:0.047180723 #
0.019696924698566081052275578144872 1:0.011043551 8:0.011043551 10:0.062580124 12:0.11166258 15:0.0036811838 22:0.051536575 24:0.055217758 40:0.062580124 41:0.077304862 61:0.10184608 72:0.040493023 77:0.04662833 81:0.031903595 92:0.16442621 136:0.033130653 141:0.041720085 220:0.085894294 229:0.23682283 284:0.050309513 372:0.030676533 409:0.16688034 434:0.22700635 461:0.094483718 668:0.13497674 674:0.026995348 695:0.022087103 701:0.088348411 711:0.079758987 807:0.11288964 818:0.63684481 819:0.52395517 876:0.20246512 #
