SVM-light Version V6.02
0 # kernel type
3 # kernel parameter -d 
1 # kernel parameter -g 
1 # kernel parameter -s 
1 # kernel parameter -r 
empty# kernel parameter -u 
400 # highest feature index 
300 # number of training documents 
214 # number of support vectors plus 1 
0.74403614 # threshold b, each following line is a SV (starting with alpha*y)
-1 #
-1 12:0.89335531 33:0.17867106 190:0.20908315 254:0.20148014 292:0.29271641 #
-0.30830823653019195917934780482028 6:0.17094648 120:0.18273589 262:0.96673179 264:0.053052355 #
-0.73762037265504076799516042228788 6:0.053944621 9:0.16902648 21:0.10788924 109:0.10429294 125:0.18700802 152:0.26253048 172:0.65093178 211:0.16183387 263:0.19420063 275:0.55023515 282:0.18700802 304:0.12946709 #
-1 3:0.33166566 33:0.31215593 55:0.87143528 264:0.18209095 #
1 3:0.18202573 6:0.10024606 23:0.18202573 43:0.18730184 109:0.14509298 127:0.34822315 128:0.24533904 130:0.21632044 151:0.12926465 152:0.18202573 202:0.14773104 204:0.1899399 251:0.32184261 254:0.57245773 275:0.058037192 382:0.31129038 #
1 3:0.0816219 6:0.11660271 7:0.34980816 11:0.1632438 12:0.29733694 14:0.33231774 26:0.1807342 33:0.15741366 41:0.12243285 84:0.11660271 98:0.21571502 109:0.13409312 208:0.69378614 #
0.19553452037667662377629085312947 2:0.14914194 3:0.038016573 6:0.070184439 7:0.15499064 9:0.28366211 10:0.12282277 11:0.14621758 12:0.1754611 14:0.073108792 17:0.18423416 21:0.061411384 27:0.084806196 33:0.070184439 38:0.084806196 39:0.087730549 40:0.11989842 43:0.076033145 56:0.064335734 57:0.081881844 61:0.11697406 79:0.093579255 84:0.157915 98:0.19300722 99:0.090654902 119:0.15206629 152:0.073108792 167:0.19300722 234:0.14036888 236:0.23394813 270:0.52345896 275:0.19300722 289:0.18715851 290:0.31290564 358:0.14621758 #
0.91735270926393652768382480644505 1:0.085319199 6:0.022160832 8:0.063158371 10:0.067590535 12:0.097507656 16:0.24044502 20:0.10083178 22:0.097507656 65:0.13074891 78:0.68809384 81:0.043213621 93:0.18171881 99:0.10083178 101:0.21385202 106:0.53629214 116:0.12410066 127:0.070914663 175:0.085319199 #
0.099727777866092118252971943093144 1:0.16129071 3:0.076165058 6:0.042562827 7:0.16353086 10:0.12768848 11:0.30466023 12:0.1836922 13:0.20161338 23:0.15681042 25:0.13888922 27:0.3539435 31:0.16801116 33:0.14560968 34:0.13216877 38:0.1792119 41:0.11648773 43:0.15905057 81:0.080645353 94:0.22177473 144:0.26657769 185:0.10080669 232:0.3629041 275:0.16577101 329:0.27105799 346:0.21953458 380:0.17697175 #
-1 6:0.078151621 14:0.57311189 98:0.73809868 382:0.34734055 #
-0.30163323302397837544219783012522 12:0.78010577 33:0.61541677 72:0.11268194 #
-1 10:0.49167895 14:0.29961687 130:0.70678848 142:0.41101286 #
-1 3:0.42763326 5:0.11212336 6:0.11733839 11:0.6336273 12:0.31811741 43:0.10951583 57:0.11994591 81:0.057365436 84:0.45892349 100:0.16948879 238:0.13819855 #
-1 3:0.085542761 6:0.094097041 10:0.41915953 16:0.16680838 31:0.55602795 84:0.60307646 109:0.13686842 154:0.24379687 270:0.17108552 #
1 19:0.35934916 31:0.3845036 81:0.18506481 127:0.11678848 153:0.74564952 172:0.29286957 275:0.11499173 386:0.14194292 #
1 1:0.33466643 6:0.043309771 12:0.19292535 16:0.31498015 77:0.40159971 81:0.33860368 144:0.22836061 168:0.33860368 185:0.38978794 211:0.39372519 #
1 3:0.075490914 6:0.0651967 14:0.15441322 25:0.13725621 30:0.16127604 33:0.072059505 54:0.18872727 75:0.28823802 81:0.16127604 98:0.1990215 135:0.24362977 146:0.37745455 196:0.21960993 225:0.42549422 229:0.25049257 235:0.24362977 262:0.35686612 272:0.22647274 #
0.54141924617792591689635628426913 1:0.13962838 6:0.055045806 7:0.14231355 12:0.079212256 15:0.35041356 16:0.1315729 53:0.13291548 55:0.17453548 58:0.14768387 63:0.17050774 81:0.28059936 84:0.28596967 125:0.19198903 143:0.23360904 161:0.12888774 209:0.5893929 238:0.17185032 263:0.19870193 296:0.071156777 355:0.14768387 #
0.58275279708642735432277959262137 1:0.17988022 2:0.1744293 6:0.023620635 7:0.18169719 21:0.14172381 24:0.25074214 33:0.081763737 110:0.35430953 149:0.24165726 168:0.12718803 172:0.42698839 224:0.27617973 239:0.41245261 279:0.21985359 292:0.28889853 293:0.078129791 335:0.1617105 365:0.14535776 #
-1 6:0.076243147 7:0.58752072 32:0.53818697 127:0.094182715 185:0.56958115 292:0.16145608 #
-0.26724437675724771468210860803083 6:0.19694154 16:0.17788269 41:0.27317697 177:0.33670652 185:0.65435416 264:0.088941343 270:0.5527069 #
-1 #
-0.1003949033054061246161836606916 6:0.14833547 81:0.18541934 127:0.77134442 142:0.4969238 185:0.31892124 #
-1 2:0.23932189 6:0.029915236 11:0.22935013 12:0.13960443 14:0.23433602 20:0.28918061 21:0.38889807 24:0.33903933 26:0.50357312 30:0.24430776 33:0.2193784 147:0.089745708 259:0.30912411 #
1 10:0.39975995 32:0.4703058 216:0.10346728 226:0.091709636 261:0.19282538 291:0.75013775 #
0.11645666565101107925439549717339 1:0.1655641 2:0.16155852 3:0.078776471 5:0.056078166 6:0.021363111 8:0.041391026 10:0.044061415 11:0.26036292 12:0.12550828 14:0.16022334 22:0.062754139 25:0.048067 33:0.025368694 39:0.062754139 43:0.05474297 46:0.078776471 49:0.058748554 55:0.62353581 57:0.058748554 76:0.13886023 84:0.076106079 89:0.20695513 97:0.36717847 108:0.085452445 113:0.084117249 125:0.076106079 150:0.26703888 172:0.08812283 199:0.15087697 224:0.14286581 231:0.18826242 279:0.040055834 321:0.10548036 384:0.12150269 #
1 3:0.15995735 4:0.2532658 6:0.05865103 8:0.16528927 10:0.61316985 21:0.087976545 25:0.3812317 29:0.12796588 33:0.05065316 34:0.18128499 35:0.10397228 36:0.13329779 38:0.12263397 40:0.17062117 43:0.10930419 52:0.11730206 54:0.12796588 56:0.090642497 64:0.11197015 67:0.30658492 99:0.13063183 130:0.12529993 142:0.14662758 172:0.087976545 177:0.082644634 275:0.015995735 #
1 2:0.073105916 3:0.10732571 4:0.085549481 5:0.22398409 6:0.059106912 9:0.09177126 10:0.35308602 11:0.21154054 12:0.21154054 13:0.093326703 14:0.14310095 16:0.069995031 19:0.073105916 29:0.085549481 33:0.066884138 34:0.060662359 39:0.25509301 54:0.087104924 56:0.060662359 59:0.42463651 64:0.076216809 72:0.097993039 84:0.15243362 91:0.12132472 96:0.33442071 97:0.099548489 98:0.093326703 109:0.05755147 127:0.14621183 142:0.099548489 203:0.25975934 226:0.14310095 243:0.17420985 262:0.082438588 281:0.18509796 290:0.10110393 #
0.86999269510207466460371961147757 2:0.13326767 3:0.065376595 6:0.072920047 8:0.20367323 9:0.16847044 10:0.21624565 11:0.12823869 12:0.23384704 14:0.26402086 16:0.12823869 23:0.13326767 25:0.11818076 58:0.39477402 72:0.23133256 81:0.067891076 84:0.093035921 92:0.13326767 142:0.18104286 163:0.24893394 203:0.15841252 207:0.1760139 262:0.15086906 370:0.29419467 382:0.26904982 383:0.30676708 #
-1 6:0.18124299 17:0.36248598 19:0.2230683 25:0.3903695 41:0.16033034 57:0.24398094 84:0.15335946 96:0.25792271 203:0.52978718 269:0.34854421 278:0.23701006 #
-1 25:1 #
-0.90981524267421565177471620700089 6:0.047057737 26:0.35293305 43:0.67449427 99:0.40783373 291:0.50194919 #
-1 6:0.038834341 54:0.6666562 59:0.54368079 110:0.27831277 116:0.41423297 254:0.097085856 #
-0.58433226545027228127082707942463 6:0.063258052 25:0.42172033 41:0.70286721 54:0.56932247 #
1 5:0.17337309 6:0.044131331 8:0.12924176 17:0.27739695 21:0.13554624 24:0.23957008 33:0.078805953 35:0.16391638 39:0.19859099 71:0.18598205 75:0.30891931 109:0.264788 185:0.47283569 212:0.29000589 369:0.32152829 371:0.24587457 398:0.23326561 #
1 3:0.047043752 4:0.22215106 6:0.052270837 18:0.11760938 31:0.10192813 32:0.088860422 36:0.11499584 53:0.21431044 66:0.091473967 71:0.31362504 95:0.43123442 109:0.07317917 130:0.10976876 154:0.13329063 185:0.29271668 203:0.2247646 228:0.16203959 234:0.17772084 282:0.26658127 292:0.40248546 306:0.25874063 343:0.18033439 #
1 3:0.082887158 6:0.091175877 7:0.34812608 14:0.16577432 17:0.27352762 21:0.13538237 33:0.15472271 41:0.12156784 44:0.11880493 56:0.14090817 61:0.25971311 109:0.13261946 130:0.19340338 163:0.262476 172:0.27076474 177:0.29286796 185:0.26800182 187:0.19892919 188:0.34260026 325:0.12156784 400:0.27629054 #
1 2:0.12725326 3:0.062212706 4:0.14987607 6:0.050901305 12:0.076351956 19:0.25733438 35:0.12442541 53:0.26581794 72:0.14704822 84:0.090491213 127:0.24036728 133:0.15270391 139:0.33368632 164:0.57688147 185:0.36762053 237:0.16684316 303:0.016967101 306:0.27995718 #
1 2:0.22233944 3:0.2178019 6:0.061256785 7:0.23141451 63:0.27905867 81:0.11570726 130:0.5195483 136:0.12931988 168:0.2178019 190:0.16335142 246:0.46963534 270:0.22233944 342:0.27452114 395:0.22007066 #
-1 3:0.24722037 8:0.57555991 12:0.73393548 33:0.11588454 185:0.23563191 #
-1 #
-1 53:1 #
0.067856592503604873378719730681041 2:0.089383505 3:0.13063742 5:0.18220483 6:0.058443058 7:0.09282133 9:0.22345875 12:0.10313481 13:0.11344829 25:0.15470222 33:0.041253924 35:0.17189135 36:0.2165831 38:0.099696986 39:0.10313481 41:0.065318711 49:0.096259154 61:0.13751309 81:0.044691753 84:0.061880887 89:0.34034488 94:0.12376177 97:0.2406479 125:0.24752355 150:0.14438874 184:0.37472314 229:0.26815051 257:0.13751309 259:0.23033442 299:0.017189136 344:0.33346921 388:0.16845353 #
-1 3:0.27510393 10:0.9039129 12:0.32750466 #
1 8:0.35837361 10:0.3819164 25:0.41330677 26:0.49701449 41:0.34529427 58:0.096787035 80:0.22758032 139:0.24850725 264:0.25635484 #
1 6:0.041548807 11:0.1495757 14:0.15373059 23:0.15373059 25:0.13711105 31:0.49858567 33:0.14334337 41:0.22851843 77:0.1184141 81:0.15996291 84:0.10802689 98:0.19943427 111:0.26591235 135:0.24306051 180:0.28045443 253:0.068555526 256:0.099717133 270:0.3095386 275:0.15165314 278:0.16619523 292:0.26591235 330:0.1288013 337:0.20151171 #
0.29747554594868896860049289898598 2:0.11871926 3:0.058148209 6:0.04845684 24:0.16959895 26:0.12598778 35:0.11629642 41:0.26166695 81:0.060571052 110:0.1211421 120:0.20351873 145:0.24470705 181:0.31012377 206:0.16959895 211:0.28589538 231:0.20594157 250:0.58632779 269:0.37554052 #
1 6:0.057013024 189:0.10490397 193:0.96466035 264:0.23489366 #
1 12:0.20462312 22:0.40924624 25:0.30693468 36:0.42760986 145:0.039350599 151:0.12067517 160:0.69125885 189:0.087883003 212:0.091818064 285:0.059025899 #
-0.94408797894950857720886006063665 6:0.074226961 41:0.40824831 49:0.60123837 58:0.68288803 #
-1 6:0.055506848 14:0.83260268 22:0.49216071 292:0.24793059 #
-1 58:1 #
-1 #
-1 6:0.10421041 8:0.57789409 14:0.75789392 292:0.28421021 #
1 3:0.2324494 6:0.081671409 11:0.22930819 12:0.27956751 14:0.1193659 16:0.1162247 17:0.1947549 26:0.12564832 33:0.056541745 50:0.13507195 65:0.37380376 81:0.06282416 84:0.16648403 91:0.20103732 100:0.13193074 101:0.30783838 116:0.17904885 159:0.24187301 205:0.1947549 259:0.15391919 354:0.21674335 382:0.42720428 #
1 6:0.076668024 8:0.31118199 12:0.33373141 18:0.10147239 19:0.081177905 30:0.083432853 32:0.155591 46:0.11951192 56:0.067648254 81:0.083432853 101:0.10598227 109:0.063138373 175:0.16686571 209:0.11725698 259:0.74413085 271:0.17363052 282:0.11500204 299:0.18490523 304:0.078922965 367:0.13304158 #
1 3:0.22853261 6:0.062327076 8:0.17774759 11:0.2262242 12:0.68098104 14:0.46168205 22:0.27239239 45:0.23545784 81:0.12003733 84:0.16389713 219:0.11080369 264:0.032317743 #
1 3:0.078600593 5:0.31931493 6:0.063862979 12:0.18176387 30:0.16211373 34:0.26036447 53:0.56985432 54:0.18667641 84:0.10807582 109:0.12281343 173:0.37826535 193:0.35861522 211:0.18667641 356:0.26036447 #
1 6:0.065390229 10:0.26156092 14:0.1611402 17:0.13311581 20:0.19617067 23:0.1611402 28:0.13311581 31:0.17281702 32:0.15413411 33:0.14946337 41:0.11910363 53:0.33162186 81:0.084073149 99:0.19617067 148:0.36898771 192:0.35964623 360:0.46707305 374:0.268567 #
-1 12:0.91811073 139:0.070896581 382:0.3899312 #
-1 12:0.94344008 267:0.084068917 386:0.32070735 #
-1 2:0.23502055 3:0.2304123 6:0.096773162 10:0.18893808 13:0.29953599 20:0.28571126 25:0.20737107 28:0.19354632 31:0.50229883 32:0.2211958 33:0.1105979 66:0.22580406 110:0.23502055 211:0.28110301 270:0.2304123 382:0.20737107 #
-1 3:0.13175435 5:0.27570817 6:0.070756964 11:0.2586289 12:0.46602002 16:0.25618902 33:0.12443466 54:0.3196263 57:0.29034755 84:0.37330401 125:0.3757439 270:0.26350871 #
-1 12:0.34657335 31:0.64152944 41:0.44243407 81:0.30970386 84:0.42031237 #
0.74046160773352986961270971733029 14:0.32336923 27:0.36601132 58:0.26473635 102:0.12437278 147:0.32514599 207:0.2203175 220:0.66095245 264:0.18833593 340:0.22209424 #
1 14:0.27751759 16:0.27055061 53:0.19739744 58:0.087087102 83:0.42846856 109:0.22062066 127:0.060380392 190:0.13469473 238:0.35299307 240:0.4783985 269:0.44240251 #
1 2:0.27974764 3:0.13987382 6:0.055949528 21:0.23079181 33:0.066440068 41:0.10490537 53:0.30772242 58:0.36716878 115:0.18882966 119:0.28674135 134:0.27625081 135:0.22030127 202:0.080427445 218:0.22379811 284:0.10840221 304:0.13637698 324:0.4685773 367:0.22729495 #
0.5985163348938783434149968343263 2:0.21676332 3:0.10582146 6:0.029015563 23:0.21505652 25:0.19116135 30:0.22359051 33:0.19969535 42:0.25260606 48:0.31063721 58:0.16897298 84:0.151905 86:0.36696154 127:0.25772646 132:0.46936938 162:0.11094186 202:0.15873219 241:0.16214579 287:0.12459624 304:0.20822933 343:0.11094186 #
0.88209258974353677018598318682052 1:0.26411766 3:0.12697965 6:0.068569012 14:0.2539593 56:0.2158654 69:0.37332016 81:0.13205883 83:0.39363691 215:0.2488801 233:0.19046947 364:0.20316744 368:0.20824662 390:0.55109167 #
-1 3:0.3504473 6:0.16101633 23:0.23678872 27:0.26520336 33:0.10892281 34:0.19890252 35:0.22731717 56:0.19890252 65:0.37412617 81:0.12313014 101:0.61091489 152:0.23205295 #
-1 6:0.18786794 41:0.10080719 56:0.11913577 59:0.13746434 64:0.29325727 127:0.66899318 130:0.32533228 139:0.43530378 251:0.24285369 259:0.1832858 #
-1 259:1 #
-1 6:0.24926321 9:0.78673702 17:0.51410538 71:0.23368427 #
-1 33:0.29116163 83:0.95667386 #
1 3:0.038493652 6:0.022285799 8:0.30187127 12:0.27755949 19:0.079013288 22:0.36872867 25:0.13776675 26:0.083065249 32:0.07496132 33:0.036467671 57:0.17220844 84:0.054701503 98:0.10129908 100:0.2329879 133:0.093195155 178:0.15802658 191:0.32618305 268:0.079013288 288:0.50041747 327:0.40114436 #
1 3:0.074237049 6:0.020064067 8:0.23274317 12:0.44542229 22:0.1785702 23:0.15048049 25:0.13442925 28:0.12640361 33:0.070224233 35:0.1484741 43:0.15449332 53:0.016051253 75:0.28089693 81:0.078249857 84:0.10633955 99:0.18659581 127:0.16853815 177:0.23474959 264:0.23274317 273:0.16452534 278:0.16251893 292:0.22672395 330:0.1203844 366:0.41733259 386:0.19863425 #
1 6:0.021116553 9:0.19708782 12:0.27099577 23:0.15485471 25:0.27451518 33:0.070388511 40:0.24635978 42:0.18301012 43:0.15837415 49:0.34138426 53:0.045752529 56:0.26043749 76:0.20060726 84:0.10910219 118:0.29563174 125:0.21820438 128:0.2076461 234:0.29211232 259:0.20060726 386:0.34842312 #
-0.40465612119074734209789312444627 382:1 #
-1 6:0.11595725 22:0.49281833 25:0.36961374 30:0.4348397 34:0.35511908 98:0.53630227 382:0.065225951 #
-1 6:0.019797238 12:0.089087568 21:0.1253825 22:0.36294934 25:0.13528112 54:0.18477421 64:0.32335487 144:0.12208296 175:0.3167558 262:0.17487559 288:0.73579729 #
-1 6:0.055264559 25:0.36649129 80:0.28504878 98:0.53228498 135:0.65154004 185:0.21233225 190:0.16870233 #
-1 6:0.050557952 11:0.23256658 19:0.23762238 21:0.096060112 41:0.17695284 52:0.39435202 56:0.1011159 59:0.11628329 63:0.15167385 66:0.11628329 68:0.20223181 96:0.13650647 99:0.29323614 109:0.096060112 154:0.33873829 175:0.12133908 235:0.18706442 277:0.53085852 282:0.17189704 #
1 3:0.23908482 6:0.09825404 9:0.30458751 10:0.19650808 17:0.19978321 21:0.19650808 24:0.34716427 28:0.20305835 33:0.33733886 41:0.53712207 50:0.27838644 102:0.088428631 196:0.27183616 #
1 17:0.28957522 81:0.18098451 83:0.53945059 117:0.074729085 199:0.087573148 214:0.088740796 271:0.75429672 296:0.047873322 #
0.98080584168544338030670814987388 3:0.26732418 6:0.018144175 7:0.28425875 28:0.11249389 33:0.062899813 41:0.10039777 65:0.21410127 71:0.11128428 101:0.1753937 126:0.055642139 139:0.17297448 185:0.12096117 235:0.21047243 294:0.1439438 301:0.24071273 302:0.064109422 393:0.74633044 #
1 80:0.082737163 105:0.46354029 126:0.1644136 183:0.49960521 205:0.062583238 243:0.2450293 256:0.12834868 265:0.47945127 274:0.41156438 318:0.11243769 319:0.096526697 #
-1 6:0.010138514 8:0.4942525 141:0.022811655 185:0.11152364 243:0.86177361 #
-1 6:0.081535585 8:0.30983523 9:0.12638016 11:0.097842708 17:0.081535585 43:0.10191949 49:0.22014609 99:0.12230338 172:0.16307117 211:0.12230338 243:0.84797013 270:0.10191949 282:0.14268728 #
-1 6:0.145136 10:0.217704 23:0.79341012 28:0.22254185 43:0.27092052 81:0.13546026 262:0.29994774 270:0.26608264 #
-0.95009540183707197336104854912264 6:0.049195468 53:0.67397791 149:0.49687424 172:0.29517281 238:0.45751786 #
1 6:0.050492004 16:0.36121204 58:0.22915602 81:0.19420002 84:0.26022804 97:0.50880402 277:0.49715206 382:0.45054406 #
1 2:0.10552853 4:0.12311661 6:0.056823052 10:0.34229124 11:0.10146973 12:0.062234771 17:0.086587504 25:0.093352154 29:0.12446954 32:0.1001168 34:0.1772338 39:0.12311661 47:0.17452794 53:0.093352154 57:0.11499903 64:0.11094024 77:0.016235158 81:0.10823438 84:0.14746934 96:0.12176368 98:0.13394006 123:0.1637045 138:0.10823438 142:0.14341056 172:0.085234575 185:0.25435081 200:0.61828893 332:0.22999807 348:0.19211602 373:0.12852833 #
0.1627565061843342097969156156978 3:0.12959993 4:0.31002337 5:0.2744469 6:0.071152903 11:0.12705874 12:0.23124693 20:0.16009402 29:0.15501168 34:0.1118117 39:0.15501168 54:0.15755285 58:0.43708211 63:0.16517638 64:0.13976462 81:0.068611726 96:0.1524705 98:0.17025873 137:0.22362341 138:0.34051746 242:0.40658802 #
1 46:0.30988514 79:0.14469346 120:0.18207259 124:0.38102612 166:0.38946655 279:0.15433969 377:0.72226149 389:0.086816072 #
0.50604746097906616597583706607111 2:0.11797523 4:0.27670556 6:0.064350128 10:0.38395578 11:0.11368523 12:0.20806542 25:0.10296021 30:0.12226525 32:0.33891067 52:0.25740051 54:0.14157028 55:0.15229531 72:0.10725021 84:0.083655171 90:0.045045089 98:0.1501503 120:0.11368523 123:0.18232536 141:0.2917206 142:0.16087532 164:0.18661538 172:0.096525192 177:0.26812553 185:0.12870026 318:0.22522545 363:0.21235542 379:0.15229531 #
-1 3:0.19640794 6:0.10606029 16:0.38495958 33:0.18462346 84:0.55779856 97:0.54208595 127:0.12570108 172:0.32210901 185:0.20819242 #
-1 3:0.15327308 6:0.16462664 17:0.50523347 41:0.22707123 56:0.77204216 84:0.21571766 #
0.050603531690171760226704122942465 1:0.17400359 6:0.045240931 13:0.21750449 14:0.16704345 16:0.16356337 21:0.13746284 33:0.15660323 36:0.20706427 42:0.19836409 48:0.24186499 53:0.24534506 54:0.20184416 58:0.2818858 86:0.28710592 135:0.26448545 146:0.05916122 148:0.38628796 185:0.078301616 262:0.19140394 273:0.19488402 282:0.23838492 383:0.24186499 #
-1 3:0.38130802 50:0.87700844 185:0.29233614 #
-1 12:0.52686882 71:0.33159575 81:0.46423405 84:0.63003194 #
1 38:0.41117364 90:0.15955992 95:0.5523228 190:0.04704972 203:0.43163005 241:0.069551758 243:0.43367568 277:0.16160557 292:0.13705789 363:0.1841076 387:0.20047273 #
1 1:0.17013812 6:0.066839978 7:0.1731763 9:0.20963447 21:0.27039808 31:0.17925267 53:0.4253453 63:0.20963447 66:0.16102357 81:0.1731763 110:0.50433803 121:0.43142167 185:0.20051992 304:0.16102357 #
0.88192808008953404996788094649673 4:0.14122155 6:0.015130881 10:0.098350726 16:0.11600342 39:0.14122155 62:0.23200683 74:0.23705046 91:0.20174508 142:0.16391787 154:0.1689615 156:0.38331565 243:0.28748673 262:0.13617793 266:0.49175364 297:0.23452865 311:0.22191958 341:0.24965954 370:0.26479042 397:0.063045338 #
0.58849072392706414103002998672309 2:0.027637344 3:0.042056829 4:0.033645462 6:0.042056829 8:0.19466303 9:0.03604871 10:0.02283085 11:0.055274688 12:0.11535587 13:0.03604871 16:0.027637344 17:0.02283085 18:0.034847088 19:0.084113657 21:0.02283085 22:0.066089302 23:0.027637344 26:0.030040592 28:0.046863325 31:0.030040592 33:0.06488768 35:0.055274688 37:0.037250333 41:0.020427603 47:0.1874533 48:0.1622192 54:0.033645462 56:0.024032474 57:0.061282806 59:0.27637345 60:0.076903917 62:0.10934775 73:0.68973202 84:0.039653581 85:0.12016237 101:0.03604871 103:0.052871443 109:0.02283085 112:0.12376724 114:0.10333963 130:0.03244384 131:0.18505004 153:0.058879562 158:0.096129894 165:0.14539647 172:0.02283085 185:0.26796207 203:0.033645462 210:0.048064947 227:0.066089302 237:0.03604871 240:0.14539647 243:0.033645462 246:0.11896075 258:0.044460077 260:0.049266569 262:0.063686058 269:0.044460077 270:0.027637344 282:0.039653581 286:0.043258451 297:0.11054938 298:0.06488768 304:0.027637344 347:0.058879562 358:0.055274688 #
0.50631486359006827591144883626839 1:0.16237898 6:0.0205543 28:0.13154753 33:0.073995486 44:0.21787558 54:0.18909957 71:0.053441182 109:0.12538123 130:0.18498871 170:0.23637445 186:0.19937672 243:0.18909957 250:0.78106344 262:0.17882241 296:0.13360296 304:0.15210183 #
-1 6:0.24118145 30:0.36593047 32:0.34098065 39:0.83166015 #
-1 6:0.12002626 10:0.7126559 33:0.40508863 58:0.43509519 151:0.35257712 #
-1 6:0.06266468 16:0.46215203 130:0.56398213 282:0.68147838 #
-1 6:0.10990662 77:0.49957556 100:0.85926992 #
-1 3:0.16436201 6:0.090682492 26:0.35706231 33:0.15869436 128:0.90115726 #
0.72141113141595425428675980583648 3:0.10149039 4:0.12013149 5:0.10563286 6:0.070421904 8:0.078706838 12:0.30239996 13:0.13255888 17:0.33968213 18:0.12841642 19:0.20505202 20:0.25061914 22:0.2423342 43:0.10356162 50:0.11806025 51:0.1656986 66:0.40181911 74:0.20298079 108:0.18848217 109:0.08077807 172:0.082849301 175:0.31689858 212:0.25061914 244:0.16362737 262:0.23404928 #
1 4:0.14562902 6:0.050524354 11:0.24073368 12:0.21992955 28:0.10402073 29:0.14562902 33:0.11590882 34:0.21101348 50:0.42797101 53:0.30909017 56:0.10402073 58:0.35367048 64:0.13076891 81:0.1277969 84:0.17534924 198:0.34772643 345:0.28234199 375:0.27342591 382:0.16048913 #
1 2:0.085806809 3:0.16762261 6:0.045896664 10:0.069842748 11:0.16363159 12:0.14966305 14:0.16762261 19:0.33923623 31:0.091793329 33:0.077824779 39:0.19955072 41:0.061860722 52:0.091793329 54:0.10177086 55:0.10975289 70:0.10975289 76:0.21950579 84:0.23746535 94:0.23946086 101:0.10975289 109:0.067847244 116:0.12771246 135:0.13369898 150:0.1396855 159:0.17161362 185:0.31728566 216:0.14766753 218:0.26939347 242:0.12571695 259:0.10975289 262:0.095784344 278:0.089797825 281:0.033923622 287:0.26739797 334:0.24544738 396:0.17161362 #
1 3:0.11641985 6:0.06391678 12:0.13924727 14:0.23512244 23:0.23512244 25:0.20772953 109:0.18718486 127:0.2762118 128:0.31501842 185:0.12555082 202:0.33784583 217:0.28762552 221:0.39034891 261:0.32186663 295:0.36067325 #
0.51938921066458532127541047884733 3:0.1718889 5:0.11968561 6:0.039470788 11:0.056023054 16:0.16806915 17:0.048383545 18:0.072575316 27:0.064935811 31:0.062389307 33:0.05347655 41:0.043290541 49:0.063662559 59:0.057296302 81:0.059842806 84:0.040744036 110:0.11713911 120:0.12350536 153:0.24064447 167:0.07512182 172:0.094220586 233:0.19353418 238:0.14642389 257:0.089127585 270:0.057296302 276:0.1094996 282:0.082761325 283:0.13751113 284:0.042017289 290:0.081488073 331:0.1094996 351:0.80596799 395:0.1044066 #
-1 12:0.76562417 33:0.10026031 57:0.23697892 58:0.38281208 70:0.2825518 76:0.27799448 304:0.2096352 #
-1 109:0.77019048 382:0.63781399 #
-1 53:0.79883999 81:0.35108253 151:0.48846266 #
1 3:0.18573482 6:0.068284862 10:0.10379299 30:0.13110693 39:0.74020785 43:0.12837553 58:0.17480925 64:0.13383833 66:0.12291275 100:0.26494527 101:0.16388366 154:0.35508126 266:0.25948247 304:0.12018135 #
1 1:0.4557752 3:0.10878585 6:0.03000989 33:0.103159 42:0.26071092 43:0.22507417 56:0.18568619 61:0.34698936 81:0.1144127 130:0.51954621 140:0.38450173 176:0.14817382 232:0.12379079 382:0.1650544 #
1 1:0.053232878 6:0.0066541098 8:0.078518495 10:0.042586301 12:0.059886988 25:0.090495892 26:0.054563697 33:0.023954794 35:0.099811643 41:0.15304452 43:0.051902056 55:0.066541098 61:0.08118014 63:0.065210275 66:0.050571233 100:0.073195204 154:0.073195204 155:0.087834246 172:0.042586301 188:0.10912739 203:0.061217807 270:0.15437534 275:0.10779658 289:0.91028219 310:0.074526027 320:0.11311986 397:0.039924659 #
1 3:0.063049704 4:0.11250045 6:0.0037088061 10:0.051923286 12:0.055632092 19:0.063049704 20:0.077884927 31:0.1026103 37:0.040796865 41:0.046978209 43:0.032142986 45:0.16566001 100:0.23859985 152:0.030906716 169:0.16813254 180:0.22870971 194:0.095192686 277:0.13598956 287:0.022252837 290:0.089011349 346:0.11373672 352:0.64162344 353:0.52788675 382:0.20398434 394:0.07293985 #
0.84996471672564588573095534229651 8:0.56883943 127:0.43756878 188:0.4995577 249:0.35734785 319:0.32817659 #
-1 6:0.38426054 17:0.58769256 19:0.71201217 #
-0.47893462542663262082598407687328 6:0.18046343 19:0.67939174 292:0.71123821 #
-0.33972960065101892590533338989189 6:0.17487529 39:0.50276643 41:0.63392287 43:0.43718821 172:0.34975058 224:0.036432352 #
-1 6:0.22511128 7:0.17214391 12:0.099313796 19:0.16552299 23:0.16552299 39:0.19200668 59:0.32442507 81:0.17214391 125:0.23173219 167:0.21186943 170:0.49656898 190:0.51643175 203:0.19862759 278:0.17876484 #
-0.96956662571885499080082126965863 6:0.05861824 43:0.41032767 57:0.4494065 212:0.79134625 #
1 3:0.13776913 4:0.08266148 6:0.028806273 21:0.056360099 26:0.073894352 27:0.078904137 28:0.057612546 30:0.21667327 31:0.075146794 32:0.33440325 34:0.11772998 41:0.10270062 69:0.10144818 83:0.42833674 96:0.080156587 129:0.11772998 151:0.17283763 152:0.068884566 155:0.11772998 165:0.12023488 172:0.057612546 178:0.14152646 189:0.097690836 190:0.16532296 203:0.083913922 209:0.10144818 211:0.085166372 216:0.12273977 222:0.14653626 227:0.1640705 240:0.12023488 254:0.10395307 269:0.1102153 302:0.01127202 305:0.16908029 307:0.15530337 308:0.19663411 309:0.15655583 312:0.14653626 314:0.2016439 315:0.2016439 316:0.17158519 382:0.23545997 #
1 1:0.036739361 2:0.036739361 3:0.035514716 5:0.037964005 6:0.029391488 8:0.028166844 9:0.045311879 10:0.058782976 11:0.035514716 12:0.042862587 13:0.046536524 16:0.17512429 21:0.029391488 23:0.072254077 34:0.030616134 36:0.044087235 48:0.15552996 59:0.35392252 70:0.046536524 76:0.093073048 81:0.036739361 84:0.07592801 96:0.041637942 101:0.046536524 109:0.028166844 130:0.084500529 147:0.073478721 172:0.029391488 175:0.036739361 243:0.17389964 252:0.83888209 258:0.056333687 260:0.12613848 282:0.051435106 #
1 3:0.060964432 5:0.12870269 6:0.050803691 8:0.19136058 12:0.14563726 16:0.24047081 22:0.29296798 28:0.10330084 33:0.057577517 49:0.13716997 53:0.50295657 65:0.19644095 66:0.24216427 68:0.20829514 81:0.064351343 92:0.12192886 108:0.11684849 137:0.20998859 170:0.37256041 172:0.10160738 255:0.27095303 340:0.22353625 #
-1 6:0.10629046 11:0.37201661 26:0.20372339 35:0.1860083 49:0.21258092 56:0.15943569 59:0.1860083 64:0.20372339 96:0.44287691 99:0.23915353 109:0.30115631 130:0.22143845 203:0.230296 258:0.30115631 269:0.30115631 #
-0.58703688105617157777516013084096 6:0.17181863 10:0.21000054 23:0.25772795 41:0.19090958 48:0.37227368 53:0.44863752 64:0.26727343 101:0.33409178 142:0.35318273 243:0.3150008 278:0.2768189 #
-0.79102102115042349783635700077866 34:0.85328186 81:0.52144998 #
-1 33:0.35541677 66:0.74314415 185:0.24053459 382:0.51337975 #
-1 8:0.12448285 42:0.19038552 43:0.16109544 59:0.16109544 185:0.49060887 243:0.5858016 278:0.17574048 286:0.2489657 304:0.46864131 #
1 6:0.055367794 21:0.16610339 24:0.29174569 25:0.17888057 27:0.22998931 33:0.093699344 38:0.23211883 41:0.30026382 43:0.20656447 44:0.30452287 77:0.25554368 81:0.41951752 98:0.25980273 174:0.19591682 185:0.19378729 202:0.085181221 209:0.29387522 373:0.1810101 #
1 2:0.15493339 5:0.16166963 6:0.062871523 11:0.45132771 12:0.27394021 26:0.16616045 33:0.071853168 45:0.23127738 49:0.17065127 56:0.26046774 57:0.17065127 80:0.024699526 81:0.080834813 138:0.058380697 152:0.15268798 212:0.15044257 259:0.40641949 272:0.44908229 275:0.17738751 #
1 1:0.073808052 3:0.1442612 4:0.083872788 6:0.060388405 12:0.083872788 19:0.2918773 20:0.087227695 26:0.46297777 49:0.080517873 54:0.087227695 109:0.34220096 128:0.19458486 176:0.39252463 221:0.35897553 243:0.26168311 245:0.13419646 263:0.10735717 304:0.2080045 386:0.087227695 388:0.14090627 394:0.16774558 #
0.4639765642216869268033008211205 3:0.064543545 5:0.27186525 6:0.088013932 12:0.076278739 15:0.50852495 21:0.10757258 23:0.13104296 26:0.13886642 41:0.097793259 45:0.26208591 81:0.13495469 84:0.091925658 97:0.1799396 109:0.10366085 113:0.20536584 121:0.17016026 125:0.18580718 128:0.35009986 136:0.091925658 155:0.22296862 190:0.14668988 238:0.16624853 275:0.23079209 278:0.14082229 302:0.20340997 349:0.060631819 #
0.98122987529044491950003248348366 2:0.094097793 3:0.10827692 5:0.032225274 6:0.038670328 8:0.024491208 10:0.28100437 12:0.037381317 17:0.025780218 19:0.094097793 25:0.02835824 28:0.052849445 38:0.036092304 39:0.073473625 46:0.046404392 49:0.10312087 52:0.034803294 58:0.10440988 62:0.12245604 66:0.061872523 72:0.036092304 74:0.061872523 75:0.058005489 81:0.016757142 84:0.043826371 91:0.052849445 99:0.038670328 100:0.14694725 103:0.059294499 109:0.050271425 116:0.047693402 118:0.11987802 130:0.037381317 142:0.042537361 203:0.037381317 211:0.038670328 222:0.065739557 272:0.045115381 280:0.076051645 286:0.047693402 295:0.047693402 381:0.86621535 #
-1 5:0.33343723 6:0.042207245 12:0.37564448 31:0.34187868 41:0.23636056 43:0.32499579 66:0.31233361 110:0.32499579 152:0.31655434 238:0.40518954 #
-1 3:0.68906164 81:0.72470278 #
-0.94911245121073006814071959524881 6:0.16141467 109:0.18724102 234:0.44550449 257:0.36156884 259:0.30991617 291:0.71668112 #
-0.79171018792164815636169805657119 6:0.15015022 8:0.17017026 17:0.18018027 50:0.50050074 54:0.2602604 64:0.23023035 133:0.2602604 275:0.69069105 #
1 6:0.044028614 9:0.2084021 17:0.27297741 23:0.16437349 27:0.37277558 33:0.15263252 42:0.1937259 48:0.23775451 59:0.16143826 70:0.21427259 86:0.27884787 92:0.23188403 120:0.42560992 125:0.23188403 152:0.16437349 175:0.17024398 179:0.31994125 #
1 1:0.11579371 2:0.11372597 3:0.055829111 6:0.031016173 53:0.11786146 84:0.078574307 109:0.17782606 110:0.22745194 116:0.16955508 151:0.041354898 242:0.16335185 283:0.80435276 322:0.29775527 323:0.27087459 #
0.86543493502355650637269945946173 6:0.047414869 7:0.36258429 10:0.14224461 33:0.080884188 34:0.29285654 40:0.27612188 52:0.18965948 56:0.14503372 57:0.18965948 88:0.32074764 121:0.22591792 152:0.17292482 164:0.11714263 167:0.2231288 263:0.25380901 300:0.40999916 317:0.32353675 #
1 6:0.075679131 15:0.7127918 66:0.53855383 80:0.12495857 146:0.31503639 185:0.1390384 229:0.054559372 236:0.24287722 #
1 1:0.042498134 6:0.027623786 9:0.10305797 12:0.047810398 30:0.042498134 33:0.038248319 51:0.065872103 53:0.14236875 65:0.06480965 66:0.040373225 100:0.13280666 105:0.55991292 109:0.06480965 130:0.047810398 134:0.037185866 149:0.11262005 172:0.032936051 179:0.15193082 183:0.70440656 243:0.19761631 265:0.096683249 275:0.10305797 290:0.057372481 335:0.098808154 372:0.081808902 #
-0.081409860764528413357155045559921 6:0.086357847 49:0.73404169 110:0.6735912 #
-1 33:0.5806995 67:0.81411797 #
-1 10:0.84213722 185:0.53926331 #
1 1:0.18074763 3:0.04351332 6:0.060249209 10:0.070290744 11:0.08367946 12:0.050207675 17:0.073637925 18:0.11045688 24:0.12719278 27:0.10041535 29:0.10376253 31:0.18744199 32:0.33471784 33:0.04016614 43:0.090373814 45:0.47195214 51:0.14058149 54:0.10376253 57:0.097068176 66:0.087026641 79:0.10376253 81:0.090373814 84:0.1238456 129:0.14727585 162:0.22760813 203:0.10376253 233:0.25773275 243:0.10710971 270:0.087026641 290:0.1238456 291:0.4016614 382:0.29120451 #
1 3:0.093130194 6:0.064786226 7:0.0992039 10:0.076933637 11:0.091105625 12:0.1660147 13:0.12147417 14:0.28141516 25:0.1660147 32:0.18018667 39:0.22270264 40:0.15184271 42:0.11135132 56:0.15791641 58:0.15791641 76:0.24294834 81:0.097179331 84:0.066810794 94:0.13362159 101:0.12147417 104:0.16803926 117:0.30166084 125:0.13362159 133:0.11135132 142:0.12957245 144:0.27736601 150:0.31380826 161:0.17411298 179:0.15184271 257:0.291538 259:0.24699748 #
0.98224096455531550997619660847704 2:0.1139117 3:0.11148804 4:0.13330093 5:0.11633535 6:0.046049409 7:0.11875901 12:0.13330093 13:0.1454192 25:0.099369779 33:0.10421709 34:0.096946128 36:0.27872011 41:0.084827863 43:0.1139117 54:0.13572457 56:0.28599107 84:0.1599611 97:0.1551138 109:0.089675166 121:0.14784284 125:0.31992221 191:0.23509435 275:0.18419763 276:0.42656296 288:0.36112431 361:0.18177399 392:0.20843418 #
1 3:0.063252002 6:0.053050067 9:0.16119058 17:0.10610013 41:0.09385781 50:0.29381576 58:0.12854439 128:0.17139253 135:0.19995795 172:0.10405975 186:0.18567523 200:0.50193524 214:0.3183004 219:0.19995795 220:0.52233911 228:0.22036181 304:0.12242323 #
0.75276036071924745662897748843534 1:0.1569449 2:0.15367521 3:0.075202763 6:0.062124021 8:0.23541735 11:0.15040553 12:0.091551192 16:0.15040553 23:0.15367521 31:0.16348426 33:0.21579923 57:0.3367776 66:0.15040553 68:0.25830513 81:0.07847245 84:0.21579923 170:0.46102563 210:0.26484451 255:0.3367776 331:0.29100201 #
-0.53262446543490538086729202404968 6:0.087152384 233:0.96957022 382:0.22877499 #
-1 6:0.10422542 13:0.48390374 23:0.37223366 58:0.29778692 97:0.51368243 142:0.51368243 #
-1 81:0.32713121 179:0.33409145 290:0.88395029 #
-0.8504203036378830127262062887894 6:0.22139421 21:0.47270656 25:0.10172167 28:0.095738038 30:0.11967254 33:0.053852644 34:0.095738038 52:0.12565617 56:0.19147608 84:0.083770782 109:0.54451007 172:0.095738038 175:0.11967254 235:0.17950882 262:0.13163979 275:0.50262469 #
0.75118803671798772825241030659527 4:0.3146987 6:0.036782965 10:0.21797313 11:0.26020542 12:0.3146987 29:0.15803052 31:0.14304487 33:0.062667273 34:0.11307357 41:0.099450238 46:0.19617581 47:0.22342247 50:0.1525812 57:0.14713186 64:0.1403202 67:0.12124755 81:0.069478936 84:0.094000913 99:0.16347985 110:0.2711041 128:0.356931 142:0.1825525 185:0.12942155 213:0.069478936 214:0.13759553 277:0.036782965 285:0.18527716 298:0.30788705 #
0.63973597296583106786016514888615 1:0.20472251 2:0.19926324 6:0.054592669 10:0.16104837 25:0.17469653 33:0.18561508 44:0.30844858 59:0.19380397 69:0.28934115 110:0.20199287 158:0.21564104 181:0.24293737 206:0.10099643 223:0.17742617 251:0.34666345 270:0.39579684 296:0.16377801 329:0.34120417 #
0.82657845819767805650712944043335 2:0.16584107 3:0.08168292 6:0.02227716 10:0.13366295 17:0.2722764 20:0.60395855 23:0.16336584 37:0.21534587 41:0.12128676 107:0.34900883 111:0.2227716 149:0.22772208 253:0.037128597 270:0.16584107 357:0.3465336 398:0.22029635 #
-0.90555678694690522334553861583117 3:0.20141163 6:0.05754618 25:0.36445916 33:0.58505285 41:0.30691296 81:0.21100266 120:0.58505285 #
-0.85135845354969763576491459389217 6:0.23961353 10:0.33177257 19:0.13823858 21:0.11059086 25:0.11980677 38:0.15667038 41:0.10137495 49:0.14745449 50:0.31334075 56:0.23039763 68:0.23039763 101:0.17510219 116:0.20274991 125:0.387068 130:0.15667038 142:0.37785211 149:0.1843181 172:0.22118172 209:0.193534 304:0.12902267 #
1 12:0.14690626 58:0.054242309 97:0.34353462 185:0.073453128 215:0.091533899 250:0.82832527 286:0.38308632 369:0.10396443 #
0.71900267547314977711891970102442 2:0.056087721 3:0.16235919 4:0.19187905 6:0.082655586 17:0.04427978 29:0.12988736 34:0.047231764 51:0.17711912 52:0.1210314 58:0.33357432 64:0.056087721 67:0.26272669 72:0.23025486 81:0.029519852 84:0.15350324 101:0.14169529 132:0.47526965 141:0.24501479 157:0.1800711 192:0.26863065 211:0.064943679 236:0.16235919 275:0.1830231 285:0.10627147 288:0.17416713 328:0.19187905 385:0.18892705 391:0.1003675 #
-1 45:0.53368402 81:0.84568393 #
0.64242731387780216412153322380618 1:0.12922995 2:0.12629291 6:0.017622266 23:0.12482439 33:0.11748178 35:0.12335587 54:0.15125778 61:0.19678198 81:0.064614974 110:0.12776144 134:0.21146719 136:0.21880981 151:0.19384493 156:0.22615242 163:0.17181709 231:0.66083497 262:0.14391518 280:0.30251557 293:0.082237244 390:0.2716766 #
0.71753771524370024703642911845236 2:0.15690327 17:0.13006456 21:0.12800004 24:0.22503233 33:0.072258085 41:0.11561294 43:0.15896779 166:0.86916155 217:0.12180649 223:0.1610323 304:0.15070972 375:0.16929038 #
-1 32:0.76426405 185:0.63575947 190:0.10821438 #
0.66421790651968504182178776318324 5:0.25020838 6:0.049804512 8:0.092494093 15:0.31305692 19:0.36404726 22:0.14229861 54:0.14585607 81:0.18735982 89:0.23360687 94:0.34151664 110:0.12332546 146:0.10553813 149:0.16720086 158:0.085379161 196:0.056919441 339:0.61899894 #
-1 3:0.64704114 6:0.088484257 34:0.27651331 81:0.17143826 144:0.53643584 172:0.27098304 270:0.32628572 #
-1 3:0.060204003 6:0.19942577 18:0.15427276 19:0.12417076 84:0.086543255 110:0.49668303 127:0.59451455 170:0.18437476 172:0.10159425 203:0.44024178 262:0.13922176 270:0.12417076 382:0.19190027 #
0.63791066950764230281123445820413 6:0.019650701 10:0.11790421 13:0.1873367 17:0.23973857 21:0.11921426 24:0.20960748 33:0.068122432 34:0.24628879 35:0.14148505 36:0.17947641 53:0.21746777 66:0.42576522 147:0.15720561 148:0.66812384 195:0.08253295 313:0.10480374 #
-0.82109822292995182646535567982937 6:0.040716898 101:0.80528975 292:0.55194014 296:0.21263269 #
-1 #
1 80:0.12101315 153:0.5767203 190:0.10138939 203:0.3314234 270:0.27691299 275:0.13845649 351:0.64213282 371:0.094848141 387:0.12428378 #
0.50480738271867664490599736382137 1:0.15970205 6:0.042587209 7:0.32295302 23:0.15260418 25:0.1348595 33:0.070978686 34:0.13131057 41:0.2271318 81:0.078076556 101:0.39748064 107:0.32650197 134:0.30875728 159:0.31230623 182:0.36199129 254:0.25552326 372:0.30520836 #
0.5003687294205140245750840222172 3:0.12097167 4:0.19153848 6:0.032763161 17:0.13357289 26:0.17389679 37:0.10585022 44:0.26966602 67:0.44356281 70:0.10585022 79:0.46876523 95:0.24950407 127:0.46120453 212:0.23438261 270:0.080647781 290:0.11341095 292:0.19657898 #
0.47143514613546400049415296962252 3:0.086929597 6:0.072737008 8:0.13482958 17:0.29094803 19:0.35481468 25:0.15611845 27:0.39916649 33:0.081607372 35:0.17208512 39:0.20756659 42:0.20756659 43:0.17918141 56:0.14902216 75:0.32642949 172:0.14369994 190:0.21288881 232:0.17385919 267:0.24837027 290:0.2465962 295:0.26965916 #
0.78932547382919848732996115359128 2:0.13616158 3:0.064298525 6:0.090774387 7:0.27988771 43:0.13616158 88:0.49547687 115:0.35931528 143:0.23071824 145:0.26854089 172:0.10968572 173:0.3139281 239:0.31771037 267:0.40092021 #
0.43473538065344108360932295909151 3:0.038078334 4:0.030462667 5:0.026654834 6:0.0076156668 8:0.079964504 10:0.041886166 12:0.076156668 16:0.025385555 19:0.025385555 20:0.095195837 23:0.052040391 28:0.021577721 32:0.025385555 33:0.0114235 34:0.044424724 37:0.034270499 44:0.059656058 52:0.085041612 81:0.013962056 82:0.21831578 84:0.017769888 90:0.068540998 97:0.035539776 99:0.063463889 101:0.033001222 133:0.030462667 138:0.114235 140:0.044424724 152:0.025385555 237:0.033001222 243:0.062194612 251:0.045694001 259:0.034270499 355:0.12946634 393:0.92403424 #
0.16756057072567281940322914124408 3:0.39863846 5:0.047456957 6:0.074032858 7:0.047456957 8:0.10250703 9:0.11389671 11:0.13098121 12:0.10630359 13:0.05884663 14:0.13477777 15:0.05884663 22:0.053151794 31:0.19362439 32:0.043660402 33:0.062643185 35:0.087320805 36:0.16515023 40:0.14426915 42:0.053151794 49:0.049355239 55:0.23158996 56:0.11389671 65:0.14237088 67:0.334097 70:0.11579498 84:0.094913915 87:0.16515023 97:0.1233881 101:0.11579498 118:0.085422523 143:0.15376055 176:0.18223472 184:0.31321594 185:0.17653988 208:0.26196241 244:0.072134577 245:0.083524249 257:0.070236303 262:0.051253516 292:0.15376055 295:0.068338022 300:0.10630359 304:0.043660402 386:0.21640374 #
-0.34533091527112919072450836210919 6:0.19115315 109:0.22301202 145:0.20310023 172:0.075664788 203:0.11150601 262:0.10752365 272:0.13540015 304:0.90797746 #
-0.59473934234644532104141489980975 6:0.12226291 34:0.38635081 53:0.5037232 56:0.76292056 #
-1 #
0.99857992561758002203475825808709 1:0.04300797 3:0.019353585 4:0.049459163 5:0.04300797 6:0.021503985 8:0.18923506 10:0.034406375 12:0.33976296 15:0.10751992 19:0.20643824 20:0.15052789 21:0.034406375 23:0.081715137 30:0.04300797 49:0.045158368 51:0.066662349 53:0.41932768 54:0.14837749 55:0.053759959 68:0.20643824 82:0.55695319 125:0.058060758 133:0.19568625 192:0.30750698 203:0.049459163 243:0.19783665 258:0.064511955 382:0.10967032 #
-0.5377545177024221079165045011905 6:0.03580996 34:0.20974405 41:0.18416551 42:0.2915954 43:0.25066972 54:0.29671109 100:0.64969498 139:0.18416551 172:0.19951263 275:0.43483523 #
-0.96455561936697875591306683418225 6:0.22337615 53:0.97473234 #
-1 #
0.5346035484838707052546169506968 3:0.050611824 6:0.027923765 9:0.12740217 17:0.16754258 21:0.082026057 24:0.14485453 35:0.097733177 59:0.39616841 81:0.052357059 103:0.19023064 182:0.11169506 190:0.20419252 218:0.14834499 239:0.237352 252:0.64050132 253:0.020942822 261:0.061083235 263:0.29668999 333:0.1832497 374:0.22513534 #
0.52880340290040550588201995196869 4:0.35384315 6:0.041628607 10:0.24409501 11:0.29140025 12:0.35195094 29:0.17786768 30:0.31032234 32:0.28761584 33:0.1400235 34:0.12677804 53:0.064335123 57:0.16462222 58:0.051089656 62:0.29140025 64:0.15705338 84:0.10596373 98:0.19300535 171:0.24598722 208:0.12867025 359:0.29896909 #
0.44969303977409613715110481280135 2:0.18834439 3:0.045765925 6:0.038725015 12:0.054567065 13:0.12145572 14:0.09329208 33:0.088011391 38:0.1073739 40:0.14961937 42:0.11089435 48:0.13553755 53:0.019362507 56:0.079210252 57:0.10209322 84:0.06688866 86:0.16018073 101:0.12145572 119:0.19186483 126:0.20066598 152:0.09329208 185:0.13729778 194:0.1584205 246:0.79386276 342:0.20066598 #
0.24075528213841357327851255831774 2:0.044244979 5:0.090948015 6:0.006145136 10:0.071283579 12:0.12781882 15:0.1130705 19:0.13150591 20:0.15977353 26:0.046703033 30:0.045474008 41:0.065138444 49:0.047932062 63:0.055306222 67:0.16591868 89:0.084802873 125:0.12413175 143:0.074970663 180:0.15731548 185:0.076199688 257:0.067596495 338:0.094635092 352:0.6870262 353:0.5653525 380:0.086031906 #
0.24801490877033274817797803279973 2:0.10841834 6:0.014700792 7:0.11393113 9:0.27563983 13:0.14149512 14:0.10841834 36:0.13414472 56:0.091879949 62:0.42448536 71:0.10658074 81:0.056965567 117:0.20397349 162:0.14700791 249:0.35465661 281:0.13781992 297:0.64315963 354:0.11760633 378:0.10290554 #
-0.062233030204891390257948557973577 185:0.70710677 190:0.42426407 273:0.56568545 #
-0.18349076199221703298292140971171 6:0.30952382 21:0.4642857 30:0.58333331 84:0.39285713 202:0.44047618 #
-0.20770760398988913353335306055669 6:0.09366101 17:0.18732202 35:0.22334549 41:0.33862057 56:0.19452672 185:0.82853973 262:0.25936896 #
-0.16007641825352730835518855201371 81:0.44275182 109:0.6816048 185:0.58256823 #
0.089047292608694275650726979165483 4:0.36066854 29:0.36198005 45:0.18361308 55:0.39476809 96:0.35411093 102:0.19541676 160:0.6085462 187:0.081314363 275:0.090495013 382:0.024918918 #
0.15132326397813467000474929591292 4:0.19545144 6:0.011276044 30:0.086449675 31:0.08832901 44:0.11088111 60:0.11276044 102:0.13155384 154:0.11651912 172:0.067656264 175:0.084570333 210:0.1428299 228:0.28565979 289:0.83630663 294:0.27814242 #
0.2748832268018531199693654798466 6:0.018180065 7:0.29088104 15:0.53934193 30:0.28785104 37:0.18180065 43:0.14241052 45:0.278761 70:0.18180065 122:0.28785104 205:0.30603111 235:0.21513078 292:0.36966133 304:0.13332048 #
0.33948878251939434980144483233744 1:0.089948289 3:0.04283252 5:0.13492243 6:0.035336826 7:0.046044957 8:0.16704682 9:0.054611459 11:0.04283252 12:0.025699511 13:0.055682275 16:0.041761704 18:0.054611459 22:0.10279804 28:0.036407642 33:0.020345446 46:0.064248778 47:0.29019031 49:0.095302351 55:0.11243536 59:0.08566504 66:0.084594227 68:0.072815284 73:0.62214231 80:0.13063918 84:0.031053577 85:0.093160726 87:0.080310971 104:0.077098534 112:0.095302351 113:0.068532027 114:0.080310971 131:0.095302351 139:0.11350618 141:0.035336826 157:0.071744472 170:0.06531959 172:0.035336826 197:0.16383438 201:0.10386886 247:0.21951666 248:0.21416259 258:0.068532027 271:0.093160726 275:0.22915398 334:0.12635593 336:0.25271186 362:0.096373163 365:0.094231538 382:0.096373163 #
0.28072243241049349427029824255442 3:0.015189175 5:0.031546749 6:0.021031165 7:0.032715145 8:0.1904489 10:0.10048224 12:0.054914713 17:0.025704758 18:0.077114277 20:0.037388738 22:0.10866103 33:0.014020777 35:0.030378351 38:0.035051942 48:0.044399127 52:0.13553418 60:0.042062331 67:0.10165063 78:0.57835704 81:0.031546749 93:0.067767091 100:0.20563807 106:0.6683237 111:0.16357574 123:0.047904324 127:0.065430291 142:0.042062331 152:0.030378351 225:0.059588306 243:0.037388738 266:0.063093498 270:0.030378351 288:0.09814544 313:0.093471847 #
0.051619665315111300241124325793862 4:0.46179652 6:0.034852568 10:0.10630033 12:0.15335131 17:0.10804296 31:0.1411529 32:0.2509385 33:0.060991995 34:0.11152822 50:0.29973209 64:0.13766764 67:0.085388795 78:0.54370004 81:0.067962505 84:0.092359304 93:0.2875337 98:0.16729233 187:0.074933022 270:0.13069713 294:0.01045577 332:0.28579107 #
0.023250782620426967833848763689275 3:0.099213839 4:0.1195654 5:0.10430173 6:0.068686508 8:0.15518062 10:0.081406228 12:0.35615224 14:0.20097162 15:0.39176747 23:0.10175779 32:0.096669897 37:0.13228512 43:0.10175779 81:0.10430173 101:0.12974118 144:0.37904775 145:0.26202628 241:0.29000968 243:0.12210934 252:0.21369135 275:0.045791004 278:0.10938962 291:0.15518062 301:0.17807612 321:0.19842768 385:0.25948235 #
0.012064501031212551684923539596639 4:0.47285551 115:0.25046226 124:0.72547692 151:0.15114103 181:0.30228207 194:0.11227619 224:0.16625513 389:0.18136923 #
0.097443714134686151839837009447365 5:0.26612762 6:0.034424465 8:0.097977325 15:0.3310045 19:0.38528922 22:0.15093805 45:0.12842974 54:0.15358607 81:0.13240179 89:0.24759136 94:0.18139046 110:0.12975375 149:0.17741841 185:0.059580807 268:0.066200897 339:0.65538889 #
0.0035367776998827399337343990737281 1:0.099314637 2:0.096630454 5:0.099314637 6:0.050999407 7:0.099314637 8:0.072472841 15:0.2469445 31:0.2066818 33:0.088577919 41:0.069788665 42:0.22547106 55:0.2469445 56:0.24157614 60:0.12884061 76:0.12347225 80:0.45631048 81:0.14762986 101:0.12347225 109:0.075157024 122:0.32478571 127:0.23083942 132:0.2066818 151:0.31404898 195:0.13420896 204:0.18789256 249:0.17447166 #
