SVM-light Version V6.02
0 # kernel type
3 # kernel parameter -d 
1 # kernel parameter -g 
1 # kernel parameter -s 
1 # kernel parameter -r 
empty# kernel parameter -u 
900 # highest feature index 
300 # number of training documents 
239 # number of support vectors plus 1 
0.10562287 # threshold b, each following line is a SV (starting with alpha*y)
-0.10241377861926133363557056554782 81:0.33071566 638:0.62788045 658:0.076687686 702:0.60391557 710:0.35468057 #
-1 12:0.88022387 33:0.17604478 190:0.20600985 254:0.19851857 292:0.28841379 754:0.16480789 783:0.044947602 #
-0.42921802141213111214668174397957 6:0.15283494 120:0.16337527 262:0.86430788 264:0.047431529 703:0.44796446 #
-0.94309810870131738358423945101094 6:0.048300974 9:0.15134306 21:0.096601948 109:0.093381889 125:0.16744338 152:0.23506474 172:0.5828318 211:0.14490293 263:0.17388351 275:0.49266994 282:0.16744338 304:0.11592234 433:0.28980586 638:0.18032365 749:0.23184468 799:0.16744338 #
-1 3:0.30477786 33:0.28684974 55:0.80078888 264:0.16732901 790:0.39441839 #
1 3:0.167532 6:0.092263997 23:0.167532 43:0.17238799 109:0.13353999 127:0.32049599 128:0.22580399 130:0.19909599 151:0.118972 152:0.167532 202:0.135968 204:0.174816 251:0.29621598 254:0.52687597 275:0.053415999 382:0.286504 638:0.26465198 696:0.220948 719:0.18452799 #
1 3:0.013949462 6:0.019927803 7:0.05978341 11:0.027898924 12:0.050815899 14:0.056794237 26:0.030888094 33:0.026902534 41:0.020924194 84:0.019927803 98:0.036866434 109:0.022916973 208:0.11857042 461:0.10761014 636:0.11259209 710:0.098642625 738:0.039855607 829:0.39257771 843:0.88379806 #
0.80178393785754931144538204534911 2:0.053921029 3:0.013744576 6:0.025374601 7:0.056035578 9:0.10255568 10:0.044405553 11:0.052863751 12:0.063436501 14:0.026431875 17:0.066608325 21:0.022202777 27:0.030660976 33:0.025374601 38:0.030660976 39:0.03171825 40:0.043348275 43:0.027489152 56:0.023260051 57:0.029603701 61:0.042291 79:0.0338328 84:0.057092853 98:0.069780156 99:0.032775525 119:0.054978304 152:0.026431875 167:0.069780156 234:0.050749201 236:0.084582001 270:0.18925223 275:0.069780156 289:0.067665599 290:0.11312843 358:0.052863751 440:0.16282035 485:0.029603701 490:0.15647671 510:0.0338328 519:0.081410177 520:0.10044113 562:0.76546711 564:0.19136678 574:0.11947208 596:0.049691927 608:0.047577377 613:0.077181078 693:0.045462828 743:0.01057275 748:0.069780156 755:0.1226439 765:0.16810673 772:0.056035578 801:0.069780156 815:0.10784206 816:0.1057275 821:0.13956031 835:0.21462683 838:0.07295198 #
1 3:0.024509942 4:0.17439766 6:0.01319766 10:0.1612 11:0.096154384 12:0.11595087 29:0.058446784 33:0.022624562 34:0.041478362 38:0.056561403 50:0.056561403 52:0.10840936 57:0.054676022 64:0.051847953 84:0.034879532 142:0.067873687 169:0.098039769 177:0.036764912 553:0.077300586 561:0.070701756 582:0.18382457 613:0.14800234 684:0.063160233 727:0.24887018 754:0.16685614 846:0.84465027 #
0.59009769531552846988375904402346 4:0.066109583 6:0.014817665 8:0.043313175 12:0.13107935 14:0.1117024 20:0.13677844 23:0.055851202 49:0.061550304 68:0.093465276 82:0.28381529 88:0.30889133 107:0.11854132 152:0.055851202 226:0.10486348 252:0.11854132 425:0.055851202 483:0.096884735 613:0.071808688 622:0.05129192 634:0.075228147 659:0.084346712 669:0.16413414 775:0.16641378 842:0.031914972 845:0.063829944 880:0.78647608 #
-1 6:0.16542482 41:0.088764541 56:0.10490354 59:0.12104255 64:0.2582241 127:0.58907372 130:0.28646737 139:0.38330141 251:0.21384184 259:0.16139007 719:0.13314681 727:0.22998084 771:0.23805036 807:0.20173758 819:0.23805036 #
0.029054645677194269881571386804353 3:0.036861323 4:0.029489059 5:0.025802927 6:0.0073722648 8:0.077408783 10:0.040547457 12:0.073722646 16:0.024574216 19:0.024574216 20:0.092153311 23:0.050377142 28:0.020888083 32:0.024574216 33:0.011058398 34:0.043004878 37:0.033175193 44:0.057749406 52:0.082323626 81:0.013515819 82:0.21133825 84:0.017201951 90:0.066350386 97:0.034403902 99:0.061435539 101:0.03194648 133:0.029489059 138:0.11058397 140:0.043004878 152:0.024574216 237:0.03194648 243:0.060206831 251:0.04423359 259:0.033175193 355:0.1253285 393:0.89450145 425:0.024574216 484:0.098296866 485:0.027031638 524:0.066350386 545:0.060206831 700:0.03194648 732:0.072493933 754:0.067579091 761:0.034403902 783:0.11058397 809:0.14007303 #
0.31982008467194211753792387753492 2:0.10105351 3:0.049772624 6:0.013574352 10:0.081446111 17:0.16590874 20:0.36801577 23:0.099545248 37:0.13121873 41:0.073904805 107:0.21266484 111:0.13574351 149:0.13876005 253:0.022623919 270:0.10105351 357:0.21115658 398:0.13423526 463:0.76016372 649:0.045247838 656:0.12669395 765:0.18099135 #
-1 3:0.07056924 6:0.077626161 10:0.34578928 16:0.13761002 31:0.45870006 84:0.49751315 109:0.11291078 154:0.20112233 270:0.14113848 613:0.40930158 727:0.34931773 752:0.17289464 #
-1 613:1 #
-0.60730858109450946979990249019465 3:0.36835679 6:0.10046095 754:0.92424071 #
0.33528918040931282584793393652944 1:0.14160971 2:0.069158234 5:0.071353734 6:0.027443744 8:0.15807596 11:0.13282771 12:0.080135733 13:0.088917732 14:0.13612096 16:0.065864988 18:0.085624479 22:0.1613692 33:0.063669488 44:0.075744733 55:0.35347542 59:0.066962734 73:0.55985236 76:0.17673771 84:0.096601978 85:0.14600071 87:0.12624122 151:0.17124896 185:0.091113225 197:0.2579712 234:0.12953447 271:0.14709847 379:0.087819979 399:0.10867722 684:0.086722232 703:0.32383618 807:0.22613645 #
1 5:0.21243145 6:0.027478695 8:0.078208588 15:0.26421821 19:0.30755001 22:0.1204835 45:0.10251667 54:0.12259725 81:0.10568728 89:0.19763522 94:0.14479157 110:0.10357354 149:0.14162096 185:0.04755928 268:0.052843641 339:0.52315205 550:0.15853092 638:0.25787696 645:0.052843641 696:0.10357354 703:0.36250737 749:0.10040292 755:0.15430343 789:0.19235086 799:0.14479157 824:0.06975361 831:0.13950722 832:0.10040292 #
0.25707329522244942721087568315852 1:0.16038431 2:0.15552418 6:0.021060565 7:0.16200435 21:0.1263634 24:0.22356601 33:0.072901957 110:0.31590849 149:0.21546578 168:0.11340304 172:0.38071021 224:0.24624662 239:0.36774987 279:0.19602527 292:0.25758693 293:0.069661871 335:0.14418387 365:0.12960348 465:0.16524445 491:0.11340304 496:0.22680609 514:0.22518605 550:0.186305 593:0.11502309 625:0.12150326 #
0.36510101706116482311870186094893 3:0.057421915 5:0.1227641 6:0.031681057 7:0.1227641 9:0.14850496 11:0.11484383 12:0.13860463 15:0.30493018 33:0.10890363 36:0.14454482 40:0.37621254 42:0.27720925 43:0.11880396 56:0.29700992 57:0.12870429 172:0.097023234 199:0.13464449 273:0.059401982 563:0.18414614 596:0.17820594 638:0.40591353 641:0.23760793 666:0.27324912 754:0.14058469 778:0.017820595 876:0.18810627 #
-1 6:0.10421041 8:0.57789409 14:0.75789392 292:0.28421021 #
-1 6:0.053220943 14:0.79831415 22:0.47189239 292:0.23772022 640:0.063865133 696:0.2767489 #
-1 6:0.078151621 14:0.57311189 98:0.73809868 382:0.34734055 #
-1 6:0.032032475 43:0.22422734 57:0.24558231 212:0.43243843 510:0.2776148 703:0.79013443 #
0.13499395961556204248665835621068 2:0.054024033 3:0.026502356 6:0.02956032 8:0.082565032 9:0.068294533 10:0.087661639 11:0.05198539 12:0.094796889 14:0.10702875 16:0.05198539 23:0.054024033 25:0.047908105 58:0.16003346 72:0.093777567 81:0.027521677 84:0.037714891 92:0.054024033 142:0.07339114 163:0.10091282 203:0.064217247 207:0.071352497 262:0.061159283 370:0.1192606 382:0.10906739 383:0.12435721 411:0.11518332 416:0.83686286 477:0.099893495 485:0.05912064 511:0.055043355 537:0.084603675 587:0.062178604 608:0.039753534 693:0.2721588 771:0.02242507 889:0.13556975 #
1 3:0.034124609 6:0.029471252 14:0.069800332 25:0.062044743 30:0.072902575 33:0.032573488 54:0.085311517 75:0.13029395 81:0.072902575 98:0.089964874 135:0.11012942 146:0.17062303 196:0.099271588 225:0.19233871 229:0.11323165 235:0.11012942 262:0.16131634 272:0.10237382 410:0.13804954 466:0.13184507 546:0.14735626 559:0.14580515 604:0.55374932 613:0.072902575 615:0.38002405 679:0.15356074 696:0.11012942 702:0.29626364 744:0.33038825 861:0.10702718 874:0.1256406 #
1 6:0.036252175 11:0.13050783 14:0.13413304 23:0.13413304 25:0.11963218 31:0.43502611 33:0.12507001 41:0.19938697 77:0.1033187 81:0.13957088 84:0.094255656 98:0.17401044 111:0.23201393 135:0.21207522 180:0.24470218 253:0.059816089 256:0.08700522 270:0.27007869 275:0.13232043 278:0.1450087 292:0.23201393 330:0.11238174 337:0.17582305 531:0.24288957 613:0.081567392 638:0.11963218 642:0.25920305 710:0.13232043 727:0.14319609 773:0.023563914 778:0.2302013 #
1 6:0.048213344 10:0.19285338 14:0.11881145 17:0.098148592 20:0.14464003 23:0.11881145 28:0.098148592 31:0.12742098 32:0.11364574 33:0.11020193 41:0.087817162 53:0.24451053 81:0.061988585 99:0.14464003 148:0.27206102 192:0.26517338 360:0.34438103 374:0.19801909 463:0.5975011 503:0.05682287 595:0.061988585 607:0.16013718 613:0.12742098 702:0.14808384 727:0.16874669 #
1 6:0.045233481 189:0.083229601 193:0.76535046 264:0.18636194 433:0.40348265 448:0.208074 570:0.17007788 696:0.2496888 701:0.099513657 702:0.13931912 727:0.0072373566 849:0.11941639 867:0.17188722 #
1 6:0.056529436 8:0.229443 12:0.24606931 18:0.074818373 19:0.059854697 30:0.061517328 32:0.1147215 46:0.088119417 56:0.049878914 81:0.061517328 101:0.078143634 109:0.046553653 175:0.12303466 209:0.086456783 259:0.54866803 271:0.12802255 282:0.084794156 299:0.1363357 304:0.058192067 367:0.098095194 410:0.11804676 425:0.11970939 485:0.066505216 486:0.12968518 492:0.2178046 493:0.069830477 504:0.074818373 511:0.18455198 592:0.22279248 656:0.096432567 665:0.23941879 678:0.17457619 702:0.031589977 727:0.13799833 745:0.086456783 752:0.19619039 771:0.19286513 790:0.11970939 806:0.17790146 808:0.083131522 857:0.10973361 #
-1 3:0.34407571 5:0.090214975 6:0.094411023 11:0.50981951 12:0.25595877 43:0.088116951 57:0.096509039 81:0.0461565 84:0.369252 100:0.13637148 238:0.1111952 430:0.12797938 600:0.14476356 644:0.14266554 693:0.14686158 749:0.25595877 757:0.44687882 772:0.090214975 #
-1 6:0.045349259 11:0.20860659 19:0.21314152 21:0.086163595 41:0.1587224 52:0.35372421 56:0.090698518 59:0.10430329 63:0.13604778 66:0.10430329 68:0.18139704 96:0.122443 99:0.2630257 109:0.086163595 154:0.30384004 175:0.10883822 235:0.16779226 277:0.47616723 282:0.15418749 425:0.10883822 493:0.122443 501:0.013604778 749:0.10430329 781:0.20407167 784:0.24942093 785:0.17686211 799:0.14965256 #
-0.71907676506770246138700031224289 6:0.056442142 25:0.37628093 41:0.62713492 54:0.50797927 754:0.45153713 #
-1 6:0.047182936 53:0.64640623 149:0.47654766 172:0.28309762 238:0.43880129 711:0.28309762 #
-1 3:0.077222064 6:0.022063447 25:0.13973516 33:0.22431171 41:0.11767171 81:0.080899306 120:0.22431171 504:0.20224826 663:0.22798894 743:0.40817377 755:0.72073925 794:0.27211583 #
1 14:0.23394895 16:0.22807574 53:0.1664072 58:0.073414937 83:0.36120149 109:0.18598452 127:0.050901026 190:0.11354844 238:0.29757524 240:0.40329275 269:0.3729479 525:0.065584011 618:0.1350835 696:0.13704123 702:0.059710819 727:0.10767525 784:0.052858759 791:0.47964427 #
1 3:0.13962273 6:0.038078927 8:0.10859546 11:0.1382124 12:0.41604754 14:0.28206614 22:0.16641901 45:0.14385372 81:0.07333719 84:0.10013347 219:0.067695871 264:0.019744629 414:0.66285539 575:0.32155538 702:0.19180496 727:0.21719092 #
1 8:0.46492034 127:0.35763103 188:0.40829542 249:0.29206535 319:0.26822329 457:0.19371681 572:0.15199319 587:0.08344724 656:0.25630224 696:0.33676922 765:0.29206535 #
1 1:0.067006163 2:0.06580963 3:0.032306544 6:0.01794808 53:0.068202704 84:0.045468468 109:0.10290232 110:0.13161926 116:0.098116174 151:0.023930773 242:0.094526559 283:0.46545354 322:0.17230158 323:0.15674657 426:0.11486772 462:0.040682316 599:0.084954247 613:0.1483708 625:0.20341158 647:0.4606674 696:0.10649195 727:0.22853889 735:0.53126317 767:0.14717425 #
0.74559344691749018796400605424424 14:0.24193808 27:0.27384201 58:0.19807018 102:0.09305311 147:0.2432674 207:0.16483693 220:0.4945108 264:0.14090899 340:0.16616626 514:0.10900507 574:0.136921 596:0.086406454 644:0.39614037 661:0.45994821 855:0.18344755 #
-1 3:0.2872327 6:0.039279684 34:0.12274902 81:0.076104388 144:0.23813309 172:0.12029403 270:0.14484383 791:0.8960678 #
-1 33:0.29116163 83:0.95667386 #
-1 12:0.69788289 33:0.091389425 57:0.21601138 58:0.34894145 70:0.25755203 76:0.25339797 304:0.19108699 570:0.41125244 #
-1 81:0.25294054 179:0.25832224 290:0.68347764 574:0.54893476 638:0.3175211 #
-1 2:0.15025106 3:0.14730497 6:0.061868083 10:0.12079007 13:0.19149645 20:0.18265815 25:0.13257447 28:0.12373617 31:0.32112482 32:0.14141276 33:0.070706382 66:0.14435886 110:0.15025106 211:0.17971206 270:0.14730497 382:0.13257447 638:0.52735174 707:0.23863403 727:0.37120852 768:0.24452624 787:0.19444256 809:0.14435886 #
0.91653431502740789760252937412588 1:0.088605732 6:0.011215916 28:0.071781859 33:0.040377297 44:0.11888871 54:0.10318642 71:0.029161381 109:0.068417087 130:0.10094324 170:0.12898304 186:0.10879438 243:0.10318642 250:0.4262048 262:0.097578466 296:0.072903454 304:0.082997777 432:0.081876181 451:0.11440234 548:0.19291376 625:0.17721146 676:0.13907735 728:0.10318642 736:0.10094324 749:0.084119365 757:0.7312777 772:0.088605732 841:0.15477964 #
1 3:0.034682788 4:0.16377984 6:0.038536433 18:0.086706974 31:0.075146042 32:0.065511934 36:0.084780149 53:0.15799937 66:0.067438759 71:0.23121859 95:0.31792557 109:0.053951006 130:0.080926508 154:0.098267905 185:0.21580403 203:0.16570666 228:0.11946294 234:0.13102387 282:0.19653581 292:0.29673052 306:0.19075534 343:0.13295069 433:0.084780149 443:0.16377984 476:0.1156093 495:0.23314542 496:0.17148712 552:0.10019472 613:0.13487752 667:0.23892587 707:0.11175565 726:0.12138976 747:0.22543813 749:0.067438759 754:0.1869017 764:0.10404836 781:0.26397455 813:0.17534077 814:0.10597519 #
1 2:0.092768416 3:0.090794623 4:0.10855879 5:0.094742216 6:0.037502125 7:0.096716009 12:0.10855879 13:0.11842777 25:0.080925643 33:0.084873237 34:0.078951843 36:0.22698656 41:0.069082864 43:0.092768416 54:0.11053258 56:0.23290794 84:0.13027054 97:0.12632295 109:0.073030457 121:0.12040156 125:0.26054108 191:0.19145823 275:0.1500085 276:0.34738812 288:0.29409564 361:0.14803471 392:0.16974647 501:0.14606091 505:0.17961545 600:0.15198231 625:0.22106516 638:0.23488174 683:0.15987748 743:0.14408712 749:0.17961545 754:0.27830526 #
1 3:0.17619748 6:0.07240992 9:0.22447076 10:0.14481984 17:0.14723352 21:0.14481984 24:0.25584841 28:0.14964718 33:0.2486074 41:0.39584091 50:0.20516145 102:0.065168932 196:0.20033412 452:0.17137015 574:0.2220571 613:0.1544745 767:0.40308189 780:0.10620122 787:0.23412542 793:0.32584465 819:0.13999252 #
1 6:0.038377482 21:0.11513244 24:0.2022198 25:0.12398878 27:0.15941416 33:0.06494651 38:0.16089021 41:0.20812403 43:0.14317752 44:0.21107614 77:0.17712684 81:0.29078323 98:0.18007895 174:0.13579725 185:0.13432118 202:0.059042279 209:0.20369586 373:0.12546484 430:0.20664798 634:0.035425369 678:0.20369586 682:0.32768464 712:0.414772 785:0.23469307 790:0.15203387 840:0.19631557 850:0.19483952 #
-1 6:0.073671445 8:0.27995148 9:0.11419074 11:0.088405736 17:0.073671445 43:0.09208931 49:0.1989129 99:0.11050717 172:0.14734289 211:0.11050717 243:0.76618302 270:0.09208931 282:0.12892503 433:0.11050717 695:0.13629217 712:0.13260861 754:0.1989129 764:0.13629217 767:0.20628005 774:0.14365932 805:0.11787432 #
-1 6:0.09558779 109:0.11088184 234:0.26382232 257:0.21411666 259:0.18352856 291:0.42440981 678:0.20264612 696:0.61558539 712:0.20646964 741:0.43205681 #
-1 81:0.55019569 639:0.052758489 656:0.33916172 667:0.76122963 #
-1 6:0.15041055 9:0.47473332 17:0.31022176 71:0.1410099 652:0.30552143 752:0.20211418 765:0.33842376 804:0.55463892 810:0.28201979 #
-1 6:0.088769443 10:0.13315417 23:0.48527294 28:0.13611314 43:0.16570295 81:0.082851477 262:0.18345684 270:0.16274397 550:0.32844692 645:0.43201128 703:0.19233379 752:0.24855444 764:0.48231396 #
1 6:0.039610956 16:0.2833707 58:0.17977281 81:0.15234983 84:0.20414878 97:0.39915657 277:0.39001557 382:0.35345161 417:0.28641769 638:0.28032368 696:0.22852476 752:0.41439155 #
1 3:0.11881475 4:0.071288846 6:0.024843084 21:0.048606034 26:0.063727908 27:0.068048447 28:0.049686167 30:0.1868632 31:0.064808041 32:0.28839579 34:0.1015326 41:0.088570997 69:0.087490857 83:0.36940587 96:0.06912858 129:0.1015326 151:0.14905851 152:0.059407376 155:0.1015326 165:0.10369287 172:0.049686167 178:0.12205515 189:0.084250458 190:0.14257769 203:0.072368979 209:0.087490857 211:0.07344912 216:0.10585314 222:0.12637569 227:0.14149757 240:0.10369287 254:0.08965113 269:0.095051795 302:0.0097212065 305:0.1458181 307:0.13393663 308:0.16958106 309:0.13501675 312:0.12637569 314:0.17390159 315:0.17390159 316:0.14797837 382:0.2030652 434:0.10909354 469:0.17174132 556:0.08965113 602:0.038884826 629:0.1015326 653:0.078849785 725:0.076689519 727:0.11233395 743:0.15877971 764:0.08965113 791:0.36832571 806:0.03672456 #
0.14980197388241978107004115372547 2:0.084827341 3:0.083164059 4:0.099796869 6:0.046571873 9:0.10645 11:0.081500776 12:0.14803202 14:0.083164059 17:0.069857806 19:0.084827341 25:0.074847654 28:0.069857806 33:0.039918747 35:0.081500776 50:0.096470311 54:0.10146015 81:0.043245312 83:0.38920781 109:0.066531248 154:0.11975624 172:0.068194531 175:0.086490624 215:0.26945156 341:0.17464453 356:0.081500776 516:0.096470311 560:0.15967499 584:0.076510936 619:0.27277812 624:0.26279843 668:0.54721951 687:0.24450234 688:0.17464453 727:0.084827341 750:0.02827578 820:0.0266125 #
0.045072234416811289559046116437457 3:0.12460536 4:0.074763216 6:0.026053848 21:0.05097492 26:0.066833787 27:0.071364887 28:0.052107695 30:0.19597025 31:0.067966558 32:0.30245119 34:0.10648094 41:0.092887633 69:0.091754854 79:0.1461281 83:0.38740939 96:0.072497666 129:0.10648094 151:0.087223753 152:0.062302679 155:0.10648094 165:0.1087465 172:0.052107695 178:0.12800369 179:0.13253479 203:0.075895995 209:0.091754854 211:0.077028766 222:0.13253479 227:0.14839366 240:0.1087465 269:0.099684291 305:0.15292476 307:0.14046423 308:0.17784584 309:0.141597 312:0.13253479 314:0.18237694 315:0.18237694 316:0.15519032 317:0.13253479 324:0.14839366 556:0.094020411 584:0.1132776 629:0.10648094 708:0.090622082 725:0.080427095 764:0.094020411 791:0.3862766 811:0.10648094 #
1 3:0.15562311 6:0.057214379 10:0.086965859 30:0.10985161 39:0.62020385 43:0.10756303 58:0.14646882 64:0.11214019 66:0.10298588 100:0.22199179 101:0.13731451 154:0.29751477 266:0.21741465 304:0.10069731 421:0.36388347 569:0.15104596 650:0.048060078 652:0.17164314 689:0.18995175 725:0.13502593 742:0.23801182 #
-1 6:0.15694259 30:0.23811978 32:0.22188434 39:0.54118133 638:0.010823626 696:0.40588599 702:0.4112978 819:0.492475 #
-1 6:0.060401149 7:0.46544415 32:0.42636105 127:0.074613184 185:0.45123214 292:0.12790832 692:0.55782241 743:0.23094557 780:0.088825218 #
-1 2:0.18950437 6:0.023688046 11:0.18160835 12:0.11054421 14:0.18555635 20:0.22898445 21:0.3079446 24:0.26846451 26:0.39874876 30:0.19345237 33:0.17371233 147:0.071064137 259:0.24477647 556:0.28030854 613:0.28425655 691:0.2645165 813:0.37900874 #
-1 3:0.20280458 50:0.46645051 185:0.15548351 625:0.094642133 692:0.51377159 702:0.50025129 720:0.41912946 798:0.13520305 #
-0.87660104909499947378748174742213 32:0.4640393 185:0.386015 190:0.065704681 700:0.61187482 743:0.45582622 820:0.22175328 #
0.61240582663638265525918313869624 1:0.040062245 6:0.026040459 9:0.097150944 12:0.045070026 30:0.040062245 33:0.036056019 51:0.06209648 53:0.13420852 65:0.061094925 66:0.038059134 100:0.12519452 105:0.52782005 109:0.061094925 130:0.045070026 134:0.035054464 149:0.10616495 172:0.03104824 179:0.14322253 183:0.66403168 243:0.18628944 265:0.091141604 275:0.097150944 290:0.054084029 335:0.093144722 372:0.07711982 438:0.098152503 439:0.097150944 441:0.10015561 442:0.096149385 472:0.093144722 504:0.048074692 550:0.07411515 612:0.081126049 613:0.11117273 674:0.08613383 676:0.06209648 691:0.055085588 719:0.042065356 727:0.10015561 728:0.035054464 756:0.079122931 768:0.063098036 #
1 80:0.079209737 105:0.44377765 126:0.15740398 183:0.47830498 205:0.059915062 243:0.23458269 256:0.12287665 265:0.4590103 274:0.3940177 318:0.10764401 319:0.092411362 427:0.10561299 477:0.10561299 517:0.086318307 576:0.026403246 577:0.049759965 641:0.081240758 696:0.035542831 754:0.087333813 790:0.13506277 804:0.072101176 819:0.10764401 #
1 19:0.24392837 31:0.26100338 81:0.12562312 127:0.079276726 153:0.50615138 172:0.19880162 275:0.078057081 386:0.096351713 420:0.092692785 480:0.15489452 550:0.10001063 598:0.20611948 646:0.081716008 658:0.1365999 709:0.63177449 790:0.14025882 819:0.10001063 #
1 6:0.036069054 9:0.17072685 17:0.22362813 23:0.1346578 27:0.30538464 33:0.12503938 42:0.15870383 48:0.19477288 59:0.1322532 70:0.17553607 86:0.22843733 92:0.18996368 120:0.3486675 125:0.18996368 152:0.1346578 175:0.139467 179:0.2621018 650:0.2067959 696:0.29095703 717:0.25007877 738:0.37271354 818:0.0024046036 #
1 3:0.066922329 6:0.018087117 8:0.20981055 12:0.40153399 22:0.16097534 23:0.13565338 25:0.12118368 28:0.11394883 33:0.063304909 35:0.13384466 43:0.1392708 53:0.014469693 75:0.25321963 81:0.07053975 84:0.095861718 99:0.16821018 127:0.15193178 177:0.21161926 264:0.20981055 273:0.14831436 278:0.14650564 292:0.20438442 330:0.1085227 366:0.37621203 386:0.17906246 504:0.1718276 590:0.21342798 728:0.23874994 794:0.2333238 819:0.028939387 #
-1 3:0.22667523 6:0.10414807 23:0.15315893 27:0.17153801 33:0.070453107 34:0.12865351 35:0.14703257 56:0.12865351 65:0.24199112 81:0.079642646 101:0.39515004 152:0.15009576 485:0.16847482 504:0.18991707 738:0.21135932 754:0.27262291 761:0.63101482 #
-0.91034832629583695151609390450176 6:0.10719633 19:0.40356266 292:0.42247966 641:0.510759 682:0.47292501 727:0.35942301 790:0.18286434 #
-1 5:0.26905009 6:0.034056973 12:0.30310708 31:0.2758615 41:0.19071905 43:0.26223871 66:0.25202161 110:0.26223871 152:0.2554273 238:0.32694694 728:0.34397545 765:0.48020333 #
-1 3:0.15219542 6:0.16346917 17:0.50168121 41:0.2254747 56:0.76661396 84:0.21420097 574:0.11837422 #
-1 6:0.053200029 13:0.24700014 23:0.1900001 58:0.15200008 97:0.26220015 142:0.26220015 719:0.20900011 721:0.38760021 727:0.47880027 749:0.56240034 #
1 1:0.040899754 3:0.079940431 4:0.046476994 6:0.033463433 12:0.046476994 19:0.16173993 20:0.048336074 26:0.25655299 49:0.044617914 54:0.048336074 109:0.18962613 128:0.10782662 176:0.21751232 221:0.19892153 243:0.14500822 245:0.074363187 263:0.05949055 304:0.11526294 386:0.048336074 388:0.078081347 394:0.092953987 476:0.20078062 515:0.15430361 617:0.024168037 639:0.23982129 658:0.14872637 667:0.16173993 672:0.34207067 678:0.05763147 681:0.05577239 692:0.45361546 727:0.013013558 754:0.19706245 757:0.068785951 802:0.27328473 809:0.11712202 819:0.17289442 844:0.17661257 #
0.99110018178043091108264661670546 2:0.1159532 3:0.05668823 4:0.1365671 6:0.04638128 12:0.06957192 19:0.23448314 35:0.11337646 53:0.24221334 72:0.13399036 84:0.082455605 127:0.21902271 133:0.13914384 139:0.30405504 164:0.52565449 185:0.3349759 237:0.15202752 303:0.015460426 306:0.25509703 650:0.13914384 653:0.14429732 702:0.29117137 764:0.17521816 784:0.11852993 #
1 2:0.097439729 4:0.11367968 6:0.052467547 10:0.31605449 11:0.093692049 12:0.057464454 17:0.079950549 25:0.086196683 29:0.11492891 32:0.092442818 34:0.16364877 39:0.11367968 47:0.16115032 53:0.086196683 57:0.10618432 64:0.10243664 77:0.014990727 81:0.099938184 84:0.13616577 96:0.11243045 98:0.1236735 123:0.1511565 138:0.099938184 142:0.1324181 172:0.078701317 185:0.23485473 200:0.57089686 332:0.21236864 348:0.17739028 373:0.11867659 408:0.10368586 467:0.082449004 639:0.074953638 667:0.11992582 696:0.076202862 722:0.1511565 752:0.15365496 769:0.087445907 770:0.15490419 814:0.16115032 #
0.90410981651230748479264320849325 3:0.077182189 6:0.053691957 7:0.082215808 10:0.0637592 11:0.07550431 12:0.13758564 13:0.10067242 14:0.23322444 25:0.13758564 32:0.14933075 39:0.1845661 40:0.12584051 42:0.092283048 56:0.13087414 58:0.13087414 76:0.20134483 81:0.08053793 84:0.055369828 94:0.11073966 101:0.10067242 104:0.13926351 117:0.25000316 125:0.11073966 133:0.092283048 142:0.10738391 144:0.22986868 150:0.26007041 161:0.14429712 179:0.12584051 257:0.24161381 259:0.20470057 411:0.23825805 425:0.078860059 471:0.13087414 534:0.2164457 594:0.15939799 598:0.12584051 605:0.1845661 613:0.27852702 780:0.15939799 813:0.088927299 #
1 2:0.1179832 5:0.1231129 6:0.047877241 11:0.34369019 12:0.20860797 26:0.1265327 33:0.054716844 45:0.17611985 49:0.12995251 56:0.19834857 57:0.12995251 80:0.018808916 81:0.061556451 138:0.044457436 152:0.1162733 212:0.1145634 259:0.30949217 272:0.34198028 275:0.13508222 506:0.18637925 553:0.18295945 613:0.121403 625:0.41208625 650:0.095754482 667:0.10772379 670:0.17782974 677:0.19492877 740:0.26332483 784:0.08720497 #
-1 3:0.12258425 5:0.2565189 6:0.065832287 11:0.24062836 12:0.43358505 16:0.23835827 33:0.11577402 54:0.29738033 57:0.27013937 84:0.34732205 125:0.34959215 270:0.24516851 425:0.24516851 702:0.049941733 790:0.26786929 #
-1 53:0.66436386 816:0.74740934 #
-1 6:0.1294526 10:0.17924206 19:0.074684195 21:0.059747353 25:0.064726301 38:0.084642082 41:0.05476841 49:0.079663143 50:0.16928416 56:0.12447365 68:0.12447365 101:0.094599977 116:0.10953682 125:0.20911574 130:0.084642082 142:0.20413679 149:0.099578924 172:0.11949471 209:0.10455787 304:0.069705248 425:0.074684195 433:0.08962103 493:0.084642082 569:0.10455787 574:0.55764198 648:0.11451577 650:0.56262094 725:0.18919995 #
-0.38238901487796123079832000257738 6:0.080852434 10:0.48006132 33:0.27287698 58:0.29309008 151:0.23750402 625:0.36383596 734:0.12633193 736:0.11622538 752:0.065692604 819:0.61649978 #
-1 12:0.89168572 267:0.079457141 386:0.3031143 819:0.32665715 #
1 3:0.22034413 6:0.014955484 7:0.23430258 28:0.092724003 33:0.051845677 41:0.082753681 65:0.17647471 71:0.091726966 101:0.14456968 126:0.045863483 139:0.14257561 185:0.09970323 235:0.17348361 294:0.11864684 301:0.19840942 302:0.05284271 393:0.61516893 420:0.098706193 430:0.32902065 625:0.15254593 638:0.11067058 700:0.14058155 728:0.067798197 732:0.3240355 761:0.15454 769:0.11764981 #
1 1:0.079710238 6:0.031314734 7:0.081133634 9:0.098214395 21:0.12668234 31:0.083980426 53:0.19927558 63:0.098214395 66:0.075440042 81:0.081133634 110:0.23628391 121:0.20212238 185:0.093944207 304:0.075440042 453:0.75867063 455:0.13379933 573:0.21635635 574:0.13379933 675:0.193582 705:0.044125307 716:0.14945669 743:0.14945669 749:0.15230349 797:0.0056935884 804:0.12241215 #
1 5:0.086379811 6:0.021987587 8:0.064392224 17:0.1382077 21:0.067533307 24:0.11936119 33:0.03926355 35:0.081668183 39:0.09894415 71:0.092661977 75:0.15391311 109:0.13192552 185:0.23558131 212:0.14448987 369:0.16019529 371:0.12250227 398:0.11622011 614:0.10993794 626:0.056539513 686:0.10365577 713:0.69417959 727:0.25913942 749:0.081668183 763:0.026699213 768:0.41148201 #
0.89164315123871540347266773096635 1:0.077035256 6:0.020542735 7:0.15578242 23:0.073611468 25:0.065051995 33:0.034237891 34:0.063340105 41:0.10956126 81:0.037661683 101:0.1917322 107:0.15749431 134:0.14893484 159:0.15064673 182:0.17461325 254:0.12325642 372:0.14722294 485:0.16434188 533:0.14379916 570:0.13352779 700:0.094154209 741:0.21227494 746:0.72755522 761:0.20542736 772:0.077035256 775:0.26534367 #
0.91823762409286968644295257035992 6:0.040844936 15:0.3847023 66:0.29066396 80:0.067441642 146:0.17002892 185:0.075040698 229:0.029446349 236:0.13108374 424:0.07599058 504:0.37330371 586:0.075040698 593:0.030396232 603:0.099737637 609:0.11113622 613:0.022797173 674:0.66396767 749:0.29161385 795:0.091188692 #
-1 6:0.055264559 25:0.36649129 80:0.28504878 98:0.53228498 135:0.65154004 185:0.21233225 190:0.16870233 #
-1 3:0.056206476 6:0.18618394 18:0.1440291 19:0.11592586 84:0.080796808 110:0.46370342 127:0.55503893 170:0.17213233 172:0.094848424 203:0.41100985 262:0.12997746 270:0.11592586 382:0.17915814 754:0.35831627 #
-1 806:0.5665288 811:0.8240419 #
-1 6:0.094075784 8:0.10661922 17:0.11289094 50:0.31358597 54:0.1630647 64:0.14424954 133:0.1630647 275:0.43274862 700:0.16933642 715:0.33240113 768:0.22578189 793:0.64598709 #
-1 6:0.071108066 11:0.24887824 26:0.13629046 35:0.12443912 49:0.14221613 56:0.1066621 59:0.12443912 64:0.13629046 96:0.2962836 99:0.15999316 109:0.20147286 130:0.1481418 203:0.15406749 258:0.20147286 269:0.20147286 430:0.18962151 504:0.15999316 625:0.57479024 691:0.18369584 725:0.16591883 727:0.30220929 819:0.088885084 #
1 3:0.046763439 5:0.18997647 6:0.037995294 12:0.10814045 30:0.096449591 34:0.15490389 53:0.33903494 54:0.11106317 84:0.064299732 109:0.073067874 173:0.22504905 193:0.21335819 211:0.11106317 356:0.15490389 425:0.090604164 485:0.10229503 536:0.3302668 550:0.25719893 578:0.16659476 682:0.10814045 727:0.14613575 743:0.4091801 746:0.18120833 755:0.27765793 772:0.093526877 790:0.11106317 808:0.12567675 833:0.27765793 #
0.19485813728684264756196853340953 3:0.067223273 4:0.079570398 5:0.069967076 6:0.046644717 8:0.052132331 12:0.20029791 13:0.087801822 17:0.22499217 18:0.085058011 19:0.13581844 20:0.16600032 22:0.1605127 43:0.068595171 50:0.0781985 51:0.10975228 66:0.26614928 74:0.13444655 108:0.12484322 109:0.053504236 172:0.054876138 175:0.20990123 212:0.16600032 244:0.10838038 262:0.15502509 413:0.0781985 415:0.12758702 433:0.083686113 459:0.69418317 523:0.14542177 620:0.11661179 727:0.12347131 #
1 3:0.14818148 6:0.052063767 11:0.14617904 12:0.17821828 14:0.076093197 16:0.074090742 17:0.12415206 26:0.0800981 33:0.036044147 50:0.086105458 65:0.23829184 81:0.04004905 84:0.10612998 91:0.12815696 100:0.084103003 101:0.19624035 116:0.1141398 159:0.15418884 205:0.12415206 259:0.098120175 354:0.13816923 382:0.27233353 413:0.14417659 436:0.15619129 485:0.16620356 502:0.10612998 551:0.38046598 555:0.18823053 619:0.20425016 687:0.084103003 690:0.17621583 700:0.094115265 701:0.4345322 730:0.072088294 747:0.034041692 761:0.20825507 819:0.046056408 #
1 4:0.11546525 6:0.040059369 11:0.19087112 12:0.17437609 28:0.082475178 29:0.11546525 33:0.091900907 34:0.16730678 50:0.33932644 53:0.24506909 56:0.082475178 58:0.28041559 64:0.10368308 81:0.10132664 84:0.13902958 198:0.27570271 345:0.22386119 375:0.21679188 382:0.12724741 528:0.16730678 627:0.21207902 640:0.23328692 771:0.030633636 773:0.36053434 790:0.16966322 793:0.040059369 796:0.28748488 #
1 38:0.34636337 90:0.13440967 95:0.4652642 190:0.039633617 203:0.36359537 241:0.058588825 243:0.36531857 277:0.13613287 292:0.11545445 363:0.15508807 387:0.16887368 436:0.17921288 574:0.2360785 625:0.084436841 638:0.094776042 696:0.13096327 711:0.12751685 714:0.14647207 727:0.26364973 786:0.13785607 801:0.17576648 820:0.11028485 #
-0.45842882115160554779009771664278 45:0.43369007 81:0.68723196 638:0.39365715 727:0.34695205 795:0.25354189 #
-0.80938224667558744673812043401995 8:0.092052065 42:0.14078552 43:0.1191262 59:0.1191262 185:0.36279342 243:0.43318617 278:0.12995586 286:0.18410413 304:0.34654894 670:0.1786893 678:0.17327447 684:0.30323032 703:0.14078552 772:0.12454103 787:0.15702999 790:0.43860102 792:0.21659309 #
-1 3:0.68906164 81:0.72470278 #
-0.82089493508384681064171672915109 6:0.084197633 56:0.17334807 59:0.20306487 185:0.20801768 203:0.24764009 211:0.25259289 493:0.48042178 592:0.069339223 656:0.56461942 691:0.29221532 768:0.33679053 #
0.64880121715772220980511519883294 1:0.18173397 2:0.17688772 6:0.048462391 10:0.14296405 25:0.15507965 33:0.16477212 44:0.2738125 59:0.17204148 69:0.25685066 110:0.17931084 158:0.19142644 181:0.21565764 206:0.089655422 223:0.15750277 251:0.30773616 270:0.35135233 296:0.14538717 329:0.30288994 660:0.32227489 679:0.072693586 754:0.27623561 784:0.11146349 819:0.11873285 #
0.48862027546288883117497903185722 10:0.17269807 32:0.2031742 216:0.044698324 226:0.039618969 261:0.083301425 291:0.32406285 409:0.55161792 448:0.085333161 451:0.075174451 507:0.37079293 549:0.073142715 600:0.34945962 734:0.071110971 753:0.45104674 790:0.039618969 803:0.0040634838 804:0.024380904 814:0.14323781 #
1 3:0.042922333 6:0.023681287 9:0.10804587 17:0.14208773 21:0.069563784 24:0.12284668 35:0.082884505 59:0.33597827 81:0.044402413 103:0.16132876 182:0.094725147 190:0.1731694 218:0.12580684 239:0.20129094 252:0.54318953 253:0.017760966 261:0.051802814 263:0.25161368 333:0.15540844 374:0.19093038 402:0.19241045 437:0.15244828 558:0.22201206 585:0.20277102 609:0.074004024 620:0.050322734 650:0.060683299 700:0.10804587 710:0.19537061 769:0.026641447 792:0.15392837 819:0.21017142 #
1 2:0.048280098 3:0.070879295 4:0.056497987 5:0.14792201 6:0.039034974 9:0.06060693 10:0.23318261 11:0.13970411 12:0.13970411 13:0.061634168 14:0.094505727 16:0.046225626 19:0.048280098 29:0.056497987 33:0.044171154 34:0.040062208 39:0.16846673 54:0.057525225 56:0.040062208 59:0.28043547 64:0.050334569 72:0.064715877 84:0.10066914 91:0.080124415 96:0.22085577 97:0.065743111 98:0.061634168 109:0.038007736 127:0.096560195 142:0.065743111 203:0.17154844 226:0.094505727 243:0.11505045 262:0.054443516 281:0.1222411 290:0.066770352 412:0.051361807 428:0.11299597 429:0.1109415 454:0.11915939 614:0.17565738 625:0.19003868 691:0.13559517 702:0.053416278 719:0.052389044 731:0.63483191 743:0.078069948 752:0.14792201 #
0.98327413021057452624518191441894 2:0.09228199 3:0.045199342 6:0.03766612 24:0.13183142 26:0.097931907 35:0.090398684 41:0.20339705 81:0.047082648 110:0.094165295 120:0.1581977 145:0.1902139 181:0.24106316 206:0.13183142 211:0.22223011 231:0.16008101 250:0.45576003 269:0.29191244 443:0.21658018 449:0.14689787 501:0.18079737 575:0.20716366 629:0.15631439 645:0.22223011 710:0.1581977 725:0.11676497 727:0.18079737 768:0.15066448 793:0.084748767 819:0.27684599 #
-1 382:0.66444111 689:0.58308101 696:0.15594026 752:0.44070077 #
-1 6:0.19163524 17:0.29308918 19:0.3550888 656:0.36072513 738:0.4847244 743:0.4847244 801:0.38890678 #
-0.86844384439020905208650447093532 6:0.13669829 493:0.39432198 676:0.55205077 769:0.39432198 814:0.60462701 #
-1 6:0.038662948 101:0.76466715 292:0.52409774 296:0.2019065 762:0.31359947 #
-1 84:0.68370098 382:0.7268821 754:0.064771675 #
1 2:0.1599472 3:0.15668297 6:0.044067085 7:0.16647565 63:0.20075005 81:0.083237827 130:0.37375417 136:0.093030512 168:0.15668297 190:0.11751223 246:0.33784765 270:0.1599472 342:0.19748582 395:0.15831508 478:0.08813417 637:0.1942216 670:0.2415529 706:0.34274399 719:0.34764034 720:0.12240857 790:0.071813025 796:0.2056464 818:0.27909154 #
0.84184872034934254969584799255244 1:0.23512214 2:0.22828719 3:0.11209311 6:0.061514512 21:0.18591052 25:0.20231439 71:0.082019351 81:0.11756107 122:0.14900182 135:0.35815117 213:0.14490086 328:0.086120315 399:0.11209311 432:0.075184405 497:0.10252419 577:0.13943289 608:0.12166204 625:0.099790208 658:0.19137849 660:0.058780536 696:0.097056232 772:0.23512214 787:0.59874123 790:0.14626785 836:0.090221286 854:0.18864451 #
1 1:0.17083465 3:0.082132041 6:0.044351302 14:0.16426408 56:0.13962446 69:0.24146819 81:0.085417323 83:0.25460932 215:0.16097879 233:0.12319806 364:0.13141127 368:0.13469654 390:0.35645306 425:0.16426408 510:0.20697273 625:0.10184373 656:0.1330539 670:0.2496814 702:0.17083465 751:0.022996971 759:0.62584615 #
1 1:0.099334046 6:0.012854994 12:0.057263158 16:0.093490869 77:0.11920086 81:0.10050268 144:0.067780882 168:0.10050268 185:0.11569495 211:0.11686359 416:0.75377011 504:0.12153813 561:0.17295811 602:0.11569495 610:0.05375725 694:0.28047261 749:0.18931901 779:0.13439313 839:0.077129968 896:0.37980664 #
0.97517791629357641891573393877479 1:0.0950002 2:0.092978925 6:0.012127685 7:0.097021483 21:0.075798035 24:0.13340454 25:0.081861876 30:0.096010841 33:0.043457538 35:0.089947 54:0.11117045 67:0.027287291 81:0.0475001 171:0.11521301 233:0.12633006 262:0.10510661 304:0.088936359 382:0.12026621 396:0.10409597 460:0.092978925 516:0.10005341 571:0.25468141 633:0.070744835 650:0.15058543 702:0.0040425616 754:0.13340454 762:0.14047903 784:0.059627786 790:0.085904442 804:0.068723552 819:0.0950002 825:0.26781973 827:0.26781973 859:0.11319173 900:0.71048021 #
-1 6:0.094805852 34:0.2995865 53:0.39060012 56:0.59158856 638:0.1896117 670:0.53091276 727:0.28441757 #
-1 6:0.11665434 16:0.10536522 41:0.16181086 177:0.1994413 185:0.38759345 264:0.052682608 270:0.32738477 550:0.36877826 756:0.27470216 772:0.1128913 790:0.21825652 796:0.59456086 799:0.15428478 #
-1 10:0.43176767 14:0.26310843 130:0.62066603 142:0.3609308 485:0.29346707 790:0.37779671 #
-1 6:0.016329207 12:0.073481426 21:0.10341831 22:0.29936877 25:0.11158291 54:0.15240592 64:0.26671037 144:0.10069677 175:0.2612673 262:0.14424132 288:0.60690218 625:0.13335519 638:0.37557173 641:0.19322893 650:0.11158291 772:0.2612673 775:0.20683661 #
-1 3:0.14328021 6:0.079051152 26:0.31126392 33:0.13833952 128:0.7855708 692:0.37055227 729:0.13339882 784:0.29150113 #
0.91553205963202877182283145884867 3:0.060415473 4:0.10780016 6:0.0035538513 10:0.049753919 12:0.053307772 19:0.060415473 20:0.074630879 31:0.098323219 37:0.039092366 41:0.045015451 43:0.030800045 45:0.15873869 100:0.22863111 152:0.029615428 169:0.16110793 180:0.21915416 194:0.091215521 277:0.13030788 287:0.021323109 290:0.085292436 346:0.10898478 352:0.61481631 353:0.50583154 382:0.19546182 394:0.069892406 435:0.1042463 450:0.072261646 518:0.073446259 560:0.05804624 652:0.14926176 669:0.053307772 727:0.14807715 809:0.05686162 873:0.081738584 #
1 6:0.012023252 7:0.19237202 15:0.35668978 30:0.19036815 37:0.12023252 43:0.094182134 45:0.18435653 70:0.12023252 122:0.19036815 205:0.2023914 235:0.14227514 292:0.24447277 304:0.088170514 471:0.23044565 540:0.1863604 613:0.22844177 625:0.33464718 638:0.30058128 656:0.25649604 725:0.11822864 754:0.14027126 763:0.31661227 765:0.094182134 790:0.10820926 #
0.70015947449105164768212716808193 46:0.27784368 79:0.12973246 120:0.16324668 124:0.34162882 166:0.34919652 279:0.13838129 377:0.64758122 389:0.077839479 625:0.062704019 720:0.13405688 739:0.41730607 766:0.0075677265 #
1 4:0.10488123 6:0.011237275 10:0.073042288 16:0.086152442 39:0.10488123 62:0.17230488 74:0.17605065 91:0.14983034 142:0.12173715 154:0.1254829 156:0.28467765 243:0.21350823 262:0.10113548 266:0.36521146 297:0.17417777 311:0.16481337 341:0.18541504 370:0.19665232 397:0.046821982 424:0.11424563 447:0.22474551 628:0.34835553 668:0.19290656 696:0.25658447 743:0.23410991 765:0.29029629 768:0.14608458 777:0.0074915169 #
-1 6:0.0090975612 8:0.44350609 141:0.020469511 185:0.10007317 243:0.77329266 625:0.3707256 745:0.093249999 794:0.22061585 #
-0.15928450411692204879976486608939 6:0.057019316 77:0.2591787 100:0.44578737 696:0.66349751 743:0.53909171 #
-0.62250148861983556347610146985971 6:0.022221308 54:0.38146579 59:0.31109831 110:0.1592527 116:0.23702729 254:0.055553269 625:0.41850129 696:0.41109419 707:0.25184149 719:0.51479363 #
-1 6:0.021667674 34:0.12691066 41:0.11143375 42:0.17643677 43:0.15167372 54:0.17953216 100:0.39311349 139:0.11143375 172:0.12071989 275:0.26310745 702:0.21667673 719:0.48907033 743:0.550978 775:0.034049202 808:0.20739059 #
-1 613:0.56819069 625:0.8228969 #
1 3:0.025149332 6:0.01456014 8:0.19722371 12:0.18133992 19:0.051622313 22:0.24090412 25:0.09000814 26:0.054269612 32:0.048975017 33:0.023825683 57:0.11251017 84:0.035738524 98:0.066182449 100:0.15221964 133:0.060887858 178:0.10324463 191:0.2131075 268:0.051622313 288:0.32694131 327:0.26208252 493:0.059564207 547:0.10589193 625:0.05559326 695:0.076771647 756:0.08074259 858:0.074124344 860:0.074124344 863:0.10721558 879:0.72138876 #
1 8:0.21738803 10:0.23166899 25:0.25071028 26:0.30148706 41:0.20945416 58:0.058710635 80:0.13804933 139:0.15074353 264:0.15550385 473:0.10631385 526:0.12059482 748:0.73784989 752:0.00793387 779:0.10790063 790:0.2189748 798:0.046016444 #
0.80806686173606268042135525320191 3:0.091648676 4:0.1451104 6:0.033604514 8:0.09470363 10:0.35131991 21:0.050406769 25:0.21842934 29:0.073318936 33:0.029022079 34:0.1038685 35:0.059571639 36:0.076373897 38:0.070263982 40:0.097758584 43:0.062626593 52:0.067209028 54:0.073318936 56:0.05193425 64:0.064154074 67:0.17565995 99:0.074846417 130:0.071791463 142:0.084011286 172:0.050406769 177:0.047351815 275:0.009164867 482:0.15274779 493:0.071791463 548:0.13900049 583:0.17871492 588:0.6766727 641:0.18329735 703:0.073318936 707:0.099286065 717:0.21995682 743:0.16344014 823:0.10081354 #
0.98744559999724490495509598986246 3:0.096086785 6:0.052753527 12:0.11492733 14:0.19405761 23:0.19405761 25:0.17144896 109:0.15449247 127:0.2279706 128:0.25999951 185:0.103623 202:0.27884007 217:0.23739088 221:0.32217333 261:0.2656517 295:0.29768062 434:0.14318815 591:0.054637581 594:0.3975355 733:0.26941979 805:0.25434735 #
1 1:0.079149522 6:0.020558318 8:0.058591206 10:0.062702872 12:0.090456598 16:0.22305775 20:0.093540348 22:0.090456598 65:0.12129407 78:0.63833576 81:0.040088721 93:0.16857821 99:0.093540348 101:0.19838777 106:0.4975113 116:0.11512658 127:0.065786615 175:0.079149522 479:0.074009947 485:0.084289104 580:0.14082448 613:0.058591206 638:0.10073576 665:0.04728413 696:0.081205353 700:0.096624099 761:0.21175067 800:0.14082448 804:0.10279159 #
-1 800:1 #
-0.90012414624225323134254495016648 33:0.40385073 122:0.41263011 754:0.81648088 #
-1 3:0.20254788 8:0.47155675 12:0.60131401 33:0.094944313 185:0.19305344 430:0.300657 790:0.39876613 804:0.28166813 #
-0.93148162247654553436149171830039 6:0.17165923 21:0.25748885 30:0.32351163 84:0.21787518 202:0.2442843 425:0.31030709 553:0.4885686 761:0.43575037 805:0.40934125 #
-1 3:0.40060928 6:0.10840016 12:0.24036556 33:0.18852201 53:0.24979167 714:0.22151336 788:0.19323507 789:0.76351416 819:0.051843554 #
0.85464794691850731744864333450096 2:0.081636429 3:0.038550537 6:0.054424286 7:0.16780822 43:0.081636429 88:0.29706591 115:0.21542947 143:0.1383284 145:0.16100518 172:0.065762684 173:0.18821733 239:0.190485 267:0.24037394 402:0.36282858 479:0.10884857 524:0.2131618 573:0.11338393 586:0.39004073 625:0.2857275 664:0.29026288 680:0.19275269 696:0.056691967 727:0.28345984 815:0.0022676787 #
1 3:0.047480162 6:0.039822072 9:0.12099783 17:0.079644144 41:0.070454434 50:0.22055301 58:0.09649194 128:0.12865593 135:0.15009858 172:0.07811252 186:0.13937725 200:0.37677804 214:0.23893242 219:0.15009858 220:0.39209422 228:0.16541475 304:0.091897085 426:0.11180812 455:0.10261841 465:0.10721327 489:0.14703533 550:0.10261841 574:0.26037508 616:0.093428701 638:0.20830005 692:0.12099783 727:0.041353688 737:0.4319163 787:0.12559268 790:0.16847798 819:0.053606633 #
1 80:0.10944564 153:0.52159226 190:0.091697693 203:0.299743 270:0.25044316 275:0.12522158 351:0.58075207 371:0.085781716 387:0.11240362 433:0.30664498 449:0.10550165 452:0.096627682 498:0.072963759 508:0.062117793 540:0.050285835 566:0.043383855 628:0.069019772 638:0.19325536 727:0.078879736 790:0.074935749 #
0.53138149937859124882777450693538 3:0.15580814 5:0.10848863 6:0.035778165 11:0.050781913 16:0.15234573 17:0.043857105 18:0.065785661 27:0.058860853 31:0.056552585 33:0.048473645 41:0.039240569 49:0.057706717 59:0.051936049 81:0.054244317 84:0.036932301 110:0.10618036 120:0.11195104 153:0.21813139 167:0.068093926 172:0.085405946 233:0.17542842 238:0.13272545 257:0.08078941 270:0.051936049 276:0.099255554 282:0.075018734 283:0.12464651 284:0.038086433 290:0.073864602 331:0.099255554 351:0.73056704 395:0.094639018 408:0.11887584 440:0.13157132 457:0.10618036 476:0.08771421 493:0.061169121 495:0.08886835 517:0.10848863 641:0.16388708 693:0.08886835 727:0.098101422 754:0.14657506 770:0.084251814 772:0.054244317 796:0.10040969 813:0.13618785 #
1 3:0.075354293 6:0.082889721 7:0.31648803 14:0.15070859 17:0.24866916 21:0.12307867 33:0.14066134 41:0.11051963 44:0.10800782 56:0.1281023 61:0.23611012 109:0.12056687 130:0.17582668 163:0.23862192 172:0.24615735 177:0.26625183 185:0.24364555 187:0.1808503 188:0.3114644 325:0.11051963 400:0.25118098 418:0.23862192 464:0.13814953 607:0.10047239 649:0.22355106 725:0.19340935 #
-0.91820213207989420656218726435327 6:0.17295304 39:0.49724001 41:0.62695479 43:0.43238261 172:0.34590608 224:0.036031883 656:0.10088927 686:0.10809565 #
-1 6:0.071923837 41:0.3955811 49:0.58258307 58:0.6616993 480:0.035961919 727:0.24454103 #
-1 25:0.7919898 696:0.57350987 790:0.20937662 #
-0.61425946638295836343957034841878 6:0.053394958 151:0.20947252 710:0.39840853 727:0.89128506 775:0.012321914 #
1 1:0.02753189 3:0.012389351 4:0.031661674 5:0.02753189 6:0.013765945 8:0.12114032 10:0.022025513 12:0.21750194 15:0.06882973 19:0.13215308 20:0.096361615 21:0.022025513 23:0.052310593 30:0.02753189 49:0.028908486 51:0.04267443 53:0.26843593 54:0.094985023 55:0.034414865 68:0.13215308 82:0.356538 125:0.037168052 133:0.1252701 192:0.19685301 203:0.031661674 243:0.1266467 258:0.041297834 382:0.070206322 425:0.052310593 545:0.1252701 570:0.15004881 580:0.62772709 585:0.086725459 631:0.020648917 691:0.037168052 695:0.078465886 696:0.33313587 719:0.028908486 724:0.02753189 749:0.052310593 783:0.06469994 800:0.13765946 808:0.035791457 #
0.92089321957508007976400676852791 3:0.050474156 4:0.060827829 5:0.053062577 6:0.034943648 8:0.078946762 10:0.041414693 12:0.18118928 14:0.10224252 15:0.19930822 23:0.051768366 32:0.049179949 37:0.067298874 43:0.051768366 81:0.053062577 101:0.066004664 144:0.19283716 145:0.13330354 241:0.14753984 243:0.062122039 252:0.10871357 275:0.023295766 278:0.055650994 291:0.078946762 301:0.090594642 321:0.10094831 385:0.13200933 527:0.067298874 538:0.79982126 601:0.097065687 621:0.056945205 645:0.10483094 653:0.07506413 691:0.072475716 710:0.12424408 720:0.084123597 729:0.10224252 738:0.071181506 749:0.050474156 754:0.12942092 761:0.071181506 #
0.36653530789116933741311754602066 3:0.035264019 5:0.14853632 6:0.048087299 12:0.041675657 15:0.27783772 21:0.058773365 23:0.071596645 26:0.075871073 41:0.05343033 45:0.14319329 81:0.073733859 84:0.050224513 97:0.098311812 109:0.056636151 113:0.11220369 121:0.092968777 125:0.10151763 128:0.19128059 136:0.050224513 155:0.12182116 190:0.080145493 238:0.090831563 275:0.12609558 278:0.07693968 302:0.11113509 349:0.033126805 526:0.14319329 553:0.11113509 573:0.099380419 578:0.1293014 582:0.097243205 613:0.0010686066 644:0.11647812 650:0.04060705 700:0.089762956 721:0.72024089 807:0.11754673 828:0.14212468 834:0.070528038 847:0.073733859 886:0.21478993 #
0.52597998486975106047225381189492 1:0.16589634 6:0.04313305 13:0.20737043 14:0.1592605 16:0.15594256 21:0.13105811 33:0.14930671 36:0.19741665 42:0.18912183 48:0.23059592 53:0.23391385 54:0.19243976 58:0.26875207 86:0.27372897 135:0.25216246 146:0.056404758 148:0.36828989 185:0.074653357 262:0.18248598 273:0.18580391 282:0.22727799 383:0.23059592 613:0.1907808 640:0.066358536 762:0.1227633 819:0.18746287 #
-1 #
-1 6:0.036751032 16:0.27103886 130:0.33075929 282:0.39966747 425:0.56045324 638:0.40885523 678:0.40885523 752:0.087283701 #
-0.773638813827962845692809423781 6:0.062434923 10:0.076309353 23:0.093652382 41:0.069372132 48:0.13527566 53:0.16302451 64:0.097120993 101:0.12140124 142:0.12833846 243:0.11446402 278:0.1005896 656:0.39542118 677:0.15608731 749:0.82899702 #
-0.93909029587907510983058045894722 6:0.1850539 109:0.21589622 145:0.19661976 172:0.073250502 203:0.10794811 262:0.10409282 272:0.13107985 304:0.87900603 761:0.25059381 #
1 6:0.017315026 9:0.16160691 12:0.2222095 23:0.12697686 25:0.22509533 33:0.057716753 40:0.20200863 42:0.15006356 43:0.1298627 49:0.27992624 53:0.03751589 56:0.21355198 76:0.16449274 84:0.089460969 118:0.24241036 125:0.17892194 128:0.17026442 234:0.23952453 259:0.16449274 386:0.28569794 503:0.15294939 653:0.35207218 671:0.18757945 872:0.38093057 #
1 3:0.08857777 4:0.14024813 6:0.023989813 17:0.097804621 26:0.12733054 37:0.077505551 44:0.19745462 67:0.32478517 70:0.077505551 79:0.34323886 95:0.18269166 127:0.33770275 212:0.17161943 270:0.059051849 290:0.08304166 292:0.14393888 447:0.16239259 567:0.0092268512 625:0.059051849 663:0.084887035 696:0.097804621 723:0.055361107 727:0.15132037 754:0.27496016 760:0.011072221 784:0.19191851 816:0.0682787 862:0.49086848 868:0.12179444 870:0.12179444 890:0.025835184 895:0.051670369 #
0.64665083546648816081869881600142 1:0.12227881 2:0.11973133 3:0.058591928 6:0.048402026 8:0.18341821 11:0.11718386 12:0.071329303 16:0.11718386 23:0.11973133 31:0.12737375 33:0.16813336 57:0.26238993 66:0.11718386 68:0.20125054 81:0.061139405 84:0.16813336 170:0.35919398 210:0.20634548 255:0.26238993 331:0.22672528 433:0.14520608 466:0.31588691 613:0.056044452 674:0.2674849 698:0.29041216 727:0.33626673 #
0.041485516108820313929683720743924 1:0.16074842 6:0.021255989 14:0.15543441 25:0.13816392 27:0.17669041 33:0.073067464 53:0.14082092 58:0.079709962 77:0.2006034 81:0.08103846 105:0.71340412 132:0.34009582 144:0.13550693 161:0.14082092 182:0.12355044 273:0.18200441 293:0.13816392 382:0.11425094 692:0.1966179 700:0.1966179 754:0.015941992 #
0.8429099238793797965740850486327 2:0.072938755 3:0.083929531 5:0.024979027 6:0.029974831 8:0.018984061 10:0.21781711 12:0.028975671 17:0.019983221 19:0.072938755 25:0.021981543 28:0.040965602 38:0.027976509 39:0.056952178 46:0.035969798 49:0.079932883 52:0.026977349 58:0.080932043 62:0.0949203 66:0.04795973 72:0.027976509 74:0.04795973 75:0.044962246 81:0.012989094 84:0.033971477 91:0.040965602 99:0.029974831 100:0.11390436 103:0.04596141 109:0.038967282 116:0.036968958 118:0.09292198 130:0.028975671 142:0.032972313 203:0.028975671 211:0.029974831 222:0.050957214 272:0.034970637 280:0.058950502 286:0.036968958 295:0.036968958 381:0.67143625 403:0.13388759 404:0.11989933 405:0.059949663 406:0.066943794 407:0.053954698 418:0.073937915 425:0.023979865 458:0.39866525 460:0.1308901 485:0.053954698 494:0.099916108 497:0.117901 522:0.051956374 533:0.04696057 550:0.148875 553:0.037968121 556:0.036968958 569:0.034970637 635:0.15686828 651:0.044962246 654:0.044962246 657:0.051956374 671:0.035969798 693:0.040965602 696:0.09192282 698:0.058950502 719:0.10591107 731:0.053954698 749:0.023979865 764:0.072938755 765:0.09092366 797:0.117901 808:0.033971477 813:0.11890016 852:0.0949203 865:0.055953018 #
-1 6:0.18077436 7:0.13823922 12:0.079753391 19:0.13292232 23:0.13292232 39:0.1541899 59:0.26052776 81:0.13823922 125:0.18609126 167:0.17014058 170:0.39876696 190:0.41471764 203:0.15950678 278:0.1435561 433:0.15950678 504:0.16482368 703:0.31369668 755:0.20204192 810:0.40408385 #
-1 33:0.36074272 653:0.62737864 727:0.69011647 #
0.89780814543052356313523887365591 2:0.14025792 17:0.11626644 21:0.11442094 24:0.2011594 33:0.064592466 41:0.10334795 43:0.14210343 166:0.77695513 217:0.10888445 223:0.14394893 304:0.13472143 375:0.15133093 492:0.15502192 505:0.27313387 625:0.2214599 692:0.17716791 696:0.14763993 802:0.0073819966 #
1 6:0.033598021 7:0.25692603 10:0.10079405 33:0.057314269 34:0.20751718 40:0.19565906 52:0.13439208 56:0.10277041 57:0.13439208 88:0.22728072 121:0.16008468 152:0.12253395 164:0.083006874 167:0.15810832 263:0.17984822 300:0.29052404 317:0.22925708 425:0.12253395 430:0.36167279 470:0.22135165 613:0.22728072 625:0.11265218 630:0.24704425 632:0.25297332 727:0.092888638 774:0.19763541 804:0.25692603 #
1 1:0.053346664 3:0.012842715 6:0.017782221 10:0.020745924 11:0.024697529 12:0.014818517 17:0.021733826 18:0.032600738 24:0.037540246 27:0.029637035 29:0.030624935 31:0.055322465 32:0.098790117 33:0.011854814 43:0.026673332 45:0.13929406 51:0.041491847 54:0.030624935 57:0.028649135 66:0.02568543 79:0.030624935 81:0.026673332 84:0.036552344 129:0.043467652 162:0.067177281 203:0.030624935 233:0.076068386 243:0.031612836 270:0.02568543 290:0.036552344 291:0.11854814 382:0.085947402 409:0.67177278 478:0.035564441 507:0.58780122 600:0.169919 613:0.1630037 625:0.0098790117 648:0.11854814 684:0.032600738 695:0.038528144 719:0.083971597 738:0.035564441 752:0.11163283 753:0.055322465 790:0.13731827 #
1 1:0.2992413 3:0.072712839 5:0.15101898 6:0.0587296 7:0.30483457 11:0.13983238 12:0.25449494 33:0.13423908 60:0.19576533 109:0.11466255 245:0.27127481 325:0.12025585 425:0.14542568 468:0.041949715 638:0.38034406 677:0.2405117 696:0.42509043 727:0.29644465 736:0.16779886 760:0.14822233 #
0.66859095575176263892558381485287 12:0.20219114 22:0.40438229 25:0.3032867 36:0.42252764 145:0.038882911 151:0.11924093 160:0.68304318 189:0.086838506 212:0.090726793 285:0.058324367 752:0.12312922 784:0.092022896 #
-0.7751110710009208037973849059199 6:0.043596245 233:0.48500821 382:0.11444014 573:0.44141197 613:0.58309978 752:0.29972419 786:0.1961831 819:0.29427466 #
-1 10:0.64229685 185:0.41129535 696:0.61412591 769:0.20283058 #
-0.97424540590349595348129696503747 6:0.089118905 58:0.35647562 596:0.69722438 613:0.4980174 765:0.36171791 #
0.67820231547765685853335071442416 3:0.10378144 4:0.24826148 5:0.21977247 6:0.056978047 11:0.10174651 12:0.18517865 20:0.12820061 29:0.12413074 34:0.089536928 39:0.12413074 54:0.12616567 58:0.35000801 63:0.13227047 64:0.11192116 81:0.054943118 96:0.12209582 98:0.13634032 137:0.17907386 138:0.27268064 242:0.32558885 433:0.12820061 537:0.3032046 610:0.22180739 692:0.13227047 707:0.16889921 757:0.17907386 810:0.32151899 819:0.14041018 #
0.75221651117492893678928567169351 3:0.068563864 6:0.057369765 8:0.10634395 17:0.22947906 19:0.27985251 25:0.1231351 27:0.31483409 33:0.06436608 35:0.13572846 39:0.16371372 42:0.16371372 43:0.14132552 56:0.11753806 75:0.25746432 172:0.11334027 190:0.1679115 232:0.13712773 267:0.19589676 290:0.1944975 295:0.21268791 445:0.085355014 468:0.030783776 474:0.20709085 508:0.14412405 510:0.17490782 512:0.23927389 581:0.25746432 606:0.090952069 623:0.046175666 658:0.099347644 727:0.034981564 752:0.1497211 819:0.19309823 856:0.26585987 #
0.57074593678879415037386024778243 2:0.12995413 3:0.031577639 6:0.02671954 12:0.037650261 13:0.083802193 14:0.064369798 33:0.060726225 38:0.074085996 40:0.10323459 42:0.076515049 48:0.093518391 53:0.01335977 56:0.054653604 57:0.070442423 84:0.046151932 86:0.11052173 101:0.083802193 119:0.13238317 126:0.13845579 152:0.064369798 185:0.09473291 194:0.10930721 246:0.54775059 342:0.13845579 484:0.14817199 543:0.047366455 565:0.10930721 591:0.077729568 641:0.060726225 710:0.11052173 837:0.16153176 883:0.6631304 #
0.31934570484655799837980794109171 1:0.12553439 3:0.059548363 6:0.032188304 16:0.23497462 29:0.2864759 33:0.056329533 69:0.17703567 81:0.062767193 96:0.14001912 148:0.27842882 173:0.093346082 191:0.25267819 223:0.21727104 288:0.19312982 327:0.31061712 360:0.35085252 446:0.10300257 493:0.14001912 557:0.28164765 656:0.13197204 727:0.30417946 749:0.11909673 899:0.31061712 #
-1 34:0.56269789 81:0.34387091 638:0.087530777 641:0.34387091 710:0.66273302 #
-1 6:0.041354854 54:0.38770175 58:0.25846782 84:0.2274517 638:0.74438739 787:0.41871789 #
-1 6:0.13491166 21:0.28805465 25:0.061986439 28:0.058340177 30:0.072925225 33:0.03281635 34:0.058340177 52:0.076571487 56:0.11668035 84:0.051047657 109:0.33180976 172:0.058340177 175:0.072925225 235:0.10938784 262:0.080217749 275:0.30628595 553:0.21877567 658:0.38285741 671:0.10574158 755:0.10574158 761:0.098449051 765:0.6125719 812:0.16408175 #
-0.4201539083789123663059683622123 33:0.50183654 550:0.40808687 638:0.69485056 710:0.31433716 #
0.81984522737818510407237226900179 2:0.18938756 3:0.092456922 6:0.02535109 23:0.18789633 25:0.16701895 30:0.19535252 33:0.17447515 42:0.22070362 48:0.27140579 58:0.14763282 84:0.13272041 86:0.32061675 127:0.22517733 132:0.41009116 162:0.096930638 202:0.13868538 241:0.14166786 287:0.10886057 304:0.18193136 343:0.096930638 473:0.14763282 488:0.21772113 547:0.2236861 574:0.19684376 613:0.17298391 696:0.18640508 716:0.035789777 766:0.10736933 819:0.034298535 #
1 3:0.047329515 5:0.099917866 6:0.039441261 8:0.14856209 12:0.11306495 16:0.18668865 22:0.22744462 28:0.08019723 33:0.044700097 49:0.10649141 53:0.39046851 65:0.15250622 66:0.18800335 68:0.16170917 81:0.049958933 92:0.09465903 108:0.090714902 137:0.16302389 170:0.28923592 172:0.078882523 255:0.2103534 340:0.17354156 467:0.059161894 563:0.061791312 589:0.078882523 596:0.21824165 612:0.40361559 613:0.13278559 626:0.06442073 638:0.10780612 651:0.17617097 654:0.17880039 656:0.15513563 657:0.20772398 710:0.090714902 804:0.036811844 #
0.41856218016505963852580407547066 2:0.07947579 6:0.010776378 7:0.083516926 9:0.20205708 13:0.10372264 14:0.07947579 36:0.098334447 56:0.067352362 62:0.31116793 71:0.07812874 81:0.041758463 117:0.14952224 162:0.10776378 249:0.25998011 281:0.10102854 297:0.47146654 354:0.086211026 378:0.075434648 415:0.45126083 417:0.16164567 423:0.11045787 542:0.27345058 574:0.12123425 613:0.083516926 670:0.12123425 673:0.21283346 711:0.15491043 727:0.086211026 796:0.14548109 800:0.10372264 814:0.029635038 #
-1 53:0.58190471 81:0.25574157 151:0.35581434 690:0.20014556 790:0.24462235 819:0.60784948 #
-0.69175120570131976016625685588224 6:0.12390649 17:0.24781299 19:0.1525003 25:0.26687554 41:0.10960959 57:0.16679721 84:0.10484396 96:0.17632848 203:0.36218822 269:0.23828173 278:0.16203158 485:0.33359441 695:0.22398482 696:0.40507892 719:0.16679721 726:0.26210991 749:0.29546934 765:0.1525003 #
0.65340079488729985168760094893514 2:0.098336652 4:0.23064415 6:0.053638175 10:0.32004112 11:0.094760776 12:0.1734301 25:0.085821085 30:0.10191254 32:0.2824944 52:0.2145527 54:0.11800399 55:0.12694368 72:0.089396961 84:0.069729626 90:0.037546724 98:0.12515575 120:0.094760776 123:0.15197483 141:0.24315973 142:0.13409545 164:0.1555507 172:0.080457263 177:0.2234924 185:0.10727635 318:0.18773362 363:0.17700598 379:0.12694368 427:0.1412472 543:0.12873162 544:0.205613 626:0.055426113 690:0.1823698 699:0.19488537 765:0.26640293 830:0.11800399 878:0.25925118 #
0.38447672675212879456196901628573 1:0.11483818 2:0.11222823 6:0.015659753 23:0.11092325 33:0.10439835 35:0.10961827 54:0.13441287 61:0.17486724 81:0.057419091 110:0.11353321 134:0.18791702 136:0.19444193 151:0.17225727 156:0.20096682 163:0.15268259 231:0.5872407 262:0.12788798 280:0.26882574 293:0.073078848 390:0.24142118 477:0.25838593 523:0.24011621 611:0.053504154 727:0.11483818 733:0.17356226 808:0.15398757 811:0.126583 #
0.25347488717173582983832602621987 1:0.17643766 3:0.084334984 5:0.088773668 6:0.034399796 7:0.089883335 9:0.10763807 10:0.27852738 18:0.10763807 33:0.039948151 35:0.08322531 56:0.1442572 82:0.43388131 160:0.51044858 175:0.087663993 185:0.32180455 231:0.14980556 238:0.10763807 274:0.3462173 291:0.13094115 532:0.12095412 645:0.077676959 648:0.13094115 662:0.046606176 691:0.12095412 703:0.10098004 765:0.063251235 799:0.12095412 #
0.74977386682082169944152383322944 2:0.15530467 3:0.077652335 6:0.031060936 21:0.12812635 33:0.036884859 41:0.058239255 53:0.17083514 58:0.20383739 115:0.10483066 119:0.15918729 134:0.15336336 135:0.12230244 202:0.044650093 218:0.12424374 284:0.060180563 304:0.075711027 324:0.26013532 367:0.12618504 430:0.1145372 446:0.091241494 476:0.13006766 541:0.2737245 592:0.21354394 616:0.29119626 636:0.079593644 678:0.11259589 721:0.62704265 771:0.13783289 772:0.079593644 787:0.10288935 #
-0.67296455990036918581864711086382 33:0.33454156 66:0.69949597 185:0.22640692 382:0.48322669 613:0.1317891 754:0.3108871 #
1 17:0.24713126 81:0.15445703 83:0.4603816 117:0.063775808 199:0.074737273 214:0.075733773 271:0.64373708 296:0.040856376 456:0.1315376 517:0.14748156 638:0.092674218 643:0.047831856 712:0.44144818 714:0.044842366 740:0.023915928 741:0.10662518 752:0.11360066 #
0.83282787471765695741510171501432 12:0.13270828 58:0.04899998 97:0.31033319 185:0.066354141 215:0.082687467 250:0.74827051 286:0.34606236 369:0.093916625 401:0.043895815 493:0.26235405 551:0.10208329 656:0.11331245 658:0.046958312 689:0.19293742 723:0.15210409 727:0.11024995 790:0.10820828 809:0.059208307 #
0.93928669699578393181838009695639 2:0.049318705 3:0.096343517 6:0.026379772 10:0.040143132 11:0.094049625 12:0.086020999 14:0.096343517 19:0.19498092 31:0.052759543 33:0.044730917 39:0.11469466 41:0.035555344 52:0.052759543 54:0.058494277 55:0.063082062 70:0.063082062 76:0.12616412 84:0.13648665 94:0.13763359 101:0.063082062 109:0.038996186 116:0.073404588 135:0.076845422 150:0.080286264 159:0.09863741 185:0.18236451 216:0.084874049 218:0.1548378 242:0.072257638 259:0.063082062 262:0.055053439 278:0.051612597 281:0.019498093 287:0.15369084 334:0.14107443 396:0.09863741 414:0.68243325 470:0.087167941 506:0.076845422 534:0.082580157 536:0.072257638 546:0.20300955 613:0.23741795 638:0.065375961 642:0.057347331 696:0.18809925 697:0.086020999 790:0.063082062 792:0.087167941 811:0.11469466 864:0.07569848 #
0.97318059997203953948030630272115 1:0.044566259 6:0.0055707823 8:0.065735236 10:0.03565301 12:0.050137043 25:0.075762644 26:0.045680419 33:0.020054817 35:0.083561741 41:0.12812799 43:0.043452103 55:0.055707827 61:0.067963548 63:0.054593667 66:0.042337947 100:0.061278608 154:0.061278608 155:0.073534332 172:0.03565301 188:0.091360837 203:0.051251199 270:0.12924215 275:0.090246677 289:0.76208305 310:0.062392764 320:0.094703302 397:0.033424694 485:0.047908731 552:0.062392764 557:0.10027409 562:0.40778127 564:0.10138825 572:0.11587228 603:0.051251199 613:0.12144306 754:0.17380841 784:0.07019186 785:0.072420172 790:0.080219269 803:0.16935179 #
0.57156195934653464263419664348476 5:0.22197285 6:0.044184171 8:0.082056314 15:0.27772906 19:0.32296523 22:0.12624049 54:0.1293965 81:0.16621664 89:0.2072448 94:0.30297717 110:0.10940842 146:0.093628362 149:0.14833257 158:0.075744294 196:0.050496195 339:0.54914612 444:0.1788407 596:0.13360451 613:0.093628362 703:0.25353298 749:0.1052004 755:0.16200863 784:0.10940842 789:0.20198478 #
-1 12:0.74438602 81:0.65766144 122:0.11563278 #
-0.53072962752842545164355669840006 6:0.24253562 784:0.97014248 #
-0.84683176308312091418173395140911 12:0.34657335 31:0.64152944 41:0.44243407 81:0.30970386 84:0.42031237 #
0.90501105502152379145286431594286 4:0.29954085 6:0.035011269 10:0.20747419 11:0.24767232 12:0.29954085 29:0.15041879 31:0.13615493 33:0.05964883 34:0.10762724 41:0.094660096 46:0.18672676 47:0.21266104 50:0.14523193 57:0.14004508 64:0.13356151 67:0.11540752 81:0.066132396 84:0.089473248 99:0.15560564 110:0.25804603 128:0.33973899 142:0.17375964 185:0.1231878 213:0.066132396 214:0.13096808 277:0.035011269 285:0.17635307 298:0.29305729 626:0.1698695 641:0.12059437 727:0.15430893 741:0.10633052 749:0.12448452 #
-0.90002897506003887162506771346671 6:0.070606634 22:0.30007821 25:0.22505866 30:0.26477489 34:0.21623282 98:0.3265557 382:0.039716233 425:0.25594905 517:0.22947158 696:0.71489221 #
-0.91358933044240364651500385662075 33:0.38685238 67:0.5423519 696:0.52718121 717:0.23135291 790:0.47408381 #
-0.63519024547130586988430422934471 6:0.10693964 81:0.13367455 127:0.55608612 142:0.35824779 185:0.22992022 425:0.26200211 641:0.3315129 744:0.41171762 752:0.36359477 #
-0.12000698475957116695411741602584 6:0.042115062 49:0.35797805 110:0.3284975 602:0.050538078 725:0.41693914 727:0.30743995 752:0.52222681 819:0.4674772 #
0.25645925543944436686416565862601 1:0.034986641 2:0.034986641 3:0.033820421 5:0.036152862 6:0.027989313 8:0.026823092 9:0.04315019 10:0.055978626 11:0.033820421 12:0.040817749 13:0.044316415 16:0.16676965 21:0.027989313 23:0.068807065 34:0.029155536 36:0.04198397 48:0.14811012 59:0.33703798 70:0.044316415 76:0.088632829 81:0.034986641 84:0.072305724 96:0.039651528 101:0.044316415 109:0.026823092 130:0.080469273 147:0.069973283 172:0.027989313 175:0.034986641 243:0.16560344 252:0.79886168 258:0.053646185 260:0.1201208 282:0.048981298 431:0.13294923 558:0.089799047 602:0.16560344 670:0.052479964 689:0.15627366 726:0.059477292 749:0.067640841 799:0.048981298 808:0.047815077 #
-0.039016742659414016536345570784761 3:0.16101828 6:0.08694987 16:0.31559584 33:0.15135719 84:0.4572919 97:0.44441044 127:0.1030517 172:0.26406997 185:0.17067938 613:0.41542715 641:0.14813681 727:0.22220522 754:0.28983289 #
0.022052194382357302726571646189768 3:0.012920639 5:0.026835175 6:0.017890116 7:0.02782907 8:0.16200495 10:0.085474998 12:0.04671308 17:0.021865698 18:0.065597095 20:0.031804651 22:0.092432268 33:0.011926744 35:0.025841279 38:0.02981686 48:0.037768025 52:0.11529186 60:0.035780232 67:0.086468898 78:0.4919782 81:0.026835175 93:0.057645932 100:0.17492558 106:0.56850815 111:0.13914534 123:0.04074971 127:0.055658139 142:0.035780232 152:0.025841279 225:0.050688662 243:0.031804651 266:0.05367035 270:0.025841279 288:0.083487213 313:0.079511628 462:0.048700873 472:0.062615409 481:0.36873516 482:0.065597095 483:0.1282125 504:0.032798547 529:0.10435902 530:0.12224913 554:0.099389538 635:0.056652036 661:0.19977297 696:0.062615409 707:0.041743606 718:0.017890116 727:0.10833459 743:0.11628576 749:0.025841279 810:0.039755814 #
-0.35850439211035906028612885165785 185:0.61103612 190:0.36662167 273:0.4888289 602:0.27261612 696:0.42302501 #
0.59300829457234138786247967800591 1:0.021692267 3:0.020607654 4:0.074838325 6:0.026030721 7:0.021692267 8:0.097615205 10:0.034707628 12:0.074838325 18:0.027115334 20:0.026030721 22:0.099784434 23:0.063992187 25:0.018438427 27:0.071584485 28:0.035792243 32:0.060738347 33:0.0097615207 38:0.023861494 39:0.024946108 41:0.015184587 49:0.023861494 51:0.068330646 58:0.070499867 66:0.061822962 74:0.042299923 82:0.071584485 87:0.039046083 98:0.027115334 109:0.016269201 128:0.056399897 156:0.15943816 175:0.043384533 186:0.15293048 203:0.050976828 209:0.030369174 244:0.033623014 251:0.036876854 255:0.046638373 258:0.033623014 276:0.040130693 299:0.12581515 301:0.037961468 304:0.020607654 310:0.060738347 326:0.088938296 345:0.10954595 376:0.044469148 382:0.11713824 385:0.0043384535 425:0.042299923 430:0.031453788 459:0.77983701 475:0.086769067 485:0.023861494 504:0.027115334 613:0.10303827 625:0.12147669 646:0.024946108 676:0.034707628 678:0.030369174 682:0.024946108 684:0.027115334 707:0.033623014 711:0.072669096 714:0.075922936 725:0.027115334 727:0.058569122 745:0.030369174 805:0.36009163 809:0.084599845 #
0.23900647224155427417180419524811 2:0.041802991 3:0.12100866 4:0.14301023 6:0.06160441 17:0.033002362 29:0.096806929 34:0.035202518 51:0.13200945 52:0.090206452 58:0.2486178 64:0.041802991 67:0.19581401 72:0.17161228 81:0.022001574 84:0.11440819 101:0.10560755 132:0.35422534 141:0.18261307 157:0.1342096 192:0.20021433 211:0.048403464 236:0.12100866 275:0.13640976 285:0.079205669 288:0.12980929 328:0.14301023 385:0.14081007 391:0.074805357 415:0.15401103 583:0.1188085 588:0.44663197 611:0.21561544 615:0.22001575 638:0.15841134 690:0.11660834 703:0.048403464 735:0.16721196 743:0.19581401 758:0.070405036 #
0.32951854783649658919841840543086 3:0.32898229 5:0.039164562 6:0.061096713 7:0.039164562 8:0.084595449 9:0.093994945 11:0.10809419 12:0.087728612 13:0.048564054 14:0.11122735 15:0.048564054 22:0.043864306 31:0.15979141 32:0.036031395 33:0.051697221 35:0.07206279 36:0.13629267 40:0.11906026 42:0.043864306 49:0.040731143 55:0.19112305 56:0.093994945 65:0.11749368 67:0.27571851 70:0.095561527 84:0.078329124 87:0.13629267 97:0.10182786 101:0.095561527 118:0.070496209 143:0.12689318 176:0.15039191 184:0.25848609 185:0.14569217 208:0.21618837 244:0.059530132 245:0.068929628 257:0.05796355 262:0.042297725 292:0.12689318 295:0.056396969 300:0.087728612 304:0.036031395 386:0.1785904 425:0.037597977 430:0.054830384 485:0.081462286 512:0.44490939 541:0.12062684 658:0.090861782 706:0.079895705 729:0.15039191 731:0.081462286 761:0.15352507 810:0.056396969 888:0.11122735 898:0.11122735 #
0.55853322145204786774996819076478 4:0.31182867 6:0.036685728 10:0.21511176 11:0.25680009 12:0.31016114 29:0.15674812 30:0.27347544 32:0.25346503 33:0.12339745 34:0.11172472 53:0.056696124 57:0.14507538 58:0.045023393 62:0.25680009 64:0.13840525 84:0.093381852 98:0.17008838 171:0.21677931 208:0.11339225 359:0.26347023 444:0.20844163 525:0.19510137 638:0.24512736 659:0.040020794 684:0.16842084 702:0.17675851 754:0.14340785 #
-1 3:0.17059222 10:0.56051731 12:0.20308599 613:0.23151802 625:0.1868391 700:0.43054229 727:0.44272745 733:0.17871566 749:0.33712274 #
-0.4926020158621225997208625813073 6:0.12656324 10:0.38311034 238:0.29759464 270:0.46862605 485:0.51993549 696:0.29075339 775:0.15734889 807:0.38653097 #
-0.9549573140919105362911523116054 6:0.024644449 26:0.18483338 43:0.35323712 99:0.21358523 291:0.26287413 476:0.28751859 625:0.58325201 638:0.46413714 727:0.29573339 #
0.89862957989045155748897286684951 1:0.12302903 6:0.048501831 7:0.12539497 12:0.069795318 15:0.30875555 16:0.11593121 53:0.11711417 55:0.15378629 58:0.13012686 63:0.15023738 81:0.24724104 84:0.25197291 125:0.16916493 143:0.20583704 161:0.11356526 209:0.51932448 238:0.15142034 263:0.17507978 296:0.062697485 355:0.13012686 491:0.053233717 553:0.18572652 625:0.18454355 656:0.26380265 662:0.15378629 755:0.17981166 782:0.10173555 790:0.12776092 #
0.72001765250425520115129529585829 1:0.36138955 3:0.086257584 6:0.023795195 33:0.081795983 42:0.20672077 43:0.17846397 56:0.14723277 61:0.27513194 81:0.090719186 130:0.41195431 140:0.30487594 176:0.11748878 232:0.098155186 382:0.13087358 419:0.15466878 480:0.19631037 527:0.13682237 569:0.25282395 625:0.05353919 680:0.41939032 719:0.19184877 727:0.063949585 743:0.043128792 796:0.068411186 #
0.47037619057823049084632316407806 2:0.10201164 3:0.024960294 5:0.05317628 6:0.020619374 11:0.099841177 12:0.059687659 13:0.066199042 25:0.045579668 26:0.054261509 36:0.062943347 39:0.059687659 40:0.081392266 42:0.059687659 56:0.043409206 57:0.056431968 77:0.10852302 81:0.05317628 84:0.035812594 92:0.15952884 109:0.040153515 139:0.077051342 154:0.072710425 169:0.15410268 184:0.12154578 185:0.055346739 221:0.084647954 254:0.1725516 282:0.072710425 422:0.085733183 425:0.051005818 624:0.066199042 685:0.12914239 692:0.064028583 851:0.074880883 885:0.87252504 #
0.76461525584714984393741588064586 1:0.080405824 3:0.038288489 5:0.12060874 6:0.031588003 7:0.041160125 8:0.1493251 9:0.048817821 11:0.038288489 12:0.022973092 13:0.049775034 16:0.037331276 18:0.048817821 22:0.091892369 28:0.032545216 33:0.018187031 46:0.057432733 47:0.25940451 49:0.085191883 55:0.10050728 59:0.076576978 66:0.075619765 68:0.065090433 73:0.5561403 80:0.11677989 84:0.027759153 85:0.083277464 87:0.071790911 104:0.068919279 112:0.085191883 113:0.061261579 114:0.071790911 131:0.085191883 139:0.1014645 141:0.031588003 157:0.064133219 170:0.058389943 172:0.031588003 197:0.14645347 201:0.092849582 247:0.1962285 248:0.19144244 258:0.061261579 271:0.083277464 275:0.20484342 334:0.11295104 336:0.22590208 362:0.086149096 365:0.08423467 382:0.086149096 493:0.044988975 518:0.034459639 599:0.15315396 641:0.1799559 643:0.13209528 703:0.045946185 715:0.18952802 718:0.076576978 751:0.10050728 754:0.08997795 790:0.06030437 798:0.1483679 807:0.064133219 812:0.08997795 817:0.078491397 820:0.11965153 884:0.063176006 #
-0.37627852523516747140774896251969 109:0.41255134 382:0.34164408 819:0.84444106 #
0.36656953966433630798249510007736 2:0.071880274 3:0.10505579 5:0.14652517 6:0.046998639 7:0.074644901 9:0.17970069 12:0.082938775 13:0.091232657 25:0.12440816 33:0.033175509 35:0.13823129 36:0.17417143 38:0.080174148 39:0.082938775 41:0.052527893 49:0.077409528 61:0.11058503 81:0.035940137 84:0.049763266 89:0.27369797 94:0.099526532 97:0.19352381 125:0.19905306 150:0.11611429 184:0.30134422 229:0.21564081 257:0.11058503 259:0.18522993 299:0.013823129 344:0.26816872 388:0.13546667 493:0.082938775 520:0.15205443 573:0.19628844 684:0.091232657 696:0.21840544 704:0.1271728 772:0.071880274 789:0.39810613 790:0.22117007 #
0.048793138715522064996488182941903 2:0.23026939 3:0.057008442 6:0.031298753 8:0.26492158 12:0.067068756 18:0.14419782 33:0.10731 116:0.17326094 145:0.14866906 164:0.078246877 171:0.17885001 200:0.45159626 204:0.13190188 211:0.13972656 243:0.13860875 268:0.13637313 284:0.11848813 291:0.17549656 292:0.090542816 298:0.52872533 419:0.1509047 625:0.10283875 645:0.084953755 656:0.097249694 704:0.20679532 726:0.20008844 727:0.038005628 #
-0.39068614871990259285183810789022 6:0.099537261 28:0.1211758 172:0.23802388 175:0.15146974 185:0.38083822 203:0.17310828 295:0.22504076 430:0.21638535 629:0.24667929 696:0.47604775 702:0.37218279 737:0.32890573 772:0.29861176 #
-0.31842490594419886607013836510305 12:0.36554095 81:0.3222532 511:0.40401894 613:0.30301422 625:0.67817467 675:0.14429249 710:0.16353148 #
-0.27268636964485737372854146087775 3:0.18816023 6:0.15394928 12:0.1140365 25:0.17105475 238:0.23947665 275:0.53026974 433:0.23377483 574:0.25658214 749:0.18816023 776:0.35921499 808:0.5245679 #
-0.17867391141412175548097707178385 6:0.20417237 574:0.80696702 719:0.55418217 #
0.34370754016344912118441357051779 1:0.10834825 3:0.051164452 6:0.028591899 7:0.10985309 10:0.085775696 11:0.20465781 12:0.12339662 13:0.13543531 23:0.10533857 25:0.093299881 27:0.23776421 31:0.11286276 33:0.097814389 34:0.088785373 38:0.12038694 41:0.078251511 43:0.10684341 81:0.054174125 94:0.14897884 144:0.17907558 185:0.067717656 232:0.24378356 275:0.11135792 329:0.18208525 346:0.14747401 380:0.1188821 613:0.23625937 741:0.07674668 866:0.14295949 871:0.61096376 875:0.30548188 #
0.22257129839183223407594880427496 1:0.10778517 6:0.013786474 7:0.10903848 25:0.092745379 26:0.11154512 27:0.11781169 41:0.15415785 67:0.13159817 70:0.13535811 79:0.19301064 81:0.053892583 108:0.13034485 174:0.15415785 193:0.48503324 277:0.23311676 366:0.28700933 368:0.092745379 595:0.10026527 613:0.10653185 641:0.16042443 666:0.055145897 678:0.15165122 743:0.11405174 775:0.1341048 793:0.17295758 794:0.53516591 #
0.29158853578305787834779039258137 6:0.015107326 10:0.090643957 13:0.14402318 17:0.18430938 21:0.091651112 24:0.16114481 33:0.052372064 34:0.18934515 35:0.10877275 36:0.13798024 53:0.16718774 66:0.3273254 147:0.12085861 148:0.51364911 195:0.063450769 313:0.080572404 568:0.18128791 606:0.028200341 613:0.085608184 656:0.19438092 664:0.40286201 738:0.15409473 756:0.14100172 893:0.35250428 #
-0.26035719606329338349226532045577 58:0.27183184 81:0.54851782 613:0.55822611 626:0.46599746 702:0.2669777 727:0.14562421 730:0.063103825 #
-0.2057953535346362383684493124747 6:0.14512035 32:0.2048758 42:0.25182649 52:0.11951088 56:0.17926633 110:0.11097439 152:0.2134123 175:0.11097439 185:0.4481658 258:0.17072983 290:0.30304545 304:0.1024379 625:0.26036301 656:0.13231562 682:0.12377913 702:0.56340843 790:0.081096672 #
0.18431340431491874398695074432908 1:0.065519586 3:0.062950186 4:0.074512467 6:0.025693955 20:0.15544842 21:0.052672606 26:0.068088979 31:0.068088979 33:0.029548047 35:0.06166549 37:0.083505355 38:0.14517084 66:0.06166549 95:0.097637028 104:0.1143381 135:0.10020642 185:0.039825629 193:0.14774024 282:0.089928843 663:0.18242708 696:0.098921724 710:0.043679722 713:0.13232386 742:0.86717099 744:0.10020642 757:0.10791461 765:0.1117687 #
-0.14907006100217620736536616732337 33:0.53682888 190:0.63602549 727:0.55433416 #
0.061533487888387181086180532929575 4:0.2758663 6:0.0208201 10:0.063501298 12:0.091608435 17:0.064542308 31:0.084321402 32:0.14990471 33:0.036435172 34:0.066624314 50:0.17905284 64:0.082239389 67:0.051009241 78:0.32479355 81:0.040599193 84:0.055173263 93:0.17176582 98:0.099936478 187:0.044763211 270:0.078075372 294:0.0062460299 332:0.17072481 509:0.14469969 621:0.11451054 698:0.7588926 722:0.12179758 727:0.073911354 745:0.11346954 #
0.053829919908185537569256240431059 4:0.27369955 115:0.14497328 124:0.41992259 151:0.087483868 181:0.17496774 194:0.064988017 224:0.096232258 389:0.10498065 423:0.13372535 489:0.18621567 571:0.63988203 625:0.084984332 655:0.44241843 #
0.16842599428878635148265630050446 2:0.03048557 3:0.015242785 5:0.031501755 6:0.024388455 8:0.1625897 10:0.074181549 12:0.053857841 13:0.038615055 15:0.03963124 16:0.058938768 18:0.11381279 20:0.036582682 22:0.1066995 33:0.014226599 51:0.04877691 52:0.099586196 56:0.076213926 57:0.033534128 66:0.029469384 78:0.56703162 81:0.031501755 93:0.067068256 106:0.39224765 119:0.061987326 152:0.03048557 170:0.045728356 175:0.031501755 185:0.099586196 198:0.10974805 233:0.10263475 238:0.038615055 272:0.087391965 350:0.061987326 384:0.1056833 481:0.56703162 493:0.035566498 511:0.068084441 529:0.059954952 530:0.070116811 544:0.06300351 552:0.043695983 637:0.043695983 645:0.05589021 661:0.057922583 689:0.05589021 707:0.04877691 799:0.042679798 810:0.045728356 869:0.070116811 #
