SVM-light Version V6.02
0 # kernel type
3 # kernel parameter -d 
1 # kernel parameter -g 
1 # kernel parameter -s 
1 # kernel parameter -r 
empty# kernel parameter -u 
50 # highest feature index 
300 # number of training documents 
145 # number of support vectors plus 1 
0.99928683 # threshold b, each following line is a SV (starting with alpha*y)
-1 12:0.98058069 33:0.19611613 #
-0.71895288569746285123329698762973 33:1 #
-1 6:0.25978166 9:0.81398249 21:0.51956332 #
-1 3:0.72820002 33:0.68536472 #
1 3:0.54537362 6:0.3003507 23:0.54537362 43:0.56118155 #
1 3:0.12297272 6:0.17567532 7:0.52702594 11:0.24594544 12:0.44797206 14:0.50067466 26:0.27229673 33:0.23716168 41:0.18445908 #
-1 5:0.4569605 6:0.0578431 12:0.51480359 31:0.46852913 41:0.32392138 43:0.44539189 #
0.28348473360132231402275237996946 3:0.080845602 4:0.57524753 6:0.043532245 10:0.53171527 11:0.3171635 12:0.38246188 29:0.19278567 33:0.074626707 34:0.13681562 38:0.18656677 50:0.18656677 #
0.046041308076942719096358302977023 4:0.26605785 6:0.059633654 8:0.17431375 12:0.52752846 14:0.44954601 20:0.55046451 23:0.224773 49:0.24770902 #
-1 10:0.85394078 14:0.52037019 #
-1 6:0.16018978 10:0.24028467 23:0.87570411 28:0.24562432 43:0.29902092 #
-1 6:0.13511321 14:0.99083018 #
-1 6:0.061698493 26:0.46273869 43:0.88434505 #
-1 6:0.057295747 14:0.85943621 22:0.50802231 #
1 6:1 #
1 1:0.31040412 6:0.20176268 9:0.75273001 12:0.34920463 30:0.31040412 33:0.27936369 #
0.75585720957814606091318410108215 1:0.36899647 6:0.14496289 7:0.37558568 9:0.45465636 21:0.5864408 31:0.38876414 #
0.23528808084747845907891417027713 1:0.52126199 6:0.065982528 28:0.42228818 33:0.2375371 44:0.69941479 #
1 2:0.67921114 3:0.33960557 6:0.13584222 21:0.56034917 33:0.16131264 41:0.25470418 #
-1 3:0.50261605 5:0.13178347 6:0.13791293 11:0.74472988 12:0.37389728 43:0.12871873 #
-1 6:0.30609766 10:0.37411937 23:0.4591465 41:0.34010851 48:0.66321158 #
-1 3:0.19351359 5:0.40494511 6:0.10392396 11:0.37986001 12:0.68446469 16:0.3762764 33:0.18276283 #
-1 6:0.25636122 9:0.80914009 17:0.528745 #
-0.44380590513645545858167906771996 3:0.7773993 6:0.2103551 12:0.46643957 33:0.36583495 #
1 14:0.71603757 16:0.69806176 #
0.35580713844675360135738628741819 14:0.66210276 27:0.74941301 #
1 10:0.64764839 32:0.76193935 #
1 3:0.26656306 6:0.14634834 12:0.31883034 14:0.53835285 23:0.53835285 25:0.47563213 #
1 8:0.39785761 10:0.42399424 25:0.45884308 26:0.55177331 41:0.38333726 #
-1 6:0.095256411 7:0.73403466 32:0.67239815 #
-1 25:1 #
-1 32:1 #
-1 6:0.10869268 8:0.6027503 14:0.79049224 #
1 12:1 #
1 3:0.16066816 5:0.65271443 6:0.13054287 12:0.37154514 30:0.33137807 34:0.53221327 #
1 3:0.42844051 6:0.15053315 11:0.42265078 12:0.51528656 14:0.22001 16:0.21422026 17:0.35896367 26:0.23158947 33:0.10421526 50:0.24895868 #
0.71710377102031452878350137325469 3:0.14707488 4:0.17408863 5:0.15307793 6:0.10205196 8:0.11405807 12:0.43822312 13:0.1920978 17:0.49225062 18:0.18609475 19:0.2971513 20:0.3631849 22:0.3511788 43:0.1500764 50:0.1710871 #
1 3:0.11768708 6:0.031807318 8:0.36896488 12:0.70612246 22:0.28308514 23:0.23855488 25:0.21310903 28:0.20038609 33:0.11132561 35:0.23537415 43:0.24491635 #
-1 12:1 #
1 6:0.10557943 15:0.99441087 #
1 46:1 #
1 19:0.68280464 31:0.73060101 #
-1 2:0.25277516 6:0.031596895 11:0.24224286 12:0.14745218 14:0.24750902 20:0.30543664 21:0.41075963 24:0.35809815 26:0.53188109 30:0.25804132 33:0.23171057 #
-1 3:0.56982112 6:0.26180971 23:0.38501427 27:0.431216 33:0.17710656 34:0.323412 35:0.36961371 #
-1 6:0.13779797 22:0.58564138 25:0.43923104 30:0.51674241 34:0.42200628 #
-1 2:0.27723125 3:0.27179533 6:0.11415404 10:0.22287217 13:0.35333392 20:0.33702621 25:0.24461579 28:0.22830808 31:0.5925138 32:0.2609235 33:0.13046175 #
-1 34:1 #
1 #
1 3:0.22968313 4:0.40982676 6:0.013510772 10:0.18915081 12:0.20266159 19:0.22968313 20:0.28372622 31:0.37379804 37:0.14861849 41:0.17113645 43:0.11709336 45:0.60348117 #
1 6:0.079186998 21:0.237561 24:0.4172546 25:0.25583494 27:0.32893062 33:0.13400877 38:0.33197626 41:0.42943719 43:0.29542843 44:0.43552852 #
0.92046381228315510281134947945247 3:0.16904226 6:0.11759461 7:0.18006676 10:0.13964361 11:0.16536744 12:0.3013362 13:0.2204899 14:0.51080161 25:0.3013362 32:0.32706004 39:0.40423149 40:0.27561238 42:0.20211574 #
-1 45:1 #
-1 12:1 #
0.83802702921978267092129044613102 3:0.28501427 4:0.17100856 6:0.059593894 21:0.11659674 26:0.1528713 27:0.16323544 28:0.11918779 30:0.4482497 31:0.15546232 32:0.69180733 34:0.24355765 41:0.21246518 #
1 3:0.26072499 6:0.2251716 14:0.53330117 25:0.47404546 30:0.55700344 33:0.24887387 #
1 6:0.064768344 11:0.23316605 14:0.23964289 23:0.23964289 25:0.21373555 31:0.77722019 33:0.22345079 41:0.35622591 #
-1 6:0.24118145 30:0.36593047 32:0.34098065 39:0.83166015 #
-1 3:0.11762875 6:0.12939163 10:0.57638085 16:0.22937605 31:0.76458687 #
-0.79408171950618533507793017633958 6:0.076945566 25:0.51297045 41:0.85495073 #
1 3:0.065519191 6:0.037932161 8:0.51380837 12:0.47242785 19:0.13448675 22:0.62760484 25:0.23448972 26:0.14138351 32:0.12759 33:0.062070809 #
1 2:0.23141988 5:0.2414816 6:0.093909517 11:0.67413616 12:0.40917715 26:0.24818943 33:0.10732516 45:0.34545285 49:0.25489727 #
-1 3:0.25438318 8:0.59223586 12:0.75520009 33:0.11924212 #
-1 6:0.18526462 8:0.70400554 9:0.28716016 11:0.22231755 17:0.18526462 43:0.23158078 49:0.50021446 #
-1 12:1 #
1 #
1 3:0.23372391 6:0.085927904 10:0.13061042 30:0.16498157 39:0.93145847 43:0.16154446 #
1 6:0.036969483 10:0.2218169 13:0.35244238 17:0.45102769 21:0.22428152 24:0.39434114 33:0.12816086 34:0.46335083 35:0.26618028 36:0.33765459 #
1 38:1 #
0.78320272300671633924906700485735 3:0.17369318 6:0.095830724 9:0.43722767 17:0.57498431 21:0.28150275 24:0.49712187 35:0.33540753 #
-1 6:0.12898126 11:0.59331381 19:0.60621196 21:0.24506441 41:0.45143443 #
-1 3:0.25637662 6:0.27536747 17:0.84509331 41:0.37981722 #
-1 6:0.28944328 17:0.57888657 19:0.35623789 25:0.6234163 41:0.256046 #
-1 6:0.38426054 17:0.58769256 19:0.71201217 #
1 6:0.14582205 8:0.59186602 12:0.63475484 18:0.19299978 19:0.15439983 30:0.15868871 32:0.29593301 46:0.22731085 #
1 8:1 #
1 1:0.08636187 3:0.038862843 4:0.09931615 5:0.08636187 6:0.043180935 8:0.37999225 10:0.069089495 12:0.68225878 15:0.21590468 19:0.41453698 20:0.30226654 21:0.069089495 23:0.16408756 30:0.08636187 49:0.090679966 #
1 3:0.23503838 6:0.064101376 8:0.18280764 11:0.23266426 12:0.70036691 14:0.47482502 22:0.28014678 45:0.24216077 #
-1 6:0.020508505 8:0.99978966 #
-1 3:0.27510393 10:0.9039129 12:0.32750466 #
-1 8:0.44659591 42:0.683029 43:0.57794762 #
-1 12:1 #
1 17:1 #
1 3:0.24949574 6:0.1025325 9:0.31785074 10:0.205065 17:0.20848274 21:0.205065 24:0.3622815 28:0.2119005 33:0.35202825 41:0.56051099 50:0.29050875 #
1 2:0.31021979 3:0.15194438 6:0.12662032 24:0.44317114 26:0.32921284 35:0.30388877 41:0.68374974 #
-1 3:0.39872611 50:0.91707003 #
-1 6:0.20516373 17:0.41032746 35:0.48923656 41:0.74174577 #
-0.65183449813798211014415073805139 6:0.1682843 13:0.78131998 23:0.60101539 #
1 6:0.031380083 9:0.29288077 12:0.40271106 23:0.23012061 25:0.40794107 33:0.10460028 40:0.36610097 42:0.27196074 43:0.23535062 49:0.50731134 #
-1 6:0.047448996 12:0.21352048 21:0.30051029 22:0.86989826 25:0.32423481 #
-1 6:0.20418324 11:0.71464133 26:0.39135119 35:0.35732067 49:0.40836647 #
-0.35449324336981002936397544544889 12:0.785106 33:0.6193614 #
1 6:0.13843895 16:0.99037099 #
1 2:0.38089374 3:0.17986649 6:0.25392917 7:0.78294826 43:0.38089374 #
1 3:0.16953819 6:0.14219332 9:0.43204892 17:0.28438663 41:0.25157279 50:0.78753221 #
1 3:0.63134354 6:0.04285137 7:0.67133814 28:0.2656785 33:0.14855142 41:0.23711093 #
-1 6:0.13436367 16:0.99093211 #
-1 3:0.40767795 6:0.22014609 16:0.79904878 33:0.38321728 #
-1 6:0.25962594 8:0.29424274 17:0.31155112 50:0.86541981 #
1 12:0.29339483 22:0.58678967 25:0.44009227 36:0.61312002 #
0.38903633496724621121387599487207 5:0.43928409 6:0.087440439 8:0.16238938 15:0.54962558 19:0.63914794 22:0.24982981 #
1 1:0.21333712 6:0.02666714 8:0.31467226 10:0.1706697 12:0.24000427 25:0.3626731 26:0.21867055 33:0.096001707 35:0.4000071 41:0.61334425 43:0.2080037 #
1 6:0.069336787 9:0.32819411 17:0.42988807 23:0.25885734 27:0.58705145 33:0.24036752 42:0.30508184 48:0.37441865 #
-0.57641845686441317564430164566147 3:0.24666932 6:0.27133626 39:0.57967293 41:0.72767448 #
0.55625558719760881398741503289784 1:0.31305867 3:0.14850219 6:0.080271453 16:0.58598161 29:0.71441597 33:0.14047505 #
1 3:0.54001296 5:0.37600902 6:0.12400298 11:0.17600423 16:0.52801269 17:0.15200365 18:0.22800547 27:0.2040049 31:0.1960047 33:0.16800404 41:0.13600327 49:0.2000048 #
-1 3:1 #
-1 3:0.37915787 6:0.20919055 26:0.82368779 33:0.36608344 #
0.71733488075049589571818842159701 3:0.11416144 6:0.095522836 8:0.17706673 17:0.38209134 19:0.46596506 25:0.20502463 27:0.52421069 33:0.10717197 35:0.22599305 39:0.27258956 42:0.27258956 43:0.23531236 #
0.86749172258603846064062281584484 2:0.19956814 4:0.2328295 6:0.10745977 10:0.64731717 11:0.19189245 12:0.11769403 17:0.16374822 25:0.17654105 29:0.23538806 32:0.18933387 34:0.33517212 39:0.2328295 47:0.330055 #
-1 10:1 #
-1 12:1 #
1 1:0.12342422 3:0.24123825 4:0.1402548 6:0.10098346 12:0.1402548 19:0.4880867 20:0.14586499 26:0.77420652 49:0.13464461 #
-1 6:0.39502913 10:0.54696339 19:0.22790143 21:0.18232113 25:0.19751456 38:0.25828826 41:0.16712771 49:0.24309485 50:0.51657653 #
-1 6:0.2567226 19:0.96648514 #
-1 6:0.14910792 25:0.98882091 #
-1 6:0.52790958 7:0.40369555 12:0.23290129 19:0.38816881 23:0.38816881 39:0.45027581 #
0.36955069956429048572132955996494 1:0.30835426 6:0.080172107 13:0.38544279 14:0.29602009 16:0.28985298 21:0.24359986 33:0.27751881 36:0.36694154 42:0.35152385 48:0.42861241 #
-0.29465262945028208863007535001088 6:0.40810123 32:0.57614291 42:0.70817566 #
1 1:0.77069104 3:0.18395095 6:0.050745089 33:0.17443624 42:0.44084796 43:0.38058817 #
1 3:0.12022195 5:0.25380188 6:0.10018495 8:0.37736332 12:0.28719687 16:0.4742088 22:0.57773322 28:0.20370941 33:0.11354295 49:0.27049938 #
-0.38444801737382822137689686314843 6:0.11684125 49:0.99315059 #
0.43100243783273761710717053574626 2:0.21790837 3:0.107328 6:0.029271273 10:0.17562763 17:0.35775998 20:0.79357672 23:0.214656 37:0.28295565 41:0.15936582 #
1 2:0.34621489 3:0.16901828 6:0.046343725 23:0.34348878 25:0.30532336 30:0.35711929 33:0.31895387 42:0.40346301 48:0.49615046 #
-1 3:0.25720927 6:0.07348837 25:0.46542633 33:0.74713171 41:0.39193797 #
1 4:0.22933531 6:0.079565309 11:0.3791053 12:0.34634313 28:0.16381094 29:0.22933531 33:0.18253219 34:0.33230218 50:0.67396498 #
-0.98745353333189045397233485346078 6:0.38343245 21:0.5751487 30:0.72262269 #
-1 12:0.40635186 31:0.75218326 41:0.51874709 #
1 2:0.15854104 3:0.30970806 6:0.084801018 10:0.12904502 11:0.30233407 12:0.27652505 14:0.30970806 19:0.62679017 31:0.16960204 33:0.14379303 39:0.36870009 41:0.11429702 #
1 2:0.25452542 3:0.29287857 5:0.087166235 6:0.10459948 8:0.066246338 10:0.76008958 12:0.10111284 17:0.069732986 19:0.25452542 25:0.07670629 28:0.14295262 38:0.097626187 39:0.19873902 46:0.12551938 49:0.27893195 #
0.45111195546858529059619513645885 3:0.093500175 5:0.39383408 6:0.12750024 12:0.11050021 15:0.73666805 21:0.15583363 23:0.1898337 26:0.20116705 41:0.14166693 45:0.3796674 #
-1 3:0.91236562 6:0.12476795 34:0.38989985 #
1 6:0.083492987 7:0.63847578 10:0.25047895 33:0.1424292 34:0.51569194 40:0.48622385 #
-1 6:0.075151607 34:0.44017369 41:0.38649398 42:0.61194879 43:0.52606124 #
1 6:0.12170117 10:0.48680469 14:0.29990646 17:0.24774882 20:0.36510354 23:0.29990646 28:0.24774882 31:0.32163882 32:0.28686705 33:0.27817413 41:0.22167 #
0.52591822844769553491062197281281 3:0.28501427 4:0.17100856 6:0.059593894 21:0.11659674 26:0.1528713 27:0.16323544 28:0.11918779 30:0.4482497 31:0.15546232 32:0.69180733 34:0.24355765 41:0.21246518 #
0.054758462979069694176459393020195 2:0.71741414 35:0.69664693 #
0.11510609291797413433755536971148 1:0.66891819 6:0.086565882 12:0.38561165 16:0.62957007 #
-0.72817256325490453683357827685541 6:0.144875 10:0.86019534 33:0.48895314 #
0.89491985202329971116341766901314 3:0.18042032 4:0.28566551 6:0.066154122 8:0.18643434 10:0.69161123 21:0.099231184 25:0.4300018 29:0.14433627 33:0.057133105 34:0.20447637 35:0.11727321 36:0.15035027 38:0.13832225 40:0.19244835 43:0.12328722 #
0.60682074347593617513751951264567 2:0.17812324 4:0.41777995 6:0.097158127 10:0.57971013 11:0.17164601 12:0.31414461 25:0.155453 30:0.18460044 32:0.51169944 #
0.20688148032271527765324492520449 4:0.44578066 6:0.052104235 10:0.30876583 11:0.36858922 12:0.44578066 29:0.22385523 31:0.20262758 33:0.088770173 34:0.16017227 41:0.14087442 46:0.27788925 47:0.31648499 50:0.21613608 #
-0.24097358795162515665566616007709 #
0.060319504714929916833199285974842 4:0.44173735 6:0.0519691 10:0.30472791 11:0.36378369 12:0.43937513 29:0.22204979 30:0.38740602 32:0.35905924 33:0.17480515 34:0.15826952 #
-0.0064967492543939429905375249063582 12:1 #
