SVM-light Version V6.02
1 # kernel type
5 # kernel parameter -d 
1 # kernel parameter -g 
1 # kernel parameter -s 
1 # kernel parameter -r 
empty# kernel parameter -u 
64 # highest feature index 
2823 # number of training documents 
121 # number of support vectors plus 1 
0.53685374 # threshold b, each following line is a SV (starting with alpha*y)
-7.3820935811050765996914756364828e-19 4:6 5:15 6:2 7:2 11:3 12:15 13:10 14:4 15:15 18:2 19:14 20:9 22:12 23:11 26:9 27:16 28:4 29:3 30:16 31:14 34:11 35:16 36:16 37:16 38:15 39:7 42:1 43:10 44:11 45:16 46:8 52:3 53:16 54:1 60:8 61:11 #
-3.6344535224559854781670798491787e-18 3:7 4:15 5:13 6:3 11:11 12:6 13:8 14:14 20:3 21:8 22:12 28:16 29:14 30:2 36:10 37:15 38:7 45:2 46:11 47:10 50:1 51:15 52:3 53:1 54:11 55:10 59:4 60:15 61:16 62:13 63:2 #
-1.7880711739605794577600637503709e-18 3:5 4:16 5:16 6:15 7:1 11:10 12:9 13:10 14:16 15:2 20:1 21:12 22:10 28:9 29:16 30:8 36:2 37:14 38:16 39:5 44:4 46:16 47:5 51:3 52:14 53:8 54:13 59:4 60:16 61:13 62:3 #
-7.1825148886601732884227355629136e-19 3:1 4:9 5:15 6:12 11:13 12:8 13:5 14:14 15:4 19:14 20:1 21:5 22:14 23:1 27:7 28:13 29:16 30:4 35:11 36:12 37:14 38:12 39:1 42:4 43:13 46:11 47:7 50:1 51:13 52:7 53:2 54:8 55:8 59:1 60:9 61:16 62:13 63:2 #
-3.810154141460676148456636901795e-18 3:9 4:13 5:15 6:10 7:1 11:7 12:4 13:4 14:12 15:13 22:7 23:11 27:2 28:12 29:13 30:12 31:2 36:10 37:15 38:1 44:1 45:11 46:9 51:12 52:3 53:3 54:15 59:8 60:16 61:16 62:3 #
2.5085959793516997639702734575284e-19 2:4 3:15 4:16 5:12 10:12 11:15 12:7 13:16 14:5 18:3 19:3 21:15 22:4 29:13 30:7 36:5 37:15 38:2 43:1 44:14 45:11 50:1 51:13 52:16 53:9 54:8 55:3 58:3 59:16 60:16 61:16 62:16 63:16 64:1 #
4.5218448615824080904461010411062e-19 3:10 4:16 5:12 10:1 11:14 12:13 13:16 14:4 19:2 20:3 21:16 22:5 28:4 29:16 30:2 36:11 37:14 43:2 44:16 45:8 47:3 50:1 51:13 52:16 53:14 54:16 55:16 56:3 59:12 60:16 61:16 62:13 63:7 #
1.3937289285227183869816876522797e-18 3:11 4:16 5:15 6:2 11:12 12:10 13:14 14:8 21:11 22:8 28:1 29:15 30:3 35:1 36:11 37:11 42:6 43:15 44:15 45:2 50:9 51:16 52:14 53:9 54:3 58:1 59:9 60:12 61:15 62:16 63:13 #
1.8416541219699740429158230813943e-19 2:3 3:15 4:16 5:11 10:10 11:15 12:13 13:16 14:2 18:10 19:7 20:4 21:16 26:1 28:9 29:12 35:1 36:16 37:6 43:10 44:15 50:7 51:16 52:14 53:12 54:14 55:11 58:6 59:16 60:16 61:16 62:11 63:3 #
-1.1791189738590919170160493116479e-19 3:12 4:16 5:14 6:4 10:2 11:16 12:16 13:16 14:6 19:12 20:16 21:16 22:4 27:15 28:16 29:16 30:5 35:16 36:16 37:16 38:4 42:4 43:16 44:16 45:15 46:3 50:1 51:14 52:16 53:16 54:5 59:10 60:16 61:16 62:10 #
2.909806228422391799111110162391e-19 2:1 3:15 4:6 10:7 11:16 12:16 18:11 19:14 20:16 26:2 27:8 28:15 35:14 36:10 42:5 43:16 44:3 50:10 51:16 52:16 53:16 54:12 55:5 58:3 59:15 60:16 61:12 62:14 63:14 #
7.3778235569238587866837989088507e-20 2:1 3:12 4:3 10:10 11:16 12:15 13:1 18:8 19:3 20:13 21:5 26:1 28:9 29:9 36:13 37:6 43:2 44:15 45:2 51:13 52:16 53:14 54:14 55:12 59:8 60:12 61:12 62:10 63:11 #
1.0703051380116034269382000261267e-17 3:5 4:15 5:13 6:2 11:14 12:13 13:9 14:13 19:10 22:10 23:2 30:11 31:3 37:2 38:15 44:1 45:12 46:9 51:10 52:12 53:16 54:14 55:2 59:5 60:14 61:12 62:11 63:4 #
-7.8836039347921314100029514792606e-19 3:8 4:15 5:15 6:1 10:4 11:16 12:16 13:16 14:10 18:7 19:12 21:1 22:16 26:6 27:11 30:9 31:7 34:8 35:12 38:9 39:4 42:4 43:16 44:1 45:2 46:15 47:8 51:15 52:16 53:16 54:16 55:1 59:7 60:16 61:16 62:8 #
-7.0502620888082368279961367324942e-19 3:8 4:16 5:8 10:2 11:15 12:16 13:16 14:6 18:4 19:13 20:1 21:6 22:15 23:1 26:7 27:13 30:13 31:5 34:8 35:12 38:8 39:8 42:7 43:14 44:1 45:4 46:12 47:8 50:2 51:15 52:16 53:16 54:16 55:4 59:7 60:16 61:16 62:10 #
1.2522107946183098359153949889846e-17 3:5 4:9 5:16 6:13 7:4 10:1 11:15 12:8 13:5 14:14 15:12 19:4 21:4 22:14 23:8 28:2 29:14 30:10 36:12 37:14 43:7 44:14 45:3 51:15 52:10 59:4 60:12 61:12 62:6 #
4.175978285298354552762559442049e-19 3:9 4:16 5:13 6:2 10:3 11:16 12:9 13:12 14:12 18:4 19:16 22:16 26:1 27:8 29:2 30:16 37:5 38:13 44:1 45:11 46:9 51:4 52:11 53:16 54:10 55:7 59:9 60:12 61:8 62:9 63:13 #
-5.0216549719607769352327431263094e-19 2:2 3:12 4:16 5:16 6:16 7:14 10:9 11:16 12:16 13:15 14:16 15:6 18:11 19:13 21:11 22:14 28:2 29:16 30:6 36:12 37:14 38:1 43:4 44:16 45:6 51:11 52:16 53:1 58:2 59:15 60:13 #
-4.7316956121654867555373848815156e-19 3:11 4:15 5:16 6:16 7:16 8:7 11:14 12:14 13:12 14:16 15:16 16:3 19:1 21:4 22:16 23:6 29:13 30:12 36:7 37:15 38:4 43:3 44:16 45:9 51:11 52:16 53:5 59:15 60:15 #
2.8361130476401614062888031269246e-18 2:5 3:15 4:13 10:3 11:10 12:16 13:5 20:14 21:4 27:6 28:14 34:1 35:14 36:7 42:7 43:13 44:1 50:13 51:14 52:10 53:11 54:9 55:5 58:5 59:15 60:16 61:14 62:10 63:3 #
1.5293793249009615240569219579325e-18 2:5 3:16 4:5 10:9 11:16 12:14 18:12 19:14 20:14 26:7 27:13 28:12 35:11 36:8 38:3 39:1 43:16 44:8 45:7 46:14 47:11 50:8 51:16 52:16 53:16 54:16 55:11 58:6 59:16 60:16 61:11 62:6 63:1 #
1.2544499824477276624112001166024e-18 3:9 4:16 5:13 6:3 10:2 11:16 12:16 13:16 14:12 20:6 21:16 22:7 27:1 28:15 29:12 35:13 36:15 37:2 42:4 43:16 44:7 50:8 51:16 52:8 53:6 54:8 55:3 58:1 59:11 60:16 61:16 62:12 63:4 #
-2.9140153758308100316715375446805e-20 3:4 4:13 5:13 6:8 11:16 12:1 13:1 14:11 15:2 18:4 19:13 22:6 23:7 26:3 27:14 29:9 30:14 31:2 35:9 36:15 37:14 38:1 43:5 44:16 45:9 51:8 52:12 53:15 54:2 59:4 60:15 61:13 62:2 #
9.9014253498430948458439772838735e-18 2:1 3:10 4:12 5:14 6:9 10:11 11:11 12:5 13:5 14:16 15:4 18:4 19:3 21:2 22:16 23:2 29:12 30:9 35:1 36:13 37:10 43:9 44:13 50:2 51:16 52:4 58:1 59:13 60:15 61:12 62:2 #
-5.1695085504866701905500123903865e-18 3:12 4:10 10:3 11:13 12:16 13:4 18:6 19:16 20:16 21:7 27:8 28:15 29:9 36:10 37:14 44:6 45:16 46:6 51:9 52:13 53:16 54:13 55:8 56:3 59:9 60:16 61:16 62:16 63:16 64:9 #
-3.0925582536734066685166864978437e-18 3:3 4:14 5:5 11:12 12:16 13:3 18:2 19:12 20:8 26:3 27:3 34:7 35:4 37:6 42:4 43:16 44:15 45:13 46:15 47:3 50:2 51:14 52:14 53:4 54:14 55:11 59:3 60:13 61:16 62:16 63:12 #
1.7885036875059763415000665966223e-18 3:6 4:15 5:16 6:12 7:1 10:3 11:16 12:9 13:8 14:15 15:7 18:3 19:3 22:15 23:6 29:6 30:15 31:2 36:1 37:15 38:6 43:1 44:12 45:10 51:8 52:16 53:13 54:13 55:6 59:6 60:14 61:12 62:4 #
1.3448359872002340660860631206186e-18 3:10 4:16 5:9 10:2 11:16 12:16 13:16 14:2 19:8 20:1 21:15 22:8 29:14 30:9 36:1 37:16 38:10 44:9 45:16 46:16 47:7 51:8 52:16 53:15 54:12 55:15 56:5 59:13 60:15 61:1 63:5 64:6 #
5.5353176084765681959194673352461e-18 3:2 4:12 5:13 10:3 11:15 12:13 13:16 18:10 19:13 20:1 21:16 27:1 28:4 29:16 36:6 37:13 44:9 45:10 46:7 47:8 52:14 53:15 54:15 55:3 60:15 61:12 62:3 #
2.6316418254386727985033417054081e-19 2:2 3:11 4:16 5:5 10:11 11:16 12:16 13:9 18:2 19:6 20:16 21:9 27:8 28:16 29:5 35:14 36:11 42:6 43:16 44:5 47:2 50:6 51:16 52:14 53:13 54:15 55:12 59:15 60:16 61:13 62:11 63:3 #
-9.2874916440432175438262596746775e-19 3:4 4:15 5:9 6:1 11:11 12:16 13:16 14:9 19:1 20:10 21:16 22:11 28:8 29:16 30:12 36:11 37:16 38:10 43:1 44:16 45:16 46:7 51:5 52:16 53:16 54:12 59:5 60:16 61:14 62:6 #
-2.8053485662495412890568842471424e-18 2:3 3:16 4:15 5:7 10:5 11:16 12:16 13:16 14:13 15:2 19:7 20:8 21:10 22:16 23:6 29:2 30:16 31:4 37:4 38:16 39:1 45:12 46:9 51:4 52:11 53:15 54:3 58:2 59:15 60:12 61:3 #
-9.2061389532858701846765426835704e-19 3:4 4:15 5:12 6:3 10:3 11:16 12:16 13:16 14:13 18:5 19:16 20:16 21:16 22:13 27:2 28:2 29:7 30:16 31:1 37:7 38:16 39:3 44:1 45:15 46:13 51:2 52:13 53:16 54:8 59:6 60:15 61:5 #
-1.1784654653723939891592759896479e-19 3:7 4:13 7:3 8:8 11:15 12:7 14:3 15:15 16:7 19:16 20:12 21:6 22:14 23:9 27:6 28:12 29:16 30:12 36:2 37:14 38:2 44:9 45:9 51:2 52:13 53:1 59:8 60:5 #
-1.0246861380547755928781088195532e-18 2:1 3:12 4:16 5:12 10:11 11:13 12:5 13:16 14:3 15:8 18:10 19:13 20:4 21:16 22:15 23:3 26:2 27:16 28:12 29:15 30:6 35:14 36:14 37:2 42:2 43:16 44:16 45:3 50:4 51:15 52:12 53:11 59:14 60:16 61:13 #
-4.3507964928498265438563502758604e-19 3:9 4:10 5:15 6:14 10:2 11:16 12:16 13:16 14:15 18:2 19:16 20:4 21:15 22:5 27:12 28:16 29:12 35:13 36:16 37:4 42:2 43:16 44:14 45:12 50:1 51:16 52:11 53:16 54:4 59:9 60:16 61:15 62:3 #
-1.4799714977365132006427460371161e-19 2:1 3:8 4:15 5:15 6:6 10:10 11:16 12:15 13:15 14:14 18:4 19:13 20:7 21:16 22:7 26:2 27:14 28:16 29:14 30:1 35:3 36:16 37:7 43:11 44:16 45:15 51:13 52:16 53:16 54:3 59:7 60:16 61:15 62:1 #
6.7865797502977900125130220411741e-19 3:4 4:16 5:12 6:1 11:10 12:15 13:13 14:11 19:5 20:12 21:5 22:16 29:8 30:15 36:1 37:15 38:12 44:11 45:16 46:10 51:5 52:16 53:16 54:16 55:16 56:6 59:6 60:16 61:5 62:5 63:10 64:13 #
2.1823723674266870975886525372828e-18 3:3 4:15 5:8 11:8 12:16 13:16 14:7 19:7 20:11 21:9 22:12 27:2 28:5 29:9 30:11 37:13 38:7 43:7 44:10 45:16 46:4 51:14 52:16 53:16 54:16 55:15 59:1 60:4 61:4 62:7 63:11 64:1 #
-8.868590384201408238590582817813e-18 3:5 4:12 5:10 10:2 11:15 12:14 13:16 14:1 19:11 20:3 21:16 22:1 29:11 30:5 37:7 38:14 46:9 47:10 51:10 52:7 53:5 54:12 55:12 59:6 60:14 61:16 62:13 63:4 #
-1.2425681154407364667536932490361e-18 5:11 6:8 12:2 13:16 14:8 20:6 21:16 22:2 28:7 29:15 36:10 37:14 43:13 44:16 45:16 46:11 51:7 52:7 53:16 54:16 55:10 61:8 62:16 63:15 #
-6.5089283302684916126664843016369e-19 3:2 4:15 5:12 11:3 12:16 13:14 14:10 20:5 21:13 22:16 23:2 30:12 31:8 38:7 39:11 46:7 47:13 51:2 53:2 54:11 55:11 59:3 60:13 61:15 62:16 63:6 #
7.1586636287762229691787193553809e-18 3:8 4:10 11:14 12:16 13:5 19:15 20:11 21:11 27:10 28:6 29:12 35:1 36:4 37:14 44:6 45:10 51:5 52:15 53:14 54:9 55:9 56:2 59:10 60:16 61:15 62:15 63:12 64:1 #
3.2836414788259416416701245658877e-19 2:1 3:13 4:16 5:15 6:1 10:10 11:15 12:7 13:16 14:4 18:11 19:15 20:7 21:16 22:4 26:1 27:11 28:12 29:15 35:1 36:16 37:11 43:7 44:16 45:4 51:14 52:16 53:5 54:3 59:13 60:16 61:16 62:16 63:10 #
1.2206815247723145098563686018326e-18 3:8 4:15 5:8 10:4 11:16 12:16 13:16 14:5 18:8 19:16 20:2 21:6 22:15 26:3 27:15 28:4 29:4 30:16 35:1 37:7 38:15 44:3 45:15 46:7 50:2 51:11 52:16 53:15 54:7 55:4 58:1 59:13 60:16 61:15 62:12 63:4 #
-2.1485925463087350684330611916764e-19 3:9 4:14 5:2 11:5 12:16 13:7 19:6 20:16 21:10 26:2 27:15 28:16 29:10 34:6 35:16 36:15 37:14 44:10 45:16 46:2 51:9 52:15 53:16 54:14 55:12 56:3 59:6 60:15 61:16 62:16 63:12 64:3 #
-3.0543937060352079464256848544929e-18 4:13 5:9 11:8 12:16 13:13 18:4 19:16 20:16 21:15 22:1 27:3 28:10 29:16 30:4 36:14 37:16 38:3 44:15 45:16 46:3 51:5 52:16 53:16 54:10 60:10 61:12 62:11 63:1 #
-2.6273269433897839285468227523546e-18 3:5 4:12 5:9 6:1 10:4 11:16 12:9 13:11 14:6 15:1 18:1 19:15 20:4 21:1 22:12 23:4 27:6 28:6 29:13 30:14 35:3 36:16 37:16 38:4 43:7 44:16 45:16 46:1 51:10 52:16 53:16 54:7 59:8 60:12 61:12 62:4 #
4.0966022219541269434482538827527e-18 3:7 4:13 5:16 6:5 10:6 11:8 12:8 13:14 14:9 21:15 22:5 28:12 29:11 35:6 36:15 37:1 43:12 44:4 51:11 52:10 53:8 54:8 55:4 59:6 60:15 61:16 62:12 63:4 #
6.7452012334253112190539861446744e-18 3:8 4:14 5:16 6:5 10:2 11:16 12:8 13:10 14:8 19:4 20:2 21:13 22:6 28:7 29:12 35:1 36:15 37:7 43:9 44:11 50:4 51:16 52:9 53:8 54:12 55:2 59:10 60:14 61:9 62:2 #
-1.3540141462164101144276933538813e-18 2:4 3:8 4:8 5:12 6:16 7:5 10:8 11:16 12:16 13:16 14:15 15:3 18:2 19:3 20:7 21:16 22:7 28:12 29:14 30:1 35:9 36:16 37:7 43:14 44:16 50:6 51:16 52:12 58:6 59:14 60:7 #
-7.2586488900958555378064853892818e-18 3:4 4:14 5:16 6:7 10:1 11:16 12:14 13:8 14:5 18:8 19:10 26:3 27:13 35:12 36:6 43:4 44:13 52:16 53:5 59:7 60:16 61:4 #
8.6480017877080516709456233414878e-19 3:5 4:14 5:7 6:1 10:2 11:15 12:14 13:16 14:10 18:2 19:16 20:6 21:12 22:16 26:1 27:11 28:5 29:10 30:16 37:16 38:9 43:3 44:5 45:16 46:5 51:13 52:16 53:15 54:7 55:5 59:5 60:8 61:10 62:13 63:13 #
6.4904993377584482538089682178893e-19 3:13 4:13 5:1 10:2 11:16 12:16 13:9 18:9 19:16 20:12 21:12 26:12 27:10 28:8 29:13 34:5 35:7 36:10 37:14 43:2 44:15 45:12 50:1 51:15 52:16 53:16 54:14 55:6 59:11 60:16 61:16 62:14 63:6 #
3.7199490945007529166072182103804e-18 3:10 4:15 5:16 6:6 10:1 11:13 12:5 13:7 14:15 15:2 21:7 22:12 23:2 28:6 29:15 30:3 35:7 36:12 37:1 42:5 43:14 44:2 50:9 51:14 52:10 53:11 54:7 55:1 58:1 59:7 60:8 61:8 62:11 63:4 #
-8.7391366805327639943168265066597e-18 3:2 4:8 5:15 6:11 10:2 11:15 12:14 13:12 14:16 15:4 18:2 19:7 21:10 22:15 28:3 29:15 30:3 36:13 37:9 44:4 45:14 46:5 50:2 51:10 52:8 53:7 54:16 55:6 59:4 60:9 61:13 62:15 63:7 #
1.0237916960372753624055539857016e-17 4:9 5:16 6:5 10:1 11:12 12:15 13:15 14:8 18:7 19:13 20:5 21:15 22:4 27:1 28:6 29:16 36:8 37:16 44:9 45:13 52:12 53:8 54:4 55:3 60:11 61:16 62:15 63:5 #
5.8628679620857787695177730293743e-18 3:3 4:10 5:15 6:8 10:3 11:15 12:9 13:8 14:12 18:8 19:8 21:5 22:11 26:2 27:6 29:10 30:7 36:5 37:14 38:1 44:14 45:5 51:4 52:16 53:4 54:5 55:11 59:1 60:14 61:15 62:11 63:2 #
2.6778962030338657351629753599597e-18 4:7 5:15 6:6 11:10 12:13 13:14 14:13 18:2 19:13 21:12 22:6 27:2 28:3 29:12 30:1 35:1 36:15 37:3 42:2 43:13 44:8 50:10 51:16 52:14 53:12 54:8 58:2 59:4 60:7 61:9 62:14 #
-1.9483894333350243704258465848232e-19 3:5 4:14 5:16 6:8 10:6 11:15 12:10 13:12 14:16 15:1 18:9 19:5 21:13 22:8 26:6 27:15 28:13 29:15 30:1 35:11 36:16 37:4 43:15 44:16 45:7 51:16 52:13 53:14 59:5 60:16 61:15 62:4 #
-3.055461107827313478622672925154e-18 2:1 3:11 4:9 5:14 6:11 7:1 10:8 11:16 12:14 13:14 14:16 15:2 18:7 19:16 21:11 22:12 26:1 27:1 28:1 29:15 30:5 36:10 37:14 43:2 44:15 45:5 51:12 52:16 53:4 59:15 60:11 61:1 #
-6.9198935159808845739082326754695e-19 3:1 4:15 5:13 6:1 11:8 12:16 13:16 14:8 17:3 18:13 19:16 20:16 21:16 22:6 26:9 27:8 28:9 29:16 30:6 36:10 37:16 38:1 44:12 45:16 52:16 53:14 54:1 60:12 61:16 62:1 #
5.4142822017495079611727847733102e-19 3:11 4:16 5:11 11:13 12:12 13:14 14:6 19:6 20:14 21:10 22:10 28:1 29:6 30:14 37:6 38:14 45:9 46:14 51:9 52:9 53:15 54:12 55:2 59:10 60:16 61:16 62:16 63:16 64:4 #
-1.4842399017904417924086036999682e-18 3:14 4:9 11:8 12:16 19:8 20:12 22:2 23:1 27:12 28:8 30:13 31:9 34:1 35:16 36:4 38:16 39:8 42:5 43:16 46:15 47:6 50:8 51:16 52:16 53:16 54:16 55:12 58:1 59:8 60:8 61:8 62:13 63:7 #
-6.0833134026745617785399318242196e-19 3:14 4:5 11:13 12:8 19:16 20:7 27:15 28:8 34:2 35:16 36:5 37:15 38:3 42:2 43:16 44:9 45:14 46:11 47:1 50:6 51:16 52:16 53:16 54:16 55:15 58:1 59:8 60:5 61:7 62:16 63:8 #
-1.1002664313925979911194408785928e-18 3:2 4:11 5:16 6:16 7:16 8:12 11:7 12:15 13:9 14:8 15:12 16:13 22:1 23:14 24:5 30:11 31:9 37:6 38:13 44:1 45:14 46:3 52:10 53:9 59:1 60:16 61:5 #
8.4115475442624763683399127521963e-19 3:5 4:14 5:16 6:8 10:3 11:16 12:14 13:15 14:15 19:8 20:3 21:14 22:11 28:9 29:15 30:3 35:3 36:15 37:8 43:10 44:14 45:1 51:16 52:13 53:4 54:9 55:8 59:5 60:14 61:15 62:12 63:3 #
-1.5176364529679994068797694983261e-18 3:4 4:15 5:11 6:1 10:2 11:13 12:16 13:16 18:2 19:12 20:16 21:12 28:14 29:14 36:15 37:14 44:16 45:13 51:3 52:16 53:15 59:2 60:15 61:16 62:1 #
1.4731767217104504750797645604187e-18 2:1 3:15 4:6 10:7 11:15 12:16 13:3 18:11 19:5 20:12 21:4 26:2 27:3 28:10 29:7 35:1 36:16 37:2 43:6 44:14 51:14 52:16 53:16 54:15 55:6 59:8 60:8 61:8 62:10 63:13 #
-2.0411582932837705156009178438042e-18 3:8 4:16 5:16 6:16 7:9 10:5 11:15 12:9 13:5 14:14 15:16 16:2 21:3 22:16 23:9 29:14 30:11 31:1 36:7 37:16 38:5 43:3 44:16 45:8 51:9 52:16 53:3 59:12 60:16 61:1 #
-1.897643922888676562823392612462e-18 2:3 3:13 4:16 5:16 6:16 7:15 8:1 10:3 11:9 12:5 13:6 14:16 15:11 21:10 22:14 23:1 28:6 29:16 30:3 36:14 37:11 43:8 44:15 45:2 50:1 51:14 52:12 58:5 59:16 60:5 #
1.3296149570150070540672052543297e-18 3:14 4:8 10:3 11:16 12:15 13:4 18:1 19:10 20:14 21:9 28:9 29:13 36:8 37:13 43:1 44:12 45:15 46:3 51:11 52:16 53:16 54:16 55:12 56:2 59:13 60:14 61:2 62:1 63:3 64:1 #
4.2303658525457412248879106563513e-18 3:15 4:8 10:2 11:16 12:15 13:2 19:16 20:8 21:10 27:12 28:8 29:12 36:8 37:8 44:12 45:8 51:12 52:16 53:15 54:15 55:5 59:15 60:11 61:6 62:2 #
-3.9329660458341831380349672026986e-18 3:2 4:13 5:9 6:1 10:1 11:13 12:7 13:15 14:5 17:1 18:15 19:9 21:15 22:2 26:6 27:13 28:7 29:13 35:5 36:16 37:8 43:1 44:15 45:14 46:2 51:4 52:12 53:6 54:11 60:11 61:16 62:8 #
-3.2850531802390568936950754126505e-18 3:4 4:14 5:11 6:1 11:9 12:8 13:10 14:9 19:7 21:14 22:4 27:9 28:11 29:14 30:1 35:1 36:15 37:8 43:3 44:13 45:12 46:5 51:8 52:8 53:4 54:14 59:3 60:15 61:16 62:13 #
-5.6490303375108541417475789088276e-19 3:12 4:7 11:9 12:15 19:11 20:16 21:5 27:10 28:16 29:7 36:11 37:14 44:6 45:16 46:2 51:14 52:16 53:16 54:13 55:12 56:3 59:8 60:15 61:15 62:14 63:16 64:11 #
-1.7315097428175530464771123655994e-18 3:1 4:12 5:15 6:6 11:5 12:13 13:1 14:12 19:2 20:11 21:1 22:15 28:10 29:11 30:9 36:6 37:16 38:6 43:10 44:15 45:4 46:13 47:3 51:12 52:2 54:1 55:14 59:1 60:10 61:10 62:8 63:15 64:1 #
-2.1665450020937982114168200932198e-18 3:3 4:14 5:16 6:6 10:1 11:13 12:5 13:4 14:13 18:5 19:12 22:9 23:4 26:5 27:9 30:5 31:8 34:8 35:7 38:3 39:8 42:6 43:9 46:2 47:9 51:15 52:3 53:1 54:9 55:8 59:5 60:15 61:14 62:9 #
-1.95057150847969919092801022018e-18 3:4 4:13 5:14 6:3 11:14 12:7 13:4 14:14 18:3 19:10 22:8 23:3 26:8 27:4 30:4 31:8 34:5 35:12 38:2 39:8 43:15 44:1 46:4 47:7 51:10 52:8 53:1 54:12 55:6 59:2 60:12 61:16 62:15 #
5.6268424523837656885905402107835e-18 3:6 4:16 5:8 10:3 11:16 12:6 13:16 14:1 18:3 19:7 20:2 21:16 22:2 28:7 29:13 36:12 37:8 43:2 44:15 45:4 46:1 51:8 52:12 53:4 54:13 55:6 59:5 60:16 61:15 62:8 63:1 #
1.0315618886538694512772041303532e-18 3:12 4:16 5:6 10:3 11:15 12:12 13:12 18:6 19:12 20:8 21:12 26:3 27:14 28:11 29:10 35:5 36:16 37:3 43:13 44:12 50:8 51:16 52:12 53:7 54:5 55:2 59:12 60:13 61:10 62:10 63:4 #
-6.1695809474826299796341367798052e-19 2:3 3:6 4:15 5:13 6:1 10:10 11:16 12:5 13:11 14:10 18:1 19:11 20:10 21:11 22:11 28:10 29:16 30:3 35:1 36:13 37:13 38:3 43:7 44:15 45:6 46:11 51:10 52:12 53:7 54:14 59:4 60:16 61:15 62:3 #
-8.2501820099959815742586121630041e-19 3:2 4:12 5:16 6:3 10:3 11:16 12:6 13:8 14:8 18:5 19:14 20:11 21:15 22:2 28:10 29:11 35:1 36:16 37:14 38:2 43:8 44:12 45:6 46:9 51:10 52:6 53:6 54:16 55:1 59:3 60:14 61:13 62:8 #
-9.712576940358408049262604148861e-19 2:1 3:8 4:16 5:14 6:7 10:5 11:16 12:6 13:8 14:15 18:1 19:13 20:8 21:15 22:9 27:1 28:15 29:10 35:8 36:12 37:11 43:13 44:5 45:8 46:1 51:14 52:1 53:9 54:4 59:9 60:14 61:14 62:1 #
1.0863259506276913391408128153729e-18 4:3 5:15 6:16 7:3 12:12 13:10 14:15 15:3 20:2 21:6 22:14 28:1 29:15 30:5 35:1 36:13 37:9 42:1 43:12 44:12 45:1 50:9 51:16 52:16 53:16 54:13 55:5 58:2 59:4 60:5 61:10 62:13 63:12 #
1.8365088741100712146694634894952e-18 3:4 4:14 5:15 6:5 10:7 11:14 12:7 13:6 14:16 18:10 19:6 22:11 23:3 26:4 27:2 29:1 30:14 37:10 38:7 44:5 45:13 46:1 51:6 52:16 53:8 59:5 60:9 61:12 62:12 63:16 64:2 #
-1.9053739253089499263878897562315e-18 3:1 4:11 5:16 6:6 11:12 12:14 13:11 14:16 15:3 19:11 20:5 21:2 22:16 23:5 29:7 30:14 31:2 36:7 37:16 38:7 44:3 45:16 46:10 52:12 53:16 54:15 59:1 60:12 61:16 62:7 #
-2.9188845184804177301964922627385e-18 4:8 5:15 6:16 7:7 10:1 11:14 12:9 13:1 15:8 18:6 19:12 22:10 23:8 26:4 27:14 28:12 29:13 30:14 31:8 37:1 38:4 39:8 46:4 47:8 54:7 55:8 60:8 61:12 62:15 63:6 #
-1.1298443399755652089186200775594e-18 3:8 4:12 5:14 6:3 10:10 11:16 12:14 13:15 14:13 18:7 19:5 21:9 22:15 29:12 30:11 37:9 38:16 39:2 46:14 47:9 51:11 52:12 53:14 54:16 55:5 59:8 60:14 61:9 62:4 #
-6.7031651347470986774105788880415e-19 3:12 4:4 11:15 12:4 18:2 19:15 20:2 26:2 27:15 28:6 29:12 30:8 34:7 35:16 36:14 37:9 38:10 39:6 42:4 43:16 44:14 45:3 46:1 47:10 50:3 51:16 52:13 53:15 54:16 55:5 59:10 60:15 61:10 62:3 #
-9.8937428736725116115429994717889e-19 4:8 5:15 6:2 12:13 13:16 14:3 19:4 20:16 21:14 27:7 28:16 29:7 35:9 36:16 37:2 43:12 44:16 45:4 51:8 52:16 53:16 54:8 60:6 61:15 62:15 #
-4.2982313925339380311401565548602e-18 3:11 4:16 5:16 6:8 11:11 12:12 13:8 14:13 19:7 20:10 27:3 28:13 36:14 37:2 44:13 45:6 51:6 52:12 53:10 59:11 60:16 61:9 #
1.3547509546947790787602855955293e-19 3:9 4:15 5:1 10:2 11:16 12:14 13:10 18:9 19:13 20:8 21:12 26:9 27:8 28:12 29:9 34:1 35:1 36:14 37:6 43:2 44:16 45:2 51:9 52:14 53:12 54:15 55:8 59:7 60:16 61:15 62:5 63:2 #
-1.4435478313108854872622651111725e-18 3:10 4:8 5:10 6:12 7:6 10:2 11:16 12:14 13:12 14:15 15:11 18:3 19:9 20:2 21:4 22:14 23:2 28:1 29:14 30:4 36:5 37:14 43:1 44:13 45:6 50:1 51:12 52:16 53:1 59:14 60:10 #
-1.0595345698912143437078886706647e-18 3:14 4:15 5:12 6:12 7:6 10:1 11:16 12:12 13:12 14:16 15:7 19:6 20:1 21:12 22:12 28:8 29:15 30:2 36:13 37:7 43:6 44:15 45:1 51:15 52:10 59:15 60:6 #
-1.020451102085912853837075394036e-18 4:8 5:15 6:4 12:13 13:16 14:13 18:1 19:1 20:10 21:3 22:13 23:6 26:5 27:8 30:6 31:8 34:7 35:11 38:4 39:8 42:3 43:15 44:7 46:4 47:9 51:7 52:16 53:13 54:11 55:12 60:6 61:15 62:16 63:4 #
-3.0118348784516074936700568563944e-18 3:5 4:11 5:14 6:5 10:7 11:13 12:5 13:4 14:14 15:2 19:4 20:8 21:2 22:14 23:2 27:1 28:13 29:14 30:3 35:1 36:14 37:8 43:9 44:9 45:10 46:2 51:13 52:1 53:8 54:8 59:6 60:13 61:14 62:7 #
-1.9609342923188892453604318556072e-18 3:11 4:15 5:10 10:2 11:13 13:9 14:3 18:3 19:12 21:10 27:11 28:12 29:12 36:11 37:14 38:6 42:1 43:9 44:5 46:10 47:5 50:4 51:10 54:8 55:4 58:1 59:14 60:11 61:14 62:10 #
1.9824624780612811976875983678535e-18 3:12 4:16 5:6 10:7 11:12 12:4 13:14 18:11 19:14 21:6 22:4 26:6 27:8 29:7 30:4 37:10 38:3 44:5 45:13 51:3 52:14 53:10 59:14 60:13 61:12 62:15 63:13 64:1 #
1.2146376106889251452639678647753e-18 3:8 4:13 5:12 6:2 11:10 12:12 13:13 14:10 19:1 21:8 22:12 29:9 30:12 36:3 37:16 38:5 43:1 44:13 45:12 46:2 47:3 51:12 52:16 53:16 54:16 55:9 59:10 60:12 61:9 62:2 #
-1.427698773424865734198990335276e-18 3:4 4:13 5:15 6:8 10:2 11:13 12:4 14:12 18:6 19:9 21:2 22:10 26:3 27:13 28:1 29:4 30:15 31:5 35:5 36:14 37:14 38:3 43:3 44:16 45:13 51:8 52:6 53:14 54:4 59:6 60:13 61:15 62:3 #
-1.8247225943061982651688365846546e-18 3:5 4:12 5:15 6:14 7:10 8:3 11:4 12:7 13:4 14:5 15:14 16:3 22:9 23:11 29:4 30:16 31:4 34:2 35:8 36:9 37:16 38:10 42:3 43:12 44:16 45:9 51:5 52:14 59:6 60:9 #
-3.9886165957575624511747824932356e-19 2:1 3:10 4:16 5:12 6:1 10:7 11:16 12:10 13:13 14:5 18:1 19:6 21:9 22:8 28:7 29:15 30:10 36:6 37:12 38:14 39:7 46:2 47:14 51:7 52:6 53:4 54:9 55:14 59:7 60:15 61:16 62:13 63:7 #
-1.134034405735470964497097207215e-18 2:1 3:10 4:16 5:6 10:4 11:12 12:8 13:12 18:1 20:2 21:11 28:9 29:16 30:9 36:5 37:8 38:16 39:5 46:8 47:9 50:2 51:8 52:8 53:7 54:11 55:9 58:1 59:13 60:16 61:16 62:10 63:1 #
-1.013202810032360662050951935845e-18 3:8 4:12 5:13 6:3 11:11 12:15 13:7 14:1 19:15 20:16 21:14 22:3 27:4 28:5 29:6 30:13 31:2 38:9 39:7 43:6 46:2 47:12 50:3 51:15 52:8 53:4 54:10 55:11 59:8 60:12 61:13 62:12 63:3 #
-1.512650740272494564636689729354e-18 3:5 4:12 5:14 6:3 10:3 11:14 12:2 13:4 14:11 18:4 19:12 21:5 22:16 23:4 26:1 27:14 28:6 29:14 30:4 35:7 36:16 37:4 43:7 44:16 45:4 51:10 52:13 53:11 59:7 60:16 61:11 #
-4.040382060087891655066466075133e-19 3:8 4:12 5:12 6:1 10:6 11:12 12:2 13:6 14:8 18:5 19:11 21:3 22:16 23:7 27:14 28:6 29:10 30:10 31:1 35:6 36:16 37:8 43:7 44:16 45:5 51:12 52:10 53:10 59:11 60:14 61:9 #
1.1603824261998897480616755011029e-18 3:9 4:15 5:6 10:1 11:16 12:6 13:14 14:2 19:14 20:1 21:8 22:8 27:7 28:7 29:5 30:9 37:9 38:5 44:1 45:14 46:2 51:5 52:15 53:12 54:11 55:6 59:15 60:14 61:12 62:8 63:8 #
-2.4881778563375307378723268770495e-19 3:5 4:12 5:13 6:1 11:7 12:16 13:16 14:10 19:1 20:13 21:16 22:13 29:10 30:15 37:9 38:15 43:2 44:5 45:15 46:12 51:11 52:16 53:16 54:7 59:4 60:13 61:9 #
-1.2012247902623020238131327137964e-18 2:2 3:11 4:3 6:2 10:2 11:13 12:12 13:5 14:15 15:6 19:11 20:14 21:14 22:1 27:7 28:15 29:1 35:15 36:12 37:5 42:4 43:10 44:4 45:8 50:7 51:9 52:7 53:8 58:2 59:14 60:15 61:5 #
9.1285573614298990673159701344322e-19 3:4 4:12 5:13 6:2 11:16 12:9 13:12 14:9 18:2 19:12 20:1 21:15 22:5 27:1 28:6 29:14 30:1 36:15 37:7 43:9 44:12 51:9 52:9 53:4 54:8 55:14 56:2 59:4 60:13 61:13 62:9 63:2 #
-9.9757838467341451035576257716101e-19 3:2 4:13 5:15 6:4 11:9 12:10 13:5 14:11 19:10 20:7 21:13 22:10 27:7 28:12 29:16 30:3 35:6 36:16 37:7 43:14 44:13 45:2 51:11 52:2 53:10 60:13 61:15 #
-3.4236514329739627000324140607254e-19 3:9 4:14 5:9 10:6 11:15 12:5 13:16 14:6 18:5 19:14 20:1 21:6 22:13 27:10 28:14 29:13 30:16 36:5 37:5 38:12 39:2 46:9 47:5 51:16 52:9 53:7 54:10 55:8 59:6 60:10 61:14 62:16 63:5 #
-4.1939661161095001952956326505966e-19 3:8 4:14 5:10 6:2 11:15 12:14 13:11 14:13 21:5 22:16 23:1 29:11 30:14 37:3 38:15 39:3 46:9 47:13 51:3 52:9 53:8 54:15 55:11 59:6 60:16 61:14 62:7 63:1 #
-1.2461852948999938851375779810479e-18 3:2 4:13 5:12 6:4 10:1 11:15 12:12 13:3 14:13 15:2 18:8 19:13 20:8 22:6 23:4 26:8 27:4 28:3 30:3 31:8 34:5 35:5 38:6 39:6 42:1 43:14 44:1 46:8 47:3 51:8 52:8 53:5 54:13 55:1 60:11 61:15 62:6 #
-1.6386560298907993371815617562981e-19 3:8 4:14 5:12 6:2 10:10 11:14 12:12 13:14 18:6 19:2 20:11 21:7 28:12 29:5 36:8 37:15 38:2 45:9 46:14 47:3 51:6 52:2 53:7 54:14 55:8 59:14 60:15 61:11 62:4 #
-7.4324059523472153429464401610939e-20 3:5 4:15 5:8 10:2 11:15 12:9 13:10 14:3 15:1 18:6 19:9 20:7 21:11 22:14 23:1 26:2 27:15 28:13 29:8 30:2 34:1 35:15 36:6 42:1 43:16 44:12 50:1 51:16 52:13 53:1 59:8 60:15 61:3 #
-1.1716809001207881598348168902891e-19 3:5 4:13 5:12 6:1 10:2 11:15 12:5 13:6 14:7 18:6 19:9 22:16 23:4 26:6 27:10 30:14 31:6 35:9 36:13 37:14 38:12 39:9 47:12 51:3 54:3 55:14 59:5 60:12 61:13 62:14 63:5 #
-1.6460338485338882024891525145973e-20 2:1 3:11 4:14 5:6 10:7 11:12 12:5 13:15 18:6 19:6 20:1 21:16 28:5 29:16 36:13 37:16 38:12 45:3 46:14 47:6 51:5 52:7 53:6 54:14 55:8 59:14 60:16 61:16 62:11 63:1 #
2.9775433957963247729969468954768e-18 3:7 4:16 5:14 6:2 11:13 12:13 13:9 14:13 19:11 20:10 22:14 23:5 27:5 28:14 30:12 31:9 38:12 39:8 45:4 46:16 47:5 51:2 52:8 53:14 54:15 59:8 60:16 61:16 62:16 63:16 64:4 #
