SVM-light Version V6.02
2 # kernel type
3 # kernel parameter -d 
0.005 # kernel parameter -g 
1 # kernel parameter -s 
1 # kernel parameter -r 
empty# kernel parameter -u 
64 # highest feature index 
2823 # number of training documents 
2083 # number of support vectors plus 1 
0.8391465 # threshold b, each following line is a SV (starting with alpha*y)
-0.047326405366663153173600875334159 4:6 5:15 6:2 7:2 11:3 12:15 13:10 14:4 15:15 18:2 19:14 20:9 22:12 23:11 26:9 27:16 28:4 29:3 30:16 31:14 34:11 35:16 36:16 37:16 38:15 39:7 42:1 43:10 44:11 45:16 46:8 52:3 53:16 54:1 60:8 61:11 #
-0.070378598660198007919142071386887 3:4 4:10 5:15 6:4 11:8 12:13 13:6 14:1 18:1 19:15 20:14 21:10 22:1 27:11 28:8 29:10 30:12 31:1 38:10 39:6 46:2 47:14 51:6 52:7 53:3 54:3 55:15 56:2 59:4 60:13 61:16 62:16 63:15 64:1 #
-0.027657932009293558633933329815591 2:4 3:15 4:16 5:12 10:12 11:15 12:7 13:16 14:5 18:3 19:3 21:15 22:4 29:13 30:7 36:5 37:15 38:2 43:1 44:14 45:11 50:1 51:13 52:16 53:9 54:8 55:3 58:3 59:16 60:16 61:16 62:16 63:16 64:1 #
-0.14857059687614912468767158770788 3:7 4:15 5:13 6:3 11:11 12:6 13:8 14:14 20:3 21:8 22:12 28:16 29:14 30:2 36:10 37:15 38:7 45:2 46:11 47:10 50:1 51:15 52:3 53:1 54:11 55:10 59:4 60:15 61:16 62:13 63:2 #
-0.022722270684335209300908076102132 3:10 4:16 5:12 10:1 11:14 12:13 13:16 14:4 19:2 20:3 21:16 22:5 28:4 29:16 30:2 36:11 37:14 43:2 44:16 45:8 47:3 50:1 51:13 52:16 53:14 54:16 55:16 56:3 59:12 60:16 61:16 62:13 63:7 #
0.50000003576649798553432901826454 3:1 4:9 5:15 6:12 11:13 12:8 13:5 14:14 15:4 19:14 20:1 21:5 22:14 23:1 27:7 28:13 29:16 30:4 35:11 36:12 37:14 38:12 39:1 42:4 43:13 46:11 47:7 50:1 51:13 52:7 53:2 54:8 55:8 59:1 60:9 61:16 62:13 63:2 #
0.50000003576649798553432901826454 3:3 4:14 5:16 6:12 7:1 10:3 11:16 12:14 13:3 14:11 15:4 18:2 19:13 20:1 21:3 22:15 23:4 27:10 28:16 29:16 30:8 34:2 35:15 36:10 37:14 38:4 42:5 43:14 45:3 46:14 47:1 51:14 52:4 53:1 54:14 55:2 59:2 60:13 61:16 62:10 #
0.50000003576649798553432901826454 3:1 4:8 5:15 6:8 11:14 12:11 13:14 14:16 18:3 19:12 21:6 22:9 26:1 27:15 28:10 29:14 30:1 35:1 36:15 37:16 38:5 43:5 44:12 45:3 46:15 47:3 51:6 52:11 53:1 54:13 55:4 60:8 61:16 62:13 63:1 #
0.50000003576649798553432901826454 4:6 5:11 6:6 11:8 12:13 13:9 14:16 15:3 18:2 19:15 20:4 22:13 23:3 27:7 28:14 29:9 30:13 35:1 36:15 37:16 38:6 43:11 44:10 45:10 46:12 51:9 52:10 53:1 54:16 55:3 60:9 61:12 62:10 63:1 #
0.50000003576649798553432901826454 3:2 4:9 5:3 10:5 11:14 12:9 13:13 14:9 18:7 19:14 21:10 22:10 27:9 28:14 29:15 30:6 35:7 36:16 37:16 43:12 44:6 45:7 46:12 47:1 51:15 52:5 54:14 55:6 59:2 60:8 61:12 62:11 63:3 #
-0.50000003576649798553432901826454 3:5 4:12 5:12 10:3 11:16 12:12 13:15 14:4 18:4 19:14 21:14 22:6 26:1 27:12 28:11 29:12 35:7 36:16 37:8 38:1 43:1 44:5 45:12 46:13 47:1 51:8 52:4 54:16 55:4 59:8 60:15 61:15 62:11 63:1 #
-0.50000003576649798553432901826454 3:5 4:11 5:15 6:8 10:4 11:14 12:8 13:10 14:16 18:8 19:13 20:1 21:15 22:12 26:4 27:16 28:15 29:16 30:13 35:4 36:12 37:13 38:16 39:4 43:4 44:1 46:14 47:8 51:13 52:13 53:6 54:14 55:7 59:2 60:14 61:14 62:9 63:2 #
-0.50000003576649798553432901826454 3:5 4:14 5:15 6:5 10:2 11:16 12:9 13:9 14:15 15:2 18:2 19:10 21:6 22:16 23:3 27:2 28:14 29:16 30:7 36:11 37:16 38:14 39:1 43:6 44:3 45:6 46:16 47:1 51:13 52:11 53:10 54:15 59:9 60:16 61:16 62:7 #
0.50000003576649798553432901826454 3:2 4:16 5:15 6:7 11:3 12:12 13:13 14:13 20:6 21:16 22:10 28:6 29:16 30:3 35:3 36:15 37:10 38:12 42:1 43:13 44:5 46:13 47:6 51:16 52:5 54:7 55:15 59:3 60:11 61:16 62:16 63:12 64:2 #
0.50000003576649798553432901826454 3:11 4:14 5:10 6:2 11:12 12:13 13:13 14:15 19:3 20:11 21:12 22:12 23:1 28:15 29:12 35:5 36:15 37:10 43:12 44:4 45:11 51:14 52:1 53:12 54:2 59:10 60:16 61:10 #
0.50000003576649798553432901826454 3:6 4:14 5:16 6:10 11:13 12:13 13:10 14:15 19:5 20:15 21:11 22:14 28:10 29:16 30:7 36:14 37:16 38:1 43:8 44:15 45:15 46:2 51:12 52:14 53:16 54:1 59:10 60:16 61:11 #
-0.22833507509685010972155794206628 3:8 4:14 5:14 6:4 11:6 12:14 13:16 14:11 15:1 19:3 20:15 21:16 22:15 23:3 27:1 28:16 29:16 30:13 35:2 36:16 37:16 38:8 43:10 44:16 45:16 46:6 50:1 51:14 52:16 53:15 54:2 59:12 60:16 61:8 #
-0.43315711390204070241338740743231 3:7 4:16 5:16 6:10 7:1 11:8 12:16 13:16 14:13 15:1 19:6 20:16 21:16 22:12 27:4 28:16 29:16 30:8 35:7 36:16 37:16 38:5 42:1 43:14 44:16 45:16 46:3 50:4 51:16 52:16 53:8 58:2 59:14 60:16 61:14 62:2 #
-0.030732688426398271919204319146957 3:6 4:11 5:12 6:3 11:9 12:16 13:16 14:13 19:5 20:16 21:16 22:9 27:5 28:16 29:16 30:7 35:7 36:16 37:16 38:6 43:8 44:16 45:16 46:6 51:9 52:16 53:16 54:6 59:5 60:12 61:11 62:3 #
0.50000003576649798553432901826454 3:6 4:14 5:12 6:6 10:3 11:16 12:11 13:10 14:15 15:5 18:6 19:16 20:4 21:3 22:16 23:4 27:9 28:16 29:16 30:12 35:2 36:15 37:7 38:15 39:6 43:8 44:6 46:14 47:8 51:13 52:10 53:13 54:13 55:1 59:5 60:12 61:9 62:1 #
0.50000003576649798553432901826454 3:9 4:15 5:12 6:6 10:3 11:16 12:15 13:13 14:8 18:2 19:16 20:4 21:12 22:5 27:13 28:16 29:10 35:8 36:14 37:11 38:1 42:1 43:12 45:14 46:6 51:13 52:5 53:2 54:16 55:2 59:7 60:14 61:16 62:16 63:2 #
0.50000003576649798553432901826454 3:5 4:13 5:16 6:7 10:2 11:16 12:7 13:8 14:11 18:8 19:15 20:5 21:10 22:8 26:2 27:6 28:15 29:16 30:7 35:1 36:13 37:10 38:16 39:4 43:4 44:13 45:1 46:9 47:12 51:7 52:10 53:5 54:15 55:7 59:2 60:13 61:15 62:8 63:1 #
-0.085868529775657440050729007907648 3:12 4:16 5:9 6:5 11:16 12:9 13:13 14:15 15:2 18:4 19:16 21:4 22:16 23:4 27:14 28:13 29:15 30:16 31:8 35:5 36:11 37:8 38:16 39:8 46:14 47:7 51:12 52:10 53:12 54:16 55:2 59:10 60:13 61:12 62:4 #
-0.36080643536483258948521779529983 3:3 4:11 5:16 6:5 11:12 12:15 13:12 14:7 19:15 20:6 27:16 28:15 29:11 30:1 35:15 36:15 37:14 38:9 43:15 44:6 45:2 46:16 47:2 51:12 52:12 53:12 54:16 55:5 59:3 60:13 61:15 62:9 #
-0.14223032917761743720852507522068 3:4 4:15 5:16 6:5 10:4 11:16 12:10 13:10 14:15 18:10 19:16 20:7 21:4 22:15 26:1 27:4 28:3 29:13 30:9 36:9 37:16 38:16 39:4 44:1 46:11 47:11 51:2 52:12 53:4 54:13 55:9 59:4 60:16 61:16 62:12 63:1 #
0.50000003576649798553432901826454 3:5 4:14 5:16 6:9 11:8 12:16 13:14 14:16 15:5 19:7 20:16 21:13 22:16 23:4 26:8 27:13 28:16 29:16 30:12 34:3 35:15 36:16 37:12 38:2 43:14 44:16 45:12 46:1 51:15 52:16 53:16 54:4 59:7 60:16 61:11 62:1 #
0.50000003576649798553432901826454 3:9 4:15 5:16 6:10 11:16 12:16 13:16 14:16 15:4 19:14 20:11 21:14 22:16 23:2 27:7 28:16 29:16 30:7 35:10 36:16 37:11 42:2 43:16 44:15 45:14 46:1 50:4 51:16 52:14 53:16 54:4 59:9 60:15 61:13 62:1 #
0.50000003576649798553432901826454 3:2 4:13 5:15 6:2 11:11 12:16 13:13 14:10 19:14 20:9 21:8 22:12 27:8 28:14 29:16 30:10 35:5 36:16 37:13 38:1 43:9 44:15 45:14 46:2 51:7 52:14 53:14 54:6 59:1 60:13 61:16 62:2 #
-0.50000003576649798553432901826454 3:7 4:15 5:15 6:5 10:4 11:16 12:16 13:16 14:13 15:1 18:2 19:16 20:16 21:16 22:6 27:16 28:16 29:16 30:6 35:16 36:16 37:16 42:1 43:16 44:16 45:16 46:1 50:4 51:16 52:16 53:15 54:3 58:1 59:8 60:15 61:12 62:2 #
-0.25755524887858122218275980230828 3:1 4:12 5:16 6:14 7:1 11:4 12:16 13:16 14:16 15:4 18:2 19:14 20:16 21:16 22:16 23:6 26:2 27:12 28:16 29:16 30:10 35:8 36:16 37:16 38:8 43:11 44:16 45:16 46:5 51:8 52:16 53:16 54:4 59:1 60:15 61:16 62:8 #
-0.044312958193181067878541057325492 3:1 4:10 5:12 6:11 7:5 11:8 12:16 13:16 14:16 15:3 19:13 20:16 21:16 22:11 26:1 27:16 28:16 29:16 30:12 34:2 35:16 36:16 37:16 38:10 42:2 43:16 44:16 45:16 46:6 51:7 52:16 53:16 54:8 59:2 60:11 61:12 62:4 #
0.50000003576649798553432901826454 3:8 4:13 5:11 6:5 10:4 11:16 12:14 13:16 14:10 18:1 19:14 20:16 21:7 27:11 28:16 29:14 30:2 34:2 35:16 36:3 37:8 38:15 39:1 42:6 43:15 44:2 45:1 46:16 47:5 50:5 51:16 52:9 53:11 54:16 55:3 59:9 60:15 61:15 62:7 #
0.50000003576649798553432901826454 3:4 4:14 5:11 6:1 11:9 12:8 13:10 14:9 19:7 21:14 22:4 27:9 28:11 29:14 30:1 35:1 36:15 37:8 43:3 44:13 45:12 46:5 51:8 52:8 53:4 54:14 59:3 60:15 61:16 62:13 #
0.50000003576649798553432901826454 3:1 4:15 5:16 6:8 11:6 12:16 13:15 14:13 19:5 20:16 21:16 22:11 28:15 29:16 30:7 35:6 36:16 37:15 43:13 44:11 45:11 46:7 51:13 52:10 53:5 54:16 59:3 60:13 61:16 62:12 #
-0.10733753756172166593518824129205 3:2 4:13 5:16 6:3 10:4 11:15 12:14 13:15 14:12 18:4 19:7 20:1 21:14 22:7 28:6 29:16 30:3 35:4 36:16 37:5 42:1 43:13 44:10 51:14 52:12 53:5 54:8 55:3 59:3 60:12 61:16 62:10 63:2 #
-0.055178804619219819216358047242466 3:5 4:14 5:16 6:8 10:3 11:16 12:14 13:15 14:15 19:8 20:3 21:14 22:11 28:9 29:15 30:3 35:3 36:15 37:8 43:10 44:14 45:1 51:16 52:13 53:4 54:9 55:8 59:5 60:14 61:15 62:12 63:3 #
-0.26055494715200677724453726114007 3:7 4:16 5:16 6:10 10:4 11:16 12:13 13:16 14:15 19:8 20:2 21:16 22:12 28:8 29:16 30:6 35:4 36:16 37:9 42:1 43:13 44:15 45:2 50:1 51:16 52:15 53:12 54:12 55:5 59:9 60:16 61:14 62:7 63:1 #
0.50000003576649798553432901826454 3:7 4:14 5:4 10:1 11:16 12:16 13:16 14:7 18:4 19:16 20:16 21:16 22:14 27:13 28:16 29:16 30:11 35:8 36:16 37:16 38:1 43:10 44:16 45:16 46:6 51:11 52:16 53:16 54:13 59:6 60:12 61:13 62:10 #
0.50000003576649798553432901826454 2:1 3:8 4:12 5:3 10:1 11:16 12:16 13:14 14:2 18:2 19:16 20:16 21:16 22:16 23:1 27:12 28:16 29:16 30:4 35:12 36:16 37:16 38:7 42:2 43:16 44:16 45:16 46:14 50:4 51:16 52:16 53:15 54:4 58:1 59:12 60:10 61:5 #
0.50000003576649798553432901826454 3:5 4:12 5:16 6:4 10:2 11:16 12:15 13:10 14:4 18:4 19:16 20:14 21:16 22:5 26:4 27:15 28:16 29:16 30:9 35:7 36:16 37:16 38:13 39:2 43:10 44:15 45:6 46:16 47:8 51:14 52:14 53:13 54:14 55:1 59:7 60:16 61:11 62:5 #
-0.23502516312686386190655696282192 2:1 3:8 4:15 5:10 10:4 11:16 12:16 13:16 14:9 19:12 20:16 21:16 22:12 27:10 28:16 29:16 30:8 35:8 36:16 37:16 38:10 43:9 44:16 45:16 46:13 51:8 52:16 53:16 54:12 59:5 60:15 61:16 62:9 63:1 #
-0.39234603341098317486057567293756 3:8 4:12 5:9 6:1 10:3 11:16 12:16 13:16 14:10 18:3 19:16 20:16 21:16 22:10 27:8 28:16 29:16 30:4 35:12 36:16 37:16 38:8 42:1 43:15 44:16 45:16 46:9 51:13 52:16 53:16 54:9 59:6 60:9 61:11 62:3 #
-0.1782356955110692697807905915397 3:2 4:16 5:11 10:1 11:11 12:16 13:16 14:7 18:10 19:16 20:16 21:16 22:9 26:2 27:9 28:15 29:16 30:11 36:12 37:16 38:8 43:4 44:16 45:16 46:5 51:10 52:16 53:16 54:15 55:4 59:3 60:15 61:16 62:12 #
0.50000003576649798553432901826454 3:5 4:14 5:16 6:8 10:6 11:15 12:10 13:12 14:16 15:1 18:9 19:5 21:13 22:8 26:6 27:15 28:13 29:15 30:1 35:11 36:16 37:4 43:15 44:16 45:7 51:16 52:13 53:14 59:5 60:16 61:15 62:4 #
0.50000003576649798553432901826454 2:2 3:11 4:16 5:10 6:1 10:7 11:14 12:7 13:16 14:14 15:2 18:6 19:9 20:7 21:15 22:1 26:1 27:13 28:16 29:7 35:9 36:16 37:9 43:12 44:16 45:11 50:3 51:16 52:16 53:3 59:14 60:9 #
0.50000003576649798553432901826454 3:6 4:9 5:4 6:1 11:6 12:16 13:16 14:9 15:1 19:4 20:16 21:1 22:13 23:7 28:14 29:5 30:12 31:8 34:1 35:10 36:15 37:16 38:10 42:6 43:15 44:9 45:16 46:1 50:7 51:13 52:8 53:14 54:4 59:6 60:10 61:13 62:1 #
-0.48094318628180920960346611536806 3:11 4:16 5:12 6:5 10:4 11:16 12:11 13:16 14:16 15:3 18:4 19:16 20:11 21:16 22:14 27:10 28:16 29:16 30:6 36:15 37:14 43:7 44:16 45:5 51:15 52:13 59:12 60:11 #
-0.26236124294912793741829659666109 3:10 4:16 5:16 6:16 7:3 11:14 12:16 13:16 14:13 15:5 19:8 20:16 21:4 27:1 28:15 29:9 36:11 37:12 43:3 44:9 45:16 50:4 51:16 52:15 53:16 59:10 60:16 61:10 #
-0.23875805202211186628602490600315 2:2 3:12 4:15 5:16 6:10 7:1 10:3 11:16 12:5 13:10 14:16 15:3 20:5 21:15 22:7 28:14 29:8 36:15 37:4 44:4 45:14 46:2 50:1 51:2 52:2 53:15 54:6 58:2 59:12 60:15 61:12 62:1 #
0.50000003576649798553432901826454 2:2 4:13 5:12 6:3 9:5 10:14 11:1 12:13 13:16 14:5 18:8 19:16 20:14 21:16 22:4 27:8 28:16 29:16 30:2 36:16 37:16 38:9 43:3 44:16 45:16 46:16 47:4 51:11 52:16 53:16 54:16 55:6 59:1 60:15 61:16 62:10 #
0.50000003576649798553432901826454 2:3 3:6 4:15 5:13 6:1 10:10 11:16 12:5 13:11 14:10 18:1 19:11 20:10 21:11 22:11 28:10 29:16 30:3 35:1 36:13 37:13 38:3 43:7 44:15 45:6 46:11 51:10 52:12 53:7 54:14 59:4 60:16 61:15 62:3 #
0.50000003576649798553432901826454 3:5 4:14 5:11 6:2 10:3 11:16 12:10 13:15 14:13 18:8 19:13 21:14 22:16 23:1 26:3 27:16 28:13 29:16 30:15 31:3 35:3 36:16 37:16 38:3 43:1 44:16 45:16 46:14 51:6 52:16 53:13 54:16 55:4 59:5 60:15 61:12 62:12 63:1 #
-0.095773949320764176218467866874562 3:6 4:16 5:9 6:1 10:3 11:15 12:8 13:13 14:3 18:8 19:8 21:11 22:4 26:1 28:7 29:16 30:6 35:2 36:16 37:14 38:16 39:5 44:5 46:11 47:8 51:4 52:6 53:9 54:15 55:2 59:4 60:15 61:11 62:3 #
-0.17852739413346266350579583104263 3:12 4:13 5:9 6:6 7:2 10:4 11:16 12:16 13:16 14:16 15:7 18:7 19:13 20:3 21:5 22:3 26:7 27:14 28:5 34:4 35:16 36:16 37:5 42:1 43:9 44:16 45:12 51:5 52:12 53:12 59:8 60:15 61:5 #
-0.14773343536819674715054873104236 2:3 3:15 4:14 5:5 6:1 10:12 11:16 12:16 13:16 14:16 15:5 18:9 19:16 20:15 21:7 22:8 23:3 26:1 27:13 28:13 35:6 36:16 37:5 43:1 44:15 45:11 51:7 52:16 53:10 58:2 59:16 60:13 61:1 #
0.50000003576649798553432901826454 3:8 4:16 5:2 6:3 11:15 12:11 13:5 14:16 15:1 19:16 20:4 21:9 22:16 23:1 27:8 28:13 29:15 30:12 35:8 36:16 37:13 43:13 44:16 45:7 50:1 51:16 52:16 53:7 59:8 60:13 61:1 #
0.50000003576649798553432901826454 2:2 3:16 4:15 5:4 10:4 11:16 12:14 13:9 14:3 15:5 18:4 19:15 20:7 21:16 22:16 23:8 26:1 27:15 28:16 29:15 30:6 35:10 36:16 37:4 42:1 43:14 44:16 45:2 50:7 51:10 52:16 58:2 59:14 60:11 #
0.50000003576649798553432901826454 2:3 3:15 4:15 5:8 6:9 10:7 11:14 12:11 13:16 14:16 15:6 18:2 19:16 20:2 21:7 22:15 23:3 27:8 28:14 29:16 30:5 35:7 36:16 37:6 42:1 43:15 44:14 45:8 50:6 51:14 52:14 53:7 58:3 59:16 60:15 61:2 #
-0.11509033540939651862888837285936 2:1 3:15 4:10 10:7 11:16 12:5 13:1 14:13 15:6 18:9 19:16 20:3 21:9 22:16 23:4 26:3 27:15 28:16 29:16 30:11 35:2 36:14 37:15 38:3 43:3 44:16 45:8 51:12 52:15 58:1 59:16 60:5 #
-0.22700163890247770925867598634795 3:12 4:16 5:6 10:3 11:15 12:12 13:12 18:6 19:12 20:8 21:12 26:3 27:14 28:11 29:10 35:5 36:16 37:3 43:13 44:12 50:8 51:16 52:12 53:7 54:5 55:2 59:12 60:13 61:10 62:10 63:4 #
-0.11226042081183251752918295096606 3:13 4:3 10:4 11:16 12:4 14:6 15:12 18:9 19:15 21:6 22:16 23:7 26:6 27:16 28:11 29:16 30:9 35:9 36:16 37:14 38:3 43:6 44:15 45:3 51:13 52:9 59:15 60:7 #
0.50000003576649798553432901826454 2:1 3:6 4:11 5:16 6:6 11:5 12:13 13:11 14:16 15:6 19:4 20:16 21:8 27:5 28:15 34:1 35:13 36:10 37:4 42:6 43:10 44:4 45:8 50:8 51:7 52:12 53:7 58:2 59:13 60:14 #
0.50000003576649798553432901826454 3:11 4:15 5:10 10:2 11:13 13:9 14:3 18:3 19:12 21:10 27:11 28:12 29:12 36:11 37:14 38:6 42:1 43:9 44:5 46:10 47:5 50:4 51:10 54:8 55:4 58:1 59:14 60:11 61:14 62:10 #
0.50000003576649798553432901826454 3:1 4:9 5:16 6:15 7:4 11:4 12:16 13:10 14:14 15:10 19:3 20:16 21:7 22:14 23:11 27:9 28:16 29:16 30:13 34:5 35:16 36:16 37:16 38:2 42:6 43:14 44:9 45:16 46:2 51:12 52:16 53:16 54:4 60:12 61:11 62:3 #
-0.061618816774464138519284972517198 4:11 5:13 11:5 12:15 13:13 18:3 19:16 20:16 21:10 27:7 28:16 29:10 36:15 37:10 44:15 45:8 52:16 53:6 60:12 61:11 #
-0.17252789617744981875979704000201 3:1 4:14 5:13 6:1 11:12 12:16 13:16 14:12 18:1 19:11 20:14 21:11 22:16 23:5 26:3 27:8 28:16 29:2 30:8 31:10 35:5 36:14 38:8 39:7 43:7 44:12 46:15 47:3 51:7 52:14 53:11 54:11 59:2 60:16 61:13 62:2 #
-0.052559581361807987398560015890325 3:11 4:16 5:13 6:12 7:3 10:3 11:16 12:11 13:8 14:8 15:1 18:5 19:16 20:9 21:9 22:1 26:8 27:16 28:16 29:16 30:6 34:6 35:11 36:3 37:9 38:11 45:4 46:12 51:10 52:14 53:11 54:16 59:9 60:12 61:12 62:6 #
0.50000003576649798553432901826454 2:2 3:8 4:16 5:11 6:1 10:10 11:15 12:5 13:11 14:5 18:11 19:10 20:13 21:16 22:6 26:9 27:16 28:16 29:12 30:13 31:2 34:1 35:15 36:8 38:6 39:9 43:12 44:5 46:5 47:11 51:9 52:9 53:7 54:16 55:8 59:4 60:14 61:15 62:6 #
0.50000003576649798553432901826454 3:11 4:16 5:8 10:5 11:16 12:12 13:15 18:10 19:12 20:9 21:11 26:7 27:15 28:15 29:6 35:14 36:16 37:11 38:1 42:1 43:14 44:11 45:12 46:15 47:3 50:7 51:16 52:2 54:11 55:12 58:1 59:10 60:15 61:16 62:16 63:6 #
0.50000003576649798553432901826454 3:2 4:12 5:13 6:4 10:5 11:16 12:6 13:1 14:14 18:13 19:11 20:5 21:12 22:15 26:9 27:16 28:16 29:16 30:12 34:1 35:12 36:14 37:3 38:7 39:7 43:8 44:7 47:13 51:8 52:9 53:1 54:12 55:13 60:14 61:14 62:12 63:3 #
-0.10659952752149719212848566485263 3:3 4:9 5:8 11:15 12:9 13:1 18:4 19:16 20:8 21:2 26:5 27:16 28:12 29:12 30:11 31:1 34:4 35:12 38:5 39:10 42:1 43:14 44:3 46:1 47:14 48:1 51:10 52:6 53:5 54:14 55:13 59:4 60:13 61:14 62:8 #
-0.076780778329657670133734370665479 3:7 4:13 5:11 6:3 10:2 11:15 12:8 13:8 14:2 18:6 19:11 20:3 21:3 26:7 27:16 28:16 29:16 30:13 31:2 34:1 35:8 36:5 37:3 38:11 39:10 46:2 47:14 51:2 52:5 53:4 54:10 55:15 59:8 60:16 61:16 62:14 63:4 #
-0.022654326517118097278347121914521 3:4 4:13 5:13 11:12 12:14 13:12 14:7 19:12 20:12 21:5 22:14 27:12 28:10 30:12 31:3 34:4 35:16 36:5 38:8 39:8 42:4 43:16 44:2 46:9 47:8 50:3 51:14 52:9 53:4 54:15 55:5 59:4 60:13 61:14 62:10 #
0.50000003576649798553432901826454 3:5 4:15 5:15 6:11 11:16 12:5 14:11 15:5 19:15 20:3 22:12 23:10 27:5 28:13 30:12 31:6 36:10 37:16 38:9 44:10 45:16 46:4 51:6 52:12 53:8 54:9 59:6 60:16 61:12 62:4 #
0.50000003576649798553432901826454 3:8 4:16 5:16 6:11 10:5 11:15 12:7 13:2 14:16 15:3 18:12 19:10 21:4 22:16 23:1 26:11 27:14 28:2 29:12 30:12 35:11 36:14 37:16 38:2 43:1 44:16 45:13 46:1 51:7 52:13 53:16 54:8 59:13 60:9 61:12 62:12 #
0.50000003576649798553432901826454 3:1 4:12 5:15 6:6 11:5 12:13 13:1 14:12 19:2 20:11 21:1 22:15 28:10 29:11 30:9 36:6 37:16 38:6 43:10 44:15 45:4 46:13 47:3 51:12 52:2 54:1 55:14 59:1 60:10 61:10 62:8 63:15 64:1 #
-0.10883918697669153763385452293733 3:6 4:15 5:16 6:12 7:1 10:3 11:16 12:9 13:8 14:15 15:7 18:3 19:3 22:15 23:6 29:6 30:15 31:2 36:1 37:15 38:6 43:1 44:12 45:10 51:8 52:16 53:13 54:13 55:6 59:6 60:14 61:12 62:4 #
-0.098214763303252350379324298046413 3:3 4:14 5:16 6:13 7:6 11:13 12:7 13:1 14:13 15:16 16:1 19:12 20:5 22:10 23:12 27:8 28:14 29:12 30:14 31:2 36:4 37:14 38:6 44:5 45:13 52:13 53:6 59:2 60:11 #
-0.023300255543552902959270056726382 3:1 4:9 5:16 6:13 7:1 11:13 12:9 13:5 14:14 15:8 18:3 19:14 22:13 23:12 26:2 27:15 28:12 29:16 30:16 31:3 35:3 36:8 37:11 38:12 44:3 45:14 46:2 52:12 53:9 59:1 60:15 61:3 #
0.50000003576649798553432901826454 3:4 4:11 5:14 6:7 11:15 12:12 13:16 14:3 19:8 20:16 21:10 27:9 28:16 29:7 34:3 35:15 36:4 37:14 38:4 42:2 43:13 45:3 46:15 47:6 51:8 52:9 53:4 54:8 55:14 60:7 61:12 62:12 63:8 #
0.50000003576649798553432901826454 3:8 4:13 5:6 10:2 11:16 12:12 13:11 14:10 19:16 20:16 21:14 22:8 23:1 27:13 28:11 34:2 35:15 36:4 43:16 44:13 50:2 51:15 52:16 53:2 59:11 60:16 61:4 #
0.50000003576649798553432901826454 3:5 4:11 5:12 11:16 12:16 13:16 14:13 15:7 19:12 20:16 21:16 22:15 23:4 27:4 28:15 29:14 30:8 35:12 36:4 37:1 38:4 42:1 43:14 45:3 46:7 50:1 51:16 52:12 53:16 54:4 59:3 60:9 61:5 #
-0.15289707341838232323993906902615 3:3 4:16 5:14 6:3 11:6 12:16 13:16 14:5 19:12 20:16 21:9 27:16 28:16 29:5 34:2 35:16 36:16 37:1 42:1 43:16 44:16 45:1 51:13 52:16 53:1 59:4 60:15 #
-0.10866070654305719223042814292057 3:3 4:14 5:13 6:2 10:1 11:15 12:16 13:16 14:3 18:2 19:14 20:15 21:5 27:5 28:15 29:6 36:5 37:16 38:7 45:4 46:15 47:7 51:3 52:8 53:12 54:16 55:13 59:3 60:12 61:15 62:14 63:4 #
-0.040719972105967304487617042241254 3:2 4:15 5:12 6:1 11:6 12:16 13:15 14:1 19:14 20:16 21:8 26:2 27:16 28:16 29:2 34:3 35:16 36:15 42:2 43:16 44:13 51:9 52:16 53:2 59:2 60:13 61:12 #
0.50000003576649798553432901826454 4:12 5:15 6:5 11:3 12:13 13:9 14:16 18:12 19:14 20:10 21:1 22:14 23:4 26:3 27:12 28:13 29:11 30:13 35:2 36:10 37:16 38:9 44:5 45:16 46:8 52:13 53:16 54:9 60:12 61:12 62:2 #
0.50000003576649798553432901826454 3:9 4:15 5:8 10:6 11:14 12:2 13:7 14:10 18:9 19:10 21:2 22:16 23:3 26:5 27:16 28:16 29:16 30:14 31:2 34:6 35:16 36:16 37:16 38:14 39:1 42:5 43:16 46:9 47:11 50:1 51:16 52:9 53:7 54:14 55:6 59:9 60:12 61:13 62:8 #
0.50000003576649798553432901826454 3:3 4:12 5:15 6:9 7:1 10:2 11:16 12:13 13:9 14:14 15:10 18:6 19:16 20:8 22:11 23:10 26:4 27:16 28:16 29:14 30:16 31:4 35:4 36:12 37:16 38:15 43:1 44:11 45:16 46:16 47:2 51:7 52:16 53:16 54:14 59:3 60:15 61:13 62:2 #
-0.17024711536309838910696612401807 3:3 4:13 5:15 6:6 10:2 11:11 12:15 13:7 14:16 15:3 18:16 19:16 20:9 21:8 22:16 23:6 26:9 27:16 28:16 29:16 30:16 31:5 35:4 36:8 37:16 38:11 44:9 45:16 46:1 52:14 53:11 59:1 60:16 61:7 #
-0.14860342034176152181679242403334 4:8 5:12 6:11 7:3 11:6 12:15 13:6 14:8 15:12 18:2 19:15 20:10 22:3 23:11 26:4 27:16 28:14 29:12 30:14 31:4 35:8 36:16 37:16 38:14 45:5 46:16 47:2 52:4 53:11 54:15 60:13 61:12 62:6 #
-0.093578973325701877983284759920934 3:2 4:13 5:15 6:7 10:3 11:15 12:9 13:10 14:15 15:3 18:8 19:12 21:1 22:15 23:6 26:6 27:15 28:9 29:12 30:16 31:7 34:1 35:8 36:8 37:10 38:16 45:12 46:12 52:8 53:16 54:5 60:14 61:13 #
0.50000003576649798553432901826454 3:9 4:16 5:14 6:12 7:3 10:3 11:13 12:4 13:11 14:8 15:11 18:1 19:15 20:5 22:12 23:4 27:3 28:14 29:13 30:7 36:10 37:13 43:5 44:12 45:15 51:12 52:2 53:12 59:10 60:16 61:6 #
0.50000003576649798553432901826454 3:11 4:12 5:7 10:6 11:14 12:8 13:15 14:16 15:3 18:3 19:15 20:9 21:4 22:16 23:3 27:3 28:14 29:16 30:12 35:3 36:12 37:15 38:15 39:2 43:15 44:10 46:13 47:8 50:1 51:16 52:5 53:5 54:12 55:11 59:14 60:16 61:16 62:9 63:2 #
0.50000003576649798553432901826454 2:1 3:8 4:14 5:13 6:2 10:4 11:16 12:6 13:12 14:8 18:3 19:16 20:4 21:3 22:4 27:9 28:15 29:4 30:11 31:6 35:5 36:16 37:16 38:13 39:6 42:4 43:15 44:12 45:16 46:7 50:7 51:14 52:2 53:12 54:11 58:1 59:10 60:16 61:14 62:5 #
-0.19766396599512145448862554530933 3:5 4:14 5:12 6:8 7:2 11:1 12:10 13:16 14:16 15:12 19:5 20:14 21:16 22:16 23:2 27:10 28:16 29:16 30:12 34:6 35:16 36:16 37:14 38:4 42:9 43:16 44:16 45:11 50:10 51:16 52:16 53:6 58:1 59:10 60:14 61:12 62:4 #
-0.011117473516699463709223039131757 4:8 5:15 6:1 11:2 12:16 13:7 19:7 20:15 21:1 27:10 28:11 35:14 36:16 37:16 38:13 39:2 43:15 44:16 45:5 46:6 47:14 48:1 51:9 52:12 53:2 54:4 55:14 56:5 60:8 61:15 62:16 63:13 64:4 #
-0.17940275510215672460923030939739 3:4 4:11 5:16 6:12 7:5 11:6 12:7 13:3 14:11 15:9 22:12 23:4 28:3 29:10 30:10 35:4 36:16 37:15 38:2 43:1 44:7 45:12 46:15 47:1 51:8 52:7 53:5 54:15 59:7 60:12 61:15 62:6 #
0.50000003576649798553432901826454 3:2 4:10 5:7 10:3 11:16 12:11 13:8 14:6 18:4 19:13 22:8 26:4 27:16 28:9 29:11 30:11 35:10 36:16 37:16 38:15 39:2 43:4 44:16 45:4 46:3 47:8 51:8 52:9 54:2 55:9 59:3 60:11 61:8 62:8 63:4 #
0.50000003576649798553432901826454 4:13 5:7 10:5 11:14 12:16 13:16 14:8 18:12 19:10 21:6 22:16 26:2 27:14 28:12 29:5 30:16 31:3 36:11 37:16 38:11 43:2 44:15 45:9 46:16 47:5 51:10 52:14 53:4 54:13 55:12 59:1 60:9 61:14 62:16 63:11 #
0.50000003576649798553432901826454 3:7 4:14 5:3 10:3 11:16 12:16 13:12 18:10 19:15 20:10 21:16 22:16 23:2 26:8 27:16 28:16 29:16 30:10 31:2 34:4 35:16 36:15 37:2 42:4 43:16 44:16 45:4 50:3 51:16 52:16 53:15 59:9 60:16 61:15 #
-0.16275368300923520603618044333416 3:5 4:10 5:12 6:7 10:1 11:14 12:16 13:16 14:16 18:11 19:16 20:4 21:7 22:15 26:5 27:12 29:11 30:14 36:5 37:16 38:9 43:2 44:14 45:13 46:5 47:1 51:10 52:16 53:16 54:16 55:15 59:7 60:12 61:12 62:9 63:12 64:1 #
-0.1069513255937670354045465614945 3:8 4:16 5:6 10:3 11:15 12:13 13:1 18:8 19:16 20:4 22:2 23:1 26:9 27:16 28:8 29:10 30:16 31:11 34:1 35:13 36:16 37:16 38:15 39:5 43:4 44:16 45:16 46:3 51:8 52:16 53:10 59:7 60:16 61:10 #
-0.0083457385357850917551036928898611 3:2 4:13 5:1 11:11 12:10 13:1 18:2 19:15 20:1 26:6 27:11 28:1 29:4 30:1 34:7 35:10 36:9 37:16 38:14 39:1 42:4 43:12 44:7 45:6 46:7 47:10 50:1 51:13 52:6 53:2 54:10 55:14 59:3 60:12 61:13 62:13 63:3 #
0.50000003576649798553432901826454 3:6 4:15 5:14 6:4 11:16 12:6 13:4 14:15 18:5 19:16 20:6 21:13 22:11 26:1 27:16 28:16 29:16 30:13 31:1 34:6 35:15 36:7 38:11 39:8 42:4 43:12 46:9 47:11 51:16 52:4 53:9 54:15 55:2 59:8 60:14 61:9 62:2 #
0.50000003576649798553432901826454 3:9 4:14 5:12 6:8 10:8 11:13 13:2 14:16 15:2 18:11 19:14 20:14 21:14 22:6 26:1 27:14 28:16 29:13 30:1 34:3 35:15 36:4 37:6 38:12 42:1 43:15 46:8 47:9 50:3 51:16 52:1 53:3 54:13 55:6 59:8 60:16 61:13 62:6 #
0.50000003576649798553432901826454 3:5 4:13 5:6 6:1 11:8 12:16 13:16 14:15 15:2 19:3 20:13 21:1 22:13 23:8 27:2 28:14 29:15 30:14 31:2 34:2 35:14 36:15 37:15 38:3 42:7 43:11 45:6 46:10 50:5 51:11 52:1 53:1 54:16 59:8 60:13 61:16 62:13 63:1 #
-0.02059427302500906747928510753809 3:6 4:16 5:15 6:10 7:1 10:1 11:14 12:8 13:8 14:11 15:2 18:5 19:12 20:11 21:12 22:6 26:7 27:16 28:14 29:12 30:15 31:3 34:1 35:2 38:10 39:8 43:1 46:9 47:6 51:14 52:4 53:5 54:14 55:1 59:8 60:16 61:13 62:3 #
-0.11328854020997249085755953501575 4:8 5:13 6:6 11:5 12:14 13:6 14:14 15:2 19:8 20:8 21:1 22:14 23:4 27:2 28:13 29:11 30:16 31:5 36:3 37:7 38:9 39:4 42:1 43:2 46:8 47:8 50:1 51:13 52:3 54:14 55:5 60:11 61:16 62:13 63:1 #
-0.17660299901780729392442026437493 2:4 3:8 4:8 5:12 6:16 7:5 10:8 11:16 12:16 13:16 14:15 15:3 18:2 19:3 20:7 21:16 22:7 28:12 29:14 30:1 35:9 36:16 37:7 43:14 44:16 50:6 51:16 52:12 58:6 59:14 60:7 #
0.50000003576649798553432901826454 2:2 3:7 4:16 5:15 6:8 10:5 11:16 12:11 13:15 14:12 19:11 20:15 21:13 27:3 28:16 29:1 35:9 36:16 37:1 43:13 44:10 45:5 51:14 52:9 53:8 59:6 60:16 61:5 #
0.50000003576649798553432901826454 4:6 5:15 6:6 12:12 13:10 14:13 20:11 21:15 22:14 27:9 28:11 29:14 34:4 35:11 37:10 38:6 42:3 43:9 45:1 46:14 47:1 51:11 52:8 53:2 54:9 55:7 60:6 61:12 62:13 63:7 #
0.50000003576649798553432901826454 3:3 4:11 5:15 6:8 11:9 12:14 13:8 14:9 19:6 20:14 21:5 28:12 29:16 30:7 35:4 36:14 37:11 38:11 43:12 44:8 46:16 47:1 51:14 52:11 53:11 54:15 55:1 59:3 60:13 61:13 62:6 #
-0.16264761837849547876366784748825 3:7 4:11 11:14 12:13 18:3 19:16 20:10 21:3 26:3 27:16 28:16 29:16 30:11 34:6 35:16 36:16 37:16 38:16 39:1 42:4 43:16 44:6 45:1 46:16 47:9 50:2 51:15 52:14 53:14 54:16 55:3 59:5 60:16 61:14 62:6 #
-0.053641079418881118523465545422368 4:2 5:9 12:5 13:10 20:12 21:4 22:8 27:4 28:12 29:6 30:13 35:10 36:8 37:8 38:10 42:7 43:16 44:13 45:16 46:15 47:2 50:6 51:10 52:11 53:16 54:8 60:4 61:13 #
-0.22940855128624212944110638545681 2:2 3:14 4:16 5:13 6:7 10:3 11:12 12:8 13:13 14:16 20:5 21:14 22:11 26:2 27:12 28:16 29:10 30:1 34:3 35:16 36:15 37:9 38:1 43:3 44:11 45:15 46:15 47:1 50:3 51:6 52:4 53:5 54:16 55:8 58:3 59:13 60:16 61:14 62:12 63:2 #
0.50000003576649798553432901826454 3:9 4:14 5:16 6:16 7:5 11:6 12:16 13:7 14:11 15:10 20:15 21:7 22:9 23:9 28:12 29:15 30:15 31:3 35:7 36:16 37:16 38:6 42:3 43:14 44:2 45:16 46:2 50:5 51:15 52:5 53:16 54:4 58:1 59:11 60:16 61:12 #
0.50000003576649798553432901826454 3:2 4:10 5:14 6:3 10:3 11:16 12:16 13:16 14:15 15:1 18:12 19:12 20:5 21:16 22:4 26:2 27:15 28:16 29:12 35:5 36:16 37:13 43:4 44:14 45:14 46:9 51:7 52:15 53:15 54:12 60:12 61:16 62:6 #
0.50000003576649798553432901826454 3:4 4:13 5:13 6:8 11:16 12:1 13:1 14:11 15:2 18:4 19:13 22:6 23:7 26:3 27:14 29:9 30:14 31:2 35:9 36:15 37:14 38:1 43:5 44:16 45:9 51:8 52:12 53:15 54:2 59:4 60:15 61:13 62:2 #
-0.10201232161890765037792760949742 3:6 4:13 5:16 6:16 7:7 10:9 11:16 12:15 13:10 14:8 15:1 18:13 19:15 20:3 26:4 27:16 28:13 29:1 35:7 36:16 37:12 44:9 45:16 46:7 51:4 52:16 53:16 54:12 59:5 60:16 61:15 62:5 #
-0.18538065331817879521913994267379 4:9 5:16 6:5 10:1 11:12 12:15 13:15 14:8 18:7 19:13 20:5 21:15 22:4 27:1 28:6 29:16 36:8 37:16 44:9 45:13 52:12 53:8 54:4 55:3 60:11 61:16 62:15 63:5 #
-0.38848285296563345170284264895599 3:3 4:12 5:16 6:15 7:4 11:14 12:16 13:14 14:16 15:6 18:1 19:11 20:3 21:13 22:13 23:1 27:1 28:14 29:12 30:1 35:3 36:16 37:14 38:3 43:1 44:6 45:16 46:14 47:1 51:14 52:13 53:14 54:15 59:4 60:16 61:15 62:5 #
0.50000003576649798553432901826454 3:6 4:12 5:14 6:6 10:12 11:14 12:6 13:4 14:15 18:11 19:1 21:5 22:12 26:6 27:11 28:5 29:15 30:3 35:7 36:15 37:12 38:2 43:5 44:13 45:8 46:13 47:1 51:11 52:5 53:6 54:14 55:7 59:5 60:16 61:12 62:7 63:1 #
0.50000003576649798553432901826454 3:11 4:13 5:1 6:1 10:3 11:16 12:10 13:16 14:16 15:2 18:8 19:14 20:14 21:12 22:2 26:1 27:15 28:16 29:11 35:9 36:15 37:16 38:9 43:12 44:7 45:1 46:14 47:7 51:12 52:11 53:9 54:15 55:3 59:4 60:12 61:10 62:1 #
0.50000003576649798553432901826454 3:3 4:15 5:15 6:1 11:9 12:16 13:12 14:2 18:4 19:16 20:9 21:6 22:9 23:2 26:8 27:16 28:16 29:16 30:10 31:3 34:2 35:16 36:16 37:14 38:1 42:4 43:16 44:16 45:16 46:4 50:1 51:14 52:16 53:16 54:12 59:3 60:14 61:12 62:5 #
-0.16082174314447550411699694450363 3:12 4:8 5:2 11:16 12:6 13:14 14:6 18:2 19:16 20:10 21:16 26:10 27:13 28:14 29:10 30:4 31:1 34:8 35:16 36:16 37:16 38:16 39:10 43:13 44:15 45:4 46:4 47:1 51:12 52:12 58:1 59:14 60:5 #
-0.13649711338757714029767953434202 2:1 3:10 4:12 5:14 6:9 10:11 11:11 12:5 13:5 14:16 15:4 18:4 19:3 21:2 22:16 23:2 29:12 30:9 35:1 36:13 37:10 43:9 44:13 50:2 51:16 52:4 58:1 59:13 60:15 61:12 62:2 #
-0.08955525333423000611254849445686 3:7 4:7 5:4 6:4 11:16 12:16 13:16 14:16 15:4 18:1 19:16 20:16 21:8 22:12 23:8 26:6 27:15 28:7 30:12 31:5 34:6 35:12 38:13 39:4 42:5 43:12 45:8 46:14 47:1 50:4 51:16 52:11 53:15 54:7 59:8 60:15 61:7 #
0.50000003576649798553432901826454 3:4 4:14 5:13 6:4 11:13 12:14 13:6 14:15 19:4 20:15 21:8 22:16 28:3 29:14 30:14 36:9 37:16 38:12 43:8 44:15 45:4 46:15 47:3 51:15 52:8 53:4 54:14 55:7 59:4 60:13 61:13 62:12 63:2 #
0.50000003576649798553432901826454 3:3 4:14 5:16 6:9 11:8 12:14 13:11 14:16 15:1 18:10 19:11 20:15 21:15 22:11 26:4 27:13 28:16 29:12 30:1 34:2 35:16 36:14 37:14 42:4 43:14 45:13 46:8 50:2 51:13 52:4 53:13 54:16 59:3 60:14 61:12 62:7 #
0.50000003576649798553432901826454 3:4 4:6 5:14 6:6 10:8 11:16 12:15 13:13 14:10 18:3 19:12 20:3 21:2 22:13 27:11 28:11 29:13 30:11 35:6 36:16 37:16 38:3 43:16 44:9 45:6 46:13 47:2 51:9 52:8 54:3 55:14 60:6 61:15 62:16 63:16 64:4 #
-0.17300653571327304081073350516817 3:8 4:16 5:16 6:12 10:4 11:16 12:16 13:16 14:15 15:2 18:2 19:11 20:16 21:16 22:11 28:15 29:16 30:7 37:11 38:16 39:2 43:7 46:15 47:5 50:2 51:16 52:7 53:7 54:15 55:7 59:8 60:14 61:12 62:5 #
-0.04398272091072023132207746698441 4:6 5:16 6:6 12:12 13:16 14:13 19:9 20:16 21:16 22:16 26:8 27:16 28:16 29:16 30:13 35:4 36:3 37:16 38:14 44:3 45:16 46:13 52:4 53:16 54:16 55:2 60:4 61:16 62:11 63:2 #
-0.064391931162772017560591564233619 4:7 5:13 6:3 11:1 12:15 13:16 14:15 18:9 19:16 20:16 21:16 22:16 23:2 26:4 27:8 28:12 29:16 30:10 36:11 37:16 38:13 44:7 45:16 46:15 52:6 53:16 54:16 55:2 60:6 61:16 62:16 63:7 #
0.50000003576649798553432901826454 3:6 4:14 5:16 6:13 10:6 11:14 12:3 14:13 15:4 18:5 19:12 21:4 22:16 23:3 27:14 28:14 29:15 30:5 34:1 35:14 36:12 37:1 42:5 43:16 44:13 45:2 50:2 51:16 52:16 53:13 59:2 60:12 61:12 #
0.50000003576649798553432901826454 3:7 4:13 5:6 10:3 11:16 12:8 13:13 18:2 19:14 20:8 27:6 28:16 29:16 30:14 31:6 34:1 35:14 36:14 37:13 39:1 42:4 43:16 44:2 45:13 46:6 50:1 51:15 52:4 53:4 54:13 59:5 60:14 61:16 62:10 #
0.50000003576649798553432901826454 3:6 4:16 5:6 10:4 11:16 12:13 13:16 14:2 18:8 19:15 20:1 21:15 22:5 26:5 27:16 28:16 29:16 30:16 31:6 35:14 36:16 37:14 38:13 39:8 43:9 44:16 45:3 46:14 47:8 51:12 52:14 53:11 54:15 55:2 59:4 60:10 61:14 62:7 #
-0.21141210578341332326779422601248 3:1 4:11 5:3 11:13 12:15 13:13 18:3 19:16 20:2 21:8 22:5 26:6 27:16 28:14 29:15 30:14 31:2 34:2 35:14 36:16 37:16 38:16 39:5 43:1 44:4 45:3 46:9 47:6 51:4 52:6 53:10 54:16 55:5 59:1 60:11 61:10 62:4 #
-0.14315883102260007486705717383302 3:11 4:16 5:16 6:8 11:11 12:12 13:8 14:13 19:7 20:10 27:3 28:13 36:14 37:2 44:13 45:6 51:6 52:12 53:10 59:11 60:16 61:9 #
-0.0017667375465457322777917958944727 3:8 4:16 5:16 6:12 10:3 11:16 12:9 13:11 14:16 15:3 18:4 19:7 21:8 22:14 23:1 27:5 28:8 29:14 30:12 31:1 34:5 35:16 36:16 37:16 38:16 39:10 42:6 43:5 44:9 45:11 51:4 52:16 53:3 59:11 60:8 #
0.50000003576649798553432901826454 3:1 4:8 5:14 6:13 7:2 10:2 11:13 12:12 13:8 14:15 15:2 18:6 19:15 20:2 21:11 22:6 27:5 28:14 29:15 30:1 36:12 37:13 44:15 45:15 46:5 52:16 53:9 54:15 60:9 61:16 62:10 #
0.50000003576649798553432901826454 2:2 3:11 4:3 6:2 10:2 11:13 12:12 13:5 14:15 15:6 19:11 20:14 21:14 22:1 27:7 28:15 29:1 35:15 36:12 37:5 42:4 43:10 44:4 45:8 50:7 51:9 52:7 53:8 58:2 59:14 60:15 61:5 #
0.50000003576649798553432901826454 3:3 4:13 5:16 6:13 7:1 11:12 12:13 13:8 14:16 15:3 18:2 19:15 20:16 21:16 22:8 26:6 27:8 28:11 29:15 30:10 35:4 36:14 37:4 38:16 43:8 44:9 45:1 46:13 47:7 51:7 52:9 54:14 55:6 59:3 60:14 61:14 62:14 63:1 #
-0.17758424912686648911019915431098 4:12 5:13 11:4 12:16 13:16 14:9 19:2 20:16 21:6 22:14 26:4 27:3 28:13 29:7 30:9 31:5 34:8 35:12 36:3 37:16 38:12 39:8 43:14 44:5 45:1 46:12 47:8 51:10 52:14 53:13 54:16 55:2 60:13 61:16 62:6 #
-0.15776402446563281278812951313739 5:11 6:8 12:2 13:16 14:8 20:6 21:16 22:2 28:7 29:15 36:10 37:14 43:13 44:16 45:16 46:11 51:7 52:7 53:16 54:16 55:10 61:8 62:16 63:15 #
-0.10241134220890328598851937158543 2:5 3:15 4:13 10:3 11:10 12:16 13:5 20:14 21:4 27:6 28:14 34:1 35:14 36:7 42:7 43:13 44:1 50:13 51:14 52:10 53:11 54:9 55:5 58:5 59:15 60:16 61:14 62:10 63:3 #
0.50000003576649798553432901826454 2:1 3:7 4:15 5:10 10:6 11:14 12:7 13:16 14:2 18:6 19:14 20:12 21:16 22:13 26:1 27:12 28:16 29:11 36:13 37:16 38:3 43:4 44:12 45:3 46:14 47:2 51:8 52:9 54:11 55:8 59:6 60:16 61:16 62:11 63:2 #
0.50000003576649798553432901826454 3:3 4:12 5:14 6:2 11:12 12:11 13:13 14:11 18:7 19:16 20:1 21:4 22:16 23:2 26:6 27:16 28:7 29:14 30:16 31:1 35:13 36:16 37:15 38:3 43:11 44:16 45:16 46:10 51:14 52:16 53:10 54:16 55:8 59:2 60:11 61:16 62:16 63:12 #
0.50000003576649798553432901826454 2:1 3:8 4:10 5:3 10:4 11:16 12:16 13:16 14:11 15:1 18:3 19:16 20:9 21:8 22:11 23:4 27:10 28:7 29:3 30:10 31:2 35:3 36:16 37:13 38:5 43:13 44:15 45:8 50:4 51:15 52:5 53:13 58:1 59:7 60:12 61:11 #
-0.081107968311884173773229633752635 3:3 4:11 5:7 10:4 11:16 12:16 13:16 18:4 19:16 20:16 21:16 26:4 27:16 28:16 29:10 34:1 35:14 36:16 37:16 43:12 44:16 45:16 46:6 51:11 52:16 53:16 54:11 59:2 60:11 61:12 62:6 #
-0.1398618308911224461521527473451 2:3 3:12 4:12 5:3 10:8 11:10 12:11 13:9 19:2 20:14 21:4 27:12 28:13 29:1 35:3 36:13 37:15 38:3 45:7 46:14 47:1 50:2 51:4 52:4 53:3 54:11 55:7 58:5 59:12 60:12 61:14 62:16 63:8 #
-0.10388360451049702404269226008182 3:5 4:13 5:12 6:1 10:2 11:15 12:5 13:6 14:7 18:6 19:9 22:16 23:4 26:6 27:10 30:14 31:6 35:9 36:13 37:14 38:12 39:9 47:12 51:3 54:3 55:14 59:5 60:12 61:13 62:14 63:5 #
0.50000003576649798553432901826454 3:3 4:12 5:15 6:2 10:2 11:15 12:6 18:4 19:14 20:2 21:9 22:14 23:8 26:1 27:13 28:16 29:14 30:4 35:8 36:16 37:6 43:11 44:11 45:15 51:11 52:5 53:12 54:2 59:3 60:12 61:15 62:3 #
0.50000003576649798553432901826454 3:4 4:15 5:7 10:3 11:16 12:11 13:2 18:11 19:11 21:8 22:11 23:1 26:7 27:14 28:11 29:15 30:2 34:1 35:13 36:16 37:4 43:8 44:16 45:8 51:8 52:16 53:16 54:2 59:2 60:12 61:15 62:5 #
0.50000003576649798553432901826454 2:2 3:15 4:16 5:16 6:15 7:1 10:2 11:13 12:13 13:11 14:16 15:1 19:2 20:16 21:15 22:7 28:14 29:14 35:9 36:14 37:16 42:1 43:14 44:8 45:12 46:5 50:3 51:16 52:6 53:15 54:3 58:2 59:16 60:16 61:10 #
-0.11772886618595405916476437369056 3:3 4:16 11:10 12:10 13:3 14:5 19:16 20:5 21:12 22:10 26:4 27:15 28:2 29:15 30:4 34:10 35:13 36:9 37:15 38:10 39:11 42:3 43:14 44:16 45:14 46:8 47:2 52:15 53:6 59:3 60:15 #
-0.15327231228260090878379173773283 5:1 6:14 7:4 13:2 14:16 15:8 21:8 22:16 23:6 29:15 30:16 31:5 36:8 37:16 38:16 39:3 43:6 44:16 45:9 46:16 50:2 51:16 52:8 53:4 54:16 58:2 59:4 61:2 62:15 63:3 #
-0.15255231322690845918721436191845 3:2 4:6 5:12 6:16 7:16 8:2 10:2 11:15 12:16 13:9 14:5 15:16 16:5 19:5 20:1 22:2 23:16 24:2 30:8 31:10 37:4 38:16 39:7 43:10 44:13 45:16 46:13 47:1 51:9 52:13 53:16 54:1 60:7 61:12 #
0.50000003576649798553432901826454 3:9 4:12 5:2 10:3 11:16 12:16 13:16 14:16 15:3 18:4 19:15 20:13 21:14 22:16 23:6 26:2 27:15 28:11 29:16 30:11 31:1 34:1 35:14 36:16 37:11 42:5 43:14 44:6 45:16 46:5 50:7 51:15 52:8 53:13 54:16 58:1 59:7 60:11 61:16 62:13 #
0.50000003576649798553432901826454 4:11 5:16 6:10 11:6 12:11 13:2 14:12 19:5 20:15 21:3 22:11 27:1 28:13 29:16 30:1 35:1 36:12 37:16 38:7 42:7 43:13 44:3 45:7 46:14 50:10 51:13 52:8 53:5 54:10 60:14 61:15 62:3 #
0.50000003576649798553432901826454 3:4 4:15 5:15 6:8 7:1 10:2 11:12 12:3 13:10 14:14 15:11 18:3 19:14 20:5 21:3 22:11 23:11 27:7 28:15 29:16 30:14 31:2 35:5 36:16 37:11 38:15 39:2 43:13 44:1 45:2 46:16 47:1 51:10 52:11 53:8 54:15 59:3 60:13 61:14 62:3 #
-0.1351349098039382745639613858657 2:1 3:10 4:16 5:16 6:14 7:6 10:11 11:16 12:7 13:4 14:16 15:10 18:9 19:16 20:10 21:10 22:16 23:4 27:5 28:12 29:16 30:3 36:7 37:16 44:13 45:15 51:6 52:16 53:7 58:2 59:15 60:10 #
-0.14358703866666763793169536711503 4:5 5:9 6:13 7:14 8:6 11:4 12:16 13:8 14:4 15:10 16:9 19:6 20:16 21:16 22:16 23:15 24:4 27:1 28:11 29:12 30:16 31:6 37:2 38:16 39:2 45:10 46:6 52:2 53:15 60:5 61:14 #
-0.095815506129365721199597771828849 5:5 6:16 7:8 13:13 14:16 15:12 20:9 21:16 22:16 23:9 27:10 28:16 29:14 30:16 31:8 34:4 35:15 36:11 37:8 38:16 39:5 43:7 44:1 45:9 46:16 47:3 53:12 54:16 61:8 62:15 63:2 #
0.50000003576649798553432901826454 3:2 4:15 5:16 6:14 7:5 11:5 12:15 13:8 14:13 15:11 18:2 19:11 20:12 21:7 22:15 23:8 26:7 27:16 28:16 29:16 30:8 31:1 34:2 35:15 36:16 37:8 43:7 44:16 45:12 51:4 52:16 53:16 59:2 60:14 61:14 #
0.50000003576649798553432901826454 3:1 4:10 5:15 6:4 10:4 11:13 12:12 13:8 14:13 18:10 19:14 21:1 22:14 26:8 27:15 28:8 29:14 30:14 34:1 35:14 36:16 37:16 38:15 39:1 43:11 44:10 46:10 47:9 51:4 52:14 53:5 54:10 55:12 59:1 60:13 61:16 62:13 63:6 #
0.50000003576649798553432901826454 4:7 5:12 6:14 7:2 11:3 12:14 13:7 14:13 15:8 19:6 20:14 21:11 22:16 23:5 26:2 27:13 28:16 29:15 30:8 31:1 34:5 35:12 36:6 37:15 42:7 43:10 45:8 46:10 50:2 51:12 52:7 53:5 54:16 55:3 60:9 61:13 62:14 63:2 #
-0.1900709778048692566443378382246 3:8 4:15 5:12 6:2 10:4 11:16 12:13 13:11 14:12 15:1 18:9 19:14 20:1 21:13 22:15 23:2 26:9 27:15 29:14 30:15 34:2 35:15 36:16 37:16 38:16 43:1 44:4 45:4 46:16 47:4 51:4 52:8 53:4 54:16 55:5 59:5 60:14 61:16 62:15 63:5 #
-0.13348624047946097692651790111995 4:6 5:10 6:1 7:15 8:6 11:5 12:16 13:4 14:8 15:15 16:1 18:1 19:15 20:8 21:2 22:15 23:8 26:4 27:16 28:14 29:13 30:15 34:1 35:15 36:16 37:16 38:13 43:3 44:10 45:15 52:11 53:14 54:1 60:10 61:15 #
-0.053180536916667700553240649696818 4:9 5:15 6:7 11:7 12:16 13:10 14:6 19:14 20:8 26:1 27:16 28:5 29:11 30:8 34:3 35:16 36:16 37:10 38:15 39:9 42:1 43:15 44:9 46:4 47:13 51:11 52:14 53:6 54:11 55:15 60:10 61:14 62:13 63:8 #
0.50000003576649798553432901826454 2:1 3:12 4:16 5:12 10:11 11:13 12:5 13:16 14:3 15:8 18:10 19:13 20:4 21:16 22:15 23:3 26:2 27:16 28:12 29:15 30:6 35:14 36:14 37:2 42:2 43:16 44:16 45:3 50:4 51:15 52:12 53:11 59:14 60:16 61:13 #
0.50000003576649798553432901826454 3:4 4:14 5:8 11:14 12:12 13:15 14:9 19:14 20:10 21:15 22:9 23:1 27:4 28:16 29:11 35:9 36:16 37:12 43:12 44:12 45:16 46:1 50:1 51:15 52:14 53:16 54:1 59:7 60:16 61:8 #
0.50000003576649798553432901826454 2:1 3:13 4:16 5:13 6:5 7:2 10:2 11:16 12:9 13:13 14:14 19:11 20:13 21:15 22:5 27:3 28:16 29:13 35:3 36:16 37:8 43:10 44:16 45:12 50:1 51:15 52:16 53:12 58:1 59:16 60:10 61:1 #
-0.16141936553652516672663352892414 3:4 4:9 5:9 10:1 11:16 12:15 13:12 14:10 18:3 19:16 20:5 26:6 27:16 28:16 29:7 34:3 35:16 36:15 37:16 38:1 43:1 45:12 46:5 51:13 52:10 53:16 54:6 59:8 60:16 61:9 #
-0.13951869191627783162168441322137 3:2 4:10 5:16 6:3 11:15 12:16 13:16 14:4 18:3 19:12 20:1 21:16 22:15 23:9 28:7 29:16 30:16 31:13 36:16 37:15 38:2 44:8 45:12 52:13 53:9 60:14 61:3 #
-0.15169917780935052165069976126688 3:9 10:2 11:16 12:6 13:8 14:5 18:4 19:16 20:16 21:16 22:15 23:3 26:6 27:16 28:10 29:12 30:15 31:8 34:4 35:11 38:7 39:8 42:4 43:16 44:9 45:10 46:15 47:8 50:2 51:15 52:16 53:16 54:16 55:3 59:8 60:16 61:15 62:7 #
0.50000003576649798553432901826454 3:15 4:16 5:12 6:4 11:11 12:16 13:11 14:16 15:4 19:4 20:16 21:11 22:16 23:6 27:3 28:16 29:16 30:14 31:1 35:12 36:14 37:16 38:5 42:3 43:16 44:1 45:14 46:12 50:6 51:15 52:4 53:11 54:13 58:1 59:10 60:16 61:11 62:2 #
0.50000003576649798553432901826454 3:12 4:16 5:15 6:1 10:2 11:16 12:6 13:16 14:2 18:1 19:16 20:13 21:13 27:10 28:16 29:5 34:2 35:15 36:16 37:12 38:1 42:10 43:12 44:2 45:11 46:12 50:8 51:13 52:4 54:13 55:9 59:7 60:15 61:16 62:16 63:6 #
0.50000003576649798553432901826454 3:4 4:13 5:6 10:4 11:16 12:13 13:4 14:3 18:12 19:10 20:1 21:12 22:16 23:3 26:7 27:14 28:9 29:16 30:5 35:12 36:16 37:13 38:1 43:5 44:15 45:15 46:15 47:3 51:7 52:14 53:12 54:16 55:10 59:3 60:16 61:11 62:8 63:2 #
-0.13628625055690524181528644476202 3:11 4:16 5:13 6:2 11:10 12:15 13:11 14:13 19:3 20:15 21:7 22:15 23:5 28:1 29:1 30:13 31:6 38:16 39:5 45:9 46:16 47:2 51:15 52:16 53:16 54:11 59:9 60:15 61:13 62:16 63:16 64:5 #
-0.078087222372905842893153760542191 2:1 3:16 4:16 5:15 6:3 11:7 12:6 13:16 14:10 20:1 21:16 22:8 27:6 28:15 29:15 30:2 35:7 36:16 37:16 38:11 39:3 43:5 44:16 45:14 46:16 47:7 51:10 52:12 53:1 54:4 55:1 59:16 60:6 #
-0.11248064071187692525288781553172 3:4 4:15 5:15 6:16 7:16 8:15 11:5 12:12 13:12 14:11 15:16 16:11 22:7 23:16 24:3 27:2 28:11 29:16 30:16 31:14 35:14 36:12 37:16 38:13 43:6 44:4 45:15 46:1 51:1 52:12 53:10 59:8 60:14 61:1 #
0.50000003576649798553432901826454 3:10 4:14 5:15 6:10 7:2 10:2 11:15 12:5 13:4 14:16 15:8 19:13 21:8 22:13 23:1 26:3 27:15 28:12 29:14 30:2 34:1 35:12 36:14 37:13 38:1 42:6 43:11 45:9 46:12 50:7 51:11 53:1 54:16 55:3 58:1 59:10 60:13 61:14 62:12 #
0.50000003576649798553432901826454 3:2 4:9 5:15 6:16 7:7 11:15 12:9 13:8 14:15 15:9 18:2 19:15 20:3 21:4 22:16 23:2 26:4 27:15 28:15 29:16 30:2 35:1 36:16 37:16 38:9 43:10 44:10 45:10 46:16 47:3 51:10 52:12 53:10 54:16 55:4 59:2 60:13 61:12 62:8 63:1 #
0.50000003576649798553432901826454 3:3 4:16 5:15 6:3 11:6 12:16 13:15 14:3 19:10 20:16 21:6 22:2 27:4 28:14 29:16 30:3 34:4 35:13 36:2 37:12 38:6 42:5 43:11 45:1 46:12 47:3 51:13 52:3 54:7 55:11 59:3 60:11 61:11 62:14 63:10 #
-0.13521806061099164719685461477638 2:1 3:11 4:12 5:12 6:12 7:4 11:15 12:8 13:8 14:11 15:7 19:12 27:13 28:1 34:3 35:16 36:15 37:11 38:5 43:4 44:4 45:10 46:15 47:2 51:12 52:5 53:5 54:14 55:3 59:11 60:13 61:12 62:8 #
0.50000003576649798553432901826454 3:7 4:14 5:7 11:15 12:14 13:16 14:3 19:15 20:12 21:16 22:6 27:6 28:16 29:16 30:4 35:8 36:16 37:16 38:11 43:15 44:12 45:3 46:16 47:8 50:2 51:15 52:11 53:8 54:16 55:10 59:9 60:16 61:16 62:12 63:6 #
-0.1824834918148185436415076310368 3:6 4:14 5:14 6:4 11:14 12:15 13:6 14:13 15:2 19:7 20:16 21:16 22:15 23:1 28:10 29:10 37:14 38:1 45:4 46:11 50:3 51:10 52:4 54:13 59:9 60:12 61:16 62:12 #
-0.10479804325079765392469965945565 2:1 3:14 4:13 5:4 10:6 11:15 12:11 13:15 18:8 19:14 20:9 21:16 22:4 26:2 27:8 28:11 29:15 30:6 37:7 38:13 39:1 46:11 47:10 51:10 52:4 54:3 55:15 59:10 60:14 61:16 62:16 63:15 #
0.50000003576649798553432901826454 3:9 4:13 5:16 6:5 10:7 11:16 12:12 13:9 14:12 18:6 19:14 20:1 21:1 22:7 23:1 26:1 27:13 28:16 29:16 30:12 31:3 35:9 36:16 37:12 42:1 43:16 44:8 45:16 46:2 50:4 51:14 52:2 53:16 54:4 59:13 60:16 61:10 #
0.50000003576649798553432901826454 3:10 4:14 5:14 6:11 7:1 10:4 11:16 12:12 13:5 14:14 15:11 18:5 19:14 20:2 21:4 22:13 23:8 26:1 27:11 28:11 29:14 30:6 35:9 36:16 37:5 42:4 43:13 44:11 45:9 50:5 51:11 52:2 53:16 54:2 59:13 60:16 61:16 62:6 #
-0.12007583125376868060651958103335 2:1 3:8 4:16 5:15 6:1 10:8 11:12 12:14 13:16 19:1 20:16 21:11 27:4 28:16 29:12 30:2 35:1 36:9 37:15 38:16 39:2 43:2 46:15 47:8 50:1 51:16 52:14 53:5 54:15 55:7 59:7 60:13 61:14 62:10 63:1 #
-0.12074114937739735542443497706699 3:9 4:9 5:1 11:10 12:16 13:3 19:13 20:16 21:7 27:6 28:16 29:13 36:14 37:16 44:13 45:16 46:13 47:4 51:10 52:16 53:16 54:16 55:15 56:2 59:8 60:16 61:13 62:8 63:5 #
-0.15678545068188690092547687982005 2:2 5:9 6:7 10:15 11:16 12:16 13:16 14:9 18:1 19:5 20:4 21:16 22:7 26:1 27:4 28:4 29:16 30:7 34:5 35:16 36:16 37:16 38:15 39:2 43:3 44:1 45:14 46:6 53:13 54:7 61:10 62:11 #
0.50000003576649798553432901826454 2:1 3:8 4:15 5:16 6:11 7:1 10:5 11:16 12:13 13:10 14:13 15:7 18:4 19:13 22:9 23:8 26:1 27:13 28:8 29:6 30:15 31:4 35:2 36:15 37:16 38:9 43:8 44:14 45:15 46:8 51:14 52:8 53:9 54:14 59:11 60:16 61:14 62:8 #
0.50000003576649798553432901826454 3:2 4:13 5:9 6:1 10:1 11:13 12:7 13:15 14:5 17:1 18:15 19:9 21:15 22:2 26:6 27:13 28:7 29:13 35:5 36:16 37:8 43:1 44:15 45:14 46:2 51:4 52:12 53:6 54:11 60:11 61:16 62:8 #
0.50000003576649798553432901826454 3:8 4:3 5:11 6:11 7:2 10:2 11:16 12:6 13:7 14:12 15:8 18:1 19:16 20:1 21:7 22:14 23:1 27:11 28:14 29:12 30:1 35:11 36:16 37:1 42:3 43:12 44:11 45:8 50:5 51:10 52:5 53:12 58:1 59:10 60:16 61:9 #
-0.14795454537276558903968748381885 2:4 3:15 4:16 5:16 6:12 7:1 10:15 11:13 12:5 13:5 14:16 15:8 18:7 19:3 21:10 22:16 23:4 27:1 28:11 29:16 30:10 35:7 36:16 37:10 43:1 44:7 45:16 46:6 50:3 51:8 52:6 53:16 54:10 58:5 59:16 60:16 61:12 62:1 #
-0.12121459245579095653777557117792 4:12 5:8 11:6 12:15 13:1 18:2 19:15 20:6 23:6 26:8 27:14 28:1 30:7 31:15 32:1 34:13 35:10 37:6 38:16 39:6 42:15 43:14 44:14 45:16 46:12 50:7 51:12 52:12 53:16 54:2 60:14 61:6 #
-0.13122209865598005729125929974543 4:12 5:16 6:13 11:6 12:16 13:10 14:5 17:1 18:14 19:2 20:6 26:12 27:11 34:3 35:14 36:11 37:1 43:3 44:13 45:11 52:5 53:16 54:6 60:13 61:16 62:6 #
0.50000003576649798553432901826454 4:10 5:12 6:4 11:7 12:12 13:6 14:13 19:7 20:9 21:2 22:13 27:1 28:15 29:15 30:6 35:7 36:15 37:11 38:9 43:16 44:1 46:10 47:9 51:13 52:5 55:15 59:1 60:9 61:14 62:14 63:12 #
0.50000003576649798553432901826454 3:9 4:12 5:12 6:1 10:6 11:14 12:5 13:9 14:11 15:3 18:7 19:12 20:9 21:15 22:9 23:1 26:1 27:16 28:14 29:2 35:14 36:12 37:14 38:2 42:2 43:12 45:9 46:13 51:15 52:1 53:6 54:14 59:6 60:14 61:15 62:3 #
0.50000003576649798553432901826454 3:3 4:8 5:12 6:4 10:5 11:16 12:13 13:9 14:13 18:8 19:13 20:9 21:16 22:13 27:13 28:16 29:12 34:3 35:15 36:9 37:16 38:10 42:3 43:11 45:2 46:13 47:11 50:2 51:14 52:2 53:4 54:12 55:12 59:6 60:13 61:13 62:11 63:3 #
-0.10454007028349227015340261459642 2:1 3:8 4:14 5:16 6:12 10:1 11:12 12:9 13:11 14:16 20:9 21:15 22:5 26:2 27:14 28:16 29:7 34:1 35:11 36:13 37:16 38:9 45:2 46:16 47:4 51:11 52:8 53:14 54:13 59:11 60:14 61:11 62:1 #
-0.15474405756433290415330361611268 2:5 3:16 4:16 5:16 6:3 10:8 11:7 12:5 13:16 14:2 18:3 19:5 20:10 21:14 26:7 27:16 28:16 29:15 30:12 31:6 35:9 36:14 37:11 38:14 39:6 43:16 44:6 50:3 51:15 52:2 58:7 59:12 #
-0.085283128584701634045117657478841 5:9 6:13 12:7 13:16 14:3 19:5 20:16 21:4 22:3 23:5 26:3 27:13 28:7 30:10 31:14 34:10 35:16 36:16 37:16 38:16 39:11 42:5 43:8 44:10 45:13 46:16 47:7 53:7 54:16 55:4 61:10 62:11 #
0.50000003576649798553432901826454 3:7 4:13 5:16 6:8 11:16 12:14 13:10 14:16 15:2 19:9 20:14 21:4 22:16 23:1 27:1 28:16 29:16 30:14 35:8 36:16 37:16 38:3 42:2 43:16 44:13 45:14 46:15 47:1 50:4 51:16 52:7 53:5 54:16 55:6 59:10 60:15 61:16 62:15 63:2 #
0.50000003576649798553432901826454 3:1 4:7 5:14 6:15 7:2 10:2 11:12 12:14 13:8 14:14 15:7 18:3 19:14 20:13 21:5 22:14 23:5 27:5 28:15 29:16 30:15 31:2 36:10 37:16 38:10 43:2 44:14 45:14 46:12 51:4 52:16 53:14 54:12 60:12 61:13 62:6 #
0.50000003576649798553432901826454 3:6 4:13 5:12 6:11 7:2 11:16 12:13 13:5 14:13 15:13 19:15 20:11 21:5 22:15 23:8 27:11 28:16 29:16 30:9 34:1 35:10 36:16 37:15 42:4 43:16 44:12 45:16 46:6 50:1 51:15 52:16 53:16 54:12 59:3 60:13 61:16 62:11 #
-0.15788398762586572376953597540705 3:1 4:11 5:16 6:6 11:12 12:14 13:11 14:16 15:3 19:11 20:5 21:2 22:16 23:5 29:7 30:14 31:2 36:7 37:16 38:7 44:3 45:16 46:10 52:12 53:16 54:15 59:1 60:12 61:16 62:7 #
-0.13321321893638946032289993581799 3:2 4:7 5:12 6:16 7:11 11:10 12:15 13:16 14:16 15:16 20:10 21:16 22:16 23:12 28:4 29:16 30:16 31:4 36:5 37:16 38:15 39:4 44:10 45:16 46:12 51:2 52:15 53:16 54:3 59:1 60:13 61:14 62:1 #
-0.14133246522124115474028371863824 3:1 4:9 5:16 6:16 7:12 8:1 11:10 12:13 13:8 14:12 15:16 16:3 19:2 21:1 22:13 23:10 28:9 29:16 30:11 36:14 37:16 38:15 44:7 45:10 46:16 47:2 51:2 52:16 53:14 54:13 60:14 61:14 62:2 #
0.50000003576649798553432901826454 3:2 4:11 5:14 6:5 10:1 11:14 12:13 13:13 14:8 18:5 19:16 21:1 22:1 26:3 27:16 28:6 29:12 30:16 31:5 35:9 36:16 37:16 38:8 39:2 42:2 43:14 44:12 45:12 46:13 47:1 50:2 51:15 52:7 53:2 54:14 55:7 59:3 60:13 61:14 62:12 63:1 #
0.50000003576649798553432901826454 3:5 4:11 5:14 6:5 10:7 11:13 12:5 13:4 14:14 15:2 19:4 20:8 21:2 22:14 23:2 27:1 28:13 29:14 30:3 35:1 36:14 37:8 43:9 44:9 45:10 46:2 51:13 52:1 53:8 54:8 59:6 60:13 61:14 62:7 #
0.50000003576649798553432901826454 3:4 4:12 5:15 6:9 7:1 10:7 11:14 12:8 13:13 14:15 15:2 18:5 19:7 20:12 21:11 22:1 27:4 28:16 29:5 35:10 36:15 37:10 43:9 44:6 45:12 46:4 51:7 52:9 53:10 54:9 59:2 60:12 61:16 62:7 #
-0.08332518622248943906960505501047 4:2 5:15 6:4 12:7 13:16 14:5 19:8 20:16 21:14 22:1 26:7 27:16 28:16 29:12 34:2 35:8 36:14 37:12 44:9 45:13 52:6 53:16 54:13 55:2 60:2 61:12 62:13 63:2 #
-0.06669623941242736053780504335009 2:1 3:10 4:16 5:15 6:4 10:9 11:16 12:7 13:7 14:15 15:2 18:12 19:13 22:12 23:8 26:12 27:12 30:6 31:11 34:10 35:12 38:4 39:12 42:7 43:14 46:6 47:11 50:2 51:16 52:5 53:3 54:14 55:4 59:10 60:16 61:16 62:12 #
-0.13467692654314275535476497225318 3:2 4:12 5:16 6:7 12:10 13:16 14:3 20:3 21:15 22:5 29:6 30:15 31:3 38:8 39:14 46:11 47:16 52:3 53:13 54:16 55:9 59:6 60:16 61:12 62:8 63:1 #
0.50000003576649798553432901826454 3:5 4:15 5:8 10:2 11:15 12:9 13:10 14:3 15:1 18:6 19:9 20:7 21:11 22:14 23:1 26:2 27:15 28:13 29:8 30:2 34:1 35:15 36:6 42:1 43:16 44:12 50:1 51:16 52:13 53:1 59:8 60:15 61:3 #
0.50000003576649798553432901826454 3:4 4:13 5:15 6:2 10:1 11:13 12:3 13:7 14:10 18:6 19:8 22:12 26:4 27:10 28:3 29:11 30:11 35:14 36:16 37:15 38:15 39:1 43:8 44:16 45:1 46:5 47:8 51:8 52:10 53:5 54:13 55:7 59:4 60:15 61:11 62:6 #
0.50000003576649798553432901826454 4:4 5:12 6:11 7:1 11:12 12:15 13:10 14:13 15:4 18:8 19:10 21:3 22:15 23:1 26:3 27:14 28:5 29:15 30:6 35:13 36:16 37:11 42:3 43:15 44:6 45:11 46:12 47:3 50:1 51:14 52:10 53:2 54:10 55:10 59:1 60:6 61:11 62:16 63:6 #
-0.19578042132801717900569826724677 2:1 3:9 4:13 5:15 6:3 10:8 11:14 12:8 13:12 14:16 18:1 19:1 21:10 22:14 28:6 29:15 30:7 35:10 36:16 37:16 38:10 39:2 43:5 44:8 45:8 46:14 47:8 50:1 51:6 52:4 53:7 54:15 55:6 58:1 59:11 60:15 61:12 62:4 #
-0.10343260392222061727629522920324 3:9 4:16 5:16 6:14 10:3 11:15 12:10 13:2 14:5 18:11 19:9 26:8 27:14 28:1 34:1 35:15 36:5 43:11 44:9 51:9 52:12 59:14 60:9 #
-0.10656754296067443010809228098879 2:2 3:10 4:16 5:16 6:16 7:7 10:14 11:16 12:15 13:11 14:13 15:5 18:12 19:15 20:1 26:4 27:16 28:7 35:16 36:8 43:15 44:9 51:12 52:14 59:15 60:7 #
0.50000003576649798553432901826454 2:1 3:9 4:14 5:5 10:7 11:9 12:7 13:11 14:8 15:4 18:4 19:9 20:5 21:14 22:7 23:2 27:11 28:14 29:4 35:10 36:15 37:5 42:2 43:14 44:2 45:15 46:1 50:4 51:13 52:2 53:15 54:2 59:12 60:16 61:7 #
0.50000003576649798553432901826454 3:1 4:12 5:15 6:12 7:1 11:2 12:12 13:10 14:16 15:4 18:6 19:10 20:6 21:14 22:9 26:5 27:13 28:16 29:16 30:7 35:5 36:15 37:10 38:15 43:5 44:12 46:11 47:7 51:4 52:14 53:4 54:13 55:7 59:2 60:12 61:15 62:10 63:1 #
0.50000003576649798553432901826454 3:8 4:16 5:12 10:6 11:16 12:15 13:10 18:4 19:16 20:14 21:14 22:16 23:6 27:12 28:16 29:15 30:5 35:12 36:16 37:11 43:16 44:10 45:16 46:6 51:16 52:5 53:13 54:12 59:10 60:15 61:11 62:1 #
-0.13628148937693923548053476224595 3:4 4:16 5:7 6:2 11:8 12:16 13:16 14:4 19:11 20:16 21:16 22:3 27:9 28:16 29:16 35:11 36:16 37:16 38:2 43:9 44:16 45:15 51:9 52:16 53:15 59:6 60:12 61:3 #
-0.14156740346247675965685175469844 4:5 5:8 6:12 7:10 11:11 12:14 13:4 14:15 15:8 18:4 19:16 20:14 21:11 22:16 23:7 26:7 27:16 28:16 29:16 30:14 31:7 34:1 35:8 36:6 38:7 39:8 46:5 47:8 53:3 54:13 55:6 60:4 61:16 62:8 #
-0.15910732419201845111444981739623 2:1 3:13 4:5 10:4 11:14 18:4 19:8 21:1 22:6 23:1 26:5 27:8 28:1 29:11 30:16 31:5 34:4 35:10 36:7 37:16 38:16 39:7 42:4 43:14 44:10 45:16 46:16 47:3 50:1 51:16 52:16 53:16 54:10 59:10 60:14 61:9 62:2 #
0.50000003576649798553432901826454 3:3 4:14 5:11 10:3 11:14 12:9 13:14 18:8 19:11 21:4 22:11 23:7 26:3 27:15 28:13 29:14 30:11 31:1 36:14 37:16 38:12 39:1 43:7 44:14 45:2 46:14 47:8 51:8 52:10 53:5 54:14 55:5 59:4 60:15 61:13 62:6 #
0.50000003576649798553432901826454 3:7 4:15 5:12 6:4 10:5 11:15 12:4 13:9 14:14 18:10 19:8 21:4 22:16 23:2 26:6 27:11 28:2 29:12 30:11 35:13 36:16 37:16 38:6 43:5 44:16 45:16 46:8 51:10 52:14 53:5 54:16 55:7 59:9 60:15 61:16 62:16 63:8 #
0.50000003576649798553432901826454 2:1 3:14 4:13 5:9 6:2 10:2 11:16 12:16 13:16 14:14 15:2 19:14 20:10 21:3 22:16 23:3 27:5 28:15 29:14 30:13 35:1 36:15 37:15 38:3 43:8 44:16 45:16 46:2 51:16 52:13 53:16 54:8 59:12 60:12 61:9 62:2 #
-0.15105927516407247068741526163649 4:6 5:10 6:14 11:10 12:16 13:16 14:16 15:6 18:1 19:16 20:10 21:4 22:15 23:11 26:1 27:12 28:5 30:9 31:9 35:8 36:9 38:8 39:8 43:9 44:16 45:16 46:16 47:4 51:2 52:16 53:16 54:14 55:2 60:6 61:10 62:3 #
-0.018003964500279946714389467388173 4:11 5:16 6:8 11:9 12:15 13:5 14:3 19:14 20:6 26:4 27:14 34:5 35:11 36:2 37:4 38:1 42:4 43:14 44:15 45:15 46:15 47:3 50:1 51:11 52:16 53:11 54:11 55:15 59:1 60:11 61:15 62:16 63:12 #
-0.15386505411849429880710715679015 2:5 3:16 4:5 10:9 11:16 12:14 18:12 19:14 20:14 26:7 27:13 28:12 35:11 36:8 38:3 39:1 43:16 44:8 45:7 46:14 47:11 50:8 51:16 52:16 53:16 54:16 55:11 58:6 59:16 60:16 61:11 62:6 63:1 #
0.50000003576649798553432901826454 3:2 4:9 5:5 11:8 12:16 13:16 14:13 18:2 19:11 20:16 21:16 22:4 26:1 27:11 28:16 29:12 35:10 36:12 37:16 38:6 43:13 44:1 45:7 46:15 47:1 51:14 52:6 53:7 54:13 55:2 59:2 60:11 61:11 62:4 #
0.50000003576649798553432901826454 3:9 4:16 5:6 10:2 11:14 12:16 13:16 14:8 15:3 19:14 20:16 21:16 22:16 23:11 27:14 28:16 29:12 30:5 31:1 35:9 36:16 37:5 43:15 44:16 45:5 51:16 52:16 53:8 59:10 60:13 61:1 #
0.50000003576649798553432901826454 3:2 4:13 5:15 6:4 11:9 12:10 13:5 14:11 19:10 20:7 21:13 22:10 27:7 28:12 29:16 30:3 35:6 36:16 37:7 43:14 44:13 45:2 51:11 52:2 53:10 60:13 61:15 #
-0.12594866128052312204133045270282 4:8 5:14 6:3 11:1 12:16 13:15 14:7 19:7 20:15 21:5 26:3 27:14 28:14 29:5 34:3 35:16 36:10 37:12 38:10 43:11 44:5 46:14 47:2 51:3 52:11 53:6 54:14 55:1 60:7 61:15 62:6 #
-0.18481090885900677833753036338749 3:10 4:15 5:16 6:6 10:1 11:13 12:5 13:7 14:15 15:2 21:7 22:12 23:2 28:6 29:15 30:3 35:7 36:12 37:1 42:5 43:14 44:2 50:9 51:14 52:10 53:11 54:7 55:1 58:1 59:7 60:8 61:8 62:11 63:4 #
-0.12449477549244797325300737611542 3:1 4:12 5:16 6:16 7:4 11:10 12:16 13:13 14:8 15:1 19:10 20:13 27:13 28:12 29:4 35:14 36:16 37:16 38:6 43:6 44:9 45:15 46:14 53:9 54:14 59:4 60:12 61:15 62:6 #
0.50000003576649798553432901826454 2:1 3:6 4:8 5:13 6:8 10:5 11:16 12:10 13:5 14:15 18:8 19:15 20:6 21:13 22:13 26:5 27:16 28:16 29:14 30:15 31:1 35:14 36:9 38:6 39:6 43:16 44:1 46:6 47:8 51:16 52:5 53:9 54:15 55:2 59:11 60:16 61:10 62:2 #
0.50000003576649798553432901826454 3:7 4:13 5:15 6:3 10:3 11:16 12:4 13:8 14:4 18:1 19:16 20:3 21:10 27:8 28:16 29:6 35:6 36:11 37:11 38:10 39:1 42:1 43:13 44:3 46:9 47:6 50:2 51:14 52:1 54:9 55:3 59:4 60:13 61:14 62:9 #
0.50000003576649798553432901826454 3:6 4:13 5:14 6:3 10:7 11:15 12:8 13:9 14:12 18:6 19:15 20:5 21:4 22:16 23:1 27:8 28:16 29:16 30:16 31:6 36:11 37:16 38:12 43:5 44:15 45:9 46:15 51:10 52:13 53:1 54:16 55:4 59:5 60:12 61:16 62:15 63:2 #
-0.19997428970702260664360494502034 3:7 4:15 5:16 6:12 11:9 12:6 13:3 14:15 15:2 20:4 21:13 22:9 27:9 28:16 29:16 30:6 35:5 36:5 37:6 38:15 39:4 43:8 46:4 47:12 50:1 51:13 52:1 53:3 54:12 55:8 59:8 60:16 61:15 62:10 #
-0.32311055458366516601742546299647 3:4 4:11 5:12 6:7 10:1 11:16 12:13 13:14 14:12 18:2 19:16 20:5 21:8 22:14 26:1 27:15 28:16 29:16 30:14 35:6 36:12 37:12 38:16 39:6 43:1 44:3 45:2 46:15 47:5 51:7 52:16 53:16 54:16 55:2 59:1 60:13 61:12 62:5 #
-0.10559542563320999108977815694743 2:1 3:13 4:16 5:16 6:16 7:12 8:1 12:3 13:4 14:12 15:16 16:2 21:4 22:16 23:7 28:2 29:15 30:12 34:1 35:8 36:13 37:16 38:16 39:5 42:3 43:15 44:16 45:12 46:7 51:13 52:10 58:2 59:15 60:7 #
0.50000003576649798553432901826454 3:8 4:12 5:12 6:1 10:6 11:12 12:2 13:6 14:8 18:5 19:11 21:3 22:16 23:7 27:14 28:6 29:10 30:10 31:1 35:6 36:16 37:8 43:7 44:16 45:5 51:12 52:10 53:10 59:11 60:14 61:9 #
0.50000003576649798553432901826454 3:8 4:12 5:8 6:14 7:3 10:2 11:15 12:13 13:11 14:16 15:4 18:3 19:16 20:10 21:11 22:9 27:4 28:16 29:16 30:4 35:2 36:15 37:16 38:8 42:3 43:15 44:7 45:12 46:10 50:4 51:16 52:4 53:13 54:8 58:1 59:9 60:16 61:15 62:3 #
0.50000003576649798553432901826454 3:9 4:10 5:15 6:14 10:2 11:16 12:16 13:16 14:15 18:2 19:16 20:4 21:15 22:5 27:12 28:16 29:12 35:13 36:16 37:4 42:2 43:16 44:14 45:12 50:1 51:16 52:11 53:16 54:4 59:9 60:16 61:15 62:3 #
-0.1328173316198198450344136745116 3:6 4:16 5:8 10:3 11:16 12:6 13:16 14:1 18:3 19:7 20:2 21:16 22:2 28:7 29:13 36:12 37:8 43:2 44:15 45:4 46:1 51:8 52:12 53:4 54:13 55:6 59:5 60:16 61:15 62:8 63:1 #
-0.16297318643873659471665860110079 3:4 4:11 5:14 6:12 10:4 11:16 12:9 13:5 14:16 15:1 18:11 19:8 21:6 22:13 26:5 27:6 28:1 29:13 30:5 36:11 37:9 43:4 44:16 45:1 51:10 52:9 55:1 59:3 60:16 61:16 62:14 63:6 #
-0.12928629218566520253652640803921 3:12 4:12 5:16 6:16 7:9 11:8 12:6 13:4 14:13 15:8 20:4 21:8 22:16 23:6 26:3 27:16 28:16 29:16 30:11 31:4 35:3 36:9 37:9 43:3 44:14 51:11 52:7 59:14 60:3 #
0.50000003576649798553432901826454 4:9 5:9 6:1 11:10 12:16 13:10 14:12 15:1 19:5 20:14 21:1 22:12 23:4 28:11 29:15 30:16 31:2 35:3 36:12 37:16 38:9 42:1 43:12 44:10 45:4 46:16 47:7 50:2 51:15 52:5 54:11 55:12 59:1 60:10 61:13 62:13 63:6 #
0.50000003576649798553432901826454 3:4 4:16 5:15 6:7 11:6 12:16 13:10 14:13 15:2 19:2 20:15 21:12 22:15 23:6 27:3 28:14 29:15 30:13 31:2 34:2 35:15 36:15 37:15 38:9 42:6 43:16 44:2 45:7 46:13 50:3 51:16 52:11 53:8 54:16 55:4 59:4 60:12 61:16 62:13 63:1 #
0.50000003576649798553432901826454 3:4 4:12 5:15 6:8 10:3 11:16 12:6 13:4 14:15 15:2 18:2 19:15 20:1 21:2 22:12 23:6 27:13 28:16 29:16 30:15 31:1 34:2 35:15 36:12 37:10 38:14 39:7 42:6 43:15 44:1 46:5 47:9 51:15 52:8 53:4 54:10 55:8 59:2 60:15 61:15 62:11 63:1 #
-0.15125137247134140539017721494019 3:13 4:13 10:6 11:16 12:7 18:10 19:13 26:8 27:16 28:13 29:16 30:10 34:8 35:16 36:14 37:9 38:15 39:6 42:5 43:16 44:6 46:2 47:15 50:7 51:16 52:12 54:3 55:15 58:1 59:6 60:13 61:16 62:16 63:8 #
-0.10394141871787988817832371069017 4:10 5:16 6:15 7:3 11:6 12:13 13:10 14:16 15:2 19:3 20:1 21:2 22:14 29:8 30:8 35:1 36:8 37:14 38:15 39:8 42:1 43:15 44:16 45:13 46:3 51:2 52:9 53:7 60:14 61:1 #
-0.11892029747370062853217831388974 4:1 5:14 6:10 12:9 13:15 14:2 19:1 20:14 21:5 23:2 27:11 28:9 30:8 31:14 34:7 35:14 38:14 39:10 41:4 42:16 43:15 44:11 45:9 46:16 47:4 49:1 50:12 51:14 52:16 53:16 54:12 61:14 62:6 #
0.50000003576649798553432901826454 3:5 4:11 5:16 6:12 7:2 11:15 12:7 13:4 14:13 15:4 18:1 19:14 20:1 21:4 22:16 23:2 26:1 27:7 28:8 29:14 30:5 34:5 35:16 36:16 37:7 43:14 44:6 45:14 46:6 51:11 52:6 53:5 54:16 59:5 60:15 61:14 62:8 #
0.50000003576649798553432901826454 3:1 4:9 5:15 6:15 7:2 10:1 11:15 12:9 13:5 14:16 15:2 18:8 19:10 20:1 21:12 22:8 26:7 27:15 28:12 29:11 30:1 35:7 36:16 37:13 38:3 43:6 44:8 45:8 46:15 47:3 51:2 52:15 53:2 54:12 55:8 60:10 61:16 62:13 63:4 #
0.50000003576649798553432901826454 3:3 4:9 5:14 6:4 10:1 11:16 12:15 13:13 14:10 15:2 18:1 19:15 20:5 21:1 22:13 23:12 27:15 28:12 29:11 30:16 31:3 35:4 36:16 37:16 38:9 43:11 44:16 45:16 46:7 51:15 52:16 53:16 54:8 59:3 60:13 61:15 62:4 #
-0.24322907891955816706008874916733 3:5 4:15 5:13 6:7 10:4 11:15 12:8 13:7 14:16 15:4 18:6 19:12 20:1 21:10 22:14 23:1 28:12 29:12 30:2 36:14 37:11 38:3 44:1 45:10 46:14 53:4 54:14 55:8 59:4 60:16 61:16 62:14 63:4 #
-0.14588641697018397969110026224371 4:7 5:14 6:7 11:3 12:13 13:4 14:12 15:1 19:13 20:3 22:12 23:4 26:1 27:13 29:6 30:16 31:6 35:15 36:15 37:9 38:12 39:3 43:1 44:1 46:9 47:2 51:2 52:9 53:2 54:12 59:1 60:9 61:15 62:7 #
-0.13777981321557325466997667717806 3:5 4:16 5:5 11:2 12:16 13:13 19:11 20:16 21:16 22:2 27:3 28:12 29:16 30:9 37:14 38:14 45:9 46:16 47:3 51:9 52:12 53:14 54:16 55:8 56:5 59:4 60:12 61:13 62:16 63:16 64:15 #
0.50000003576649798553432901826454 3:6 4:14 5:9 10:3 11:16 12:9 13:15 14:12 15:3 18:1 19:16 20:6 21:16 22:10 27:6 28:16 29:16 30:6 34:1 35:13 36:10 37:10 38:15 39:1 42:3 43:16 44:1 46:11 47:11 50:1 51:15 52:2 53:3 54:14 55:5 59:5 60:15 61:15 62:6 #
0.50000003576649798553432901826454 3:10 4:15 5:3 11:16 12:7 13:8 19:11 20:5 21:4 22:10 23:3 27:3 28:13 29:15 30:10 31:1 35:2 36:15 37:14 38:1 43:13 44:9 45:10 46:6 50:1 51:14 52:4 53:8 54:8 59:8 60:14 61:13 62:4 #
0.50000003576649798553432901826454 3:1 4:14 5:15 6:9 7:1 10:1 11:9 12:14 13:1 14:7 15:8 18:7 19:16 20:6 22:11 23:6 27:8 28:14 29:13 30:10 35:1 36:14 37:15 38:7 43:11 44:7 45:1 46:16 47:1 51:11 52:6 54:13 55:3 59:3 60:13 61:14 62:11 #
-0.45632562918505042981465180673695 3:6 4:15 5:16 6:6 10:5 11:15 12:16 13:16 14:11 18:8 19:16 20:16 21:16 22:9 27:4 28:16 29:16 30:6 35:2 36:16 37:16 43:8 44:16 45:16 46:2 51:11 52:16 53:16 54:13 55:2 59:5 60:13 61:11 62:8 63:2 #
-0.12002752184811890656668253996031 2:2 3:15 4:9 5:10 6:8 7:6 10:10 11:16 12:16 13:16 14:12 15:8 18:8 19:16 20:6 26:1 27:12 28:16 29:12 30:1 35:1 36:6 37:15 38:12 45:5 46:16 47:2 50:10 51:12 52:6 53:10 54:16 55:1 58:1 59:13 60:16 61:14 62:5 #
-0.10005446117422864271695459592593 4:1 5:11 6:10 12:5 13:16 14:16 15:2 20:6 21:16 22:16 23:2 28:12 29:16 30:16 35:7 36:16 37:16 38:8 42:6 43:16 44:16 45:16 46:9 50:2 51:12 52:12 53:16 54:11 61:12 62:11 #
0.50000003576649798553432901826454 3:2 4:12 5:16 6:3 10:3 11:16 12:6 13:8 14:8 18:5 19:14 20:11 21:15 22:2 28:10 29:11 35:1 36:16 37:14 38:2 43:8 44:12 45:6 46:9 51:10 52:6 53:6 54:16 55:1 59:3 60:14 61:13 62:8 #
0.50000003576649798553432901826454 3:2 4:12 5:13 6:4 11:12 12:11 13:8 14:13 19:13 21:13 22:5 26:11 27:14 28:7 29:11 35:7 36:16 37:5 43:7 44:12 45:12 46:4 51:9 52:6 53:10 54:10 59:2 60:14 61:15 62:6 #
0.50000003576649798553432901826454 3:6 4:14 5:13 6:5 11:5 12:6 13:14 14:10 19:9 20:16 21:14 22:1 27:7 28:16 29:10 35:10 36:7 37:12 38:2 43:13 44:3 45:6 46:6 51:12 52:5 53:11 54:9 59:5 60:16 61:15 62:3 #
-0.10197938185451106696266521112193 3:1 4:12 5:15 6:5 11:12 12:11 13:4 14:3 18:1 19:15 20:2 26:5 27:12 34:3 35:16 36:16 37:11 38:2 42:2 43:16 44:15 45:8 46:12 51:10 52:9 53:1 54:15 55:5 60:12 61:16 62:10 #
-0.13310719488606309601763655336981 2:3 3:16 4:15 5:7 10:5 11:16 12:16 13:16 14:13 15:2 19:7 20:8 21:10 22:16 23:6 29:2 30:16 31:4 37:4 38:16 39:1 45:12 46:9 51:4 52:11 53:15 54:3 58:2 59:15 60:12 61:3 #
-0.096391504670729794002070889291645 3:6 4:15 5:16 6:16 7:16 8:11 11:10 12:15 13:16 14:14 15:10 16:2 19:3 20:16 21:8 27:3 28:16 29:13 30:1 36:9 37:16 38:9 45:15 46:15 47:1 52:10 53:15 54:7 59:5 60:15 61:3 #
0.50000003576649798553432901826454 3:2 4:11 5:15 6:2 10:1 11:15 12:14 13:11 14:10 18:7 19:16 20:2 21:1 22:16 26:6 27:16 28:12 29:14 30:16 31:1 35:10 36:16 37:16 38:16 39:4 43:4 44:16 45:12 46:9 47:10 51:7 52:16 53:5 54:15 55:8 59:2 60:12 61:12 62:13 63:2 #
0.50000003576649798553432901826454 3:14 4:10 5:10 6:4 11:16 12:8 13:8 14:15 15:4 19:13 20:5 22:7 23:8 27:6 28:14 29:8 30:15 31:7 35:8 36:16 37:16 38:9 42:2 43:15 44:9 45:15 46:6 50:5 51:15 52:8 53:14 54:10 59:8 60:10 61:16 62:7 #
0.50000003576649798553432901826454 3:5 4:13 5:14 6:5 11:9 12:8 13:9 14:12 18:3 19:12 20:2 21:11 22:9 26:3 27:13 28:15 29:14 30:1 36:11 37:12 38:12 39:2 43:4 44:10 46:9 47:9 51:10 52:5 53:2 54:8 55:13 59:5 60:14 61:15 62:11 63:2 #
-0.12876795957145822923983757846145 3:7 4:13 5:14 6:6 10:2 11:16 12:16 13:16 14:14 18:3 19:16 20:9 21:4 22:2 26:2 27:16 28:16 29:14 30:5 35:6 36:8 37:9 38:15 39:7 46:8 47:12 51:11 52:4 53:5 54:14 55:11 59:8 60:16 61:16 62:13 63:1 #
-0.13666989233482865206958933868009 3:7 4:12 5:11 6:9 10:7 11:16 12:15 13:11 14:13 19:12 20:7 27:12 28:10 29:6 35:8 36:12 37:13 38:14 46:8 47:8 51:10 52:6 53:4 54:12 55:9 59:10 60:13 61:12 62:10 63:2 #
-0.14562011633986624015157929079578 3:6 4:12 5:12 6:12 7:4 10:3 11:16 12:8 13:6 14:16 15:7 18:4 19:13 21:5 22:16 23:4 26:1 27:13 28:13 29:15 30:16 31:4 35:1 36:8 37:4 38:12 39:4 43:2 46:12 47:7 50:6 51:15 52:4 54:13 55:4 59:8 60:15 61:16 62:16 63:2 #
0.50000003576649798553432901826454 3:5 4:15 5:5 11:13 12:11 13:12 19:14 20:7 21:2 22:4 23:4 27:9 28:15 29:14 30:13 31:5 34:1 35:13 36:16 37:13 42:7 43:14 44:4 45:14 46:9 51:15 52:4 53:2 54:14 55:7 59:3 60:13 61:16 62:16 63:7 #
0.50000003576649798553432901826454 3:4 4:13 5:15 6:8 10:2 11:13 12:4 14:12 18:6 19:9 21:2 22:10 26:3 27:13 28:1 29:4 30:15 31:5 35:5 36:14 37:14 38:3 43:3 44:16 45:13 51:8 52:6 53:14 54:4 59:6 60:13 61:15 62:3 #
0.50000003576649798553432901826454 3:5 4:10 5:15 6:11 7:1 10:6 11:16 12:8 13:7 14:16 15:5 18:6 19:15 20:2 21:8 22:14 23:1 27:11 28:14 29:16 30:3 36:13 37:15 38:1 43:5 44:15 45:15 46:6 51:11 52:16 53:16 54:7 59:6 60:13 61:11 62:2 #
-0.13789246584574776921527927697753 4:5 5:14 6:16 7:16 8:5 11:10 12:16 13:15 14:16 15:16 16:7 18:4 19:15 20:6 21:1 22:16 23:12 27:2 29:5 30:16 31:7 37:4 38:16 39:2 45:6 46:16 47:1 52:2 53:15 54:14 60:3 61:15 62:7 #
-0.15763394234763994372627848861157 3:14 4:9 11:8 12:16 19:8 20:12 22:2 23:1 27:12 28:8 30:13 31:9 34:1 35:16 36:4 38:16 39:8 42:5 43:16 46:15 47:6 50:8 51:16 52:16 53:16 54:16 55:12 58:1 59:8 60:8 61:8 62:13 63:7 #
-0.11690686108647564689366760148914 3:3 4:10 5:7 6:15 7:13 11:12 12:9 13:16 14:16 15:13 18:1 19:16 20:12 21:14 22:8 23:4 26:1 27:14 28:16 29:16 30:16 31:10 36:1 38:11 39:6 45:4 46:15 47:2 51:2 52:13 53:15 54:3 59:4 60:13 61:3 #
0.50000003576649798553432901826454 3:3 4:13 5:13 6:14 7:6 10:2 11:15 12:8 13:16 14:15 15:11 18:3 19:14 20:3 21:5 22:15 23:4 26:1 27:13 28:16 29:16 30:3 35:13 36:13 37:14 38:9 42:4 43:12 45:6 46:11 50:3 51:14 52:5 53:7 54:15 59:7 60:15 61:15 62:9 #
0.50000003576649798553432901826454 3:2 4:10 5:15 6:5 10:3 11:9 12:12 13:7 14:16 18:12 19:9 20:5 21:6 22:14 23:1 26:4 27:12 28:6 29:16 30:4 35:8 36:16 37:10 43:8 44:14 45:16 46:7 51:12 52:6 53:5 54:16 55:11 59:3 60:14 61:16 62:13 63:7 #
0.50000003576649798553432901826454 2:1 3:12 4:16 5:14 6:6 10:2 11:13 12:7 13:5 14:15 15:2 19:6 20:15 21:9 22:13 28:10 29:15 30:1 35:4 36:15 37:8 43:12 44:4 45:12 50:3 51:14 52:10 53:11 59:14 60:13 61:3 #
-0.16946429555760209040293773341546 2:1 3:10 4:15 5:15 6:6 10:8 11:16 12:15 13:14 14:15 15:3 18:3 19:6 20:3 21:15 22:15 28:12 29:16 30:5 36:8 37:16 38:2 44:4 45:16 46:8 51:4 52:15 53:16 54:4 59:14 60:16 61:7 #
-0.1555150737468921906536678534394 2:1 3:10 4:5 10:2 11:16 12:16 13:12 14:1 19:10 20:5 21:11 22:6 28:1 29:12 30:7 35:6 36:16 37:16 38:6 43:3 44:8 45:10 46:15 47:8 51:3 52:4 53:7 54:14 55:15 59:6 60:15 61:15 62:11 63:4 #
-0.13464639582642226600661672364367 3:3 4:15 5:16 6:6 11:6 12:11 13:11 14:16 15:5 21:7 22:16 23:7 29:13 30:16 31:2 34:9 35:13 36:13 37:16 38:12 39:2 42:2 43:12 44:14 45:16 46:16 47:15 52:15 53:13 59:3 60:16 61:8 #
0.50000003576649798553432901826454 3:3 4:13 5:16 6:9 7:1 10:3 11:13 12:14 13:7 14:16 15:6 18:6 19:16 20:4 21:5 22:16 23:3 26:6 27:16 28:8 29:15 30:11 34:1 35:16 36:16 37:13 38:1 42:4 43:16 44:16 45:14 46:2 50:2 51:16 52:15 53:16 54:10 59:5 60:14 61:16 62:11 #
0.50000003576649798553432901826454 2:1 3:8 4:15 5:15 6:6 10:10 11:16 12:15 13:15 14:14 18:4 19:13 20:7 21:16 22:7 26:2 27:14 28:16 29:14 30:1 35:3 36:16 37:7 43:11 44:16 45:15 51:13 52:16 53:16 54:3 59:7 60:16 61:15 62:1 #
0.50000003576649798553432901826454 3:7 4:11 5:12 6:11 7:3 11:15 12:16 13:7 14:10 15:11 19:10 20:12 21:5 22:13 23:9 27:3 28:16 29:16 30:10 31:1 35:8 36:13 37:13 38:3 43:15 45:11 46:5 50:1 51:13 53:10 54:9 59:10 60:16 61:12 62:1 #
-0.24105299684531905635154203082493 2:1 3:8 4:10 5:3 10:2 11:15 12:16 13:16 14:12 18:1 19:14 20:16 21:16 22:12 26:4 27:16 28:16 29:16 30:8 34:4 35:16 36:16 37:16 38:6 42:4 43:16 44:16 45:15 46:3 50:4 51:16 52:16 53:13 54:2 58:1 59:7 60:10 61:8 62:2 #
-0.17500105341342905851398370487004 4:13 5:13 6:1 11:11 12:14 13:15 14:8 18:6 19:16 20:3 21:10 22:7 26:8 27:16 28:4 29:12 30:8 34:1 35:3 36:4 37:15 38:1 43:2 44:13 45:12 51:11 52:16 53:16 54:12 55:7 59:3 60:9 61:8 62:11 63:13 #
-0.14295408461242625763887303946831 3:8 4:15 5:15 6:12 7:4 11:15 12:4 13:3 14:10 15:16 19:8 20:14 21:12 22:16 23:12 28:2 29:4 30:9 31:8 38:9 39:7 42:1 43:1 46:12 47:4 50:7 51:11 52:1 53:4 54:12 55:1 59:10 60:16 61:13 62:3 #
0.50000003576649798553432901826454 3:4 4:10 5:14 6:5 11:13 12:10 14:14 15:4 18:6 19:15 21:9 22:15 23:2 26:6 27:16 28:16 29:16 30:13 35:12 36:15 37:7 38:12 39:4 43:10 44:9 46:10 47:7 51:11 52:9 53:7 54:15 55:3 59:5 60:15 61:12 62:3 #
0.50000003576649798553432901826454 3:4 4:12 5:6 11:16 12:10 13:16 14:1 19:16 20:5 21:14 22:13 27:7 28:16 29:15 30:4 35:4 36:16 37:9 43:13 44:13 45:15 46:4 51:16 52:8 53:9 54:15 55:2 59:5 60:12 61:12 62:8 63:1 #
0.50000003576649798553432901826454 3:12 4:14 5:8 6:3 10:3 11:16 12:15 13:16 14:16 15:3 19:14 20:12 21:14 22:13 23:1 27:7 28:16 29:16 30:3 35:12 36:16 37:16 38:2 42:1 43:15 44:4 45:9 46:14 50:3 51:15 52:4 53:5 54:16 55:1 58:1 59:12 60:16 61:16 62:12 #
-0.058745381748126872245574503494936 3:7 4:14 5:7 10:6 11:16 12:16 13:8 18:3 19:7 20:13 21:10 28:13 29:8 35:6 36:15 37:4 43:12 44:11 51:14 52:15 53:12 54:16 55:6 59:6 60:14 61:11 62:6 63:1 #
-0.11507164297847653766648789996907 3:2 4:14 5:16 6:16 7:14 11:2 12:6 13:4 14:9 15:16 16:6 22:4 23:16 24:4 30:8 31:15 32:1 35:2 36:15 37:13 38:15 39:8 43:3 44:8 45:14 46:14 47:2 52:5 53:16 54:1 59:2 60:16 61:6 #
-0.13771859453390722372034815634834 3:4 4:10 11:2 12:15 13:2 19:2 20:16 21:4 27:7 28:16 29:9 35:14 36:14 37:14 43:3 44:3 45:16 46:3 51:1 52:7 53:14 54:11 55:4 59:4 60:14 61:16 62:13 63:14 64:8 #
0.50000003576649798553432901826454 2:2 3:14 4:14 5:1 10:4 11:16 12:11 13:4 14:6 18:4 19:16 20:4 21:12 22:16 23:2 27:13 28:16 29:16 30:6 35:13 36:16 37:10 43:15 44:16 45:4 50:4 51:16 52:16 53:7 58:2 59:13 60:15 61:1 #
0.50000003576649798553432901826454 3:9 4:16 5:12 6:4 10:3 11:16 12:16 13:16 14:16 15:3 18:5 19:16 20:1 21:1 22:13 23:8 26:1 27:14 28:10 29:10 30:16 31:6 35:6 36:16 37:16 38:8 42:1 43:14 44:16 45:12 50:4 51:16 52:10 53:16 54:4 58:1 59:11 60:16 61:13 62:1 #
0.50000003576649798553432901826454 3:8 4:15 5:16 6:13 10:3 11:16 12:4 13:1 14:16 15:4 19:15 20:5 21:1 22:16 23:8 27:14 28:11 29:16 30:8 35:6 36:16 37:8 43:10 44:16 45:8 51:16 52:14 53:16 54:2 59:8 60:16 61:15 62:2 #
-0.12261750348432032264867075355141 2:1 3:6 4:9 5:15 6:16 7:14 10:4 11:16 12:16 13:10 14:7 15:2 18:8 19:16 20:13 21:3 26:10 27:14 28:14 29:14 34:1 35:1 36:1 37:16 44:1 45:16 51:3 52:10 53:14 59:15 60:14 61:3 #
-0.12390839905793143982393189617142 2:1 4:6 5:16 6:8 10:11 11:7 12:13 13:3 14:13 15:2 18:11 19:14 20:4 22:8 23:4 26:9 27:7 30:5 31:7 34:6 35:9 38:5 39:8 43:13 44:4 46:11 47:9 51:6 52:14 53:11 54:16 55:7 60:5 61:16 62:10 #
-0.14397942559559681607872505537671 3:14 4:5 11:13 12:8 19:16 20:7 27:15 28:8 34:2 35:16 36:5 37:15 38:3 42:2 43:16 44:9 45:14 46:11 47:1 50:6 51:16 52:16 53:16 54:16 55:15 58:1 59:8 60:5 61:7 62:16 63:8 #
0.50000003576649798553432901826454 3:8 4:9 5:15 6:11 10:9 11:15 12:15 13:4 14:15 15:2 18:8 19:9 21:8 22:12 26:2 27:14 28:11 29:14 30:2 35:11 36:16 37:7 43:14 44:2 45:13 46:6 50:2 51:12 52:1 53:8 54:12 59:8 60:16 61:14 62:5 #
0.50000003576649798553432901826454 3:5 4:12 5:8 6:2 11:12 12:6 13:8 14:13 18:2 19:10 22:12 23:2 27:14 28:12 29:12 30:10 35:1 36:15 37:16 38:7 43:14 44:8 46:9 47:1 51:14 52:2 53:1 54:12 55:2 59:8 60:12 61:12 62:6 #
0.50000003576649798553432901826454 4:7 5:15 6:14 7:2 10:4 11:13 12:9 13:8 14:16 15:4 18:7 19:16 20:6 21:3 22:16 23:3 27:7 28:16 29:16 30:8 35:1 36:16 37:14 38:14 43:7 44:11 46:15 47:8 51:6 52:15 53:5 54:15 55:5 60:9 61:14 62:7 #
-0.14045362510929557120498145650345 4:8 5:14 6:15 7:2 11:9 12:12 13:4 14:13 15:7 19:14 20:13 21:8 22:14 23:3 27:3 28:16 29:16 30:16 31:2 38:15 43:3 45:1 46:16 47:1 51:14 52:13 53:9 54:14 59:2 60:10 61:12 62:4 #
-0.11515240121673737949681282088932 3:3 4:15 5:15 6:5 11:13 12:13 13:10 14:15 19:12 20:14 21:13 22:16 23:5 27:1 28:8 29:8 30:14 31:6 38:8 39:12 43:1 46:3 47:16 48:1 50:1 51:14 52:2 54:3 55:16 56:2 59:3 60:15 61:16 62:16 63:13 64:1 #
-0.096714908840623808883307788164529 3:14 4:3 10:6 11:16 12:2 18:8 19:16 26:8 27:16 28:4 29:3 34:8 35:16 36:16 37:16 38:14 39:1 42:8 43:16 44:5 45:5 46:16 47:8 50:4 51:16 52:2 53:7 54:16 55:2 59:12 60:16 61:15 62:7 #
0.50000003576649798553432901826454 3:4 4:12 5:14 6:6 10:5 11:16 12:11 13:9 14:16 15:2 18:12 19:16 20:2 21:4 22:16 23:3 26:6 27:16 28:14 29:14 30:14 35:1 36:11 37:16 38:1 43:1 44:14 45:16 46:9 51:5 52:16 53:9 54:15 55:1 59:2 60:12 61:13 62:8 #
0.50000003576649798553432901826454 3:8 4:16 5:10 6:1 11:15 12:6 13:13 14:4 19:15 20:3 21:12 22:2 27:6 28:16 29:13 35:2 36:14 37:14 38:6 42:1 43:13 44:3 45:1 46:13 47:3 50:3 51:14 54:5 55:7 59:6 60:13 61:12 62:15 63:5 #
0.50000003576649798553432901826454 3:6 4:12 5:7 10:2 11:15 12:13 13:15 14:13 18:8 19:13 21:9 22:15 26:1 27:15 28:7 29:14 30:11 35:6 36:16 37:16 38:1 43:5 44:16 45:16 46:14 51:11 52:16 53:16 54:16 55:4 59:3 60:7 61:12 62:12 63:3 #
-0.14515697556569337467458069568238 3:8 4:13 5:8 10:4 11:13 12:6 13:14 14:3 18:7 19:8 21:12 22:5 26:3 27:10 28:8 29:16 30:1 36:5 37:14 38:12 46:13 47:8 51:10 52:10 54:6 55:12 59:4 60:15 61:16 62:16 63:6 #
-0.12026758779129481657932387861365 3:10 4:16 7:12 8:6 10:2 11:15 12:9 14:8 15:16 16:5 18:6 19:16 20:6 21:1 22:14 23:13 26:7 27:16 28:11 29:11 30:16 31:13 34:1 35:11 36:14 37:16 38:12 39:2 44:11 45:14 46:1 51:2 52:16 53:5 59:13 60:10 #
-0.15175964730486035669798638991779 4:3 5:15 6:16 7:3 12:12 13:10 14:15 15:3 20:2 21:6 22:14 28:1 29:15 30:5 35:1 36:13 37:9 42:1 43:12 44:12 45:1 50:9 51:16 52:16 53:16 54:13 55:5 58:2 59:4 60:5 61:10 62:13 63:12 #
0.50000003576649798553432901826454 3:9 4:13 5:16 6:12 7:1 10:5 11:16 12:14 13:16 14:16 15:4 18:4 19:16 21:13 22:13 23:1 26:2 27:14 28:14 29:15 30:3 35:8 36:16 37:4 43:15 44:16 45:5 50:1 51:16 52:16 53:7 59:12 60:16 61:6 #
0.50000003576649798553432901826454 2:1 3:11 4:16 5:11 6:11 10:10 11:14 12:4 13:8 14:14 18:5 19:16 20:1 21:13 22:11 27:8 28:16 29:15 30:1 35:7 36:16 37:10 43:14 44:11 45:16 50:2 51:16 52:11 53:12 59:12 60:15 61:4 #
0.50000003576649798553432901826454 3:4 4:14 5:11 6:3 11:14 12:4 13:8 14:3 19:15 20:1 21:7 22:14 23:10 27:5 28:16 29:12 35:3 36:16 37:9 43:9 44:7 45:13 51:11 52:10 53:13 59:5 60:15 61:11 #
-0.11210584758173600117281409893621 3:3 4:10 5:13 6:1 10:2 11:15 12:10 13:16 14:3 18:2 19:4 20:1 21:16 22:4 28:7 29:16 35:7 36:14 37:16 38:12 39:3 42:2 43:13 44:15 45:13 46:9 47:2 52:13 53:8 59:1 60:15 61:3 #
-0.097340265944105761053428693685419 4:9 5:14 12:13 13:11 15:4 19:2 20:16 21:6 22:6 23:15 27:9 28:14 30:14 31:10 34:12 35:16 36:14 37:13 38:15 39:1 42:11 43:14 44:14 45:16 46:12 52:7 53:16 54:5 60:14 61:13 #
-0.12120741035828043463684622338405 3:8 4:16 5:13 10:1 11:13 12:9 13:16 14:4 21:14 22:7 23:5 27:3 28:8 29:15 30:16 31:12 34:11 35:16 36:16 37:14 38:7 39:1 42:7 43:2 44:15 45:4 51:5 52:15 53:2 59:12 60:11 #
0.50000003576649798553432901826454 2:2 3:11 4:14 5:12 6:9 10:8 11:13 12:6 13:9 14:14 15:4 18:5 19:16 20:5 21:1 22:14 23:6 27:8 28:16 29:16 30:13 31:1 35:3 36:16 37:16 38:10 42:1 43:14 44:9 45:7 46:13 50:1 51:16 52:5 53:7 54:16 55:1 59:14 60:16 61:16 62:9 #
0.50000003576649798553432901826454 3:3 4:15 5:15 6:3 11:11 12:14 13:7 14:13 19:11 20:11 21:12 22:16 27:3 28:16 29:16 30:16 35:6 36:16 37:14 38:1 43:16 44:10 45:15 46:1 51:14 52:6 53:14 54:3 59:4 60:15 61:16 62:4 #
0.50000003576649798553432901826454 3:2 4:16 5:15 6:6 10:7 11:11 12:15 13:12 14:16 18:9 19:16 20:10 21:10 22:16 23:1 27:11 28:16 29:16 30:6 35:15 36:16 37:15 38:2 43:14 44:5 45:10 46:13 47:1 51:11 52:11 53:6 54:16 55:7 59:3 60:11 61:16 62:12 63:3 #
-0.073602520628076761877167655256926 4:9 5:10 11:2 12:15 13:9 19:6 20:16 21:6 27:13 28:13 29:5 30:1 34:3 35:16 36:7 37:16 38:8 41:1 42:13 43:16 44:10 45:16 46:12 50:13 51:16 52:16 53:16 54:16 55:3 58:2 59:4 60:10 61:16 62:2 #
-0.13391339078452194066848335296527 5:3 6:16 7:6 12:5 13:15 14:16 15:9 18:1 19:10 20:16 21:15 22:16 23:8 26:10 27:16 28:12 29:2 30:16 31:5 34:1 35:6 37:4 38:16 39:4 45:5 46:16 47:1 53:6 54:16 55:3 61:3 62:16 63:9 #
-0.13829724905549148350480948010954 3:4 4:15 5:6 11:13 12:13 13:16 18:4 19:15 20:1 21:16 22:2 28:2 29:16 36:8 37:12 42:1 43:12 44:16 45:6 46:4 50:7 51:16 52:16 53:16 54:16 55:6 59:2 61:4 62:8 63:3 #
0.50000003576649798553432901826454 3:3 4:11 5:12 6:4 10:6 11:15 12:6 13:5 14:13 18:7 19:13 21:2 22:16 23:1 26:3 27:16 28:16 29:16 30:14 35:15 36:13 37:8 38:13 39:6 43:12 44:1 46:3 47:9 51:9 52:12 53:8 54:14 55:11 59:5 60:13 61:12 62:9 63:1 #
0.50000003576649798553432901826454 2:1 3:9 4:13 5:11 6:4 10:2 11:16 12:12 13:12 14:15 19:14 20:13 21:13 22:11 27:12 28:16 29:13 35:14 36:16 37:11 42:6 43:13 44:7 45:16 46:4 50:7 51:14 52:1 53:13 54:15 55:1 58:1 59:13 60:15 61:12 62:9 #
0.50000003576649798553432901826454 3:3 4:14 5:9 6:2 10:3 11:16 12:12 13:7 14:13 18:3 19:14 20:1 21:8 22:14 27:6 28:14 29:16 30:2 35:2 36:16 37:15 38:9 43:12 44:10 45:1 46:10 47:9 51:11 52:7 54:7 55:13 59:1 60:11 61:16 62:15 63:4 #
-0.16306529510358261370051025096473 3:4 4:16 5:14 6:2 11:16 12:11 13:11 14:10 18:1 19:4 20:1 21:11 22:10 27:1 28:11 29:16 30:6 35:6 36:16 37:14 38:13 39:2 43:1 44:2 45:1 46:10 47:11 51:7 52:11 53:6 54:13 55:14 59:3 60:12 61:16 62:15 63:7 #
-0.16686551710154767791394192499865 3:4 4:13 5:11 6:1 10:9 11:15 12:10 13:12 14:8 18:8 19:10 21:6 22:9 28:1 29:16 30:3 36:14 37:16 38:13 39:3 43:6 44:2 45:4 46:8 47:12 50:1 51:15 52:4 53:5 54:12 55:12 59:7 60:13 61:16 62:13 63:1 #
-0.11870207635932668310818627332992 4:9 5:16 6:10 11:3 12:15 13:12 14:15 15:4 18:1 19:12 20:14 21:1 22:15 23:11 26:8 27:16 28:12 29:14 30:16 31:7 34:7 35:16 36:16 37:16 38:12 43:7 44:8 45:16 46:5 52:8 53:13 60:9 61:11 #
0.50000003576649798553432901826454 2:2 3:14 4:12 5:16 6:13 7:1 10:4 11:16 12:15 13:4 14:10 15:7 18:2 19:16 20:5 21:2 22:14 23:2 27:9 28:12 29:14 30:6 35:2 36:16 37:11 43:11 44:13 45:12 50:2 51:13 53:15 58:2 59:14 60:15 61:10 #
0.50000003576649798553432901826454 3:7 4:16 5:12 6:5 11:13 12:10 13:7 14:15 19:10 20:15 21:12 22:13 28:13 29:16 30:5 35:8 36:15 37:10 38:8 43:13 44:5 46:13 47:1 51:14 52:2 53:4 54:15 55:1 59:6 60:16 61:16 62:6 #
0.50000003576649798553432901826454 3:5 4:3 5:10 6:10 10:4 11:16 12:13 13:14 14:13 18:4 19:14 21:8 22:8 26:1 27:13 28:13 29:15 36:14 37:16 38:1 43:13 44:13 45:8 46:5 50:1 51:13 52:10 53:8 54:10 59:2 60:13 61:16 62:6 #
-0.16702571072168270749358498505899 3:11 4:14 5:10 6:3 11:6 12:8 13:12 14:15 15:3 21:6 22:16 23:5 28:6 29:15 30:12 31:1 35:5 36:16 37:13 38:1 43:15 44:13 50:5 51:16 52:8 53:4 54:2 58:1 59:10 60:16 61:16 62:10 #
-0.12960309488384813558781161191291 3:4 4:14 5:15 6:5 10:7 11:14 12:7 13:6 14:16 18:10 19:6 22:11 23:3 26:4 27:2 29:1 30:14 37:10 38:7 44:5 45:13 46:1 51:6 52:16 53:8 59:5 60:9 61:12 62:12 63:16 64:2 #
-0.13330333321656484546480214703479 4:15 5:10 11:4 12:16 13:16 14:7 19:3 20:16 21:16 22:10 27:3 28:16 29:16 30:14 35:4 36:16 37:16 38:16 39:2 43:10 44:16 45:16 46:16 47:5 51:9 52:16 53:16 54:16 55:9 59:1 60:8 61:3 62:7 63:16 64:2 #
0.50000003576649798553432901826454 3:5 4:15 5:13 6:8 7:3 11:14 12:14 13:10 14:16 15:11 19:11 20:13 21:5 22:12 23:12 27:6 28:16 29:16 30:8 31:1 34:1 35:13 36:13 37:14 42:6 43:10 44:1 45:15 46:7 50:5 51:15 52:7 53:11 54:13 59:6 60:12 61:16 62:10 #
0.50000003576649798553432901826454 3:8 4:13 5:9 10:5 11:16 12:13 13:12 14:2 18:8 19:13 20:2 21:7 22:10 23:2 26:4 27:15 28:15 29:16 30:9 34:1 35:14 36:16 43:16 44:14 45:5 50:2 51:13 52:10 53:12 59:9 60:16 61:8 #
0.50000003576649798553432901826454 3:4 4:12 5:9 10:4 11:13 12:7 13:15 14:4 18:7 19:11 21:8 22:10 26:2 27:16 28:16 29:16 30:7 35:6 36:16 37:16 38:15 39:2 43:8 44:11 45:1 46:6 47:8 51:8 52:12 53:8 54:13 55:6 59:4 60:16 61:13 62:8 #
-0.13140040029736882454258761754318 3:9 4:16 5:16 6:16 7:7 10:5 11:16 12:13 13:6 14:2 15:1 18:11 19:15 20:14 21:8 26:6 27:15 28:12 29:16 30:8 37:10 38:15 42:1 43:13 44:3 45:5 46:15 50:3 51:16 52:9 53:15 54:9 59:8 60:16 61:14 62:1 #
-0.095626318599032159029071920031129 3:6 4:15 5:8 10:4 11:16 12:13 13:16 14:2 18:6 19:15 21:13 22:13 26:8 27:10 29:7 30:16 31:5 34:8 35:8 37:6 38:16 39:3 42:7 43:11 45:7 46:15 51:14 52:10 53:13 54:11 59:6 60:14 61:12 62:2 #
-0.10983024726456297459620259360236 5:13 6:7 13:14 14:7 20:3 21:15 22:2 27:1 28:13 29:7 30:11 31:2 34:5 35:14 36:16 37:10 38:16 39:2 42:15 43:16 44:16 45:16 46:15 47:1 53:10 54:12 61:15 62:7 #
0.50000003576649798553432901826454 3:8 4:14 5:13 6:3 11:16 12:16 13:16 14:15 19:13 20:12 21:4 22:16 23:2 27:2 28:15 29:14 30:15 31:2 35:4 36:15 37:16 38:7 43:15 44:14 45:8 46:15 47:4 50:4 51:16 52:12 53:6 54:16 55:7 59:6 60:13 61:12 62:8 #
0.50000003576649798553432901826454 3:1 4:9 5:15 6:13 7:1 11:11 12:12 13:6 14:16 15:4 18:10 19:15 20:1 21:7 22:14 26:3 27:15 28:14 29:15 30:3 35:1 36:12 37:15 38:3 44:12 45:8 46:13 47:1 52:12 53:6 54:16 55:2 60:9 61:15 62:6 #
0.50000003576649798553432901826454 3:4 4:10 5:14 6:3 10:6 11:14 12:8 13:11 14:15 18:8 19:8 21:7 22:14 26:3 27:14 28:12 29:14 30:2 34:1 35:15 36:15 37:8 42:3 43:13 45:10 46:10 51:11 52:3 53:1 54:15 55:3 59:3 60:12 61:13 62:14 #
-0.13145348419760005675982483808184 3:2 4:16 5:16 6:4 11:8 12:16 13:16 14:12 19:14 20:16 21:16 26:2 27:16 28:16 29:14 30:4 34:8 35:16 36:16 37:10 38:2 42:8 43:16 44:16 45:14 46:2 51:16 52:16 53:16 54:14 55:2 59:2 60:8 61:16 62:10 #
-0.2292290473644685577792046160539 3:2 4:8 5:15 6:11 10:2 11:15 12:14 13:12 14:16 15:4 18:2 19:7 21:10 22:15 28:3 29:15 30:3 36:13 37:9 44:4 45:14 46:5 50:2 51:10 52:8 53:7 54:16 55:6 59:4 60:9 61:13 62:15 63:7 #
-0.17823888997994549732162283817161 2:1 3:9 4:12 5:15 6:14 7:4 10:6 11:14 12:4 13:4 14:14 15:8 18:3 19:8 21:7 22:15 23:2 28:6 29:14 30:2 36:8 37:11 44:1 45:15 46:2 51:5 53:12 54:9 59:11 60:16 61:14 62:3 #
0.50000003576649798553432901826454 3:7 4:16 5:13 6:2 10:2 11:16 12:12 13:13 14:12 18:14 19:15 20:4 21:15 22:8 26:5 27:15 28:16 29:15 30:4 35:10 36:16 37:13 43:15 44:10 45:14 46:2 51:13 52:3 53:12 54:6 59:4 60:15 61:15 62:3 #
0.50000003576649798553432901826454 3:5 4:12 5:9 6:1 10:4 11:16 12:9 13:11 14:6 15:1 18:1 19:15 20:4 21:1 22:12 23:4 27:6 28:6 29:13 30:14 35:3 36:16 37:16 38:4 43:7 44:16 45:16 46:1 51:10 52:16 53:16 54:7 59:8 60:12 61:12 62:4 #
0.50000003576649798553432901826454 3:7 4:16 5:7 10:4 11:16 12:9 13:10 14:11 15:2 18:11 19:10 21:11 22:14 23:1 26:6 27:14 28:7 29:14 30:7 35:11 36:16 37:12 43:13 44:12 45:15 46:1 50:4 51:16 52:7 53:14 54:2 59:8 60:16 61:10 #
-0.13495156850393030811829930826207 3:10 4:16 5:9 10:2 11:16 12:16 13:16 14:2 19:8 20:1 21:15 22:8 29:14 30:9 36:1 37:16 38:10 44:9 45:16 46:16 47:7 51:8 52:16 53:15 54:12 55:15 56:5 59:13 60:15 61:1 63:5 64:6 #
-0.049129943862237679397253486968111 3:11 4:15 5:16 6:16 7:16 8:7 11:14 12:14 13:12 14:16 15:16 16:3 19:1 21:4 22:16 23:6 29:13 30:12 36:7 37:15 38:4 43:3 44:16 45:9 51:11 52:16 53:5 59:15 60:15 #
-0.14430121807825890822840619875933 2:2 3:15 4:16 5:6 10:3 11:14 12:14 13:16 14:2 20:6 21:16 22:2 28:11 29:16 30:1 34:8 35:14 36:16 37:16 38:16 39:5 42:10 43:16 44:15 45:11 46:12 47:5 50:5 51:16 52:7 58:5 59:14 60:1 #
0.50000003576649798553432901826454 3:6 4:12 5:16 6:10 11:12 12:8 13:11 14:13 18:5 19:13 20:3 21:15 22:5 26:4 27:15 28:16 29:11 35:8 36:14 37:15 38:11 43:11 44:5 45:2 46:15 47:7 51:12 52:5 53:4 54:13 55:8 59:6 60:15 61:16 62:14 63:3 #
0.50000003576649798553432901826454 3:2 4:11 5:16 6:13 7:1 10:1 11:16 12:11 13:4 14:12 15:8 19:14 20:8 21:3 22:11 23:8 27:13 28:16 29:16 30:14 31:1 35:10 36:16 37:10 38:15 39:3 43:14 44:7 46:10 47:5 51:11 52:12 53:8 54:14 55:4 59:3 60:14 61:12 62:10 63:1 #
0.50000003576649798553432901826454 3:11 4:7 5:10 6:3 11:9 12:12 13:12 14:14 20:15 21:15 22:11 23:1 27:1 28:14 29:9 35:9 36:13 37:8 43:14 44:5 45:10 51:14 52:2 53:12 59:10 60:16 61:10 #
-0.12295261158169573656451234455744 4:2 5:11 6:13 7:2 11:2 12:13 13:16 14:16 15:2 18:3 19:15 20:14 21:13 22:16 27:6 29:15 30:9 37:16 38:6 44:4 45:16 52:5 53:16 54:3 60:3 61:16 62:6 #
0.50000003576649798553432901826454 3:3 4:12 5:15 6:7 11:4 12:9 13:3 14:12 19:13 20:5 21:11 22:5 27:3 28:16 29:11 35:2 36:16 37:9 43:10 44:6 45:11 46:6 51:13 52:3 53:7 54:12 59:4 60:15 61:13 62:8 #
-0.12053699358654566820003850580179 5:8 6:16 7:11 12:13 13:9 14:8 15:14 16:1 19:10 20:8 22:5 23:16 24:4 26:2 27:15 28:8 29:14 30:14 31:12 34:2 35:12 36:9 37:2 38:10 39:6 45:2 46:14 53:9 54:7 61:13 62:1 #
-0.14835152352528213626214892428834 4:8 5:15 6:16 7:7 10:1 11:14 12:9 13:1 15:8 18:6 19:12 22:10 23:8 26:4 27:14 28:12 29:13 30:14 31:8 37:1 38:4 39:8 46:4 47:8 54:7 55:8 60:8 61:12 62:15 63:6 #
0.50000003576649798553432901826454 3:2 4:11 5:16 6:10 11:14 12:12 13:8 14:12 15:9 18:4 19:16 20:5 21:2 22:14 23:9 26:4 27:16 28:16 29:15 30:10 31:2 35:3 36:16 37:15 43:8 44:15 45:14 51:9 52:16 53:16 54:4 59:1 60:14 61:11 62:2 #
0.50000003576649798553432901826454 3:5 4:13 5:12 6:9 10:2 11:14 12:4 13:1 14:16 15:4 18:7 19:10 21:3 22:16 23:1 26:5 27:14 28:8 29:15 30:6 35:6 36:16 37:13 43:11 44:8 45:13 46:5 51:13 52:1 53:1 54:15 59:6 60:14 61:14 62:10 #
-0.11578007812338141080399367410791 3:11 4:12 5:12 6:13 7:16 8:8 11:9 12:12 13:12 14:13 15:16 16:4 21:2 22:16 23:11 29:13 30:14 31:1 37:14 38:14 45:6 46:16 47:6 51:1 52:4 53:9 54:16 55:4 59:14 60:16 61:15 62:6 #
-0.16448481309959669949272154099162 3:15 4:2 10:5 11:16 12:15 13:11 14:5 18:7 19:16 20:15 21:12 22:13 23:4 26:1 27:15 28:7 35:5 36:16 37:5 44:10 45:14 51:1 52:12 53:15 59:11 60:16 61:6 #
-0.13478359576803958241875136536692 2:2 3:7 4:14 5:16 6:12 10:9 11:16 12:16 13:15 14:13 15:2 18:3 19:16 20:7 21:2 27:13 28:9 35:7 36:15 37:1 43:2 44:15 45:5 50:1 51:16 52:16 53:7 59:9 60:16 61:4 #
0.50000003576649798553432901826454 3:5 4:12 5:10 10:2 11:16 12:9 13:11 14:2 19:16 20:5 21:8 22:14 26:1 27:14 28:16 29:16 30:3 35:3 36:16 37:16 38:4 43:11 44:12 45:15 46:11 50:2 51:16 52:7 53:2 54:16 55:2 59:9 60:15 61:13 62:11 63:1 #
0.50000003576649798553432901826454 3:2 4:11 5:9 11:12 12:7 13:8 14:8 18:6 19:16 20:3 21:9 22:11 26:1 27:13 28:16 29:16 30:14 31:2 35:4 36:16 37:8 38:10 39:5 43:8 44:11 46:4 47:6 51:10 52:9 54:8 55:5 59:3 60:11 61:12 62:6 #
0.50000003576649798553432901826454 3:3 4:12 5:6 11:16 12:16 13:16 14:8 19:14 20:14 21:7 22:15 27:5 28:16 29:15 30:8 36:13 37:16 42:2 43:14 44:10 45:13 46:7 50:3 51:15 52:7 53:9 54:15 59:5 60:12 61:11 62:5 #
-0.17992079198822041874450405885 3:2 4:12 5:14 6:5 10:2 11:15 12:6 13:8 14:14 15:6 18:5 19:9 21:5 22:16 23:4 26:5 27:9 28:4 29:15 30:12 35:14 36:13 37:16 38:5 44:4 45:12 52:11 53:5 59:2 60:15 61:4 #
-0.1415468392776276229660936678556 2:5 3:14 4:10 5:4 10:3 11:12 12:16 13:16 14:6 19:1 20:13 21:16 22:5 27:8 28:16 29:13 30:2 35:5 36:16 37:13 38:2 44:6 45:16 46:15 47:4 50:1 51:8 52:9 53:15 54:16 55:5 58:4 59:15 60:14 61:8 62:4 #
-0.10020908402291184291499348546495 3:7 4:13 7:3 8:8 11:15 12:7 14:3 15:15 16:7 19:16 20:12 21:6 22:14 23:9 27:6 28:12 29:16 30:12 36:2 37:14 38:2 44:9 45:9 51:2 52:13 53:1 59:8 60:5 #
0.50000003576649798553432901826454 3:6 4:15 5:15 6:11 7:5 11:14 12:8 13:12 14:15 15:13 18:2 19:16 20:3 22:11 23:12 27:13 28:16 29:15 30:13 31:1 35:6 36:16 37:16 38:7 43:13 44:5 45:11 46:12 51:13 52:11 53:9 54:16 55:2 59:6 60:14 61:15 62:7 #
0.50000003576649798553432901826454 3:9 4:16 5:11 6:5 10:5 11:16 12:10 13:9 14:16 15:3 18:8 19:12 22:12 23:2 26:5 27:16 28:12 29:15 30:16 31:7 35:11 36:16 37:16 38:5 42:1 43:15 44:11 45:13 46:10 50:3 51:16 52:6 53:11 54:12 59:10 60:16 61:13 62:4 #
0.50000003576649798553432901826454 3:1 4:8 5:12 6:7 10:2 11:15 12:8 13:5 14:14 19:11 20:5 21:3 22:15 27:1 28:14 29:16 30:12 35:5 36:15 37:15 38:9 42:1 43:15 44:6 45:1 46:12 47:1 51:12 52:11 53:1 54:12 55:5 59:1 60:8 61:8 62:9 63:3 #
-0.14549527224217340126699582469882 2:2 3:16 4:10 5:9 6:8 11:10 12:16 13:16 14:12 18:1 19:5 20:10 21:16 22:10 23:6 26:11 27:16 28:16 29:16 30:15 31:7 34:3 35:5 36:14 37:9 38:2 43:6 44:16 51:10 52:10 58:3 59:16 60:1 #
-0.12320729339410972646984276934745 2:1 3:10 4:16 5:16 6:12 7:2 10:8 11:11 12:8 13:5 14:12 15:8 18:1 21:5 22:15 23:7 27:10 28:15 29:16 30:9 35:5 36:9 37:16 38:9 45:3 46:16 50:1 51:8 52:2 53:5 54:16 58:2 59:14 60:16 61:12 62:5 #
-0.065544896120845394515974646765244 3:13 4:16 5:5 11:16 12:7 13:15 14:5 19:15 20:3 21:11 22:9 27:7 28:6 29:9 30:11 37:9 38:11 45:12 46:7 51:7 52:9 53:16 54:3 59:11 60:16 61:16 62:16 63:16 64:8 #
0.50000003576649798553432901826454 3:6 4:15 5:11 6:8 7:3 10:2 11:16 12:16 13:16 14:16 15:11 19:15 20:11 21:7 22:16 23:8 27:8 28:16 29:15 30:4 35:5 36:16 37:7 43:15 44:15 45:13 50:1 51:16 52:11 53:16 54:2 59:12 60:16 61:12 #
0.50000003576649798553432901826454 3:5 4:13 5:16 6:7 11:15 12:8 13:11 14:12 19:12 20:5 21:14 22:5 27:10 28:16 29:8 35:9 36:16 37:2 43:15 44:15 45:6 51:14 52:13 53:10 59:8 60:16 61:4 #
0.50000003576649798553432901826454 3:2 4:8 5:13 6:13 7:2 10:6 11:14 12:14 13:11 14:15 15:3 18:10 19:14 20:4 21:10 22:6 26:1 27:14 28:12 29:13 35:9 36:15 37:11 43:13 44:2 45:11 46:8 51:8 52:10 53:4 54:14 55:3 59:1 60:8 61:14 62:14 63:1 #
-0.1439153479884828779056249459245 4:9 5:14 6:14 7:1 10:2 11:15 12:16 13:16 14:11 15:1 18:6 19:16 20:15 21:5 26:12 27:16 28:9 29:1 34:3 35:13 36:16 37:13 38:2 44:3 45:13 46:15 52:11 53:10 54:16 55:7 60:10 61:16 62:15 63:1 #
-0.11605457089320120322994966954866 4:12 5:16 6:15 7:3 11:4 12:10 13:12 14:11 15:2 18:6 19:14 26:8 27:16 28:15 29:5 34:1 35:8 36:13 37:16 38:2 45:10 46:9 51:5 52:11 53:13 54:11 59:1 60:14 61:12 62:2 #
-0.14343802620817014403797884369851 3:2 4:11 5:16 6:16 7:16 8:12 11:7 12:15 13:9 14:8 15:12 16:13 22:1 23:14 24:5 30:11 31:9 37:6 38:13 44:1 45:14 46:3 52:10 53:9 59:1 60:16 61:5 #
0.50000003576649798553432901826454 3:8 4:16 5:12 10:4 11:16 12:9 13:8 14:9 18:6 19:16 20:3 21:1 22:16 27:14 28:16 29:16 30:11 35:3 36:16 37:16 38:14 43:9 44:16 45:3 46:14 47:2 51:10 52:15 53:7 54:16 55:2 59:5 60:16 61:15 62:7 #
0.50000003576649798553432901826454 3:6 4:16 5:12 6:3 10:3 11:15 12:7 13:6 14:14 15:1 18:7 19:13 21:1 22:14 23:1 26:4 27:13 28:8 29:13 30:13 34:2 35:15 36:15 37:7 38:13 39:5 43:12 44:5 46:9 47:8 51:12 52:5 53:6 54:14 55:2 59:5 60:16 61:12 62:3 #
0.50000003576649798553432901826454 3:7 4:15 5:14 6:9 10:4 11:15 12:5 13:12 14:16 15:4 18:7 19:13 20:1 21:9 22:14 23:3 26:1 27:14 28:16 29:16 30:2 35:12 36:12 37:14 38:12 42:2 43:16 44:1 45:2 46:15 47:4 50:1 51:15 52:7 54:14 55:8 59:6 60:16 61:16 62:13 63:2 #
-0.26757304142885435238596869567118 3:6 4:15 5:11 6:1 11:15 12:7 13:13 14:15 15:2 18:5 19:14 21:2 22:16 23:4 26:3 27:15 28:8 29:10 30:16 31:4 35:6 36:12 37:10 38:14 39:8 42:2 43:3 46:12 47:7 50:9 51:15 52:8 53:8 54:16 55:3 59:7 60:15 61:15 62:4 #
-0.066721063257868404305916953944688 3:7 4:15 5:13 6:3 11:16 12:8 13:9 14:13 18:3 19:13 21:1 22:13 23:3 26:7 27:14 28:4 30:5 31:8 34:8 35:16 36:8 38:10 39:8 42:7 43:16 44:9 46:15 47:3 50:2 51:16 52:16 53:11 54:14 55:1 59:5 60:15 61:15 62:3 #
-0.11356439331108020285299176066474 4:11 5:13 6:1 11:12 12:14 13:9 14:2 18:4 19:15 20:3 26:7 27:12 28:12 29:12 30:6 31:1 34:7 35:16 36:13 37:8 38:12 39:7 42:4 43:16 44:6 46:7 47:11 51:12 52:10 53:5 54:16 55:6 59:2 60:10 61:15 62:10 #
0.50000003576649798553432901826454 3:2 4:14 5:16 6:7 11:8 12:16 13:8 14:16 15:2 19:4 20:16 21:13 22:16 23:6 28:15 29:16 30:9 35:5 36:16 37:16 38:6 42:1 43:15 44:8 45:9 46:12 50:1 51:16 52:11 53:9 54:16 55:2 59:3 60:12 61:13 62:11 #
0.50000003576649798553432901826454 3:2 4:12 5:15 6:5 11:13 12:5 13:5 14:10 15:4 19:14 20:1 21:3 22:15 23:7 27:12 28:10 29:10 30:7 35:1 36:15 37:11 43:4 44:14 45:14 51:6 52:10 53:12 54:1 59:1 60:15 61:11 #
0.50000003576649798553432901826454 3:8 4:15 5:16 6:7 10:5 11:16 12:11 13:1 14:12 19:14 20:4 21:12 22:7 27:3 28:14 29:12 30:1 35:2 36:15 37:7 43:11 44:10 45:12 51:13 52:3 53:16 59:7 60:14 61:12 #
-0.11007571403301377732653065777413 3:8 4:12 5:12 6:6 11:15 12:16 13:16 14:16 19:8 20:16 21:16 22:16 27:6 28:16 29:16 30:16 31:4 35:5 36:16 37:16 38:16 39:4 43:4 44:16 45:16 46:16 47:7 51:15 52:16 53:16 54:16 55:8 59:4 60:9 61:11 62:8 63:4 #
-0.11855593988054373422169618379485 4:3 5:11 6:15 7:1 11:6 12:16 13:16 14:16 15:9 18:2 19:16 20:16 21:16 22:13 23:14 27:11 28:8 29:1 30:9 31:9 37:1 38:15 45:6 46:10 53:12 54:3 61:13 #
-0.22195780570288259347933035314782 3:9 4:11 5:12 6:12 7:1 11:11 12:12 13:13 14:16 15:4 21:12 22:10 27:2 28:11 29:14 30:2 35:9 36:16 37:5 43:6 44:15 45:16 46:14 47:2 51:3 52:6 53:14 54:16 55:1 59:11 60:16 61:13 62:5 #
0.50000003576649798553432901826454 3:15 4:16 5:16 6:12 7:1 10:5 11:16 12:13 13:11 14:16 15:4 18:1 19:16 20:2 21:3 22:15 23:4 27:11 28:11 29:15 30:11 35:4 36:16 37:14 38:1 43:13 44:16 45:8 50:2 51:16 52:14 53:11 59:12 60:16 61:7 #
0.50000003576649798553432901826454 3:8 4:14 5:11 6:2 10:2 11:16 12:10 13:13 14:9 18:4 19:16 20:4 21:1 22:15 23:5 26:2 27:14 28:12 29:11 30:16 31:7 35:6 36:16 37:16 38:6 43:12 44:16 45:12 51:16 52:16 53:15 59:8 60:15 61:8 #
0.50000003576649798553432901826454 3:4 4:12 5:12 6:11 7:1 10:1 11:16 12:10 13:1 14:14 18:1 19:14 20:7 22:14 27:4 28:16 29:13 30:10 35:2 36:16 37:16 38:3 42:1 43:13 44:11 45:15 46:7 50:2 51:16 52:5 53:14 54:8 59:6 60:9 61:12 62:3 #
-0.11019928812297209719250901116538 2:1 3:11 4:9 5:14 6:11 7:1 10:8 11:16 12:14 13:14 14:16 15:2 18:7 19:16 21:11 22:12 26:1 27:1 28:1 29:15 30:5 36:10 37:14 43:2 44:15 45:5 51:12 52:16 53:4 59:15 60:11 61:1 #
-0.023247902703236407451203859864108 2:4 3:16 4:14 5:14 6:15 7:5 10:8 11:16 12:16 13:16 14:16 15:9 18:11 19:14 21:11 22:15 23:1 26:5 27:5 28:3 29:16 30:8 36:11 37:14 38:1 43:4 44:16 45:5 51:14 52:14 58:3 59:16 60:10 #
-0.063751672728256270072932920811581 2:4 3:16 4:9 10:9 11:16 12:16 13:3 18:12 19:8 20:16 21:4 26:5 27:2 28:16 29:5 36:16 37:4 43:3 44:16 45:4 50:5 51:15 52:16 53:13 54:12 55:8 58:4 59:16 60:16 61:16 62:16 63:12 #
0.50000003576649798553432901826454 3:1 4:9 5:12 6:8 11:11 12:13 13:8 14:12 19:11 20:7 21:14 22:6 27:5 28:16 29:9 35:10 36:15 37:5 43:13 44:1 45:10 46:1 51:13 52:1 53:8 54:5 59:3 60:14 61:15 62:3 #
0.50000003576649798553432901826454 3:13 4:16 5:13 6:6 11:15 12:14 13:15 14:15 15:3 19:10 20:11 21:7 22:13 23:1 28:13 29:16 30:7 35:10 36:16 37:13 43:15 44:4 45:14 46:3 50:3 51:12 52:4 53:16 54:1 58:1 59:12 60:15 61:6 #
0.50000003576649798553432901826454 3:3 4:11 5:12 6:12 7:1 11:15 12:12 13:4 14:14 15:2 19:15 20:12 21:5 22:16 23:4 27:6 28:16 29:16 30:13 31:1 35:8 36:15 37:14 38:13 39:1 42:1 43:15 44:4 45:3 46:16 47:6 50:3 51:16 52:5 53:6 54:15 55:1 59:9 60:14 61:13 62:6 #
-0.17081420381526515872572247189964 3:9 4:16 5:13 6:3 10:2 11:16 12:16 13:16 14:12 20:6 21:16 22:7 27:1 28:15 29:12 35:13 36:15 37:2 42:4 43:16 44:7 50:8 51:16 52:8 53:6 54:8 55:3 58:1 59:11 60:16 61:16 62:12 63:4 #
-0.037460663266781088487356043970067 3:1 4:16 5:12 6:1 12:16 13:16 14:5 19:2 20:16 21:16 22:7 27:4 28:16 29:16 35:9 36:16 37:12 43:13 44:16 45:8 51:10 52:16 53:10 59:2 60:15 61:16 62:5 #
-0.11716197169136108313658439783467 4:5 5:8 11:4 12:16 13:2 15:14 19:9 20:8 22:8 23:8 26:2 27:15 29:1 30:15 34:10 35:9 36:4 37:9 38:15 39:1 42:11 43:16 44:16 45:16 46:11 47:1 50:3 51:4 52:7 53:9 60:8 61:5 #
0.50000003576649798553432901826454 2:1 3:9 4:16 5:13 6:2 10:7 11:13 12:7 13:8 14:12 18:10 19:11 21:4 22:16 26:2 27:16 28:16 29:16 30:12 35:14 36:15 37:16 38:14 39:1 43:15 44:6 46:9 47:9 51:13 52:12 53:8 54:12 55:9 59:6 60:13 61:12 62:11 63:4 #
0.50000003576649798553432901826454 3:6 4:12 5:14 6:10 7:1 10:2 11:13 12:4 14:10 15:9 18:2 19:14 21:3 22:14 23:6 26:1 27:14 28:11 29:14 30:5 35:9 36:16 37:6 42:2 43:14 44:10 45:12 50:2 51:11 52:1 53:14 59:11 60:13 61:9 #
0.50000003576649798553432901826454 3:2 4:11 5:15 6:5 11:12 12:8 13:9 14:9 19:12 20:5 21:9 22:7 27:9 28:15 29:10 35:6 36:15 37:11 38:1 42:8 43:13 44:2 45:11 46:11 50:7 51:13 52:7 54:13 55:3 59:2 60:11 61:15 62:13 63:2 #
-0.096570684915314092267024648208462 5:7 6:15 7:2 13:8 14:16 15:5 20:1 21:13 22:14 26:8 27:16 28:16 29:16 30:12 35:3 37:16 38:12 45:12 46:15 53:9 54:16 55:2 61:6 62:16 63:8 #
-0.11568581229350514971709884548545 4:1 5:12 6:8 12:4 13:16 14:4 20:9 21:16 22:1 27:5 28:16 29:8 30:1 35:10 36:16 37:11 38:15 42:5 43:16 44:11 45:15 46:15 47:3 50:12 51:16 52:16 53:16 54:16 55:5 61:15 62:14 #
-0.13444947051961667061625860242202 2:1 3:13 4:16 5:15 6:1 10:10 11:15 12:7 13:16 14:4 18:11 19:15 20:7 21:16 22:4 26:1 27:11 28:12 29:15 35:1 36:16 37:11 43:7 44:16 45:4 51:14 52:16 53:5 54:3 59:13 60:16 61:16 62:16 63:10 #
0.50000003576649798553432901826454 2:1 3:9 4:15 5:12 6:5 10:10 11:16 12:14 13:16 14:16 15:1 18:2 19:14 20:12 21:15 22:14 27:7 28:16 29:15 30:5 35:7 36:16 37:12 43:14 44:16 45:13 51:16 52:15 53:16 54:4 59:12 60:16 61:13 62:2 #
0.50000003576649798553432901826454 3:11 4:13 5:8 10:5 11:16 12:11 13:16 14:16 15:6 18:7 19:16 20:1 21:9 22:15 23:3 26:1 27:13 28:14 29:13 30:14 35:4 36:16 37:16 38:5 43:14 44:10 45:13 46:10 50:4 51:16 52:6 53:10 54:12 58:1 59:11 60:16 61:15 62:5 #
0.50000003576649798553432901826454 3:5 4:14 5:13 6:2 10:3 11:14 12:5 13:8 14:12 18:3 19:9 21:12 22:4 26:1 27:14 28:9 29:13 35:2 36:14 37:12 43:4 44:14 45:14 46:3 51:10 52:7 53:12 54:6 59:6 60:16 61:13 62:1 #
-0.14689680017616210672137810888671 3:6 4:13 5:16 6:16 7:13 10:6 11:16 12:10 13:7 14:15 15:14 18:1 19:4 21:10 22:16 23:6 28:10 29:16 30:4 35:3 36:16 37:9 43:15 44:11 51:16 52:10 59:9 60:16 61:16 62:12 63:1 #
-0.094884686455815020478254950830888 2:7 3:16 4:16 5:16 6:9 10:3 11:8 12:4 13:13 14:16 20:8 21:16 22:6 28:4 29:16 30:4 37:11 38:15 39:5 45:1 46:13 47:15 51:5 52:9 53:15 54:16 55:10 58:4 59:16 60:16 61:10 62:3 #
-0.11677036286558682698366595786865 3:15 4:8 10:2 11:16 12:15 13:2 19:16 20:8 21:10 27:12 28:8 29:12 36:8 37:8 44:12 45:8 51:12 52:16 53:15 54:15 55:5 59:15 60:11 61:6 62:2 #
0.50000003576649798553432901826454 3:5 4:16 5:16 6:6 11:16 12:9 13:11 14:13 19:11 20:11 21:14 22:8 27:1 28:15 29:12 30:1 35:3 36:16 37:15 38:4 43:12 44:10 45:7 46:13 47:1 51:15 52:4 53:3 54:16 55:6 59:8 60:16 61:16 62:13 63:1 #
0.50000003576649798553432901826454 3:1 4:9 5:12 6:8 10:1 11:12 12:9 13:13 14:13 18:6 19:11 21:2 22:15 26:1 27:14 28:14 29:14 30:8 36:11 37:16 38:13 39:1 43:4 44:13 45:2 46:14 47:6 51:8 52:9 53:2 54:14 55:7 59:4 60:16 61:16 62:8 63:1 #
0.50000003576649798553432901826454 3:1 4:14 5:16 6:12 7:1 11:14 12:7 13:3 14:12 15:4 18:2 19:14 21:1 22:16 23:1 27:12 28:10 29:16 30:6 35:11 36:14 37:15 38:4 42:4 43:14 45:5 46:14 47:2 50:1 51:15 52:6 53:1 54:11 55:7 59:3 60:8 61:14 62:15 63:1 #
-0.067427329513014111483926171786152 3:4 4:13 5:8 11:14 12:16 13:16 14:5 18:4 19:16 20:7 21:8 22:15 27:15 28:12 29:15 30:16 31:4 35:5 36:14 37:14 38:16 39:6 46:13 47:8 54:10 55:13 59:5 60:14 61:16 62:15 63:8 #
-0.31815877264003877833431488397764 3:8 4:14 5:16 6:5 10:2 11:16 12:8 13:10 14:8 19:4 20:2 21:13 22:6 28:7 29:12 35:1 36:15 37:7 43:9 44:11 50:4 51:16 52:9 53:8 54:12 55:2 59:10 60:14 61:9 62:2 #
-0.13500747713596469856689452626597 3:10 4:16 5:16 6:16 7:14 10:4 11:16 12:11 13:7 14:3 15:2 18:10 19:11 26:7 27:15 28:9 29:8 30:2 34:1 35:11 36:12 37:15 38:14 39:1 45:1 46:15 47:6 50:2 51:12 52:6 54:15 55:6 59:9 60:14 61:16 62:15 63:2 #
0.50000003576649798553432901826454 3:9 4:16 5:16 6:9 11:13 12:13 13:15 14:16 19:9 20:16 21:16 22:7 27:4 28:16 29:12 35:10 36:15 37:14 38:1 43:14 44:7 45:12 46:5 51:15 52:9 53:16 54:5 59:9 60:16 61:14 62:1 #
0.50000003576649798553432901826454 3:5 4:11 5:12 6:9 11:12 12:14 13:5 14:16 18:1 19:16 20:5 21:6 22:11 27:16 28:8 29:15 30:3 35:9 36:16 37:9 42:1 43:11 44:4 45:13 46:4 50:3 51:13 52:2 53:4 54:14 59:5 60:8 61:11 62:11 #
0.50000003576649798553432901826454 3:5 4:12 5:14 6:3 10:3 11:14 12:2 13:4 14:11 18:4 19:12 21:5 22:16 23:4 26:1 27:14 28:6 29:14 30:4 35:7 36:16 37:4 43:7 44:16 45:4 51:10 52:13 53:11 59:7 60:16 61:11 #
-0.33707628759770763560155160121212 3:7 4:14 5:12 6:5 11:10 12:16 13:16 14:12 19:10 20:16 21:16 22:8 27:10 28:16 29:16 30:6 35:9 36:16 37:16 38:3 43:12 44:16 45:16 46:2 51:12 52:16 53:16 54:11 59:14 60:16 61:13 62:8 #
-0.1303086157850697202054135459548 3:12 4:16 5:12 6:16 7:3 11:14 12:14 13:8 14:8 15:1 19:7 20:15 21:1 27:1 28:14 29:11 36:6 37:16 38:1 45:12 46:11 50:2 51:7 52:6 53:14 54:13 59:12 60:16 61:16 62:6 #
-0.099242899615749155528554581451317 4:5 5:16 6:5 11:6 12:15 13:16 14:9 17:3 18:16 19:16 20:16 21:16 22:3 26:9 27:11 28:13 29:16 30:3 36:14 37:14 44:14 45:13 52:11 53:14 60:4 61:15 62:4 #
0.50000003576649798553432901826454 3:7 4:12 5:13 6:1 10:6 11:16 12:6 13:8 14:7 19:16 20:10 21:11 22:8 27:8 28:15 29:16 30:5 35:10 36:15 37:12 38:14 39:1 43:15 44:7 46:11 47:7 51:15 52:8 53:8 54:15 55:7 59:6 60:12 61:12 62:8 63:1 #
0.50000003576649798553432901826454 3:9 4:16 5:11 6:1 10:1 11:16 12:9 13:12 14:13 15:7 18:2 19:16 20:5 21:13 22:11 23:6 27:9 28:16 29:12 35:5 36:16 37:6 43:13 44:15 45:10 51:16 52:16 53:8 59:11 60:15 61:1 #
0.50000003576649798553432901826454 3:5 4:14 5:15 6:6 10:1 11:16 12:8 13:8 14:15 15:2 19:16 20:10 21:10 22:15 23:5 27:11 28:16 29:16 30:9 35:6 36:16 37:16 38:16 39:3 43:9 44:13 46:10 47:7 51:12 52:10 53:8 54:15 55:2 59:7 60:16 61:13 62:5 #
-0.1291905831037563623375774568558 3:6 4:16 5:13 6:11 7:5 11:1 12:8 13:10 14:16 15:15 21:1 22:14 23:13 29:7 30:16 31:5 34:3 35:4 36:1 37:12 38:16 42:12 43:16 44:16 45:16 46:13 47:2 51:3 52:14 53:15 59:6 60:16 61:7 #
-0.14455211538464948772819695932412 4:8 5:15 6:4 12:13 13:16 14:13 18:1 19:1 20:10 21:3 22:13 23:6 26:5 27:8 30:6 31:8 34:7 35:11 38:4 39:8 42:3 43:15 44:7 46:4 47:9 51:7 52:16 53:13 54:11 55:12 60:6 61:15 62:16 63:4 #
-0.1428066307870832496451640736268 4:10 5:16 6:10 11:9 12:16 13:12 14:8 18:1 19:15 20:13 21:1 26:2 27:16 28:5 34:2 35:16 36:8 42:2 43:16 44:16 45:9 50:1 51:12 52:16 53:16 54:3 60:12 61:16 62:7 #
